svm_type c_svc
kernel_type rbf
gamma 0.125
nr_class 2
total_sv 235
rho 0.482432
label 1 -1
nr_sv 82 153
SV
1.036460743584634 1:931 2:893 
1.305930066762028 1:933 2:897 
0.6896300395193672 1:929 2:896 
0.1931331227962843 1:928 2:896 
0.625865690449138 1:925 2:894 
0.3521859401123814 1:922 2:893 
0.7925393629964794 1:926 2:898 
0.3460000808982815 1:924 2:898 
0.1677435732079245 1:921 2:895 
0.642933846451428 1:923 2:897 
1.033025007078537 1:919 2:895 
0.004560349736300989 1:918 2:894 
0.4331733580977922 1:907 2:880 
0.9280876986479343 1:908 2:886 
0.1375588264553462 1:904 2:880 
0.7002962247654198 1:901 2:879 
0.09081916556775946 1:904 2:882 
0.09282736085409725 1:899 2:879 
1.186815888670695 1:903 2:886 
0.2372438261670538 1:905 2:879 
0.3272040240006066 1:908 2:882 
0.1166599520350898 1:907 2:883 
0.1173078189442384 1:907 2:885 
0.08054385191714479 1:904 2:881 
0.1314733357592895 1:903 2:881 
0.1589188383897602 1:903 2:882 
0.4412307225337355 1:905 2:883 
0.07829068889949087 1:898 2:878 
1.067268199091207 1:896 2:878 
0.963156561036428 1:900 2:883 
0.8638375452765961 1:897 2:881 
0.261789969103689 1:925 2:892 
0.7497595488914112 1:913 2:890 
0.8073111994288039 1:911 2:888 
1.090798075804387 1:915 2:893 
0.03227238815972346 1:923 2:889 
0.1356124505693493 1:922 2:892 
0.3308284179562319 1:920 2:891 
0.4908492263710702 1:918 2:891 
0.0799293402712019 1:917 2:889 
1.03351067504301 1:926 2:888 
0.2144273644412567 1:919 2:884 
0.6006299350400376 1:918 2:884 
0.3082108045837645 1:920 2:888 
0.18909473602871 1:916 2:889 
0.1806358088721011 1:915 2:885 
0.03945873590975075 1:915 2:887 
0.1386545331632867 1:912 2:885 
0.1367953116345301 1:909 2:882 
0.5475091767856205 1:921 2:884 
0.21158431443721 1:923 2:890 
0.06848767027134119 1:923 2:891 
0.3240694517872479 1:916 2:888 
0.08443083006956456 1:914 2:886 
0.1720175346800752 1:913 2:885 
0.1489548689586522 1:912 2:884 
0.02362444614546649 1:912 2:882 
0.5477478426597733 1:911 2:883 
0.8829202467516175 1:923 2:885 
0.8639332192334741 1:928 2:891 
0.2535388408189269 1:922 2:889 
0.1767951647632625 1:922 2:888 
0.1051134174823106 1:924 2:891 
0.1089243204970005 1:916 2:883 
0.04414827731413276 1:919 2:887 
0.215905750877716 1:918 2:887 
0.1582330698391211 1:919 2:888 
0.2471812896537277 1:915 2:886 
0.007942645024062023 1:913 2:884 
0.1091102179435036 1:914 2:885 
1.11519067243239 1:915 2:881 
1.078988260434384 1:911 2:879 
0.2778431419391377 1:908 2:877 
0.9366747990270488 1:907 2:876 
0.000809026693948528 1:903 2:875 
0.02385133868382767 1:908 2:881 
0.2322862313040616 1:904 2:878 
0.1867879845495036 1:901 2:874 
0.9155490883449209 1:903 2:875 
0.09443444340017597 1:902 2:878 
0.09621978286736327 1:900 2:876 
1.121616930681362 1:899 2:874 
-0.349798596899383 1:866 2:807 
-0.1023085537295671 1:867 2:808 
-0.4930603167374636 1:872 2:814 
-0.3496298823069344 1:868 2:811 
-0.3186948754869145 1:862 2:808 
-0.145146670211305 1:867 2:814 
-0.2490022107285864 1:864 2:811 
-0.1443752872970914 1:859 2:807 
-0.3569013789430392 1:857 2:806 
-0.04283486749996911 1:863 2:813 
-0.003499343338092195 1:864 2:814 
-0.03576079899090165 1:864 2:815 
-0.3660517012673238 1:866 2:816 
-0.05700340528001357 1:861 2:812 
-0.1808098713877197 1:860 2:811 
-0.2057009673634745 1:856 2:809 
-0.01205483301924908 1:863 2:815 
-0.03591805149488352 1:863 2:815 
-0.3873369464053877 1:861 2:815 
-0.302292272205598 1:857 2:811 
-0.4416768610213541 1:782 2:729 
-0.3820100299283023 1:779 2:731 
-0.3263710609160621 1:775 2:730 
-0.329448707013724 1:771 2:729 
-0.3390289159792961 1:774 2:733 
-0.2460526081179224 1:768 2:728 
-0.3725904391690205 1:765 2:725 
-0.02601548315713387 1:766 2:727 
-0.144921345217505 1:771 2:733 
-0.1678667102413172 1:762 2:725 
-0.3058982340217925 1:769 2:733 
-0.1397756548436665 1:766 2:730 
-0.1021861859212167 1:760 2:726 
-0.1523489827956616 1:767 2:731 
-0.3343074770195453 1:763 2:729 
-0.1444684377127919 1:761 2:727 
-0.4433728068468634 1:758 2:724 
-0.0007219062287165956 1:643 2:592 
-0.001356661953172674 1:644 2:596 
-0.001314788815952095 1:644 2:598 
-0.002109550587906951 1:643 2:603 
-0.380629553657403 1:645 2:591 
-0.1306740157964258 1:643 2:592 
-0.2736657680447868 1:643 2:594 
-0.316976486378218 1:646 2:596 
-0.003057733265613205 1:644 2:596 
-0.1167178774918287 1:646 2:598 
-0.3017007865325858 1:650 2:603 
-0.2484733546726939 1:648 2:601 
-0.05542356445695683 1:644 2:598 
-0.1578588307661918 1:645 2:600 
-0.2790610423880508 1:648 2:605 
-0.1514219237826208 1:646 2:604 
-0.3823634992027235 1:643 2:603 
-0.4282839884245626 1:641 2:599 
-0.008933034217253496 1:642 2:601 
-0.509532066962861 1:425 2:386 
-0.4364218505385327 1:429 2:390 
-0.1916317914092633 1:430 2:393 
-0.2037976680596271 1:431 2:394 
-0.1717453558052874 1:432 2:396 
-0.3086176138576447 1:432 2:398 
-0.3789776272383155 1:434 2:401 
-0.1149413253335817 1:436 2:403 
-0.2709253980670845 1:437 2:404 
-0.351293089435897 1:436 2:407 
-0.1878048589812606 1:439 2:408 
-0.3817426328010635 1:440 2:410 
-0.297000116353645 1:443 2:414 
-0.04831422509549518 1:442 2:414 
-0.2788953137969687 1:442 2:416 
-0.4518473904133128 1:445 2:419 
-0.3145683421000438 1:447 2:423 
-0.3052573972626965 1:449 2:424 
-0.3074621882355679 1:452 2:427 
-0.3129605248215696 1:451 2:429 
-0.2039359488628273 1:454 2:432 
-0.2119014323030681 1:455 2:432 
-0.003284803252742304 1:455 2:435 
-0.1520304868156974 1:456 2:435 
-0.1860916563245137 1:455 2:435 
-0.3292492721750385 1:457 2:438 
-0.09697088326015341 1:458 2:440 
-0.259945028859723 1:459 2:441 
-0.1282230438209675 1:460 2:443 
-0.2284872106832003 1:461 2:444 
-0.4087816114083047 1:461 2:447 
-0.3993041406919882 1:465 2:450 
-0.2503888111957644 1:467 2:452 
-0.08762825219848495 1:468 2:454 
-0.1130535281225302 1:467 2:455 
-0.3041154712397975 1:468 2:456 
-0.0008404506840222203 1:471 2:459 
-0.3780262418255925 1:471 2:459 
-0.1493623461394895 1:472 2:461 
-0.2776044406436802 1:473 2:463 
-0.3461467885662964 1:475 2:465 
-0.2964418154933914 1:477 2:468 
-0.2692330492742687 1:478 2:470 
-0.1180358349933412 1:480 2:472 
-0.2963539006906131 1:481 2:474 
-0.2402133881436017 1:479 2:474 
-0.06331828977748701 1:666 2:700 
-0.1388810521413575 1:663 2:696 
-0.33196398693283 1:664 2:699 
-0.3380166873740508 1:664 2:695 
-0.2305645196937296 1:668 2:701 
-0.001450763448059778 1:666 2:697 
-0.0006616979121378819 1:672 2:703 
-0.0305837797656442 1:666 2:697 
-0.1271046947667657 1:670 2:700 
-0.08177093262774091 1:671 2:701 
-0.2862669831013002 1:668 2:698 
-0.4271734664723593 1:672 2:703 
-0.3524635137384573 1:772 2:780 
-0.2703638196946535 1:776 2:783 
-0.2140676289746501 1:777 2:785 
-0.1423085789453182 1:776 2:786 
-0.02503145245996426 1:769 2:779 
-0.003343192072567198 1:772 2:784 
-0.3258302773811078 1:773 2:786 
-0.06902582429742188 1:773 2:782 
-0.4045411892207113 1:767 2:778 
-0.1321030324264168 1:772 2:784 
-0.06939886585746508 1:768 2:778 
-0.3559408497423825 1:769 2:782 
-0.2886896291830658 1:791 2:791 
-0.0009537880629366081 1:789 2:789 
-0.3380175269865748 1:789 2:789 
-0.1937948125869253 1:793 2:794 
-0.3380995291774354 1:793 2:796 
-0.09739259426251159 1:786 2:789 
-0.001176867822489353 1:790 2:795 
-0.1595136691147165 1:790 2:795 
-0.3012907757376663 1:788 2:794 
-0.2404043807031931 1:783 2:789 
-0.2236890291733746 1:784 2:788 
-0.3361125831224533 1:785 2:792 
-0.2439954963093164 1:861 2:838 
-0.1850936302364841 1:858 2:836 
-0.2311935741208567 1:860 2:836 
-0.4135812209799724 1:864 2:842 
-0.1640169385645674 1:861 2:841 
-0.0713962958062412 1:862 2:842 
-0.02646012318535901 1:855 2:836 
-0.3590872245659453 1:854 2:835 
-0.1405360210324705 1:857 2:838 
-0.0007482578693500925 1:858 2:842 
-0.1899847490979743 1:858 2:842 
-0.2083617765778909 1:855 2:840 
-0.2173347235333385 1:857 2:842 
-0.3798164162855828 1:852 2:839 
-0.4361460639848905 1:850 2:835 
