svm_type c_svc
kernel_type rbf
gamma 0.25
nr_class 2
total_sv 350
rho 0.420554
label 1 -1
nr_sv 140 210
SV
1.131937751591058 1:931 2:893 
0.498871138467853 1:928 2:892 
0.5801886818047253 1:932 2:896 
1.04761048058666 1:933 2:897 
0.4736459342377895 1:929 2:894 
0.8800043046648077 1:929 2:896 
0.1585568708089 1:926 2:896 
0.3885608275953615 1:927 2:896 
0.6842385328517945 1:925 2:894 
0.1417295887978774 1:927 2:897 
0.5262420034965059 1:922 2:893 
0.3499427460906895 1:924 2:895 
0.8340007175040315 1:926 2:898 
0.1123694517085679 1:923 2:896 
0.581864324257919 1:924 2:898 
0.7184872109444238 1:921 2:895 
0.6524353611021158 1:923 2:897 
0.7562017844437954 1:919 2:895 
0.420225887369862 1:918 2:894 
0.2837747329316813 1:907 2:880 
0.1336924968250698 1:906 2:882 
0.9537712530036616 1:908 2:886 
0.3815410693472631 1:904 2:880 
0.3871359643171055 1:901 2:879 
0.2499093316840206 1:904 2:882 
0.3319445611842028 1:899 2:879 
1.127958092891491 1:903 2:886 
0.556957898940588 1:902 2:884 
0.1795697787120723 1:905 2:878 
0.3122477417617901 1:909 2:884 
0.1639234664404846 1:907 2:882 
0.2616054249803552 1:907 2:883 
0.04868888208413197 1:905 2:882 
0.3086627057540305 1:907 2:885 
0.1707419668035977 1:905 2:881 
0.07612384690719703 1:903 2:883 
0.7349140745100211 1:905 2:884 
0.01450007978917377 1:901 2:881 
0.2281077160950107 1:903 2:882 
0.5105625875162716 1:902 2:881 
0.5281017670623011 1:898 2:878 
0.3686854506858604 1:900 2:880 
1.101295110952558 1:896 2:878 
0.824198997123469 1:900 2:883 
0.3744419034337681 1:899 2:882 
1.068367763004455 1:897 2:881 
0.573516189237592 1:925 2:892 
0.4888932878320574 1:919 2:892 
0.8149324181142793 1:913 2:890 
0.9692376993227613 1:911 2:888 
0.3726212625370067 1:914 2:891 
0.3074768158129435 1:917 2:893 
1.035419357150213 1:915 2:893 
0.00183885778166597 1:925 2:890 
0.1604502631774886 1:920 2:891 
0.06493043644530359 1:919 2:890 
0.2628622575806646 1:921 2:892 
0.0825883915526222 1:918 2:891 
0.3403963355801048 1:914 2:887 
0.354827070027173 1:917 2:891 
0.2441756526758954 1:914 2:888 
0.1216278201574626 1:913 2:887 
0.3668941835245143 1:916 2:890 
0.4678148562256769 1:911 2:886 
1.024557457433535 1:926 2:888 
0.4528878301751547 1:919 2:884 
0.5063212935451229 1:918 2:884 
0.136416500466144 1:916 2:885 
0.1155549614313133 1:916 2:889 
0.1436284103740978 1:915 2:885 
0.07375660007925297 1:915 2:889 
0.1241186073227226 1:912 2:885 
0.1993800466233888 1:910 2:883 
0.1531858530322654 1:909 2:882 
0.8100003702088433 1:921 2:884 
0.3691364233788706 1:923 2:887 
0.2654085871307921 1:922 2:890 
0.1106275610482967 1:923 2:891 
0.2269661618276433 1:923 2:892 
0.09421742733323285 1:921 2:891 
0.02819949875274936 1:921 2:890 
0.369207529286498 1:916 2:888 
0.1715624467613177 1:914 2:886 
0.1852350292288149 1:913 2:885 
0.1658109527069653 1:911 2:881 
0.5798344193277463 1:912 2:882 
0.1224025792179899 1:910 2:882 
0.4033553604093085 1:911 2:884 
0.9289874140286797 1:923 2:885 
0.09034618576624474 1:926 2:891 
0.4433293673945679 1:927 2:890 
0.2636895415366319 1:924 2:888 
0.5416853720078498 1:928 2:891 
0.1238737550801746 1:923 2:888 
0.5008927998903073 1:924 2:890 
0.2865130521091943 1:921 2:887 
0.1782491594133392 1:922 2:889 
0.06115220933759902 1:920 2:886 
0.3605666790933291 1:920 2:887 
0.04005224101079018 1:921 2:888 
0.03439747887674381 1:922 2:888 
0.0022959775115552 1:924 2:891 
0.65697214781471 1:916 2:883 
0.1630662929806141 1:919 2:886 
0.1877772975059059 1:921 2:889 
0.382177526436862 1:918 2:887 
0.09038345534443371 1:920 2:889 
0.04268477938747949 1:918 2:888 
0.1334973098646469 1:920 2:890 
0.2534990673481002 1:919 2:889 
0.3133831017187531 1:916 2:886 
0.345476894823039 1:914 2:884 
0.2123968797322362 1:913 2:884 
0.197501446608455 1:917 2:886 
0.2459214337232322 1:918 2:889 
0.03232056295325487 1:917 2:888 
0.06788695127444636 1:918 2:890 
0.8329560388026834 1:915 2:881 
1.06397033821987 1:911 2:879 
0.7369066294165848 1:908 2:877 
0.3512737696664089 1:914 2:881 
0.05896913818696009 1:913 2:882 
0.271813082527801 1:909 2:879 
0.2820111983669393 1:907 2:876 
0.7289393356851592 1:906 2:876 
0.2129051829780144 1:908 2:879 
0.327126534684006 1:909 2:881 
0.1294432181178232 1:908 2:881 
0.4508789939301001 1:904 2:878 
0.567484441904782 1:901 2:874 
0.3697757068551925 1:906 2:879 
0.1663529202557655 1:908 2:883 
0.9566903302671579 1:903 2:875 
0.1856462041611376 1:906 2:881 
0.05883462400387796 1:903 2:877 
0.3345529407170939 1:902 2:878 
0.6187689132901649 1:900 2:876 
0.07783427419073503 1:903 2:879 
0.2540863643944575 1:902 2:877 
1.006667425183862 1:899 2:874 
-0.30432583425784 1:866 2:807 
-0.2812247336615581 1:867 2:808 
-0.01060526970564445 1:865 2:809 
-0.5777626810733821 1:872 2:814 
-0.4228650844347306 1:868 2:811 
-0.1453606504780698 1:866 2:810 
-0.2648547977951449 1:864 2:808 
-0.3300598550818965 1:862 2:808 
-0.1538812977718582 1:866 2:812 
-0.3174571906010793 1:867 2:814 
-0.04053052414624898 1:867 2:813 
-0.3017457803671782 1:864 2:811 
-0.1006301760956128 1:861 2:809 
-0.3578069094111256 1:859 2:807 
-0.1528975125822884 1:860 2:810 
-0.4371914638115977 1:857 2:806 
-0.1544588454117301 1:862 2:811 
-0.118529606869801 1:863 2:813 
-0.1042868029635452 1:864 2:814 
-0.1626009042084927 1:864 2:815 
-0.4091549187798877 1:866 2:816 
-0.1277156081191519 1:861 2:812 
-0.223107472909269 1:859 2:811 
-0.393093307281647 1:856 2:809 
-0.07177028755908786 1:858 2:809 
-0.1465580945191479 1:861 2:813 
-0.1191232331027066 1:863 2:815 
-0.4209152781537483 1:861 2:815 
-0.3447727834408715 1:857 2:811 
-0.5580841623039853 1:782 2:729 
-0.5500746548629754 1:779 2:731 
-0.507129413880085 1:775 2:730 
-0.4170779884449353 1:771 2:729 
-0.4706729119993387 1:774 2:733 
-0.2340842934476734 1:772 2:731 
-0.3627115846404065 1:768 2:728 
-0.3892768284689007 1:765 2:725 
-0.2275488304773278 1:766 2:727 
-0.3192696396220152 1:771 2:733 
-0.1618125243126662 1:769 2:730 
-0.2072791761628141 1:763 2:725 
-0.04801983690199187 1:765 2:727 
-0.141957705227209 1:762 2:725 
-0.3144737543363716 1:769 2:733 
-0.09509537587763461 1:761 2:725 
-0.1407729064075811 1:768 2:732 
-0.2147491400513906 1:766 2:730 
-0.2156870619310839 1:760 2:726 
-0.2144280190165762 1:767 2:731 
-0.1386190771983325 1:765 2:729 
-0.021020459055111 1:764 2:728 
-0.02906680407927494 1:760 2:725 
-0.3500669924797483 1:763 2:729 
-0.1570756315620506 1:762 2:728 
-0.1763696922066716 1:761 2:727 
-0.03991860197491558 1:759 2:725 
-0.5055343297597505 1:758 2:724 
-0.0009414460107423874 1:643 2:592 
-0.002898289244349865 1:644 2:595 
-0.0008925739910009958 1:646 2:598 
-0.0006805201591491866 1:644 2:598 
-0.4752208298788435 1:645 2:591 
-0.3107671653898082 1:643 2:592 
-0.3284265611202927 1:643 2:594 
-0.3596354849629194 1:646 2:596 
-0.09209841678420271 1:644 2:595 
-0.1477703971061626 1:644 2:596 
-0.2432138563070808 1:646 2:598 
-0.4582266106769503 1:650 2:603 
-0.4250081359547231 1:648 2:601 
-0.2264275980334446 1:644 2:598 
-0.2235471345753695 1:645 2:600 
-0.002075276245313756 1:648 2:605 
-0.04499854192163014 1:647 2:602 
-0.005932446680760192 1:644 2:600 
-0.06957760447220959 1:644 2:600 
-0.4037947659784888 1:648 2:605 
-0.1759013770440199 1:645 2:602 
-0.0005300207479522655 1:645 2:603 
-0.3394880203460678 1:646 2:604 
-0.4053517040746704 1:643 2:603 
-0.4701129868835039 1:641 2:599 
-0.2643938097502819 1:642 2:601 
-0.5790283105446145 1:425 2:386 
-0.5472980694718967 1:429 2:390 
-0.3698510132307814 1:430 2:393 
-0.2494932256682188 1:431 2:394 
-0.3345889776614187 1:432 2:396 
-0.4324682688619216 1:432 2:398 
-0.5202654603228591 1:434 2:401 
-0.2822991181996669 1:436 2:403 
-0.3577380899285906 1:437 2:404 
-0.5106909721274222 1:436 2:407 
-0.4027111588088866 1:439 2:408 
-0.4615313899283902 1:440 2:410 
-0.328867024456923 1:443 2:414 
-0.1663596986670474 1:442 2:414 
-0.417979412595575 1:442 2:416 
-0.571476658141818 1:445 2:419 
-0.4481975635421578 1:447 2:423 
-0.4459077979027218 1:449 2:424 
-0.4462164149269842 1:452 2:427 
-0.4470817872724517 1:451 2:429 
-0.3326300713089011 1:454 2:432 
-0.2662222649307942 1:455 2:432 
-0.2854784973649409 1:456 2:435 
-0.283622702953107 1:455 2:435 
-0.4656240884424838 1:457 2:438 
-0.2314660811423382 1:458 2:440 
-0.3362116244060431 1:459 2:441 
-0.2484748092392821 1:460 2:443 
-0.3589792470374358 1:461 2:444 
-0.5370692519782861 1:461 2:447 
-0.4918770930623223 1:465 2:450 
-0.3022408453531614 1:467 2:452 
-0.1564293573009289 1:466 2:452 
-0.2319270529714656 1:468 2:454 
-0.1583281149985306 1:467 2:455 
-0.387859618767605 1:468 2:456 
-0.4799221265935116 1:471 2:459 
-0.3217036060879586 1:472 2:461 
-0.4160122322689856 1:473 2:463 
-0.5052806671401879 1:475 2:465 
-0.4495378055717343 1:477 2:468 
-0.3814319100849703 1:478 2:470 
-0.2409989169946381 1:480 2:472 
-0.108912793229734 1:479 2:472 
-0.3744922554147799 1:481 2:474 
-0.3270852680952691 1:479 2:474 
-0.2818687610925065 1:666 2:700 
-0.3142234358000954 1:663 2:696 
-0.415915602591503 1:664 2:699 
-0.3360146340375358 1:664 2:695 
-0.005546082888311614 1:670 2:702 
-0.3025296667243205 1:668 2:701 
-0.001208847462521923 1:666 2:697 
-0.3240318172575419 1:666 2:697 
-0.2110863345645717 1:670 2:700 
-0.1690650265832644 1:670 2:702 
-0.1334782186478666 1:671 2:701 
-0.06482535402183168 1:672 2:702 
-0.1030039279921939 1:669 2:699 
-0.3160579245525571 1:668 2:698 
-0.4302397073942021 1:672 2:703 
-0.4129475631790925 1:772 2:780 
-0.3841249619837764 1:776 2:783 
-0.006403942935823999 1:774 2:783 
-0.03648237058907071 1:771 2:780 
-0.2920764200362266 1:777 2:785 
-0.2127866277849494 1:776 2:786 
-0.1371922082353427 1:774 2:783 
-0.2631163090055219 1:769 2:779 
-0.00191625435525908 1:772 2:784 
-0.126820142482862 1:775 2:786 
-0.3987358147144426 1:773 2:786 
-0.1972204950407453 1:773 2:782 
-0.0972671255482969 1:771 2:782 
-0.4582339758309399 1:767 2:778 
-0.1492446393067836 1:768 2:780 
-0.300968827577289 1:772 2:784 
-0.433412157472219 1:769 2:782 
-0.3444765765593434 1:791 2:791 
-0.1227795731954112 1:791 2:792 
-0.005888602053402581 1:789 2:789 
-0.4428075123021201 1:789 2:789 
-0.3576126847087786 1:793 2:794 
-0.4131708394415818 1:793 2:796 
-0.01334399313646181 1:791 2:794 
-0.1633263718480684 1:789 2:792 
-0.003126566478941499 1:790 2:793 
-0.3144364603622437 1:786 2:789 
-0.008925565941266533 1:790 2:793 
-0.01702891621274974 1:787 2:791 
-0.02284583311768668 1:787 2:790 
-0.006641244969953006 1:790 2:795 
-0.3815182399797776 1:790 2:795 
-0.1272487747839237 1:787 2:791 
-0.2822784351440655 1:788 2:794 
-0.3441257363146366 1:783 2:789 
-0.2525380634778612 1:784 2:788 
-0.4172039165656108 1:785 2:792 
-0.1575369871375894 1:787 2:793 
-0.05142153366396406 1:784 2:790 
-0.3355146323856503 1:861 2:838 
-0.3265092623717856 1:858 2:836 
-0.335145610056247 1:860 2:836 
-0.0007708871012585827 1:864 2:842 
-0.1430964436749384 1:861 2:840 
-0.4705516511142653 1:864 2:842 
-0.19785259051906 1:861 2:841 
-0.2323884780667447 1:862 2:842 
-0.02952847798023386 1:859 2:839 
-0.1159129045970196 1:858 2:839 
-0.1216807491253659 1:859 2:839 
-0.2632064002079665 1:855 2:836 
-0.03084678865640473 1:857 2:839 
-0.009159581592788749 1:857 2:838 
-0.1614245281376242 1:853 2:835 
-0.2056117474257305 1:854 2:835 
-0.01482778000950115 1:857 2:840 
-0.18347346685006 1:857 2:838 
-0.0148456472736806 1:857 2:839 
-0.2996626298032008 1:858 2:842 
-0.002659224226232862 1:854 2:838 
-0.3821178744838432 1:855 2:840 
-0.2603355615444269 1:857 2:842 
-0.168291807513525 1:854 2:838 
-0.470039884353282 1:852 2:839 
-0.1773960047127317 1:852 2:836 
-0.5035545017923004 1:850 2:835 
