svm_type c_svc
kernel_type rbf
gamma 0.125
nr_class 2
total_sv 251
rho 0.487484
label 1 -1
nr_sv 94 157
SV
1 1:931 2:893 
0.1618326993299609 1:932 2:896 
1 1:933 2:897 
0.6839779247419527 1:929 2:896 
0.1938825857923804 1:928 2:896 
0.6332232281636112 1:925 2:894 
0.3390840805279348 1:922 2:893 
0.796767578254406 1:926 2:898 
0.0821283332189751 1:917 2:890 
0.3472535794913186 1:924 2:898 
0.1818041725434502 1:921 2:895 
0.6423326273879907 1:923 2:897 
1 1:919 2:895 
0.0500186356026222 1:918 2:894 
0.009013935521960469 1:910 2:879 
0.4184144121351378 1:907 2:880 
0.01342896647984246 1:906 2:882 
0.979126580760295 1:908 2:886 
0.139496746728841 1:904 2:880 
0.7487313322297587 1:901 2:879 
0.3350810115703527 1:904 2:882 
0.02384806936760877 1:899 2:879 
1 1:903 2:886 
0.01690547169864452 1:902 2:884 
0.2045263051299391 1:905 2:879 
0.1302107824509 1:908 2:882 
0.07660158858632848 1:907 2:882 
0.02881909394019302 1:905 2:880 
0.2087863925002692 1:907 2:883 
0.0004682847673676949 1:907 2:885 
0.04450054045381693 1:904 2:881 
0.08636160043263302 1:903 2:881 
0.3553405017035525 1:905 2:884 
0.1062977150674278 1:903 2:882 
0.1670216232231004 1:898 2:878 
1 1:896 2:878 
0.9790259551738798 1:900 2:883 
0.8820395743042803 1:897 2:881 
0.2427977853782214 1:925 2:892 
0.01918345620272661 1:916 2:893 
0.7726317960279926 1:913 2:890 
0.797874647486265 1:911 2:888 
1 1:915 2:893 
0.07437914971812423 1:923 2:889 
0.1566782470351914 1:922 2:892 
0.3351616373018155 1:920 2:891 
0.4572207832693783 1:918 2:891 
0.01854911937922476 1:917 2:889 
1 1:926 2:888 
0.2648474406694828 1:919 2:884 
0.5306096781840728 1:918 2:884 
0.3408149459553294 1:920 2:888 
0.1879027043919276 1:916 2:889 
0.04919310827810786 1:915 2:885 
0.001978682605056098 1:915 2:887 
0.1099572034803238 1:912 2:885 
0.04211142416830618 1:910 2:883 
0.2317329474812831 1:909 2:882 
0.5380852913686089 1:921 2:884 
0.1812477960067427 1:923 2:890 
0.04238652251594887 1:923 2:891 
0.3248898119904821 1:916 2:888 
0.0559678467323102 1:914 2:886 
0.21086065350731 1:913 2:885 
0.1441215023800404 1:912 2:884 
0.1210097774482961 1:912 2:882 
0.3739316427987167 1:911 2:883 
0.07584201603602772 1:911 2:884 
0.8933794107510639 1:923 2:885 
0.8820588165614871 1:928 2:891 
0.008185377281626108 1:923 2:888 
0.2522390881762925 1:922 2:889 
0.1474918444792332 1:922 2:888 
0.1463443762066408 1:924 2:891 
0.209215675746314 1:916 2:883 
0.01321269255166449 1:919 2:887 
0.2607954804947004 1:918 2:887 
0.1444190924842024 1:919 2:888 
0.3747323216209892 1:915 2:886 
0.1344837798505496 1:914 2:885 
1 1:915 2:881 
1 1:911 2:879 
0.3063884216513648 1:908 2:877 
0.03442979361036004 1:914 2:881 
0.9223621313296201 1:907 2:876 
0.003851398934153961 1:903 2:875 
0.07056650109038184 1:908 2:881 
0.2552935143034699 1:904 2:878 
0.1930877499588072 1:901 2:874 
0.9177534421950406 1:903 2:875 
0.126861246616168 1:899 2:874 
0.0736336211848299 1:902 2:878 
0.07891254160921796 1:900 2:876 
1 1:899 2:874 
-0.34485332800856 1:866 2:807 
-0.1024423499282319 1:867 2:808 
-0.4884674850825173 1:872 2:814 
-0.3458159085638293 1:868 2:811 
-0.3165413143088292 1:862 2:808 
-0.1427275736551643 1:867 2:814 
-0.001460710740861785 1:864 2:811 
-0.245607730946364 1:864 2:811 
-0.1427242759549454 1:859 2:807 
-0.3538534543457593 1:857 2:806 
-0.03566306346258369 1:863 2:813 
-0.01165976644847071 1:864 2:814 
-0.03167435593771522 1:864 2:815 
-0.3627227151644917 1:866 2:816 
-0.0607123901660591 1:861 2:812 
-0.1758166885220606 1:860 2:811 
-0.2034349952492134 1:856 2:809 
-0.005347665805871634 1:863 2:815 
-0.04232496923264462 1:863 2:815 
-0.3836477833856473 1:861 2:815 
-0.3000051784728341 1:857 2:811 
-0.4373488682921088 1:782 2:729 
-0.3788548720339594 1:779 2:731 
-0.3235912320499548 1:775 2:730 
-0.3258452443121214 1:771 2:729 
-0.3355363294369855 1:774 2:733 
-0.244297780019843 1:768 2:728 
-0.3674059802684549 1:765 2:725 
-0.0267476228333213 1:766 2:727 
-0.1438720953864883 1:771 2:733 
-0.1671930991820869 1:762 2:725 
-0.3017079359839092 1:769 2:733 
-0.006032004911638857 1:767 2:731 
-0.1356612593859751 1:766 2:730 
-0.1026470145051178 1:760 2:726 
-0.1476508355923166 1:767 2:731 
-0.3318913350575255 1:763 2:729 
-0.001707011678216817 1:761 2:727 
-0.1393335446616019 1:761 2:727 
-0.4383806688895948 1:758 2:724 
-0.0009073681614646112 1:643 2:592 
-0.001619766749124151 1:644 2:596 
-0.004697992245199891 1:646 2:598 
-0.0007858578938574166 1:650 2:603 
-0.00119968050781713 1:648 2:605 
-0.002053691855000862 1:641 2:599 
-0.002311215412403517 1:643 2:603 
-0.3766159704773538 1:645 2:591 
-0.1294674682365278 1:643 2:592 
-0.2720214864115456 1:643 2:594 
-0.3159603593136684 1:646 2:596 
-0.1082422266957684 1:646 2:598 
-0.2970619573120963 1:650 2:603 
-0.2477085113793136 1:648 2:601 
-0.05923600540834422 1:644 2:598 
-0.1555626412236475 1:645 2:600 
-0.2756870046788789 1:648 2:605 
-0.1492945760048402 1:646 2:604 
-0.3785935896353334 1:643 2:603 
-0.4218576009023899 1:641 2:599 
-0.008571397789328399 1:642 2:601 
-0.5042012200066284 1:425 2:386 
-0.4317946810426435 1:429 2:390 
-0.1895351652936548 1:430 2:393 
-0.2025582414412508 1:431 2:394 
-0.1691189380422641 1:432 2:396 
-0.3062825810244981 1:432 2:398 
-0.3739556234216232 1:434 2:401 
-0.1165570055192452 1:436 2:403 
-0.2659178361607379 1:437 2:404 
-0.3479283327011039 1:436 2:407 
-0.1862989151636492 1:439 2:408 
-0.3781509115771452 1:440 2:410 
-0.2934771823363526 1:443 2:414 
-0.04763537956781743 1:442 2:414 
-0.2768543001271963 1:442 2:416 
-0.4473981874482892 1:445 2:419 
-0.3114927627789433 1:447 2:423 
-0.3025245783782299 1:449 2:424 
-0.3044073286945734 1:452 2:427 
-0.3100780513358682 1:451 2:429 
-0.2017952165202563 1:454 2:432 
-0.2099214338316716 1:455 2:432 
-0.005983233962460707 1:455 2:435 
-0.1498023428802105 1:456 2:435 
-0.1819573250032861 1:455 2:435 
-0.326465816731221 1:457 2:438 
-0.09432303982428555 1:458 2:440 
-0.2592192007725858 1:459 2:441 
-0.1253099087081965 1:460 2:443 
-0.2269194710886852 1:461 2:444 
-0.4046735733699506 1:461 2:447 
-0.3957790029122609 1:465 2:450 
-0.2462438755790728 1:467 2:452 
-0.08833670492773103 1:468 2:454 
-0.00059858357219289 1:468 2:456 
-0.1134859858431341 1:467 2:455 
-0.2988734074062906 1:468 2:456 
-0.3756308835733728 1:471 2:459 
-0.1474474062166838 1:472 2:461 
-0.2746847504912804 1:473 2:463 
-0.3426172033371978 1:475 2:465 
-0.2946376675113999 1:477 2:468 
-0.2651760332023794 1:478 2:470 
-0.118359079760766 1:480 2:472 
-0.2918173252656848 1:481 2:474 
-0.2386710133937978 1:479 2:474 
-0.06372627372645215 1:666 2:700 
-0.1377834396669109 1:663 2:696 
-0.3280264168109381 1:664 2:699 
-0.3343065623527441 1:664 2:695 
-0.2269352721171479 1:668 2:701 
-0.001632692422676911 1:666 2:697 
-0.001164192159598787 1:671 2:701 
-0.03084212087034297 1:666 2:697 
-0.1310351117529605 1:670 2:700 
-0.07460297193188978 1:671 2:701 
-0.2818877432216439 1:668 2:698 
-0.4260413602509669 1:672 2:703 
-0.3497243776421654 1:772 2:780 
-0.2674582991678917 1:776 2:783 
-0.2113117425663833 1:777 2:785 
-0.1415790989162047 1:776 2:786 
-0.02492970624757073 1:769 2:779 
-0.002443865020866457 1:772 2:784 
-0.322175798597933 1:773 2:786 
-0.06783045956548286 1:773 2:782 
-0.3990906473814791 1:767 2:778 
-0.1319620623018003 1:772 2:784 
-0.0697062967214683 1:768 2:778 
-0.3525810639293265 1:769 2:782 
-0.2860517900050198 1:791 2:791 
-0.001053317758040045 1:789 2:789 
-0.3345894812665146 1:789 2:789 
-0.1916298462758587 1:793 2:794 
-0.3351877841575558 1:793 2:796 
-0.09560283279796844 1:786 2:789 
-0.1596764888219214 1:790 2:795 
-0.2974887213931756 1:788 2:794 
-0.2370267276202585 1:783 2:789 
-0.2233864428691267 1:784 2:788 
-0.333383551937056 1:785 2:792 
-0.2414121161736414 1:861 2:838 
-0.1829632703792085 1:858 2:836 
-0.2293200354758459 1:860 2:836 
-0.4095854537341762 1:864 2:842 
-0.1627002877431827 1:861 2:841 
-0.07018192862380689 1:862 2:842 
-0.02678264677997872 1:855 2:836 
-0.3555619227694545 1:854 2:835 
-0.1399821847823581 1:857 2:838 
-0.004220597973497307 1:858 2:842 
-0.1845358419959317 1:858 2:842 
-0.2056752037260382 1:855 2:840 
-0.2151143853668046 1:857 2:842 
-0.3766719918987624 1:852 2:839 
-0.4318939241926467 1:850 2:835 
