svm_type c_svc
kernel_type rbf
gamma 0.125
nr_class 2
total_sv 457
rho 0.461106
label 1 -1
nr_sv 227 230
SV
0.125 1:932 2:896 
0.125 1:931 2:893 
0.125 1:927 2:890 
0.125 1:928 2:892 
0.125 1:932 2:896 
0.125 1:933 2:897 
0.125 1:929 2:894 
0.125 1:930 2:894 
0.02811956126937534 1:926 2:891 
0.125 1:929 2:896 
0.125 1:929 2:896 
0.125 1:929 2:896 
0.125 1:925 2:894 
0.01335199581175974 1:922 2:891 
0.09697444695122054 1:924 2:894 
0.125 1:928 2:896 
0.125 1:925 2:894 
0.125 1:926 2:896 
0.125 1:927 2:896 
0.125 1:925 2:894 
0.06368202699891864 1:922 2:892 
0.125 1:927 2:897 
0.125 1:926 2:897 
0.125 1:921 2:894 
0.125 1:923 2:896 
0.125 1:926 2:898 
0.125 1:924 2:896 
0.125 1:925 2:897 
0.125 1:923 2:896 
0.07614278494464033 1:917 2:890 
0.125 1:921 2:894 
0.125 1:919 2:894 
0.125 1:923 2:897 
0.125 1:924 2:898 
0.125 1:921 2:895 
0.125 1:923 2:897 
0.125 1:919 2:894 
0.125 1:919 2:895 
0.125 1:918 2:894 
0.125 1:916 2:893 
0.125 1:917 2:893 
0.125 1:910 2:879 
0.125 1:907 2:878 
0.125 1:905 2:878 
0.1003145080768282 1:908 2:879 
0.1071928216344661 1:908 2:882 
0.125 1:904 2:880 
0.125 1:908 2:886 
0.125 1:908 2:885 
0.125 1:905 2:883 
0.125 1:904 2:880 
0.125 1:902 2:883 
0.125 1:907 2:885 
0.125 1:901 2:879 
0.125 1:901 2:880 
0.08440846770530035 1:898 2:878 
0.125 1:903 2:886 
0.125 1:903 2:884 
0.125 1:897 2:878 
0.125 1:899 2:882 
0.125 1:902 2:884 
0.125 1:902 2:883 
0.125 1:898 2:881 
0.125 1:905 2:878 
0.125 1:908 2:882 
0.076845901755267 1:909 2:884 
0.04506499389123547 1:907 2:882 
0.07363413386418517 1:905 2:880 
0.125 1:907 2:885 
0.125 1:908 2:884 
0.02135950261766478 1:905 2:881 
0.08452063757527833 1:904 2:881 
0.125 1:907 2:884 
0.03208900183484051 1:903 2:883 
0.125 1:905 2:884 
0.125 1:904 2:884 
0.125 1:905 2:883 
0.125 1:901 2:880 
0.125 1:902 2:883 
0.06446224941349769 1:897 2:879 
0.125 1:898 2:878 
0.125 1:897 2:878 
0.125 1:897 2:878 
0.125 1:897 2:879 
0.125 1:897 2:879 
0.004959672685233616 1:900 2:880 
0.125 1:896 2:878 
0.1240502953736315 1:897 2:879 
0.125 1:900 2:882 
0.125 1:897 2:878 
0.125 1:900 2:882 
0.125 1:900 2:883 
0.125 1:900 2:883 
0.125 1:899 2:882 
0.125 1:897 2:881 
0.125 1:925 2:892 
0.125 1:926 2:891 
0.125 1:917 2:888 
0.125 1:919 2:890 
0.08171967716697978 1:913 2:889 
0.125 1:919 2:894 
0.125 1:920 2:894 
0.1229078262198867 1:915 2:890 
0.125 1:911 2:888 
0.125 1:911 2:887 
0.125 1:912 2:888 
0.125 1:915 2:890 
0.125 1:917 2:893 
0.125 1:916 2:893 
0.125 1:913 2:890 
0.125 1:909 2:885 
0.125 1:911 2:888 
0.125 1:914 2:891 
0.125 1:917 2:893 
0.125 1:915 2:893 
0.125 1:914 2:890 
0.125 1:914 2:890 
0.125 1:917 2:885 
0.125 1:922 2:892 
0.0010139397715192 1:920 2:891 
0.02133914389191873 1:919 2:890 
0.125 1:920 2:890 
0.125 1:912 2:885 
0.0517476391278912 1:917 2:891 
0.125 1:912 2:888 
0.125 1:912 2:888 
0.1181269067381603 1:913 2:889 
0.125 1:911 2:886 
0.125 1:924 2:888 
0.125 1:927 2:890 
0.125 1:926 2:888 
0.125 1:927 2:890 
0.125 1:923 2:887 
0.125 1:919 2:884 
0.125 1:918 2:884 
0.125 1:921 2:885 
0.125 1:919 2:885 
0.1004335852205209 1:920 2:888 
0.1186825519994955 1:920 2:888 
0.125 1:915 2:883 
0.125 1:917 2:885 
0.04688546568435265 1:914 2:883 
0.03099466636902186 1:916 2:885 
0.005939656130686217 1:915 2:887 
0.04778322185751015 1:915 2:887 
0.05752819272465783 1:915 2:886 
0.05434995902744636 1:912 2:885 
0.06718200803729719 1:910 2:883 
0.05029594503425395 1:911 2:884 
0.125 1:921 2:884 
0.125 1:923 2:887 
0.1063258655764835 1:924 2:889 
0.04717600064326064 1:923 2:888 
0.03861398539072876 1:923 2:891 
0.1241994006537633 1:923 2:891 
0.125 1:923 2:892 
0.03481110750850472 1:921 2:891 
0.125 1:922 2:891 
0.009570457622044956 1:921 2:890 
0.08609777697329171 1:921 2:890 
0.1084184210897475 1:914 2:886 
0.0423658506791863 1:918 2:890 
0.125 1:911 2:881 
0.125 1:915 2:886 
0.125 1:912 2:882 
0.125 1:911 2:884 
0.125 1:911 2:884 
0.125 1:922 2:885 
0.125 1:923 2:885 
0.125 1:923 2:885 
0.125 1:926 2:889 
0.117906759369991 1:926 2:891 
0.125 1:927 2:890 
0.125 1:924 2:888 
0.125 1:928 2:891 
0.125 1:923 2:888 
0.09372385698964486 1:922 2:887 
0.125 1:920 2:885 
0.125 1:919 2:885 
0.0930950568992579 1:920 2:886 
0.125 1:916 2:883 
0.05673263892405046 1:915 2:884 
0.07946415695667004 1:915 2:884 
0.125 1:914 2:883 
0.05222815520026882 1:917 2:887 
0.08490889317030326 1:919 2:888 
0.0009292668882898707 1:918 2:888 
0.125 1:920 2:890 
0.115314992683423 1:915 2:886 
0.125 1:913 2:882 
0.125 1:917 2:888 
0.125 1:917 2:888 
0.125 1:918 2:890 
0.125 1:915 2:882 
0.125 1:915 2:881 
0.125 1:911 2:879 
0.125 1:908 2:877 
0.125 1:914 2:881 
0.125 1:913 2:882 
0.1211931047047564 1:910 2:880 
0.125 1:910 2:880 
0.125 1:909 2:879 
0.125 1:907 2:876 
0.125 1:911 2:880 
0.125 1:910 2:880 
0.125 1:906 2:877 
0.125 1:906 2:876 
0.1150495548891344 1:908 2:879 
0.125 1:907 2:878 
0.125 1:902 2:875 
0.125 1:903 2:875 
0.125 1:903 2:876 
0.04131742493662615 1:904 2:878 
0.125 1:901 2:874 
0.01800903908935379 1:902 2:877 
0.125 1:903 2:875 
0.125 1:902 2:877 
0.125 1:906 2:881 
0.125 1:906 2:881 
0.125 1:902 2:876 
0.125 1:899 2:874 
0.125 1:902 2:877 
0.125 1:900 2:876 
0.02978288163344305 1:903 2:879 
0.125 1:902 2:879 
0.1244706379754934 1:902 2:877 
0.125 1:899 2:874 
-0.125 1:866 2:807 
-0.125 1:867 2:808 
-0.04498407363991561 1:865 2:809 
-0.125 1:872 2:814 
-0.125 1:868 2:811 
-0.125 1:867 2:811 
-0.01684210981840701 1:866 2:810 
-0.003279262321202336 1:863 2:809 
-0.125 1:864 2:808 
-0.125 1:862 2:808 
-0.125 1:867 2:814 
-0.09543528838230325 1:867 2:813 
-0.01530607200097703 1:864 2:811 
-0.125 1:864 2:811 
-0.07114661556568548 1:863 2:811 
-0.125 1:861 2:809 
-0.125 1:859 2:807 
-0.125 1:857 2:806 
-0.125 1:866 2:815 
-0.125 1:864 2:815 
-0.125 1:866 2:816 
-0.125 1:861 2:812 
-0.1102408065970208 1:857 2:809 
-0.125 1:859 2:811 
-0.02572754328589486 1:860 2:811 
-0.125 1:856 2:809 
-0.125 1:861 2:815 
-0.04208701520585181 1:863 2:815 
-0.125 1:861 2:815 
-0.125 1:861 2:815 
-0.08639581285192999 1:857 2:810 
-0.125 1:857 2:811 
-0.125 1:782 2:729 
-0.125 1:779 2:731 
-0.125 1:775 2:730 
-0.125 1:771 2:729 
-0.06869488208438068 1:770 2:729 
-0.125 1:774 2:733 
-0.125 1:772 2:731 
-0.1235249915417939 1:770 2:729 
-0.0009114007358607401 1:771 2:731 
-0.125 1:768 2:728 
-0.125 1:765 2:725 
-0.125 1:764 2:725 
-0.125 1:766 2:727 
-0.1109900247865349 1:764 2:725 
-0.125 1:771 2:733 
-0.05459563021662289 1:762 2:725 
-0.001775730048635155 1:766 2:730 
-0.125 1:769 2:733 
-0.125 1:766 2:730 
-0.1056200393772905 1:768 2:732 
-0.1166300640253442 1:768 2:732 
-0.125 1:766 2:730 
-0.119789255111391 1:760 2:726 
-0.009608519507912409 1:765 2:729 
-0.125 1:760 2:725 
-0.125 1:763 2:729 
-0.1207846994476234 1:762 2:728 
-0.1192258800627113 1:762 2:728 
-0.125 1:759 2:725 
-0.125 1:758 2:724 
-0.125 1:645 2:591 
-0.125 1:643 2:592 
-0.125 1:643 2:594 
-0.125 1:646 2:596 
-0.07236696634018214 1:650 2:603 
-0.05485451669463598 1:645 2:600 
-0.03440398492956659 1:648 2:605 
-0.03869648088980725 1:641 2:599 
-0.125 1:643 2:603 
-0.125 1:641 2:599 
-0.125 1:645 2:591 
-0.125 1:643 2:592 
-0.09158620241712441 1:643 2:594 
-0.125 1:646 2:596 
-0.09475255675365402 1:644 2:596 
-0.05086869644810562 1:646 2:598 
-0.125 1:646 2:598 
-0.125 1:648 2:601 
-0.125 1:650 2:603 
-0.1216902306980181 1:650 2:603 
-0.1212820691446163 1:648 2:601 
-0.01000821157221641 1:644 2:598 
-0.09502282271117798 1:645 2:600 
-0.125 1:648 2:605 
-0.125 1:648 2:605 
-0.1203522616394822 1:646 2:604 
-0.125 1:641 2:599 
-0.0649319657161891 1:645 2:603 
-0.03246360926880247 1:646 2:604 
-0.125 1:643 2:603 
-0.125 1:641 2:599 
-0.1041841172018076 1:642 2:601 
-0.125 1:425 2:386 
-0.125 1:429 2:390 
-0.125 1:430 2:393 
-0.125 1:431 2:394 
-0.125 1:432 2:396 
-0.125 1:432 2:398 
-0.125 1:434 2:401 
-0.125 1:436 2:403 
-0.125 1:437 2:404 
-0.125 1:436 2:407 
-0.125 1:439 2:408 
-0.125 1:440 2:410 
-0.125 1:443 2:414 
-0.125 1:442 2:414 
-0.125 1:442 2:416 
-0.125 1:445 2:419 
-0.125 1:447 2:423 
-0.125 1:449 2:424 
-0.125 1:452 2:427 
-0.125 1:451 2:429 
-0.125 1:454 2:432 
-0.125 1:455 2:432 
-0.125 1:455 2:435 
-0.125 1:456 2:435 
-0.125 1:455 2:435 
-0.125 1:457 2:438 
-0.125 1:458 2:440 
-0.125 1:459 2:441 
-0.125 1:460 2:443 
-0.125 1:461 2:444 
-0.125 1:461 2:447 
-0.125 1:465 2:450 
-0.125 1:467 2:452 
-0.125 1:466 2:452 
-0.125 1:468 2:454 
-0.125 1:468 2:456 
-0.125 1:467 2:455 
-0.125 1:468 2:456 
-0.125 1:471 2:459 
-0.125 1:471 2:459 
-0.125 1:472 2:461 
-0.125 1:473 2:463 
-0.125 1:475 2:465 
-0.125 1:477 2:469 
-0.125 1:477 2:468 
-0.125 1:478 2:470 
-0.125 1:480 2:472 
-0.125 1:479 2:472 
-0.125 1:481 2:474 
-0.125 1:479 2:474 
-0.125 1:480 2:474 
-0.125 1:664 2:698 
-0.125 1:666 2:700 
-0.125 1:663 2:696 
-0.125 1:664 2:699 
-0.125 1:664 2:695 
-0.08423830389732971 1:668 2:701 
-0.125 1:668 2:701 
-0.02965994599158114 1:666 2:697 
-0.125 1:672 2:703 
-0.1209512159685596 1:666 2:697 
-0.125 1:670 2:700 
-0.06012395704475648 1:670 2:702 
-0.06372212778640171 1:671 2:701 
-0.125 1:672 2:702 
-0.125 1:668 2:698 
-0.1169885360875294 1:668 2:698 
-0.125 1:672 2:703 
-0.125 1:772 2:780 
-0.125 1:776 2:783 
-0.125 1:777 2:785 
-0.09112331681196018 1:775 2:783 
-0.125 1:771 2:780 
-0.125 1:777 2:785 
-0.125 1:776 2:786 
-0.04400368473039565 1:769 2:779 
-0.125 1:772 2:784 
-0.125 1:773 2:786 
-0.125 1:774 2:786 
-0.125 1:773 2:782 
-0.1135811674967607 1:768 2:780 
-0.125 1:767 2:778 
-0.08478898908753574 1:768 2:780 
-0.08112635331061366 1:772 2:784 
-0.08552122922644102 1:770 2:782 
-0.125 1:768 2:778 
-0.125 1:769 2:782 
-0.125 1:791 2:791 
-0.125 1:791 2:792 
-0.125 1:789 2:789 
-0.125 1:789 2:789 
-0.125 1:793 2:794 
-0.125 1:793 2:796 
-0.02458313584058836 1:789 2:791 
-0.05268517314553206 1:792 2:795 
-0.1091351547780105 1:792 2:795 
-0.125 1:786 2:789 
-0.125 1:788 2:794 
-0.02983397245830424 1:787 2:790 
-0.03614613235045519 1:790 2:795 
-0.125 1:790 2:795 
-0.125 1:788 2:794 
-0.125 1:783 2:789 
-0.125 1:784 2:788 
-0.1136361581757804 1:786 2:792 
-0.125 1:785 2:792 
-0.005163813125975051 1:785 2:791 
-0.05255436444118823 1:787 2:793 
-0.125 1:784 2:790 
-0.125 1:859 2:836 
-0.125 1:861 2:838 
-0.0568999984418586 1:860 2:837 
-0.125 1:858 2:836 
-0.125 1:860 2:836 
-0.04989300187367225 1:861 2:840 
-0.125 1:864 2:842 
-0.125 1:861 2:840 
-0.125 1:864 2:842 
-0.1175346034611135 1:863 2:842 
-0.125 1:862 2:842 
-0.01939687531325367 1:855 2:836 
-0.09885853444336495 1:853 2:835 
-0.125 1:854 2:835 
-0.125 1:854 2:835 
-0.1212725036451987 1:857 2:838 
-0.04320309751707627 1:858 2:842 
-0.125 1:858 2:842 
-0.1188809520742523 1:858 2:842 
-0.08013574657875504 1:856 2:840 
-0.125 1:855 2:840 
-0.125 1:857 2:842 
-0.01410621970774011 1:854 2:838 
-0.125 1:854 2:838 
-0.125 1:852 2:839 
-0.125 1:852 2:836 
-0.125 1:850 2:835 
