svm_type c_svc
kernel_type rbf
gamma 0.125
nr_class 2
total_sv 260
rho 0.504103
label 1 -1
nr_sv 109 151
SV
0.2727180303983518 1:932 2:896 
0.5 1:931 2:893 
0.3414672608600944 1:928 2:892 
0.4330749064879881 1:932 2:896 
0.5 1:933 2:897 
0.0849367098747226 1:929 2:894 
0.1027661378173419 1:930 2:894 
0.05404809923852619 1:929 2:896 
0.486958616555843 1:929 2:896 
0.06006720390220165 1:928 2:896 
0.187140247929334 1:925 2:894 
0.4508931405616398 1:925 2:894 
0.340963818720842 1:927 2:897 
0.05354856489355597 1:922 2:893 
0.5 1:926 2:898 
0.1163301969770166 1:917 2:890 
0.02855742612171971 1:923 2:897 
0.5 1:924 2:898 
0.5 1:921 2:895 
0.498011089429446 1:923 2:897 
0.5 1:919 2:895 
0.4003477223290978 1:918 2:894 
0.3628341568209405 1:910 2:879 
0.1507272104889809 1:907 2:880 
0.5 1:908 2:886 
0.008002411703018995 1:907 2:885 
0.5 1:901 2:879 
0.06703672552393236 1:899 2:879 
0.5 1:903 2:886 
0.3967799317212202 1:902 2:884 
0.2521130835769934 1:898 2:881 
0.3442455381054499 1:905 2:879 
0.340390909760356 1:908 2:882 
0.03666482356794507 1:905 2:882 
0.5 1:907 2:885 
0.2485210259153673 1:904 2:881 
0.2462400389889525 1:903 2:881 
0.3248335006833948 1:905 2:884 
0.1340337436524631 1:904 2:884 
0.02273062171858197 1:901 2:880 
0.1052084907264066 1:897 2:878 
0.5 1:896 2:878 
0.4852117493153629 1:897 2:878 
0.289642247618907 1:900 2:883 
0.5 1:900 2:883 
0.0759495041318848 1:899 2:882 
0.5 1:897 2:881 
0.09092096467233704 1:925 2:892 
0.5 1:911 2:888 
0.3506478364402226 1:916 2:893 
0.5 1:913 2:890 
0.0001207308375403156 1:909 2:885 
0.4423972759832065 1:911 2:888 
0.3877273324071945 1:914 2:891 
0.5 1:915 2:893 
0.001295906886090974 1:922 2:892 
0.3671474256955243 1:920 2:891 
0.1545860921123308 1:921 2:892 
0.07618809189150258 1:918 2:891 
0.06126373950589289 1:917 2:889 
0.5 1:926 2:888 
0.3952105793960115 1:919 2:884 
0.3725930409050257 1:918 2:884 
0.3417795761267584 1:920 2:888 
0.01461170418233276 1:916 2:889 
0.2025606250725297 1:915 2:887 
0.05575540655509361 1:910 2:883 
0.07583445147717237 1:909 2:882 
0.5 1:921 2:884 
0.1025858814928949 1:923 2:890 
0.02367257445693445 1:923 2:891 
0.3945642946797504 1:923 2:892 
0.313474736041417 1:916 2:888 
0.005656650957664187 1:911 2:882 
0.3305699884208947 1:913 2:885 
0.3382056906514673 1:911 2:883 
0.349491184364047 1:911 2:884 
0.4110101037562668 1:923 2:885 
0.5 1:923 2:885 
0.2412978149962663 1:926 2:889 
0.197150429551615 1:927 2:890 
0.2904965070576701 1:924 2:888 
0.5 1:928 2:891 
0.2873238624475994 1:922 2:889 
0.1201296109776735 1:921 2:888 
0.09551189651701883 1:924 2:891 
0.416066695834523 1:916 2:883 
0.04809086081182477 1:919 2:887 
0.3015454197564917 1:918 2:887 
0.2709507607041699 1:915 2:886 
0.1472000096526918 1:914 2:885 
0.3003846091899362 1:918 2:890 
0.5 1:915 2:881 
0.5 1:911 2:879 
0.481696702213812 1:908 2:877 
0.5 1:914 2:881 
0.5 1:907 2:876 
0.1539404200782235 1:911 2:880 
0.3244985147211187 1:906 2:876 
0.4787450345629057 1:903 2:875 
0.1118309602239581 1:908 2:881 
0.08175864802157788 1:904 2:878 
0.3124181695831674 1:901 2:874 
0.35255964204665 1:903 2:875 
0.2588540357495187 1:906 2:881 
0.5 1:899 2:874 
0.3215917491595018 1:902 2:878 
0.08435572827688542 1:900 2:876 
0.5 1:899 2:874 
-0.3354224783034372 1:866 2:807 
-0.09725016384591968 1:867 2:808 
-0.4731385379660452 1:872 2:814 
-0.3346868678501242 1:868 2:811 
-0.3052073017936531 1:862 2:808 
-0.1379317537715287 1:867 2:814 
-0.2399619609066698 1:864 2:811 
-0.1385864709261909 1:859 2:807 
-0.3420817168505972 1:857 2:806 
-0.03203991883568727 1:863 2:813 
-0.01371958166827798 1:864 2:814 
-0.02587878291401273 1:864 2:815 
-0.3522343111753831 1:866 2:816 
-0.06060363990957308 1:861 2:812 
-0.1692071952683663 1:860 2:811 
-0.1971797390082161 1:856 2:809 
-0.002946356630172694 1:863 2:815 
-0.04706520381972756 1:863 2:815 
-0.3699966935876198 1:861 2:815 
-0.2897930934999925 1:857 2:811 
-0.4229114024617507 1:782 2:729 
-0.3664776396867597 1:779 2:731 
-0.3131004834134564 1:775 2:730 
-0.3154216570569204 1:771 2:729 
-0.324239422948658 1:774 2:733 
-0.2354902502419514 1:768 2:728 
-0.3562093077594182 1:765 2:725 
-0.02607728863473854 1:766 2:727 
-0.138920921959452 1:771 2:733 
-0.1606237716979949 1:762 2:725 
-0.2924157774610855 1:769 2:733 
-0.1325505594986778 1:766 2:730 
-0.09627391186398629 1:760 2:726 
-0.1477506673400385 1:767 2:731 
-0.3197006104588613 1:763 2:729 
-0.1397885662679718 1:761 2:727 
-0.4251823683659175 1:758 2:724 
-0.0007445952373097975 1:643 2:592 
-0.002931490454978265 1:644 2:596 
-0.002494278412882708 1:646 2:598 
-0.0009891244543274169 1:648 2:601 
-0.3648989753975018 1:645 2:591 
-0.12464430407908 1:643 2:592 
-0.2630850308944458 1:643 2:594 
-0.3049162518546679 1:646 2:596 
-0.1073603469763631 1:646 2:598 
-0.2885395729687941 1:650 2:603 
-0.2381618759441461 1:648 2:601 
-0.05665436909265253 1:644 2:598 
-0.150694157554063 1:645 2:600 
-0.2677661091744166 1:648 2:605 
-0.1446761270776576 1:646 2:604 
-0.3687939202962362 1:643 2:603 
-0.4098894903022675 1:641 2:599 
-0.008361731332032489 1:642 2:601 
-0.4881750289691556 1:425 2:386 
-0.4180050223589447 1:429 2:390 
-0.1828833155680213 1:430 2:393 
-0.1961095285621544 1:431 2:394 
-0.1634147678091754 1:432 2:396 
-0.2965734516783896 1:432 2:398 
-0.3622363270550483 1:434 2:401 
-0.1123408654750897 1:436 2:403 
-0.2577682170780808 1:437 2:404 
-0.3365183727123358 1:436 2:407 
-0.1809577957056922 1:439 2:408 
-0.3652379011601309 1:440 2:410 
-0.2844614210599463 1:443 2:414 
-0.04577658114340877 1:442 2:414 
-0.2678957784566471 1:442 2:416 
-0.4330403661221279 1:445 2:419 
-0.3018110061909259 1:447 2:423 
-0.2929636755445689 1:449 2:424 
-0.2947483259589345 1:452 2:427 
-0.2999038278393202 1:451 2:429 
-0.1958013915305601 1:454 2:432 
-0.203062876434033 1:455 2:432 
-0.003677873471597648 1:455 2:435 
-0.1443741883652283 1:456 2:435 
-0.1783356972094525 1:455 2:435 
-0.3167484539896274 1:457 2:438 
-0.08931300570082995 1:458 2:440 
-0.2537308570256097 1:459 2:441 
-0.1175058237282097 1:460 2:443 
-0.2226397038382037 1:461 2:444 
-0.3905143909475062 1:461 2:447 
-0.3830700668119713 1:465 2:450 
-0.2392160679768703 1:467 2:452 
-0.08484253389119942 1:468 2:454 
-0.1092817549355633 1:467 2:455 
-0.2901850987282178 1:468 2:456 
-0.3634988040901748 1:471 2:459 
-0.1426156942527256 1:472 2:461 
-0.2658792749168481 1:473 2:463 
-0.3317481681323178 1:475 2:465 
-0.2835983282060362 1:477 2:468 
-0.2577726189235489 1:478 2:470 
-0.1127045133858336 1:480 2:472 
-0.2840311558426795 1:481 2:474 
-0.2305326566907021 1:479 2:474 
-0.06058060073513537 1:666 2:700 
-0.1324850986625459 1:663 2:696 
-0.3183374798079858 1:664 2:699 
-0.3244505070324789 1:664 2:695 
-0.2207599850482175 1:668 2:701 
-0.002692257753723209 1:666 2:697 
-0.0009625312803437924 1:672 2:703 
-0.02900696395713614 1:666 2:697 
-0.1233388203459092 1:670 2:700 
-0.07734740709180911 1:671 2:701 
-0.2731958701133065 1:668 2:698 
-0.4089083452340268 1:672 2:703 
-0.337167617684662 1:772 2:780 
-0.2592018293572556 1:776 2:783 
-0.2034115496481926 1:777 2:785 
-0.1377103382063631 1:776 2:786 
-0.02898008185416898 1:769 2:779 
-0.0007018254259892249 1:772 2:784 
-0.3114978511151125 1:773 2:786 
-0.06652721093558064 1:773 2:782 
-0.3919071539235543 1:767 2:778 
-0.1295683536792874 1:772 2:784 
-0.05828784537541373 1:768 2:778 
-0.3396292416405899 1:769 2:782 
-0.2762880067252106 1:791 2:791 
-0.3254780991890004 1:789 2:789 
-0.1855294601705793 1:793 2:794 
-0.3239855776481563 1:793 2:796 
-0.09231711190578083 1:786 2:789 
-0.001341394712362339 1:788 2:794 
-0.1552061711876217 1:790 2:795 
-0.2863607188414666 1:788 2:794 
-0.2297885234922453 1:783 2:789 
-0.215829502406698 1:784 2:788 
-0.3225168886753566 1:785 2:792 
-0.2347189484413471 1:861 2:838 
-0.1783056891818462 1:858 2:836 
-0.2204381589916733 1:860 2:836 
-0.3961386522150184 1:864 2:842 
-0.1557930229440776 1:861 2:841 
-0.06918227223672824 1:862 2:842 
-0.0252401472010318 1:855 2:836 
-0.001096385162148106 1:857 2:838 
-0.3441534616418556 1:854 2:835 
-0.133096965285142 1:857 2:838 
-0.003162789945096928 1:858 2:842 
-0.1814846337473044 1:858 2:842 
-0.2000283549651199 1:855 2:840 
-0.2063861769587149 1:857 2:842 
-0.3636327168205142 1:852 2:839 
-0.4179375539935959 1:850 2:835 
