svm_type c_svc
kernel_type rbf
gamma 0.125
nr_class 2
total_sv 328
rho 0.508362
label 1 -1
nr_sv 159 169
SV
0.25 1:932 2:896 
0.25 1:931 2:893 
0.25 1:928 2:892 
0.25 1:932 2:896 
0.25 1:933 2:897 
0.2140494035027839 1:929 2:894 
0.25 1:930 2:894 
0.1397700130908617 1:929 2:896 
0.25 1:929 2:896 
0.25 1:929 2:896 
0.0856845328999611 1:925 2:894 
0.25 1:925 2:894 
0.25 1:925 2:894 
0.25 1:927 2:897 
0.25 1:926 2:897 
0.03513899190122829 1:922 2:893 
0.25 1:926 2:898 
0.2002782162339154 1:923 2:896 
0.1179396672779697 1:917 2:890 
0.1900406598345852 1:921 2:894 
0.25 1:923 2:897 
0.25 1:924 2:898 
0.25 1:921 2:895 
0.25 1:923 2:897 
0.07750281528803221 1:919 2:894 
0.25 1:919 2:895 
0.25 1:918 2:894 
0.25 1:916 2:893 
0.25 1:910 2:879 
0.05976242207396435 1:908 2:882 
0.25 1:908 2:886 
0.1798712986063605 1:908 2:885 
0.01112156847389254 1:904 2:880 
0.25 1:907 2:885 
0.25 1:901 2:879 
0.25 1:903 2:886 
0.25 1:903 2:884 
0.1820571302561524 1:897 2:878 
0.2096056524990458 1:899 2:882 
0.25 1:902 2:884 
0.25 1:898 2:881 
0.05798337116328612 1:905 2:879 
0.25 1:908 2:882 
0.1943086753972144 1:905 2:880 
0.25 1:907 2:885 
0.05151697481920924 1:904 2:881 
0.05442531509462936 1:903 2:881 
0.2371588679350408 1:903 2:881 
0.2440904436365992 1:905 2:884 
0.25 1:904 2:884 
0.1011934257188805 1:901 2:880 
0.25 1:897 2:878 
0.25 1:897 2:878 
0.25 1:896 2:878 
0.2493728417274172 1:897 2:878 
0.25 1:900 2:883 
0.25 1:900 2:883 
0.2469982769080601 1:899 2:882 
0.25 1:897 2:881 
0.1618747998260131 1:925 2:892 
0.08844622511911662 1:920 2:891 
0.25 1:919 2:894 
0.25 1:911 2:888 
0.25 1:911 2:887 
0.25 1:916 2:893 
0.25 1:913 2:890 
0.07428828244397538 1:909 2:885 
0.25 1:911 2:888 
0.25 1:914 2:891 
0.06007292186908837 1:917 2:893 
0.25 1:915 2:893 
0.09475373070174042 1:914 2:890 
0.25 1:914 2:890 
0.123107182847005 1:922 2:892 
0.25 1:920 2:891 
0.1454813303100247 1:912 2:888 
0.06956738615407188 1:913 2:889 
0.001985518125341134 1:911 2:886 
0.25 1:924 2:888 
0.06854330073877463 1:927 2:890 
0.25 1:926 2:888 
0.25 1:927 2:890 
0.25 1:919 2:884 
0.25 1:918 2:884 
0.08243803652276521 1:921 2:885 
0.2130986176389078 1:920 2:888 
0.2481770672424435 1:920 2:888 
0.09697812116766338 1:915 2:883 
0.1411392109444972 1:917 2:885 
0.04240477306714981 1:915 2:887 
0.08122276023192052 1:910 2:883 
0.0969661458716705 1:909 2:882 
0.25 1:921 2:884 
0.1246292157408961 1:923 2:887 
0.205123187399145 1:922 2:890 
0.1774599491130016 1:923 2:891 
0.25 1:923 2:892 
0.2208782219519508 1:916 2:888 
0.005445530782524129 1:918 2:887 
0.09004698321478995 1:914 2:886 
0.00981938256664663 1:913 2:885 
0.0109126108901962 1:913 2:885 
0.1244537526353562 1:918 2:890 
0.25 1:913 2:885 
0.1247551136678661 1:911 2:881 
0.1025056698554859 1:915 2:886 
0.07930135269258896 1:912 2:882 
0.1778411668083884 1:911 2:884 
0.0156767136932839 1:911 2:883 
0.02764246763866063 1:911 2:883 
0.2485364719315674 1:911 2:884 
0.25 1:922 2:885 
0.25 1:923 2:885 
0.25 1:923 2:885 
0.2045193785861504 1:926 2:889 
0.25 1:927 2:890 
0.25 1:924 2:888 
0.25 1:928 2:891 
0.2265789792398947 1:919 2:885 
0.01664300953995704 1:921 2:888 
0.25 1:916 2:883 
0.08488903662080617 1:921 2:889 
0.08682103748293547 1:918 2:887 
0.07329140918156207 1:917 2:887 
0.25 1:915 2:886 
0.007478739320519468 1:913 2:882 
0.03471725480387959 1:914 2:885 
0.002698418660910326 1:917 2:888 
0.1722836153548984 1:917 2:888 
0.2413184922935055 1:918 2:890 
0.25 1:915 2:882 
0.25 1:915 2:881 
0.25 1:911 2:879 
0.25 1:908 2:877 
0.25 1:914 2:881 
0.1713278172093686 1:913 2:882 
0.25 1:909 2:879 
0.25 1:907 2:876 
0.25 1:911 2:880 
0.25 1:906 2:877 
0.25 1:906 2:876 
0.02698414439671721 1:908 2:879 
0.1290792691535596 1:907 2:878 
0.25 1:902 2:875 
0.25 1:903 2:875 
0.0623374608834478 1:903 2:876 
0.01518981272537184 1:906 2:880 
0.04028864806874084 1:908 2:881 
0.1712333780150921 1:904 2:878 
0.25 1:901 2:874 
0.003768862398245042 1:906 2:880 
0.25 1:903 2:875 
0.1733047937646907 1:906 2:881 
0.2326776339579026 1:906 2:881 
0.25 1:899 2:874 
0.2106410057597149 1:902 2:878 
0.25 1:900 2:876 
0.2324833270210906 1:902 2:879 
0.25 1:899 2:874 
-0.25 1:866 2:807 
-0.1708589046906425 1:867 2:808 
-0.25 1:872 2:814 
-0.25 1:868 2:811 
-0.003995837882047448 1:867 2:811 
-0.04093585173080096 1:864 2:808 
-0.25 1:862 2:808 
-0.1801697415535121 1:867 2:814 
-0.02796863284485081 1:867 2:813 
-0.2377043692406995 1:864 2:811 
-0.1937760940787421 1:859 2:807 
-0.25 1:857 2:806 
-0.01545026208178014 1:863 2:813 
-0.1225381687867695 1:864 2:815 
-0.25 1:866 2:816 
-0.06712670694230481 1:861 2:812 
-0.1783641011125949 1:860 2:811 
-0.2299149083098393 1:856 2:809 
-0.1301813894958452 1:861 2:815 
-0.245179191210331 1:861 2:815 
-0.25 1:857 2:811 
-0.25 1:782 2:729 
-0.25 1:779 2:731 
-0.25 1:775 2:730 
-0.25 1:771 2:729 
-0.25 1:774 2:733 
-0.01946165112975362 1:772 2:731 
-0.02518015188469661 1:770 2:729 
-0.2190751961238777 1:768 2:728 
-0.25 1:765 2:725 
-0.07499181669548872 1:766 2:727 
-0.05805003493992499 1:764 2:725 
-0.1824624688090255 1:771 2:733 
-0.1525986528169615 1:762 2:725 
-0.25 1:769 2:733 
-0.1283193786299941 1:766 2:730 
-0.163151065672402 1:767 2:731 
-0.25 1:763 2:729 
-0.0363294294241519 1:762 2:728 
-0.1613605164543924 1:761 2:727 
-0.1743986315949554 1:759 2:725 
-0.25 1:758 2:724 
-0.1128280665158196 1:645 2:591 
-0.008501908173847619 1:643 2:594 
-0.1327983794546299 1:646 2:596 
-0.114930988562411 1:643 2:603 
-0.247604256843682 1:645 2:591 
-0.1266160733667263 1:643 2:592 
-0.25 1:643 2:594 
-0.1688968737989434 1:646 2:596 
-0.00431274501105487 1:644 2:596 
-0.1094043971396794 1:646 2:598 
-0.03659983671511457 1:650 2:603 
-0.25 1:650 2:603 
-0.2362031467157862 1:648 2:601 
-0.05438132311872499 1:644 2:598 
-0.1499361576944485 1:645 2:600 
-0.01467644511552224 1:648 2:605 
-0.25 1:648 2:605 
-0.1571581652719902 1:641 2:599 
-0.1438922727582935 1:646 2:604 
-0.25 1:643 2:603 
-0.25 1:641 2:599 
-0.008367315403552105 1:642 2:601 
-0.25 1:425 2:386 
-0.25 1:429 2:390 
-0.25 1:430 2:393 
-0.1326501090241367 1:431 2:394 
-0.2120784479660008 1:432 2:396 
-0.25 1:432 2:398 
-0.25 1:434 2:401 
-0.1803753077019273 1:436 2:403 
-0.2315840913568422 1:437 2:404 
-0.25 1:436 2:407 
-0.25 1:439 2:408 
-0.25 1:440 2:410 
-0.25 1:443 2:414 
-0.09434884008182212 1:442 2:414 
-0.25 1:442 2:416 
-0.25 1:445 2:419 
-0.25 1:447 2:423 
-0.25 1:449 2:424 
-0.25 1:452 2:427 
-0.25 1:451 2:429 
-0.2187426857564069 1:454 2:432 
-0.1784038069964753 1:455 2:432 
-0.1779800840771814 1:456 2:435 
-0.1621554844299787 1:455 2:435 
-0.25 1:457 2:438 
-0.1611510768000464 1:458 2:440 
-0.1975594631432032 1:459 2:441 
-0.1260935424827569 1:460 2:443 
-0.25 1:461 2:444 
-0.25 1:461 2:447 
-0.25 1:465 2:450 
-0.2168639897179018 1:467 2:452 
-0.08950486764227875 1:466 2:452 
-0.07332112615320084 1:468 2:454 
-0.0625168442352811 1:468 2:456 
-0.08447551081687735 1:467 2:455 
-0.2464882518313929 1:468 2:456 
-0.1015889087780903 1:471 2:459 
-0.25 1:471 2:459 
-0.1570591789169298 1:472 2:461 
-0.25 1:473 2:463 
-0.25 1:475 2:465 
-0.05213136660215879 1:477 2:469 
-0.25 1:477 2:468 
-0.2264587050998298 1:478 2:470 
-0.1288461542776244 1:480 2:472 
-0.25 1:481 2:474 
-0.2407868858205102 1:479 2:474 
-0.1007350136996542 1:666 2:700 
-0.1962566257667925 1:663 2:696 
-0.25 1:664 2:699 
-0.25 1:664 2:695 
-0.1998494310201066 1:668 2:701 
-0.1592610819508829 1:672 2:703 
-0.06241239578624918 1:666 2:697 
-0.1410528321029584 1:670 2:700 
-0.06700236053623422 1:671 2:701 
-0.2488736852597352 1:668 2:698 
-0.25 1:672 2:703 
-0.25 1:772 2:780 
-0.25 1:776 2:783 
-0.04284853384149002 1:771 2:780 
-0.1891380747063161 1:777 2:785 
-0.16361250265811 1:776 2:786 
-0.25 1:773 2:786 
-0.09399988644241219 1:773 2:782 
-0.25 1:767 2:778 
-0.06603429885386745 1:768 2:780 
-0.1669090691203272 1:772 2:784 
-0.001101400746330987 1:770 2:782 
-0.1716788561346563 1:768 2:778 
-0.25 1:769 2:782 
-0.25 1:791 2:791 
-0.0927090790157607 1:789 2:789 
-0.233455406749992 1:789 2:789 
-0.2266388968891093 1:793 2:794 
-0.25 1:793 2:796 
-0.104914721888345 1:786 2:789 
-0.1791804502877726 1:790 2:795 
-0.001698508346851789 1:787 2:793 
-0.2355758064757033 1:788 2:794 
-0.2480949048767219 1:783 2:789 
-0.1973408724967359 1:784 2:788 
-0.006480999410540587 1:786 2:792 
-0.25 1:785 2:792 
-0.06171733546849523 1:787 2:793 
-0.2330788213254722 1:861 2:838 
-0.1855718516159739 1:858 2:836 
-0.2158724859752159 1:860 2:836 
-0.1710759358461274 1:864 2:842 
-0.003283191906079101 1:861 2:840 
-0.2217968001254449 1:864 2:842 
-0.1485081127112516 1:861 2:841 
-0.07006972193510297 1:862 2:842 
-0.0156382461391683 1:855 2:836 
-0.08701840993252109 1:854 2:835 
-0.25 1:854 2:835 
-0.1205953802003296 1:857 2:838 
-0.2009969535819235 1:858 2:842 
-0.2335666520873005 1:855 2:840 
-0.1791001430752086 1:857 2:842 
-0.009563966016483282 1:854 2:838 
-0.25 1:852 2:839 
-0.07187335167134844 1:852 2:836 
-0.25 1:850 2:835 
