svm_type c_svc
kernel_type rbf
gamma 0.5
nr_class 2
total_sv 642
rho 0.336306
label 1 -1
nr_sv 317 325
SV
0.25 1:932 2:896 
0.25 1:931 2:893 
0.07341534676949471 1:927 2:890 
0.25 1:928 2:892 
0.25 1:932 2:896 
0.25 1:933 2:897 
0.25 1:929 2:894 
0.25 1:930 2:894 
0.1645171110461413 1:926 2:891 
0.25 1:929 2:896 
0.25 1:929 2:896 
0.25 1:929 2:896 
0.25 1:925 2:894 
0.25 1:924 2:894 
0.25 1:928 2:896 
0.25 1:925 2:894 
0.25 1:926 2:896 
0.25 1:927 2:896 
0.25 1:925 2:894 
0.1153868903917152 1:922 2:892 
0.25 1:927 2:897 
0.25 1:926 2:897 
0.2155230303465941 1:924 2:895 
0.25 1:922 2:893 
0.25 1:921 2:894 
0.25 1:923 2:896 
0.25 1:924 2:895 
0.25 1:926 2:898 
0.25 1:924 2:896 
0.25 1:925 2:897 
0.25 1:923 2:896 
0.25 1:921 2:894 
0.0277080732024562 1:919 2:894 
0.25 1:923 2:897 
0.25 1:924 2:898 
0.25 1:921 2:895 
0.25 1:923 2:897 
0.25 1:919 2:894 
0.1235357869564494 1:918 2:893 
0.25 1:919 2:895 
0.25 1:918 2:894 
0.25 1:916 2:893 
0.1204757690862861 1:917 2:893 
0.25 1:910 2:879 
0.25 1:907 2:878 
0.0154909723815013 1:909 2:881 
0.25 1:905 2:878 
0.25 1:908 2:879 
0.25 1:907 2:880 
0.25 1:909 2:884 
0.06297873992567435 1:908 2:883 
0.2232337159046329 1:908 2:882 
0.25 1:906 2:882 
0.25 1:904 2:880 
0.25 1:908 2:886 
0.25 1:908 2:885 
0.25 1:905 2:883 
0.25 1:904 2:880 
0.1698075822713831 1:902 2:883 
0.25 1:907 2:885 
0.25 1:904 2:882 
0.25 1:901 2:879 
0.01743162477418792 1:903 2:881 
0.1683145113750302 1:904 2:882 
0.1082653688865664 1:901 2:880 
0.25 1:898 2:878 
0.25 1:899 2:879 
0.07031651418918769 1:901 2:882 
0.01108806694663861 1:903 2:883 
0.25 1:903 2:886 
0.25 1:901 2:882 
0.25 1:903 2:884 
0.2179846566350338 1:900 2:880 
0.25 1:899 2:882 
0.25 1:899 2:880 
0.25 1:902 2:884 
0.25 1:902 2:883 
0.25 1:898 2:881 
0.25 1:905 2:878 
0.2214353073437645 1:905 2:879 
0.01605670152990484 1:908 2:882 
0.25 1:909 2:884 
0.05441461542286154 1:910 2:883 
0.25 1:907 2:882 
0.0930483691926554 1:905 2:880 
0.25 1:907 2:883 
0.08187465262893988 1:905 2:882 
0.25 1:907 2:885 
0.01202129704019741 1:908 2:884 
0.2188844567128125 1:905 2:881 
0.25 1:907 2:884 
0.25 1:903 2:881 
0.25 1:903 2:883 
0.25 1:903 2:881 
0.25 1:905 2:884 
0.1342035270549571 1:901 2:881 
0.25 1:904 2:884 
0.01085181226689 1:903 2:882 
0.25 1:905 2:883 
0.07145014663868256 1:902 2:882 
0.25 1:901 2:880 
0.1046349828620959 1:902 2:883 
0.25 1:902 2:881 
0.25 1:898 2:878 
0.25 1:897 2:878 
0.0961614584808706 1:897 2:879 
0.142864221977209 1:898 2:879 
0.25 1:897 2:879 
0.2385785794901527 1:900 2:880 
0.25 1:896 2:878 
0.1276127816769218 1:900 2:881 
0.25 1:897 2:879 
0.1863701802145339 1:897 2:878 
0.1872087141123114 1:900 2:882 
0.25 1:900 2:883 
0.25 1:900 2:883 
0.25 1:899 2:882 
0.25 1:897 2:881 
0.25 1:925 2:892 
0.25 1:926 2:891 
0.07700729785446576 1:924 2:891 
0.09140760976132714 1:921 2:892 
0.009306956494431869 1:921 2:893 
0.25 1:921 2:893 
0.25 1:920 2:891 
0.07998133847910895 1:919 2:890 
0.1155596878853332 1:919 2:892 
0.06915555947858452 1:918 2:891 
0.25 1:919 2:892 
0.25 1:919 2:892 
0.25 1:913 2:889 
0.25 1:919 2:894 
0.25 1:920 2:894 
0.07961604259054693 1:919 2:893 
0.25 1:915 2:890 
0.25 1:911 2:888 
0.25 1:911 2:887 
0.07243425087142119 1:915 2:890 
0.25 1:917 2:893 
0.25 1:916 2:893 
0.25 1:913 2:890 
0.25 1:909 2:885 
0.25 1:911 2:888 
0.25 1:914 2:891 
0.25 1:917 2:893 
0.25 1:915 2:893 
0.1747477821449135 1:914 2:890 
0.25 1:914 2:890 
0.120876790219232 1:925 2:890 
0.243954286257851 1:925 2:890 
0.2110298570133272 1:924 2:889 
0.06996764875875137 1:923 2:889 
0.25 1:917 2:885 
0.25 1:922 2:892 
0.1181759929431857 1:920 2:891 
0.25 1:919 2:890 
0.1514732246521607 1:921 2:892 
0.06086959398592878 1:917 2:889 
0.25 1:918 2:891 
0.25 1:917 2:889 
0.2097895821071575 1:914 2:887 
0.0474729871929522 1:912 2:885 
0.25 1:912 2:886 
0.1526075404020323 1:912 2:887 
0.15570368355069 1:914 2:888 
0.25 1:917 2:891 
0.25 1:917 2:891 
0.2491625641199709 1:914 2:888 
0.25 1:916 2:890 
0.25 1:913 2:887 
0.05056372848068524 1:916 2:888 
0.25 1:916 2:890 
0.1523609867995707 1:912 2:888 
0.25 1:912 2:888 
0.25 1:913 2:889 
0.25 1:911 2:886 
0.25 1:924 2:888 
0.25 1:927 2:890 
0.25 1:926 2:888 
0.25 1:927 2:890 
0.25 1:923 2:887 
0.25 1:919 2:884 
0.25 1:918 2:884 
0.04507298912971968 1:920 2:886 
0.25 1:921 2:885 
0.25 1:919 2:885 
0.2415109454248787 1:920 2:888 
0.25 1:915 2:883 
0.25 1:917 2:885 
0.1862428614783397 1:914 2:883 
0.25 1:916 2:885 
0.1357188896145376 1:915 2:885 
0.1027762668110824 1:915 2:887 
0.25 1:916 2:888 
0.220128916493023 1:915 2:887 
0.1985959501078515 1:915 2:889 
0.03517445213512077 1:914 2:885 
0.25 1:912 2:885 
0.25 1:910 2:883 
0.07224093546478969 1:911 2:884 
0.239564614455478 1:909 2:882 
0.25 1:921 2:884 
0.25 1:923 2:887 
0.132739613123384 1:922 2:887 
0.2180136528785539 1:923 2:890 
0.25 1:924 2:889 
0.171537917668138 1:921 2:887 
0.1688680539478006 1:922 2:889 
0.2281409933701024 1:922 2:890 
0.1741210061579644 1:923 2:891 
0.25 1:923 2:892 
0.2105645864610821 1:921 2:891 
0.1072487823485336 1:922 2:891 
0.05901167920043934 1:920 2:889 
0.1973835828455215 1:921 2:890 
0.25 1:916 2:888 
0.1091211791996439 1:918 2:889 
0.1322945194865448 1:918 2:887 
0.25 1:914 2:886 
0.25 1:911 2:882 
0.04103576171704617 1:913 2:885 
0.25 1:913 2:885 
0.25 1:911 2:881 
0.2208957172605275 1:912 2:884 
0.25 1:912 2:882 
0.2281022476585537 1:910 2:882 
0.25 1:911 2:884 
0.1693560105378069 1:911 2:883 
0.25 1:911 2:884 
0.25 1:922 2:885 
0.25 1:923 2:885 
0.25 1:923 2:885 
0.25 1:926 2:889 
0.2045615326428583 1:926 2:891 
0.2483212344526694 1:927 2:890 
0.25 1:924 2:888 
0.25 1:928 2:891 
0.0287629999181926 1:923 2:888 
0.2327370351447907 1:921 2:887 
0.25 1:922 2:887 
0.25 1:920 2:885 
0.25 1:919 2:885 
0.25 1:922 2:889 
0.25 1:920 2:886 
0.25 1:924 2:891 
0.125558779580062 1:920 2:887 
0.1115009910948746 1:921 2:888 
0.07845441926179032 1:922 2:888 
0.2473280062649076 1:924 2:891 
0.25 1:916 2:883 
0.1392662959516217 1:919 2:886 
0.1668105351630025 1:921 2:889 
0.2459260614464656 1:919 2:887 
0.25 1:918 2:887 
0.1877757347622752 1:915 2:884 
0.2355644017463974 1:915 2:884 
0.25 1:914 2:883 
0.04333654984936834 1:917 2:887 
0.25 1:917 2:887 
0.2132965628228446 1:919 2:888 
0.25 1:920 2:889 
0.1157894749996332 1:918 2:888 
0.12135626780408 1:920 2:890 
0.1042394635021743 1:919 2:889 
0.2056486528277442 1:915 2:886 
0.2025819852503485 1:916 2:886 
0.25 1:913 2:882 
0.25 1:913 2:884 
0.2346985012224136 1:917 2:886 
0.25 1:914 2:885 
0.25 1:918 2:889 
0.04541652482225774 1:917 2:888 
0.120595683181225 1:918 2:890 
0.25 1:915 2:882 
0.25 1:915 2:881 
0.25 1:911 2:879 
0.25 1:908 2:877 
0.25 1:914 2:881 
0.25 1:913 2:882 
0.06400995588326057 1:910 2:880 
0.25 1:909 2:879 
0.25 1:907 2:876 
0.1135666230271006 1:910 2:881 
0.25 1:911 2:880 
0.25 1:910 2:880 
0.2042453276748532 1:909 2:880 
0.25 1:906 2:877 
0.25 1:906 2:876 
0.25 1:908 2:879 
0.0871229989602907 1:907 2:879 
0.25 1:907 2:878 
0.25 1:902 2:875 
0.25 1:903 2:875 
0.25 1:903 2:876 
0.25 1:909 2:881 
0.01611862215617555 1:906 2:880 
0.25 1:908 2:881 
0.25 1:904 2:878 
0.25 1:901 2:874 
0.2347999607179415 1:906 2:879 
0.25 1:908 2:883 
0.25 1:906 2:880 
0.25 1:903 2:875 
0.1358677108798148 1:906 2:881 
0.219551846178545 1:906 2:881 
0.25 1:902 2:876 
0.25 1:899 2:874 
0.02911945433068127 1:903 2:877 
0.25 1:903 2:877 
0.25 1:902 2:878 
0.25 1:902 2:877 
0.25 1:900 2:876 
0.25 1:903 2:879 
0.2072446209393071 1:903 2:878 
0.25 1:902 2:879 
0.2449754951024967 1:902 2:877 
0.25 1:899 2:874 
-0.25 1:866 2:807 
-0.25 1:867 2:808 
-0.25 1:865 2:809 
-0.25 1:872 2:814 
-0.25 1:868 2:811 
-0.25 1:867 2:811 
-0.25 1:866 2:810 
-0.25 1:863 2:809 
-0.25 1:864 2:808 
-0.25 1:862 2:808 
-0.25 1:866 2:812 
-0.25 1:867 2:814 
-0.1400686775423682 1:866 2:814 
-0.25 1:867 2:813 
-0.1865761041694022 1:864 2:811 
-0.25 1:864 2:811 
-0.1266733880771872 1:863 2:811 
-0.25 1:861 2:809 
-0.25 1:859 2:807 
-0.25 1:860 2:810 
-0.25 1:857 2:806 
-0.25 1:862 2:811 
-0.25 1:863 2:813 
-0.25 1:866 2:815 
-0.25 1:864 2:814 
-0.09528159593014318 1:862 2:813 
-0.25 1:864 2:815 
-0.25 1:866 2:816 
-0.2316163650135308 1:861 2:812 
-0.08200425330697121 1:859 2:810 
-0.1177644086650423 1:858 2:809 
-0.1323338946512815 1:857 2:809 
-0.25 1:859 2:811 
-0.1546375943348353 1:860 2:811 
-0.25 1:856 2:809 
-0.25 1:858 2:809 
-0.25 1:861 2:813 
-0.0745087630005755 1:861 2:814 
-0.2447306359840117 1:863 2:815 
-0.25 1:861 2:815 
-0.2301502311423394 1:861 2:815 
-0.08597392051205295 1:862 2:815 
-0.168776230856343 1:857 2:810 
-0.25 1:857 2:811 
-0.25 1:782 2:729 
-0.25 1:779 2:731 
-0.25 1:775 2:730 
-0.25 1:771 2:729 
-0.08087174849635462 1:770 2:729 
-0.25 1:774 2:733 
-0.25 1:772 2:731 
-0.25 1:770 2:729 
-0.25 1:771 2:731 
-0.25 1:768 2:728 
-0.25 1:765 2:725 
-0.25 1:766 2:727 
-0.2290143108053788 1:764 2:725 
-0.2298108191150496 1:767 2:729 
-0.25 1:771 2:733 
-0.1872123208655542 1:769 2:730 
-0.1474811787716933 1:769 2:730 
-0.1006164298442896 1:768 2:730 
-0.1501581892662613 1:766 2:728 
-0.25 1:763 2:725 
-0.115762078236873 1:765 2:727 
-0.200873743151632 1:765 2:726 
-0.25 1:762 2:725 
-0.25 1:769 2:733 
-0.07867700372339376 1:766 2:730 
-0.2011522319031195 1:761 2:725 
-0.2131719017638954 1:768 2:732 
-0.2008197588079847 1:768 2:732 
-0.03831826024066395 1:767 2:731 
-0.2425452248201989 1:766 2:730 
-0.08689470609745148 1:764 2:728 
-0.25 1:760 2:726 
-0.2468126938991255 1:767 2:731 
-0.25 1:765 2:729 
-0.2098509515012167 1:764 2:728 
-0.02239050098864323 1:763 2:728 
-0.1432158836622154 1:762 2:727 
-0.1540071442446348 1:760 2:725 
-0.25 1:763 2:729 
-0.07771829316514327 1:762 2:728 
-0.2322640781596515 1:762 2:728 
-0.04194039954852576 1:761 2:727 
-0.25 1:761 2:727 
-0.25 1:759 2:725 
-0.25 1:758 2:724 
-0.25 1:645 2:591 
-0.0005651199620955727 1:644 2:593 
-0.25 1:643 2:592 
-0.1596118698968657 1:643 2:594 
-0.25 1:646 2:596 
-0.111409774651655 1:644 2:596 
-0.0005434320968429329 1:650 2:603 
-0.1074864298379136 1:650 2:603 
-0.25 1:644 2:598 
-0.1402569862074405 1:645 2:600 
-0.0490045275708034 1:648 2:603 
-0.0005794361862675179 1:647 2:603 
-0.07068076055435071 1:648 2:605 
-0.25 1:643 2:603 
-0.01612204389767069 1:642 2:601 
-0.25 1:645 2:591 
-0.02268109672801106 1:644 2:593 
-0.218027649805611 1:643 2:592 
-0.25 1:644 2:593 
-0.2306258938707229 1:643 2:594 
-0.25 1:646 2:596 
-0.2140482777925862 1:644 2:595 
-0.25 1:644 2:596 
-0.25 1:646 2:598 
-0.2432759810916826 1:646 2:598 
-0.01740975516653889 1:648 2:601 
-0.25 1:648 2:601 
-0.25 1:650 2:603 
-0.2445755020629181 1:650 2:603 
-0.24708456332582 1:648 2:601 
-0.1929365806992842 1:644 2:598 
-0.2195155369313375 1:645 2:600 
-0.006984613448538762 1:644 2:599 
-0.05076373953644872 1:645 2:602 
-0.2409721631085072 1:648 2:603 
-0.25 1:648 2:605 
-0.01837143797330082 1:647 2:603 
-0.2473830639702624 1:647 2:602 
-0.25 1:642 2:599 
-0.0107114658766858 1:644 2:600 
-0.25 1:644 2:600 
-0.25 1:648 2:605 
-0.23837772096373 1:646 2:604 
-0.2479975410502555 1:645 2:602 
-0.2412867020988718 1:641 2:599 
-0.25 1:642 2:601 
-0.1619627603980031 1:645 2:603 
-0.1196261201426524 1:644 2:602 
-0.2365188938485063 1:646 2:604 
-0.25 1:643 2:603 
-0.2240445167190611 1:641 2:599 
-0.2480736937048021 1:642 2:601 
-0.25 1:425 2:386 
-0.25 1:429 2:390 
-0.25 1:430 2:393 
-0.25 1:431 2:394 
-0.25 1:432 2:396 
-0.25 1:432 2:398 
-0.25 1:434 2:401 
-0.25 1:436 2:403 
-0.25 1:437 2:404 
-0.25 1:436 2:407 
-0.25 1:439 2:408 
-0.25 1:440 2:410 
-0.25 1:443 2:414 
-0.25 1:442 2:414 
-0.25 1:442 2:416 
-0.25 1:445 2:419 
-0.25 1:447 2:423 
-0.25 1:449 2:424 
-0.25 1:452 2:427 
-0.25 1:451 2:429 
-0.25 1:454 2:432 
-0.25 1:455 2:432 
-0.25 1:455 2:435 
-0.25 1:456 2:435 
-0.25 1:455 2:435 
-0.25 1:457 2:438 
-0.25 1:458 2:440 
-0.25 1:459 2:441 
-0.25 1:460 2:443 
-0.25 1:461 2:444 
-0.25 1:461 2:447 
-0.25 1:465 2:450 
-0.25 1:467 2:452 
-0.25 1:466 2:452 
-0.25 1:468 2:454 
-0.25 1:468 2:456 
-0.25 1:467 2:455 
-0.25 1:468 2:456 
-0.25 1:471 2:459 
-0.25 1:471 2:459 
-0.25 1:472 2:461 
-0.25 1:473 2:463 
-0.25 1:475 2:465 
-0.25 1:477 2:469 
-0.25 1:477 2:468 
-0.25 1:478 2:470 
-0.25 1:480 2:472 
-0.25 1:479 2:472 
-0.25 1:481 2:474 
-0.25 1:479 2:474 
-0.25 1:480 2:474 
-0.0005922909388181297 1:665 2:699 
-0.25 1:664 2:698 
-0.1565104749410481 1:665 2:699 
-0.25 1:666 2:700 
-0.2221821546747289 1:665 2:697 
-0.1682128207860557 1:667 2:699 
-0.25 1:663 2:696 
-0.25 1:664 2:699 
-0.25 1:664 2:695 
-0.25 1:668 2:701 
-0.25 1:668 2:701 
-0.1296346746519095 1:666 2:699 
-0.02837407135640818 1:668 2:700 
-0.1574485222467871 1:666 2:697 
-0.2164757914010472 1:670 2:702 
-0.25 1:672 2:703 
-0.04243492656255887 1:671 2:701 
-0.04792632329844104 1:669 2:700 
-0.02128154652332061 1:667 2:698 
-0.25 1:666 2:697 
-0.25 1:670 2:700 
-0.1913017376684703 1:670 2:702 
-0.25 1:671 2:701 
-0.2039865289797737 1:672 2:702 
-0.25 1:669 2:699 
-0.1777917000100248 1:668 2:698 
-0.25 1:668 2:698 
-0.2316448925235228 1:672 2:703 
-0.25 1:772 2:780 
-0.25 1:776 2:783 
-0.25 1:777 2:785 
-0.05981277289971493 1:775 2:783 
-0.2471980710032302 1:775 2:783 
-0.25 1:771 2:780 
-0.02383295863608875 1:776 2:785 
-0.25 1:777 2:785 
-0.191427377040116 1:772 2:782 
-0.05059923402591492 1:771 2:781 
-0.006117937744321067 1:774 2:783 
-0.25 1:776 2:786 
-0.25 1:774 2:783 
-0.25 1:769 2:779 
-0.01742979179004434 1:775 2:786 
-0.25 1:775 2:786 
-0.04473438467508874 1:773 2:784 
-0.05319159322930309 1:770 2:781 
-0.0005616440775817744 1:768 2:780 
-0.1940247416521158 1:772 2:784 
-0.25 1:773 2:786 
-0.2270532210963069 1:774 2:786 
-0.25 1:773 2:782 
-0.1798977190382272 1:771 2:782 
-0.1645171110461413 1:768 2:780 
-0.25 1:767 2:778 
-0.246379128506076 1:768 2:780 
-0.01885502306064606 1:772 2:783 
-0.25 1:772 2:784 
-0.2232337159046329 1:770 2:782 
-0.181401957343321 1:773 2:785 
-0.25 1:768 2:778 
-0.1453039780365576 1:769 2:781 
-0.03296141917759071 1:769 2:780 
-0.25 1:769 2:782 
-0.25 1:791 2:791 
-0.25 1:791 2:792 
-0.25 1:789 2:789 
-0.25 1:789 2:789 
-0.25 1:793 2:794 
-0.25 1:793 2:796 
-0.1958856446818803 1:791 2:794 
-0.25 1:789 2:791 
-0.08545191399275319 1:787 2:790 
-0.2450244075496507 1:789 2:792 
-0.08948863099322008 1:792 2:795 
-0.25 1:792 2:795 
-0.25 1:786 2:789 
-0.03163887832660501 1:789 2:793 
-0.2244686123177167 1:790 2:793 
-0.1687527908385242 1:788 2:794 
-0.25 1:787 2:790 
-0.2045410060089978 1:790 2:795 
-0.25 1:790 2:795 
-0.1596650243862713 1:787 2:791 
-0.25 1:788 2:794 
-0.0436647830283519 1:789 2:794 
-0.08564440909287648 1:787 2:792 
-0.25 1:783 2:789 
-0.25 1:784 2:788 
-0.1684190199486997 1:785 2:790 
-0.2349643191565953 1:787 2:793 
-0.1631880908519882 1:786 2:792 
-0.25 1:785 2:792 
-0.1689791568708745 1:785 2:791 
-0.07790882558874336 1:787 2:793 
-0.25 1:784 2:790 
-0.25 1:859 2:836 
-0.25 1:861 2:838 
-0.1728160755908424 1:860 2:837 
-0.25 1:858 2:836 
-0.25 1:860 2:836 
-0.1558187229656315 1:860 2:838 
-0.1132093186143265 1:861 2:840 
-0.25 1:864 2:842 
-0.2479032874369954 1:861 2:840 
-0.1460370670389835 1:862 2:841 
-0.25 1:864 2:842 
-0.2338625852350414 1:861 2:841 
-0.1293766843938798 1:863 2:842 
-0.25 1:862 2:842 
-0.0945257682981786 1:858 2:839 
-0.25 1:859 2:839 
-0.150239989096439 1:859 2:839 
-0.25 1:855 2:836 
-0.2074787346396456 1:857 2:838 
-0.25 1:853 2:835 
-0.1179861826621662 1:854 2:835 
-0.25 1:854 2:835 
-0.1569579391844166 1:857 2:840 
-0.25 1:857 2:838 
-0.1028329182572124 1:858 2:842 
-0.25 1:858 2:842 
-0.2169711444909057 1:856 2:840 
-0.25 1:855 2:840 
-0.02985088139379129 1:857 2:841 
-0.2057688463856233 1:858 2:841 
-0.25 1:857 2:842 
-0.1456647656200471 1:856 2:839 
-0.2022280103726854 1:854 2:838 
-0.1942447550197177 1:854 2:837 
-0.25 1:854 2:838 
-0.25 1:852 2:839 
-0.25 1:852 2:836 
-0.25 1:850 2:835 
