svm_type c_svc
kernel_type rbf
gamma 0.25
nr_class 2
total_sv 634
rho 0.374433
label 1 -1
nr_sv 318 316
SV
0.125 1:932 2:896 
0.125 1:931 2:893 
0.125 1:927 2:890 
0.125 1:926 2:891 
0.125 1:928 2:892 
0.125 1:932 2:896 
0.125 1:933 2:897 
0.125 1:929 2:894 
0.125 1:930 2:894 
0.125 1:926 2:891 
0.125 1:929 2:896 
0.125 1:929 2:896 
0.125 1:929 2:896 
0.125 1:925 2:894 
0.125 1:924 2:894 
0.125 1:928 2:896 
0.125 1:925 2:894 
0.125 1:926 2:896 
0.125 1:927 2:896 
0.125 1:925 2:894 
0.125 1:922 2:892 
0.125 1:924 2:895 
0.125 1:927 2:897 
0.125 1:926 2:897 
0.125 1:924 2:895 
0.125 1:922 2:893 
0.125 1:921 2:894 
0.125 1:923 2:896 
0.125 1:924 2:895 
0.125 1:926 2:898 
0.125 1:924 2:896 
0.125 1:925 2:897 
0.125 1:923 2:896 
0.08742192698370423 1:917 2:890 
0.125 1:921 2:894 
0.125 1:919 2:894 
0.125 1:923 2:897 
0.125 1:924 2:898 
0.125 1:921 2:895 
0.125 1:923 2:897 
0.125 1:919 2:894 
0.125 1:915 2:890 
0.125 1:918 2:893 
0.125 1:919 2:895 
0.125 1:918 2:894 
0.125 1:916 2:893 
0.125 1:917 2:893 
0.0712902617174188 1:910 2:880 
0.125 1:910 2:879 
0.125 1:907 2:878 
0.125 1:905 2:878 
0.125 1:908 2:879 
0.125 1:907 2:880 
0.125 1:909 2:884 
0.125 1:908 2:882 
0.12292683246533 1:906 2:882 
0.04617020076898976 1:905 2:880 
0.125 1:904 2:880 
0.125 1:908 2:886 
0.125 1:908 2:885 
0.125 1:905 2:883 
0.01855990675295064 1:905 2:882 
0.01878498789587605 1:903 2:881 
0.125 1:904 2:880 
0.125 1:902 2:883 
0.125 1:905 2:882 
0.125 1:907 2:885 
0.125 1:901 2:879 
0.125 1:903 2:881 
0.125 1:901 2:880 
0.125 1:898 2:878 
0.125 1:899 2:879 
0.125 1:903 2:883 
0.125 1:903 2:886 
0.09823221987253944 1:901 2:882 
0.125 1:903 2:884 
0.125 1:900 2:880 
0.125 1:897 2:878 
0.125 1:899 2:882 
0.125 1:899 2:880 
0.125 1:902 2:884 
0.125 1:902 2:883 
0.125 1:898 2:881 
0.125 1:905 2:878 
0.125 1:905 2:879 
0.125 1:908 2:882 
0.125 1:909 2:884 
0.125 1:907 2:882 
0.125 1:905 2:880 
0.125 1:907 2:883 
0.1242709416577267 1:905 2:882 
0.125 1:907 2:885 
0.125 1:908 2:884 
0.125 1:907 2:884 
0.125 1:903 2:881 
0.125 1:903 2:883 
0.125 1:903 2:881 
0.125 1:905 2:884 
0.125 1:904 2:884 
0.125 1:905 2:883 
0.125 1:901 2:880 
0.125 1:902 2:883 
0.07913352315713076 1:902 2:881 
0.125 1:897 2:879 
0.125 1:898 2:878 
0.125 1:897 2:878 
0.125 1:897 2:878 
0.125 1:897 2:879 
0.02851979385572264 1:898 2:879 
0.125 1:897 2:879 
0.125 1:900 2:880 
0.125 1:896 2:878 
0.1116545809938722 1:900 2:881 
0.125 1:897 2:879 
0.125 1:900 2:882 
0.125 1:897 2:878 
0.125 1:900 2:882 
0.125 1:900 2:883 
0.125 1:900 2:883 
0.125 1:899 2:882 
0.125 1:897 2:881 
0.125 1:925 2:892 
0.125 1:926 2:891 
0.118893713368656 1:924 2:891 
0.03592444739588858 1:921 2:889 
0.125 1:921 2:893 
0.1034125122464458 1:920 2:891 
0.125 1:921 2:893 
0.125 1:920 2:891 
0.125 1:919 2:890 
0.01603849709239074 1:919 2:892 
0.08746732464939536 1:918 2:891 
0.125 1:919 2:892 
0.06142301922226343 1:919 2:892 
0.125 1:913 2:889 
0.125 1:919 2:894 
0.125 1:920 2:894 
0.125 1:915 2:890 
0.0952006791827763 1:912 2:887 
0.125 1:911 2:888 
0.125 1:911 2:887 
0.125 1:912 2:888 
0.125 1:915 2:890 
0.125 1:917 2:893 
0.125 1:916 2:893 
0.125 1:913 2:890 
0.125 1:909 2:885 
0.125 1:911 2:888 
0.125 1:914 2:891 
0.125 1:917 2:893 
0.125 1:915 2:893 
0.125 1:914 2:890 
0.125 1:914 2:890 
0.08806672057892356 1:925 2:890 
0.125 1:924 2:889 
0.125 1:917 2:885 
0.125 1:922 2:892 
0.125 1:920 2:891 
0.007438400558870935 1:919 2:890 
0.03852541823164499 1:921 2:892 
0.125 1:918 2:891 
0.002060017525800403 1:917 2:889 
0.125 1:914 2:887 
0.04166934500390245 1:911 2:884 
0.125 1:912 2:885 
0.125 1:912 2:886 
0.09074972937432135 1:912 2:887 
0.03270237387245542 1:914 2:888 
0.125 1:917 2:891 
0.125 1:917 2:891 
0.09656571587886714 1:914 2:888 
0.1019293401724308 1:916 2:890 
0.02933035556327051 1:916 2:888 
0.125 1:916 2:890 
0.125 1:912 2:888 
0.125 1:912 2:888 
0.125 1:913 2:889 
0.0232849932060662 1:914 2:889 
0.125 1:911 2:886 
0.125 1:924 2:888 
0.125 1:927 2:890 
0.125 1:926 2:888 
0.125 1:927 2:890 
0.125 1:923 2:887 
0.125 1:919 2:884 
0.125 1:918 2:884 
0.125 1:920 2:886 
0.125 1:921 2:885 
0.125 1:919 2:885 
0.07635157104232797 1:920 2:888 
0.125 1:920 2:888 
0.125 1:915 2:883 
0.125 1:917 2:885 
0.125 1:921 2:889 
0.04694011750276057 1:919 2:888 
0.125 1:914 2:883 
0.125 1:916 2:885 
0.01650099918772958 1:916 2:886 
0.08181797319927372 1:915 2:887 
0.04400203752375204 1:915 2:885 
0.125 1:915 2:885 
0.125 1:915 2:887 
0.125 1:916 2:888 
0.125 1:915 2:887 
0.1020123652677919 1:912 2:885 
0.09041500145419563 1:910 2:883 
0.125 1:911 2:884 
0.125 1:909 2:882 
0.125 1:921 2:884 
0.01797271152570337 1:923 2:888 
0.125 1:923 2:887 
0.125 1:922 2:887 
0.05918073520550202 1:923 2:890 
0.125 1:924 2:889 
0.125 1:923 2:888 
0.07348054453533742 1:923 2:891 
0.0785381138661419 1:921 2:887 
0.125 1:922 2:890 
0.1096061040354711 1:923 2:891 
0.125 1:923 2:892 
0.01689974874587258 1:922 2:891 
0.08662982394758431 1:921 2:890 
0.1226013706599735 1:921 2:890 
0.06927926468656768 1:916 2:888 
0.1128543695402327 1:918 2:889 
0.1097490280536215 1:918 2:887 
0.125 1:914 2:886 
0.125 1:911 2:882 
0.05859814097489942 1:913 2:885 
0.125 1:913 2:885 
0.125 1:911 2:881 
0.125 1:912 2:882 
0.125 1:910 2:882 
0.125 1:911 2:884 
0.04285725989002363 1:911 2:883 
0.1229484642520285 1:911 2:883 
0.1193915952853902 1:911 2:884 
0.125 1:922 2:885 
0.125 1:923 2:885 
0.125 1:923 2:885 
0.125 1:926 2:889 
0.125 1:926 2:891 
0.125 1:927 2:890 
0.125 1:924 2:888 
0.125 1:928 2:891 
0.125 1:923 2:888 
0.1173655932285371 1:921 2:887 
0.125 1:922 2:887 
0.125 1:920 2:885 
0.125 1:919 2:885 
0.001765835680146613 1:922 2:889 
0.125 1:920 2:886 
0.125 1:924 2:891 
0.1162369499409738 1:924 2:891 
0.05932071677562004 1:919 2:886 
0.125 1:916 2:883 
0.103207971611853 1:919 2:886 
0.125 1:921 2:889 
0.125 1:918 2:887 
0.125 1:915 2:884 
0.125 1:915 2:884 
0.125 1:914 2:883 
0.05979628288979474 1:917 2:887 
0.1185622809073172 1:919 2:888 
0.1179400552487846 1:919 2:889 
0.10507652789571 1:916 2:886 
0.04481466809553148 1:914 2:884 
0.125 1:913 2:882 
0.125 1:913 2:884 
0.125 1:917 2:886 
0.04033905404368566 1:914 2:885 
0.125 1:918 2:889 
0.08096422024888675 1:917 2:888 
0.125 1:917 2:888 
0.01059352414439377 1:918 2:890 
0.125 1:915 2:882 
0.125 1:915 2:881 
0.125 1:911 2:879 
0.125 1:908 2:877 
0.125 1:910 2:880 
0.125 1:914 2:881 
0.125 1:913 2:882 
0.125 1:910 2:880 
0.125 1:910 2:880 
0.125 1:909 2:879 
0.125 1:907 2:876 
0.125 1:911 2:880 
0.119713663625508 1:910 2:880 
0.125 1:906 2:877 
0.125 1:906 2:876 
0.125 1:908 2:879 
0.1224124006633111 1:907 2:879 
0.125 1:907 2:879 
0.125 1:907 2:878 
0.125 1:902 2:875 
0.125 1:903 2:875 
0.125 1:903 2:876 
0.125 1:908 2:881 
0.125 1:904 2:878 
0.125 1:901 2:874 
0.125 1:902 2:877 
0.08846190050184798 1:906 2:879 
0.07972062466288458 1:908 2:883 
0.125 1:903 2:875 
0.125 1:902 2:877 
0.08312557476366937 1:906 2:881 
0.1183258201926957 1:906 2:881 
0.125 1:902 2:876 
0.125 1:899 2:874 
0.125 1:903 2:877 
0.1197659208253922 1:903 2:877 
0.125 1:902 2:878 
0.125 1:902 2:877 
0.125 1:900 2:876 
0.125 1:903 2:879 
0.125 1:902 2:879 
0.125 1:902 2:877 
0.125 1:899 2:874 
-0.125 1:866 2:807 
-0.125 1:867 2:808 
-0.125 1:865 2:809 
-0.125 1:872 2:814 
-0.125 1:868 2:811 
-0.125 1:867 2:811 
-0.125 1:866 2:810 
-0.125 1:863 2:809 
-0.125 1:864 2:808 
-0.125 1:862 2:808 
-0.125 1:866 2:812 
-0.125 1:867 2:814 
-0.125 1:866 2:814 
-0.125 1:867 2:813 
-0.125 1:864 2:811 
-0.125 1:864 2:811 
-0.06878425615573952 1:863 2:811 
-0.125 1:861 2:809 
-0.125 1:859 2:807 
-0.125 1:860 2:810 
-0.125 1:857 2:806 
-0.1192296216398467 1:862 2:811 
-0.125 1:863 2:813 
-0.125 1:866 2:815 
-0.09824930138856894 1:864 2:814 
-0.125 1:864 2:815 
-0.125 1:866 2:816 
-0.125 1:861 2:812 
-0.00753194796131712 1:859 2:810 
-0.1083832209849593 1:858 2:809 
-0.125 1:857 2:809 
-0.125 1:859 2:811 
-0.125 1:860 2:811 
-0.125 1:856 2:809 
-0.1050486093311749 1:858 2:809 
-0.125 1:861 2:813 
-0.0411550247551481 1:861 2:814 
-0.08115191810105521 1:863 2:815 
-0.125 1:861 2:815 
-0.125 1:863 2:815 
-0.125 1:861 2:815 
-0.125 1:861 2:815 
-0.125 1:857 2:810 
-0.125 1:857 2:811 
-0.125 1:782 2:729 
-0.125 1:779 2:731 
-0.125 1:775 2:730 
-0.125 1:771 2:729 
-0.125 1:770 2:729 
-0.125 1:774 2:733 
-0.125 1:772 2:731 
-0.125 1:770 2:729 
-0.125 1:771 2:731 
-0.125 1:768 2:728 
-0.125 1:765 2:725 
-0.125 1:764 2:725 
-0.125 1:766 2:727 
-0.1083190621072345 1:764 2:725 
-0.07490927595729502 1:767 2:729 
-0.125 1:771 2:733 
-0.02239422340206837 1:769 2:730 
-0.125 1:769 2:730 
-0.1167886872165129 1:766 2:728 
-0.1207930655599896 1:763 2:725 
-0.0124169737068407 1:765 2:727 
-0.125 1:765 2:726 
-0.125 1:762 2:725 
-0.01921262998747218 1:766 2:730 
-0.125 1:769 2:733 
-0.125 1:766 2:730 
-0.125 1:768 2:732 
-0.125 1:761 2:725 
-0.125 1:768 2:732 
-0.1175592040153236 1:768 2:732 
-0.125 1:766 2:730 
-0.125 1:760 2:726 
-0.09817814393422349 1:767 2:731 
-0.1235631192657078 1:765 2:729 
-0.1171754896865362 1:764 2:728 
-0.03739389815509987 1:763 2:728 
-0.125 1:760 2:725 
-0.125 1:763 2:729 
-0.125 1:762 2:728 
-0.125 1:762 2:728 
-0.125 1:761 2:727 
-0.07088194658781845 1:761 2:727 
-0.125 1:759 2:725 
-0.125 1:758 2:724 
-0.125 1:645 2:591 
-0.125 1:643 2:592 
-0.125 1:643 2:594 
-0.125 1:646 2:596 
-0.1031617714459635 1:644 2:596 
-0.06606608207234003 1:646 2:598 
-0.125 1:650 2:603 
-0.125 1:650 2:603 
-0.08492217113449663 1:648 2:601 
-0.125 1:644 2:598 
-0.125 1:645 2:600 
-0.09968453933338747 1:648 2:605 
-0.125 1:648 2:605 
-0.125 1:641 2:599 
-0.06729656918835718 1:646 2:604 
-0.125 1:643 2:603 
-0.125 1:641 2:599 
-0.08203687286876893 1:642 2:601 
-0.125 1:645 2:591 
-0.0315740075476367 1:644 2:593 
-0.125 1:643 2:592 
-0.1238829402955241 1:644 2:593 
-0.125 1:643 2:594 
-0.03175445819617986 1:643 2:593 
-0.125 1:646 2:596 
-0.09710804849043855 1:644 2:595 
-0.125 1:644 2:596 
-0.125 1:646 2:598 
-0.125 1:646 2:598 
-0.125 1:648 2:601 
-0.125 1:648 2:601 
-0.125 1:650 2:603 
-0.1181673359933121 1:650 2:603 
-0.125 1:648 2:601 
-0.09670831332063184 1:644 2:598 
-0.1086570103078042 1:645 2:600 
-0.009504144558966339 1:645 2:602 
-0.125 1:648 2:605 
-0.04732709148551593 1:647 2:602 
-0.08457845683658127 1:644 2:600 
-0.09992901140568913 1:648 2:605 
-0.125 1:646 2:604 
-0.125 1:645 2:602 
-0.125 1:641 2:599 
-0.125 1:642 2:601 
-0.1189150531703039 1:645 2:603 
-0.03681903863535384 1:644 2:602 
-0.125 1:646 2:604 
-0.125 1:643 2:603 
-0.1210180349463209 1:641 2:599 
-0.125 1:642 2:601 
-0.125 1:425 2:386 
-0.125 1:429 2:390 
-0.125 1:430 2:393 
-0.125 1:431 2:394 
-0.125 1:432 2:396 
-0.125 1:432 2:398 
-0.125 1:434 2:401 
-0.125 1:436 2:403 
-0.125 1:437 2:404 
-0.125 1:436 2:407 
-0.125 1:439 2:408 
-0.125 1:440 2:410 
-0.125 1:443 2:414 
-0.125 1:442 2:414 
-0.125 1:442 2:416 
-0.125 1:445 2:419 
-0.125 1:447 2:423 
-0.125 1:449 2:424 
-0.125 1:452 2:427 
-0.125 1:451 2:429 
-0.125 1:454 2:432 
-0.125 1:455 2:432 
-0.125 1:455 2:435 
-0.125 1:456 2:435 
-0.125 1:455 2:435 
-0.125 1:457 2:438 
-0.125 1:458 2:440 
-0.125 1:459 2:441 
-0.125 1:460 2:443 
-0.125 1:461 2:444 
-0.125 1:461 2:447 
-0.125 1:465 2:450 
-0.125 1:467 2:452 
-0.125 1:466 2:452 
-0.125 1:468 2:454 
-0.125 1:468 2:456 
-0.125 1:467 2:455 
-0.125 1:468 2:456 
-0.125 1:471 2:459 
-0.125 1:471 2:459 
-0.125 1:472 2:461 
-0.125 1:473 2:463 
-0.125 1:475 2:465 
-0.125 1:477 2:469 
-0.125 1:477 2:468 
-0.125 1:478 2:470 
-0.125 1:480 2:472 
-0.125 1:479 2:472 
-0.125 1:481 2:474 
-0.125 1:479 2:474 
-0.125 1:480 2:474 
-0.08386112612817143 1:665 2:699 
-0.125 1:664 2:698 
-0.1208393186299927 1:665 2:699 
-0.125 1:666 2:700 
-0.1113442468719335 1:665 2:697 
-0.125 1:663 2:696 
-0.125 1:664 2:699 
-0.125 1:664 2:695 
-0.125 1:668 2:701 
-0.125 1:668 2:701 
-0.04780412415027874 1:668 2:700 
-0.02735702418839305 1:666 2:697 
-0.125 1:666 2:697 
-0.123904658938825 1:670 2:702 
-0.125 1:672 2:703 
-0.125 1:671 2:701 
-0.125 1:668 2:698 
-0.123026318726654 1:666 2:697 
-0.125 1:670 2:700 
-0.125 1:670 2:702 
-0.0749639992775946 1:671 2:701 
-0.125 1:672 2:702 
-0.125 1:669 2:699 
-0.125 1:668 2:698 
-0.109064286317016 1:668 2:698 
-0.125 1:672 2:703 
-0.125 1:772 2:780 
-0.125 1:776 2:783 
-0.125 1:777 2:785 
-0.125 1:775 2:783 
-0.125 1:775 2:783 
-0.125 1:771 2:780 
-0.002358125412765116 1:776 2:785 
-0.125 1:777 2:785 
-0.1010825742511 1:772 2:782 
-0.08394966058213829 1:771 2:781 
-0.125 1:776 2:786 
-0.08941106048504269 1:774 2:783 
-0.125 1:769 2:779 
-0.09999783824319834 1:772 2:784 
-0.1156730425626595 1:775 2:786 
-0.117685641364642 1:775 2:786 
-0.125 1:768 2:780 
-0.125 1:772 2:784 
-0.125 1:773 2:786 
-0.125 1:774 2:786 
-0.125 1:773 2:782 
-0.125 1:768 2:780 
-0.125 1:767 2:778 
-0.125 1:768 2:780 
-0.125 1:772 2:784 
-0.125 1:770 2:782 
-0.125 1:770 2:782 
-0.06901709695354723 1:773 2:785 
-0.125 1:768 2:778 
-0.125 1:769 2:782 
-0.125 1:791 2:791 
-0.125 1:791 2:792 
-0.125 1:790 2:792 
-0.125 1:789 2:789 
-0.125 1:789 2:789 
-0.125 1:793 2:794 
-0.125 1:793 2:796 
-0.09912132282307866 1:791 2:794 
-0.125 1:789 2:791 
-0.125 1:787 2:790 
-0.07078770878021749 1:789 2:792 
-0.125 1:792 2:795 
-0.125 1:792 2:795 
-0.125 1:786 2:789 
-0.01166404672355264 1:790 2:793 
-0.125 1:788 2:794 
-0.125 1:787 2:790 
-0.125 1:790 2:795 
-0.125 1:790 2:795 
-0.001535058875636221 1:787 2:793 
-0.125 1:788 2:794 
-0.03649783122113159 1:789 2:794 
-0.125 1:783 2:789 
-0.125 1:784 2:788 
-0.07591953927130246 1:785 2:790 
-0.03420592529489347 1:785 2:791 
-0.125 1:787 2:793 
-0.09446178412209939 1:786 2:792 
-0.125 1:785 2:792 
-0.125 1:785 2:791 
-0.125 1:787 2:793 
-0.125 1:784 2:790 
-0.125 1:859 2:836 
-0.125 1:861 2:838 
-0.125 1:860 2:837 
-0.125 1:858 2:836 
-0.125 1:860 2:836 
-0.08623315633023058 1:860 2:838 
-0.125 1:861 2:840 
-0.125 1:864 2:842 
-0.1147767801355628 1:861 2:840 
-0.1106517804757741 1:862 2:841 
-0.125 1:864 2:842 
-0.125 1:861 2:841 
-0.125 1:863 2:842 
-0.125 1:862 2:842 
-0.07840760611608241 1:858 2:839 
-0.05078690172161007 1:859 2:839 
-0.125 1:859 2:839 
-0.125 1:855 2:836 
-0.125 1:857 2:838 
-0.125 1:853 2:835 
-0.125 1:854 2:835 
-0.125 1:854 2:835 
-0.04887373344871557 1:854 2:836 
-0.125 1:857 2:838 
-0.125 1:858 2:842 
-0.125 1:858 2:842 
-0.125 1:858 2:842 
-0.125 1:856 2:840 
-0.125 1:854 2:838 
-0.125 1:855 2:840 
-0.08412472276365195 1:857 2:841 
-0.125 1:857 2:842 
-0.07116609325335968 1:856 2:839 
-0.125 1:854 2:838 
-0.125 1:854 2:838 
-0.125 1:852 2:839 
-0.125 1:852 2:836 
-0.125 1:850 2:835 
