svm_type c_svc
kernel_type rbf
gamma 0.5
nr_class 2
total_sv 458
rho 0.348723
label 1 -1
nr_sv 200 258
SV
1 1:931 2:893 
0.8819538230664001 1:928 2:892 
0.9570129198863503 1:932 2:896 
0.9964217434148577 1:933 2:897 
0.804201373808771 1:929 2:894 
0.3745788993635415 1:930 2:894 
0.961713278189922 1:929 2:896 
0.4332746976704189 1:924 2:894 
0.2480646301355766 1:928 2:896 
0.6402843899673355 1:926 2:896 
0.3265409746211725 1:927 2:896 
0.7473645649501783 1:925 2:894 
0.3811876794894541 1:927 2:897 
0.5622993600492213 1:922 2:893 
0.3257021580796451 1:924 2:895 
0.9097768100648957 1:926 2:898 
0.2153978275966149 1:924 2:896 
0.1378540413529767 1:925 2:897 
0.5477442520637953 1:923 2:896 
0.8859246860695545 1:924 2:898 
0.9829885961747526 1:921 2:895 
0.5328454521747543 1:923 2:897 
0.8742233689086883 1:919 2:895 
0.5354513866631341 1:918 2:894 
0.06008798048977105 1:910 2:879 
0.4250235034469839 1:907 2:880 
0.3683226677431891 1:906 2:882 
0.8701787300680062 1:908 2:886 
0.415101075503937 1:904 2:880 
0.755704200586788 1:901 2:879 
0.4685751015344682 1:904 2:882 
0.4983831794713631 1:899 2:879 
1 1:903 2:886 
0.12396208935455 1:901 2:882 
0.4148476365329209 1:899 2:880 
0.9306546204163919 1:902 2:884 
0.1951906907118069 1:898 2:881 
0.6504345513229934 1:905 2:878 
0.06401771896244879 1:908 2:882 
0.4162006221750315 1:909 2:884 
0.2015189986197924 1:907 2:882 
0.383858671810178 1:905 2:880 
0.3653030990335406 1:907 2:883 
0.2874793095393564 1:905 2:882 
0.6192468479637994 1:907 2:885 
0.07316652984810544 1:905 2:881 
0.009914155088368234 1:904 2:881 
0.2600069903901421 1:907 2:884 
0.3212045884410179 1:903 2:883 
0.4235154213835901 1:903 2:881 
0.7881401512794217 1:905 2:884 
0.3387441173433474 1:901 2:881 
0.4196843857306057 1:904 2:884 
0.02527336792808805 1:905 2:883 
0.3833797443658504 1:902 2:882 
0.1179549748172348 1:901 2:880 
0.2611619981053763 1:902 2:881 
0.802105388152893 1:898 2:878 
0.129874960007447 1:900 2:880 
1 1:896 2:878 
0.2453018962359282 1:900 2:881 
0.429954444679926 1:897 2:879 
0.873624894139359 1:900 2:883 
0.6549935375227917 1:899 2:882 
1 1:897 2:881 
0.7984900537657516 1:925 2:892 
0.4229137975916029 1:921 2:893 
0.5435631471814671 1:919 2:892 
0.1797018379065032 1:920 2:894 
0.3732651286058022 1:919 2:893 
0.0763683739091587 1:911 2:888 
0.2076753905147864 1:915 2:890 
0.2062536956115575 1:916 2:893 
0.6686576093607813 1:913 2:890 
0.4767821439082581 1:909 2:885 
1 1:911 2:888 
0.8216875974828177 1:914 2:891 
0.6615731920072013 1:917 2:893 
1 1:915 2:893 
0.4718407261054851 1:925 2:890 
0.129391125127438 1:923 2:889 
0.3564135935423378 1:920 2:891 
0.4545342527740852 1:919 2:890 
0.2012676791867596 1:921 2:892 
0.2508543328625047 1:918 2:891 
0.2934840057452798 1:917 2:889 
0.1653097857102042 1:912 2:886 
0.6641857119238067 1:917 2:891 
0.3298558235631714 1:914 2:888 
0.5190196755500928 1:913 2:887 
0.4703972780644423 1:916 2:890 
0.1873541390408704 1:913 2:888 
0.04628844558395677 1:912 2:888 
0.3697612837169102 1:913 2:889 
0.8284781990028914 1:911 2:886 
1 1:926 2:888 
0.6833144403548652 1:919 2:884 
0.5788247505662921 1:918 2:884 
0.2325044514949478 1:921 2:885 
0.2703285594529329 1:920 2:888 
0.4340455015187544 1:917 2:885 
0.1850098458323498 1:916 2:885 
0.4411654105328509 1:915 2:885 
0.4941719633045984 1:915 2:887 
0.4297274526802969 1:915 2:889 
0.06181847756034211 1:912 2:885 
0.418705078663979 1:910 2:883 
0.3015995880590815 1:909 2:882 
0.9524546801272317 1:921 2:884 
0.6020298930832091 1:923 2:887 
0.3205592097158484 1:923 2:890 
0.1375898328021792 1:924 2:889 
0.1074473232861992 1:922 2:890 
0.116169364201154 1:923 2:891 
0.5842738775633098 1:923 2:892 
0.2918234301261776 1:921 2:891 
0.2369192115595845 1:922 2:891 
0.2000443934855738 1:921 2:890 
0.4116230503198663 1:916 2:888 
0.3788784105851647 1:914 2:886 
0.4316466483529698 1:913 2:885 
0.5533277324911869 1:911 2:881 
0.3014717567875015 1:912 2:884 
0.5494387629420522 1:912 2:882 
0.1564326308145092 1:910 2:882 
0.1577150588187591 1:911 2:883 
0.5130567326210025 1:911 2:884 
0.00585350695718609 1:922 2:885 
0.116384787876575 1:923 2:885 
1 1:923 2:885 
0.1243044835682143 1:926 2:889 
0.3837643110288673 1:926 2:891 
0.7511740425122212 1:927 2:890 
0.6632315454783846 1:924 2:888 
0.4659339132438557 1:928 2:891 
0.2486257156834227 1:924 2:890 
0.5378754511912406 1:921 2:887 
0.224102115504735 1:922 2:887 
0.02412854067511266 1:920 2:885 
0.4003710476234752 1:922 2:889 
0.4349845259323889 1:920 2:886 
0.06259187512537565 1:921 2:888 
0.1254681796717433 1:922 2:888 
0.1535076018056676 1:924 2:891 
0.9730572460737787 1:916 2:883 
0.5020232618973508 1:919 2:886 
0.2282793631790008 1:921 2:889 
0.03222084989268236 1:919 2:887 
0.3914630979358732 1:918 2:887 
0.1349636995657051 1:915 2:884 
0.5082359990381037 1:914 2:883 
0.2689224904007186 1:917 2:887 
0.4047086554813205 1:919 2:888 
0.2888840175388735 1:920 2:889 
0.03163222149996148 1:918 2:888 
0.0761010309924884 1:920 2:890 
0.02410691435310315 1:915 2:886 
0.2413429147507289 1:916 2:886 
0.193532475403147 1:914 2:884 
0.2437655134233575 1:913 2:884 
0.2601837896990232 1:917 2:886 
0.0362147593667563 1:914 2:885 
0.3984703409691542 1:918 2:889 
0.1679322507262214 1:917 2:888 
0.06572487185508899 1:918 2:890 
0.8635809937092953 1:915 2:881 
1 1:911 2:879 
0.8823619803005902 1:908 2:877 
0.5335794649821698 1:914 2:881 
0.3947945187441644 1:913 2:882 
0.710020454111292 1:909 2:879 
0.3917444861381506 1:907 2:876 
0.2102217787234628 1:910 2:881 
0.1257049287068082 1:911 2:880 
0.1447245092244615 1:909 2:880 
0.07347239852932827 1:906 2:877 
0.8905996810572493 1:906 2:876 
0.1626665587142364 1:908 2:879 
0.2082824455095766 1:907 2:879 
0.3382665997043906 1:907 2:878 
0.05045393597774905 1:903 2:875 
0.01099028421753156 1:903 2:876 
0.2381913570028408 1:909 2:881 
0.4424141833796293 1:908 2:881 
0.3464128075443869 1:904 2:878 
1 1:901 2:874 
0.3175272804936036 1:906 2:879 
0.3477600276856118 1:908 2:883 
0.06901011879805978 1:906 2:880 
1 1:903 2:875 
0.29317058141657 1:906 2:881 
0.2540549020874436 1:902 2:876 
0.1305389763807964 1:899 2:874 
0.4589866528616174 1:903 2:877 
0.2512362172556275 1:902 2:878 
1 1:900 2:876 
0.5367194622236984 1:903 2:879 
0.07037406541060064 1:902 2:879 
0.4330976042180755 1:902 2:877 
1 1:899 2:874 
-0.4380958593448206 1:866 2:807 
-0.4314571097172546 1:867 2:808 
-0.2262852958571384 1:865 2:809 
-0.6515194367074226 1:872 2:814 
-0.5671370831921074 1:868 2:811 
-0.3830108507796293 1:866 2:810 
-0.218370134399295 1:863 2:809 
-0.3805337260437672 1:864 2:808 
-0.3823680751594697 1:862 2:808 
-0.3895320607309516 1:866 2:812 
-0.3390234170936768 1:867 2:814 
-0.196850922896547 1:866 2:814 
-0.1746270244981203 1:867 2:813 
-0.4333608133175738 1:864 2:811 
-0.04917338810674775 1:863 2:811 
-0.3322027687795623 1:861 2:809 
-0.5554407735730489 1:859 2:807 
-0.2196958011894386 1:860 2:810 
-0.5991042791711869 1:857 2:806 
-0.3554467130604839 1:862 2:811 
-0.3703981562750768 1:863 2:813 
-0.1920185929915157 1:864 2:814 
-0.288981209013827 1:864 2:815 
-0.5668877903202247 1:866 2:816 
-0.1545986450571245 1:861 2:812 
-0.01906451631548844 1:859 2:810 
-0.3496327482090418 1:859 2:811 
-0.1205102333516089 1:860 2:811 
-0.5453937017866224 1:856 2:809 
-0.425657226539873 1:858 2:809 
-0.3683019511608894 1:861 2:813 
-0.01766927099087812 1:861 2:814 
-0.2125476022414046 1:863 2:815 
-0.4861607224886568 1:861 2:815 
-0.1038885876172872 1:862 2:815 
-0.5198116231437586 1:857 2:811 
-0.6502913328611583 1:782 2:729 
-0.6501742662786663 1:779 2:731 
-0.6438887962759223 1:775 2:730 
-0.4545424353627948 1:771 2:729 
-0.6327433517365462 1:774 2:733 
-0.4245167753721456 1:772 2:731 
-0.1632685763226019 1:770 2:729 
-0.2054964942001472 1:771 2:731 
-0.4893680964396271 1:768 2:728 
-0.4871996318779991 1:765 2:725 
-0.3599725363543281 1:766 2:727 
-0.04921108484002702 1:764 2:725 
-0.1550737780049634 1:767 2:729 
-0.5177747180232684 1:771 2:733 
-0.3778771811777403 1:769 2:730 
-0.06922300641606077 1:768 2:730 
-0.05391075290726868 1:766 2:728 
-0.4000780720130171 1:763 2:725 
-0.1685246881300562 1:765 2:727 
-0.03981755460562848 1:765 2:726 
-0.1388939271152883 1:762 2:725 
-0.4513349907547305 1:769 2:733 
-0.2873048535769016 1:761 2:725 
-0.3132517184652665 1:768 2:732 
-0.3220221026350069 1:766 2:730 
-0.2660175762329349 1:760 2:726 
-0.3227606431231701 1:767 2:731 
-0.2876019559347455 1:765 2:729 
-0.2283563905830789 1:764 2:728 
-0.1800119626561267 1:762 2:727 
-0.05291782074247601 1:760 2:725 
-0.412662368788135 1:763 2:729 
-0.2424594584154181 1:762 2:728 
-0.2782218262831964 1:761 2:727 
-0.2775790704378735 1:759 2:725 
-0.5379781811804581 1:758 2:724 
-0.5919891405345864 1:645 2:591 
-0.4532885270620406 1:643 2:592 
-0.2606630861782188 1:644 2:593 
-0.3859534381318608 1:643 2:594 
-0.5124769818047294 1:646 2:596 
-0.2108208484655123 1:644 2:595 
-0.3507666652220191 1:644 2:596 
-0.4810210566058166 1:646 2:598 
-0.5909575756994898 1:650 2:603 
-0.5050110311334348 1:648 2:601 
-0.4358145995407541 1:644 2:598 
-0.3519173593577805 1:645 2:600 
-0.005730087453986928 1:644 2:599 
-0.2850030767923848 1:648 2:603 
-0.01822324776364126 1:647 2:603 
-0.2420182869374179 1:647 2:602 
-0.2448467433547407 1:642 2:599 
-0.2586721320101887 1:644 2:600 
-0.5599166019364897 1:648 2:605 
-0.3028909709336755 1:645 2:602 
-0.1538240355248942 1:645 2:603 
-0.1017375204132737 1:644 2:602 
-0.4675215989844367 1:646 2:604 
-0.5214992115188775 1:643 2:603 
-0.4565967926408429 1:641 2:599 
-0.5030849063652565 1:642 2:601 
-0.6512466867301834 1:425 2:386 
-0.6480377376206421 1:429 2:390 
-0.4889968885969183 1:430 2:393 
-0.4270064390650328 1:431 2:394 
-0.5373603827946511 1:432 2:396 
-0.5774697976756525 1:432 2:398 
-0.6420107651014788 1:434 2:401 
-0.4643957080737374 1:436 2:403 
-0.4759755139086965 1:437 2:404 
-0.6439190549918822 1:436 2:407 
-0.597433639026262 1:439 2:408 
-0.6023003216460674 1:440 2:410 
-0.4054807426573984 1:443 2:414 
-0.3276790831874234 1:442 2:414 
-0.5735465043665604 1:442 2:416 
-0.6516055860572411 1:445 2:419 
-0.6019853965670867 1:447 2:423 
-0.6019304917808597 1:449 2:424 
-0.6018104211148744 1:452 2:427 
-0.6020228071220417 1:451 2:429 
-0.4073331253232085 1:454 2:432 
-0.3972490378590379 1:455 2:432 
-0.4006867918165158 1:456 2:435 
-0.4001823338875451 1:455 2:435 
-0.6118220380165339 1:457 2:438 
-0.4331181338644178 1:458 2:440 
-0.45495971912482 1:459 2:441 
-0.4351124595815477 1:460 2:443 
-0.4831597914232391 1:461 2:444 
-0.6460832569005859 1:461 2:447 
-0.6144480357162647 1:465 2:450 
-0.3840335897524614 1:467 2:452 
-0.3577233891265915 1:466 2:452 
-0.4346001162538894 1:468 2:454 
-0.308652090198785 1:467 2:455 
-0.4788058939124459 1:468 2:456 
-0.605900506925755 1:471 2:459 
-0.5529716667111289 1:472 2:461 
-0.5936982992559886 1:473 2:463 
-0.6396882604423222 1:475 2:465 
-0.141932827171518 1:477 2:469 
-0.5213346811357691 1:477 2:468 
-0.5238919115651725 1:478 2:470 
-0.3699180401009909 1:480 2:472 
-0.3052121000327458 1:479 2:472 
-0.5469350976061244 1:481 2:474 
-0.5056736332581816 1:479 2:474 
-0.2237832116809938 1:664 2:698 
-0.462040022313355 1:666 2:700 
-0.1830632548844239 1:665 2:697 
-0.1197409249553375 1:667 2:699 
-0.441080082474968 1:663 2:696 
-0.4384216738420891 1:664 2:699 
-0.4640605927429696 1:664 2:695 
-0.03583488152015036 1:666 2:698 
-0.5050434599417778 1:668 2:701 
-0.06243433055868927 1:666 2:699 
-0.007143304968806863 1:668 2:700 
-0.05774542903278461 1:667 2:698 
-0.4030991896469529 1:666 2:697 
-0.3377913284333099 1:670 2:700 
-0.4026347782526899 1:670 2:702 
-0.2494418771221518 1:671 2:701 
-0.2160920833008353 1:672 2:702 
-0.3045980978475433 1:669 2:699 
-0.3949084141849381 1:668 2:698 
-0.4659182178018069 1:672 2:703 
-0.4260679031612868 1:772 2:780 
-0.4853400788589755 1:776 2:783 
-0.1312817266690474 1:775 2:783 
-0.2432239723291296 1:771 2:780 
-0.4908058743381212 1:777 2:785 
-0.2449502132785381 1:776 2:786 
-0.2731782872588888 1:774 2:783 
-0.3630782468587949 1:769 2:779 
-0.0007551076744857776 1:770 2:781 
-0.3305335503658218 1:775 2:786 
-0.00964644635727485 1:772 2:783 
-0.09535029208573725 1:773 2:784 
-0.1265177921843378 1:770 2:781 
-0.4623875293852157 1:773 2:786 
-0.09202918586761127 1:774 2:786 
-0.01362356409907798 1:773 2:785 
-0.3931292858606764 1:773 2:782 
-0.3698015954419913 1:771 2:782 
-0.001491934051549193 1:768 2:780 
-0.4873951917254064 1:767 2:778 
-0.3895707530632379 1:768 2:780 
-0.0006898368725159754 1:772 2:783 
-0.4389604323866315 1:772 2:784 
-0.04341321169798134 1:773 2:785 
-0.1679633091972602 1:768 2:778 
-0.02438673238738534 1:769 2:781 
-0.497736334832021 1:769 2:782 
-0.4351546953500401 1:791 2:791 
-0.2144580957381415 1:791 2:792 
-0.00419819484282527 1:789 2:789 
-0.5692004968191191 1:789 2:789 
-0.494524114227786 1:793 2:794 
-0.5335413637027557 1:793 2:796 
-0.2369240517396222 1:791 2:794 
-0.3035227138469413 1:789 2:791 
-0.01687536770627228 1:787 2:790 
-0.1567399049399898 1:789 2:792 
-0.004744102935063455 1:790 2:793 
-0.1176145323647309 1:792 2:795 
-0.4455302519142421 1:786 2:789 
-0.09937360965405653 1:789 2:793 
-0.1912268020558211 1:790 2:793 
-0.01613086284546125 1:788 2:794 
-0.198219070398621 1:787 2:790 
-0.01464063517376908 1:786 2:791 
-0.008647350829949337 1:790 2:795 
-0.4574359154023158 1:790 2:795 
-0.2389773795429336 1:787 2:791 
-0.390255781804468 1:788 2:794 
-0.009961155209522723 1:789 2:794 
-0.1068877881748733 1:787 2:792 
-0.008241184046353515 1:785 2:790 
-0.3664379463368757 1:783 2:789 
-0.4321880172960814 1:784 2:788 
-0.05375736065272245 1:785 2:790 
-0.4947328918560627 1:785 2:792 
-0.0806940399154375 1:785 2:791 
-0.3234467452587265 1:787 2:793 
-0.30816984295689 1:784 2:790 
-0.4700210074199314 1:861 2:838 
-0.06386357103559791 1:860 2:837 
-0.533744909343874 1:858 2:836 
-0.4914760515634045 1:860 2:836 
-0.04927995479732093 1:860 2:838 
-0.001103475976247215 1:864 2:842 
-0.3483049924482678 1:861 2:840 
-0.09786625450161511 1:862 2:841 
-0.5850857579657057 1:864 2:842 
-0.2088156857188847 1:861 2:841 
-0.4067246754962787 1:862 2:842 
-0.01596982138108458 1:859 2:839 
-0.05204415819573473 1:858 2:839 
-0.4244140619672065 1:859 2:839 
-0.4296627282037946 1:855 2:836 
-0.001441764680917149 1:857 2:838 
-0.2639055698897381 1:853 2:835 
-0.01598140007571557 1:854 2:835 
-0.2585321401444546 1:854 2:835 
-0.003642966870290393 1:854 2:837 
-0.2734891317042764 1:857 2:840 
-0.4338994123346318 1:857 2:838 
-0.0103309814462266 1:856 2:839 
-0.007436806766192055 1:858 2:842 
-0.2859461120239007 1:858 2:842 
-0.5041583670186101 1:855 2:840 
-0.1842697062682251 1:858 2:841 
-0.3569382910464611 1:857 2:842 
-0.1362552111313203 1:856 2:839 
-0.1180049400863556 1:854 2:837 
-0.4204721706027865 1:854 2:838 
-0.6058502381767029 1:852 2:839 
-0.4520311456207108 1:852 2:836 
-0.6111402866920042 1:850 2:835 
