svm_type c_svc
kernel_type rbf
gamma 0.5
nr_class 2
total_sv 507
rho 0.372324
label 1 -1
nr_sv 237 270
SV
0.5 1:932 2:896 
0.5 1:931 2:893 
0.5 1:928 2:892 
0.5 1:932 2:896 
0.5 1:933 2:897 
0.5 1:929 2:894 
0.5 1:930 2:894 
0.03916199861504967 1:929 2:896 
0.5 1:929 2:896 
0.5 1:929 2:896 
0.4362650251462324 1:924 2:894 
0.1819074444584403 1:928 2:896 
0.3065907482280584 1:925 2:894 
0.5 1:926 2:896 
0.4026337347027198 1:927 2:896 
0.4989608962563882 1:925 2:894 
0.5 1:927 2:897 
0.5 1:922 2:893 
0.07637828076678702 1:923 2:896 
0.385174467632736 1:924 2:895 
0.5 1:926 2:898 
0.06715090070198698 1:924 2:896 
0.5 1:925 2:897 
0.5 1:923 2:896 
0.4266634470494265 1:921 2:894 
0.251311482205685 1:923 2:897 
0.5 1:924 2:898 
0.5 1:921 2:895 
0.4427445074257671 1:923 2:897 
0.1373079880165944 1:918 2:893 
0.5 1:919 2:895 
0.5 1:918 2:894 
0.3824215505270799 1:916 2:893 
0.4132968654176105 1:910 2:879 
0.01112992208018416 1:905 2:878 
0.4640923146922535 1:907 2:880 
0.3642547221676867 1:906 2:882 
0.5 1:908 2:886 
0.4902532131254984 1:904 2:880 
0.353801995706219 1:907 2:885 
0.5 1:901 2:879 
0.4630500314216434 1:904 2:882 
0.2179217723994371 1:898 2:878 
0.5 1:899 2:879 
0.5 1:903 2:886 
0.1553110847939181 1:901 2:882 
0.3828252635698552 1:903 2:884 
0.1758177706935154 1:899 2:882 
0.2992329923302888 1:899 2:880 
0.5 1:902 2:884 
0.5 1:898 2:881 
0.4991030714921644 1:905 2:878 
0.08303437350050326 1:908 2:882 
0.4619237942232887 1:909 2:884 
0.1830700322725072 1:907 2:882 
0.3131571106373959 1:905 2:880 
0.4330657469024289 1:907 2:883 
0.1459297228519572 1:905 2:882 
0.4963790079401173 1:907 2:885 
0.1598841148512087 1:905 2:881 
0.1476772542071942 1:907 2:884 
0.3456451775373653 1:903 2:881 
0.5 1:905 2:884 
0.3201207783777105 1:901 2:881 
0.4799739954034267 1:904 2:884 
0.2040114262560837 1:903 2:882 
0.2740452448697415 1:905 2:883 
0.1606376490066761 1:902 2:882 
0.1576167697053562 1:901 2:880 
0.3763792689982091 1:902 2:883 
0.3460010065994733 1:902 2:881 
0.5 1:898 2:878 
0.08490270381585287 1:897 2:879 
0.2923842640147177 1:900 2:880 
0.5 1:896 2:878 
0.1904001961660152 1:900 2:881 
0.5 1:897 2:879 
0.2224210352658831 1:897 2:878 
0.4036475402330825 1:900 2:883 
0.5 1:900 2:883 
0.4395922603317271 1:899 2:882 
0.5 1:897 2:881 
0.5 1:925 2:892 
0.253025507176826 1:926 2:891 
0.1273550602855357 1:921 2:893 
0.1562300433687331 1:919 2:892 
0.4130623830262379 1:919 2:892 
0.04438675691270662 1:913 2:889 
0.1260921238902017 1:919 2:894 
0.3125947012624563 1:920 2:894 
0.2615994242465881 1:919 2:893 
0.5 1:911 2:888 
0.1903201095550925 1:911 2:887 
0.4770144855307745 1:915 2:890 
0.2971706265920906 1:916 2:893 
0.5 1:913 2:890 
0.5 1:909 2:885 
0.5 1:911 2:888 
0.5 1:914 2:891 
0.4004509170376161 1:917 2:893 
0.5 1:915 2:893 
0.02890067176425758 1:914 2:890 
0.2963777292526047 1:925 2:890 
0.08713048464793116 1:923 2:889 
0.03481342442873995 1:917 2:885 
0.398105749824141 1:920 2:891 
0.4637270709794081 1:919 2:890 
0.4413338270548602 1:921 2:892 
0.2377055914609361 1:918 2:891 
0.3820875917802471 1:917 2:889 
0.3132917386652521 1:912 2:886 
0.2119917337665695 1:917 2:891 
0.4911980985776332 1:917 2:891 
0.3964170805073056 1:914 2:888 
0.5 1:913 2:887 
0.3554912220107053 1:916 2:890 
0.08573144359648244 1:913 2:888 
0.06300777010848795 1:912 2:888 
0.5 1:913 2:889 
0.5 1:911 2:886 
0.2423671167359583 1:924 2:888 
0.5 1:926 2:888 
0.1569449897303975 1:927 2:890 
0.1184551498796623 1:923 2:887 
0.5 1:919 2:884 
0.5 1:918 2:884 
0.443955035309872 1:921 2:885 
0.1724180951129914 1:920 2:888 
0.08852661494964031 1:915 2:883 
0.5 1:917 2:885 
0.2440426818480109 1:916 2:885 
0.19149088141283 1:915 2:885 
0.4431721982871438 1:915 2:887 
0.2940602083582943 1:915 2:889 
0.2015717492443663 1:912 2:885 
0.3492793804679135 1:910 2:883 
0.2582467447002327 1:909 2:882 
0.5 1:921 2:884 
0.5 1:923 2:887 
0.3190798794814237 1:923 2:890 
0.1947219058396726 1:924 2:889 
0.06075239149536776 1:922 2:889 
0.05925552615907489 1:922 2:890 
0.033565097283741 1:923 2:891 
0.5 1:923 2:892 
0.07611534247088798 1:921 2:891 
0.3625205599354373 1:922 2:891 
0.33611844281583 1:921 2:890 
0.4945048685541393 1:916 2:888 
0.3755584246977363 1:914 2:886 
0.07036844417815144 1:911 2:882 
0.2200472427371409 1:913 2:885 
0.422067223076104 1:911 2:881 
0.1413176141880277 1:912 2:884 
0.5 1:912 2:882 
0.2527427168274888 1:910 2:882 
0.1054653229226643 1:911 2:884 
0.1576882771190247 1:911 2:883 
0.5 1:911 2:884 
0.1331431274570695 1:922 2:885 
0.5 1:923 2:885 
0.5 1:923 2:885 
0.5 1:926 2:889 
0.3133278507659549 1:926 2:891 
0.5 1:927 2:890 
0.4700014791413824 1:924 2:888 
0.5 1:928 2:891 
0.2198653299001732 1:924 2:890 
0.4997687811011308 1:921 2:887 
0.2207491580427456 1:922 2:887 
0.1925003656530414 1:920 2:885 
0.1284725637127662 1:919 2:885 
0.4135641765041618 1:922 2:889 
0.2001008980273782 1:920 2:886 
0.1630530455945625 1:920 2:887 
0.1383862700764391 1:921 2:888 
0.1062365375672934 1:922 2:888 
0.4023989146694628 1:924 2:891 
0.5 1:916 2:883 
0.4917422210701226 1:919 2:886 
0.1145421674181155 1:921 2:889 
0.04375923580184774 1:919 2:887 
0.3818664203499219 1:918 2:887 
0.425893190047416 1:915 2:884 
0.3352637144873166 1:914 2:883 
0.3559656579752729 1:917 2:887 
0.3926585228240845 1:919 2:888 
0.3747800201528719 1:920 2:889 
0.08764069699236048 1:918 2:888 
0.03490836472806672 1:920 2:890 
0.1346635949041154 1:915 2:886 
0.2274019364645332 1:916 2:886 
0.03288336567011599 1:914 2:884 
0.06551108981300675 1:913 2:882 
0.4808296751054624 1:913 2:884 
0.1719452194489289 1:917 2:886 
0.207469736947461 1:914 2:885 
0.3664456979189659 1:918 2:889 
0.04426028245324175 1:917 2:888 
0.0745000239900703 1:918 2:890 
0.3761292843476393 1:915 2:882 
0.5 1:915 2:881 
0.5 1:911 2:879 
0.5 1:908 2:877 
0.5 1:914 2:881 
0.4177435704890723 1:913 2:882 
0.5 1:909 2:879 
0.5 1:907 2:876 
0.1089963215099364 1:910 2:881 
0.4420830181855044 1:911 2:880 
0.08094845076558706 1:909 2:880 
0.3453129350675244 1:906 2:877 
0.5 1:906 2:876 
0.3917512014980832 1:908 2:879 
0.4598281631980355 1:907 2:878 
0.397114401645815 1:902 2:875 
0.5 1:903 2:875 
0.09464003066958099 1:903 2:876 
0.3432554137634574 1:909 2:881 
0.4168145050376755 1:908 2:881 
0.4811017190208174 1:904 2:878 
0.5 1:901 2:874 
0.3980735922435702 1:906 2:879 
0.3469558372971783 1:908 2:883 
0.08604752265657707 1:906 2:880 
0.3884579286443563 1:903 2:875 
0.303021652938443 1:906 2:881 
0.09046398176101243 1:902 2:876 
0.5 1:899 2:874 
0.3612092458022744 1:903 2:877 
0.2096619463037219 1:902 2:878 
0.1038138233960289 1:902 2:877 
0.5 1:900 2:876 
0.4125420434378016 1:903 2:879 
0.2918907513736568 1:902 2:879 
0.5 1:902 2:877 
0.5 1:899 2:874 
-0.4218550981775794 1:866 2:807 
-0.4169319909552784 1:867 2:808 
-0.2173967240002352 1:865 2:809 
-0.5 1:872 2:814 
-0.5 1:868 2:811 
-0.008374395133426759 1:867 2:811 
-0.3696780419931607 1:866 2:810 
-0.2103062082784524 1:863 2:809 
-0.3671225658710466 1:864 2:808 
-0.368199829799578 1:862 2:808 
-0.3753281219782358 1:866 2:812 
-0.3238529038529646 1:867 2:814 
-0.183707002120854 1:866 2:814 
-0.1735883672748289 1:867 2:813 
-0.4181718701014975 1:864 2:811 
-0.04528287559225093 1:863 2:811 
-0.3207675293531423 1:861 2:809 
-0.5 1:859 2:807 
-0.2137949991643431 1:860 2:810 
-0.5 1:857 2:806 
-0.3440184605015131 1:862 2:811 
-0.3583106675212118 1:863 2:813 
-0.01967498305048329 1:866 2:815 
-0.1825907905363544 1:864 2:814 
-0.2830954154405832 1:864 2:815 
-0.5 1:866 2:816 
-0.1488715867423692 1:861 2:812 
-0.01333157465278564 1:859 2:810 
-0.3394105767626954 1:859 2:811 
-0.1151040254270073 1:860 2:811 
-0.5 1:856 2:809 
-0.4187794858256967 1:858 2:809 
-0.354973450210563 1:861 2:813 
-0.01694963759488109 1:861 2:814 
-0.2027175007166273 1:863 2:815 
-0.4680559745119138 1:861 2:815 
-0.1009679538623562 1:862 2:815 
-0.5 1:857 2:811 
-0.5 1:782 2:729 
-0.5 1:779 2:731 
-0.5 1:775 2:730 
-0.438467238626907 1:771 2:729 
-0.5 1:774 2:733 
-0.4134994446469207 1:772 2:731 
-0.1569786558253341 1:770 2:729 
-0.1957561459684272 1:771 2:731 
-0.4710737115956173 1:768 2:728 
-0.4707397626560743 1:765 2:725 
-0.3486071053083886 1:766 2:727 
-0.04697761619697453 1:764 2:725 
-0.1514512390212267 1:767 2:729 
-0.5 1:771 2:733 
-0.3643318895762853 1:769 2:730 
-0.06600837361461687 1:768 2:730 
-0.04894787676509847 1:766 2:728 
-0.3864818920244466 1:763 2:725 
-0.1650103533374198 1:765 2:727 
-0.0353909644349696 1:765 2:726 
-0.1318913404326315 1:762 2:725 
-0.4344690072021711 1:769 2:733 
-0.2802341736267158 1:761 2:725 
-0.3027018828956198 1:768 2:732 
-0.3094094446534136 1:766 2:730 
-0.2546780289723178 1:760 2:726 
-0.3112146932752405 1:767 2:731 
-0.2783403754029612 1:765 2:729 
-0.2185553260932833 1:764 2:728 
-0.1735326058806897 1:762 2:727 
-0.04572844385414725 1:760 2:725 
-0.3986650924335053 1:763 2:729 
-0.2331898863007215 1:762 2:728 
-0.2691632084432209 1:761 2:727 
-0.2778153146396544 1:759 2:725 
-0.5 1:758 2:724 
-0.07030326815857305 1:645 2:591 
-0.001870585285263571 1:643 2:603 
-0.5 1:645 2:591 
-0.4371445001426504 1:643 2:592 
-0.2512346659253401 1:644 2:593 
-0.3716803043341911 1:643 2:594 
-0.4936688899468021 1:646 2:596 
-0.2032936287431209 1:644 2:595 
-0.3382339526633532 1:644 2:596 
-0.4633387682132979 1:646 2:598 
-0.07200741457762702 1:650 2:603 
-0.4975665103440993 1:650 2:603 
-0.4876345502122941 1:648 2:601 
-0.4204492723660396 1:644 2:598 
-0.3396585123453031 1:645 2:600 
-0.005164698342605393 1:644 2:599 
-0.2741451514405775 1:648 2:603 
-0.03967551900051672 1:648 2:605 
-0.01948981202103217 1:647 2:603 
-0.231593210242692 1:647 2:602 
-0.2360980865607309 1:642 2:599 
-0.2484882820488199 1:644 2:600 
-0.5 1:648 2:605 
-0.2922418871542339 1:645 2:602 
-0.1479046337659135 1:645 2:603 
-0.09844919740069816 1:644 2:602 
-0.4505213604553753 1:646 2:604 
-0.5 1:643 2:603 
-0.439980872422435 1:641 2:599 
-0.4846996810846703 1:642 2:601 
-0.5 1:425 2:386 
-0.5 1:429 2:390 
-0.4720402158651496 1:430 2:393 
-0.4128284397986824 1:431 2:394 
-0.5 1:432 2:396 
-0.5 1:432 2:398 
-0.5 1:434 2:401 
-0.4491650958067718 1:436 2:403 
-0.4589878546484316 1:437 2:404 
-0.5 1:436 2:407 
-0.5 1:439 2:408 
-0.5 1:440 2:410 
-0.3909403109036538 1:443 2:414 
-0.322663108233721 1:442 2:414 
-0.5 1:442 2:416 
-0.5 1:445 2:419 
-0.5 1:447 2:423 
-0.5 1:449 2:424 
-0.5 1:452 2:427 
-0.5 1:451 2:429 
-0.3916182815122724 1:454 2:432 
-0.3832612541107115 1:455 2:432 
-0.3875074359178832 1:456 2:435 
-0.3850008747596131 1:455 2:435 
-0.5 1:457 2:438 
-0.4260643950320961 1:458 2:440 
-0.434800376522137 1:459 2:441 
-0.4196581107274443 1:460 2:443 
-0.4673884024284686 1:461 2:444 
-0.5 1:461 2:447 
-0.5 1:465 2:450 
-0.365806684189167 1:467 2:452 
-0.3550428225736982 1:466 2:452 
-0.4195214881025089 1:468 2:454 
-0.2968311906770688 1:467 2:455 
-0.4616391352136554 1:468 2:456 
-0.08631380594374394 1:471 2:459 
-0.5 1:471 2:459 
-0.5 1:472 2:461 
-0.5 1:473 2:463 
-0.5 1:475 2:465 
-0.1397550812806747 1:477 2:469 
-0.5 1:477 2:468 
-0.5 1:478 2:470 
-0.360032949013998 1:480 2:472 
-0.2920618947129356 1:479 2:472 
-0.5 1:481 2:474 
-0.4908824782928775 1:479 2:474 
-0.2150346964145489 1:664 2:698 
-0.4465196299544736 1:666 2:700 
-0.005666021674871277 1:668 2:700 
-0.1763800413157997 1:665 2:697 
-0.1163954552561788 1:667 2:699 
-0.4251206269510128 1:663 2:696 
-0.423323717459199 1:664 2:699 
-0.4472230353926863 1:664 2:695 
-0.03651573630214831 1:666 2:698 
-0.486859552676963 1:668 2:701 
-0.009777016657612801 1:666 2:699 
-0.04758969046341979 1:666 2:699 
-0.006120787607805905 1:672 2:703 
-0.004672324947294013 1:671 2:701 
-0.05592631456068085 1:667 2:698 
-0.3878881483072608 1:666 2:697 
-0.3257161885921297 1:670 2:700 
-0.3884156634038563 1:670 2:702 
-0.2356858228943535 1:671 2:701 
-0.2086741341634916 1:672 2:702 
-0.2938839683007851 1:669 2:699 
-0.3799805294393729 1:668 2:698 
-0.4428827984156938 1:672 2:703 
-0.410918998813417 1:772 2:780 
-0.4702464899351588 1:776 2:783 
-0.01054406149485869 1:775 2:783 
-0.1115908083434247 1:775 2:783 
-0.234211759109357 1:771 2:780 
-0.003799660230020616 1:772 2:783 
-0.472559785808716 1:777 2:785 
-0.0143790119449676 1:773 2:784 
-0.2369025406575248 1:776 2:786 
-0.2682139874558614 1:774 2:783 
-0.350081528222967 1:769 2:779 
-0.009841886435954315 1:770 2:781 
-0.3180603948752445 1:775 2:786 
-0.07274027869050728 1:773 2:784 
-0.1131099633285793 1:770 2:781 
-0.003790712816079372 1:768 2:780 
-0.4429053744533032 1:773 2:786 
-0.08928804681102372 1:774 2:786 
-0.3764334049875595 1:773 2:782 
-0.355271093471955 1:771 2:782 
-0.4694553155990638 1:767 2:778 
-0.3732780424947583 1:768 2:780 
-0.008928514471732514 1:772 2:783 
-0.4228106018892348 1:772 2:784 
-0.05945751782734921 1:773 2:785 
-0.1618762087848253 1:768 2:778 
-0.02365599358724146 1:769 2:781 
-0.4790956773385621 1:769 2:782 
-0.419436698146061 1:791 2:791 
-0.2068230326756081 1:791 2:792 
-0.05195013536183055 1:789 2:789 
-0.5 1:789 2:789 
-0.4769749687666042 1:793 2:794 
-0.5 1:793 2:796 
-0.2261808582377909 1:791 2:794 
-0.2942033514962399 1:789 2:791 
-0.01145375081115765 1:787 2:790 
-0.1482108404963176 1:789 2:792 
-0.01345326249502569 1:790 2:793 
-0.001600274021696491 1:792 2:795 
-0.1170178265743909 1:792 2:795 
-0.4291160139188855 1:786 2:789 
-0.0985487581963195 1:789 2:793 
-0.1756693738632249 1:790 2:793 
-0.01307355351491563 1:788 2:794 
-0.1979803653822445 1:787 2:790 
-0.004419506668688103 1:786 2:791 
-0.005351794041793033 1:790 2:795 
-0.4440838523638683 1:790 2:795 
-0.2271628879258114 1:787 2:791 
-0.0105934356284898 1:786 2:791 
-0.3783784441357357 1:788 2:794 
-0.00849412887497613 1:789 2:794 
-0.1053386319948978 1:787 2:792 
-0.01300679192920278 1:785 2:790 
-0.3530587260518319 1:783 2:789 
-0.4164461973049796 1:784 2:788 
-0.0462580468809316 1:785 2:790 
-0.4761969404151402 1:785 2:792 
-0.07761393386750644 1:785 2:791 
-0.3101998668062023 1:787 2:793 
-0.2978453807101569 1:784 2:790 
-0.4536770276935935 1:861 2:838 
-0.06390332031302731 1:860 2:837 
-0.5 1:858 2:836 
-0.003476755806338327 1:860 2:838 
-0.4740997470657355 1:860 2:836 
-0.04155463630151109 1:860 2:838 
-0.06506799733932606 1:864 2:842 
-0.3349708520278891 1:861 2:840 
-0.09413348154802877 1:862 2:841 
-0.5 1:864 2:842 
-0.2017844182568093 1:861 2:841 
-0.3922739167502876 1:862 2:842 
-0.04698121163366724 1:858 2:839 
-0.4270585895277796 1:859 2:839 
-0.4148643677446247 1:855 2:836 
-0.2514128116299574 1:853 2:835 
-0.007757741466451342 1:854 2:835 
-0.2580159838717442 1:854 2:835 
-0.002815672854100809 1:854 2:837 
-0.2652575233856371 1:857 2:840 
-0.4224471173411714 1:857 2:838 
-0.001624978930383742 1:856 2:839 
-0.009501998859408278 1:858 2:842 
-0.2738213215875578 1:858 2:842 
-0.486208198468889 1:855 2:840 
-0.1772382729430147 1:858 2:841 
-0.3440927675323197 1:857 2:842 
-0.1371102874009167 1:856 2:839 
-0.1089995767836499 1:854 2:837 
-0.415827898045991 1:854 2:838 
-0.5 1:852 2:839 
-0.445363866677246 1:852 2:836 
-0.5 1:850 2:835 
