svm_type c_svc
kernel_type rbf
gamma 1
nr_class 2
total_sv 610
rho 0.277839
label 1 -1
nr_sv 295 315
SV
0.5 1:932 2:896 
0.5 1:931 2:893 
0.5 1:928 2:892 
0.5 1:932 2:896 
0.5 1:933 2:897 
0.5 1:929 2:894 
0.5 1:930 2:894 
0.071849117313682 1:929 2:896 
0.5 1:929 2:896 
0.4967571268925282 1:929 2:896 
0.5 1:924 2:894 
0.5 1:928 2:896 
0.4866410011976992 1:925 2:894 
0.5 1:926 2:896 
0.5 1:927 2:896 
0.4994616578549939 1:925 2:894 
0.5 1:927 2:897 
0.4642799218396443 1:926 2:897 
0.197792002983671 1:924 2:895 
0.5 1:922 2:893 
0.1378384243999849 1:921 2:894 
0.1628854358886281 1:923 2:896 
0.4755411141852036 1:924 2:895 
0.5 1:926 2:898 
0.5 1:924 2:896 
0.5 1:925 2:897 
0.5 1:923 2:896 
0.2355211878974818 1:917 2:890 
0.4958180760259212 1:921 2:894 
0.4195783279502823 1:923 2:897 
0.5 1:924 2:898 
0.5 1:921 2:895 
0.4650823826158527 1:923 2:897 
0.4603120018401716 1:918 2:893 
0.5 1:919 2:895 
0.5 1:918 2:894 
0.3721318217675995 1:916 2:893 
0.5 1:910 2:879 
0.3443576555421465 1:907 2:878 
0.2501859319953021 1:905 2:878 
0.2124097338586374 1:908 2:879 
0.5 1:907 2:880 
0.3394822755415671 1:909 2:884 
0.03212323469501503 1:908 2:883 
0.5 1:906 2:882 
0.2592811337172293 1:904 2:880 
0.5 1:908 2:886 
0.3356071436636745 1:908 2:885 
0.280208916317973 1:905 2:883 
0.5 1:904 2:880 
0.3419717215714984 1:907 2:885 
0.4247061532542392 1:904 2:882 
0.5 1:901 2:879 
0.1867652100157621 1:904 2:882 
0.06373417843881471 1:901 2:880 
0.2831642919057388 1:898 2:878 
0.5 1:899 2:879 
0.1401629924199415 1:901 2:882 
0.5 1:903 2:886 
0.5 1:901 2:882 
0.5 1:903 2:884 
0.4713110189640349 1:899 2:882 
0.5 1:899 2:880 
0.5 1:902 2:884 
0.06934988991727602 1:902 2:883 
0.5 1:898 2:881 
0.5 1:905 2:878 
0.4296423994371549 1:905 2:879 
0.3651099359774014 1:908 2:882 
0.4160976782153565 1:909 2:884 
0.1617939071349709 1:910 2:883 
0.5 1:907 2:882 
0.3170934857015802 1:905 2:880 
0.5 1:907 2:883 
0.2915058010593957 1:905 2:882 
0.5 1:907 2:885 
0.2213579570430298 1:908 2:884 
0.4270365787866396 1:905 2:881 
0.2218072778683135 1:904 2:881 
0.5 1:907 2:884 
0.2697334953858566 1:903 2:881 
0.4687453549714252 1:903 2:883 
0.3480473016510121 1:903 2:881 
0.5 1:905 2:884 
0.2796393532011667 1:901 2:881 
0.5 1:904 2:884 
0.3171623456738732 1:903 2:882 
0.4449315161303031 1:905 2:883 
0.3062716783890141 1:902 2:882 
0.5 1:901 2:880 
0.5 1:902 2:883 
0.5 1:902 2:881 
0.5 1:898 2:878 
0.07918233013859649 1:900 2:881 
0.3721854332309871 1:898 2:879 
0.269325706899799 1:897 2:879 
0.4755964774619159 1:900 2:880 
0.5 1:896 2:878 
0.5 1:900 2:881 
0.5 1:897 2:879 
0.4690295885110455 1:897 2:878 
0.04144572193113389 1:900 2:882 
0.5 1:900 2:883 
0.5 1:900 2:883 
0.4802955400274639 1:899 2:882 
0.5 1:897 2:881 
0.5 1:925 2:892 
0.4651399399522823 1:926 2:891 
0.08040648930379425 1:921 2:892 
0.4896875066466848 1:921 2:893 
0.1866677037843258 1:920 2:891 
0.07015317897610371 1:919 2:890 
0.09285245670977973 1:918 2:891 
0.3315232670443106 1:919 2:892 
0.4873154572447497 1:919 2:892 
0.1549818921409454 1:913 2:889 
0.4585170688048881 1:919 2:894 
0.5 1:920 2:894 
0.4548118154228431 1:919 2:893 
0.03305885826594693 1:915 2:890 
0.3666927932106317 1:911 2:888 
0.5 1:911 2:887 
0.4832204107492212 1:915 2:890 
0.1935856440697714 1:917 2:893 
0.4489983230303713 1:916 2:893 
0.5 1:913 2:890 
0.5 1:909 2:885 
0.4787152741205121 1:911 2:888 
0.5 1:914 2:891 
0.5 1:917 2:893 
0.5 1:915 2:893 
0.4432342342588603 1:914 2:890 
0.3266651952646398 1:925 2:890 
0.4584770303415593 1:925 2:890 
0.002095064086082352 1:924 2:889 
0.4151217094974906 1:923 2:889 
0.2662168452124348 1:917 2:885 
0.3495720893832427 1:922 2:892 
0.5 1:920 2:891 
0.5 1:919 2:890 
0.5 1:921 2:892 
0.01086721071281783 1:917 2:889 
0.5 1:918 2:891 
0.5 1:917 2:889 
0.05017169457738944 1:915 2:889 
0.3112421968104946 1:914 2:887 
0.5 1:912 2:886 
0.2911175549599605 1:912 2:887 
0.09251363634552463 1:914 2:888 
0.2935858709951457 1:917 2:891 
0.5 1:917 2:891 
0.5 1:914 2:888 
0.1313437721729112 1:916 2:890 
0.5 1:913 2:887 
0.5 1:916 2:890 
0.2916550269959064 1:913 2:888 
0.4978124377403364 1:912 2:888 
0.5 1:913 2:889 
0.2371137590001647 1:914 2:889 
0.5 1:911 2:886 
0.3991175125844967 1:924 2:888 
0.5 1:926 2:888 
0.5 1:927 2:890 
0.3480024565633254 1:923 2:887 
0.5 1:919 2:884 
0.5 1:918 2:884 
0.5 1:921 2:885 
0.05596152354068597 1:919 2:885 
0.4200276861366181 1:920 2:888 
0.3837091571231621 1:915 2:883 
0.5 1:917 2:885 
0.1601288599291928 1:914 2:883 
0.4603510492147233 1:916 2:885 
0.2086399373687773 1:916 2:889 
0.3974788886438638 1:915 2:885 
0.1832281194866481 1:915 2:887 
0.2292558639011656 1:916 2:888 
0.5 1:915 2:887 
0.5 1:915 2:889 
0.4737366591695095 1:912 2:885 
0.4850770281764444 1:910 2:883 
0.5 1:909 2:882 
0.5 1:921 2:884 
0.483610512584724 1:923 2:887 
0.4474319859580459 1:923 2:890 
0.5 1:924 2:889 
0.1196036910778517 1:921 2:887 
0.3725873348781958 1:922 2:890 
0.3232385806981732 1:923 2:891 
0.5 1:923 2:892 
0.2916889731104833 1:921 2:891 
0.4628053114348553 1:922 2:891 
0.445052721030322 1:921 2:890 
0.5 1:916 2:888 
0.03144864062633896 1:918 2:887 
0.5 1:914 2:886 
0.4485362304236079 1:911 2:882 
0.4861606876480485 1:913 2:885 
0.5 1:911 2:881 
0.4770157170152394 1:912 2:884 
0.5 1:912 2:882 
0.3195629887702692 1:910 2:882 
0.251039239322438 1:911 2:884 
0.3891623296948334 1:911 2:883 
0.5 1:911 2:884 
0.5 1:922 2:885 
0.5 1:923 2:885 
0.5 1:923 2:885 
0.5 1:926 2:889 
0.467187322322512 1:926 2:891 
0.4952166629796602 1:927 2:890 
0.4349740102086866 1:924 2:888 
0.5 1:928 2:891 
0.1400151634009038 1:923 2:888 
0.2244451647021007 1:924 2:890 
0.4974705223321205 1:921 2:887 
0.4763691174228736 1:922 2:887 
0.488621249598142 1:920 2:885 
0.4888930319104484 1:919 2:885 
0.4365010413091468 1:922 2:889 
0.4633963915905266 1:920 2:886 
0.4479364566816583 1:924 2:891 
0.3625649562460637 1:920 2:887 
0.3161483152473469 1:921 2:888 
0.420389637151614 1:922 2:888 
0.2829711141058324 1:924 2:891 
0.03247298775496548 1:919 2:886 
0.5 1:916 2:883 
0.5 1:919 2:886 
0.4157102914669726 1:921 2:889 
0.3703919848065753 1:919 2:887 
0.5 1:918 2:887 
0.07332888472462223 1:915 2:884 
0.5 1:915 2:884 
0.5 1:914 2:883 
0.0457749259399365 1:917 2:887 
0.4982345887886832 1:917 2:887 
0.4285825857579775 1:919 2:888 
0.4397123496564235 1:920 2:889 
0.3737288695185332 1:918 2:888 
0.298785139617518 1:920 2:890 
0.3466952676310905 1:919 2:889 
0.3172598630641567 1:915 2:886 
0.4665881606143916 1:916 2:886 
0.272726389833945 1:914 2:884 
0.3937990365067091 1:913 2:882 
0.5 1:913 2:884 
0.4445968021751136 1:917 2:886 
0.4248106750927799 1:914 2:885 
0.4377762700654359 1:918 2:889 
0.2804046185447833 1:917 2:888 
0.335279334649581 1:918 2:890 
0.5 1:915 2:882 
0.5 1:915 2:881 
0.5 1:911 2:879 
0.5 1:908 2:877 
0.5 1:914 2:881 
0.4987507242229486 1:913 2:882 
0.5 1:909 2:879 
0.5 1:907 2:876 
0.4129926514275061 1:910 2:881 
0.5 1:911 2:880 
0.2965942939454062 1:910 2:880 
0.5 1:909 2:880 
0.5 1:906 2:877 
0.5 1:906 2:876 
0.5 1:908 2:879 
0.2360099018449455 1:907 2:879 
0.5 1:907 2:878 
0.5 1:902 2:875 
0.3541836420204137 1:903 2:875 
0.4205304913390541 1:903 2:876 
0.01650537199655859 1:906 2:879 
0.392538483216192 1:909 2:881 
0.5 1:908 2:881 
0.5 1:904 2:878 
0.5 1:901 2:874 
0.5 1:906 2:879 
0.4958790093358738 1:908 2:883 
0.3972278117371194 1:906 2:880 
0.5 1:903 2:875 
0.02467728459651107 1:906 2:881 
0.5 1:906 2:881 
0.5 1:902 2:876 
0.5 1:899 2:874 
0.04761880531968721 1:903 2:877 
0.5 1:903 2:877 
0.5 1:902 2:878 
0.07821794043964879 1:902 2:877 
0.5 1:900 2:876 
0.5 1:903 2:879 
0.3435707997169676 1:903 2:878 
0.5 1:902 2:879 
0.4891861241131489 1:902 2:877 
0.5 1:899 2:874 
-0.5 1:866 2:807 
-0.5 1:867 2:808 
-0.5 1:865 2:809 
-0.5 1:872 2:814 
-0.5 1:868 2:811 
-0.3940606008445554 1:867 2:811 
-0.5 1:866 2:810 
-0.5 1:863 2:809 
-0.5 1:864 2:808 
-0.5 1:862 2:808 
-0.5 1:866 2:812 
-0.3638761507883075 1:867 2:814 
-0.3731719234087891 1:866 2:814 
-0.4569488450506383 1:867 2:813 
-0.08538372597903092 1:864 2:811 
-0.5 1:864 2:811 
-0.2994163334107111 1:863 2:811 
-0.5 1:861 2:809 
-0.5 1:859 2:807 
-0.3820858101102032 1:860 2:810 
-0.5 1:857 2:806 
-0.5 1:862 2:811 
-0.5 1:863 2:813 
-0.33811168898218 1:866 2:815 
-0.4401825974340509 1:864 2:814 
-0.2239850488430785 1:862 2:813 
-0.4051934898405827 1:864 2:815 
-0.5 1:866 2:816 
-0.4446280133360446 1:861 2:812 
-0.22970712648205 1:859 2:810 
-0.2377131706996613 1:857 2:809 
-0.4241731333359854 1:859 2:811 
-0.3176437094538196 1:860 2:811 
-0.5 1:856 2:809 
-0.4746482950205309 1:858 2:809 
-0.2063716879563297 1:858 2:810 
-0.3240261800366628 1:861 2:813 
-0.2721419418663334 1:861 2:814 
-0.1964203513900469 1:862 2:814 
-0.360894044264096 1:863 2:815 
-0.4768398963828735 1:861 2:815 
-0.2845914340263576 1:862 2:815 
-0.2362563516388081 1:857 2:810 
-0.5 1:857 2:811 
-0.5 1:782 2:729 
-0.5 1:779 2:731 
-0.5 1:775 2:730 
-0.5 1:771 2:729 
-0.5 1:774 2:733 
-0.5 1:772 2:731 
-0.4607528032164921 1:770 2:729 
-0.5 1:771 2:731 
-0.5 1:768 2:728 
-0.4618364754235855 1:765 2:725 
-0.4136853389489051 1:766 2:727 
-0.3383454218941608 1:764 2:725 
-0.4497608780973959 1:767 2:729 
-0.5 1:771 2:733 
-0.0008962886028359984 1:769 2:730 
-0.5 1:769 2:730 
-0.3751478432159782 1:768 2:730 
-0.3552734563541119 1:766 2:728 
-0.4347251639014049 1:763 2:725 
-0.3179175570486468 1:765 2:727 
-0.3252492520877884 1:765 2:726 
-0.386620999508435 1:762 2:725 
-0.5 1:769 2:733 
-0.03729700022758473 1:766 2:729 
-0.3623446727475002 1:761 2:725 
-0.07458358280555384 1:768 2:732 
-0.5 1:768 2:732 
-0.0166323453948371 1:767 2:731 
-0.4962953438166577 1:766 2:730 
-0.1460160240414322 1:761 2:726 
-0.4087229264865222 1:760 2:726 
-0.4975738880524976 1:767 2:731 
-0.5 1:765 2:729 
-0.4612309768682128 1:764 2:728 
-0.165477603921052 1:763 2:728 
-0.3602080649731075 1:762 2:727 
-0.2212089724890514 1:760 2:725 
-0.5 1:763 2:729 
-0.3954235757080062 1:762 2:728 
-0.4144551068585261 1:761 2:727 
-0.5 1:759 2:725 
-0.5 1:758 2:724 
-0.2236916492824364 1:645 2:591 
-0.09612388570910209 1:643 2:592 
-0.03693366640220525 1:643 2:594 
-0.197792002983671 1:646 2:596 
-0.033384705872783 1:644 2:596 
-0.08408838625478143 1:644 2:598 
-0.003020582863078464 1:642 2:599 
-0.1500776140367105 1:643 2:603 
-0.4907380220151978 1:645 2:591 
-0.01440340810492844 1:644 2:593 
-0.5 1:643 2:592 
-0.5 1:644 2:593 
-0.5 1:643 2:594 
-0.1129133204861352 1:643 2:593 
-0.4993929520811424 1:646 2:596 
-0.4386478731506792 1:644 2:595 
-0.5 1:644 2:596 
-0.1572784727756559 1:646 2:598 
-0.5 1:646 2:598 
-0.1460215447936996 1:648 2:601 
-0.2168352946940946 1:650 2:603 
-0.4952054893807247 1:650 2:603 
-0.5 1:648 2:601 
-0.2777415766379144 1:645 2:599 
-0.5 1:644 2:598 
-0.4169991334181882 1:645 2:600 
-0.1733454005004441 1:644 2:599 
-0.4432031604753381 1:648 2:603 
-0.09973822990991268 1:648 2:605 
-0.1730011997658572 1:647 2:603 
-0.2288709667070937 1:647 2:604 
-0.4920056133946248 1:647 2:602 
-0.5 1:642 2:599 
-0.4381492787499817 1:644 2:600 
-0.5 1:648 2:605 
-0.03914298902281238 1:646 2:604 
-0.2126685317013071 1:648 2:604 
-0.3789117350836771 1:645 2:602 
-0.03381740373917308 1:641 2:599 
-0.2002002064637474 1:642 2:601 
-0.4329162477762078 1:645 2:603 
-0.4206412354110062 1:644 2:602 
-0.5 1:646 2:604 
-0.5 1:643 2:603 
-0.4985646907063499 1:641 2:599 
-0.4988915575033174 1:642 2:601 
-0.5 1:425 2:386 
-0.5 1:429 2:390 
-0.5 1:430 2:393 
-0.5 1:431 2:394 
-0.5 1:432 2:396 
-0.5 1:432 2:398 
-0.5 1:434 2:401 
-0.5 1:436 2:403 
-0.5 1:437 2:404 
-0.5 1:436 2:407 
-0.5 1:439 2:408 
-0.5 1:440 2:410 
-0.5 1:443 2:414 
-0.5 1:442 2:414 
-0.5 1:442 2:416 
-0.5 1:445 2:419 
-0.5 1:447 2:423 
-0.5 1:449 2:424 
-0.5 1:452 2:427 
-0.5 1:451 2:429 
-0.5 1:454 2:432 
-0.5 1:455 2:432 
-0.03859704094211487 1:455 2:435 
-0.5 1:456 2:435 
-0.5 1:455 2:435 
-0.5 1:457 2:438 
-0.5 1:458 2:440 
-0.5 1:459 2:441 
-0.5 1:460 2:443 
-0.5 1:461 2:444 
-0.5 1:461 2:447 
-0.5 1:465 2:450 
-0.5 1:467 2:452 
-0.5 1:466 2:452 
-0.5 1:468 2:454 
-0.1452676634165768 1:468 2:456 
-0.5 1:467 2:455 
-0.5 1:468 2:456 
-0.2269988244432978 1:471 2:459 
-0.4917278508870045 1:471 2:459 
-0.5 1:472 2:461 
-0.5 1:473 2:463 
-0.5 1:475 2:465 
-0.4705379323511467 1:477 2:469 
-0.5 1:477 2:468 
-0.5 1:478 2:470 
-0.5 1:480 2:472 
-0.5 1:479 2:472 
-0.5 1:481 2:474 
-0.5 1:479 2:474 
-0.3413239212995952 1:480 2:474 
-0.4283138682075053 1:664 2:698 
-0.3099979444701642 1:665 2:699 
-0.5 1:666 2:700 
-0.06087376349114013 1:665 2:698 
-0.4369279607252051 1:665 2:697 
-0.3231714962712502 1:667 2:699 
-0.5 1:663 2:696 
-0.431478311335117 1:664 2:699 
-0.5 1:664 2:695 
-0.2236160220148404 1:666 2:698 
-0.4532911942840862 1:668 2:701 
-0.1541473383595522 1:666 2:699 
-0.3360373144618536 1:668 2:700 
-0.06219257765863676 1:668 2:699 
-0.04704090336885614 1:670 2:702 
-0.3385981718650827 1:669 2:701 
-0.05117877599490422 1:672 2:703 
-0.1206549734182003 1:671 2:702 
-0.0262311402310396 1:669 2:700 
-0.2409136186413653 1:667 2:698 
-0.4246685473076559 1:666 2:697 
-0.5 1:670 2:700 
-0.003706789625153112 1:670 2:701 
-0.4967146320653032 1:670 2:702 
-0.4709086687057694 1:671 2:701 
-0.4012756401074043 1:672 2:702 
-0.4934666962438881 1:669 2:699 
-0.4850139808934303 1:668 2:698 
-0.5 1:672 2:703 
-0.5 1:772 2:780 
-0.5 1:776 2:783 
-0.05211637088230056 1:777 2:785 
-0.3689624006659062 1:775 2:783 
-0.4135635225051886 1:771 2:780 
-0.3117311340555862 1:776 2:785 
-0.4979884024620717 1:777 2:785 
-0.2356865217090405 1:772 2:782 
-0.1911645522500267 1:771 2:781 
-0.3811724109508758 1:776 2:786 
-0.06140799462183591 1:773 2:783 
-0.435933852764198 1:774 2:783 
-0.5 1:769 2:779 
-0.3949311547620784 1:775 2:786 
-0.294750429295261 1:773 2:784 
-0.2609572492469177 1:770 2:781 
-0.4546813371264676 1:773 2:786 
-0.3538237809675225 1:774 2:786 
-0.4938197599769782 1:773 2:782 
-0.3701835261877789 1:771 2:782 
-0.0395543488478534 1:768 2:780 
-0.5 1:767 2:778 
-0.4936417095606724 1:768 2:780 
-0.2807399169690715 1:772 2:783 
-0.4409609334006916 1:772 2:784 
-0.23802693406522 1:770 2:782 
-0.3300170015464067 1:773 2:785 
-0.4595211059894297 1:768 2:778 
-0.2527413513966327 1:769 2:781 
-0.190635140911751 1:769 2:780 
-0.4908113016538282 1:769 2:782 
-0.5 1:791 2:791 
-0.4120997485193134 1:791 2:792 
-0.1587642668333185 1:790 2:792 
-0.2136310275226921 1:789 2:789 
-0.4957226546630593 1:789 2:789 
-0.5 1:793 2:794 
-0.5 1:793 2:796 
-0.4866719734236983 1:791 2:794 
-0.5 1:789 2:791 
-0.3102414584834571 1:789 2:792 
-0.04169396702496745 1:790 2:794 
-0.01008526142515734 1:792 2:795 
-0.5 1:792 2:795 
-0.5 1:786 2:789 
-0.1752976381979136 1:789 2:793 
-0.354701371859687 1:790 2:793 
-0.1048936440298249 1:786 2:790 
-0.4564831301422794 1:787 2:790 
-0.1974224979220709 1:788 2:793 
-0.07924161836435008 1:790 2:795 
-0.5 1:790 2:795 
-0.3080678780603158 1:787 2:791 
-0.1751959316838093 1:786 2:791 
-0.4417984989012453 1:788 2:794 
-0.3078090389477784 1:789 2:794 
-0.2797225011167777 1:787 2:792 
-0.5 1:783 2:789 
-0.5 1:784 2:788 
-0.2938566939579041 1:785 2:790 
-0.2289075338607835 1:786 2:792 
-0.5 1:785 2:792 
-0.2395866613188326 1:785 2:791 
-0.4381895701065566 1:787 2:793 
-0.4948448709386812 1:784 2:790 
-0.3196826961184497 1:859 2:836 
-0.5 1:861 2:838 
-0.3055060190057753 1:860 2:837 
-0.5 1:858 2:836 
-0.4739150254919086 1:860 2:836 
-0.3384725287755475 1:860 2:838 
-0.03298198955348275 1:861 2:840 
-0.103217185027523 1:864 2:842 
-0.5 1:861 2:840 
-0.3181906865635379 1:862 2:841 
-0.5 1:864 2:842 
-0.348103715418366 1:861 2:841 
-0.2948801004333232 1:863 2:842 
-0.4348899921323786 1:862 2:842 
-0.3697485845950409 1:858 2:839 
-0.02088295640934157 1:859 2:839 
-0.5 1:859 2:839 
-0.5 1:855 2:836 
-0.09001003845653133 1:857 2:838 
-0.4759334880007722 1:853 2:835 
-0.4071893393289083 1:854 2:835 
-0.1686439203624678 1:854 2:836 
-0.3742575543387555 1:857 2:840 
-0.4984275394358325 1:857 2:838 
-0.02818781893403688 1:857 2:839 
-0.3861094272687493 1:858 2:842 
-0.2012217414361508 1:856 2:840 
-0.5 1:855 2:840 
-0.1875625345317505 1:857 2:841 
-0.3874647532948444 1:858 2:841 
-0.4500678544224974 1:857 2:842 
-0.4276087686314592 1:856 2:839 
-0.06966995908896846 1:854 2:838 
-0.3687190565900118 1:854 2:837 
-0.5 1:854 2:838 
-0.5 1:852 2:839 
-0.5 1:852 2:836 
-0.5 1:850 2:835 
