svm_type c_svc
kernel_type rbf
gamma 1
nr_class 2
total_sv 504
rho 0.25843
label 1 -1
nr_sv 225 279
SV
1.15091787389492 1:931 2:893 
0.958319447911551 1:928 2:892 
1.108383293092026 1:932 2:896 
1.108547072447987 1:933 2:897 
0.9465141326886451 1:929 2:894 
0.7468459686553308 1:930 2:894 
0.9962047533529383 1:929 2:896 
0.680443857865537 1:924 2:894 
0.6169400089330876 1:928 2:896 
0.8532269815345801 1:926 2:896 
0.4106594590100443 1:927 2:896 
0.9011087615352451 1:925 2:894 
0.7500685128530565 1:927 2:897 
0.7874647232861902 1:922 2:893 
0.5814477236108978 1:924 2:895 
1.017091783946825 1:926 2:898 
0.5364790933457696 1:924 2:896 
0.7558378628030076 1:925 2:897 
0.669840046428851 1:923 2:896 
0.2389344216150323 1:917 2:890 
0.3463350455656843 1:921 2:894 
1.016349212116329 1:924 2:898 
1.003377854279004 1:921 2:895 
0.7836763667256417 1:923 2:897 
0.3279004572569083 1:918 2:893 
1.004699081534931 1:919 2:895 
0.7740954238267925 1:918 2:894 
0.5050448252962063 1:910 2:879 
0.6962543394551379 1:907 2:880 
0.5174473896783065 1:906 2:882 
1.020520837589374 1:908 2:886 
0.6913137668777227 1:904 2:880 
0.7680549439643236 1:901 2:879 
0.5914680819112118 1:904 2:882 
0.7431789551877553 1:899 2:879 
1.240246862020641 1:903 2:886 
0.6348206250044262 1:901 2:882 
0.4382423037181303 1:903 2:884 
0.5920561461707722 1:899 2:880 
0.8359089263959928 1:902 2:884 
0.6633375211016067 1:898 2:881 
0.6443300347121427 1:905 2:878 
0.4114992825762515 1:905 2:879 
0.2582203535235897 1:908 2:882 
0.6287780727937838 1:909 2:884 
0.5076965801439177 1:907 2:882 
0.369880089242894 1:905 2:880 
0.4896856213745382 1:907 2:883 
0.3338043375963106 1:905 2:882 
0.8477482458136857 1:907 2:885 
0.3177595273603396 1:908 2:884 
0.3926602552216056 1:905 2:881 
0.2538100958457402 1:904 2:881 
0.5228622039353495 1:907 2:884 
0.4553085643762215 1:903 2:883 
0.5572331157402692 1:903 2:881 
0.7703328356908277 1:905 2:884 
0.2583888692629224 1:901 2:881 
0.6322341401793458 1:904 2:884 
0.3325937085906567 1:903 2:882 
0.5738412273071636 1:905 2:883 
0.3053986465706732 1:902 2:882 
0.4881513276042314 1:901 2:880 
0.4369855658368244 1:902 2:883 
0.5929384368368404 1:902 2:881 
0.8544350721043127 1:898 2:878 
0.2410542307226247 1:898 2:879 
0.3745227036655817 1:900 2:880 
1.050111468702106 1:896 2:878 
0.6051529928502069 1:900 2:881 
0.7871298146491443 1:897 2:879 
0.2300790095100188 1:897 2:878 
0.03087586278896443 1:900 2:882 
1.009954551523409 1:900 2:883 
0.9049433986088904 1:899 2:882 
0.9877588797018723 1:897 2:881 
1.004150106760793 1:925 2:892 
0.4540540547343667 1:921 2:893 
0.7778932266055592 1:919 2:892 
0.06800637575326174 1:919 2:894 
0.6638384287131336 1:920 2:894 
0.5751506771405841 1:919 2:893 
0.4244295673016648 1:911 2:887 
0.5599583928944551 1:915 2:890 
0.5841547840703847 1:916 2:893 
0.8245841928015794 1:913 2:890 
0.807993328281893 1:909 2:885 
0.8519807248468813 1:911 2:888 
1.018565467674143 1:914 2:891 
0.7642633674032001 1:917 2:893 
1.022210447203401 1:915 2:893 
0.07400824801024727 1:914 2:890 
0.7493490074705865 1:925 2:890 
0.3907427182479952 1:923 2:889 
0.0752087668762724 1:922 2:892 
0.6802493960056576 1:920 2:891 
0.5650214245633699 1:919 2:890 
0.6347695267059915 1:921 2:892 
0.5900469294381472 1:918 2:891 
0.4998852326286712 1:917 2:889 
0.2141646067267669 1:914 2:887 
0.469341425393888 1:912 2:886 
0.2136237270149372 1:912 2:887 
0.7803249155029101 1:917 2:891 
0.5731732593630551 1:914 2:888 
0.6529504637376209 1:913 2:887 
0.6029934824591057 1:916 2:890 
0.2667806940904671 1:913 2:888 
0.5171181762769774 1:912 2:888 
0.524709362303776 1:913 2:889 
0.3627359600466429 1:914 2:889 
0.791773607966102 1:911 2:886 
0.9960725116331175 1:926 2:888 
0.7051320079496999 1:919 2:884 
0.8299020831120594 1:918 2:884 
0.4200215712067319 1:921 2:885 
0.4124763485228282 1:920 2:888 
0.1120072880319181 1:915 2:883 
0.6960125405587583 1:917 2:885 
0.4600477555952544 1:916 2:885 
0.2125819236365742 1:916 2:889 
0.3941297787165337 1:915 2:885 
0.7049314960753353 1:915 2:887 
0.5235336407229034 1:915 2:889 
0.437646347657492 1:912 2:885 
0.6515014613055878 1:910 2:883 
0.5862231082490429 1:909 2:882 
0.9390845265745973 1:921 2:884 
0.8145646172152321 1:923 2:887 
0.4813003507069507 1:923 2:890 
0.4810915278349896 1:924 2:889 
0.3295132104577023 1:922 2:890 
0.2048900686533885 1:923 2:891 
0.8353479430665727 1:923 2:892 
0.2621564877334041 1:921 2:891 
0.5536664194830055 1:922 2:891 
0.4495872502372817 1:921 2:890 
0.7140932611946106 1:916 2:888 
0.5831692273326735 1:914 2:886 
0.3387336023618819 1:911 2:882 
0.4661570936840838 1:913 2:885 
0.5758040245957901 1:911 2:881 
0.4513010985914501 1:912 2:884 
0.678985498364937 1:912 2:882 
0.3017603538387627 1:910 2:882 
0.3937726728470887 1:911 2:883 
0.7387070866567964 1:911 2:884 
0.573522919084247 1:922 2:885 
1.014977545730236 1:923 2:885 
0.6324542608302023 1:926 2:889 
0.8494610214775999 1:926 2:891 
0.9271077818742438 1:927 2:890 
0.8125447315381316 1:924 2:888 
0.7648810514002649 1:928 2:891 
0.1520189175661598 1:923 2:888 
0.2644467099604269 1:924 2:890 
0.6058885026939116 1:921 2:887 
0.4718216985502026 1:922 2:887 
0.4507008544763139 1:920 2:885 
0.4029484826896992 1:919 2:885 
0.4465087409257905 1:922 2:889 
0.4773482096552281 1:920 2:886 
0.3518205957959294 1:920 2:887 
0.3164121768683948 1:921 2:888 
0.4045830698687461 1:922 2:888 
0.6295053860471777 1:924 2:891 
1.017508388895213 1:916 2:883 
0.5724944498114932 1:919 2:886 
0.4022787911652981 1:921 2:889 
0.3447052923369072 1:919 2:887 
0.5256559018871473 1:918 2:887 
0.5883068258279336 1:915 2:884 
0.7307432870032597 1:914 2:883 
0.5263624552329514 1:917 2:887 
0.4319659001449349 1:919 2:888 
0.436426835973848 1:920 2:889 
0.3658879903309736 1:918 2:888 
0.2905222764803557 1:920 2:890 
0.3355381159985331 1:919 2:889 
0.2786037810567691 1:915 2:886 
0.4659561613908801 1:916 2:886 
0.2473198774512962 1:914 2:884 
0.5626085132709571 1:913 2:884 
0.4566195301890887 1:917 2:886 
0.3895849271375078 1:914 2:885 
0.4337783626906483 1:918 2:889 
0.2809144433245354 1:917 2:888 
0.3243643319225457 1:918 2:890 
0.5757305531874652 1:915 2:882 
0.7383563615691036 1:915 2:881 
0.8297777219782261 1:911 2:879 
1.021799799572237 1:908 2:877 
0.7868583092760051 1:914 2:881 
0.7587396158907528 1:913 2:882 
0.561183423094494 1:909 2:879 
0.7509224511571766 1:907 2:876 
0.4387035340942026 1:910 2:881 
0.5081638497872026 1:911 2:880 
0.2098657748929255 1:910 2:880 
0.5121949902143266 1:909 2:880 
0.6660872979774624 1:906 2:877 
0.7206780549233651 1:906 2:876 
0.6589720709774745 1:908 2:879 
0.1971665577742327 1:907 2:879 
0.7417248033226617 1:907 2:878 
0.550880964492477 1:902 2:875 
0.4103355015837369 1:903 2:876 
0.2830948516157791 1:909 2:881 
0.6902924195302766 1:908 2:881 
0.6860586703360018 1:904 2:878 
1.144457076227682 1:901 2:874 
0.5487177923428944 1:906 2:879 
0.5189082108588152 1:908 2:883 
0.2930625283915649 1:906 2:880 
0.8182693710055778 1:903 2:875 
0.5083521634063199 1:906 2:881 
0.472830211181769 1:902 2:876 
0.5767772817284449 1:903 2:877 
0.5525479150951292 1:902 2:878 
1.226069845738699 1:900 2:876 
0.7411722935238867 1:903 2:879 
0.1579808026167948 1:903 2:878 
0.369718035843167 1:902 2:879 
0.5468729475616512 1:902 2:877 
1.229144175507869 1:899 2:874 
-0.6461770162522327 1:866 2:807 
-0.6462139089624503 1:867 2:808 
-0.5598932416349003 1:865 2:809 
-0.7416055251582859 1:872 2:814 
-0.6021298792554119 1:868 2:811 
-0.349230504250634 1:867 2:811 
-0.5947659270029251 1:866 2:810 
-0.5515978840850414 1:863 2:809 
-0.5758687422474512 1:864 2:808 
-0.5755180900292041 1:862 2:808 
-0.603849330122584 1:866 2:812 
-0.3801442867241829 1:867 2:814 
-0.3947986255847623 1:866 2:814 
-0.454216874897432 1:867 2:813 
-0.6025990452745119 1:864 2:811 
-0.298667138313908 1:863 2:811 
-0.5939035236550479 1:861 2:809 
-0.7328546223108118 1:859 2:807 
-0.3777815550976913 1:860 2:810 
-0.7365656114835117 1:857 2:806 
-0.5332865193364521 1:862 2:811 
-0.5366181922716671 1:863 2:813 
-0.303913287910594 1:866 2:815 
-0.4481129014692971 1:864 2:814 
-0.2205232405989951 1:862 2:813 
-0.4181081561393304 1:864 2:815 
-0.6173122695194034 1:866 2:816 
-0.4528863583264152 1:861 2:812 
-0.2397557714607335 1:859 2:810 
-0.214034166599516 1:857 2:809 
-0.431514450293158 1:859 2:811 
-0.332287336654204 1:860 2:811 
-0.6213263758137803 1:856 2:809 
-0.499453167611476 1:858 2:809 
-0.2117874157272794 1:858 2:810 
-0.3365188615983454 1:861 2:813 
-0.2802783979141105 1:861 2:814 
-0.2010954776550487 1:862 2:814 
-0.3692260398246722 1:863 2:815 
-0.4882725991662868 1:861 2:815 
-0.2935901920141892 1:862 2:815 
-0.1981983664033622 1:857 2:810 
-0.6192713377316911 1:857 2:811 
-0.7412025163432512 1:782 2:729 
-0.7415685172607245 1:779 2:731 
-0.7414938661020584 1:775 2:730 
-0.5571210836506268 1:771 2:729 
-0.7412745401553615 1:774 2:733 
-0.5445475942413945 1:772 2:731 
-0.4562352491099119 1:770 2:729 
-0.5109763126707515 1:771 2:731 
-0.6583832062841133 1:768 2:728 
-0.4740716377967734 1:765 2:725 
-0.4248864115716608 1:766 2:727 
-0.3482568012140167 1:764 2:725 
-0.4396111783099224 1:767 2:729 
-0.7163739556338984 1:771 2:733 
-0.5160279467295521 1:769 2:730 
-0.3846094650243858 1:768 2:730 
-0.3620852987406797 1:766 2:728 
-0.4456534756846349 1:763 2:725 
-0.3272142478059479 1:765 2:727 
-0.3330754140275417 1:765 2:726 
-0.3985818687046823 1:762 2:725 
-0.6507961302137842 1:769 2:733 
-0.04658415662869567 1:766 2:729 
-0.3694717903059246 1:761 2:725 
-0.5707254112477635 1:768 2:732 
-0.5086583106886322 1:766 2:730 
-0.1499745400324551 1:761 2:726 
-0.4197573702808421 1:760 2:726 
-0.5312799385600454 1:767 2:731 
-0.5138742826994459 1:765 2:729 
-0.4735004559334186 1:764 2:728 
-0.1551307011497213 1:763 2:728 
-0.3715123764854203 1:762 2:727 
-0.232420104056212 1:760 2:725 
-0.5536121674318123 1:763 2:729 
-0.4053740374768693 1:762 2:728 
-0.4251890674550682 1:761 2:727 
-0.5003506078761463 1:759 2:725 
-0.6721296385650563 1:758 2:724 
-0.7337591109892631 1:645 2:591 
-0.6129131514515507 1:643 2:592 
-0.5284144079320593 1:644 2:593 
-0.5520866411097652 1:643 2:594 
-0.1149731464528884 1:643 2:593 
-0.71590144556151 1:646 2:596 
-0.4503095654359749 1:644 2:595 
-0.5477466600842765 1:644 2:596 
-0.6744380156900813 1:646 2:598 
-0.7312486818502698 1:650 2:603 
-0.6631082921106655 1:648 2:601 
-0.2855505133301599 1:645 2:599 
-0.6002456909602785 1:644 2:598 
-0.4278200642342359 1:645 2:600 
-0.177699177834874 1:644 2:599 
-0.4547909179243022 1:648 2:603 
-0.1777060623105247 1:647 2:603 
-0.2348345156128967 1:647 2:604 
-0.5051135016616183 1:647 2:602 
-0.5168519974109511 1:642 2:599 
-0.4500108427256851 1:644 2:600 
-0.6156764679759725 1:648 2:605 
-0.2187704276663089 1:648 2:604 
-0.3896761454714904 1:645 2:602 
-0.4443710640466114 1:645 2:603 
-0.431332574122935 1:644 2:602 
-0.5532369979465089 1:646 2:604 
-0.6672726889857981 1:643 2:603 
-0.5468995807190506 1:641 2:599 
-0.717405187481045 1:642 2:601 
-0.7411036059314198 1:425 2:386 
-0.7415280160201428 1:429 2:390 
-0.6537577789570301 1:430 2:393 
-0.6479469129294273 1:431 2:394 
-0.7238735942971235 1:432 2:396 
-0.7283252375220119 1:432 2:398 
-0.7413933559289012 1:434 2:401 
-0.6528806272587502 1:436 2:403 
-0.6536094090813397 1:437 2:404 
-0.7415237460606565 1:436 2:407 
-0.736793877284192 1:439 2:408 
-0.7366984617293626 1:440 2:410 
-0.5421890146413775 1:443 2:414 
-0.5284800522952582 1:442 2:414 
-0.7282306500772336 1:442 2:416 
-0.7414486119312539 1:445 2:419 
-0.7365984074298093 1:447 2:423 
-0.7365722304702235 1:449 2:424 
-0.7370519235231519 1:452 2:427 
-0.7363537930393382 1:451 2:429 
-0.5419298937920716 1:454 2:432 
-0.5423554981093913 1:455 2:432 
-0.5422161661848925 1:456 2:435 
-0.5417587033958229 1:455 2:435 
-0.7371669514324085 1:457 2:438 
-0.6491002650593748 1:458 2:440 
-0.6498258337321868 1:459 2:441 
-0.6487442097463209 1:460 2:443 
-0.6536702842172449 1:461 2:444 
-0.7413561127672897 1:461 2:447 
-0.737994798958714 1:465 2:450 
-0.5393738275775134 1:467 2:452 
-0.5380174566581357 1:466 2:452 
-0.6492852441176266 1:468 2:454 
-0.5653285957030225 1:467 2:455 
-0.6530502505700865 1:468 2:456 
-0.736865031764641 1:471 2:459 
-0.7315606352019074 1:472 2:461 
-0.7364138470462075 1:473 2:463 
-0.741319262318229 1:475 2:465 
-0.4384538494159338 1:477 2:469 
-0.5759334810124437 1:477 2:468 
-0.6746827241277763 1:478 2:470 
-0.5334890232554209 1:480 2:472 
-0.5274217026525638 1:479 2:472 
-0.6267474633966355 1:481 2:474 
-0.6171047242155824 1:479 2:474 
-0.2711474749341602 1:480 2:474 
-0.4383376473944125 1:664 2:698 
-0.3169765228354087 1:665 2:699 
-0.5868552512736813 1:666 2:700 
-0.06459246529316601 1:665 2:698 
-0.4459195217243925 1:665 2:697 
-0.3321509451495746 1:667 2:699 
-0.6474784773760107 1:663 2:696 
-0.4438255940783101 1:664 2:699 
-0.6509247345566833 1:664 2:695 
-0.2407832466348717 1:666 2:698 
-0.4637331385061763 1:668 2:701 
-0.1274612077132043 1:666 2:699 
-0.3481569990144054 1:668 2:700 
-0.06190752938088949 1:668 2:699 
-0.3503011062014809 1:669 2:701 
-0.1255513464565406 1:671 2:702 
-0.01750936587215984 1:669 2:700 
-0.2469356515705388 1:667 2:698 
-0.4331549547849173 1:666 2:697 
-0.5328996810436764 1:670 2:700 
-0.5584242712803587 1:670 2:702 
-0.4814640700766925 1:671 2:701 
-0.4111268511106702 1:672 2:702 
-0.5081122296304493 1:669 2:699 
-0.499425039470785 1:668 2:698 
-0.5663477135635782 1:672 2:703 
-0.5510270787499864 1:772 2:780 
-0.5974533888604419 1:776 2:783 
-0.3428332741812625 1:775 2:783 
-0.4112443716835092 1:771 2:780 
-0.3188190316163939 1:776 2:785 
-0.5645476285553213 1:777 2:785 
-0.2411893550954399 1:772 2:782 
-0.1953746854370414 1:771 2:781 
-0.3921095454752143 1:776 2:786 
-0.0580086000521215 1:773 2:783 
-0.4612495863531376 1:774 2:783 
-0.5229837754448904 1:769 2:779 
-0.4056228589405034 1:775 2:786 
-0.3031408976177923 1:773 2:784 
-0.2707061419486534 1:770 2:781 
-0.4671724343449851 1:773 2:786 
-0.3632071663815686 1:774 2:786 
-0.5071637828943834 1:773 2:782 
-0.3807902279405172 1:771 2:782 
-0.5690623991564947 1:767 2:778 
-0.5474876842719574 1:768 2:780 
-0.2898601273011849 1:772 2:783 
-0.4527505994018683 1:772 2:784 
-0.2434638763946657 1:770 2:782 
-0.3386651768372295 1:773 2:785 
-0.4501050054208547 1:768 2:778 
-0.2606431701079954 1:769 2:781 
-0.1918624306604234 1:769 2:780 
-0.5040170054513304 1:769 2:782 
-0.554374032709366 1:791 2:791 
-0.4082085733829463 1:791 2:792 
-0.162000954392478 1:790 2:792 
-0.7276439605804529 1:789 2:789 
-0.6545894597142958 1:793 2:794 
-0.66396756829504 1:793 2:796 
-0.502990631120189 1:791 2:794 
-0.5655769343463606 1:789 2:791 
-0.2968278996845907 1:789 2:792 
-0.039969037882533 1:790 2:794 
-0.4834143711020863 1:792 2:795 
-0.5953235535296071 1:786 2:789 
-0.186814069047447 1:789 2:793 
-0.3673690641215374 1:790 2:793 
-0.07110897472371616 1:786 2:790 
-0.4695014989955851 1:787 2:790 
-0.2026945382743855 1:788 2:793 
-0.5963715697926245 1:790 2:795 
-0.3148768567708413 1:787 2:791 
-0.1943376904837707 1:786 2:791 
-0.4536639577334219 1:788 2:794 
-0.3145083526440106 1:789 2:794 
-0.2884120030049421 1:787 2:792 
-0.5852599048477491 1:783 2:789 
-0.6471992085284883 1:784 2:788 
-0.3068902740205852 1:785 2:790 
-0.2275999992302766 1:786 2:792 
-0.5220664138558468 1:785 2:792 
-0.2428195274426249 1:785 2:791 
-0.4501923738578376 1:787 2:793 
-0.4946347706762546 1:784 2:790 
-0.2839518330077914 1:859 2:836 
-0.5610225808455788 1:861 2:838 
-0.3141489099862667 1:860 2:837 
-0.6211433784959897 1:858 2:836 
-0.4998753963070783 1:860 2:836 
-0.3291473450110115 1:860 2:838 
-0.5466928391651003 1:861 2:840 
-0.3267241904144778 1:862 2:841 
-0.6203857696564494 1:864 2:842 
-0.3569706093878518 1:861 2:841 
-0.3019922929542751 1:863 2:842 
-0.4470583538542102 1:862 2:842 
-0.3769293326554417 1:858 2:839 
-0.538487603951746 1:859 2:839 
-0.5702691146125388 1:855 2:836 
-0.4689869627031116 1:853 2:835 
-0.4249124672482962 1:854 2:835 
-0.1496226403298853 1:854 2:836 
-0.395718466259507 1:857 2:840 
-0.6024824108958832 1:857 2:838 
-0.0315359676833549 1:857 2:839 
-0.3971655815774837 1:858 2:842 
-0.1682616040104348 1:856 2:840 
-0.6070154765374772 1:855 2:840 
-0.1941199457329715 1:857 2:841 
-0.3954301587309852 1:858 2:841 
-0.461743722348767 1:857 2:842 
-0.4381231953633017 1:856 2:839 
-0.3790774614610689 1:854 2:837 
-0.5831082380340721 1:854 2:838 
-0.7374329124854332 1:852 2:839 
-0.6647216574024568 1:852 2:836 
-0.7368780938392914 1:850 2:835 
