svm_type c_svc
kernel_type rbf
gamma 2
nr_class 2
total_sv 521
rho 0.174377
label 1 -1
nr_sv 241 280
SV
0.1560540494471316 1:932 2:896 
1 1:931 2:893 
1 1:928 2:892 
1 1:932 2:896 
1 1:933 2:897 
1 1:929 2:894 
1 1:930 2:894 
0.05075087699160723 1:929 2:896 
1 1:929 2:896 
0.9128305883340819 1:924 2:894 
0.9080858511832958 1:928 2:896 
0.03543455265265446 1:925 2:894 
0.9456735903942577 1:926 2:896 
0.7854973083585131 1:927 2:896 
0.9988072108339991 1:925 2:894 
0.9296619139501754 1:927 2:897 
0.6354786159604666 1:926 2:897 
0.9283329436766752 1:922 2:893 
0.8946791381754002 1:924 2:895 
1 1:926 2:898 
0.8936035265202914 1:924 2:896 
1 1:925 2:897 
0.8994047147945334 1:923 2:896 
0.6980977662144888 1:917 2:890 
0.7899786909369449 1:921 2:894 
0.01710240367737388 1:923 2:897 
1 1:924 2:898 
1 1:921 2:895 
1 1:923 2:897 
0.7829495749024995 1:918 2:893 
1 1:919 2:895 
0.927853380628527 1:918 2:894 
0.8134240265806763 1:910 2:879 
0.01865236464275366 1:907 2:878 
0.9261763799506488 1:907 2:880 
0.8130601236862701 1:906 2:882 
1 1:908 2:886 
0.6602442814927811 1:908 2:885 
0.9245370783699531 1:904 2:880 
0.9288747722269168 1:901 2:879 
0.8299308721782438 1:904 2:882 
0.9174637010844571 1:899 2:879 
1 1:903 2:886 
0.8321201232711302 1:901 2:882 
0.8001269393423895 1:903 2:884 
0.03245051656946722 1:899 2:882 
0.8952046210469997 1:899 2:880 
0.9423997025473284 1:902 2:884 
1 1:898 2:881 
0.9087587137556696 1:905 2:878 
0.7977949654278015 1:905 2:879 
0.6877369309950133 1:908 2:882 
0.9102982542313452 1:909 2:884 
0.8149515846859016 1:907 2:882 
0.7067035941562555 1:905 2:880 
0.8020408577234693 1:907 2:883 
0.7032251460575691 1:905 2:882 
0.9428295647922192 1:907 2:885 
0.6906355969996186 1:908 2:884 
0.7194361313346979 1:905 2:881 
0.6881310183934469 1:904 2:881 
0.81665867997297 1:907 2:884 
0.7995599655841115 1:903 2:883 
0.8274003268458761 1:903 2:881 
0.9279357432125992 1:905 2:884 
0.6895514916939676 1:901 2:881 
0.9081680232139425 1:904 2:884 
0.7037904217282817 1:903 2:882 
0.906030151769857 1:905 2:883 
0.7023909269322685 1:902 2:882 
0.8035776856822016 1:901 2:880 
0.8003994416811785 1:902 2:883 
0.8298412905259782 1:902 2:881 
0.9320014596006043 1:898 2:878 
0.7673822986857395 1:898 2:879 
0.7864730513054866 1:900 2:880 
1 1:896 2:878 
0.8190559762306646 1:900 2:881 
0.9298510367344361 1:897 2:879 
0.773147716832128 1:897 2:878 
0.6558298456207586 1:900 2:882 
0.0506781946631551 1:900 2:883 
1 1:900 2:883 
1 1:899 2:882 
1 1:897 2:881 
1 1:925 2:892 
0.120883689922658 1:926 2:891 
0.7992576708951979 1:921 2:893 
0.01889427454973919 1:919 2:892 
0.9978267573912469 1:919 2:892 
0.6656658565740056 1:919 2:894 
0.9106449019338893 1:920 2:894 
0.8060065361270065 1:919 2:893 
0.7980231827447288 1:911 2:887 
0.8161042450269169 1:915 2:890 
0.9133110933711394 1:916 2:893 
0.940256980455085 1:913 2:890 
0.9306521840075959 1:909 2:885 
0.9429449562397362 1:911 2:888 
1 1:914 2:891 
0.9267550838503084 1:917 2:893 
1 1:915 2:893 
0.6755574138435488 1:914 2:890 
0.0146167481592684 1:925 2:890 
0.9966422587023536 1:925 2:890 
0.716117541031892 1:923 2:889 
0.6682336229606026 1:922 2:892 
0.9216007097511507 1:920 2:891 
0.8262573880748953 1:919 2:890 
0.8327512964298432 1:921 2:892 
0.9061447112866984 1:918 2:891 
0.7341047227707334 1:917 2:889 
0.6855932590435384 1:914 2:887 
0.8013877789682128 1:912 2:886 
0.6871355053930726 1:912 2:887 
0.9284581116048105 1:917 2:891 
0.829921829470508 1:914 2:888 
0.8338852546188281 1:913 2:887 
0.8305868910197303 1:916 2:890 
0.6898926048675877 1:913 2:888 
0.8143691055823647 1:912 2:888 
0.8153931581020689 1:913 2:889 
0.7045267687983533 1:914 2:889 
0.9302018638411551 1:911 2:886 
1 1:926 2:888 
0.1231011653952692 1:927 2:890 
0.9157426353801288 1:919 2:884 
1 1:918 2:884 
0.7926659720225547 1:921 2:885 
0.7270486600199986 1:920 2:888 
0.6659166399975602 1:915 2:883 
0.9235306364581236 1:917 2:885 
0.8004762558462718 1:916 2:885 
0.6859959492350529 1:916 2:889 
0.7191437055168736 1:915 2:885 
0.925129949774563 1:915 2:887 
0.8148718320480082 1:915 2:889 
0.7999337351753212 1:912 2:885 
0.9108280244421578 1:910 2:883 
0.829904864706674 1:909 2:882 
1 1:921 2:884 
0.9407982366177208 1:923 2:887 
0.7356356985552325 1:923 2:890 
0.8132355338445564 1:924 2:889 
0.7244896280235287 1:922 2:890 
0.6837076240565093 1:923 2:891 
0.9430724685137452 1:923 2:892 
0.6990834183583531 1:921 2:891 
0.7381023772466608 1:922 2:891 
0.7300360414739877 1:921 2:890 
0.9247947831102068 1:916 2:888 
0.8293486805428019 1:914 2:886 
0.7067195448678217 1:911 2:882 
0.8004011539218002 1:913 2:885 
0.8276870045129706 1:911 2:881 
0.7993900007973537 1:912 2:884 
0.9108954084345031 1:912 2:882 
0.7017784073239798 1:910 2:882 
0.7852554943977506 1:911 2:883 
0.9275212307354102 1:911 2:884 
0.9058464244358039 1:922 2:885 
0.0512281296410431 1:923 2:885 
1 1:923 2:885 
0.9993553249646324 1:926 2:889 
0.9951497531507865 1:926 2:891 
0.9933046859451267 1:927 2:890 
0.9403511468394866 1:924 2:888 
1 1:928 2:891 
0.6820401670671815 1:923 2:888 
0.6763468311704431 1:924 2:890 
0.8287649495311534 1:921 2:887 
0.8112116591471541 1:922 2:887 
0.8000822367020246 1:920 2:885 
0.7979050928114381 1:919 2:885 
0.7304425694207293 1:922 2:889 
0.8002084481618273 1:920 2:886 
0.7163769131859536 1:920 2:887 
0.7126871866803435 1:921 2:888 
0.7171752078914256 1:922 2:888 
0.9217190821978939 1:924 2:891 
1 1:916 2:883 
0.8178124879932509 1:919 2:886 
0.7278664738924715 1:921 2:889 
0.7154780506848812 1:919 2:887 
0.813986945570734 1:918 2:887 
0.8296653466472055 1:915 2:884 
0.9245906362070844 1:914 2:883 
0.8153830170631392 1:917 2:887 
0.7298957039636265 1:919 2:888 
0.7299053741777779 1:920 2:889 
0.7160836985219201 1:918 2:888 
0.7002947684854917 1:920 2:890 
0.7131433121958547 1:919 2:889 
0.6897138285744958 1:915 2:886 
0.8016788118399909 1:916 2:886 
0.6880496007923451 1:914 2:884 
0.01626879611695053 1:913 2:882 
0.8188145513932317 1:913 2:884 
0.7999081347481426 1:917 2:886 
0.7189536406510698 1:914 2:885 
0.7310985508707509 1:918 2:889 
0.7007651434225102 1:917 2:888 
0.7021504875698839 1:918 2:890 
0.906099085207287 1:915 2:882 
0.9156799210544004 1:915 2:881 
0.9411323310972461 1:911 2:879 
1 1:908 2:877 
1 1:914 2:881 
0.9987348908135042 1:913 2:882 
0.8158705915158104 1:909 2:879 
1 1:907 2:876 
0.7223651614660417 1:910 2:881 
0.8133949216688674 1:911 2:880 
0.6858702463187226 1:910 2:880 
0.8147640093885444 1:909 2:880 
0.9979824852844672 1:906 2:877 
0.9038584872610975 1:906 2:876 
0.9222685559132063 1:908 2:879 
0.66267137672695 1:907 2:879 
0.9964262516991668 1:907 2:878 
0.9069987974350263 1:902 2:875 
0.7980136905090762 1:903 2:876 
0.6903233313503033 1:909 2:881 
0.9249069122962298 1:908 2:881 
0.9127013667236644 1:904 2:878 
1 1:901 2:874 
0.8169314819411536 1:906 2:879 
0.8165629095245722 1:908 2:883 
0.6915688284777767 1:906 2:880 
0.9288653917746689 1:903 2:875 
0.814563616857693 1:906 2:881 
0.8005822487392975 1:902 2:876 
0.175735257474027 1:899 2:874 
0.8174045530982812 1:903 2:877 
0.8166394594430086 1:902 2:878 
1 1:900 2:876 
0.9268832952337982 1:903 2:879 
0.674676726655657 1:903 2:878 
0.7849959031118631 1:902 2:879 
0.8170399012391094 1:902 2:877 
0.9984507284041411 1:899 2:874 
-0.8108836315146135 1:866 2:807 
-0.8104790459736002 1:867 2:808 
-0.7958704776783304 1:865 2:809 
-0.8254822886557196 1:872 2:814 
-0.7312146194208157 1:868 2:811 
-0.696984925637291 1:867 2:811 
-0.7977147761240486 1:866 2:810 
-0.7957335025528451 1:863 2:809 
-0.7965461125420278 1:864 2:808 
-0.7961642491236721 1:862 2:808 
-0.7987953815662137 1:866 2:812 
-0.6303595796212909 1:867 2:814 
-0.6418008688422419 1:866 2:814 
-0.7140812081364086 1:867 2:813 
-0.7404641238732386 1:864 2:811 
-0.6262892299747809 1:863 2:811 
-0.7987872464635989 1:861 2:809 
-0.8259677305730544 1:859 2:807 
-0.639225639302781 1:860 2:810 
-0.8255815384620332 1:857 2:806 
-0.7270012210775649 1:862 2:811 
-0.7272121932718528 1:863 2:813 
-0.6266254996884265 1:866 2:815 
-0.7135567583731196 1:864 2:814 
-0.5524405729596202 1:862 2:813 
-0.6417524328476327 1:864 2:815 
-0.7402089892517879 1:866 2:816 
-0.7135828160294829 1:861 2:812 
-0.5535853687464729 1:859 2:810 
-0.5516659987819635 1:857 2:809 
-0.6435549587737366 1:859 2:811 
-0.6284773962259014 1:860 2:811 
-0.7402273700382264 1:856 2:809 
-0.6556584062610278 1:858 2:809 
-0.5515317207276603 1:858 2:810 
-0.5671413912885876 1:861 2:813 
-0.5640307048316213 1:861 2:814 
-0.5501695468502905 1:862 2:814 
-0.6385862565612731 1:863 2:815 
-0.6623889411256075 1:861 2:815 
-0.5645772265822274 1:862 2:815 
-0.5507749584829968 1:857 2:810 
-0.7403662909856146 1:857 2:811 
-0.8254939837834112 1:782 2:729 
-0.8254456642795973 1:779 2:731 
-0.8256326474862279 1:775 2:730 
-0.7288937137645415 1:771 2:729 
-0.8253018780227511 1:774 2:733 
-0.7269779636912701 1:772 2:731 
-0.7134203554445605 1:770 2:729 
-0.7270566933414091 1:771 2:731 
-0.8118485082776185 1:768 2:728 
-0.654153617451447 1:765 2:725 
-0.642239341514306 1:766 2:727 
-0.6371269297139147 1:764 2:725 
-0.7118527391788718 1:767 2:729 
-0.8252691455151585 1:771 2:733 
-0.7176148737100482 1:769 2:730 
-0.7000220291529451 1:768 2:730 
-0.6395765953325022 1:766 2:728 
-0.6511518917342285 1:763 2:725 
-0.6282127963501454 1:765 2:727 
-0.6284152737591819 1:765 2:726 
-0.6484511976656728 1:762 2:725 
-0.8107932773737075 1:769 2:733 
-0.4464621050144057 1:766 2:729 
-0.5775957795263501 1:761 2:725 
-0.7959351312726075 1:768 2:732 
-0.7239911521571811 1:766 2:730 
-0.5398598016789642 1:761 2:726 
-0.6420962610494447 1:760 2:726 
-0.7845520858891724 1:767 2:731 
-0.7262033661785052 1:765 2:729 
-0.7147797485123477 1:764 2:728 
-0.5320709728068406 1:763 2:728 
-0.6317196760609203 1:762 2:727 
-0.5526035684260692 1:760 2:725 
-0.7284390969573789 1:763 2:729 
-0.6427344901148476 1:762 2:728 
-0.6432705157011694 1:761 2:727 
-0.7242253634945048 1:759 2:725 
-0.8123051812224664 1:758 2:724 
-0.8255478135773097 1:645 2:591 
-0.740481127111873 1:643 2:592 
-0.7270144720791745 1:644 2:593 
-0.7278347167991129 1:643 2:594 
-0.5284946160784685 1:643 2:593 
-0.82520976826701 1:646 2:596 
-0.7132471360410042 1:644 2:595 
-0.7285618695650994 1:644 2:596 
-0.8137656515133499 1:646 2:598 
-0.8257488435103242 1:650 2:603 
-0.8119774875223104 1:648 2:601 
-0.62549165296235 1:645 2:599 
-0.7403065172950252 1:644 2:598 
-0.642128148422758 1:645 2:600 
-0.5403157573865516 1:644 2:599 
-0.6536215449731351 1:648 2:603 
-0.5400644743028141 1:647 2:603 
-0.5536726083457267 1:647 2:604 
-0.7251587381339696 1:647 2:602 
-0.7266148380974531 1:642 2:599 
-0.6538835179264819 1:644 2:600 
-0.7404140075015756 1:648 2:605 
-0.5518015358541941 1:648 2:604 
-0.6319605308629725 1:645 2:602 
-0.7132149818701171 1:645 2:603 
-0.7120678014325574 1:644 2:602 
-0.7274833679332545 1:646 2:604 
-0.8122749460880228 1:643 2:603 
-0.7270666242287218 1:641 2:599 
-0.8254763540202259 1:642 2:601 
-0.825616239721549 1:425 2:386 
-0.825263282288657 1:429 2:390 
-0.8105840139994165 1:430 2:393 
-0.8104981319875004 1:431 2:394 
-0.8255803158705006 1:432 2:396 
-0.8257156607865125 1:432 2:398 
-0.8260187063783222 1:434 2:401 
-0.8105883177334687 1:436 2:403 
-0.8107618627526829 1:437 2:404 
-0.8257396635112287 1:436 2:407 
-0.8259886905466369 1:439 2:408 
-0.8260619527232687 1:440 2:410 
-0.7272732688368468 1:443 2:414 
-0.7267855706510312 1:442 2:414 
-0.8255276774912924 1:442 2:416 
-0.8258214058927743 1:445 2:419 
-0.8255976712817505 1:447 2:423 
-0.8259944107381032 1:449 2:424 
-0.826045482552236 1:452 2:427 
-0.8256021647355634 1:451 2:429 
-0.7272641019430202 1:454 2:432 
-0.726899950293912 1:455 2:432 
-0.7272343227562538 1:456 2:435 
-0.7271494501846474 1:455 2:435 
-0.8252408321898139 1:457 2:438 
-0.8107326224601378 1:458 2:440 
-0.8106503763855051 1:459 2:441 
-0.8105412789100515 1:460 2:443 
-0.8105720963122325 1:461 2:444 
-0.8258287027516064 1:461 2:447 
-0.8260557068983808 1:465 2:450 
-0.7271208121435433 1:467 2:452 
-0.7271900425976382 1:466 2:452 
-0.8107381226443036 1:468 2:454 
-0.7957339712656497 1:467 2:455 
-0.8107787177847857 1:468 2:456 
-0.8259674380998137 1:471 2:459 
-0.8258537033190499 1:472 2:461 
-0.8259377176390874 1:473 2:463 
-0.8260464105306966 1:475 2:465 
-0.7119456142358297 1:477 2:469 
-0.7297135215417863 1:477 2:468 
-0.8123412503470838 1:478 2:470 
-0.7270059880740994 1:480 2:472 
-0.7266126750238414 1:479 2:472 
-0.7408573028829748 1:481 2:474 
-0.7401890347587393 1:479 2:474 
-0.6247700309592169 1:480 2:474 
-0.6509962332125713 1:664 2:698 
-0.5731537854830376 1:665 2:699 
-0.7388747428602095 1:666 2:700 
-0.4717247134387944 1:665 2:698 
-0.6524781442151275 1:665 2:697 
-0.5745972649509749 1:667 2:699 
-0.8106040439681216 1:663 2:696 
-0.6509129025565382 1:664 2:699 
-0.8109740332212504 1:664 2:695 
-0.49879947814347 1:666 2:698 
-0.6608499353433005 1:668 2:701 
-0.4833690173647883 1:666 2:699 
-0.5759722813357492 1:668 2:700 
-0.471236718192026 1:668 2:699 
-0.5759876088138922 1:669 2:701 
-0.5384030260701336 1:671 2:702 
-0.4604666592097942 1:669 2:700 
-0.5609250009597403 1:667 2:698 
-0.6503801554952781 1:666 2:697 
-0.6658658798184718 1:670 2:700 
-0.4605725546616082 1:670 2:701 
-0.6676733943641446 1:670 2:702 
-0.6539915709423508 1:671 2:701 
-0.6418497550234353 1:672 2:702 
-0.6641954028959904 1:669 2:699 
-0.6632030473277662 1:668 2:698 
-0.7293127604282643 1:672 2:703 
-0.7283820853637342 1:772 2:780 
-0.7388962008552085 1:776 2:783 
-0.6373698158431891 1:775 2:783 
-0.642088719427597 1:771 2:780 
-0.6278311608220095 1:776 2:785 
-0.7287474899957733 1:777 2:785 
-0.5615381119090046 1:772 2:782 
-0.5513313218165534 1:771 2:781 
-0.6407801571537882 1:776 2:786 
-0.4723100183689016 1:773 2:783 
-0.6520575341574997 1:774 2:783 
-0.7252961301629167 1:769 2:779 
-0.6411174263484388 1:775 2:786 
-0.5643868537607928 1:773 2:784 
-0.5541888086679799 1:770 2:781 
-0.6525391141266246 1:773 2:786 
-0.6384667294551913 1:774 2:786 
-0.662699124983726 1:773 2:782 
-0.5778296636793909 1:771 2:782 
-0.7287124032610091 1:767 2:778 
-0.728533680739108 1:768 2:780 
-0.5639880876510661 1:772 2:783 
-0.6525560282847488 1:772 2:784 
-0.5620396042227971 1:770 2:782 
-0.6367312714066558 1:773 2:785 
-0.7134373211347133 1:768 2:778 
-0.5634561201424444 1:769 2:781 
-0.5420369032431126 1:769 2:780 
-0.6629424997797658 1:769 2:782 
-0.7284367915786687 1:791 2:791 
-0.6419367569340828 1:791 2:792 
-0.5478292624904753 1:790 2:792 
-0.8254719419372257 1:789 2:789 
-0.8109795027164419 1:793 2:794 
-0.8108364242546572 1:793 2:796 
-0.7236559630131292 1:791 2:794 
-0.7377619466192397 1:789 2:791 
-0.5645517200155533 1:789 2:792 
-0.4626680172695626 1:790 2:794 
-0.782288743118576 1:792 2:795 
-0.739340373472065 1:786 2:789 
-0.4878532318073636 1:789 2:793 
-0.5765205069313767 1:790 2:793 
-0.4724441403348242 1:786 2:790 
-0.6606023688471567 1:787 2:790 
-0.5517991164305749 1:788 2:793 
-0.7386063510708626 1:790 2:795 
-0.5740922877624841 1:787 2:791 
-0.4869583783294217 1:786 2:791 
-0.6524018020869358 1:788 2:794 
-0.573809915929104 1:789 2:794 
-0.5646072241822848 1:787 2:792 
-0.7974362422995791 1:783 2:789 
-0.8110097222571031 1:784 2:788 
-0.5646478387892813 1:785 2:790 
-0.5603846997461788 1:786 2:792 
-0.6642778694428741 1:785 2:792 
-0.561226478636716 1:785 2:791 
-0.6514215571701917 1:787 2:793 
-0.7236344779408657 1:784 2:790 
-0.6249118388702916 1:859 2:836 
-0.7291422701673121 1:861 2:838 
-0.6269187486391725 1:860 2:837 
-0.7407818200535622 1:858 2:836 
-0.6557033554956918 1:860 2:836 
-0.6282711193832863 1:860 2:838 
-0.7282065274158603 1:861 2:840 
-0.628516871986197 1:862 2:841 
-0.7405478024754196 1:864 2:842 
-0.6306731033634667 1:861 2:841 
-0.6263786636315056 1:863 2:842 
-0.643953479037121 1:862 2:842 
-0.6400494383705175 1:858 2:839 
-0.7273809064235162 1:859 2:839 
-0.7289699061693997 1:855 2:836 
-0.7142822993517015 1:853 2:835 
-0.6419715433654999 1:854 2:835 
-0.5404444045232256 1:854 2:836 
-0.579279250752138 1:857 2:840 
-0.7392468211409728 1:857 2:838 
-0.461549810335292 1:857 2:839 
-0.6403974479446281 1:858 2:842 
-0.5397323687065378 1:856 2:840 
-0.7403629308051001 1:855 2:840 
-0.5499941325138293 1:857 2:841 
-0.6417321269884952 1:858 2:841 
-0.6524639101979227 1:857 2:842 
-0.6519371496603159 1:856 2:839 
-0.6387689996912838 1:854 2:837 
-0.7385269892925385 1:854 2:838 
-0.8259818160883361 1:852 2:839 
-0.812254723034726 1:852 2:836 
-0.8259618226137128 1:850 2:835 
