svm_type c_svc
kernel_type rbf
gamma 0.25
nr_class 2
total_sv 85
rho -0.0444509
label 1 -1
nr_sv 45 40
SV
0.9556031034132975 1:309 2:43 
0.9551866863725411 1:509 2:637 
0.9558335829593068 1:756 2:806 
0.9488455611647004 1:865 2:857 
0.9552559733991284 1:904 2:876 
0.9552074670562516 1:341 2:167 
0.9554911964326179 1:745 2:669 
0.9551108437031457 1:892 2:828 
0.9559329729208449 1:917 2:860 
0.9558335829593068 1:924 2:876 
0.9551241238350792 1:370 2:291 
0.9551241238350792 1:659 2:742 
0.9558450363991357 1:767 2:823 
0.9552077057714831 1:825 2:855 
0.8993423035661653 1:858 2:866 
0.955081371196503 1:345 2:233 
0.955853563199668 1:561 2:710 
0.9421516489521831 1:725 2:810 
0.9454556353606748 1:815 2:847 
0.70174130303931 1:861 2:861 
0.9552293611669039 1:372 2:272 
0.9555176633621226 1:448 2:535 
0.9556957984340255 1:617 2:741 
0.9201754596987242 1:744 2:816 
0.8593164170813973 1:833 2:852 
0.9552404565911669 1:382 2:310 
0.9990679229788227 1:573 2:714 
0.9418203105997017 1:724 2:806 
0.9453738833388582 1:812 2:844 
0.4604256552200427 1:861 2:863 
0.9556213239945901 1:364 2:263 
0.955523334648528 1:568 2:697 
0.919431769736794 1:746 2:813 
0.9376286128615147 1:829 2:850 
0.9552383268187701 1:871 2:867 
0.955933602721694 1:408 2:426 
0.9559329729208449 1:670 2:783 
0.9558335829593068 1:794 2:838 
0.6174512598554071 1:859 2:863 
0.9534005489103526 1:891 2:875 
0.9566269617165439 1:580 2:692 
0.9558450520162054 1:763 2:817 
0.8513449685445721 1:833 2:849 
0.9494008294888782 1:867 2:861 
0.9534005489103526 1:888 2:871 
-1.044104561617474 1:300 2:29 
-1.044104561617474 1:509 2:531 
-1.04460890385879 1:663 2:686 
-1.044051386920766 1:740 2:737 
-1.044396896586703 1:791 2:762 
-1.044744026600872 1:309 2:60 
-1.044508803567382 1:481 2:430 
-1.044792532943748 1:637 2:658 
-1.044744026600872 1:703 2:708 
-1.044051635688889 1:742 2:728 
-1.044813313627459 1:284 2:43 
-1.044474562562602 1:301 2:92 
-1.044520968269562 1:340 2:190 
-1.044304201565975 1:376 2:247 
-1.044759543585516 1:428 2:308 
-1.044290046766162 1:373 2:307 
-0.9200432450601603 1:380 2:336 
-0.9200632067662635 1:382 2:334 
-1.044608903656467 1:390 2:339 
-1.044403800770602 1:395 2:350 
-1.04460890385879 1:341 2:277 
-1.044152820217597 1:474 2:588 
-1.044146527202664 1:537 2:662 
-1.044794396461884 1:578 2:687 
-1.044327271082819 1:605 2:690 
-1.044123053462054 1:303 2:190 
-1.044139602021741 1:474 2:633 
-1.034505279407003 1:568 2:714 
-1.044066395126147 1:629 2:740 
-1.044740617494243 1:676 2:751 
-1.04469638154638 1:311 2:268 
-1.044474562562602 1:491 2:652 
-1.07167102969771 1:571 2:717 
-1.044152800939006 1:637 2:744 
-1.044744026600872 1:690 2:758 
-1.044519883963383 1:538 2:586 
-1.044204553323637 1:746 2:742 
-1.044166417040693 1:761 2:787 
-1.044560258139171 1:782 2:802 
-1.044520501330406 1:800 2:808 
