svm_type c_svc
kernel_type rbf
gamma 0.5
nr_class 2
total_sv 125
rho -0.0535327
label 1 -1
nr_sv 45 80
SV
0.946590491780298 1:309 2:43 
0.9463170068408132 1:509 2:637 
0.9463052906044764 1:756 2:806 
0.9462623823269711 1:865 2:857 
0.9469018798323089 1:904 2:876 
0.946901879832071 1:341 2:167 
0.9466757967828816 1:745 2:669 
0.9463628215412866 1:892 2:828 
0.9463570713404273 1:917 2:860 
0.9463570713014506 1:924 2:876 
0.9460422805505836 1:370 2:291 
0.9460422805505836 1:659 2:742 
0.9463053060845387 1:767 2:823 
0.946357070168498 1:825 2:855 
0.9411731539288855 1:858 2:866 
0.9469159129988804 1:345 2:233 
0.9460061930484073 1:561 2:710 
0.9461246309172835 1:725 2:810 
0.9464737991476426 1:815 2:847 
0.8336802885898585 1:861 2:861 
0.9468757088364038 1:372 2:272 
0.9468756430265055 1:448 2:535 
0.9462921680915387 1:617 2:741 
0.9451429083847166 1:744 2:816 
0.9358655567450547 1:833 2:852 
0.9463117869492483 1:382 2:310 
0.9478971782233296 1:573 2:714 
0.9461107919076485 1:724 2:806 
0.9461886042321002 1:812 2:844 
0.7214149321722316 1:861 2:863 
0.9463064636967107 1:364 2:263 
0.9463051663368398 1:568 2:697 
0.9448712032364978 1:746 2:813 
0.9457432302836026 1:829 2:850 
0.9463041884853232 1:871 2:867 
0.9463041884901546 1:408 2:426 
0.9463007663626234 1:670 2:783 
0.9465595980153972 1:794 2:838 
0.8272190294857172 1:859 2:863 
0.9463058366222733 1:891 2:875 
0.9463058376507485 1:580 2:692 
0.9469018798276758 1:763 2:817 
0.9357105357228418 1:833 2:849 
0.9462612890624339 1:867 2:861 
0.9463016532305915 1:888 2:871 
-0.06226125712248944 1:300 2:29 
-0.0623520021256003 1:509 2:531 
-0.06235342376420053 1:663 2:686 
-0.05308366406370023 1:740 2:737 
-0.06235484617648092 1:791 2:762 
-0.06235514355965297 1:309 2:60 
-0.06237040403476458 1:481 2:430 
-0.06238571240152878 1:637 2:658 
-0.06238571240152879 1:703 2:708 
-0.06239061070263044 1:742 2:728 
-0.06239061070263045 1:373 2:307 
-0.03415984298908802 1:380 2:336 
-0.03475352150458599 1:382 2:334 
-0.06239535293618368 1:390 2:339 
-0.06239535444352713 1:395 2:350 
-0.06239535444352715 1:341 2:277 
-0.06239818457325205 1:474 2:588 
-0.08062847588406807 1:537 2:662 
-0.2158313821453335 1:578 2:687 
-0.09142195161019662 1:605 2:690 
-0.0931543607004981 1:303 2:190 
-0.09358915851953574 1:474 2:633 
-0.05418655468231924 1:568 2:714 
-0.1061962403358581 1:629 2:740 
-0.1072743569174269 1:676 2:751 
-0.1072858573970988 1:311 2:268 
-0.1079154388988329 1:491 2:652 
-0.5005882873657109 1:571 2:717 
-0.1215413848405123 1:637 2:744 
-0.1228832052501989 1:690 2:758 
-0.1228956653615365 1:538 2:586 
-0.05312428262764222 1:746 2:742 
-0.1235924946225938 1:761 2:787 
-0.1244999556022839 1:782 2:802 
-0.1247068475284011 1:800 2:808 
-0.9911482510972125 1:300 2:29 
-0.9913437343764135 1:509 2:531 
-0.9913401125390887 1:663 2:686 
-1 1:740 2:737 
-0.990735254357029 1:791 2:762 
-0.9907692134138416 1:309 2:60 
-0.9913184677170541 1:481 2:430 
-0.9907043881319811 1:637 2:658 
-0.9907385702261731 1:703 2:708 
-0.9913050794389807 1:742 2:728 
-0.1247096923529618 1:284 2:43 
-0.1247408080695292 1:301 2:92 
-0.1247714248030576 1:340 2:190 
-0.1247812214052609 1:376 2:247 
-0.1247907088870543 1:428 2:308 
-0.9284145988106344 1:284 2:43 
-0.9286687001501728 1:301 2:92 
-0.9289214281769548 1:340 2:190 
-0.9289123148980284 1:376 2:247 
-0.9288975041636973 1:428 2:308 
-0.9910497912819723 1:373 2:307 
-1 1:380 2:336 
-1 1:382 2:334 
-0.9913004585736618 1:390 2:339 
-0.9906883096202328 1:395 2:350 
-0.9907404461409897 1:341 2:277 
-0.9915956223783488 1:474 2:588 
-0.9724513842569552 1:537 2:662 
-0.8381268416517507 1:578 2:687 
-0.9626035815326589 1:605 2:690 
-0.9602758849407652 1:303 2:190 
-0.9601056751436244 1:474 2:633 
-0.9993814919653533 1:568 2:714 
-0.946901879832071 1:629 2:740 
-0.9463628215412866 1:676 2:751 
-0.9463570713014506 1:311 2:268 
-0.9460422805505836 1:491 2:652 
-0.5543946236138191 1:571 2:717 
-0.9321544266693331 1:637 2:744 
-0.9305543361608211 1:690 2:758 
-0.9308035682758401 1:538 2:586 
-1 1:746 2:742 
-0.9301031955190173 1:761 2:787 
-0.9289494515725565 1:782 2:802 
-0.9283772394727184 1:800 2:808 
