svm_type c_svc
kernel_type rbf
gamma 0.125
nr_class 2
total_sv 123
rho 0.430157
label 1 -1
nr_sv 45 78
SV
0.5 1:309 2:43 
0.5 1:509 2:637 
0.5 1:756 2:806 
0.5 1:865 2:857 
0.5 1:904 2:876 
0.5 1:341 2:167 
0.5 1:745 2:669 
0.5 1:892 2:828 
0.5 1:917 2:860 
0.5 1:924 2:876 
0.5 1:370 2:291 
0.5 1:659 2:742 
0.5 1:767 2:823 
0.5 1:825 2:855 
0.5 1:858 2:866 
0.5 1:345 2:233 
0.5 1:561 2:710 
0.5 1:725 2:810 
0.5 1:815 2:847 
0.5 1:861 2:861 
0.5 1:372 2:272 
0.5 1:448 2:535 
0.5 1:617 2:741 
0.5 1:744 2:816 
0.5 1:833 2:852 
0.5 1:382 2:310 
0.5 1:573 2:714 
0.5 1:724 2:806 
0.5 1:812 2:844 
0.5 1:861 2:863 
0.5 1:364 2:263 
0.5 1:568 2:697 
0.5 1:746 2:813 
0.5 1:829 2:850 
0.5 1:871 2:867 
0.5 1:408 2:426 
0.5 1:670 2:783 
0.5 1:794 2:838 
0.5 1:859 2:863 
0.5 1:891 2:875 
0.5 1:580 2:692 
0.5 1:763 2:817 
0.5 1:833 2:849 
0.5 1:867 2:861 
0.5 1:888 2:871 
-0.5 1:300 2:29 
-0.07163161329963494 1:509 2:531 
-0.06953564378967197 1:663 2:686 
-0.08046678588836109 1:740 2:737 
-0.069535643789672 1:791 2:762 
-0.06970112487683541 1:309 2:60 
-0.06975809513858283 1:481 2:430 
-0.07505257601994222 1:637 2:658 
-0.09197354738012109 1:703 2:708 
-0.07302814478613759 1:742 2:728 
-0.5 1:373 2:307 
-0.07639908832023082 1:390 2:339 
-0.07053902271831487 1:395 2:350 
-0.1045810972259389 1:341 2:277 
-0.1045810972259389 1:474 2:588 
-0.1135609419139608 1:537 2:662 
-0.5 1:578 2:687 
-0.1135609419139608 1:605 2:690 
-0.1216688628756776 1:303 2:190 
-0.1216688628756776 1:474 2:633 
-0.03607883547847593 1:568 2:714 
-0.07172013603957331 1:629 2:740 
-0.07162565193484041 1:676 2:751 
-0.1249983740877946 1:311 2:268 
-0.1249983740877946 1:491 2:652 
-0.5 1:571 2:717 
-0.07171968801097317 1:637 2:744 
-0.07057244903931315 1:690 2:758 
-0.1249999999999999 1:538 2:586 
-0.08047811064449023 1:746 2:742 
-0.1249999999999999 1:761 2:787 
-0.08167561109624444 1:782 2:802 
-0.2091621944518778 1:800 2:808 
-0.06970066236427833 1:300 2:29 
-0.4980695115772005 1:509 2:531 
-0.5 1:663 2:686 
-0.4894426502239657 1:740 2:737 
-0.5 1:791 2:762 
-0.5 1:309 2:60 
-0.5 1:481 2:430 
-0.4951483939524778 1:637 2:658 
-0.4780223731367518 1:703 2:708 
-0.4966586336767813 1:742 2:728 
-0.2271218838279216 1:284 2:43 
-0.2433377257513553 1:301 2:92 
-0.2499967481755892 1:340 2:190 
-0.2499999999999998 1:376 2:247 
-0.4183243889037556 1:428 2:308 
-0.3425777196442911 1:284 2:43 
-0.3261982640488238 1:301 2:92 
-0.3195392416245898 1:340 2:190 
-0.3196996034722181 1:376 2:247 
-0.1512112548859164 1:428 2:308 
-0.06999715187115274 1:373 2:307 
-0.4164930322501981 1:380 2:336 
-0.4164808443497386 1:382 2:334 
-0.4937676400266596 1:390 2:339 
-0.499456891035742 1:395 2:350 
-0.4651772636779478 1:341 2:277 
-0.465119565138339 1:474 2:588 
-0.4564297063083703 1:537 2:662 
-0.0833618851284158 1:578 2:687 
-0.4561974189899259 1:605 2:690 
-0.4480894980282091 1:303 2:190 
-0.4478671269245014 1:474 2:633 
-0.4919267380045717 1:568 2:714 
-0.4980122755501492 1:629 2:740 
-0.4985753180375511 1:676 2:751 
-0.4447012293844233 1:311 2:268 
-0.4447022882764833 1:491 2:652 
-0.1129778443198164 1:571 2:717 
-0.498012541315453 1:637 2:744 
-0.4994401812566366 1:690 2:758 
-0.4452012115302679 1:538 2:586 
-0.4889426272403329 1:746 2:742 
-0.4450126302959784 1:761 2:787 
-0.4878603787039346 1:782 2:802 
-0.3608751421792485 1:800 2:808 
