svm_type c_svc
kernel_type rbf
gamma 0.25
nr_class 2
total_sv 123
rho 0.434333
label 1 -1
nr_sv 45 78
SV
0.5 1:309 2:43 
0.5 1:509 2:637 
0.5 1:756 2:806 
0.5 1:865 2:857 
0.5 1:904 2:876 
0.5 1:341 2:167 
0.5 1:745 2:669 
0.5 1:892 2:828 
0.5 1:917 2:860 
0.5 1:924 2:876 
0.5 1:370 2:291 
0.5 1:659 2:742 
0.5 1:767 2:823 
0.5 1:825 2:855 
0.5 1:858 2:866 
0.5 1:345 2:233 
0.5 1:561 2:710 
0.5 1:725 2:810 
0.5 1:815 2:847 
0.5 1:861 2:861 
0.5 1:372 2:272 
0.5 1:448 2:535 
0.5 1:617 2:741 
0.5 1:744 2:816 
0.5 1:833 2:852 
0.5 1:382 2:310 
0.5 1:573 2:714 
0.5 1:724 2:806 
0.5 1:812 2:844 
0.5 1:861 2:863 
0.5 1:364 2:263 
0.5 1:568 2:697 
0.5 1:746 2:813 
0.5 1:829 2:850 
0.5 1:871 2:867 
0.5 1:408 2:426 
0.5 1:670 2:783 
0.5 1:794 2:838 
0.5 1:859 2:863 
0.5 1:891 2:875 
0.5 1:580 2:692 
0.5 1:763 2:817 
0.5 1:833 2:849 
0.5 1:867 2:861 
0.5 1:888 2:871 
-0.06965300857231768 1:300 2:29 
-0.06607650428760045 1:509 2:531 
-0.06549274181325834 1:663 2:686 
-0.09115628573188145 1:740 2:737 
-0.06508382043391978 1:791 2:762 
-0.06606540801298211 1:309 2:60 
-0.06606540801670227 1:481 2:430 
-0.06606540803277072 1:637 2:658 
-0.06606540803277072 1:703 2:708 
-0.07680601683302926 1:742 2:728 
-0.5 1:373 2:307 
-0.065182378118323 1:390 2:339 
-0.0660765042876004 1:395 2:350 
-0.06606542275089256 1:341 2:277 
-0.06606542317771089 1:474 2:588 
-0.1215418486390263 1:537 2:662 
-0.5 1:578 2:687 
-0.1215418486390263 1:605 2:690 
-0.1249112282021088 1:303 2:190 
-0.1249112282021088 1:474 2:633 
-0.0600576982118145 1:568 2:714 
-0.06963081489144488 1:629 2:740 
-0.1249999999788513 1:676 2:751 
-0.1249999999788513 1:311 2:268 
-0.125 1:491 2:652 
-0.5 1:571 2:717 
-0.0696308148666567 1:637 2:744 
-0.125 1:690 2:758 
-0.125 1:538 2:586 
-0.06963071808899829 1:746 2:742 
-0.125 1:761 2:787 
-0.2430836972780526 1:782 2:802 
-0.2498224564042175 1:800 2:808 
-0.4964234957138411 1:300 2:29 
-0.4991058739396529 1:509 2:531 
-0.5 1:663 2:686 
-0.4749090022538675 1:740 2:737 
-0.5 1:791 2:762 
-0.5 1:309 2:60 
-0.5 1:481 2:430 
-0.5 1:637 2:658 
-0.5 1:703 2:708 
-0.4887088667691576 1:742 2:728 
-0.2499999999577026 1:284 2:43 
-0.25 1:301 2:92 
-0.25 1:340 2:190 
-0.5 1:376 2:247 
-0.5 1:428 2:308 
-0.3155117470359298 1:284 2:43 
-0.3160654268980448 1:301 2:92 
-0.3160654268980448 1:340 2:190 
-0.06553735859902185 1:376 2:247 
-0.06552110555125978 1:428 2:308 
-0.06518237831184828 1:373 2:307 
-0.4981301663467792 1:380 2:336 
-0.4980755314404754 1:382 2:334 
-0.5 1:390 2:339 
-0.4991058739396529 1:395 2:350 
-0.5 1:341 2:277 
-0.5 1:474 2:588 
-0.4445235593937444 1:537 2:662 
-0.06642050994245755 1:578 2:687 
-0.4436405295880859 1:605 2:690 
-0.4411541798108733 1:303 2:190 
-0.4411541986959361 1:474 2:633 
-0.5 1:568 2:714 
-0.4964345919672293 1:629 2:740 
-0.4405148839576143 1:676 2:751 
-0.4401823782482609 1:311 2:268 
-0.4405148839364655 1:491 2:652 
-0.07868653024513481 1:571 2:717 
-0.4964345919832978 1:637 2:744 
-0.4405117469936324 1:690 2:758 
-0.4401823782272534 1:538 2:586 
-0.4964345731019552 1:746 2:742 
-0.4401823782271121 1:761 2:787 
-0.3224090445352058 1:782 2:802 
-0.3155946960075461 1:800 2:808 
