svm_type c_svc
kernel_type rbf
gamma 0.25
nr_class 2
total_sv 123
rho 0.858564
label 1 -1
nr_sv 45 78
SV
0.125 1:309 2:43 
0.125 1:509 2:637 
0.125 1:756 2:806 
0.125 1:865 2:857 
0.125 1:904 2:876 
0.125 1:341 2:167 
0.125 1:745 2:669 
0.125 1:892 2:828 
0.125 1:917 2:860 
0.125 1:924 2:876 
0.125 1:370 2:291 
0.125 1:659 2:742 
0.125 1:767 2:823 
0.125 1:825 2:855 
0.125 1:858 2:866 
0.125 1:345 2:233 
0.125 1:561 2:710 
0.125 1:725 2:810 
0.125 1:815 2:847 
0.125 1:861 2:861 
0.125 1:372 2:272 
0.125 1:448 2:535 
0.125 1:617 2:741 
0.125 1:744 2:816 
0.125 1:833 2:852 
0.125 1:382 2:310 
0.125 1:573 2:714 
0.125 1:724 2:806 
0.125 1:812 2:844 
0.125 1:861 2:863 
0.125 1:364 2:263 
0.125 1:568 2:697 
0.125 1:746 2:813 
0.125 1:829 2:850 
0.125 1:871 2:867 
0.125 1:408 2:426 
0.125 1:670 2:783 
0.125 1:794 2:838 
0.125 1:859 2:863 
0.125 1:891 2:875 
0.125 1:580 2:692 
0.125 1:763 2:817 
0.125 1:833 2:849 
0.125 1:867 2:861 
0.125 1:888 2:871 
-0.01651912607190015 1:300 2:29 
-0.01651912607190015 1:509 2:531 
-0.01741325214307948 1:663 2:686 
-0.02278907143297032 1:740 2:737 
-0.01622724483508947 1:791 2:762 
-0.01627095510847992 1:309 2:60 
-0.01651635200324553 1:481 2:430 
-0.01651635200417556 1:637 2:658 
-0.01651635200819268 1:703 2:708 
-0.01920150420825739 1:742 2:728 
-0.125 1:373 2:307 
-0.01562499998368716 1:390 2:339 
-0.01651635200819268 1:395 2:350 
-0.01651635568772314 1:341 2:277 
-0.01651635568772314 1:474 2:588 
-0.03038546215975657 1:537 2:662 
-0.125 1:578 2:687 
-0.03038546215975657 1:605 2:690 
-0.03122780705052719 1:303 2:190 
-0.03122780705052719 1:474 2:633 
-0.01459320929032232 1:568 2:714 
-0.01740770371666417 1:629 2:740 
-0.03124999999471278 1:676 2:751 
-0.03124999999471278 1:311 2:268 
-0.03125 1:491 2:652 
-0.125 1:571 2:717 
-0.01740770372286121 1:637 2:744 
-0.03125 1:690 2:758 
-0.03125 1:538 2:586 
-0.01740767973592302 1:746 2:742 
-0.03125 1:761 2:787 
-0.06077092431951314 1:782 2:802 
-0.06245561410105438 1:800 2:808 
-0.125 1:300 2:29 
-0.125 1:509 2:531 
-0.1241058739284603 1:663 2:686 
-0.1187272514934181 1:740 2:737 
-0.125 1:791 2:762 
-0.125 1:309 2:60 
-0.125 1:481 2:430 
-0.125 1:637 2:658 
-0.125 1:703 2:708 
-0.122317621780074 1:742 2:728 
-0.06249999998942563 1:284 2:43 
-0.0625 1:301 2:92 
-0.0625 1:340 2:190 
-0.125 1:376 2:247 
-0.125 1:428 2:308 
-0.07812500002160006 1:284 2:43 
-0.07901635672437907 1:301 2:92 
-0.07901635683134817 1:340 2:190 
-0.01651912607153971 1:376 2:247 
-0.01651912607153971 1:428 2:308 
-0.01651912609268857 1:373 2:307 
-0.1243977551649105 1:380 2:336 
-0.1243540448915201 1:382 2:334 
-0.125 1:390 2:339 
-0.125 1:395 2:350 
-0.125 1:341 2:277 
-0.125 1:474 2:588 
-0.1111308898484361 1:537 2:662 
-0.01660512748561438 1:578 2:687 
-0.1111336639121434 1:605 2:690 
-0.1102885449527184 1:303 2:190 
-0.1102885486371961 1:474 2:633 
-0.125 1:568 2:714 
-0.1241086479958244 1:629 2:740 
-0.1102691260777147 1:676 2:751 
-0.1102691260771873 1:311 2:268 
-0.1102691260715397 1:491 2:652 
-0.01925040423040796 1:571 2:717 
-0.1241086479918073 1:637 2:744 
-0.1102691260715397 1:690 2:758 
-0.1102691260724274 1:538 2:586 
-0.1241086431686518 1:746 2:742 
-0.1102691260724274 1:761 2:787 
-0.08074820175202646 1:782 2:802 
-0.07906351197048528 1:800 2:808 
