svm_type c_svc
kernel_type rbf
gamma 1
nr_class 2
total_sv 125
rho -0.0580344
label 1 -1
nr_sv 45 80
SV
0.9419713315474207 1:309 2:43 
0.9419713315474207 1:509 2:637 
0.9422392612883467 1:756 2:806 
0.9419690897974587 1:865 2:857 
0.9419684766718964 1:904 2:876 
0.9419676988045385 1:341 2:167 
0.9419676990259691 1:745 2:669 
0.9419674853225785 1:892 2:828 
0.9419670139472659 1:917 2:860 
0.9419676132733461 1:924 2:876 
0.9419603022800346 1:370 2:291 
0.9419700598024212 1:659 2:742 
0.9419700598615443 1:767 2:823 
0.9419700605500534 1:825 2:855 
0.9421970056947024 1:858 2:866 
0.9419741612385434 1:345 2:233 
0.9419741613055422 1:561 2:710 
0.9419700215530502 1:725 2:810 
0.9419676846799862 1:815 2:847 
0.9249921088711309 1:861 2:861 
0.9419674852419764 1:372 2:272 
0.9419687389120485 1:448 2:535 
0.9419687423982864 1:617 2:741 
0.9419666097577847 1:744 2:816 
0.9413045722554494 1:833 2:852 
0.9422417876607878 1:382 2:310 
0.9422416528095642 1:573 2:714 
0.941970746227663 1:724 2:806 
0.9419700454059073 1:812 2:844 
0.9080716758767635 1:861 2:863 
0.9419676988045385 1:364 2:263 
0.9419676990259691 1:568 2:697 
0.9419663469111019 1:746 2:813 
0.9419700196563235 1:829 2:850 
0.9419684766718964 1:871 2:867 
0.9419674852419764 1:408 2:426 
0.9419676177089966 1:670 2:783 
0.9419707853623067 1:794 2:838 
0.9249565702668509 1:859 2:863 
0.9419656272320628 1:891 2:875 
0.9419546829719179 1:580 2:692 
0.9419702202465048 1:763 2:817 
0.9413028488062668 1:833 2:849 
0.9419741593571855 1:867 2:861 
0.9419684729119374 1:888 2:871 
-0.06249228214901627 1:300 2:29 
-0.0624922848644773 1:509 2:531 
-0.06249437553021621 1:663 2:686 
-0.06249716131222913 1:740 2:737 
-0.06249716144102935 1:791 2:762 
-0.06249957526101008 1:309 2:60 
-0.062499712492544 1:481 2:430 
-0.06249971296847975 1:637 2:658 
-0.06249971344441552 1:703 2:708 
-0.06249971344441552 1:742 2:728 
-0.06249971650742536 1:373 2:307 
-0.0574037144694194 1:380 2:336 
-0.05740363187945531 1:382 2:334 
-0.06249985775400058 1:390 2:339 
-0.06249985870586989 1:395 2:350 
-0.1182568339937416 1:341 2:277 
-0.1204520420591545 1:474 2:588 
-0.1204632823940021 1:537 2:662 
-0.2454214593373783 1:578 2:687 
-0.1204838495785564 1:605 2:690 
-0.1226814502485314 1:303 2:190 
-0.122710729668562 1:474 2:633 
-0.05802582271107354 1:568 2:714 
-0.122710729668562 1:629 2:740 
-0.1227313666537962 1:676 2:751 
-0.1249614323458749 1:311 2:268 
-0.1249768559204815 1:491 2:652 
-0.4999999923850107 1:571 2:717 
-0.1249768560509922 1:637 2:744 
-0.124978609646342 1:690 2:758 
-0.1249787507874733 1:538 2:586 
-0.1249845697289546 1:746 2:742 
-0.1249887510604324 1:761 2:787 
-0.1249943228820587 1:782 2:802 
-0.1249994259369595 1:800 2:808 
-0.9955376579894395 1:300 2:29 
-0.9955392384636264 1:509 2:531 
-0.9955388211223365 1:663 2:686 
-0.9960118885708585 1:740 2:737 
-0.9960820983571691 1:791 2:762 
-0.9955313329982451 1:309 2:60 
-0.9955326653724138 1:481 2:430 
-0.9955300667850082 1:637 2:658 
-0.995530921370572 1:703 2:708 
-0.9952584425574261 1:742 2:728 
-0.124999426888831 1:284 2:43 
-0.1249994330148507 1:301 2:92 
-0.1249997174117398 1:340 2:190 
-0.2409265647880043 1:376 2:247 
-0.2453629004970628 1:428 2:308 
-0.9330330877885905 1:284 2:43 
-0.933026405660582 1:301 2:92 
-0.9330318059163638 1:340 2:190 
-0.8171046928137093 1:376 2:247 
-0.8126694817939406 1:428 2:308 
-0.9955327896736347 1:373 2:307 
-1 1:380 2:336 
-1 1:382 2:334 
-0.996009192129087 1:390 2:339 
-0.9955310495533852 1:395 2:350 
-0.9395013783454707 1:341 2:277 
-0.9375794850158262 1:474 2:588 
-0.9375673524209854 1:537 2:662 
-0.8126083204163566 1:578 2:687 
-0.9375493470739964 1:605 2:690 
-0.9353509276164264 1:303 2:190 
-0.9353192097655885 1:474 2:633 
-1 1:568 2:714 
-0.9353190500849259 1:629 2:740 
-0.9352944720216365 1:676 2:751 
-0.9330694759151013 1:311 2:268 
-0.932784131590463 1:491 2:652 
-0.5580345061387608 1:571 2:717 
-0.9330546666363715 1:637 2:744 
-0.9330543764063921 1:690 2:758 
-0.9330609469324921 1:538 2:586 
-0.9330477312448753 1:746 2:742 
-0.9327696002439252 1:761 2:787 
-0.9330381832990012 1:782 2:802 
-0.9330349468179034 1:800 2:808 
