svm_type c_svc
kernel_type rbf
gamma 2
nr_class 2
total_sv 125
rho -0.0587861
label 1 -1
nr_sv 45 80
SV
0.9404689791958813 1:309 2:43 
0.9404689791958813 1:509 2:637 
0.9404689775428277 1:756 2:806 
0.9404693015685962 1:865 2:857 
0.9414272057079747 1:904 2:876 
0.9404693015685962 1:341 2:167 
0.9404689791958813 1:745 2:669 
0.9414272042428757 1:892 2:828 
0.9414167281652644 1:917 2:860 
0.9414167283849795 1:924 2:876 
0.9414167299280556 1:370 2:291 
0.9414167299280557 1:659 2:742 
0.9414167299280557 1:767 2:823 
0.9414167299280557 1:825 2:855 
0.9414062496244719 1:858 2:866 
0.9414167281700685 1:345 2:233 
0.9414167314810297 1:561 2:710 
0.9414167281700669 1:725 2:810 
0.9414167299280555 1:815 2:847 
0.9401542353280177 1:861 2:861 
0.9414062517909867 1:372 2:272 
0.941406251790907 1:448 2:535 
0.9414062518227025 1:617 2:741 
0.9404689791560563 1:744 2:816 
0.9414062374542524 1:833 2:852 
0.9414062518227025 1:382 2:310 
0.9414062517972382 1:573 2:714 
0.941416729928054 1:724 2:806 
0.9414167299280555 1:812 2:844 
0.9398388496510915 1:861 2:863 
0.9414062515241554 1:364 2:263 
0.9404696228643522 1:568 2:697 
0.941406251786177 1:746 2:813 
0.9414167299280541 1:829 2:850 
0.9404693007020217 1:871 2:867 
0.9404637429700599 1:408 2:426 
0.9404689775748801 1:670 2:783 
0.9414272042428359 1:794 2:838 
0.9401542334659378 1:859 2:863 
0.9414167299280557 1:891 2:875 
0.9414167299280556 1:580 2:692 
0.9414062515241554 1:763 2:817 
0.9414062372782216 1:833 2:849 
0.9414062518226826 1:867 2:861 
0.9414062517909867 1:888 2:871 
-0.06249999987117788 1:300 2:29 
-0.06249999999904195 1:509 2:531 
-0.06249999999936125 1:663 2:686 
-0.06249999999936135 1:740 2:737 
-0.06249999999936135 1:791 2:762 
-0.06249999999936137 1:309 2:60 
-0.0624999999993614 1:481 2:430 
-0.06249999999968055 1:637 2:658 
-0.06249999999968057 1:703 2:708 
-0.1248742437120433 1:742 2:728 
-0.1249161478979132 1:373 2:307 
-0.05857267560259376 1:380 2:336 
-0.06048913172438442 1:382 2:334 
-0.1249161484120887 1:390 2:339 
-0.124916155443973 1:395 2:350 
-0.1249580597544183 1:341 2:277 
-0.1249580671731536 1:474 2:588 
-0.1249580671731536 1:537 2:662 
-0.1249580742051024 1:578 2:687 
-0.1249999929655935 1:605 2:690 
-0.1249999929659129 1:303 2:190 
-0.1249999952406313 1:474 2:633 
-0.05859374820899305 1:568 2:714 
-0.1249999971443787 1:629 2:740 
-0.1249999971443787 1:676 2:751 
-0.1249999980962525 1:311 2:268 
-0.124999999484798 1:491 2:652 
-0.4999999999999998 1:571 2:717 
-0.1249999997423558 1:637 2:744 
-0.1249999999987225 1:690 2:758 
-0.1249999999987227 1:538 2:586 
-0.1249999999987227 1:746 2:742 
-0.1249999999993611 1:761 2:787 
-0.2498322968241773 1:782 2:802 
-0.2499161195088366 1:800 2:808 
-0.9960937219625627 1:300 2:29 
-0.9960727957580824 1:509 2:531 
-0.9960832734703231 1:663 2:686 
-0.9960937481779362 1:740 2:737 
-0.9960832685196089 1:791 2:762 
-0.9960832685196089 1:309 2:60 
-0.9970310224578109 1:481 2:430 
-0.99609372183406 1:637 2:658 
-0.9960832685192897 1:703 2:708 
-0.9346567771270907 1:742 2:728 
-0.2499161343463071 1:284 2:43 
-0.2499161484102049 1:301 2:92 
-0.2499999859318257 1:340 2:190 
-0.2499999942887574 1:376 2:247 
-0.2499999994847115 1:428 2:308 
-0.8086671391233773 1:284 2:43 
-0.8086671201087655 1:301 2:92 
-0.8085937622454916 1:340 2:190 
-0.8085832773262531 1:376 2:247 
-0.8085937487243815 1:428 2:308 
-0.9336566463941122 1:373 2:307 
-1 1:380 2:336 
-0.9990417715740733 1:382 2:334 
-0.93461487239203 1:390 2:339 
-0.9336566403131912 1:395 2:350 
-0.9336252118605823 1:341 2:277 
-0.9336252028987908 1:474 2:588 
-0.9336252028987908 1:537 2:662 
-0.9336251943138679 1:578 2:687 
-0.9335937552434995 1:605 2:690 
-0.9335937552114045 1:303 2:190 
-0.9335937534410087 1:474 2:633 
-1 1:568 2:714 
-0.9335832746903568 1:629 2:740 
-0.9335832744706219 1:676 2:751 
-0.9335832719756919 1:311 2:268 
-0.9335937486924996 1:491 2:652 
-0.5585832716198302 1:571 2:717 
-0.9335937484667374 1:637 2:744 
-0.9345306993287503 1:690 2:758 
-0.9335832700732216 1:538 2:586 
-0.9335937486829172 1:746 2:742 
-0.9335937481779563 1:761 2:787 
-0.8097039602057627 1:782 2:802 
-0.808667152106174 1:800 2:808 
