svm_type c_svc
kernel_type rbf
gamma 4
nr_class 2
total_sv 125
rho 0.4375
label 1 -1
nr_sv 45 80
SV
0.5 1:309 2:43 
0.5 1:509 2:637 
0.5 1:756 2:806 
0.5 1:865 2:857 
0.5 1:904 2:876 
0.5 1:341 2:167 
0.5 1:745 2:669 
0.5 1:892 2:828 
0.5 1:917 2:860 
0.5 1:924 2:876 
0.5 1:370 2:291 
0.5 1:659 2:742 
0.5 1:767 2:823 
0.5 1:825 2:855 
0.5 1:858 2:866 
0.5 1:345 2:233 
0.5 1:561 2:710 
0.5 1:725 2:810 
0.5 1:815 2:847 
0.5 1:861 2:861 
0.5 1:372 2:272 
0.5 1:448 2:535 
0.5 1:617 2:741 
0.5 1:744 2:816 
0.5 1:833 2:852 
0.5 1:382 2:310 
0.5 1:573 2:714 
0.5 1:724 2:806 
0.5 1:812 2:844 
0.5 1:861 2:863 
0.5 1:364 2:263 
0.5 1:568 2:697 
0.5 1:746 2:813 
0.5 1:829 2:850 
0.5 1:871 2:867 
0.5 1:408 2:426 
0.5 1:670 2:783 
0.5 1:794 2:838 
0.5 1:859 2:863 
0.5 1:891 2:875 
0.5 1:580 2:692 
0.5 1:763 2:817 
0.5 1:833 2:849 
0.5 1:867 2:861 
0.5 1:888 2:871 
-0.0625 1:300 2:29 
-0.0625 1:509 2:531 
-0.0625 1:663 2:686 
-0.0625 1:740 2:737 
-0.0625 1:791 2:762 
-0.0625 1:309 2:60 
-0.0625 1:481 2:430 
-0.0625 1:637 2:658 
-0.0625 1:703 2:708 
-0.0625 1:742 2:728 
-0.0625 1:373 2:307 
-0.06249999999999645 1:380 2:336 
-0.06249999999999684 1:382 2:334 
-0.0625 1:390 2:339 
-0.0625 1:395 2:350 
-0.0625 1:341 2:277 
-0.0625 1:474 2:588 
-0.0625 1:537 2:662 
-0.0625 1:578 2:687 
-0.0625 1:605 2:690 
-0.125 1:303 2:190 
-0.125 1:474 2:633 
-0.125 1:568 2:714 
-0.125 1:629 2:740 
-0.125 1:676 2:751 
-0.125 1:311 2:268 
-0.125 1:491 2:652 
-0.125 1:571 2:717 
-0.125 1:637 2:744 
-0.125 1:690 2:758 
-0.25 1:538 2:586 
-0.25 1:746 2:742 
-0.25 1:761 2:787 
-0.25 1:782 2:802 
-0.25 1:800 2:808 
-0.5 1:300 2:29 
-0.5 1:509 2:531 
-0.5 1:663 2:686 
-0.5 1:740 2:737 
-0.5 1:791 2:762 
-0.5 1:309 2:60 
-0.5 1:481 2:430 
-0.5 1:637 2:658 
-0.5 1:703 2:708 
-0.5 1:742 2:728 
-0.5 1:284 2:43 
-0.5 1:301 2:92 
-0.5 1:340 2:190 
-0.5 1:376 2:247 
-0.5 1:428 2:308 
-0.06250000000000355 1:284 2:43 
-0.06250000000000316 1:301 2:92 
-0.0625 1:340 2:190 
-0.0625 1:376 2:247 
-0.0625 1:428 2:308 
-0.5 1:373 2:307 
-0.5 1:380 2:336 
-0.5 1:382 2:334 
-0.5 1:390 2:339 
-0.5 1:395 2:350 
-0.5 1:341 2:277 
-0.5 1:474 2:588 
-0.5 1:537 2:662 
-0.5 1:578 2:687 
-0.5 1:605 2:690 
-0.4375 1:303 2:190 
-0.4375 1:474 2:633 
-0.4375 1:568 2:714 
-0.4375 1:629 2:740 
-0.4375 1:676 2:751 
-0.4375 1:311 2:268 
-0.4375 1:491 2:652 
-0.4375 1:571 2:717 
-0.4375 1:637 2:744 
-0.4375 1:690 2:758 
-0.3125 1:538 2:586 
-0.3125 1:746 2:742 
-0.3125 1:761 2:787 
-0.3125 1:782 2:802 
-0.3125 1:800 2:808 
