svm_type c_svc
kernel_type rbf
gamma 4
nr_class 2
total_sv 85
rho -0.0588235
label 1 -1
nr_sv 45 40
SV
0.94140625 1:309 2:43 
0.94140625 1:509 2:637 
0.9414062535167238 1:756 2:806 
0.9414062535167242 1:865 2:857 
0.9414062535167242 1:904 2:876 
0.9404297006877136 1:341 2:167 
0.9404296989293522 1:745 2:669 
0.9404297006877136 1:892 2:828 
0.9404297006877137 1:917 2:860 
0.9414062570334474 1:924 2:876 
0.9414062570334474 1:370 2:291 
0.9414062570334474 1:659 2:742 
0.9414062570334474 1:767 2:823 
0.941406253516724 1:825 2:855 
0.941406253516724 1:858 2:866 
0.9414062535167238 1:345 2:233 
0.9414062535167238 1:561 2:710 
0.9414062535167238 1:725 2:810 
0.9414062535167238 1:815 2:847 
0.9404295950760977 1:861 2:861 
0.9414062535167238 1:372 2:272 
0.9414062535167238 1:448 2:535 
0.94140625 1:617 2:741 
0.94140625 1:744 2:816 
0.9414062499999999 1:833 2:852 
0.94140625 1:382 2:310 
0.94140625 1:573 2:714 
0.94140625 1:724 2:806 
0.94140625 1:812 2:844 
0.9404294892446881 1:861 2:863 
0.94140625 1:364 2:263 
0.94140625 1:568 2:697 
0.94140625 1:746 2:813 
0.9404297006877135 1:829 2:850 
0.9414062570334474 1:871 2:867 
0.9404297006877136 1:408 2:426 
0.9404297009075077 1:670 2:783 
0.9404297007976108 1:794 2:838 
0.9404295950760978 1:859 2:863 
0.9404297007976107 1:891 2:875 
0.9414062535167238 1:580 2:692 
0.9414062535167238 1:763 2:817 
0.9414062499999999 1:833 2:849 
0.9414062535167238 1:867 2:861 
0.9414062535167238 1:888 2:871 
-1.058593746483276 1:300 2:29 
-1.058593746483276 1:509 2:531 
-1.058593746483276 1:663 2:686 
-1.05859375 1:740 2:737 
-1.05859375 1:791 2:762 
-1.059570299202389 1:309 2:60 
-1.059570301070648 1:481 2:430 
-1.058593742966553 1:637 2:658 
-1.059570299202389 1:703 2:708 
-1.058593746483276 1:742 2:728 
-1.058593746483276 1:284 2:43 
-1.058593746483276 1:301 2:92 
-1.058593746483276 1:340 2:190 
-1.05859375 1:376 2:247 
-1.05859375 1:428 2:308 
-1.05859375 1:373 2:307 
-1.059570299312273 1:380 2:336 
-1.059570299312273 1:382 2:334 
-1.05859375 1:390 2:339 
-1.05859375 1:395 2:350 
-1.059570299312286 1:341 2:277 
-1.059570299312286 1:474 2:588 
-1.058593746483276 1:537 2:662 
-1.058593746483276 1:578 2:687 
-1.058593746483276 1:605 2:690 
-1.058593746483276 1:303 2:190 
-1.05859375 1:474 2:633 
-1.059570299312286 1:568 2:714 
-1.058593746483276 1:629 2:740 
-1.058593746483276 1:676 2:751 
-1.058593746483276 1:311 2:268 
-1.05859375 1:491 2:652 
-1.05859375 1:571 2:717 
-1.05859375 1:637 2:744 
-1.058593742966553 1:690 2:758 
-1.058593746483276 1:538 2:586 
-1.058593746483276 1:746 2:742 
-1.058593746483276 1:761 2:787 
-1.05859375 1:782 2:802 
-1.05859375 1:800 2:808 
