svm_type c_svc
kernel_type rbf
gamma 4
nr_class 2
total_sv 125
rho -0.0587906
label 1 -1
nr_sv 45 80
SV
0.94140625 1:309 2:43 
0.94140625 1:509 2:637 
0.9414062535167238 1:756 2:806 
0.9414062535167242 1:865 2:857 
0.9414062535167242 1:904 2:876 
0.9404297006877136 1:341 2:167 
0.9404296989293521 1:745 2:669 
0.9404297006877136 1:892 2:828 
0.9404297006877137 1:917 2:860 
0.9404297006877136 1:924 2:876 
0.9414062570334472 1:370 2:291 
0.9404297007976107 1:659 2:742 
0.9414062570334472 1:767 2:823 
0.9414062535167237 1:825 2:855 
0.9414062535167237 1:858 2:866 
0.9414062535167235 1:345 2:233 
0.9414062535167238 1:561 2:710 
0.9414062535167238 1:725 2:810 
0.9414062535167238 1:815 2:847 
0.9404295950760976 1:861 2:861 
0.9414062535167238 1:372 2:272 
0.9414062535167238 1:448 2:535 
0.94140625 1:617 2:741 
0.94140625 1:744 2:816 
0.9414062499999999 1:833 2:852 
0.9404297006877136 1:382 2:310 
0.9404297007976107 1:573 2:714 
0.9404297006877134 1:724 2:806 
0.9404297007976107 1:812 2:844 
0.9404294892446879 1:861 2:863 
0.9404297007976106 1:364 2:263 
0.9414062570334472 1:568 2:697 
0.9414062535167237 1:746 2:813 
0.9414062535167237 1:829 2:850 
0.9414062535167238 1:871 2:867 
0.9414062535167238 1:408 2:426 
0.9414062535167238 1:670 2:783 
0.9414062535167238 1:794 2:838 
0.9404295950760977 1:859 2:863 
0.9414062535167242 1:891 2:875 
0.9414062500000031 1:580 2:692 
0.94140625 1:763 2:817 
0.9414062499999999 1:833 2:849 
0.94140625 1:867 2:861 
0.94140625 1:888 2:871 
-0.0625 1:300 2:29 
-0.0625 1:509 2:531 
-0.0625 1:663 2:686 
-0.0625 1:740 2:737 
-0.0625 1:791 2:762 
-0.1249999577993138 1:309 2:60 
-0.1249999718662068 1:481 2:430 
-0.1249999718662076 1:637 2:658 
-0.1249999718662084 1:703 2:708 
-0.1249999859331022 1:742 2:728 
-0.124999985933103 1:373 2:307 
-0.05957029931227298 1:380 2:336 
-0.06054685917472971 1:382 2:334 
-0.124999985933103 1:390 2:339 
-0.124999985933103 1:395 2:350 
-0.1249999999999999 1:341 2:277 
-0.125 1:474 2:588 
-0.125 1:537 2:662 
-0.125 1:578 2:687 
-0.125 1:605 2:690 
-0.125 1:303 2:190 
-0.125 1:474 2:633 
-0.125 1:568 2:714 
-0.125 1:629 2:740 
-0.125 1:676 2:751 
-0.125 1:311 2:268 
-0.125 1:491 2:652 
-0.2499999437324152 1:571 2:717 
-0.2499999718662045 1:637 2:744 
-0.249999971866206 1:690 2:758 
-0.249999971866206 1:538 2:586 
-0.2499999999999999 1:746 2:742 
-0.2499999999999999 1:761 2:787 
-0.25 1:782 2:802 
-0.25 1:800 2:808 
-0.99609375 1:300 2:29 
-0.99609375 1:509 2:531 
-0.99609375 1:663 2:686 
-0.9960937429665528 1:740 2:737 
-0.9970702993122864 1:791 2:762 
-0.9345703415129727 1:309 2:60 
-0.9345703292044409 1:481 2:430 
-0.9345703272262847 1:637 2:658 
-0.9335937711003445 1:703 2:708 
-0.9335937605501742 1:742 2:728 
-0.25 1:284 2:43 
-0.25 1:301 2:92 
-0.4999999437324121 1:340 2:190 
-0.5 1:376 2:247 
-0.5 1:428 2:308 
-0.8085937464832763 1:284 2:43 
-0.8085937464832763 1:301 2:92 
-0.5585938027508641 1:340 2:190 
-0.5585937464832762 1:376 2:247 
-0.5585937464832762 1:428 2:308 
-0.9335937605501732 1:373 2:307 
-1 1:380 2:336 
-0.9990234401375432 1:382 2:334 
-0.9335937605501732 1:390 2:339 
-0.9335937605501727 1:395 2:350 
-0.93359375 1:341 2:277 
-0.93359375 1:474 2:588 
-0.93359375 1:537 2:662 
-0.93359375 1:578 2:687 
-0.93359375 1:605 2:690 
-0.93359375 1:303 2:190 
-0.93359375 1:474 2:633 
-0.93359375 1:568 2:714 
-0.933593742966553 1:629 2:740 
-0.9335937464832765 1:676 2:751 
-0.9335937464832762 1:311 2:268 
-0.9335937499999969 1:491 2:652 
-0.8085937992341375 1:571 2:717 
-0.8085937746170719 1:637 2:744 
-0.8085937746170697 1:690 2:758 
-0.8085937746170697 1:538 2:586 
-0.80859375 1:746 2:742 
-0.80859375 1:761 2:787 
-0.80859375 1:782 2:802 
-0.80859375 1:800 2:808 
