svm_type c_svc
kernel_type rbf
gamma 0.25
nr_class 2
total_sv 198
rho -0.00842753
label 1 -1
nr_sv 99 99
SV
0.5 1:840 2:867 
0.5 1:802 2:853 
0.5 1:756 2:834 
0.5 1:708 2:816 
0.5 1:658 2:792 
0.5 1:610 2:767 
0.5 1:563 2:733 
0.5 1:521 2:694 
0.5 1:487 2:652 
0.5 1:456 2:605 
0.5 1:429 2:552 
0.5 1:788 2:841 
0.5 1:746 2:820 
0.5 1:698 2:801 
0.5 1:653 2:777 
0.5 1:605 2:749 
0.5 1:565 2:717 
0.5 1:525 2:677 
0.5 1:490 2:634 
0.5 1:464 2:595 
0.5 1:443 2:552 
0.5 1:423 2:508 
0.5 1:875 2:873 
0.5 1:860 2:867 
0.5 1:839 2:857 
0.5 1:818 2:847 
0.5 1:795 2:839 
0.5 1:766 2:823 
0.5 1:737 2:809 
0.5 1:704 2:791 
0.5 1:674 2:776 
0.5 1:645 2:759 
0.5 1:614 2:735 
0.5 1:832 2:861 
0.5 1:798 2:847 
0.5 1:755 2:830 
0.5 1:707 2:809 
0.5 1:658 2:784 
0.5 1:613 2:760 
0.5 1:568 2:727 
0.5 1:527 2:690 
0.5 1:491 2:648 
0.5 1:460 2:602 
0.5 1:431 2:550 
0.5 1:871 2:869 
0.5 1:853 2:863 
0.5 1:828 2:853 
0.5 1:798 2:839 
0.5 1:769 2:828 
0.5 1:734 2:812 
0.5 1:702 2:797 
0.5 1:667 2:780 
0.5 1:630 2:756 
0.5 1:597 2:734 
0.5 1:571 2:712 
0.5 1:849 2:863 
0.5 1:810 2:848 
0.5 1:769 2:831 
0.5 1:719 2:809 
0.5 1:668 2:785 
0.5 1:617 2:756 
0.5 1:569 2:722 
0.5 1:525 2:684 
0.5 1:485 2:636 
0.5 1:455 2:589 
0.5 1:428 2:537 
0.5 1:861 2:864 
0.5 1:833 2:850 
0.5 1:801 2:840 
0.5 1:759 2:822 
0.5 1:720 2:806 
0.5 1:674 2:784 
0.5 1:626 2:757 
0.5 1:586 2:730 
0.5 1:546 2:695 
0.5 1:511 2:659 
0.5 1:482 2:621 
0.5 1:867 2:869 
0.5 1:832 2:853 
0.5 1:798 2:840 
0.5 1:754 2:822 
0.5 1:706 2:803 
0.5 1:656 2:780 
0.5 1:606 2:750 
0.5 1:562 2:717 
0.5 1:520 2:677 
0.5 1:482 2:633 
0.5 1:455 2:591 
0.5 1:898 2:878 
0.5 1:887 2:875 
0.5 1:867 2:865 
0.5 1:848 2:855 
0.5 1:827 2:846 
0.5 1:799 2:832 
0.5 1:773 2:821 
0.5 1:744 2:808 
0.5 1:716 2:793 
0.5 1:683 2:776 
0.5 1:649 2:755 
-0.5 1:824 2:788 
-0.5 1:803 2:773 
-0.5 1:778 2:753 
-0.5 1:750 2:730 
-0.5 1:723 2:706 
-0.5 1:693 2:677 
-0.5 1:663 2:648 
-0.5 1:631 2:611 
-0.5 1:599 2:573 
-0.5 1:567 2:532 
-0.5 1:537 2:486 
-0.5 1:751 2:720 
-0.5 1:735 2:708 
-0.5 1:714 2:688 
-0.5 1:690 2:664 
-0.5 1:664 2:634 
-0.5 1:634 2:602 
-0.5 1:607 2:568 
-0.5 1:583 2:533 
-0.5 1:553 2:488 
-0.5 1:526 2:443 
-0.5 1:497 2:393 
-0.5 1:562 2:495 
-0.5 1:534 2:446 
-0.5 1:506 2:390 
-0.5 1:476 2:328 
-0.5 1:447 2:266 
-0.5 1:420 2:208 
-0.5 1:397 2:159 
-0.5 1:375 2:121 
-0.5 1:357 2:94 
-0.5 1:343 2:75 
-0.5 1:330 2:62 
-0.5 1:562 2:495 
-0.5 1:534 2:446 
-0.5 1:506 2:390 
-0.5 1:476 2:328 
-0.5 1:447 2:266 
-0.5 1:420 2:208 
-0.5 1:397 2:159 
-0.5 1:375 2:121 
-0.5 1:357 2:94 
-0.5 1:343 2:75 
-0.5 1:330 2:62 
-0.5 1:395 2:346 
-0.5 1:375 2:307 
-0.5 1:357 2:270 
-0.5 1:341 2:236 
-0.5 1:326 2:208 
-0.5 1:315 2:186 
-0.5 1:305 2:168 
-0.5 1:296 2:152 
-0.5 1:289 2:139 
-0.5 1:282 2:129 
-0.5 1:277 2:122 
-0.5 1:536 2:567 
-0.5 1:509 2:527 
-0.5 1:476 2:479 
-0.5 1:447 2:427 
-0.5 1:420 2:376 
-0.5 1:398 2:329 
-0.5 1:378 2:285 
-0.5 1:362 2:246 
-0.5 1:347 2:212 
-0.5 1:330 2:182 
-0.5 1:320 2:160 
-0.5 1:676 2:716 
-0.5 1:644 2:687 
-0.5 1:613 2:657 
-0.5 1:582 2:625 
-0.5 1:553 2:591 
-0.5 1:526 2:555 
-0.5 1:499 2:515 
-0.5 1:474 2:475 
-0.5 1:452 2:434 
-0.5 1:431 2:392 
-0.5 1:408 2:349 
-0.5 1:684 2:722 
-0.5 1:655 2:697 
-0.5 1:623 2:670 
-0.5 1:593 2:640 
-0.5 1:561 2:605 
-0.5 1:530 2:565 
-0.5 1:502 2:525 
-0.5 1:474 2:482 
-0.5 1:447 2:435 
-0.5 1:425 2:387 
-0.5 1:401 2:339 
-0.5 1:750 2:784 
-0.5 1:711 2:757 
-0.5 1:667 2:727 
-0.5 1:626 2:695 
-0.5 1:583 2:656 
-0.5 1:543 2:613 
-0.5 1:506 2:565 
-0.5 1:474 2:515 
-0.5 1:446 2:463 
-0.5 1:421 2:410 
-0.5 1:401 2:360 
