svm_type c_svc
kernel_type rbf
gamma 0.25
nr_class 2
total_sv 187
rho -0.0392335
label 1 -1
nr_sv 99 88
SV
0.9606878761585813 1:840 2:867 
0.9610038047175091 1:802 2:853 
0.9472026028027178 1:756 2:834 
0.9602187027734546 1:708 2:816 
0.9608813292655299 1:658 2:792 
0.9610183723568858 1:610 2:767 
0.9610096487475046 1:563 2:733 
0.96093760498812 1:521 2:694 
0.9603740880783664 1:487 2:652 
0.9590660754348976 1:456 2:605 
0.8462944972384497 1:429 2:552 
0.9607009316139171 1:788 2:841 
0.9611167619216169 1:746 2:820 
0.960589581012795 1:698 2:801 
0.9502455606591409 1:653 2:777 
0.5980684402119527 1:605 2:749 
0.8690766826743824 1:565 2:717 
0.9590126466336795 1:525 2:677 
0.9602041853839909 1:490 2:634 
0.9602789769695687 1:464 2:595 
0.9608370643936007 1:443 2:552 
0.9606904789157711 1:423 2:508 
0.9603768239472541 1:875 2:873 
0.8878061841883514 1:860 2:867 
0.960714615292473 1:839 2:857 
0.9604542968551002 1:818 2:847 
0.8762748538200622 1:795 2:839 
0.9604967662120345 1:766 2:823 
0.9501279737032994 1:737 2:809 
0.9608356911893319 1:704 2:791 
0.9607046418621992 1:674 2:776 
0.9606367107656463 1:645 2:759 
0.9602992622033112 1:614 2:735 
0.9607129306221099 1:832 2:861 
0.9611115410670301 1:798 2:847 
0.947203455044735 1:755 2:830 
0.9609097174758933 1:707 2:809 
0.9546779567218417 1:658 2:784 
0.9600576619846576 1:613 2:760 
0.9587811812499473 1:568 2:727 
0.9609788873122751 1:527 2:690 
0.9603853749492632 1:491 2:648 
0.9591524883223126 1:460 2:602 
0.8461266623258763 1:431 2:550 
0.9430824772033938 1:871 2:869 
0.9432453518816662 1:853 2:863 
0.9447193660400277 1:828 2:853 
0.4476759505944647 1:798 2:839 
0.8693106123707538 1:769 2:828 
0.9504842984348781 1:734 2:812 
0.9601688523641513 1:702 2:797 
0.9593264448640179 1:667 2:780 
0.9475478512959993 1:630 2:756 
0.9607462450863399 1:597 2:734 
0.9608498451839929 1:571 2:712 
0.9433096631656749 1:849 2:863 
0.9607361088969163 1:810 2:848 
0.8691258749568012 1:769 2:831 
0.8874506897419995 1:719 2:809 
0.9586855191767646 1:668 2:785 
0.9607885584857098 1:617 2:756 
0.959209412583155 1:569 2:722 
0.9606364209279102 1:525 2:684 
0.9494461816404954 1:485 2:636 
0.702545639915741 1:455 2:589 
0.9602991766052816 1:428 2:537 
0.8877107218686352 1:861 2:864 
0.8892840911527387 1:833 2:850 
0.8770169678320958 1:801 2:840 
0.9588274890669549 1:759 2:822 
0.8878468062528421 1:720 2:806 
0.9607782577287206 1:674 2:784 
0.9472518928400727 1:626 2:757 
0.9610188565597271 1:586 2:730 
0.9602119920585908 1:546 2:695 
0.9604543822245766 1:511 2:659 
0.961098294723439 1:482 2:621 
0.926158135754983 1:867 2:869 
0.8704365887200374 1:832 2:853 
0.4474481346119412 1:798 2:840 
0.9591180929791838 1:754 2:822 
0.9606211006073628 1:706 2:803 
0.9441333002109193 1:656 2:780 
0.597978656616351 1:606 2:750 
0.8692159042594885 1:562 2:717 
0.9590277767235287 1:520 2:677 
0.9504872778006263 1:482 2:633 
0.7022273704971579 1:455 2:591 
0.9610156726945652 1:898 2:878 
0.9609234095423915 1:887 2:875 
0.9436648254347614 1:867 2:865 
0.9602990941689721 1:848 2:855 
0.9606985640507708 1:827 2:846 
0.9606852330967689 1:799 2:832 
0.9608778590232006 1:773 2:821 
0.9602754792418665 1:744 2:808 
0.9606878762100485 1:716 2:793 
0.9607368108361221 1:683 2:776 
0.9604139355703856 1:649 2:755 
-1.039710773448048 1:824 2:788 
-1.039249452136626 1:803 2:773 
-1.03926605713933 1:778 2:753 
-1.039317396014967 1:750 2:730 
-1.03911706489139 1:723 2:706 
-1.038981146386221 1:693 2:677 
-1.039212553355184 1:663 2:648 
-1.039032349177209 1:631 2:611 
-1.039076590231909 1:599 2:573 
-1.038994010314438 1:567 2:532 
-1.039120717211051 1:537 2:486 
-1.039321084534287 1:751 2:720 
-1.039788007941409 1:735 2:708 
-1.039266271801466 1:714 2:688 
-1.039688665104648 1:690 2:664 
-1.039084960366343 1:664 2:634 
-1.038883679763248 1:634 2:602 
-1.038885153911264 1:607 2:568 
-1.039249452136626 1:583 2:533 
-1.039234617857638 1:553 2:488 
-1.039052772184496 1:526 2:443 
-1.038931782697319 1:497 2:393 
-1.039286265145266 1:562 2:495 
-1.038986253499099 1:534 2:446 
-1.039284334529829 1:506 2:390 
-1.03929516444795 1:476 2:328 
-1.039318401500834 1:447 2:266 
-1.03911706489139 1:420 2:208 
-1.039118563299618 1:397 2:159 
-1.038994010314438 1:375 2:121 
-1.038984301686757 1:357 2:94 
-1.03929245543893 1:343 2:75 
-1.039769124508076 1:330 2:62 
-1.039492430154522 1:395 2:346 
-1.039077063038795 1:375 2:307 
-1.039286885396901 1:357 2:270 
-1.039285223164587 1:341 2:236 
-1.039414110962718 1:326 2:208 
-1.039090183505649 1:315 2:186 
-1.038883197944557 1:305 2:168 
-1.039266271801466 1:296 2:152 
-1.039238095600183 1:289 2:139 
-1.039234608260088 1:282 2:129 
-1.038983485921918 1:277 2:122 
-1.039686920044986 1:536 2:567 
-1.039293353804056 1:509 2:527 
-0.9937273213637797 1:476 2:479 
-1.03970061272679 1:447 2:427 
-1.03929529678177 1:420 2:376 
-1.039149947893254 1:398 2:329 
-1.039249452141375 1:378 2:285 
-1.039282618784929 1:362 2:246 
-1.039297525831739 1:347 2:212 
-1.039295182934042 1:330 2:182 
-1.039320006643453 1:320 2:160 
-1.039734150036557 1:676 2:716 
-1.039120372571366 1:644 2:687 
-1.039075769674968 1:613 2:657 
-1.039060222882767 1:582 2:625 
-1.038994022645183 1:553 2:591 
-1.038995994417494 1:526 2:555 
-1.039574520756329 1:499 2:515 
-1.032553283927562 1:474 2:475 
-1.03742334338184 1:452 2:434 
-1.039319759121192 1:431 2:392 
-1.039119341025074 1:408 2:349 
-1.039286886247739 1:684 2:722 
-1.038986265823429 1:655 2:697 
-1.038983495527427 1:623 2:670 
-1.038981146386221 1:593 2:640 
-1.038956256996287 1:561 2:605 
-1.038947093958511 1:530 2:565 
-1.039073938682362 1:502 2:525 
-1.000803900675298 1:474 2:482 
-1.037682903514537 1:447 2:435 
-1.038975046908609 1:425 2:387 
-1.039114987986338 1:401 2:339 
-1.038952017752735 1:750 2:784 
-1.039297647051264 1:711 2:757 
-1.039238095600184 1:667 2:727 
-1.039286886262179 1:626 2:695 
-1.039077063038795 1:583 2:656 
-1.038901705276561 1:543 2:613 
-1.039044499470802 1:506 2:565 
-1.039052784045616 1:474 2:515 
-1.039295895996332 1:446 2:463 
-1.039710773448048 1:421 2:410 
-1.039282618784929 1:401 2:360 
