svm_type c_svc
kernel_type rbf
gamma 1
nr_class 2
total_sv 198
rho -0.093297
label 1 -1
nr_sv 99 99
SV
0.9071093444187079 1:840 2:867 
0.9071094188265573 1:802 2:853 
0.9071093810466346 1:756 2:834 
0.9069581918510726 1:708 2:816 
0.9067979316002843 1:658 2:792 
0.906922392550231 1:610 2:767 
0.9068543933613336 1:563 2:733 
0.9062637027033857 1:521 2:694 
0.9069581919044569 1:487 2:652 
0.906797931706636 1:456 2:605 
0.9060051265005743 1:429 2:552 
0.9067979316002843 1:788 2:841 
0.9062666072141701 1:746 2:820 
0.9071611684131767 1:698 2:801 
0.9068299138668144 1:653 2:777 
0.7986931214885628 1:605 2:749 
0.906163436997821 1:565 2:717 
0.9071611684006019 1:525 2:677 
0.9063038208516316 1:490 2:634 
0.9062648659552306 1:464 2:595 
0.9062714120083324 1:443 2:552 
0.9062714131513518 1:423 2:508 
0.9062691185406307 1:875 2:873 
0.9071200260570838 1:860 2:867 
0.906272903644784 1:839 2:857 
0.9062731427068911 1:818 2:847 
0.9061597284577195 1:795 2:839 
0.9071093444186418 1:766 2:823 
0.9067979177917778 1:737 2:809 
0.9062833797875767 1:704 2:791 
0.9062833780297986 1:674 2:776 
0.9068315146790805 1:645 2:759 
0.9063038260572526 1:614 2:735 
0.906309059111602 1:832 2:861 
0.9071094192586319 1:798 2:847 
0.9068298900573981 1:755 2:830 
0.9071093444184266 1:707 2:809 
0.9062729017768352 1:658 2:784 
0.906829927611151 1:613 2:760 
0.906958191846437 1:568 2:727 
0.9071093444186433 1:527 2:690 
0.9062714120083066 1:491 2:648 
0.907109344406107 1:460 2:602 
0.9060103543460557 1:431 2:550 
0.9069222903470774 1:871 2:869 
0.9062727981104229 1:853 2:863 
0.9069580898161989 1:828 2:853 
0.6623568036214269 1:798 2:839 
0.9061613132567812 1:769 2:828 
0.9070712719742882 1:734 2:812 
0.9062714131513405 1:702 2:797 
0.9063306708279628 1:667 2:780 
0.907109381692997 1:630 2:756 
0.9071094188265573 1:597 2:734 
0.9068543933613337 1:571 2:712 
0.9062730424785358 1:849 2:863 
0.9063306708326073 1:810 2:848 
0.9061634369978067 1:769 2:831 
0.90683189695801 1:719 2:809 
0.9069223925456109 1:668 2:785 
0.9062736535682625 1:617 2:756 
0.9067979316018205 1:569 2:722 
0.9071829489731286 1:525 2:684 
0.9069223786344995 1:485 2:636 
0.8905615196557342 1:455 2:589 
0.9070907075256311 1:428 2:537 
0.9068626379395824 1:861 2:864 
0.9068626368895263 1:833 2:850 
0.9061566836666682 1:801 2:840 
0.9070712857640634 1:759 2:822 
0.9067567753567569 1:720 2:806 
0.907090707525631 1:674 2:784 
0.9068298900576592 1:626 2:757 
0.9071829477582172 1:586 2:730 
0.9069038211261455 1:546 2:695 
0.9069223923902093 1:511 2:659 
0.9063306708326804 1:482 2:621 
0.9071827436290881 1:867 2:869 
0.9071676230182589 1:832 2:853 
0.6633407433746331 1:798 2:840 
0.9068299275813275 1:754 2:822 
0.9071829489731286 1:706 2:803 
0.9067979297833104 1:656 2:780 
0.7990406640377603 1:606 2:750 
0.9061613150159963 1:562 2:717 
0.9062833780168645 1:520 2:677 
0.9069223785778004 1:482 2:633 
0.8905814284170174 1:455 2:591 
0.9070907075256311 1:898 2:878 
0.9068543933613336 1:887 2:875 
0.9063305688465183 1:867 2:865 
0.906922392550231 1:848 2:855 
0.9071094186122696 1:827 2:846 
0.9071093444184267 1:799 2:832 
0.9068299276691915 1:773 2:821 
0.9063038260572526 1:744 2:808 
0.9062833780297989 1:716 2:793 
0.9062833797875767 1:683 2:776 
0.9062833780297873 1:649 2:755 
-1 1:824 2:788 
-1 1:803 2:773 
-1 1:778 2:753 
-1 1:750 2:730 
-1 1:723 2:706 
-1 1:693 2:677 
-1 1:663 2:648 
-1 1:631 2:611 
-1 1:599 2:573 
-1 1:567 2:532 
-1 1:537 2:486 
-1 1:751 2:720 
-1 1:735 2:708 
-1 1:714 2:688 
-1 1:690 2:664 
-1 1:664 2:634 
-1 1:634 2:602 
-1 1:607 2:568 
-1 1:583 2:533 
-1 1:553 2:488 
-1 1:526 2:443 
-1 1:497 2:393 
-0.1249580669142435 1:562 2:495 
-0.1249614361325727 1:534 2:446 
-0.1249614361325728 1:506 2:390 
-0.1249660264344683 1:476 2:328 
-0.1249745316052925 1:447 2:266 
-0.1249768597101393 1:420 2:208 
-0.1249768597101395 1:397 2:159 
-0.1249768606619191 1:375 2:121 
-0.1249768606619481 1:357 2:94 
-0.1249817299642915 1:343 2:75 
-0.1249845685998597 1:330 2:62 
-0.9687690294731822 1:562 2:495 
-0.9687671507160754 1:534 2:446 
-0.9687671507160752 1:506 2:390 
-0.9687648550248891 1:476 2:328 
-0.968760602439477 1:447 2:266 
-0.9681932126959357 1:420 2:208 
-0.9682252085706265 1:397 2:159 
-0.9681932117266573 1:375 2:121 
-0.9681687459767183 1:357 2:94 
-0.968095877485467 1:343 2:75 
-0.9679247238745091 1:330 2:62 
-1 1:395 2:346 
-1 1:375 2:307 
-1 1:357 2:270 
-1 1:341 2:236 
-1 1:326 2:208 
-1 1:315 2:186 
-1 1:305 2:168 
-1 1:296 2:152 
-1 1:289 2:139 
-1 1:282 2:129 
-1 1:277 2:122 
-1 1:536 2:567 
-1 1:509 2:527 
-1 1:476 2:479 
-1 1:447 2:427 
-1 1:420 2:376 
-1 1:398 2:329 
-1 1:378 2:285 
-1 1:362 2:246 
-1 1:347 2:212 
-1 1:330 2:182 
-1 1:320 2:160 
-1 1:676 2:716 
-1 1:644 2:687 
-1 1:613 2:657 
-1 1:582 2:625 
-1 1:553 2:591 
-1 1:526 2:555 
-1 1:499 2:515 
-1 1:474 2:475 
-1 1:452 2:434 
-1 1:431 2:392 
-1 1:408 2:349 
-1 1:684 2:722 
-1 1:655 2:697 
-1 1:623 2:670 
-1 1:593 2:640 
-1 1:561 2:605 
-1 1:530 2:565 
-1 1:502 2:525 
-1 1:474 2:482 
-1 1:447 2:435 
-1 1:425 2:387 
-1 1:401 2:339 
-1 1:750 2:784 
-1 1:711 2:757 
-1 1:667 2:727 
-1 1:626 2:695 
-1 1:583 2:656 
-1 1:543 2:613 
-1 1:506 2:565 
-1 1:474 2:515 
-1 1:446 2:463 
-1 1:421 2:410 
-1 1:401 2:360 
