svm_type c_svc
kernel_type rbf
gamma 1
nr_class 2
total_sv 187
rho -0.0547084
label 1 -1
nr_sv 99 88
SV
0.9453278001664558 1:840 2:867 
0.9453259214638993 1:802 2:853 
0.9453196689334571 1:756 2:834 
0.9453295465188728 1:708 2:816 
0.9453235627516032 1:658 2:792 
0.9453224140475862 1:610 2:767 
0.9453184888062004 1:563 2:733 
0.9453190665175839 1:521 2:694 
0.9452045592083231 1:487 2:652 
0.9453211594270255 1:456 2:605 
0.945028310379992 1:429 2:552 
0.9453197074426053 1:788 2:841 
0.9453184888573063 1:746 2:820 
0.9452575778863473 1:698 2:801 
0.9453927575297384 1:653 2:777 
0.8324608896082257 1:605 2:749 
0.9452111520238841 1:565 2:717 
0.945319708050979 1:525 2:677 
0.9454886137499474 1:490 2:634 
0.9451429368768348 1:464 2:595 
0.9452575778269003 1:443 2:552 
0.9453434715669411 1:423 2:508 
0.9453197074425933 1:875 2:873 
0.9452761518921373 1:860 2:867 
0.9453927719269128 1:839 2:857 
0.945488613750185 1:818 2:847 
0.9452095192872808 1:795 2:839 
0.9454886137501867 1:766 2:823 
0.9452575634891601 1:737 2:809 
0.9453865681903599 1:704 2:791 
0.9453281420282968 1:674 2:776 
0.9452927212186895 1:645 2:759 
0.945488613750185 1:614 2:735 
0.945488613750185 1:832 2:861 
0.9446532851005108 1:798 2:847 
0.9453196686302108 1:755 2:830 
0.9453927719269128 1:707 2:809 
0.9452628126170782 1:658 2:784 
0.9453244056386103 1:613 2:760 
0.9452045592035052 1:568 2:727 
0.9446608619045492 1:527 2:690 
0.9453197073324785 1:491 2:648 
0.9453197074740308 1:460 2:602 
0.9447850183751577 1:431 2:550 
0.9453180237527005 1:871 2:869 
0.9453180784800167 1:853 2:863 
0.945318081100788 1:828 2:853 
0.6908751486649608 1:798 2:839 
0.9452097069778077 1:769 2:828 
0.9453196930803406 1:734 2:812 
0.9453197070275471 1:702 2:797 
0.9453184884130277 1:667 2:780 
0.9453242718472714 1:630 2:756 
0.9449315867709129 1:597 2:734 
0.9453727734768563 1:571 2:712 
0.9453242049246257 1:849 2:863 
0.9453434715669413 1:810 2:848 
0.9452111523289273 1:769 2:831 
0.9452761510694334 1:719 2:809 
0.9453865681855301 1:668 2:785 
0.9453197070881334 1:617 2:756 
0.9453224140427502 1:569 2:722 
0.9453434715669411 1:525 2:684 
0.9449315724329608 1:485 2:636 
0.9282325933634857 1:455 2:589 
0.9452575778269003 1:428 2:537 
0.9452759264766699 1:861 2:864 
0.9452756256486896 1:833 2:850 
0.9452077732364055 1:801 2:840 
0.945323561966788 1:759 2:822 
0.9452756256448112 1:720 2:806 
0.9446608619045492 1:674 2:784 
0.945324644603263 1:626 2:757 
0.945262814565524 1:586 2:730 
0.945438993056037 1:546 2:695 
0.9449315867709129 1:511 2:659 
0.9446608619045492 1:482 2:621 
0.9453241924403835 1:867 2:869 
0.945276050402275 1:832 2:853 
0.6908197214761296 1:798 2:840 
0.9453253927082086 1:754 2:822 
0.945360954580162 1:706 2:803 
0.9453180783550498 1:656 2:780 
0.8324407112264977 1:606 2:750 
0.9452097071908648 1:562 2:717 
0.9453235627576105 1:520 2:677 
0.9453184747412006 1:482 2:633 
0.9279995003507877 1:455 2:591 
0.9446532851005108 1:898 2:878 
0.9453450721075054 1:887 2:875 
0.9453449657252692 1:867 2:865 
0.9453450721075054 1:848 2:855 
0.9453434715669412 1:827 2:846 
0.9454886137501878 1:799 2:832 
0.9451429368768348 1:773 2:821 
0.9453434715669411 1:744 2:808 
0.9451730885596804 1:716 2:793 
0.945262814565524 1:683 2:776 
0.9453184884178657 1:649 2:755 
-1.054680291930896 1:824 2:788 
-1.054681902989096 1:803 2:773 
-1.054681512569231 1:778 2:753 
-1.054670453481127 1:750 2:730 
-1.054656528433059 1:723 2:706 
-1.054795440791665 1:693 2:677 
-1.054707278781299 1:663 2:648 
-1.054675594361378 1:631 2:611 
-1.054670453481127 1:599 2:573 
-1.054681503741327 1:567 2:532 
-1.054627226523144 1:537 2:486 
-1.05468190523024 1:751 2:720 
-1.054681885333352 1:735 2:708 
-1.054676437248397 1:714 2:688 
-1.054676437229261 1:690 2:664 
-1.054677585952414 1:664 2:634 
-1.054679711189305 1:634 2:602 
-1.054607228073087 1:607 2:568 
-1.054607228073087 1:583 2:533 
-1.054670453481127 1:553 2:488 
-1.054674607065683 1:526 2:443 
-1.054674606632069 1:497 2:393 
-1.0546753162609 1:562 2:495 
-1.054675594382047 1:534 2:446 
-1.054675594361378 1:506 2:390 
-1.054676437248397 1:476 2:328 
-1.054676437229241 1:447 2:266 
-1.054676437715052 1:420 2:208 
-1.054676438019975 1:397 2:159 
-1.054677585952409 1:375 2:121 
-1.054678840559846 1:357 2:94 
-1.054679711189305 1:343 2:75 
-1.054680291935784 1:330 2:62 
-1.054680292557395 1:395 2:346 
-1.05468029266751 1:375 2:307 
-1.05468029266749 1:357 2:270 
-1.054680292967625 1:341 2:236 
-1.054680292887706 1:326 2:208 
-1.0546815111938 1:315 2:186 
-1.054681511142694 1:305 2:168 
-1.054681814259607 1:296 2:152 
-1.054681517880043 1:289 2:139 
-1.054681503741327 1:282 2:129 
-1.05468186898689 1:277 2:122 
-1.05468186898689 1:536 2:567 
-1.054671857971703 1:509 2:527 
-1.05467953456211 1:476 2:479 
-1.054511386249815 1:447 2:427 
-1.054607228073087 1:420 2:376 
-1.054656528433059 1:398 2:329 
-1.054654926354292 1:378 2:285 
-1.054607228073087 1:362 2:246 
-1.054809187872923 1:347 2:212 
-1.054795440791665 1:330 2:182 
-1.054681885333352 1:320 2:160 
-1.05468186898689 1:676 2:716 
-1.054680292967625 1:644 2:687 
-1.054680927768038 1:613 2:657 
-1.054681510805527 1:582 2:625 
-1.054679711189305 1:553 2:591 
-1.054680292887706 1:526 2:555 
-1.05468029266751 1:499 2:515 
-1.054680290737998 1:474 2:475 
-1.054675569847622 1:452 2:434 
-1.054680292972441 1:431 2:392 
-1.054676437229241 1:408 2:349 
-1.054675594361378 1:684 2:722 
-1.054674607065683 1:655 2:697 
-1.054674607065683 1:623 2:670 
-1.054672199528527 1:593 2:640 
-1.054681813401596 1:561 2:605 
-1.05468029266749 1:530 2:565 
-1.054674606632069 1:502 2:525 
-1.054679133956844 1:474 2:482 
-1.054680292662161 1:447 2:435 
-1.054676437248397 1:425 2:387 
-1.054676437715052 1:401 2:339 
-1.054679711189305 1:750 2:784 
-1.054680932646054 1:711 2:757 
-1.054607228073087 1:667 2:727 
-1.054654926354292 1:626 2:695 
-1.054511386249812 1:583 2:656 
-1.054654927892495 1:543 2:613 
-1.054656528433059 1:506 2:565 
-1.055339138095451 1:474 2:515 
-1.054770502474043 1:446 2:463 
-1.054654926354292 1:421 2:410 
-1.054737185434476 1:401 2:360 
