svm_type c_svc
kernel_type rbf
gamma 2
nr_class 2
total_sv 198
rho -0.0977311
label 1 -1
nr_sv 99 99
SV
0.9018043857757743 1:840 2:867 
0.9027743357985498 1:802 2:853 
0.9018017676434519 1:756 2:834 
0.9027743351053354 1:708 2:816 
0.9027743351053354 1:658 2:792 
0.9027743359764652 1:610 2:767 
0.9026364844826475 1:563 2:733 
0.9023666675349729 1:521 2:694 
0.9026338660517428 1:487 2:652 
0.9026364846562051 1:456 2:605 
0.9018016663454514 1:429 2:552 
0.9018158119916442 1:788 2:841 
0.9018017676434533 1:746 2:820 
0.9018158119887083 1:698 2:801 
0.9023653644923958 1:653 2:777 
0.8856345347961011 1:605 2:749 
0.9018017539758501 1:565 2:717 
0.9018158119911894 1:525 2:677 
0.9022535729076546 1:490 2:634 
0.9022312519366249 1:464 2:595 
0.902365364492396 1:443 2:552 
0.9026338678101042 1:423 2:508 
0.9027743357985497 1:875 2:873 
0.9018158101302585 1:860 2:867 
0.9018158119916442 1:839 2:857 
0.9018043857835017 1:818 2:847 
0.901804371918926 1:795 2:839 
0.901802491549063 1:766 2:823 
0.9023653644923958 1:737 2:809 
0.9022530722563281 1:704 2:791 
0.9024541393260437 1:674 2:776 
0.9022430606161111 1:645 2:759 
0.9018158118329749 1:614 2:735 
0.9018043856534209 1:832 2:861 
0.9022535726755119 1:798 2:847 
0.9018017677257472 1:755 2:830 
0.9018017677281613 1:707 2:809 
0.9027743351053354 1:658 2:784 
0.9027743357985498 1:613 2:760 
0.9026338660517428 1:568 2:727 
0.9022535726755119 1:527 2:690 
0.9027743359764652 1:491 2:648 
0.9027743359764652 1:460 2:602 
0.9018157106478644 1:431 2:550 
0.9026364846561936 1:871 2:869 
0.9023647128064579 1:853 2:863 
0.902636484482636 1:828 2:853 
0.7949476568013741 1:798 2:839 
0.9018024778587691 1:769 2:828 
0.9027743351053353 1:734 2:812 
0.901802491549063 1:702 2:797 
0.9023647128064693 1:667 2:780 
0.9026364846562035 1:630 2:756 
0.9022430606161111 1:597 2:734 
0.9022430606161111 1:571 2:712 
0.90180176772815 1:849 2:863 
0.9027743351053354 1:810 2:848 
0.9018643919170752 1:769 2:831 
0.9022530703975471 1:719 2:809 
0.9022535729076546 1:668 2:785 
0.9018434734284371 1:617 2:756 
0.901802491549063 1:569 2:722 
0.9022430606161111 1:525 2:684 
0.9027743351372229 1:485 2:636 
0.9020640587587292 1:455 2:589 
0.9026338678101042 1:428 2:537 
0.9018158101299274 1:861 2:864 
0.9018434715676804 1:833 2:850 
0.9018024778511313 1:801 2:840 
0.9026338678101042 1:759 2:822 
0.9018158101303407 1:720 2:806 
0.9026338660517428 1:674 2:784 
0.9018158119911878 1:626 2:757 
0.9024541393260437 1:586 2:730 
0.9026364844826475 1:546 2:695 
0.902231251936625 1:511 2:659 
0.902231251936625 1:482 2:621 
0.9018024915490401 1:867 2:869 
0.9027743332692909 1:832 2:853 
0.7947814204558327 1:798 2:840 
0.9022535726755119 1:754 2:822 
0.9018017678314409 1:706 2:803 
0.9027743351053352 1:656 2:780 
0.886120902854113 1:606 2:750 
0.9022530585199305 1:562 2:717 
0.9018024915980218 1:520 2:677 
0.9027743357985496 1:482 2:633 
0.9020640584294526 1:455 2:591 
0.9018043856534209 1:898 2:878 
0.9022535726755119 1:887 2:875 
0.9022312519366136 1:867 2:865 
0.9022312519366249 1:848 2:855 
0.9024541393260437 1:827 2:846 
0.9022530722543524 1:799 2:832 
0.9018043857757743 1:773 2:821 
0.9018043856641289 1:744 2:808 
0.9018158118329749 1:716 2:793 
0.9027743351053354 1:683 2:776 
0.9026364846562051 1:649 2:755 
-1 1:824 2:788 
-1 1:803 2:773 
-1 1:778 2:753 
-1 1:750 2:730 
-1 1:723 2:706 
-1 1:693 2:677 
-1 1:663 2:648 
-1 1:631 2:611 
-1 1:599 2:573 
-1 1:567 2:532 
-1 1:537 2:486 
-1 1:751 2:720 
-1 1:735 2:708 
-1 1:714 2:688 
-1 1:690 2:664 
-1 1:664 2:634 
-1 1:634 2:602 
-1 1:607 2:568 
-1 1:583 2:533 
-1 1:553 2:488 
-1 1:526 2:443 
-1 1:497 2:393 
-0.1602687479345521 1:562 2:495 
-0.159866132061073 1:534 2:446 
-0.1988875835462968 1:506 2:390 
-0.2147257307542125 1:476 2:328 
-0.2147390522280767 1:447 2:266 
-0.2188124489005377 1:420 2:208 
-0.2200740605989977 1:397 2:159 
-0.2221627726860739 1:375 2:121 
-0.2231536813884723 1:357 2:94 
-0.2223661128479126 1:343 2:75 
-0.2222256507958799 1:330 2:62 
-0.937500000128823 1:562 2:495 
-0.9375000001288228 1:534 2:446 
-0.8986582771276594 1:506 2:390 
-0.8834584572545982 1:476 2:328 
-0.8834584561739015 1:447 2:266 
-0.8784132159622394 1:420 2:208 
-0.8772894549183547 1:397 2:159 
-0.8750628922085906 1:375 2:121 
-0.8750419328280259 1:357 2:94 
-0.8750000211003447 1:343 2:75 
-0.875000014066897 1:330 2:62 
-1 1:395 2:346 
-1 1:375 2:307 
-1 1:357 2:270 
-1 1:341 2:236 
-1 1:326 2:208 
-1 1:315 2:186 
-1 1:305 2:168 
-1 1:296 2:152 
-1 1:289 2:139 
-1 1:282 2:129 
-1 1:277 2:122 
-1 1:536 2:567 
-1 1:509 2:527 
-1 1:476 2:479 
-1 1:447 2:427 
-1 1:420 2:376 
-1 1:398 2:329 
-1 1:378 2:285 
-1 1:362 2:246 
-1 1:347 2:212 
-1 1:330 2:182 
-1 1:320 2:160 
-1 1:676 2:716 
-1 1:644 2:687 
-1 1:613 2:657 
-1 1:582 2:625 
-1 1:553 2:591 
-1 1:526 2:555 
-1 1:499 2:515 
-1 1:474 2:475 
-1 1:452 2:434 
-1 1:431 2:392 
-1 1:408 2:349 
-1 1:684 2:722 
-1 1:655 2:697 
-1 1:623 2:670 
-1 1:593 2:640 
-1 1:561 2:605 
-1 1:530 2:565 
-1 1:502 2:525 
-1 1:474 2:482 
-1 1:447 2:435 
-1 1:425 2:387 
-1 1:401 2:339 
-1 1:750 2:784 
-1 1:711 2:757 
-1 1:667 2:727 
-1 1:626 2:695 
-1 1:583 2:656 
-1 1:543 2:613 
-1 1:506 2:565 
-1 1:474 2:515 
-1 1:446 2:463 
-1 1:421 2:410 
-1 1:401 2:360 
