svm_type c_svc
kernel_type rbf
gamma 4
nr_class 2
total_sv 187
rho -0.0586392
label 1 -1
nr_sv 99 88
SV
0.94140625 1:840 2:867 
0.94140625 1:802 2:853 
0.94140625 1:756 2:834 
0.94140625 1:708 2:816 
0.9407252905825989 1:658 2:792 
0.9416924318647943 1:610 2:767 
0.9416924318647943 1:563 2:733 
0.9416924318647943 1:521 2:694 
0.9416924318647943 1:487 2:652 
0.9416924318647943 1:456 2:605 
0.9414062499999893 1:429 2:552 
0.9416924318647943 1:788 2:841 
0.9416924318647943 1:746 2:820 
0.9416924318647943 1:698 2:801 
0.9416924318647943 1:653 2:777 
0.9411278583758567 1:605 2:749 
0.9414062499999999 1:565 2:717 
0.9416924318647943 1:525 2:677 
0.9408409777084499 1:490 2:634 
0.9407253612663211 1:464 2:595 
0.9407253612663211 1:443 2:552 
0.9410696654929199 1:423 2:508 
0.9407252905825989 1:875 2:873 
0.940717572181852 1:860 2:867 
0.9416924318647943 1:839 2:857 
0.9416924318647943 1:818 2:847 
0.9410696654929197 1:795 2:839 
0.9410696654929199 1:766 2:823 
0.9410696654929199 1:737 2:809 
0.9410696654929199 1:704 2:791 
0.9410696654929199 1:674 2:776 
0.9414376873151389 1:645 2:759 
0.9414324501057717 1:614 2:735 
0.9414324474699979 1:832 2:861 
0.9414219730521476 1:798 2:847 
0.9414219730521476 1:755 2:830 
0.9414219730521476 1:707 2:809 
0.9414167332070065 1:658 2:784 
0.9414167332070065 1:613 2:760 
0.9414062605501714 1:568 2:727 
0.9414062587918097 1:527 2:690 
0.9414062587918094 1:491 2:648 
0.9414062552750861 1:460 2:602 
0.9414062499999895 1:431 2:550 
0.9414062552750861 1:871 2:869 
0.9414062552750861 1:853 2:863 
0.9414062535167242 1:828 2:853 
0.9239187983848804 1:798 2:839 
0.9414062499999999 1:769 2:828 
0.9414062535167242 1:734 2:812 
0.9414062500000011 1:702 2:797 
0.941406250000001 1:667 2:780 
0.941406250000001 1:630 2:756 
0.9414062500000007 1:597 2:734 
0.9414062500000006 1:571 2:712 
0.9414062500000006 1:849 2:863 
0.9414062500000004 1:810 2:848 
0.9414062499999999 1:769 2:831 
0.9414062500000004 1:719 2:809 
0.94140625 1:668 2:785 
0.94140625 1:617 2:756 
0.94140625 1:569 2:722 
0.94140625 1:525 2:684 
0.94140625 1:485 2:636 
0.94140615658702 1:455 2:589 
0.94140625 1:428 2:537 
0.94140625 1:861 2:864 
0.94140625 1:833 2:850 
0.9414062499999999 1:801 2:840 
0.94140625 1:759 2:822 
0.94140625 1:720 2:806 
0.94140625 1:674 2:784 
0.94140625 1:626 2:757 
0.94140625 1:586 2:730 
0.94140625 1:546 2:695 
0.94140625 1:511 2:659 
0.94140625 1:482 2:621 
0.94140625 1:867 2:869 
0.94140625 1:832 2:853 
0.92391966248727 1:798 2:840 
0.9410696654929199 1:754 2:822 
0.9410696654929199 1:706 2:803 
0.9414435700583759 1:656 2:780 
0.9411232719754448 1:606 2:750 
0.9414062499999999 1:562 2:717 
0.9414376873151389 1:520 2:677 
0.9414376873151389 1:482 2:633 
0.9414061550484532 1:455 2:591 
0.9414324501057717 1:898 2:878 
0.9414324501057717 1:887 2:875 
0.9414324474699979 1:867 2:865 
0.9414219730521476 1:848 2:855 
0.9414219730521476 1:827 2:846 
0.9414219730521476 1:799 2:832 
0.9414219730521476 1:773 2:821 
0.9414219730521476 1:744 2:808 
0.9414219730521476 1:716 2:793 
0.9414167332070065 1:683 2:776 
0.9414167332070065 1:649 2:755 
-1.058583266792994 1:824 2:788 
-1.058583266792994 1:803 2:773 
-1.058593737471673 1:778 2:753 
-1.058593739449829 1:750 2:730 
-1.058593739449829 1:723 2:706 
-1.05859374120819 1:693 2:677 
-1.05859374120819 1:663 2:648 
-1.05859374120819 1:631 2:611 
-1.058593744724914 1:599 2:573 
-1.058593744724914 1:567 2:532 
-1.058593744724914 1:537 2:486 
-1.058593744724914 1:751 2:720 
-1.058593744724914 1:735 2:708 
-1.058593744724914 1:714 2:688 
-1.058593746483276 1:690 2:664 
-1.058593746483276 1:664 2:634 
-1.058593746483276 1:634 2:602 
-1.058593746483276 1:607 2:568 
-1.059274638733679 1:583 2:533 
-1.05893033450708 1:553 2:488 
-1.059282427818148 1:526 2:443 
-1.059274638733679 1:497 2:393 
-1.059274638733679 1:562 2:495 
-1.059274638733679 1:534 2:446 
-1.058567549894228 1:506 2:390 
-1.058578026947852 1:476 2:328 
-1.058578026947852 1:447 2:266 
-1.058583266792994 1:420 2:208 
-1.05859374120819 1:397 2:159 
-1.058593744724914 1:375 2:121 
-1.058593744724914 1:357 2:94 
-1.058593746483276 1:343 2:75 
-1.058593749999999 1:330 2:62 
-1.058593749999999 1:395 2:346 
-1.05859375 1:375 2:307 
-1.05859375 1:357 2:270 
-1.058593749999999 1:341 2:236 
-1.058593749999999 1:326 2:208 
-1.058593749999999 1:315 2:186 
-1.058593749999999 1:305 2:168 
-1.058593749999999 1:296 2:152 
-1.058593749999999 1:289 2:139 
-1.058593749999999 1:282 2:129 
-1.058593749999999 1:277 2:122 
-1.05859375 1:536 2:567 
-1.05859375 1:509 2:527 
-1.05859375 1:476 2:479 
-1.05859375 1:447 2:427 
-1.05859375 1:420 2:376 
-1.05859375 1:398 2:329 
-1.05859375 1:378 2:285 
-1.05859375 1:362 2:246 
-1.05859375 1:347 2:212 
-1.05859375 1:330 2:182 
-1.05859375 1:320 2:160 
-1.05859375 1:676 2:716 
-1.05859375 1:644 2:687 
-1.05859375 1:613 2:657 
-1.05859375 1:582 2:625 
-1.05859375 1:553 2:591 
-1.05859375 1:526 2:555 
-1.05859375 1:499 2:515 
-1.05893033450708 1:474 2:475 
-1.05893033450708 1:452 2:434 
-1.05893033450708 1:431 2:392 
-1.058578026947852 1:408 2:349 
-1.058583266792994 1:684 2:722 
-1.058593744724914 1:655 2:697 
-1.058593746483276 1:623 2:670 
-1.05859375 1:593 2:640 
-1.05859375 1:561 2:605 
-1.05859375 1:530 2:565 
-1.05859375 1:502 2:525 
-1.05859375 1:474 2:482 
-1.05859375 1:447 2:435 
-1.05859375 1:425 2:387 
-1.05859375 1:401 2:339 
-1.05859375 1:750 2:784 
-1.05859375 1:711 2:757 
-1.05859375 1:667 2:727 
-1.05859375 1:626 2:695 
-1.05859375 1:583 2:656 
-1.05859375 1:543 2:613 
-1.05859375 1:506 2:565 
-1.05859375 1:474 2:515 
-1.05859375 1:446 2:463 
-1.05859375 1:421 2:410 
-1.05859375 1:401 2:360 
