svm_type c_svc
kernel_type rbf
gamma 0.125
nr_class 2
total_sv 184
rho 0.0339772
label 1 -1
nr_sv 96 88
SV
0.948430873170749 1:866 2:852 
0.8645986746169415 1:841 2:840 
0.923752559844957 1:810 2:828 
0.9907573110539136 1:774 2:813 
0.03384125770676814 1:736 2:797 
0.6731159202432405 1:694 2:779 
1 1:655 2:764 
1 1:613 2:742 
1 1:566 2:712 
1 1:524 2:684 
1 1:482 2:650 
0.8967377540167898 1:896 2:870 
0.5229369133629216 1:880 2:864 
0.8914885671662631 1:863 2:859 
1 1:844 2:852 
1 1:818 2:842 
1 1:790 2:831 
0.5228747742855058 1:752 2:811 
1 1:718 2:802 
1 1:680 2:788 
1 1:636 2:768 
1 1:591 2:744 
0.636797228963262 1:899 2:868 
0.01974819574979799 1:897 2:865 
0.8834611299097351 1:896 2:863 
0.6281062343944518 1:899 2:865 
0.4956031324704874 1:889 2:856 
0.9259415598158771 1:886 2:854 
0.6461302358037826 1:889 2:859 
0.7440137137899391 1:892 2:858 
0.7482416963307622 1:881 2:862 
0.8086331011975637 1:863 2:855 
0.86129034018807 1:839 2:843 
0.8285759216971436 1:811 2:832 
0.9236987605673367 1:782 2:822 
0.5999682569244499 1:751 2:812 
0.9880119986376003 1:713 2:797 
1 1:673 2:780 
1 1:628 2:756 
1 1:586 2:733 
1 1:543 2:707 
1 1:851 2:843 
1 1:826 2:832 
1 1:800 2:820 
0.990633968048088 1:771 2:809 
1 1:736 2:797 
0.673549456631623 1:693 2:777 
1 1:651 2:759 
0.6723276429387415 1:602 2:732 
0.9907564820483116 1:556 2:703 
1 1:509 2:667 
1 1:467 2:627 
1 1:857 2:840 
1 1:831 2:823 
1 1:801 2:805 
1 1:766 2:785 
1 1:723 2:758 
1 1:675 2:725 
1 1:632 2:692 
1 1:588 2:652 
1 1:546 2:608 
1 1:507 2:557 
1 1:476 2:507 
0.9550442152974338 1:880 2:872 
0.9139748846306293 1:855 2:856 
1 1:830 2:845 
0.6098598602831418 1:805 2:836 
1 1:778 2:829 
1 1:740 2:810 
1 1:700 2:792 
1 1:662 2:772 
1 1:620 2:746 
1 1:582 2:720 
1 1:544 2:688 
1 1:888 2:870 
0.8273460849895679 1:876 2:867 
0.2436502817603815 1:857 2:859 
0.6537995255607603 1:835 2:849 
0.7895826815124564 1:807 2:833 
0.9235408201776266 1:778 2:821 
0.9949747981329253 1:749 2:807 
0.9900057512919974 1:716 2:793 
1 1:680 2:774 
1 1:644 2:752 
1 1:609 2:729 
0.6156940906710473 1:879 2:868 
0.6788916154973054 1:858 2:859 
0.4787494238153309 1:834 2:848 
0.8243867072784463 1:802 2:836 
1 1:764 2:817 
1 1:727 2:801 
1 1:683 2:780 
1 1:642 2:758 
0.6742497462806851 1:600 2:731 
0.9906819428725629 1:559 2:699 
1 1:519 2:665 
-0.9658279396288291 1:824 2:788 
-0.9666286229388164 1:803 2:773 
-0.9661237864182969 1:778 2:753 
-0.9666365516784894 1:750 2:730 
-0.9660608603528049 1:723 2:706 
-0.9660632807852322 1:693 2:677 
-0.9658190533207559 1:663 2:648 
-0.9661518507172682 1:631 2:611 
-0.9657728701622493 1:599 2:573 
-0.9662666258023364 1:567 2:532 
-0.9656737052992552 1:537 2:486 
-0.9661191071898008 1:751 2:720 
-0.9659839609768375 1:735 2:708 
-0.9659490154814548 1:714 2:688 
-0.9661222860154575 1:690 2:664 
-0.9657287272727046 1:664 2:634 
-0.966109653098231 1:634 2:602 
-0.965706422842573 1:607 2:568 
-0.9665530137503229 1:583 2:533 
-0.9659804788897043 1:553 2:488 
-0.9656242641980368 1:526 2:443 
-0.9660507167688989 1:497 2:393 
-0.9657293718483256 1:562 2:495 
-0.9658755106337916 1:534 2:446 
-0.9659366944408948 1:506 2:390 
-0.9658190533402702 1:476 2:328 
-0.9661636725561411 1:447 2:266 
-0.9661646344782887 1:420 2:208 
-0.9657293659724278 1:397 2:159 
-0.9657233626112255 1:375 2:121 
-0.9658013301925987 1:357 2:94 
-0.9660051462298925 1:343 2:75 
-0.9660967090208057 1:330 2:62 
-0.9657058736236029 1:395 2:346 
-0.9658548823623582 1:375 2:307 
-0.9656916237836002 1:357 2:270 
-0.9666397402920679 1:341 2:236 
-0.9656748238879996 1:326 2:208 
-0.965980805700666 1:315 2:186 
-0.9661127259983809 1:305 2:168 
-0.9656541847816983 1:296 2:152 
-0.9661644093174058 1:289 2:139 
-0.965927268527383 1:282 2:129 
-0.9660708356897187 1:277 2:122 
-0.9594011922101958 1:536 2:567 
-0.9645076192446583 1:509 2:527 
-0.7299817395410656 1:476 2:479 
-0.9653579394793566 1:447 2:427 
-0.9661127145947862 1:420 2:376 
-0.9656904582389386 1:398 2:329 
-0.9657621292850788 1:378 2:285 
-0.9660203224426765 1:362 2:246 
-0.9659480063878404 1:347 2:212 
-0.966112726056378 1:330 2:182 
-0.9660162809559976 1:320 2:160 
-0.9657604860226543 1:676 2:716 
-0.9660098299337501 1:644 2:687 
-0.9657454784611195 1:613 2:657 
-0.9660201785658244 1:582 2:625 
-0.9656541847831061 1:553 2:591 
-0.9661417390420244 1:526 2:555 
-0.9660147485472609 1:499 2:515 
-0.904030203581358 1:474 2:475 
-0.9300270850582825 1:452 2:434 
-0.9660826378411711 1:431 2:392 
-0.966163799605845 1:408 2:349 
-0.9656816434810088 1:684 2:722 
-0.9661148248517993 1:655 2:697 
-0.965917862114914 1:623 2:670 
-0.9664010720811702 1:593 2:640 
-0.9664144198741536 1:561 2:605 
-0.9595506620030649 1:530 2:565 
-0.964466601926976 1:502 2:525 
-0.8204489802473158 1:474 2:482 
-0.929358410653544 1:447 2:435 
-0.9652323922722508 1:425 2:387 
-0.9658634604089589 1:401 2:339 
-0.9657590406481666 1:750 2:784 
-0.9657487517137674 1:711 2:757 
-0.9663672766208364 1:667 2:727 
-0.9692689438081261 1:626 2:695 
-0.972088440559671 1:583 2:656 
-0.9803609433624867 1:543 2:613 
-0.9664816917663305 1:506 2:565 
-0.9666045397831944 1:474 2:515 
-0.9661127259983811 1:446 2:463 
-0.9657206717294746 1:421 2:410 
-0.9664564169645116 1:401 2:360 
