svm_type c_svc
kernel_type rbf
gamma 0.5
nr_class 2
total_sv 196
rho -0.0433913
label 1 -1
nr_sv 97 99
SV
0.9564084680993898 1:866 2:852 
0.9553704603988451 1:841 2:840 
0.9564195123460231 1:810 2:828 
0.9568184325514408 1:774 2:813 
0.8840477187623916 1:694 2:779 
0.9566204207190548 1:655 2:764 
0.9562804746339955 1:613 2:742 
0.9565259759031018 1:566 2:712 
0.9567328354845197 1:524 2:684 
0.9561244512621727 1:482 2:650 
0.9553101080225003 1:896 2:870 
0.8838434321253491 1:880 2:864 
0.9562959642287091 1:863 2:859 
0.9566079390842068 1:844 2:852 
0.956615759993935 1:818 2:842 
0.9569876777081617 1:790 2:831 
0.6992653772866733 1:752 2:811 
0.9569445328140577 1:718 2:802 
0.9569392535331649 1:680 2:788 
0.9569673944976073 1:636 2:768 
0.9564449644779959 1:591 2:744 
0.9448078442872866 1:899 2:868 
0.7274034174704744 1:897 2:865 
0.6093855053248716 1:896 2:863 
0.8379907367567717 1:899 2:865 
0.4727102658327433 1:897 2:863 
0.8914274908948874 1:889 2:856 
0.9552834924674007 1:886 2:854 
0.6947206249897026 1:889 2:859 
0.9465382191726956 1:892 2:858 
0.4042174560910536 1:889 2:858 
0.8842273600183043 1:881 2:862 
0.956360396220486 1:863 2:855 
0.9546779739316454 1:839 2:843 
0.9566887297662658 1:811 2:832 
0.9565871109349717 1:782 2:822 
0.6993122194062226 1:751 2:812 
0.956154744091234 1:713 2:797 
0.9566079390842068 1:673 2:780 
0.9566252346046928 1:628 2:756 
0.956237254654507 1:586 2:733 
0.9564165854339652 1:543 2:707 
0.956643421440426 1:851 2:843 
0.956377932964086 1:826 2:832 
0.9562942215902362 1:800 2:820 
0.9565979453590194 1:771 2:809 
0.9567988032441997 1:736 2:797 
0.8840477187623916 1:693 2:777 
0.9567817784406218 1:651 2:759 
0.8836420440134648 1:602 2:732 
0.957073787549178 1:556 2:703 
0.9570776742566155 1:509 2:667 
0.9570554550900882 1:467 2:627 
0.9566364203748844 1:857 2:840 
0.9570501178675869 1:831 2:823 
0.9568738624122579 1:801 2:805 
0.9561244512621727 1:766 2:785 
0.9567858410818845 1:723 2:758 
0.9569392535331667 1:675 2:725 
0.9566505824402741 1:632 2:692 
0.9565266075560717 1:588 2:652 
0.9570773952207932 1:546 2:608 
0.9562804746340106 1:507 2:557 
0.9566316115220934 1:476 2:507 
0.9564082474168706 1:880 2:872 
0.9556497074228312 1:855 2:856 
0.9562883694884249 1:830 2:845 
0.9446859500078202 1:805 2:836 
0.9565259759030823 1:778 2:829 
0.9566159195040796 1:740 2:810 
0.9562617125329804 1:700 2:792 
0.956377932964086 1:662 2:772 
0.9566142077606415 1:620 2:746 
0.9564069011453457 1:582 2:720 
0.956237254654507 1:544 2:688 
0.9566472013588759 1:888 2:870 
0.9499995536389062 1:876 2:867 
0.5935992612628356 1:857 2:859 
0.698893099151525 1:835 2:849 
0.9545324877848607 1:807 2:833 
0.9567516621762109 1:778 2:821 
0.9562880212076728 1:749 2:807 
0.9562118987547455 1:716 2:793 
0.9566505821092059 1:680 2:774 
0.9569673925174565 1:644 2:752 
0.956557194417048 1:609 2:729 
0.9498404288526071 1:879 2:868 
0.5964858431429056 1:858 2:859 
0.699635088759861 1:834 2:848 
0.9461322755995055 1:802 2:836 
0.9566085379570645 1:764 2:817 
0.9567990230403965 1:727 2:801 
0.9567858409199178 1:683 2:780 
0.9562154499441906 1:642 2:758 
0.8841026646895835 1:600 2:731 
0.9569638139862793 1:559 2:699 
0.9569686119223049 1:519 2:665 
-1 1:824 2:788 
-1 1:803 2:773 
-1 1:778 2:753 
-1 1:750 2:730 
-1 1:723 2:706 
-1 1:693 2:677 
-1 1:663 2:648 
-1 1:631 2:611 
-1 1:599 2:573 
-1 1:567 2:532 
-1 1:537 2:486 
-1 1:751 2:720 
-1 1:735 2:708 
-1 1:714 2:688 
-1 1:690 2:664 
-1 1:664 2:634 
-1 1:634 2:602 
-1 1:607 2:568 
-1 1:583 2:533 
-1 1:553 2:488 
-1 1:526 2:443 
-1 1:497 2:393 
-0.05035950538063112 1:562 2:495 
-0.04355503552200395 1:534 2:446 
-0.05035965151241328 1:506 2:390 
-0.05088518241984832 1:476 2:328 
-0.05142059227639312 1:447 2:266 
-0.05150692748468903 1:420 2:208 
-0.05164567303188071 1:397 2:159 
-0.051893020064084 1:375 2:121 
-0.05250224584176209 1:357 2:94 
-0.05250574896750259 1:343 2:75 
-0.05410301016183241 1:330 2:62 
-0.9926731001202005 1:562 2:495 
-1 1:534 2:446 
-0.992652670779425 1:506 2:390 
-0.9923815467627106 1:476 2:328 
-0.9919603883900842 1:447 2:266 
-0.9918845345582465 1:420 2:208 
-0.9922298757059441 1:397 2:159 
-0.9914865580207377 1:375 2:121 
-0.9909662182397152 1:357 2:94 
-0.9913808293392509 1:343 2:75 
-0.9892749533984827 1:330 2:62 
-1 1:395 2:346 
-1 1:375 2:307 
-1 1:357 2:270 
-1 1:341 2:236 
-1 1:326 2:208 
-1 1:315 2:186 
-1 1:305 2:168 
-1 1:296 2:152 
-1 1:289 2:139 
-1 1:282 2:129 
-1 1:277 2:122 
-1 1:536 2:567 
-1 1:509 2:527 
-1 1:476 2:479 
-1 1:447 2:427 
-1 1:420 2:376 
-1 1:398 2:329 
-1 1:378 2:285 
-1 1:362 2:246 
-1 1:347 2:212 
-1 1:330 2:182 
-1 1:320 2:160 
-1 1:676 2:716 
-1 1:644 2:687 
-1 1:613 2:657 
-1 1:582 2:625 
-1 1:553 2:591 
-1 1:526 2:555 
-1 1:499 2:515 
-1 1:474 2:475 
-1 1:452 2:434 
-1 1:431 2:392 
-1 1:408 2:349 
-1 1:684 2:722 
-1 1:655 2:697 
-1 1:623 2:670 
-1 1:593 2:640 
-1 1:561 2:605 
-1 1:530 2:565 
-1 1:502 2:525 
-1 1:474 2:482 
-1 1:447 2:435 
-1 1:425 2:387 
-1 1:401 2:339 
-1 1:750 2:784 
-1 1:711 2:757 
-1 1:667 2:727 
-1 1:626 2:695 
-1 1:583 2:656 
-1 1:543 2:613 
-1 1:506 2:565 
-1 1:474 2:515 
-1 1:446 2:463 
-1 1:421 2:410 
-1 1:401 2:360 
