svm_type c_svc
kernel_type rbf
gamma 0.25
nr_class 2
total_sv 198
rho 0.0176708
label 1 -1
nr_sv 99 99
SV
0.125 1:866 2:852 
0.125 1:841 2:840 
0.125 1:810 2:828 
0.125 1:774 2:813 
0.125 1:736 2:797 
0.125 1:694 2:779 
0.125 1:655 2:764 
0.125 1:613 2:742 
0.125 1:566 2:712 
0.125 1:524 2:684 
0.125 1:482 2:650 
0.125 1:896 2:870 
0.125 1:880 2:864 
0.125 1:863 2:859 
0.125 1:844 2:852 
0.125 1:818 2:842 
0.125 1:790 2:831 
0.125 1:752 2:811 
0.125 1:718 2:802 
0.125 1:680 2:788 
0.125 1:636 2:768 
0.125 1:591 2:744 
0.125 1:899 2:868 
0.125 1:897 2:865 
0.125 1:896 2:863 
0.125 1:899 2:865 
0.125 1:897 2:863 
0.125 1:889 2:856 
0.125 1:886 2:854 
0.125 1:886 2:854 
0.125 1:889 2:859 
0.125 1:892 2:858 
0.125 1:889 2:858 
0.125 1:881 2:862 
0.125 1:863 2:855 
0.125 1:839 2:843 
0.125 1:811 2:832 
0.125 1:782 2:822 
0.125 1:751 2:812 
0.125 1:713 2:797 
0.125 1:673 2:780 
0.125 1:628 2:756 
0.125 1:586 2:733 
0.125 1:543 2:707 
0.125 1:851 2:843 
0.125 1:826 2:832 
0.125 1:800 2:820 
0.125 1:771 2:809 
0.125 1:736 2:797 
0.125 1:693 2:777 
0.125 1:651 2:759 
0.125 1:602 2:732 
0.125 1:556 2:703 
0.125 1:509 2:667 
0.125 1:467 2:627 
0.125 1:857 2:840 
0.125 1:831 2:823 
0.125 1:801 2:805 
0.125 1:766 2:785 
0.125 1:723 2:758 
0.125 1:675 2:725 
0.125 1:632 2:692 
0.125 1:588 2:652 
0.125 1:546 2:608 
0.125 1:507 2:557 
0.125 1:476 2:507 
0.125 1:880 2:872 
0.125 1:855 2:856 
0.125 1:830 2:845 
0.125 1:805 2:836 
0.125 1:778 2:829 
0.125 1:740 2:810 
0.125 1:700 2:792 
0.125 1:662 2:772 
0.125 1:620 2:746 
0.125 1:582 2:720 
0.125 1:544 2:688 
0.125 1:888 2:870 
0.125 1:876 2:867 
0.125 1:857 2:859 
0.125 1:835 2:849 
0.125 1:807 2:833 
0.125 1:778 2:821 
0.125 1:749 2:807 
0.125 1:716 2:793 
0.125 1:680 2:774 
0.125 1:644 2:752 
0.125 1:609 2:729 
0.125 1:879 2:868 
0.125 1:858 2:859 
0.125 1:834 2:848 
0.125 1:802 2:836 
0.125 1:764 2:817 
0.125 1:727 2:801 
0.125 1:683 2:780 
0.125 1:642 2:758 
0.125 1:600 2:731 
0.125 1:559 2:699 
0.125 1:519 2:665 
-0.125 1:824 2:788 
-0.125 1:803 2:773 
-0.125 1:778 2:753 
-0.125 1:750 2:730 
-0.125 1:723 2:706 
-0.125 1:693 2:677 
-0.125 1:663 2:648 
-0.125 1:631 2:611 
-0.125 1:599 2:573 
-0.125 1:567 2:532 
-0.125 1:537 2:486 
-0.125 1:751 2:720 
-0.125 1:735 2:708 
-0.125 1:714 2:688 
-0.125 1:690 2:664 
-0.125 1:664 2:634 
-0.125 1:634 2:602 
-0.125 1:607 2:568 
-0.125 1:583 2:533 
-0.125 1:553 2:488 
-0.125 1:526 2:443 
-0.125 1:497 2:393 
-0.125 1:562 2:495 
-0.125 1:534 2:446 
-0.125 1:506 2:390 
-0.125 1:476 2:328 
-0.125 1:447 2:266 
-0.125 1:420 2:208 
-0.125 1:397 2:159 
-0.125 1:375 2:121 
-0.125 1:357 2:94 
-0.125 1:343 2:75 
-0.125 1:330 2:62 
-0.125 1:562 2:495 
-0.125 1:534 2:446 
-0.125 1:506 2:390 
-0.125 1:476 2:328 
-0.125 1:447 2:266 
-0.125 1:420 2:208 
-0.125 1:397 2:159 
-0.125 1:375 2:121 
-0.125 1:357 2:94 
-0.125 1:343 2:75 
-0.125 1:330 2:62 
-0.125 1:395 2:346 
-0.125 1:375 2:307 
-0.125 1:357 2:270 
-0.125 1:341 2:236 
-0.125 1:326 2:208 
-0.125 1:315 2:186 
-0.125 1:305 2:168 
-0.125 1:296 2:152 
-0.125 1:289 2:139 
-0.125 1:282 2:129 
-0.125 1:277 2:122 
-0.125 1:536 2:567 
-0.125 1:509 2:527 
-0.125 1:476 2:479 
-0.125 1:447 2:427 
-0.125 1:420 2:376 
-0.125 1:398 2:329 
-0.125 1:378 2:285 
-0.125 1:362 2:246 
-0.125 1:347 2:212 
-0.125 1:330 2:182 
-0.125 1:320 2:160 
-0.125 1:676 2:716 
-0.125 1:644 2:687 
-0.125 1:613 2:657 
-0.125 1:582 2:625 
-0.125 1:553 2:591 
-0.125 1:526 2:555 
-0.125 1:499 2:515 
-0.125 1:474 2:475 
-0.125 1:452 2:434 
-0.125 1:431 2:392 
-0.125 1:408 2:349 
-0.125 1:684 2:722 
-0.125 1:655 2:697 
-0.125 1:623 2:670 
-0.125 1:593 2:640 
-0.125 1:561 2:605 
-0.125 1:530 2:565 
-0.125 1:502 2:525 
-0.125 1:474 2:482 
-0.125 1:447 2:435 
-0.125 1:425 2:387 
-0.125 1:401 2:339 
-0.125 1:750 2:784 
-0.125 1:711 2:757 
-0.125 1:667 2:727 
-0.125 1:626 2:695 
-0.125 1:583 2:656 
-0.125 1:543 2:613 
-0.125 1:506 2:565 
-0.125 1:474 2:515 
-0.125 1:446 2:463 
-0.125 1:421 2:410 
-0.125 1:401 2:360 
