svm_type c_svc
kernel_type rbf
gamma 0.125
nr_class 2
total_sv 198
rho 0.123
label 1 -1
nr_sv 99 99
SV
0.25 1:866 2:852 
0.25 1:841 2:840 
0.25 1:810 2:828 
0.25 1:774 2:813 
0.25 1:736 2:797 
0.25 1:694 2:779 
0.25 1:655 2:764 
0.25 1:613 2:742 
0.25 1:566 2:712 
0.25 1:524 2:684 
0.25 1:482 2:650 
0.25 1:896 2:870 
0.25 1:880 2:864 
0.25 1:863 2:859 
0.25 1:844 2:852 
0.25 1:818 2:842 
0.25 1:790 2:831 
0.25 1:752 2:811 
0.25 1:718 2:802 
0.25 1:680 2:788 
0.25 1:636 2:768 
0.25 1:591 2:744 
0.25 1:899 2:868 
0.25 1:897 2:865 
0.25 1:896 2:863 
0.25 1:899 2:865 
0.25 1:897 2:863 
0.25 1:889 2:856 
0.25 1:886 2:854 
0.25 1:886 2:854 
0.25 1:889 2:859 
0.25 1:892 2:858 
0.25 1:889 2:858 
0.25 1:881 2:862 
0.25 1:863 2:855 
0.25 1:839 2:843 
0.25 1:811 2:832 
0.25 1:782 2:822 
0.25 1:751 2:812 
0.25 1:713 2:797 
0.25 1:673 2:780 
0.25 1:628 2:756 
0.25 1:586 2:733 
0.25 1:543 2:707 
0.25 1:851 2:843 
0.25 1:826 2:832 
0.25 1:800 2:820 
0.25 1:771 2:809 
0.25 1:736 2:797 
0.25 1:693 2:777 
0.25 1:651 2:759 
0.25 1:602 2:732 
0.25 1:556 2:703 
0.25 1:509 2:667 
0.25 1:467 2:627 
0.25 1:857 2:840 
0.25 1:831 2:823 
0.25 1:801 2:805 
0.25 1:766 2:785 
0.25 1:723 2:758 
0.25 1:675 2:725 
0.25 1:632 2:692 
0.25 1:588 2:652 
0.25 1:546 2:608 
0.25 1:507 2:557 
0.25 1:476 2:507 
0.25 1:880 2:872 
0.25 1:855 2:856 
0.25 1:830 2:845 
0.25 1:805 2:836 
0.25 1:778 2:829 
0.25 1:740 2:810 
0.25 1:700 2:792 
0.25 1:662 2:772 
0.25 1:620 2:746 
0.25 1:582 2:720 
0.25 1:544 2:688 
0.25 1:888 2:870 
0.25 1:876 2:867 
0.25 1:857 2:859 
0.25 1:835 2:849 
0.25 1:807 2:833 
0.25 1:778 2:821 
0.25 1:749 2:807 
0.25 1:716 2:793 
0.25 1:680 2:774 
0.25 1:644 2:752 
0.25 1:609 2:729 
0.25 1:879 2:868 
0.25 1:858 2:859 
0.25 1:834 2:848 
0.25 1:802 2:836 
0.25 1:764 2:817 
0.25 1:727 2:801 
0.25 1:683 2:780 
0.25 1:642 2:758 
0.25 1:600 2:731 
0.25 1:559 2:699 
0.25 1:519 2:665 
-0.25 1:824 2:788 
-0.25 1:803 2:773 
-0.25 1:778 2:753 
-0.25 1:750 2:730 
-0.25 1:723 2:706 
-0.25 1:693 2:677 
-0.25 1:663 2:648 
-0.25 1:631 2:611 
-0.25 1:599 2:573 
-0.25 1:567 2:532 
-0.25 1:537 2:486 
-0.25 1:751 2:720 
-0.25 1:735 2:708 
-0.25 1:714 2:688 
-0.25 1:690 2:664 
-0.25 1:664 2:634 
-0.25 1:634 2:602 
-0.25 1:607 2:568 
-0.25 1:583 2:533 
-0.25 1:553 2:488 
-0.25 1:526 2:443 
-0.25 1:497 2:393 
-0.25 1:562 2:495 
-0.25 1:534 2:446 
-0.25 1:506 2:390 
-0.25 1:476 2:328 
-0.25 1:447 2:266 
-0.25 1:420 2:208 
-0.25 1:397 2:159 
-0.25 1:375 2:121 
-0.25 1:357 2:94 
-0.25 1:343 2:75 
-0.25 1:330 2:62 
-0.25 1:562 2:495 
-0.25 1:534 2:446 
-0.25 1:506 2:390 
-0.25 1:476 2:328 
-0.25 1:447 2:266 
-0.25 1:420 2:208 
-0.25 1:397 2:159 
-0.25 1:375 2:121 
-0.25 1:357 2:94 
-0.25 1:343 2:75 
-0.25 1:330 2:62 
-0.25 1:395 2:346 
-0.25 1:375 2:307 
-0.25 1:357 2:270 
-0.25 1:341 2:236 
-0.25 1:326 2:208 
-0.25 1:315 2:186 
-0.25 1:305 2:168 
-0.25 1:296 2:152 
-0.25 1:289 2:139 
-0.25 1:282 2:129 
-0.25 1:277 2:122 
-0.25 1:536 2:567 
-0.25 1:509 2:527 
-0.25 1:476 2:479 
-0.25 1:447 2:427 
-0.25 1:420 2:376 
-0.25 1:398 2:329 
-0.25 1:378 2:285 
-0.25 1:362 2:246 
-0.25 1:347 2:212 
-0.25 1:330 2:182 
-0.25 1:320 2:160 
-0.25 1:676 2:716 
-0.25 1:644 2:687 
-0.25 1:613 2:657 
-0.25 1:582 2:625 
-0.25 1:553 2:591 
-0.25 1:526 2:555 
-0.25 1:499 2:515 
-0.25 1:474 2:475 
-0.25 1:452 2:434 
-0.25 1:431 2:392 
-0.25 1:408 2:349 
-0.25 1:684 2:722 
-0.25 1:655 2:697 
-0.25 1:623 2:670 
-0.25 1:593 2:640 
-0.25 1:561 2:605 
-0.25 1:530 2:565 
-0.25 1:502 2:525 
-0.25 1:474 2:482 
-0.25 1:447 2:435 
-0.25 1:425 2:387 
-0.25 1:401 2:339 
-0.25 1:750 2:784 
-0.25 1:711 2:757 
-0.25 1:667 2:727 
-0.25 1:626 2:695 
-0.25 1:583 2:656 
-0.25 1:543 2:613 
-0.25 1:506 2:565 
-0.25 1:474 2:515 
-0.25 1:446 2:463 
-0.25 1:421 2:410 
-0.25 1:401 2:360 
