svm_type c_svc
kernel_type rbf
gamma 0.125
nr_class 2
total_sv 183
rho 0.0243146
label 1 -1
nr_sv 95 88
SV
0.9392391851230755 1:866 2:852 
0.8557252998120735 1:841 2:840 
0.9152116633714473 1:810 2:828 
0.9812355902396692 1:774 2:813 
0.6672284149099253 1:694 2:779 
1.018531061875359 1:655 2:764 
1.023677571045026 1:613 2:742 
1.024378205826366 1:566 2:712 
1.024390679291835 1:524 2:684 
1.024366650509736 1:482 2:650 
0.8876668655729 1:896 2:870 
0.5184123667290094 1:880 2:864 
0.8828910531586368 1:863 2:859 
1.024230201537842 1:844 2:852 
1.024601472544969 1:818 2:842 
1.024590094800314 1:790 2:831 
0.5181102858968765 1:752 2:811 
1.022275808403869 1:718 2:802 
1.024227338881806 1:680 2:788 
1.024614899091023 1:636 2:768 
1.024634195942881 1:591 2:744 
0.6310925446813714 1:899 2:868 
0.02013537880692685 1:897 2:865 
0.8755780655544909 1:896 2:863 
0.6217443378433172 1:899 2:865 
0.4904398542022679 1:889 2:856 
0.9173191250643815 1:886 2:854 
0.6403402061538662 1:889 2:859 
0.7376809517190792 1:892 2:858 
0.7414264059631964 1:881 2:862 
0.8012605833222401 1:863 2:855 
0.8541898940790554 1:839 2:843 
0.8207760312863214 1:811 2:832 
0.9147885726466564 1:782 2:822 
0.5943736736538123 1:751 2:812 
0.9788463141790114 1:713 2:797 
1.024333731321663 1:673 2:780 
1.024393340688316 1:628 2:756 
1.02438274459434 1:586 2:733 
1.02439146378251 1:543 2:707 
1.020717740918992 1:851 2:843 
1.02433730565916 1:826 2:832 
1.024405036408371 1:800 2:820 
0.98130819720278 1:771 2:809 
1.024357929545738 1:736 2:797 
0.6672262794953558 1:693 2:777 
1.018070674468326 1:651 2:759 
0.6661433750257578 1:602 2:732 
0.9813074912108742 1:556 2:703 
1.024402720884826 1:509 2:667 
1.024230304756695 1:467 2:627 
1.02063024129969 1:857 2:840 
1.023847273911014 1:831 2:823 
1.024163899282961 1:801 2:805 
1.023997605106172 1:766 2:785 
1.024230317866449 1:723 2:758 
1.024640020438567 1:675 2:725 
1.027834689704364 1:632 2:692 
1.029743750076744 1:588 2:652 
1.038189768131454 1:546 2:608 
1.024679373997491 1:507 2:557 
1.024828730795904 1:476 2:507 
0.946385266581701 1:880 2:872 
0.9054564354693099 1:855 2:856 
0.9999497408563024 1:830 2:845 
0.6038328274341186 1:805 2:836 
1.024010688283464 1:778 2:829 
1.024296164496427 1:740 2:810 
1.024390927860139 1:700 2:792 
1.024011708753892 1:662 2:772 
1.024174080200166 1:620 2:746 
1.024376147948476 1:582 2:720 
1.024352010256934 1:544 2:688 
1.024147422625569 1:888 2:870 
0.8201952045600271 1:876 2:867 
0.242649117752937 1:857 2:859 
0.6484321844016949 1:835 2:849 
0.7827048208258275 1:807 2:833 
0.9151848606213809 1:778 2:821 
0.9857578471167973 1:749 2:807 
0.9813626508982833 1:716 2:793 
1.020926461925142 1:680 2:774 
1.017439545316845 1:644 2:752 
1.023670311752258 1:609 2:729 
0.6091071648528219 1:879 2:868 
0.6714380566740882 1:858 2:859 
0.4737143648388971 1:834 2:848 
0.8166709388082977 1:802 2:836 
1.024398854747602 1:764 2:817 
1.024336503489818 1:727 2:801 
1.020565210017424 1:683 2:780 
1.017266470574638 1:642 2:758 
0.6676541349643652 1:600 2:731 
0.9812819747138504 1:559 2:699 
1.024367929606415 1:519 2:665 
-0.9761702321516547 1:824 2:788 
-0.9761509237988063 1:803 2:773 
-0.9757697177074581 1:778 2:753 
-0.9756058616703057 1:750 2:730 
-0.9761636431049904 1:723 2:706 
-0.9756348858404539 1:693 2:677 
-0.9758297889500103 1:663 2:648 
-0.9756206574329578 1:631 2:611 
-0.9757553394828817 1:599 2:573 
-0.975472307343157 1:567 2:532 
-0.9756607609176962 1:537 2:486 
-0.9756336937902625 1:751 2:720 
-0.9756341472618251 1:735 2:708 
-0.9756652208424355 1:714 2:688 
-0.9760200200739803 1:690 2:664 
-0.9757793956079907 1:664 2:634 
-0.9757643485173378 1:634 2:602 
-0.975509204847508 1:607 2:568 
-0.9757771173055783 1:583 2:533 
-0.9755970130777587 1:553 2:488 
-0.9752563067040763 1:526 2:443 
-0.9760065545336992 1:497 2:393 
-0.9755340638378668 1:562 2:495 
-0.9752369541379002 1:534 2:446 
-0.9756237857233145 1:506 2:390 
-0.975411260482004 1:476 2:328 
-0.9756369047063348 1:447 2:266 
-0.9756001534394751 1:420 2:208 
-0.9756551148152807 1:397 2:159 
-0.9757594952764579 1:375 2:121 
-0.975948010438928 1:357 2:94 
-0.9756085361285529 1:343 2:75 
-0.9760045253409273 1:330 2:62 
-0.975610453366177 1:395 2:346 
-0.9760548452246853 1:375 2:307 
-0.9758369088487152 1:357 2:270 
-0.9759366750413383 1:341 2:236 
-0.9760937943669022 1:326 2:208 
-0.9757954154576441 1:315 2:186 
-0.9759032281959195 1:305 2:168 
-0.9759032281944923 1:296 2:152 
-0.9756652128923233 1:289 2:139 
-0.9755671442770736 1:282 2:129 
-0.9753074625283876 1:277 2:122 
-0.9692308471226546 1:536 2:567 
-0.9743307561181657 1:509 2:527 
-0.7371747614153368 1:476 2:479 
-0.9752041036676542 1:447 2:427 
-0.9760548337714658 1:420 2:376 
-0.9756084813576779 1:398 2:329 
-0.9755341493416119 1:378 2:285 
-0.9758321726085667 1:362 2:246 
-0.9757771173055891 1:347 2:212 
-0.9756365161546039 1:330 2:182 
-0.9758369088487151 1:320 2:160 
-0.9756325482556286 1:676 2:716 
-0.9756369030105001 1:644 2:687 
-0.9760809830096102 1:613 2:657 
-0.975370390769532 1:582 2:625 
-0.9759875437334863 1:553 2:591 
-0.9756086334961384 1:526 2:555 
-0.975607774991289 1:499 2:515 
-0.913253464208391 1:474 2:475 
-0.9391268579274971 1:452 2:434 
-0.9751335127110146 1:431 2:392 
-0.9756093119684787 1:408 2:349 
-0.9756703279995622 1:684 2:722 
-0.9760728508772044 1:655 2:697 
-0.9753960511670628 1:623 2:670 
-0.9754113217136935 1:593 2:640 
-0.9756297549061564 1:561 2:605 
-0.9694734059960751 1:530 2:565 
-0.974641444919552 1:502 2:525 
-0.8287497071256786 1:474 2:482 
-0.9388536218164207 1:447 2:435 
-0.9753625905543795 1:425 2:387 
-0.9753864358873242 1:401 2:339 
-0.9756251302830944 1:750 2:784 
-0.9753984262191464 1:711 2:757 
-0.9755711355060079 1:667 2:727 
-0.9793093332622919 1:626 2:695 
-0.9815293105268719 1:583 2:656 
-0.9903400935667882 1:543 2:613 
-0.9763235997320361 1:506 2:565 
-0.976143117975778 1:474 2:515 
-0.9761636521092663 1:446 2:463 
-0.9754098829186232 1:421 2:410 
-0.9756327989809097 1:401 2:360 
