svm_type c_svc
kernel_type rbf
gamma 0.25
nr_class 2
total_sv 184
rho -0.00579755
label 1 -1
nr_sv 96 88
SV
0.9837495356836352 1:866 2:852 
0.9567245261423888 1:841 2:840 
0.9801104077848641 1:810 2:828 
0.9924954247212237 1:774 2:813 
0.7725875077453981 1:694 2:779 
0.9939898630356017 1:655 2:764 
0.9942022677632861 1:613 2:742 
0.9942897300276302 1:566 2:712 
0.9942169197070543 1:524 2:684 
0.9942192105056206 1:482 2:650 
0.9597784847918789 1:896 2:870 
0.7570046994390629 1:880 2:864 
0.9753343766387746 1:863 2:859 
0.9940158009470527 1:844 2:852 
0.9937804071971877 1:818 2:842 
0.9942621987622161 1:790 2:831 
0.6162002445284879 1:752 2:811 
0.994439981835888 1:718 2:802 
0.9940157892627942 1:680 2:788 
0.9942739830083559 1:636 2:768 
0.9937801306865344 1:591 2:744 
0.8678886574117193 1:899 2:868 
0.4339678689562043 1:897 2:865 
0.6765776766731578 1:896 2:863 
0.6873507592103949 1:899 2:865 
0.2140391916036566 1:897 2:863 
0.8344602568279972 1:889 2:856 
0.9613035453518139 1:886 2:854 
0.8328188060664249 1:889 2:859 
0.8934390115559283 1:892 2:858 
0.7772538672492741 1:881 2:862 
0.9654945335094252 1:863 2:855 
0.9571150623219233 1:839 2:843 
0.9670568373357507 1:811 2:832 
0.9802613370192502 1:782 2:822 
0.6192828356007404 1:751 2:812 
0.9924901369146031 1:713 2:797 
0.9942192099040469 1:673 2:780 
0.994695000092881 1:628 2:756 
0.9937648862134234 1:586 2:733 
0.9946578235322091 1:543 2:707 
0.9943871689324461 1:851 2:843 
0.9942763773788724 1:826 2:832 
0.9937990905368111 1:800 2:820 
0.992504208728945 1:771 2:809 
0.9941680525887286 1:736 2:797 
0.7728649617676913 1:693 2:777 
0.9940743842367932 1:651 2:759 
0.7725745058012611 1:602 2:732 
0.9923283738604521 1:556 2:703 
0.9942106402158034 1:509 2:667 
0.9946044133723275 1:467 2:627 
0.9942108517887247 1:857 2:840 
0.9942023550006792 1:831 2:823 
0.9945747954611547 1:801 2:805 
0.9945349468711848 1:766 2:785 
0.994408285376727 1:723 2:758 
0.9942106832869254 1:675 2:725 
0.994197900020086 1:632 2:692 
0.9938487756991118 1:588 2:652 
0.9939637306403827 1:546 2:608 
0.9941681406589974 1:507 2:557 
0.9941853007827437 1:476 2:507 
0.980964981851418 1:880 2:872 
0.9684721043579847 1:855 2:856 
0.9930577018346264 1:830 2:845 
0.8624114054367851 1:805 2:836 
0.9942441478185231 1:778 2:829 
0.994183302747087 1:740 2:810 
0.9944757024264609 1:700 2:792 
0.9943514862775679 1:662 2:772 
0.9944092264145515 1:620 2:746 
0.9944703802011695 1:582 2:720 
0.9944592856560854 1:544 2:688 
0.994278600223229 1:888 2:870 
0.9193197154648933 1:876 2:867 
0.4889882502688903 1:857 2:859 
0.6209670446728291 1:835 2:849 
0.9470562133831706 1:807 2:833 
0.9801907056639714 1:778 2:821 
0.9925402951933014 1:749 2:807 
0.9923712083794289 1:716 2:793 
0.99441480743161 1:680 2:774 
0.9940280784836468 1:644 2:752 
0.9946946111857956 1:609 2:729 
0.8939316463310113 1:879 2:868 
0.6009107226095954 1:858 2:859 
0.6154435905464445 1:834 2:848 
0.9031775312130208 1:802 2:836 
0.9942851842508474 1:764 2:817 
0.994197035930742 1:727 2:801 
0.9941212523184805 1:683 2:780 
0.9938916050868959 1:642 2:758 
0.7729324405964554 1:600 2:731 
0.9924971089492652 1:559 2:699 
0.994185259138315 1:519 2:665 
-1.005593156007516 1:824 2:788 
-1.006235113786576 1:803 2:773 
-1.006219869313466 1:778 2:753 
-1.005815163499706 1:750 2:730 
-1.005978152606132 1:723 2:706 
-1.005944378929903 1:693 2:677 
-1.005924367507482 1:663 2:648 
-1.005903303808017 1:631 2:611 
-1.00579165941373 1:599 2:573 
-1.005776623131446 1:567 2:532 
-1.005739436361969 1:537 2:486 
-1.005648513711018 1:751 2:720 
-1.005789344411444 1:735 2:708 
-1.00581516351057 1:714 2:688 
-1.006280650835073 1:690 2:664 
-1.006300493677657 1:664 2:634 
-1.006280650665154 1:634 2:602 
-1.005593155789014 1:607 2:568 
-1.005796617373416 1:583 2:533 
-1.005645317984134 1:553 2:488 
-1.005581746171526 1:526 2:443 
-1.00598419877532 1:497 2:393 
-1.005830359504937 1:562 2:495 
-1.005645306044474 1:534 2:446 
-1.00558494161812 1:506 2:390 
-1.005584942044025 1:476 2:328 
-1.005584941788322 1:447 2:266 
-1.005582163732114 1:420 2:208 
-1.005590409439032 1:397 2:159 
-1.005591714623273 1:375 2:121 
-1.005588798976337 1:357 2:94 
-1.005728841494413 1:343 2:75 
-1.005756905847117 1:330 2:62 
-1.005776213289063 1:395 2:346 
-1.005556321498972 1:375 2:307 
-1.005572261151781 1:357 2:270 
-1.005599899069683 1:341 2:236 
-1.005739436361969 1:326 2:208 
-1.005767321040375 1:315 2:186 
-1.005776213879593 1:305 2:168 
-1.005776286760955 1:296 2:152 
-1.005726016991642 1:289 2:139 
-1.005974979431113 1:282 2:129 
-1.005590400146388 1:277 2:122 
-1.005898978998935 1:536 2:567 
-1.005941564503232 1:509 2:527 
-0.9620150840232563 1:476 2:479 
-1.005584640950187 1:447 2:427 
-1.005588589375858 1:420 2:376 
-1.005796617371949 1:398 2:329 
-1.005776623131446 1:378 2:285 
-1.005863976182703 1:362 2:246 
-1.005865873737601 1:347 2:212 
-1.005890469499882 1:330 2:182 
-1.005924367507482 1:320 2:160 
-1.005723623846993 1:676 2:716 
-1.005926798883465 1:644 2:687 
-1.005944378929903 1:613 2:657 
-1.005944378929903 1:582 2:625 
-1.005974988668563 1:553 2:591 
-1.005801561362187 1:526 2:555 
-1.005791659630494 1:499 2:515 
-0.999104714375544 1:474 2:475 
-1.004474704123095 1:452 2:434 
-1.005791418572098 1:431 2:392 
-1.005584763150912 1:408 2:349 
-1.005815139362004 1:684 2:722 
-1.005975197249641 1:655 2:697 
-1.005977608501801 1:623 2:670 
-1.005978152575761 1:593 2:640 
-1.005978152606132 1:561 2:605 
-1.005938531199965 1:530 2:565 
-1.005789887382966 1:502 2:525 
-0.9684769272292741 1:474 2:482 
-1.004250809742109 1:447 2:435 
-1.005796377410102 1:425 2:387 
-1.0055821631367 1:401 2:339 
-1.005982558451991 1:750 2:784 
-1.006288775946905 1:711 2:757 
-1.005815180423618 1:667 2:727 
-1.005829628912727 1:626 2:695 
-1.005835282885905 1:583 2:656 
-1.006404398534061 1:543 2:613 
-1.00558502917539 1:506 2:565 
-1.005796658589849 1:474 2:515 
-1.006063533947838 1:446 2:463 
-1.006097705015956 1:421 2:410 
-1.005800142876353 1:401 2:360 
