svm_type c_svc
kernel_type rbf
gamma 0.5
nr_class 2
total_sv 185
rho -0.0248959
label 1 -1
nr_sv 97 88
SV
0.9752341415290312 1:866 2:852 
0.9735958494163923 1:841 2:840 
0.9749999823470533 1:810 2:828 
0.975133986035122 1:774 2:813 
0.9010722531996569 1:694 2:779 
0.9750994693326417 1:655 2:764 
0.9750822798500248 1:613 2:742 
0.9751368343295944 1:566 2:712 
0.9751546817065795 1:524 2:684 
0.9751146957057553 1:482 2:650 
0.973609338122279 1:896 2:870 
0.901115061621239 1:880 2:864 
0.9745352218154903 1:863 2:859 
0.9750878251630097 1:844 2:852 
0.9750571577421647 1:818 2:842 
0.9750534742124543 1:790 2:831 
0.7129089472560733 1:752 2:811 
0.9750438878524127 1:718 2:802 
0.9751803413235356 1:680 2:788 
0.9750582133479233 1:636 2:768 
0.9751092092852222 1:591 2:744 
0.9630909691288508 1:899 2:868 
0.7417413471226202 1:897 2:865 
0.6203566853354862 1:896 2:863 
0.8542177620142134 1:899 2:865 
0.4823147650060853 1:897 2:863 
0.9090029673651703 1:889 2:856 
0.9736900267159868 1:886 2:854 
0.7096626350808839 1:889 2:859 
0.9644570618045923 1:892 2:858 
0.4108979350628635 1:889 2:858 
0.9010829856493626 1:881 2:862 
0.974750980672679 1:863 2:855 
0.9732015854607595 1:839 2:843 
0.9742664812687655 1:811 2:832 
0.9753990196035522 1:782 2:822 
0.7127874234101312 1:751 2:812 
0.9750958404001234 1:713 2:797 
0.9750497932539733 1:673 2:780 
0.9750605237363932 1:628 2:756 
0.9750618126842654 1:586 2:733 
0.9755615206832615 1:543 2:707 
0.9753552448438031 1:851 2:843 
0.9750460249507219 1:826 2:832 
0.9753539556741264 1:800 2:820 
0.9751666557838582 1:771 2:809 
0.9752049440452105 1:736 2:797 
0.9014390391367019 1:693 2:777 
0.9748496287302286 1:651 2:759 
0.9010980029911042 1:602 2:732 
0.9751055753184081 1:556 2:703 
0.9752014386598962 1:509 2:667 
0.9751985321049954 1:467 2:627 
0.9751614831971106 1:857 2:840 
0.9751803413235357 1:831 2:823 
0.9751396987843479 1:801 2:805 
0.9751702864604282 1:766 2:785 
0.9751531671358153 1:723 2:758 
0.9751146933364881 1:675 2:725 
0.975151250242122 1:632 2:692 
0.9751223474971286 1:588 2:652 
0.9753547062775795 1:546 2:608 
0.9750582157078187 1:507 2:557 
0.9751268731674481 1:476 2:507 
0.9751123390053047 1:880 2:872 
0.9740829402755107 1:855 2:856 
0.9750471365370006 1:830 2:845 
0.962889084708884 1:805 2:836 
0.975333505376493 1:778 2:829 
0.9751726123814116 1:740 2:810 
0.9751190567554767 1:700 2:792 
0.9751376201430372 1:662 2:772 
0.9750669076452995 1:620 2:746 
0.975087638284592 1:582 2:720 
0.9750729097801034 1:544 2:688 
0.9750566157872392 1:888 2:870 
0.9686449169443507 1:876 2:867 
0.6044976694762159 1:857 2:859 
0.7129777775494196 1:835 2:849 
0.973391294241607 1:807 2:833 
0.9749412850673022 1:778 2:821 
0.9751108687187756 1:749 2:807 
0.9751110618617446 1:716 2:793 
0.9754924752125352 1:680 2:774 
0.9748830273084875 1:644 2:752 
0.97506171158903 1:609 2:729 
0.9682973261455244 1:879 2:868 
0.6086195986157691 1:858 2:859 
0.7126570453009577 1:834 2:848 
0.9640644880455005 1:802 2:836 
0.9755194288599078 1:764 2:817 
0.9755194288599078 1:727 2:801 
0.9751512499036963 1:683 2:780 
0.974652502512352 1:642 2:758 
0.9010893187664881 1:600 2:731 
0.9751287930935068 1:559 2:699 
0.9751010288645303 1:519 2:665 
-1.024480571140092 1:824 2:788 
-1.024845333398646 1:803 2:773 
-1.025039229877123 1:778 2:753 
-1.024942842257835 1:750 2:730 
-1.024880943244523 1:723 2:706 
-1.024886115024157 1:693 2:677 
-1.024938288410741 1:663 2:648 
-1.02494269350874 1:631 2:611 
-1.024942837854955 1:599 2:573 
-1.024873126832554 1:567 2:532 
-1.024885306663514 1:537 2:486 
-1.024912361715408 1:751 2:720 
-1.024938187315735 1:735 2:708 
-1.025134175253195 1:714 2:688 
-1.025142714930297 1:690 2:664 
-1.024798561340078 1:664 2:634 
-1.024780109304005 1:634 2:602 
-1.02490269566298 1:607 2:568 
-1.024948983870298 1:583 2:533 
-1.024896058533684 1:553 2:488 
-1.024480571140092 1:526 2:443 
-1.025116970682604 1:497 2:393 
-1.025134175253195 1:562 2:495 
-1.024936081639763 1:534 2:446 
-1.025142604308142 1:506 2:390 
-1.025142714930297 1:476 2:328 
-1.025150370078698 1:447 2:266 
-1.025340647691706 1:420 2:208 
-1.025345116264051 1:397 2:159 
-1.025347495530034 1:375 2:121 
-1.025348014513109 1:357 2:94 
-1.025369115476768 1:343 2:75 
-1.024939476263607 1:330 2:62 
-1.024937691826172 1:395 2:346 
-1.024934475967684 1:375 2:307 
-1.02488871256107 1:357 2:270 
-1.02487233728679 1:341 2:236 
-1.024840060091746 1:326 2:208 
-1.024845318293421 1:315 2:186 
-1.024845346023827 1:305 2:168 
-1.024801467895005 1:296 2:152 
-1.02494269350874 1:289 2:139 
-1.024954870588562 1:282 2:129 
-1.024791887648602 1:277 2:122 
-1.024946523687462 1:536 2:567 
-1.024798561336924 1:509 2:527 
-1.02335005242516 1:476 2:479 
-1.024863165670393 1:447 2:427 
-1.024946525798659 1:420 2:376 
-1.02491217483699 1:398 2:329 
-1.024840060091746 1:378 2:285 
-1.025093894833835 1:362 2:246 
-1.024879167752565 1:347 2:212 
-1.024933092354693 1:330 2:182 
-1.025039229877123 1:320 2:160 
-1.024956112134045 1:676 2:716 
-1.024927090219897 1:644 2:687 
-1.024946525787546 1:613 2:657 
-1.024942837854955 1:582 2:625 
-1.024941786652077 1:553 2:591 
-1.024886131084754 1:526 2:555 
-1.02491217483699 1:499 2:515 
-1.024888668577294 1:474 2:475 
-1.024843030202026 1:452 2:434 
-1.024845333398588 1:431 2:392 
-1.024846832864185 1:408 2:349 
-1.024850339134546 1:684 2:722 
-1.024803834394034 1:655 2:697 
-1.024860301215652 1:623 2:670 
-1.024961934478729 1:593 2:640 
-1.024954870588562 1:561 2:605 
-1.024956110020772 1:530 2:565 
-1.024879167749389 1:502 2:525 
-1.023351239668088 1:474 2:482 
-1.024550563714306 1:447 2:435 
-1.024943384212689 1:425 2:387 
-1.024798561340078 1:401 2:339 
-1.024646044325874 1:750 2:784 
-1.02490269566298 1:711 2:757 
-1.024912174836992 1:667 2:727 
-1.024780109468746 1:626 2:695 
-1.024795057171849 1:583 2:656 
-1.025369156876146 1:543 2:613 
-1.024956112133352 1:506 2:565 
-1.024860252082915 1:474 2:515 
-1.024438479316738 1:446 2:463 
-1.024662274376979 1:421 2:410 
-1.024644754990947 1:401 2:360 
