svm_type c_svc
kernel_type rbf
gamma 1
nr_class 2
total_sv 185
rho -0.0370443
label 1 -1
nr_sv 97 88
SV
0.9629738725713946 1:866 2:852 
0.9631769677671687 1:841 2:840 
0.9630286577803279 1:810 2:828 
0.9623977944270984 1:774 2:813 
0.9565309810062503 1:694 2:779 
0.9630252315085124 1:655 2:764 
0.9630441111809589 1:613 2:742 
0.9629660416271135 1:566 2:712 
0.9629738872322553 1:524 2:684 
0.9630388582289661 1:482 2:650 
0.9623956594235885 1:896 2:870 
0.9565914125174116 1:880 2:864 
0.9630564186127116 1:863 2:859 
0.9629538415080878 1:844 2:852 
0.9623977944404905 1:818 2:842 
0.9631580963077188 1:790 2:831 
0.8481795570416125 1:752 2:811 
0.9630441111809589 1:718 2:802 
0.9631251009305855 1:680 2:788 
0.963030706637059 1:636 2:768 
0.9629538415080879 1:591 2:744 
0.9629001297338151 1:899 2:868 
0.9285433779472805 1:897 2:865 
0.7036924829904565 1:896 2:863 
0.9450664157264697 1:899 2:865 
0.6867762526900538 1:897 2:863 
0.9504066726833236 1:889 2:856 
0.9629132205139841 1:886 2:854 
0.7110695692751782 1:889 2:859 
0.9629236969236942 1:892 2:858 
0.6838311150009272 1:889 2:858 
0.9565282342627418 1:881 2:862 
0.9629778305572582 1:863 2:855 
0.9629878225850652 1:839 2:843 
0.9630386576305193 1:811 2:832 
0.9630207931444511 1:782 2:822 
0.8481795570567829 1:751 2:812 
0.9629257448148323 1:713 2:797 
0.9631371209049437 1:673 2:780 
0.9631582754681836 1:628 2:756 
0.9631224568180546 1:586 2:733 
0.9629538498994734 1:543 2:707 
0.9630286976495311 1:851 2:843 
0.9628372871031005 1:826 2:832 
0.962515059301369 1:800 2:820 
0.9631791413854456 1:771 2:809 
0.962836726867941 1:736 2:797 
0.9565787315800399 1:693 2:777 
0.9628371718606861 1:651 2:759 
0.9566162934080397 1:602 2:732 
0.963000601365919 1:556 2:703 
0.9629764620098844 1:509 2:667 
0.963028697776565 1:467 2:627 
0.9630208330133566 1:857 2:840 
0.9630265865129574 1:831 2:823 
0.9630308347129741 1:801 2:805 
0.9630308487448946 1:766 2:785 
0.9630336254993164 1:723 2:758 
0.9631371130230452 1:675 2:725 
0.9631333011308449 1:632 2:692 
0.9631580963077188 1:588 2:652 
0.9630209129871845 1:546 2:608 
0.9631582754681836 1:507 2:557 
0.9629738872322553 1:476 2:507 
0.9631370731233847 1:880 2:872 
0.9629720951357704 1:855 2:856 
0.9629741566044538 1:830 2:845 
0.9628450203922114 1:805 2:836 
0.9631252348098875 1:778 2:829 
0.9631333011308449 1:740 2:810 
0.9630308487448946 1:700 2:792 
0.9631582754681834 1:662 2:772 
0.9630265865129574 1:620 2:746 
0.9629777760962529 1:582 2:720 
0.9631791358161317 1:544 2:688 
0.9631800649540097 1:888 2:870 
0.9629220579121893 1:876 2:867 
0.7037216523883492 1:857 2:859 
0.8481790642396301 1:835 2:849 
0.9630425540036724 1:807 2:833 
0.9630315055366022 1:778 2:821 
0.963020576302879 1:749 2:807 
0.9625895116895427 1:716 2:793 
0.9625895117028966 1:680 2:774 
0.9629259468530138 1:644 2:752 
0.9630308347129741 1:609 2:729 
0.9629770373495885 1:879 2:868 
0.7039275681307486 1:858 2:859 
0.8481790642241533 1:834 2:848 
0.9630065018053192 1:802 2:836 
0.9623974103756882 1:764 2:817 
0.9629995664999982 1:727 2:801 
0.9630441111809589 1:683 2:780 
0.9629742930683338 1:642 2:758 
0.9564765101299708 1:600 2:731 
0.963000601365919 1:559 2:699 
0.9629657951163938 1:519 2:665 
-1.036835914479173 1:824 2:788 
-1.036968454672898 1:803 2:773 
-1.036961262616855 1:778 2:753 
-1.036961141771034 1:750 2:730 
-1.037556554133372 1:723 2:706 
-1.036969293362941 1:693 2:677 
-1.037485431616416 1:663 2:648 
-1.03759839446247 1:631 2:611 
-1.036820864183868 1:599 2:573 
-1.037602589624312 1:567 2:532 
-1.036955231494036 1:537 2:486 
-1.036979200256004 1:751 2:720 
-1.037162828139314 1:735 2:708 
-1.037163273132059 1:714 2:688 
-1.037026112762473 1:690 2:664 
-1.036841724531817 1:664 2:634 
-1.036820858601189 1:634 2:602 
-1.037022046387775 1:607 2:568 
-1.037031014495416 1:583 2:533 
-1.037046150100527 1:553 2:488 
-1.037046158491912 1:526 2:443 
-1.036999398620809 1:497 2:393 
-1.037074053146986 1:562 2:495 
-1.03760219069848 1:534 2:446 
-1.037602205559611 1:506 2:390 
-1.036841724531817 1:476 2:328 
-1.036874899069415 1:447 2:266 
-1.037023537990116 1:420 2:208 
-1.037162301430387 1:397 2:159 
-1.0371627128969 1:375 2:121 
-1.037484940698631 1:357 2:94 
-1.037485431616416 1:343 2:75 
-1.037410488297103 1:330 2:62 
-1.037046158491912 1:395 2:346 
-1.03708463124433 1:375 2:307 
-1.037025706931666 1:357 2:270 
-1.036862886976955 1:341 2:236 
-1.036961141771034 1:326 2:208 
-1.037046150100529 1:315 2:186 
-1.036820854222269 1:305 2:168 
-1.036862886976955 1:296 2:152 
-1.03681993504599 1:289 2:139 
-1.036862829162199 1:282 2:129 
-1.036968454672898 1:277 2:122 
-1.037602162297337 1:536 2:567 
-1.036961262597818 1:509 2:527 
-1.037007654533918 1:476 2:479 
-1.036955888819041 1:447 2:427 
-1.037034222983506 1:420 2:376 
-1.037022223903747 1:398 2:329 
-1.036969151255105 1:378 2:285 
-1.037031014495416 1:362 2:246 
-1.036973413487043 1:347 2:212 
-1.036974768491488 1:330 2:182 
-1.0369574132019 1:320 2:160 
-1.036969151255105 1:676 2:716 
-1.036862829162199 1:644 2:687 
-1.036969293362941 1:613 2:657 
-1.037034204883606 1:582 2:625 
-1.036999398620809 1:553 2:591 
-1.037187682518895 1:526 2:555 
-1.036979087012817 1:499 2:515 
-1.036979421546471 1:474 2:475 
-1.037046150095231 1:452 2:434 
-1.037033893578921 1:431 2:392 
-1.037077859987309 1:408 2:349 
-1.036961141771034 1:684 2:722 
-1.037054862628388 1:655 2:697 
-1.037410488297103 1:623 2:670 
-1.037162301430387 1:593 2:640 
-1.036620432940842 1:561 2:605 
-1.036973413487043 1:530 2:565 
-1.036969293362941 1:502 2:525 
-1.036860533775289 1:474 2:482 
-1.036973225120186 1:447 2:435 
-1.036862829211662 1:425 2:387 
-1.036862882221516 1:401 2:339 
-1.036841724531817 1:750 2:784 
-1.037023642200636 1:711 2:757 
-1.036862829211662 1:667 2:727 
-1.036862882221516 1:626 2:695 
-1.036978965661836 1:583 2:656 
-1.037033893578922 1:543 2:613 
-1.036973225125488 1:506 2:565 
-1.037074255171799 1:474 2:515 
-1.03760219069848 1:446 2:463 
-1.037602205559611 1:421 2:410 
-1.036961262616855 1:401 2:360 
