svm_type c_svc
kernel_type rbf
gamma 2
nr_class 2
total_sv 196
rho -0.0765867
label 1 -1
nr_sv 97 99
SV
0.9237231530708188 1:866 2:852 
0.923723068439926 1:841 2:840 
0.9237230684446406 1:810 2:828 
0.9239949287496597 1:774 2:813 
0.9232468977940742 1:694 2:779 
0.9235863815274152 1:655 2:764 
0.9232878507889616 1:613 2:742 
0.9237288307900864 1:566 2:712 
0.9232878509467124 1:524 2:684 
0.9234093324287085 1:482 2:650 
0.9234093324240141 1:896 2:870 
0.9232466907808814 1:880 2:864 
0.9234093742899511 1:863 2:859 
0.9230913270438976 1:844 2:852 
0.923723153070819 1:818 2:842 
0.9234139047032429 1:790 2:831 
0.9070853222127897 1:752 2:811 
0.9232888644527766 1:718 2:802 
0.9232151353798748 1:680 2:788 
0.9230892207484922 1:636 2:768 
0.9234139357938438 1:591 2:744 
0.9230892071832909 1:899 2:868 
0.922658902333208 1:897 2:865 
0.8130477495851803 1:896 2:863 
0.9234011638046068 1:899 2:865 
0.8127937915408973 1:897 2:863 
0.9234321134756982 1:889 2:856 
0.9231178314673744 1:886 2:854 
0.8130918481462851 1:889 2:859 
0.9239949148344965 1:892 2:858 
0.8127754762580259 1:889 2:858 
0.9233674589539345 1:881 2:862 
0.9230892207484802 1:863 2:855 
0.9230863825241831 1:839 2:843 
0.9234093324287054 1:811 2:832 
0.9234093324287069 1:782 2:822 
0.9070864726440283 1:751 2:812 
0.9237288307900864 1:713 2:797 
0.9235863815274152 1:673 2:780 
0.9240013890475525 1:628 2:756 
0.9239949287496597 1:586 2:733 
0.9235863815274152 1:543 2:707 
0.9236730219431699 1:851 2:843 
0.9237112814511881 1:826 2:832 
0.92327801656707 1:800 2:820 
0.9232878507889616 1:771 2:809 
0.923723153070819 1:736 2:797 
0.9233720210193286 1:693 2:777 
0.9237231530708189 1:651 2:759 
0.9233720204484275 1:602 2:732 
0.9232782904621196 1:556 2:703 
0.9232888645119617 1:509 2:667 
0.9231179231035616 1:467 2:627 
0.9234093324287085 1:857 2:840 
0.9230892212458147 1:831 2:823 
0.9230892627500399 1:801 2:805 
0.9235863815274152 1:766 2:785 
0.9237288307900864 1:723 2:758 
0.9230863825289061 1:675 2:725 
0.9231178314720888 1:632 2:692 
0.9232888645119617 1:588 2:652 
0.9234139363647552 1:546 2:608 
0.9231179687294323 1:507 2:557 
0.9235863815274152 1:476 2:507 
0.9232782904621182 1:880 2:872 
0.9232878507848333 1:855 2:856 
0.9237112814511881 1:830 2:845 
0.9234140284302563 1:805 2:836 
0.9234140424966271 1:778 2:829 
0.9232886576831999 1:740 2:810 
0.9230913270438976 1:700 2:792 
0.9231179231035616 1:662 2:772 
0.9232888646829432 1:620 2:746 
0.9232878507889616 1:582 2:720 
0.9232888646829432 1:544 2:688 
0.9236730219431699 1:888 2:870 
0.9232878488839281 1:876 2:867 
0.8132586631507894 1:857 2:859 
0.9070969624513553 1:835 2:849 
0.9231179687247079 1:807 2:833 
0.9231179231035422 1:778 2:821 
0.9230863825289061 1:749 2:807 
0.9231179231035438 1:716 2:793 
0.9237231530708189 1:680 2:774 
0.9233072287544756 1:644 2:752 
0.9232151353798748 1:609 2:729 
0.9236536687577221 1:879 2:868 
0.8131550353043744 1:858 2:859 
0.9070907208457926 1:834 2:848 
0.9232878368677493 1:802 2:836 
0.9239949288710197 1:764 2:817 
0.9240013890475525 1:727 2:801 
0.9232888646829432 1:683 2:780 
0.9234139047032429 1:642 2:758 
0.9232468975639595 1:600 2:731 
0.9230664218101419 1:559 2:699 
0.9237112712726192 1:519 2:665 
-1 1:824 2:788 
-1 1:803 2:773 
-1 1:778 2:753 
-1 1:750 2:730 
-1 1:723 2:706 
-1 1:693 2:677 
-1 1:663 2:648 
-1 1:631 2:611 
-1 1:599 2:573 
-1 1:567 2:532 
-1 1:537 2:486 
-1 1:751 2:720 
-1 1:735 2:708 
-1 1:714 2:688 
-1 1:690 2:664 
-1 1:664 2:634 
-1 1:634 2:602 
-1 1:607 2:568 
-1 1:583 2:533 
-1 1:553 2:488 
-1 1:526 2:443 
-1 1:497 2:393 
-0.138067421623039 1:562 2:495 
-0.1382660097904418 1:534 2:446 
-0.1390264665936901 1:506 2:390 
-0.1387617229452498 1:476 2:328 
-0.1388885831642511 1:447 2:266 
-0.1387682447027635 1:420 2:208 
-0.1387640732835934 1:397 2:159 
-0.1394038444812945 1:375 2:121 
-0.1394079396881631 1:357 2:94 
-0.139405061499043 1:343 2:75 
-0.1388406544125929 1:330 2:62 
-0.9386447275879994 1:562 2:495 
-0.9386447274595183 1:534 2:446 
-0.9375642009775795 1:506 2:390 
-0.937537956792262 1:476 2:328 
-0.9375250353083338 1:447 2:266 
-0.9375209683853294 1:420 2:208 
-0.9375070959263203 1:397 2:159 
-0.9375070935456657 1:375 2:121 
-0.9375056777829308 1:357 2:94 
-0.9375056757509207 1:343 2:75 
-0.9375056749266436 1:330 2:62 
-1 1:395 2:346 
-1 1:375 2:307 
-1 1:357 2:270 
-1 1:341 2:236 
-1 1:326 2:208 
-1 1:315 2:186 
-1 1:305 2:168 
-1 1:296 2:152 
-1 1:289 2:139 
-1 1:282 2:129 
-1 1:277 2:122 
-1 1:536 2:567 
-1 1:509 2:527 
-1 1:476 2:479 
-1 1:447 2:427 
-1 1:420 2:376 
-1 1:398 2:329 
-1 1:378 2:285 
-1 1:362 2:246 
-1 1:347 2:212 
-1 1:330 2:182 
-1 1:320 2:160 
-1 1:676 2:716 
-1 1:644 2:687 
-1 1:613 2:657 
-1 1:582 2:625 
-1 1:553 2:591 
-1 1:526 2:555 
-1 1:499 2:515 
-1 1:474 2:475 
-1 1:452 2:434 
-1 1:431 2:392 
-1 1:408 2:349 
-1 1:684 2:722 
-1 1:655 2:697 
-1 1:623 2:670 
-1 1:593 2:640 
-1 1:561 2:605 
-1 1:530 2:565 
-1 1:502 2:525 
-1 1:474 2:482 
-1 1:447 2:435 
-1 1:425 2:387 
-1 1:401 2:339 
-1 1:750 2:784 
-1 1:711 2:757 
-1 1:667 2:727 
-1 1:626 2:695 
-1 1:583 2:656 
-1 1:543 2:613 
-1 1:506 2:565 
-1 1:474 2:515 
-1 1:446 2:463 
-1 1:421 2:410 
-1 1:401 2:360 
