svm_type c_svc
kernel_type rbf
gamma 0.25
nr_class 2
total_sv 84
rho -0.587452
label 1 -1
nr_sv 45 39
SV
0.4122165119530112 1:409 2:576 
0.4122155802141377 1:595 2:745 
0.4127292011808856 1:682 2:785 
0.4099791981491194 1:760 2:808 
0.4124112984490461 1:815 2:821 
0.4128897555207043 1:376 2:559 
0.412739634632966 1:613 2:778 
0.4128082203392879 1:740 2:825 
0.4127435125643169 1:819 2:843 
0.4123325208263519 1:869 2:857 
0.4128897555327627 1:436 2:612 
0.4122152369586193 1:568 2:744 
0.4122165217599677 1:651 2:784 
0.4122165119530423 1:740 2:813 
0.4126416735530933 1:803 2:831 
0.4128082203392879 1:888 2:835 
0.4128378206075065 1:906 2:854 
0.3885888291299394 1:919 2:867 
0.2860122834253136 1:922 2:868 
0.3303633500414569 1:923 2:870 
0.4126424030144511 1:380 2:464 
0.4131034680471221 1:494 2:686 
0.4122165119530422 1:605 2:767 
0.4126826491147605 1:688 2:796 
0.4096850009791548 1:758 2:812 
0.4123540214224082 1:585 2:719 
0.4122062648223398 1:805 2:838 
0.4004917184790071 1:877 2:864 
0.4121647161918153 1:909 2:877 
0.4122165080193945 1:920 2:878 
0.4126427950007169 1:463 2:568 
0.4128897555327627 1:679 2:769 
0.4128897517089475 1:798 2:824 
0.4128205199329102 1:869 2:851 
0.4123540214274037 1:904 2:867 
0.4121740467006906 1:439 2:389 
0.412743512556155 1:592 2:712 
0.4119285556284335 1:760 2:817 
0.4122719048484094 1:834 2:846 
0.4081523264523273 1:874 2:861 
0.412735652335496 1:448 2:463 
0.4122165217599679 1:722 2:804 
0.4130847509298247 1:828 2:848 
0.4049552598430448 1:877 2:868 
0.4121554493140745 1:903 2:877 
-0.5 1:302 2:43 
-0.5 1:301 2:40 
-0.5 1:298 2:43 
-0.5 1:299 2:46 
-0.5 1:301 2:53 
-0.5 1:285 2:54 
-0.5 1:285 2:53 
-0.5 1:282 2:53 
-0.5 1:283 2:52 
-0.4074864207165986 1:284 2:53 
-0.4036671366242005 1:272 2:55 
-0.5 1:271 2:54 
-0.5 1:272 2:54 
-0.491493090726124 1:272 2:55 
-0.5 1:256 2:48 
-0.5 1:257 2:48 
-0.5 1:257 2:50 
-0.5 1:258 2:54 
-0.5 1:260 2:56 
-0.4168898310439808 1:258 2:52 
-0.5 1:258 2:52 
-0.4225773776745365 1:258 2:53 
-0.5 1:247 2:45 
-0.5 1:246 2:47 
-0.5 1:248 2:50 
-0.5 1:249 2:53 
-0.5 1:242 2:44 
-0.2875139280229916 1:243 2:44 
-0.01138977952007991 1:242 2:45 
-0.5 1:242 2:46 
-0.5 1:243 2:47 
-0.4899828103082736 1:244 2:45 
-0.3706333485086913 1:243 2:44 
-0.5 1:245 2:47 
-0.5 1:239 2:42 
-0.5 1:237 2:43 
-0.5 1:238 2:43 
-0.5 1:237 2:44 
-0.5 1:239 2:46 
