svm_type c_svc
kernel_type rbf
gamma 0.5
nr_class 2
total_sv 88
rho -0.551052
label 1 -1
nr_sv 45 43
SV
0.4489541517028822 1:409 2:576 
0.4489516393735477 1:595 2:745 
0.4489802965190829 1:682 2:785 
0.4493957774718679 1:760 2:808 
0.4489408344719937 1:815 2:821 
0.4490442553128558 1:376 2:559 
0.4489516393735478 1:613 2:778 
0.4493936872615748 1:740 2:825 
0.4493936872612819 1:819 2:843 
0.4493936800116412 1:869 2:857 
0.4493936867666176 1:436 2:612 
0.4484875431075431 1:568 2:744 
0.4484875431073863 1:651 2:784 
0.4484875431040727 1:740 2:813 
0.4493936867652278 1:803 2:831 
0.4484861456040728 1:888 2:835 
0.4489319980982171 1:906 2:854 
0.4461673078560504 1:919 2:867 
0.4117311450902869 1:922 2:868 
0.4150805936513928 1:923 2:870 
0.4494161378602745 1:380 2:464 
0.4489354858324378 1:494 2:686 
0.4488055119238861 1:605 2:767 
0.4490442553128557 1:688 2:796 
0.448467386895352 1:758 2:812 
0.4489408344719937 1:585 2:719 
0.4484875431061505 1:805 2:838 
0.4483808083844534 1:877 2:864 
0.4489319912694322 1:909 2:877 
0.4490847335939133 1:920 2:878 
0.449044024248113 1:463 2:568 
0.4489430773506424 1:679 2:769 
0.4493936872612818 1:798 2:824 
0.4490440174038567 1:869 2:851 
0.4489547725435031 1:904 2:867 
0.4494155533619467 1:439 2:389 
0.4490847335939132 1:592 2:712 
0.4490434190494701 1:760 2:817 
0.4484861446858076 1:834 2:846 
0.4489881516026882 1:874 2:861 
0.4489541517028823 1:448 2:463 
0.4489354858324379 1:722 2:804 
0.4494155524375477 1:828 2:848 
0.4487902040852496 1:877 2:868 
0.4489406122507636 1:903 2:877 
-0.5 1:302 2:43 
-0.5 1:301 2:40 
-0.5 1:298 2:43 
-0.5 1:299 2:46 
-0.5 1:301 2:53 
-0.5 1:285 2:54 
-0.5 1:285 2:53 
-0.5 1:282 2:53 
-0.5 1:283 2:52 
-0.5 1:284 2:53 
-0.2628994896435645 1:272 2:55 
-0.4977584091115937 1:272 2:55 
-0.5 1:271 2:54 
-0.5 1:272 2:54 
-0.3031822703650806 1:272 2:55 
-0.5 1:256 2:48 
-0.5 1:257 2:48 
-0.5 1:257 2:50 
-0.5 1:258 2:54 
-0.5 1:260 2:56 
-0.2939272202893051 1:258 2:52 
-0.5 1:258 2:52 
-0.34546262932108 1:258 2:52 
-0.5 1:258 2:53 
-0.3030003571282888 1:244 2:46 
-0.5 1:247 2:45 
-0.5 1:246 2:47 
-0.5 1:248 2:50 
-0.5 1:249 2:53 
-0.5 1:242 2:44 
-0.3770689739110081 1:243 2:44 
-0.4898741986424718 1:242 2:45 
-0.5 1:242 2:46 
-0.5 1:243 2:47 
-0.5 1:244 2:45 
-0.4056245824147814 1:243 2:44 
-0.3511769871448224 1:244 2:46 
-0.5 1:245 2:47 
-0.5 1:239 2:42 
-0.5 1:237 2:43 
-0.5 1:238 2:43 
-0.5 1:237 2:44 
-0.5 1:239 2:46 
