svm_type c_svc
kernel_type rbf
gamma 0.25
nr_class 2
total_sv 77
rho -0.396769
label 1 -1
nr_sv 45 32
SV
0.6030682416002165 1:409 2:576 
0.6032663215872819 1:595 2:745 
0.6030027764713056 1:682 2:785 
0.5990829947826881 1:760 2:808 
0.6034238591390495 1:815 2:821 
0.6034239745861258 1:376 2:559 
0.6031211895967399 1:613 2:778 
0.602976609166844 1:740 2:825 
0.603446865373266 1:819 2:843 
0.6032454948590025 1:869 2:857 
0.6030683484586794 1:436 2:612 
0.6035086056003636 1:568 2:744 
0.6035079626146561 1:651 2:784 
0.603544900811782 1:740 2:813 
0.6034458115694984 1:803 2:831 
0.6033414555401033 1:888 2:835 
0.6035110933747981 1:906 2:854 
0.5677352964535113 1:919 2:867 
0.4184664955760731 1:922 2:868 
0.4822191986467929 1:923 2:870 
0.6035086056003636 1:380 2:464 
0.6031303986833404 1:494 2:686 
0.6034655447007197 1:605 2:767 
0.6032126853223539 1:688 2:796 
0.5986014068419201 1:758 2:812 
0.6035094770575361 1:585 2:719 
0.6033197619709346 1:805 2:838 
0.5859455758118741 1:877 2:864 
0.6031482263102904 1:909 2:877 
0.6030759449136363 1:920 2:878 
0.603160943207796 1:463 2:568 
0.6030416408770038 1:679 2:769 
0.6035448952374817 1:798 2:824 
0.6034631315009215 1:869 2:851 
0.603103251242357 1:904 2:867 
0.6030682416002165 1:439 2:389 
0.6031635868371921 1:592 2:712 
0.6030071012751612 1:760 2:817 
0.6032935959268628 1:834 2:846 
0.5971035824554435 1:874 2:861 
0.6033209781324154 1:448 2:463 
0.6035094770713471 1:722 2:804 
0.6031331979687353 1:828 2:848 
0.5926990005530337 1:877 2:868 
0.6035370262261019 1:903 2:877 
-1.254648243166523 1:302 2:43 
-1.279920424173116 1:301 2:40 
-1.254343314543076 1:298 2:43 
-1.280022787224079 1:299 2:46 
-1.396515017011696 1:301 2:53 
-0.9200910496356788 1:285 2:54 
-0.4121363214048329 1:285 2:53 
-0.913564649283829 1:282 2:53 
-0.6002677608760926 1:283 2:52 
-0.7853259811392924 1:271 2:54 
-0.1751556101109448 1:272 2:54 
-0.7837268046976656 1:272 2:55 
-0.7946203095640295 1:256 2:48 
-0.4955407679325255 1:257 2:48 
-0.7356766778788267 1:257 2:50 
-0.9088129613223948 1:258 2:54 
-1.268487677214479 1:260 2:56 
-0.8309213660807113 1:258 2:52 
-1.110700010940004 1:247 2:45 
-0.7237407460823782 1:246 2:47 
-1.258575977851181 1:248 2:50 
-1.293620630034008 1:249 2:53 
-0.7111981892926977 1:242 2:44 
-0.2176027083861633 1:242 2:46 
-0.8891568168107279 1:243 2:47 
-0.33628415594029 1:244 2:45 
-0.4356038584548776 1:243 2:44 
-0.2023291222360276 1:245 2:47 
-1.111138125012485 1:239 2:42 
-0.4760855058231856 1:237 2:43 
-0.712704898338628 1:237 2:44 
-1.194956304671371 1:239 2:46 
