svm_type c_svc
kernel_type rbf
gamma 0.125
nr_class 2
total_sv 82
rho -0.625008
label 1 -1
nr_sv 45 37
SV
0.3746435805455776 1:409 2:576 
0.3751465439316183 1:595 2:745 
0.3747076436470047 1:682 2:785 
0.3471842061472337 1:760 2:808 
0.3751802771982855 1:815 2:821 
0.3751973182942753 1:376 2:559 
0.3752606750715821 1:613 2:778 
0.3745924849988495 1:740 2:825 
0.3746069558622933 1:819 2:843 
0.3684364747729704 1:869 2:857 
0.375453721388235 1:436 2:612 
0.3754343438017738 1:568 2:744 
0.3746435805455775 1:651 2:784 
0.3750784385052498 1:740 2:813 
0.3748098292828692 1:803 2:831 
0.3749434031716585 1:888 2:835 
0.3750138397711944 1:906 2:854 
0.326688995636114 1:919 2:867 
0.1239275290559732 1:922 2:868 
0.294476786583151 1:923 2:870 
0.3753496960924528 1:380 2:464 
0.3747076447703496 1:494 2:686 
0.3751661108819425 1:605 2:767 
0.3745774951455504 1:688 2:796 
0.3363630717267558 1:758 2:812 
0.3750847147685796 1:585 2:719 
0.3747633847636061 1:805 2:838 
0.2938650831742387 1:877 2:864 
0.370746570818453 1:909 2:877 
0.3749861602288056 1:920 2:878 
0.3746096168690871 1:463 2:568 
0.3751484160924782 1:679 2:769 
0.3746540595346888 1:798 2:824 
0.3710805004019919 1:869 2:851 
0.3753484061627013 1:904 2:867 
0.374619251237401 1:439 2:389 
0.374704135951146 1:592 2:712 
0.3661499104796759 1:760 2:817 
0.372237269735429 1:834 2:846 
0.3417176170817157 1:874 2:861 
0.3747599430472767 1:448 2:463 
0.3746680613146138 1:722 2:804 
0.3726783321829126 1:828 2:848 
0.334660637357608 1:877 2:868 
0.3705618801879415 1:903 2:877 
-0.5 1:302 2:43 
-0.5 1:301 2:40 
-0.5 1:298 2:43 
-0.5 1:299 2:46 
-0.5 1:301 2:53 
-0.5 1:285 2:54 
-0.5 1:285 2:53 
-0.5 1:282 2:53 
-0.5 1:283 2:52 
-0.1015388767097399 1:284 2:53 
-0.3643072325571611 1:272 2:55 
-0.5 1:271 2:54 
-0.4222435737194771 1:272 2:54 
-0.4982791330160376 1:272 2:55 
-0.5 1:256 2:48 
-0.5 1:257 2:48 
-0.5 1:257 2:50 
-0.5 1:258 2:54 
-0.5 1:260 2:56 
-0.02108983417257042 1:258 2:52 
-0.4766131844360715 1:258 2:52 
-0.4702263618043661 1:258 2:53 
-0.5 1:247 2:45 
-0.5 1:246 2:47 
-0.5 1:248 2:50 
-0.5 1:249 2:53 
-0.3357981246279625 1:242 2:44 
-0.2585366771765841 1:243 2:44 
-0.2217335915926196 1:242 2:46 
-0.5 1:243 2:47 
-0.5 1:243 2:44 
-0.3892577145287199 1:245 2:47 
-0.5 1:239 2:42 
-0.5 1:237 2:43 
-0.1790102938775784 1:238 2:43 
-0.5 1:237 2:44 
-0.5 1:239 2:46 
