svm_type c_svc
kernel_type rbf
gamma 0.125
nr_class 2
total_sv 89
rho -0.751333
label 1 -1
nr_sv 45 44
SV
0.2490335056495062 1:409 2:576 
0.2489905850327587 1:595 2:745 
0.2483405689850978 1:682 2:785 
0.2304622545606657 1:760 2:808 
0.248625109737897 1:815 2:821 
0.2489666806183423 1:376 2:559 
0.2485478821411083 1:613 2:778 
0.2483247774891611 1:740 2:825 
0.2490330713112115 1:819 2:843 
0.2448959199998431 1:869 2:857 
0.2489503569581971 1:436 2:612 
0.2488651421483503 1:568 2:744 
0.2488225016869391 1:651 2:784 
0.2481209122494865 1:740 2:813 
0.2479891943529954 1:803 2:831 
0.2487998070102902 1:888 2:835 
0.2483885544255315 1:906 2:854 
0.2162530187264381 1:919 2:867 
0.08263583135998288 1:922 2:868 
0.1950621505519615 1:923 2:870 
0.2487955966910933 1:380 2:464 
0.2487229999905625 1:494 2:686 
0.2485424532236067 1:605 2:767 
0.2483728991887918 1:688 2:796 
0.2234777793517542 1:758 2:812 
0.2489491664477846 1:585 2:719 
0.2482960825309533 1:805 2:838 
0.1945613013026709 1:877 2:864 
0.2459609692541064 1:909 2:877 
0.2486609440211294 1:920 2:878 
0.2487144660223288 1:463 2:568 
0.2486451014968438 1:679 2:769 
0.2486212668454456 1:798 2:824 
0.2453579029957957 1:869 2:851 
0.2489897358179388 1:904 2:867 
0.2486932264053603 1:439 2:389 
0.2487944104628204 1:592 2:712 
0.2427800455689942 1:760 2:817 
0.2468853988442418 1:834 2:846 
0.226183748100396 1:874 2:861 
0.2486823563489387 1:448 2:463 
0.2486596451494849 1:722 2:804 
0.2467344014041868 1:828 2:848 
0.222308168605318 1:877 2:868 
0.2459409670359902 1:903 2:877 
-0.25 1:302 2:43 
-0.25 1:301 2:40 
-0.25 1:298 2:43 
-0.25 1:299 2:46 
-0.25 1:301 2:53 
-0.25 1:285 2:54 
-0.25 1:285 2:53 
-0.25 1:282 2:53 
-0.25 1:283 2:52 
-0.25 1:284 2:53 
-0.25 1:272 2:55 
-0.25 1:272 2:55 
-0.25 1:271 2:54 
-0.25 1:272 2:54 
-0.25 1:272 2:55 
-0.25 1:256 2:48 
-0.25 1:257 2:48 
-0.25 1:257 2:50 
-0.25 1:258 2:54 
-0.25 1:260 2:56 
-0.25 1:258 2:52 
-0.25 1:258 2:52 
-0.25 1:258 2:52 
-0.25 1:258 2:52 
-0.25 1:258 2:53 
-0.05115846354346198 1:244 2:46 
-0.25 1:247 2:45 
-0.25 1:246 2:47 
-0.25 1:248 2:50 
-0.25 1:249 2:53 
-0.25 1:242 2:44 
-0.25 1:243 2:44 
-0.25 1:242 2:45 
-0.25 1:242 2:46 
-0.25 1:243 2:47 
-0.2243046603498825 1:244 2:45 
-0.25 1:243 2:44 
-0.2439757342089569 1:244 2:46 
-0.25 1:245 2:47 
-0.25 1:239 2:42 
-0.25 1:237 2:43 
-0.25 1:238 2:43 
-0.25 1:237 2:44 
-0.25 1:239 2:46 
