svm_type c_svc
kernel_type rbf
gamma 1
nr_class 2
total_sv 86
rho -0.270016
label 1 -1
nr_sv 45 41
SV
0.7294726952195386 1:409 2:576 
0.7300870471011807 1:595 2:745 
0.7294874296109963 1:682 2:785 
0.7302413375799368 1:760 2:808 
0.7300482444694054 1:815 2:821 
0.7294682986609291 1:376 2:559 
0.7301802765188448 1:613 2:778 
0.7302279616926246 1:740 2:825 
0.7300367930332738 1:819 2:843 
0.7301635306410739 1:869 2:857 
0.7300188984758145 1:436 2:612 
0.7299345395323011 1:568 2:744 
0.7302559525370845 1:651 2:784 
0.730215508596979 1:740 2:813 
0.7296261833712232 1:803 2:831 
0.7300560207967586 1:888 2:835 
0.7302559525370845 1:906 2:854 
0.7294396913982134 1:919 2:867 
0.7252933322510852 1:922 2:868 
0.7253173088306262 1:923 2:870 
0.730039184235091 1:380 2:464 
0.7300870470750938 1:494 2:686 
0.729475190366989 1:605 2:767 
0.7299345395323011 1:688 2:796 
0.7301635291388342 1:758 2:812 
0.7301873936082481 1:585 2:719 
0.7302155085969542 1:805 2:838 
0.7296260898214443 1:877 2:864 
0.7301802765188445 1:909 2:877 
0.7300482444694054 1:920 2:878 
0.7304201675068889 1:463 2:568 
0.7303027577817821 1:679 2:769 
0.730215508596979 1:798 2:824 
0.7299178826017071 1:869 2:851 
0.7296126160558495 1:904 2:867 
0.7295032041953686 1:439 2:389 
0.729475190366989 1:592 2:712 
0.7301873936080623 1:760 2:817 
0.7302055170465076 1:834 2:846 
0.7300870359629037 1:874 2:861 
0.7300870471011807 1:448 2:463 
0.7300811947974603 1:722 2:804 
0.7297501693646128 1:828 2:848 
0.7302851279695928 1:877 2:868 
0.7302055170465074 1:903 2:877 
-1 1:302 2:43 
-1 1:301 2:40 
-1 1:298 2:43 
-1 1:299 2:46 
-1 1:301 2:53 
-0.9311106151640546 1:285 2:54 
-0.6432961045175474 1:285 2:53 
-1 1:282 2:53 
-1 1:283 2:52 
-0.7536895385442732 1:284 2:53 
-0.9284382810545729 1:271 2:54 
-0.5867754981203481 1:272 2:54 
-0.9286584071401145 1:272 2:55 
-0.9286706354934132 1:256 2:48 
-0.9098255255671475 1:257 2:48 
-1 1:257 2:50 
-1 1:258 2:54 
-1 1:260 2:56 
-0.05842894829260781 1:258 2:52 
-0.9977896407474967 1:258 2:52 
-0.5134305806609464 1:258 2:53 
-0.00201951518761706 1:244 2:46 
-1 1:247 2:45 
-0.9637303151855943 1:246 2:47 
-1 1:248 2:50 
-1 1:249 2:53 
-0.7890649778317889 1:242 2:44 
-0.002345399962269468 1:243 2:44 
-0.4492803408981237 1:242 2:45 
-0.90542894207875 1:242 2:46 
-1 1:243 2:47 
-0.8220889074450975 1:244 2:45 
-0.7216728272674874 1:243 2:44 
-0.6636617282833737 1:244 2:46 
-0.1983589815553137 1:243 2:45 
-0.8009529541471676 1:245 2:47 
-1 1:239 2:42 
-0.6354955095442983 1:237 2:43 
-0.7751778456613235 1:238 2:43 
-0.9307283158698443 1:237 2:44 
-1 1:239 2:46 
