svm_type c_svc
kernel_type rbf
gamma 2
nr_class 2
total_sv 83
rho -0.14069
label 1 -1
nr_sv 45 38
SV
0.8593694765952281 1:409 2:576 
0.8592462251193146 1:595 2:745 
0.8592582151189754 1:682 2:785 
0.8592953936864225 1:760 2:808 
0.8593079145257839 1:815 2:821 
0.8593051378572157 1:376 2:559 
0.8592823281589129 1:613 2:778 
0.8593430874780404 1:740 2:825 
0.8591705056937659 1:819 2:843 
0.8592823281589129 1:869 2:857 
0.8593004428420108 1:436 2:612 
0.8593105645902748 1:568 2:744 
0.8593004369190134 1:651 2:784 
0.8592902781342877 1:740 2:813 
0.8594004796792262 1:803 2:831 
0.859211855016945 1:888 2:835 
0.8593004369190134 1:906 2:854 
0.859495524157323 1:919 2:867 
0.859567703599836 1:922 2:868 
0.8592511553122552 1:923 2:870 
0.8595758961297264 1:380 2:464 
0.8592953936864225 1:494 2:686 
0.8593216932552586 1:605 2:767 
0.8593004428420108 1:688 2:796 
0.8592586933607111 1:758 2:812 
0.8593065116881273 1:585 2:719 
0.859495525925732 1:805 2:838 
0.8592850563820396 1:877 2:864 
0.8592953936864225 1:909 2:877 
0.8592340989300344 1:920 2:878 
0.8593424924391226 1:463 2:568 
0.8593430871979426 1:679 2:769 
0.8592901796266612 1:798 2:824 
0.8592644355819745 1:869 2:851 
0.8592837257530372 1:904 2:867 
0.8592850563820507 1:439 2:389 
0.8592527941271926 1:592 2:712 
0.8596272427355603 1:760 2:817 
0.8593051378572157 1:834 2:846 
0.8593216932552584 1:874 2:861 
0.8593619398269937 1:448 2:463 
0.8592953936864225 1:722 2:804 
0.8596272427355603 1:828 2:848 
0.8592644355819636 1:877 2:868 
0.8593424924391226 1:903 2:877 
-1.140720688334323 1:302 2:43 
-1.140380271410874 1:301 2:40 
-1.140748342683176 1:298 2:43 
-1.140892670735867 1:299 2:46 
-1.140747205872807 1:301 2:53 
-1.004775079747565 1:285 2:54 
-0.8713159030042115 1:285 2:53 
-1.120196884069306 1:282 2:53 
-1.102157170355871 1:283 2:52 
-0.9838805226615872 1:284 2:53 
-1.004820583469174 1:271 2:54 
-0.8687691339669136 1:272 2:54 
-1.004849090771371 1:272 2:55 
-1.004744696484766 1:256 2:48 
-1.004319144345779 1:257 2:48 
-1.140170347750883 1:257 2:50 
-1.023876943957374 1:258 2:54 
-1.140823409937199 1:260 2:56 
-1.023481201908505 1:258 2:52 
-0.8634325137442403 1:258 2:53 
-1.140783671902116 1:247 2:45 
-1.007119653357873 1:246 2:47 
-1.140788142626843 1:248 2:50 
-1.140656910168201 1:249 2:53 
-0.9030242432103474 1:242 2:44 
-0.7657251178134028 1:242 2:45 
-1.002102628165336 1:242 2:46 
-1.103871547575935 1:243 2:47 
-0.8926983963406541 1:244 2:45 
-0.8876411672423413 1:243 2:44 
-0.9673750463331808 1:244 2:46 
-0.7430600736353684 1:243 2:45 
-0.9864774973239266 1:245 2:47 
-1.122642968350394 1:239 2:42 
-0.8716673664847884 1:237 2:43 
-0.9838115013654782 1:238 2:43 
-1.004661026703495 1:237 2:44 
-1.140656780863848 1:239 2:46 
