svm_type c_svc
kernel_type rbf
gamma 2
nr_class 2
total_sv 87
rho -0.177012
label 1 -1
nr_sv 45 42
SV
0.8233612685638783 1:409 2:576 
0.8226424696283978 1:595 2:745 
0.8233537920298611 1:682 2:785 
0.8230684273277465 1:760 2:808 
0.8231277716502283 1:815 2:821 
0.8227231902200458 1:376 2:559 
0.8230684273277465 1:613 2:778 
0.8227327316034845 1:740 2:825 
0.8230684273277465 1:819 2:843 
0.8230684273277465 1:869 2:857 
0.8229889949424293 1:436 2:612 
0.8229060085112845 1:568 2:744 
0.8229782296458098 1:651 2:784 
0.8233761639424013 1:740 2:813 
0.8228799266553353 1:803 2:831 
0.8235044006129488 1:888 2:835 
0.8235044006129488 1:906 2:854 
0.8229426764241355 1:919 2:867 
0.8231285922452989 1:922 2:868 
0.823090337659101 1:923 2:870 
0.8229815412002053 1:380 2:464 
0.8228289795064726 1:494 2:686 
0.822725204170463 1:605 2:767 
0.8229477946694227 1:688 2:796 
0.8229909834961814 1:758 2:812 
0.8233828905704166 1:585 2:719 
0.8233828905704166 1:805 2:838 
0.8231688626847052 1:877 2:864 
0.8229815412002053 1:909 2:877 
0.8229477946694227 1:920 2:878 
0.8229889949424293 1:463 2:568 
0.8228028209635317 1:679 2:769 
0.8233761639424013 1:798 2:824 
0.8229477946694227 1:869 2:851 
0.8228289795064726 1:904 2:867 
0.8226424696283978 1:439 2:389 
0.8227327316034845 1:592 2:712 
0.8229477946694227 1:760 2:817 
0.8226471128289046 1:834 2:846 
0.8226471128289043 1:874 2:861 
0.822636412473268 1:448 2:463 
0.8229060085112845 1:722 2:804 
0.8233612685638783 1:828 2:848 
0.8227327316034739 1:877 2:868 
0.822725204170463 1:903 2:877 
-1 1:302 2:43 
-1 1:301 2:40 
-1 1:298 2:43 
-1 1:299 2:46 
-1 1:301 2:53 
-1 1:285 2:54 
-0.9063057922106835 1:285 2:53 
-1 1:282 2:53 
-1 1:283 2:52 
-1 1:284 2:53 
-0.04185766170125038 1:272 2:55 
-1 1:271 2:54 
-0.9009318869850509 1:272 2:54 
-0.9947299657376043 1:272 2:55 
-1 1:256 2:48 
-1 1:257 2:48 
-1 1:257 2:50 
-1 1:258 2:54 
-1 1:260 2:56 
-0.06536939493736052 1:258 2:52 
-0.9900623904149317 1:258 2:52 
-0.8984737666471002 1:258 2:53 
-0.01194954923560542 1:244 2:46 
-1 1:247 2:45 
-1 1:246 2:47 
-1 1:248 2:50 
-1 1:249 2:53 
-0.9307322286908273 1:242 2:44 
-0.0441486166535905 1:243 2:44 
-0.7948420476713904 1:242 2:45 
-1 1:242 2:46 
-1 1:243 2:47 
-0.9206351584015102 1:244 2:45 
-0.8715881268651103 1:243 2:44 
-0.989515390412097 1:244 2:46 
-0.7669871467300177 1:243 2:45 
-1 1:245 2:47 
-1 1:239 2:42 
-0.9066476246080952 1:237 2:43 
-1 1:238 2:43 
-1 1:237 2:44 
-1 1:239 2:46 
