svm_type c_svc
kernel_type rbf
gamma 4
nr_class 2
total_sv 90
rho -0.511069
label 1 -1
nr_sv 45 45
SV
0.4890686811630409 1:409 2:576 
0.4890896404147833 1:595 2:745 
0.4889214682923289 1:682 2:785 
0.4892578125311991 1:760 2:808 
0.4892578125311991 1:815 2:821 
0.4892578125372376 1:376 2:559 
0.4892578125372376 1:613 2:778 
0.4892578125372376 1:740 2:825 
0.4892578125372376 1:819 2:843 
0.4892578125372376 1:869 2:857 
0.4882812500764881 1:436 2:612 
0.4882812500724624 1:568 2:744 
0.4882812500724624 1:651 2:784 
0.4882812500724625 1:740 2:813 
0.4882812500563597 1:803 2:831 
0.4882812500563597 1:888 2:835 
0.4890686811630409 1:906 2:854 
0.4890686811630409 1:919 2:867 
0.4882812490700653 1:922 2:868 
0.4882812490740911 1:923 2:870 
0.4890896404147833 1:380 2:464 
0.4892578125311992 1:494 2:686 
0.4892578125311992 1:605 2:767 
0.4889214682923288 1:688 2:796 
0.4892578125372376 1:758 2:812 
0.4892578125311991 1:585 2:719 
0.4890686811630409 1:805 2:838 
0.4882812500563596 1:877 2:864 
0.4882812500563596 1:909 2:877 
0.4882812500563596 1:920 2:878 
0.4890896404147832 1:463 2:568 
0.4882812500563596 1:679 2:769 
0.4892578125372377 1:798 2:824 
0.4892578125372377 1:869 2:851 
0.4890377755410696 1:904 2:867 
0.4890896404147833 1:439 2:389 
0.4889539385341002 1:592 2:712 
0.4892578125372377 1:760 2:817 
0.4892578125372377 1:834 2:846 
0.4889214682923289 1:874 2:861 
0.4892578125311991 1:448 2:463 
0.4892578125311991 1:722 2:804 
0.4892578125372377 1:828 2:848 
0.489257812531199 1:877 2:868 
0.4892578125372377 1:903 2:877 
-0.5 1:302 2:43 
-0.5 1:301 2:40 
-0.5 1:298 2:43 
-0.5 1:299 2:46 
-0.5 1:301 2:53 
-0.5 1:285 2:54 
-0.5 1:285 2:53 
-0.5 1:282 2:53 
-0.5 1:283 2:52 
-0.5 1:284 2:53 
-0.5 1:272 2:55 
-0.5 1:272 2:55 
-0.5 1:271 2:54 
-0.5 1:272 2:54 
-0.5 1:272 2:55 
-0.5 1:256 2:48 
-0.5 1:257 2:48 
-0.5 1:257 2:50 
-0.5 1:258 2:54 
-0.5 1:260 2:56 
-0.001920654736087324 1:258 2:52 
-0.5 1:258 2:52 
-0.5 1:258 2:52 
-0.5 1:258 2:52 
-0.5 1:258 2:53 
-0.5 1:244 2:46 
-0.5 1:247 2:45 
-0.5 1:246 2:47 
-0.5 1:248 2:50 
-0.5 1:249 2:53 
-0.5 1:242 2:44 
-0.5 1:243 2:44 
-0.5 1:242 2:45 
-0.5 1:242 2:46 
-0.5 1:243 2:47 
-0.5 1:244 2:45 
-0.5 1:243 2:44 
-0.5 1:244 2:46 
-0.5 1:243 2:45 
-0.5 1:245 2:47 
-0.5 1:239 2:42 
-0.5 1:237 2:43 
-0.5 1:238 2:43 
-0.5 1:237 2:44 
-0.5 1:239 2:46 
