svm_type c_svc
kernel_type rbf
gamma 0.125
nr_class 2
total_sv 378
rho 0
label 1 -1
nr_sv 189 189
SV
0.125 1:301 2:65 
0.125 1:301 2:64 
0.125 1:300 2:62 
0.125 1:298 2:61 
0.125 1:294 2:58 
0.125 1:292 2:57 
0.125 1:292 2:56 
0.125 1:291 2:55 
0.125 1:289 2:55 
0.125 1:287 2:54 
0.125 1:285 2:53 
0.125 1:283 2:52 
0.125 1:282 2:51 
0.125 1:282 2:51 
0.125 1:281 2:50 
0.125 1:280 2:49 
0.125 1:279 2:49 
0.125 1:277 2:48 
0.125 1:278 2:48 
0.125 1:277 2:48 
0.125 1:276 2:47 
0.125 1:289 2:74 
0.125 1:286 2:72 
0.125 1:283 2:71 
0.125 1:281 2:68 
0.125 1:280 2:68 
0.125 1:279 2:67 
0.125 1:278 2:65 
0.125 1:276 2:64 
0.125 1:274 2:63 
0.125 1:272 2:62 
0.125 1:272 2:61 
0.125 1:273 2:60 
0.125 1:270 2:60 
0.125 1:270 2:59 
0.125 1:267 2:59 
0.125 1:265 2:58 
0.125 1:267 2:58 
0.125 1:265 2:57 
0.125 1:263 2:57 
0.125 1:265 2:57 
0.125 1:265 2:56 
0.125 1:284 2:75 
0.125 1:282 2:74 
0.125 1:280 2:72 
0.125 1:280 2:71 
0.125 1:276 2:69 
0.125 1:275 2:67 
0.125 1:272 2:65 
0.125 1:269 2:63 
0.125 1:267 2:61 
0.125 1:265 2:59 
0.125 1:262 2:57 
0.125 1:260 2:56 
0.125 1:257 2:55 
0.125 1:257 2:54 
0.125 1:255 2:52 
0.125 1:254 2:50 
0.125 1:253 2:50 
0.125 1:251 2:49 
0.125 1:250 2:50 
0.125 1:249 2:48 
0.125 1:247 2:48 
0.125 1:271 2:67 
0.125 1:269 2:65 
0.125 1:268 2:64 
0.125 1:266 2:63 
0.125 1:265 2:61 
0.125 1:263 2:60 
0.125 1:260 2:59 
0.125 1:261 2:59 
0.125 1:260 2:58 
0.125 1:257 2:57 
0.125 1:258 2:57 
0.125 1:254 2:56 
0.125 1:254 2:55 
0.125 1:253 2:55 
0.125 1:254 2:54 
0.125 1:252 2:54 
0.125 1:250 2:54 
0.125 1:250 2:52 
0.125 1:249 2:53 
0.125 1:249 2:52 
0.125 1:247 2:53 
0.125 1:260 2:58 
0.125 1:256 2:56 
0.125 1:255 2:54 
0.125 1:255 2:54 
0.125 1:253 2:53 
0.125 1:251 2:52 
0.125 1:248 2:51 
0.125 1:247 2:50 
0.125 1:247 2:50 
0.125 1:245 2:48 
0.125 1:243 2:48 
0.125 1:242 2:47 
0.125 1:240 2:47 
0.125 1:242 2:47 
0.125 1:239 2:45 
0.125 1:239 2:45 
0.125 1:238 2:46 
0.125 1:236 2:45 
0.125 1:235 2:46 
0.125 1:235 2:44 
0.125 1:233 2:44 
0.125 1:247 2:49 
0.125 1:245 2:49 
0.125 1:244 2:48 
0.125 1:242 2:47 
0.125 1:239 2:46 
0.125 1:240 2:45 
0.125 1:237 2:45 
0.125 1:236 2:44 
0.125 1:233 2:43 
0.125 1:233 2:43 
0.125 1:234 2:43 
0.125 1:231 2:42 
0.125 1:229 2:42 
0.125 1:228 2:41 
0.125 1:227 2:41 
0.125 1:227 2:40 
0.125 1:228 2:40 
0.125 1:226 2:40 
0.125 1:226 2:40 
0.125 1:225 2:39 
0.125 1:223 2:39 
0.125 1:279 2:78 
0.125 1:279 2:77 
0.125 1:280 2:78 
0.125 1:281 2:78 
0.125 1:279 2:77 
0.125 1:280 2:76 
0.125 1:280 2:78 
0.125 1:281 2:76 
0.125 1:279 2:77 
0.125 1:279 2:77 
0.125 1:284 2:81 
0.125 1:283 2:80 
0.125 1:280 2:78 
0.125 1:276 2:75 
0.125 1:273 2:71 
0.125 1:268 2:67 
0.125 1:264 2:62 
0.125 1:260 2:59 
0.125 1:256 2:56 
0.125 1:253 2:53 
0.125 1:250 2:52 
0.125 1:250 2:49 
0.125 1:248 2:49 
0.125 1:245 2:48 
0.125 1:244 2:46 
0.125 1:242 2:46 
0.125 1:239 2:44 
0.125 1:239 2:44 
0.125 1:238 2:44 
0.125 1:236 2:44 
0.125 1:234 2:43 
0.125 1:234 2:42 
0.125 1:234 2:42 
0.125 1:232 2:42 
0.125 1:229 2:42 
0.125 1:230 2:41 
0.125 1:229 2:40 
0.125 1:228 2:40 
0.125 1:227 2:40 
0.125 1:227 2:40 
0.125 1:226 2:39 
0.125 1:226 2:39 
0.125 1:260 2:54 
0.125 1:257 2:51 
0.125 1:253 2:49 
0.125 1:249 2:47 
0.125 1:246 2:47 
0.125 1:243 2:44 
0.125 1:242 2:44 
0.125 1:240 2:43 
0.125 1:238 2:42 
0.125 1:236 2:42 
0.125 1:234 2:41 
0.125 1:233 2:40 
0.125 1:232 2:39 
0.125 1:229 2:39 
0.125 1:228 2:39 
0.125 1:227 2:39 
0.125 1:227 2:39 
0.125 1:226 2:37 
0.125 1:224 2:37 
0.125 1:222 2:37 
0.125 1:223 2:38 
-0.125 1:301 2:65 
-0.125 1:301 2:64 
-0.125 1:300 2:62 
-0.125 1:298 2:61 
-0.125 1:294 2:58 
-0.125 1:292 2:57 
-0.125 1:292 2:56 
-0.125 1:291 2:55 
-0.125 1:289 2:55 
-0.125 1:287 2:54 
-0.125 1:285 2:53 
-0.125 1:283 2:52 
-0.125 1:282 2:51 
-0.125 1:282 2:51 
-0.125 1:281 2:50 
-0.125 1:280 2:49 
-0.125 1:279 2:49 
-0.125 1:277 2:48 
-0.125 1:278 2:48 
-0.125 1:277 2:48 
-0.125 1:276 2:47 
-0.125 1:289 2:74 
-0.125 1:286 2:72 
-0.125 1:283 2:71 
-0.125 1:281 2:68 
-0.125 1:280 2:68 
-0.125 1:279 2:67 
-0.125 1:278 2:65 
-0.125 1:276 2:64 
-0.125 1:274 2:63 
-0.125 1:272 2:62 
-0.125 1:272 2:61 
-0.125 1:273 2:60 
-0.125 1:270 2:60 
-0.125 1:270 2:59 
-0.125 1:267 2:59 
-0.125 1:265 2:58 
-0.125 1:267 2:58 
-0.125 1:265 2:57 
-0.125 1:263 2:57 
-0.125 1:265 2:57 
-0.125 1:265 2:56 
-0.125 1:284 2:75 
-0.125 1:282 2:74 
-0.125 1:280 2:72 
-0.125 1:280 2:71 
-0.125 1:276 2:69 
-0.125 1:275 2:67 
-0.125 1:272 2:65 
-0.125 1:269 2:63 
-0.125 1:267 2:61 
-0.125 1:265 2:59 
-0.125 1:262 2:57 
-0.125 1:260 2:56 
-0.125 1:257 2:55 
-0.125 1:257 2:54 
-0.125 1:255 2:52 
-0.125 1:254 2:50 
-0.125 1:253 2:50 
-0.125 1:251 2:49 
-0.125 1:250 2:50 
-0.125 1:249 2:48 
-0.125 1:247 2:48 
-0.125 1:271 2:67 
-0.125 1:269 2:65 
-0.125 1:268 2:64 
-0.125 1:266 2:63 
-0.125 1:265 2:61 
-0.125 1:263 2:60 
-0.125 1:260 2:59 
-0.125 1:261 2:59 
-0.125 1:260 2:58 
-0.125 1:257 2:57 
-0.125 1:258 2:57 
-0.125 1:254 2:56 
-0.125 1:254 2:55 
-0.125 1:253 2:55 
-0.125 1:254 2:54 
-0.125 1:252 2:54 
-0.125 1:250 2:54 
-0.125 1:250 2:52 
-0.125 1:249 2:53 
-0.125 1:249 2:52 
-0.125 1:247 2:53 
-0.125 1:260 2:58 
-0.125 1:256 2:56 
-0.125 1:255 2:54 
-0.125 1:255 2:54 
-0.125 1:253 2:53 
-0.125 1:251 2:52 
-0.125 1:248 2:51 
-0.125 1:247 2:50 
-0.125 1:247 2:50 
-0.125 1:245 2:48 
-0.125 1:243 2:48 
-0.125 1:242 2:47 
-0.125 1:240 2:47 
-0.125 1:242 2:47 
-0.125 1:239 2:45 
-0.125 1:239 2:45 
-0.125 1:238 2:46 
-0.125 1:236 2:45 
-0.125 1:235 2:46 
-0.125 1:235 2:44 
-0.125 1:233 2:44 
-0.125 1:247 2:49 
-0.125 1:245 2:49 
-0.125 1:244 2:48 
-0.125 1:242 2:47 
-0.125 1:239 2:46 
-0.125 1:240 2:45 
-0.125 1:237 2:45 
-0.125 1:236 2:44 
-0.125 1:233 2:43 
-0.125 1:233 2:43 
-0.125 1:234 2:43 
-0.125 1:231 2:42 
-0.125 1:229 2:42 
-0.125 1:228 2:41 
-0.125 1:227 2:41 
-0.125 1:227 2:40 
-0.125 1:228 2:40 
-0.125 1:226 2:40 
-0.125 1:226 2:40 
-0.125 1:225 2:39 
-0.125 1:223 2:39 
-0.125 1:279 2:78 
-0.125 1:279 2:77 
-0.125 1:280 2:78 
-0.125 1:281 2:78 
-0.125 1:279 2:77 
-0.125 1:280 2:76 
-0.125 1:280 2:78 
-0.125 1:281 2:76 
-0.125 1:279 2:77 
-0.125 1:279 2:77 
-0.125 1:284 2:81 
-0.125 1:283 2:80 
-0.125 1:280 2:78 
-0.125 1:276 2:75 
-0.125 1:273 2:71 
-0.125 1:268 2:67 
-0.125 1:264 2:62 
-0.125 1:260 2:59 
-0.125 1:256 2:56 
-0.125 1:253 2:53 
-0.125 1:250 2:52 
-0.125 1:250 2:49 
-0.125 1:248 2:49 
-0.125 1:245 2:48 
-0.125 1:244 2:46 
-0.125 1:242 2:46 
-0.125 1:239 2:44 
-0.125 1:239 2:44 
-0.125 1:238 2:44 
-0.125 1:236 2:44 
-0.125 1:234 2:43 
-0.125 1:234 2:42 
-0.125 1:234 2:42 
-0.125 1:232 2:42 
-0.125 1:229 2:42 
-0.125 1:230 2:41 
-0.125 1:229 2:40 
-0.125 1:228 2:40 
-0.125 1:227 2:40 
-0.125 1:227 2:40 
-0.125 1:226 2:39 
-0.125 1:226 2:39 
-0.125 1:260 2:54 
-0.125 1:257 2:51 
-0.125 1:253 2:49 
-0.125 1:249 2:47 
-0.125 1:246 2:47 
-0.125 1:243 2:44 
-0.125 1:242 2:44 
-0.125 1:240 2:43 
-0.125 1:238 2:42 
-0.125 1:236 2:42 
-0.125 1:234 2:41 
-0.125 1:233 2:40 
-0.125 1:232 2:39 
-0.125 1:229 2:39 
-0.125 1:228 2:39 
-0.125 1:227 2:39 
-0.125 1:227 2:39 
-0.125 1:226 2:37 
-0.125 1:224 2:37 
-0.125 1:222 2:37 
-0.125 1:223 2:38 
