svm_type c_svc
kernel_type rbf
gamma 0.25
nr_class 2
total_sv 378
rho 0
label 1 -1
nr_sv 189 189
SV
1 1:301 2:65 
1 1:301 2:64 
1 1:300 2:62 
1 1:298 2:61 
1 1:294 2:58 
1 1:292 2:57 
1 1:292 2:56 
1 1:291 2:55 
1 1:289 2:55 
1 1:287 2:54 
1 1:285 2:53 
1 1:283 2:52 
1 1:282 2:51 
1 1:282 2:51 
1 1:281 2:50 
1 1:280 2:49 
1 1:279 2:49 
1 1:277 2:48 
1 1:278 2:48 
1 1:277 2:48 
1 1:276 2:47 
1 1:289 2:74 
1 1:286 2:72 
1 1:283 2:71 
1 1:281 2:68 
1 1:280 2:68 
1 1:279 2:67 
1 1:278 2:65 
1 1:276 2:64 
1 1:274 2:63 
1 1:272 2:62 
1 1:272 2:61 
1 1:273 2:60 
1 1:270 2:60 
1 1:270 2:59 
1 1:267 2:59 
1 1:265 2:58 
1 1:267 2:58 
1 1:265 2:57 
1 1:263 2:57 
1 1:265 2:57 
1 1:265 2:56 
1 1:284 2:75 
1 1:282 2:74 
1 1:280 2:72 
1 1:280 2:71 
1 1:276 2:69 
1 1:275 2:67 
1 1:272 2:65 
1 1:269 2:63 
1 1:267 2:61 
1 1:265 2:59 
1 1:262 2:57 
1 1:260 2:56 
1 1:257 2:55 
1 1:257 2:54 
1 1:255 2:52 
1 1:254 2:50 
1 1:253 2:50 
1 1:251 2:49 
1 1:250 2:50 
1 1:249 2:48 
1 1:247 2:48 
1 1:271 2:67 
1 1:269 2:65 
1 1:268 2:64 
1 1:266 2:63 
1 1:265 2:61 
1 1:263 2:60 
1 1:260 2:59 
1 1:261 2:59 
1 1:260 2:58 
1 1:257 2:57 
1 1:258 2:57 
1 1:254 2:56 
1 1:254 2:55 
1 1:253 2:55 
1 1:254 2:54 
1 1:252 2:54 
1 1:250 2:54 
1 1:250 2:52 
1 1:249 2:53 
1 1:249 2:52 
1 1:247 2:53 
1 1:260 2:58 
1 1:256 2:56 
1 1:255 2:54 
1 1:255 2:54 
1 1:253 2:53 
1 1:251 2:52 
1 1:248 2:51 
1 1:247 2:50 
1 1:247 2:50 
1 1:245 2:48 
1 1:243 2:48 
1 1:242 2:47 
1 1:240 2:47 
1 1:242 2:47 
1 1:239 2:45 
1 1:239 2:45 
1 1:238 2:46 
1 1:236 2:45 
1 1:235 2:46 
1 1:235 2:44 
1 1:233 2:44 
1 1:247 2:49 
1 1:245 2:49 
1 1:244 2:48 
1 1:242 2:47 
1 1:239 2:46 
1 1:240 2:45 
1 1:237 2:45 
1 1:236 2:44 
1 1:233 2:43 
1 1:233 2:43 
1 1:234 2:43 
1 1:231 2:42 
1 1:229 2:42 
1 1:228 2:41 
1 1:227 2:41 
1 1:227 2:40 
1 1:228 2:40 
1 1:226 2:40 
1 1:226 2:40 
1 1:225 2:39 
1 1:223 2:39 
1 1:279 2:78 
1 1:279 2:77 
1 1:280 2:78 
1 1:281 2:78 
1 1:279 2:77 
1 1:280 2:76 
1 1:280 2:78 
1 1:281 2:76 
1 1:279 2:77 
1 1:279 2:77 
1 1:284 2:81 
1 1:283 2:80 
1 1:280 2:78 
1 1:276 2:75 
1 1:273 2:71 
1 1:268 2:67 
1 1:264 2:62 
1 1:260 2:59 
1 1:256 2:56 
1 1:253 2:53 
1 1:250 2:52 
1 1:250 2:49 
1 1:248 2:49 
1 1:245 2:48 
1 1:244 2:46 
1 1:242 2:46 
1 1:239 2:44 
1 1:239 2:44 
1 1:238 2:44 
1 1:236 2:44 
1 1:234 2:43 
1 1:234 2:42 
1 1:234 2:42 
1 1:232 2:42 
1 1:229 2:42 
1 1:230 2:41 
1 1:229 2:40 
1 1:228 2:40 
1 1:227 2:40 
1 1:227 2:40 
1 1:226 2:39 
1 1:226 2:39 
1 1:260 2:54 
1 1:257 2:51 
1 1:253 2:49 
1 1:249 2:47 
1 1:246 2:47 
1 1:243 2:44 
1 1:242 2:44 
1 1:240 2:43 
1 1:238 2:42 
1 1:236 2:42 
1 1:234 2:41 
1 1:233 2:40 
1 1:232 2:39 
1 1:229 2:39 
1 1:228 2:39 
1 1:227 2:39 
1 1:227 2:39 
1 1:226 2:37 
1 1:224 2:37 
1 1:222 2:37 
1 1:223 2:38 
-1 1:301 2:65 
-1 1:301 2:64 
-1 1:300 2:62 
-1 1:298 2:61 
-1 1:294 2:58 
-1 1:292 2:57 
-1 1:292 2:56 
-1 1:291 2:55 
-1 1:289 2:55 
-1 1:287 2:54 
-1 1:285 2:53 
-1 1:283 2:52 
-1 1:282 2:51 
-1 1:282 2:51 
-1 1:281 2:50 
-1 1:280 2:49 
-1 1:279 2:49 
-1 1:277 2:48 
-1 1:278 2:48 
-1 1:277 2:48 
-1 1:276 2:47 
-1 1:289 2:74 
-1 1:286 2:72 
-1 1:283 2:71 
-1 1:281 2:68 
-1 1:280 2:68 
-1 1:279 2:67 
-1 1:278 2:65 
-1 1:276 2:64 
-1 1:274 2:63 
-1 1:272 2:62 
-1 1:272 2:61 
-1 1:273 2:60 
-1 1:270 2:60 
-1 1:270 2:59 
-1 1:267 2:59 
-1 1:265 2:58 
-1 1:267 2:58 
-1 1:265 2:57 
-1 1:263 2:57 
-1 1:265 2:57 
-1 1:265 2:56 
-1 1:284 2:75 
-1 1:282 2:74 
-1 1:280 2:72 
-1 1:280 2:71 
-1 1:276 2:69 
-1 1:275 2:67 
-1 1:272 2:65 
-1 1:269 2:63 
-1 1:267 2:61 
-1 1:265 2:59 
-1 1:262 2:57 
-1 1:260 2:56 
-1 1:257 2:55 
-1 1:257 2:54 
-1 1:255 2:52 
-1 1:254 2:50 
-1 1:253 2:50 
-1 1:251 2:49 
-1 1:250 2:50 
-1 1:249 2:48 
-1 1:247 2:48 
-1 1:271 2:67 
-1 1:269 2:65 
-1 1:268 2:64 
-1 1:266 2:63 
-1 1:265 2:61 
-1 1:263 2:60 
-1 1:260 2:59 
-1 1:261 2:59 
-1 1:260 2:58 
-1 1:257 2:57 
-1 1:258 2:57 
-1 1:254 2:56 
-1 1:254 2:55 
-1 1:253 2:55 
-1 1:254 2:54 
-1 1:252 2:54 
-1 1:250 2:54 
-1 1:250 2:52 
-1 1:249 2:53 
-1 1:249 2:52 
-1 1:247 2:53 
-1 1:260 2:58 
-1 1:256 2:56 
-1 1:255 2:54 
-1 1:255 2:54 
-1 1:253 2:53 
-1 1:251 2:52 
-1 1:248 2:51 
-1 1:247 2:50 
-1 1:247 2:50 
-1 1:245 2:48 
-1 1:243 2:48 
-1 1:242 2:47 
-1 1:240 2:47 
-1 1:242 2:47 
-1 1:239 2:45 
-1 1:239 2:45 
-1 1:238 2:46 
-1 1:236 2:45 
-1 1:235 2:46 
-1 1:235 2:44 
-1 1:233 2:44 
-1 1:247 2:49 
-1 1:245 2:49 
-1 1:244 2:48 
-1 1:242 2:47 
-1 1:239 2:46 
-1 1:240 2:45 
-1 1:237 2:45 
-1 1:236 2:44 
-1 1:233 2:43 
-1 1:233 2:43 
-1 1:234 2:43 
-1 1:231 2:42 
-1 1:229 2:42 
-1 1:228 2:41 
-1 1:227 2:41 
-1 1:227 2:40 
-1 1:228 2:40 
-1 1:226 2:40 
-1 1:226 2:40 
-1 1:225 2:39 
-1 1:223 2:39 
-1 1:279 2:78 
-1 1:279 2:77 
-1 1:280 2:78 
-1 1:281 2:78 
-1 1:279 2:77 
-1 1:280 2:76 
-1 1:280 2:78 
-1 1:281 2:76 
-1 1:279 2:77 
-1 1:279 2:77 
-1 1:284 2:81 
-1 1:283 2:80 
-1 1:280 2:78 
-1 1:276 2:75 
-1 1:273 2:71 
-1 1:268 2:67 
-1 1:264 2:62 
-1 1:260 2:59 
-1 1:256 2:56 
-1 1:253 2:53 
-1 1:250 2:52 
-1 1:250 2:49 
-1 1:248 2:49 
-1 1:245 2:48 
-1 1:244 2:46 
-1 1:242 2:46 
-1 1:239 2:44 
-1 1:239 2:44 
-1 1:238 2:44 
-1 1:236 2:44 
-1 1:234 2:43 
-1 1:234 2:42 
-1 1:234 2:42 
-1 1:232 2:42 
-1 1:229 2:42 
-1 1:230 2:41 
-1 1:229 2:40 
-1 1:228 2:40 
-1 1:227 2:40 
-1 1:227 2:40 
-1 1:226 2:39 
-1 1:226 2:39 
-1 1:260 2:54 
-1 1:257 2:51 
-1 1:253 2:49 
-1 1:249 2:47 
-1 1:246 2:47 
-1 1:243 2:44 
-1 1:242 2:44 
-1 1:240 2:43 
-1 1:238 2:42 
-1 1:236 2:42 
-1 1:234 2:41 
-1 1:233 2:40 
-1 1:232 2:39 
-1 1:229 2:39 
-1 1:228 2:39 
-1 1:227 2:39 
-1 1:227 2:39 
-1 1:226 2:37 
-1 1:224 2:37 
-1 1:222 2:37 
-1 1:223 2:38 
