svm_type c_svc
kernel_type rbf
gamma 0.25
nr_class 2
total_sv 460
rho 0.205909
label 1 -1
nr_sv 232 228
SV
0.5 1:908 2:864 
0.5 1:907 2:863 
0.09876877692757673 1:906 2:863 
0.5 1:905 2:863 
0.5 1:905 2:865 
0.5 1:900 2:862 
0.5 1:903 2:864 
0.04637087842679669 1:901 2:863 
0.5 1:901 2:862 
0.5 1:896 2:858 
0.03290124249916274 1:895 2:858 
0.3962527988658598 1:896 2:859 
0.5 1:893 2:856 
0.3741515960747077 1:894 2:858 
0.06261531519611677 1:894 2:859 
0.3891370439475836 1:892 2:857 
0.5 1:900 2:864 
0.5 1:896 2:861 
0.3835361029391863 1:897 2:865 
0.3866551601964383 1:892 2:859 
0.4149463635425111 1:894 2:861 
0.4127396571255038 1:896 2:863 
0.5 1:897 2:865 
0.427509445033514 1:887 2:855 
0.2920248352012968 1:890 2:859 
0.3722618674928754 1:890 2:857 
0.5 1:889 2:856 
0.4969200522915284 1:887 2:855 
0.4794285864295216 1:892 2:861 
0.5 1:933 2:887 
0.5 1:936 2:890 
0.5 1:936 2:890 
0.4160780665975571 1:925 2:882 
0.1998467427524192 1:926 2:883 
0.00326289417818344 1:932 2:891 
0.1490220282772344 1:933 2:891 
0.4064858370142624 1:920 2:882 
0.1530064512118395 1:918 2:884 
0.05077084763241264 1:925 2:890 
0.1360899393591907 1:921 2:886 
0.170229348255929 1:895 2:865 
0.1226751240225134 1:890 2:860 
0.1343520307235847 1:889 2:860 
0.5 1:891 2:863 
0.4247574463592806 1:894 2:865 
0.2769157462582504 1:893 2:865 
0.159519566810991 1:888 2:860 
0.05398383000942124 1:884 2:858 
0.5 1:883 2:857 
0.4773092430026415 1:885 2:860 
0.3727828901006685 1:889 2:862 
0.1978736161963522 1:889 2:864 
0.06320540711921685 1:883 2:858 
0.5 1:881 2:857 
0.09229129077356193 1:882 2:858 
0.3366004887619303 1:883 2:860 
0.2484998744087004 1:887 2:864 
0.05282649259615318 1:884 2:861 
0.3343729177107366 1:880 2:857 
0.1571318014854226 1:883 2:862 
0.1686396698699753 1:878 2:857 
0.5 1:878 2:857 
0.3215785095649039 1:880 2:861 
0.5 1:875 2:856 
0.5 1:876 2:858 
0.5 1:879 2:860 
0.0699379405520042 1:932 2:887 
0.08390820242052649 1:930 2:887 
0.1653089906459572 1:928 2:885 
0.05628011963622524 1:928 2:886 
0.2532704922118443 1:926 2:884 
0.4200867873483777 1:922 2:882 
0.009833318342821779 1:923 2:884 
0.3220576701401488 1:925 2:885 
0.201579391157801 1:924 2:886 
0.05554516839829195 1:922 2:883 
0.02089561961371047 1:915 2:878 
0.1963335141543629 1:918 2:882 
0.2974764815369156 1:922 2:886 
0.2971661692269467 1:916 2:880 
0.04718153921834018 1:917 2:880 
0.2915471528339536 1:918 2:881 
0.5 1:913 2:878 
0.1595715177566077 1:911 2:876 
0.2552266874236679 1:916 2:883 
0.2138872454443025 1:917 2:883 
0.03068465087672747 1:919 2:883 
0.3745401990872497 1:894 2:863 
0.02677104208151072 1:897 2:864 
0.01596961001093265 1:888 2:859 
0.1464047699451504 1:890 2:861 
0.3094181702229549 1:888 2:858 
0.007015154624849225 1:889 2:859 
0.2394801685775528 1:886 2:858 
0.5 1:885 2:857 
0.2089078641541966 1:887 2:861 
0.2646598876120288 1:887 2:859 
0.0009098315033019139 1:886 2:860 
0.4382682660375559 1:890 2:865 
0.5 1:892 2:867 
0.4200507924490524 1:891 2:866 
0.3168345922166255 1:887 2:862 
0.09521153607774026 1:888 2:864 
0.287503931423083 1:885 2:862 
0.5 1:887 2:865 
0.06600075669897128 1:886 2:863 
0.01454953336264358 1:880 2:859 
0.2694460457434014 1:882 2:860 
0.4279908564939328 1:884 2:864 
0.4826006061568555 1:884 2:864 
0.5 1:881 2:862 
0.1286575778631046 1:876 2:856 
0.5 1:875 2:855 
0.2533292790654375 1:879 2:859 
0.1889152299091607 1:882 2:862 
0.5 1:929 2:880 
0.2424195283638662 1:928 2:881 
0.5 1:927 2:880 
0.08647902220000034 1:926 2:880 
0.01538127475247026 1:927 2:882 
0.5 1:923 2:878 
0.5 1:919 2:875 
0.5 1:921 2:877 
0.3212333667967776 1:924 2:881 
0.5 1:925 2:879 
0.05808007177164439 1:923 2:880 
0.1029986971698345 1:923 2:879 
0.3348881825242505 1:920 2:876 
0.3251922859298018 1:918 2:875 
0.02851035255371425 1:921 2:878 
0.1595782561955968 1:921 2:880 
0.4251938439228722 1:916 2:875 
0.2492235725822012 1:922 2:880 
0.1069860964180494 1:919 2:879 
0.1774304254160565 1:918 2:877 
0.5 1:915 2:875 
0.139075541125403 1:920 2:880 
0.2766873847282916 1:920 2:879 
0.4060044148520643 1:918 2:879 
0.01931772746973157 1:913 2:874 
0.4018693499858781 1:912 2:873 
0.2766109589678916 1:917 2:877 
0.5 1:915 2:878 
0.1068970319413266 1:916 2:878 
0.5 1:913 2:874 
0.5 1:911 2:872 
0.5 1:911 2:875 
0.5 1:931 2:883 
0.5 1:932 2:885 
0.2726420516614544 1:930 2:884 
0.5 1:928 2:883 
0.09148877932414744 1:929 2:884 
0.06644950112951017 1:931 2:887 
0.06793057253443319 1:931 2:886 
0.1521429758038396 1:930 2:886 
0.1396316125430477 1:933 2:889 
0.4724064448397455 1:933 2:889 
0.5 1:934 2:892 
0.3268376375390987 1:933 2:893 
0.5 1:931 2:891 
0.1114171681853638 1:927 2:888 
0.4767831701080835 1:923 2:884 
0.04263759254993243 1:927 2:887 
0.179594450082704 1:929 2:890 
0.4152058569135476 1:929 2:892 
0.05752813925778583 1:927 2:889 
0.4988294879233387 1:925 2:890 
0.1823685811174616 1:919 2:885 
0.1624190337986283 1:924 2:889 
0.4638864860162729 1:915 2:881 
0.2468390880330866 1:929 2:886 
0.007135385207182731 1:929 2:888 
0.3404789552744809 1:927 2:886 
0.1599898915321433 1:928 2:888 
0.2764842795693019 1:928 2:889 
0.004762842863911064 1:926 2:886 
0.2393861470119739 1:926 2:888 
0.05871043193244985 1:923 2:886 
0.09708821353089522 1:921 2:884 
0.2150180980407076 1:920 2:884 
0.1702328106648436 1:921 2:885 
0.04960382084950233 1:917 2:882 
0.2244772756153714 1:912 2:879 
0.4572032245746757 1:911 2:877 
0.2155513294131569 1:913 2:881 
0.5 1:917 2:886 
0.3428784677311789 1:916 2:885 
0.2722351279543986 1:912 2:880 
0.5 1:908 2:877 
0.1502118481894095 1:914 2:884 
0.06941222174555009 1:909 2:879 
0.2741139558580908 1:909 2:878 
0.1573702575801359 1:907 2:878 
0.1957667434605566 1:910 2:880 
0.1051134964714305 1:909 2:880 
0.5 1:905 2:878 
0.5 1:909 2:881 
0.5 1:907 2:879 
0.3620318799492629 1:930 2:888 
0.1797671577491683 1:931 2:889 
0.1149379282011664 1:930 2:890 
0.5 1:936 2:895 
0.1697367777289344 1:932 2:894 
0.2179009688392758 1:932 2:893 
0.5 1:934 2:896 
0.2761573850262749 1:925 2:887 
0.05016759696444287 1:924 2:888 
0.5 1:931 2:895 
0.5 1:931 2:896 
0.5 1:928 2:893 
0.4778396631702631 1:927 2:891 
0.3844221313600574 1:923 2:888 
0.03796685948509392 1:922 2:887 
0.1601685099760155 1:919 2:884 
0.3620707951428668 1:920 2:888 
0.5 1:919 2:887 
0.05759589200435203 1:922 2:890 
0.5 1:925 2:893 
0.01875654648557363 1:921 2:889 
0.5 1:922 2:891 
0.5 1:923 2:892 
0.5 1:921 2:889 
0.3764133108176019 1:914 2:883 
0.278087720639473 1:914 2:885 
0.4747843996166558 1:912 2:882 
0.3283606944025422 1:910 2:882 
0.2891867938874922 1:911 2:885 
0.432900422758074 1:913 2:886 
0.5 1:915 2:888 
0.5 1:911 2:885 
0.5 1:913 2:888 
0.5 1:909 2:884 
-0.4156340702272499 1:866 2:807 
-0.3878629064659949 1:867 2:808 
-0.5 1:872 2:814 
-0.5 1:868 2:811 
-0.2295175485582633 1:866 2:810 
-0.3702783798021499 1:864 2:808 
-0.4476660522430322 1:862 2:808 
-0.2151516904390683 1:866 2:812 
-0.4426687060149225 1:867 2:814 
-0.07414757075570462 1:867 2:813 
-0.3986702163826341 1:864 2:811 
-0.01629865910214336 1:863 2:811 
-0.1428041517035039 1:861 2:809 
-0.5 1:859 2:807 
-0.2037502830402031 1:860 2:810 
-0.5 1:857 2:806 
-0.198315936248107 1:862 2:811 
-0.1736830084244352 1:863 2:813 
-0.1160289867197427 1:864 2:814 
-0.2761642556595105 1:864 2:815 
-0.5 1:866 2:816 
-0.1857340908944958 1:861 2:812 
-0.3005945400133284 1:859 2:811 
-0.5 1:856 2:809 
-0.1190033034990726 1:858 2:809 
-0.1927053065040215 1:861 2:813 
-0.1369625025704632 1:863 2:815 
-0.08421223853355757 1:861 2:815 
-0.5 1:861 2:815 
-0.4796076334488661 1:857 2:811 
-0.5 1:782 2:729 
-0.5 1:779 2:731 
-0.5 1:775 2:730 
-0.5 1:771 2:729 
-0.5 1:774 2:733 
-0.3712456291153473 1:772 2:731 
-0.04684432637015248 1:770 2:729 
-0.49025916589729 1:768 2:728 
-0.5 1:765 2:725 
-0.3194831490603076 1:766 2:727 
-0.4407214387743216 1:771 2:733 
-0.2114690704827273 1:769 2:730 
-0.3138113488588881 1:763 2:725 
-0.07244164710596675 1:765 2:727 
-0.1549778208472168 1:762 2:725 
-0.4265789224959736 1:769 2:733 
-0.1739315831944994 1:761 2:725 
-0.1979074016806909 1:768 2:732 
-0.3016512621757262 1:766 2:730 
-0.1739585524241673 1:760 2:726 
-0.2905400497874441 1:767 2:731 
-0.178157831902082 1:765 2:729 
-0.0296907287845885 1:764 2:728 
-0.4988338152095222 1:763 2:729 
-0.172480649726772 1:762 2:728 
-0.3168616805777668 1:761 2:727 
-0.2542472586739695 1:759 2:725 
-0.5 1:758 2:724 
-0.1559122619114773 1:645 2:591 
-0.008897701450082082 1:644 2:595 
-0.005924902180479758 1:646 2:598 
-0.003595145771090977 1:647 2:602 
-0.00563898442954227 1:644 2:598 
-0.02284354077046465 1:644 2:600 
-0.002206651337589779 1:641 2:599 
-0.05628277686525623 1:643 2:603 
-0.4958008972939396 1:645 2:591 
-0.427156047726081 1:643 2:592 
-0.4507157327312322 1:643 2:594 
-0.492190755958737 1:646 2:596 
-0.1203640297080862 1:644 2:595 
-0.2027727006986414 1:644 2:596 
-0.3284776305893145 1:646 2:598 
-0.09841692900210029 1:648 2:601 
-0.166778890018471 1:650 2:603 
-0.460945272091988 1:650 2:603 
-0.001535607671051613 1:647 2:602 
-0.4842507265556354 1:648 2:601 
-0.3061226373161115 1:644 2:598 
-0.3063642957669143 1:645 2:600 
-0.05682632064427692 1:648 2:605 
-0.05649705639981142 1:647 2:602 
-0.08030342050348159 1:644 2:600 
-0.5 1:648 2:605 
-0.2415897687799938 1:645 2:602 
-0.1421949186743218 1:641 2:599 
-0.4648392142506069 1:646 2:604 
-0.5 1:643 2:603 
-0.5 1:641 2:599 
-0.3619385777530943 1:642 2:601 
-0.5 1:425 2:386 
-0.5 1:429 2:390 
-0.5 1:430 2:393 
-0.3388322683590004 1:431 2:394 
-0.4932573932244354 1:432 2:396 
-0.5 1:432 2:398 
-0.5 1:434 2:401 
-0.4208797216883178 1:436 2:403 
-0.4888295680461698 1:437 2:404 
-0.5 1:436 2:407 
-0.5 1:439 2:408 
-0.5 1:440 2:410 
-0.450149477973478 1:443 2:414 
-0.2564639357913942 1:442 2:414 
-0.5 1:442 2:416 
-0.5 1:445 2:419 
-0.5 1:447 2:423 
-0.5 1:449 2:424 
-0.5 1:452 2:427 
-0.5 1:451 2:429 
-0.4588939027315602 1:454 2:432 
-0.3620217652623617 1:455 2:432 
-0.002792587145292388 1:455 2:435 
-0.4100091514972026 1:456 2:435 
-0.3762674640168976 1:455 2:435 
-0.5 1:457 2:438 
-0.3763397408155211 1:458 2:440 
-0.427808605746977 1:459 2:441 
-0.3461471036266637 1:460 2:443 
-0.5 1:461 2:444 
-0.5 1:461 2:447 
-0.5 1:465 2:450 
-0.3754153097617817 1:467 2:452 
-0.2940467739011177 1:466 2:452 
-0.3218270070781696 1:468 2:454 
-0.03820922987978907 1:468 2:456 
-0.2112996353096293 1:467 2:455 
-0.4947330429360655 1:468 2:456 
-0.1519608342811122 1:471 2:459 
-0.5 1:471 2:459 
-0.463081466332749 1:472 2:461 
-0.5 1:473 2:463 
-0.5 1:475 2:465 
-0.08802464112446856 1:477 2:469 
-0.5 1:477 2:468 
-0.5 1:478 2:470 
-0.3359100373228249 1:480 2:472 
-0.1487274228876977 1:479 2:472 
-0.5 1:481 2:474 
-0.4519884034248361 1:479 2:474 
-0.04514137922551169 1:664 2:698 
-0.4028433760808712 1:666 2:700 
-0.422091464969622 1:663 2:696 
-0.5 1:664 2:699 
-0.462887545601157 1:664 2:695 
-0.00442757380771228 1:668 2:701 
-0.4043369094446167 1:668 2:701 
-0.00304744190819578 1:668 2:698 
-0.08434372097100104 1:672 2:703 
-0.01970252239723256 1:671 2:701 
-0.4408226158772392 1:666 2:697 
-0.2974801531865127 1:670 2:700 
-0.2427237656508102 1:670 2:702 
-0.1530078071316834 1:671 2:701 
-0.0974397311385892 1:672 2:702 
-0.1365116804869079 1:669 2:699 
-0.4314355447117528 1:668 2:698 
-0.5 1:672 2:703 
-0.5 1:772 2:780 
-0.5 1:776 2:783 
-0.02263910158648639 1:775 2:783 
-0.02408833531371579 1:774 2:783 
-0.116940176286928 1:771 2:780 
-0.4097663008099324 1:777 2:785 
-0.2820723247023787 1:776 2:786 
-0.1504052794708887 1:774 2:783 
-0.283588478121192 1:769 2:779 
-0.1738868852902919 1:775 2:786 
-0.5 1:773 2:786 
-0.02980736774641804 1:774 2:786 
-0.2969717562484267 1:773 2:782 
-0.08611210637128874 1:771 2:782 
-0.5 1:767 2:778 
-0.253357409787517 1:768 2:780 
-0.4272283784234251 1:772 2:784 
-0.08467290460039574 1:770 2:782 
-0.1238533246567113 1:768 2:778 
-0.5 1:769 2:782 
-0.4761878516633089 1:791 2:791 
-0.1633195559263825 1:791 2:792 
-0.1160851421591139 1:789 2:789 
-0.5 1:789 2:789 
-0.5 1:793 2:794 
-0.5 1:793 2:796 
-0.02232005717947905 1:791 2:794 
-0.2142565836873427 1:789 2:792 
-0.00210715051120997 1:790 2:793 
-0.4332766922192093 1:786 2:789 
-0.01830780118575802 1:790 2:793 
-0.01187952911561435 1:787 2:791 
-0.01514370234902961 1:787 2:790 
-0.03569802514634387 1:790 2:795 
-0.5 1:790 2:795 
-0.2115740968055043 1:787 2:791 
-0.000979941558208728 1:785 2:791 
-0.374095805455938 1:788 2:794 
-0.4581757411335737 1:783 2:789 
-0.34497488149672 1:784 2:788 
-0.5 1:785 2:792 
-0.2384271918938124 1:787 2:793 
-0.09796146205938555 1:784 2:790 
-0.4590528789090708 1:861 2:838 
-0.4487940967940324 1:858 2:836 
-0.4592704624293467 1:860 2:836 
-0.1462469591045058 1:864 2:842 
-0.1955120524782213 1:861 2:840 
-0.5 1:864 2:842 
-0.2724191611792127 1:861 2:841 
-0.3181770302244486 1:862 2:842 
-0.0355056940159762 1:859 2:839 
-0.1492133761532911 1:858 2:839 
-0.1754096450461317 1:859 2:839 
-0.3401296129169454 1:855 2:836 
-0.05191074585084383 1:857 2:839 
-0.003289649653393328 1:857 2:838 
-0.1720103795729056 1:853 2:835 
-0.3070578116181376 1:854 2:835 
-0.03051799203451579 1:857 2:840 
-0.2615237883333835 1:857 2:838 
-0.01299473524543038 1:857 2:839 
-0.4072895003770141 1:858 2:842 
-0.002032598288936592 1:854 2:838 
-0.5 1:855 2:840 
-0.3594748577847208 1:857 2:842 
-0.2748178139325498 1:854 2:838 
-0.5 1:852 2:839 
-0.3312057868998383 1:852 2:836 
-0.5 1:850 2:835 
