svm_type c_svc
kernel_type rbf
gamma 0.25
nr_class 2
total_sv 577
rho 0.147262
label 1 -1
nr_sv 289 288
SV
0.25 1:908 2:864 
0.25 1:907 2:863 
0.25 1:906 2:863 
0.25 1:905 2:863 
0.25 1:905 2:864 
0.1837354980973913 1:906 2:864 
0.25 1:905 2:865 
0.25 1:900 2:862 
0.1192750187904227 1:901 2:863 
0.25 1:903 2:864 
0.2424705060089613 1:900 2:863 
0.25 1:901 2:863 
0.25 1:901 2:862 
0.25 1:896 2:858 
0.25 1:895 2:858 
0.25 1:896 2:859 
0.25 1:893 2:856 
0.2013588419094362 1:893 2:858 
0.25 1:894 2:858 
0.06095907311421391 1:894 2:859 
0.25 1:892 2:857 
0.25 1:900 2:864 
0.25 1:896 2:861 
0.09134583136434245 1:895 2:861 
0.25 1:897 2:865 
0.1943472440699397 1:892 2:859 
0.2131440449357909 1:894 2:861 
0.25 1:896 2:863 
0.25 1:897 2:865 
0.25 1:887 2:855 
0.1854564490205289 1:890 2:859 
0.25 1:890 2:857 
0.25 1:889 2:856 
0.25 1:887 2:855 
0.2311965161256463 1:889 2:857 
0.25 1:892 2:861 
0.04513113685323859 1:891 2:861 
0.05250886243072309 1:892 2:860 
0.25 1:892 2:861 
0.25 1:933 2:887 
0.25 1:936 2:890 
0.25 1:936 2:890 
0.25 1:925 2:882 
0.09156152686042596 1:928 2:886 
0.2330084226022949 1:926 2:883 
0.03420376724213751 1:931 2:890 
0.25 1:933 2:891 
0.2238316286883837 1:920 2:882 
0.01047211411414757 1:927 2:888 
0.07893233203884312 1:920 2:882 
0.0929607728506721 1:927 2:890 
0.02982817343129956 1:920 2:883 
0.0179004369646006 1:924 2:888 
0.25 1:918 2:884 
0.2432460442690312 1:916 2:882 
0.25 1:925 2:890 
0.04203841892269154 1:921 2:886 
0.25 1:895 2:861 
0.1077556548208958 1:897 2:864 
0.1377318164138017 1:894 2:863 
0.1136199247630188 1:896 2:865 
0.08427180515006144 1:895 2:865 
0.25 1:887 2:856 
0.07294749176813936 1:890 2:860 
0.1818642453289724 1:889 2:860 
0.25 1:894 2:865 
0.25 1:891 2:863 
0.25 1:894 2:865 
0.25 1:893 2:865 
0.05827842099943348 1:889 2:862 
0.25 1:884 2:858 
0.25 1:883 2:857 
0.25 1:885 2:860 
0.25 1:889 2:862 
0.25 1:890 2:864 
0.1407115310348804 1:889 2:864 
0.1380849343408812 1:883 2:858 
0.25 1:881 2:857 
0.25 1:882 2:858 
0.1896361402208383 1:883 2:860 
0.25 1:887 2:864 
0.2286256548455804 1:884 2:861 
0.25 1:880 2:857 
0.25 1:878 2:857 
0.25 1:878 2:857 
0.1180455024344989 1:880 2:860 
0.25 1:880 2:861 
0.25 1:876 2:856 
0.25 1:875 2:856 
0.25 1:876 2:858 
0.25 1:879 2:859 
0.25 1:879 2:860 
0.1533875908950577 1:925 2:880 
0.25 1:930 2:884 
0.25 1:932 2:887 
0.03660828685603726 1:930 2:887 
0.2208893366746665 1:928 2:884 
0.1237559896685477 1:928 2:886 
0.009585971265145989 1:926 2:884 
0.1961925334715932 1:926 2:884 
0.1815680414564828 1:921 2:881 
0.25 1:922 2:882 
0.185981526736711 1:923 2:884 
0.04914713809339193 1:922 2:883 
0.06015170907280431 1:925 2:885 
0.25 1:925 2:885 
0.07699698431456893 1:924 2:886 
0.136234212097357 1:922 2:883 
0.25 1:915 2:878 
0.1346779500759598 1:918 2:882 
0.25 1:922 2:886 
0.01995956091316554 1:918 2:881 
0.25 1:916 2:880 
0.1214741462254583 1:917 2:880 
0.25 1:918 2:881 
0.25 1:913 2:878 
0.25 1:911 2:876 
0.2461291719913175 1:917 2:883 
0.1226865138123825 1:919 2:883 
0.25 1:894 2:863 
0.2295539012410097 1:897 2:864 
0.2015405520149386 1:891 2:858 
0.2009403619751184 1:888 2:859 
0.1854360816366046 1:890 2:861 
0.1608992594321773 1:888 2:858 
0.09062417847451959 1:888 2:861 
0.25 1:886 2:858 
0.07311487987625021 1:886 2:859 
0.25 1:885 2:857 
0.25 1:887 2:861 
0.1255866544038133 1:887 2:859 
0.1436109293342046 1:886 2:860 
0.25 1:890 2:865 
0.25 1:892 2:867 
0.25 1:891 2:866 
0.01846728977348759 1:888 2:864 
0.1382112763093249 1:887 2:862 
0.2168804434022793 1:888 2:864 
0.136205965688359 1:885 2:862 
0.25 1:887 2:865 
0.2494803886882761 1:886 2:863 
0.03305791458783324 1:879 2:858 
0.2399305411976635 1:882 2:860 
0.25 1:884 2:864 
0.2243166097611757 1:882 2:862 
0.2332656474672818 1:884 2:863 
0.25 1:884 2:864 
0.25 1:881 2:862 
0.25 1:876 2:856 
0.25 1:875 2:855 
0.195761257342269 1:879 2:859 
0.2444772450770988 1:882 2:862 
0.25 1:929 2:880 
0.25 1:928 2:881 
0.25 1:927 2:880 
0.25 1:926 2:880 
0.187796193658291 1:927 2:882 
0.25 1:923 2:878 
0.25 1:919 2:875 
0.25 1:921 2:877 
0.25 1:924 2:881 
0.25 1:925 2:879 
0.1355114446724638 1:923 2:880 
0.25 1:923 2:879 
0.25 1:920 2:876 
0.2117212535827354 1:919 2:876 
0.25 1:918 2:875 
0.25 1:916 2:875 
0.25 1:921 2:878 
0.05914626188669381 1:921 2:879 
0.028499749528169 1:921 2:880 
0.25 1:916 2:875 
0.1440051209857 1:922 2:880 
0.213469289674652 1:919 2:879 
0.1633146799953017 1:918 2:877 
0.01895002082722236 1:912 2:874 
0.25 1:915 2:875 
0.1769156299459169 1:920 2:880 
0.1095978174583779 1:920 2:879 
0.04107078135999924 1:918 2:879 
0.25 1:918 2:879 
0.25 1:913 2:874 
0.25 1:912 2:873 
0.25 1:912 2:873 
0.25 1:917 2:877 
0.25 1:915 2:878 
0.1401103697524315 1:916 2:878 
0.25 1:913 2:874 
0.25 1:911 2:872 
0.25 1:911 2:875 
0.25 1:931 2:883 
0.25 1:932 2:885 
0.25 1:930 2:884 
0.06666625954625546 1:931 2:886 
0.25 1:928 2:883 
0.006000630099969529 1:929 2:884 
0.2454254864840607 1:931 2:886 
0.25 1:933 2:889 
0.25 1:933 2:889 
0.25 1:934 2:892 
0.25 1:933 2:893 
0.1259251772509386 1:933 2:892 
0.25 1:931 2:891 
0.25 1:927 2:888 
0.1380726711318864 1:930 2:891 
0.25 1:923 2:884 
0.004415144396234727 1:927 2:887 
0.09985048659496136 1:929 2:892 
0.07228228856448127 1:929 2:890 
0.25 1:929 2:892 
0.1143466228475447 1:926 2:890 
0.25 1:925 2:890 
0.25 1:920 2:886 
0.25 1:919 2:885 
0.03150854424972308 1:924 2:889 
0.25 1:915 2:881 
0.2175676301826941 1:929 2:886 
0.04949392279087513 1:932 2:890 
0.2056440439269356 1:929 2:888 
0.2385144149839055 1:927 2:886 
0.25 1:928 2:889 
0.09080054744892088 1:926 2:886 
0.055807553121887 1:924 2:885 
0.1307046335698814 1:926 2:888 
0.1243599542571102 1:923 2:886 
0.1145859264632174 1:921 2:884 
0.1588159503519872 1:920 2:884 
0.08571067986341226 1:921 2:885 
0.236808925579506 1:913 2:879 
0.25 1:912 2:879 
0.25 1:911 2:877 
0.25 1:913 2:881 
0.229407131147741 1:915 2:884 
0.25 1:917 2:886 
0.08404005916638663 1:915 2:883 
0.25 1:916 2:885 
0.1595857832465646 1:912 2:880 
0.25 1:908 2:877 
0.05886593080604201 1:914 2:884 
0.2326130826066068 1:909 2:879 
0.25 1:909 2:878 
0.25 1:907 2:878 
0.08538246056943502 1:910 2:880 
0.25 1:909 2:880 
0.25 1:905 2:878 
0.25 1:909 2:881 
0.25 1:907 2:879 
0.25 1:930 2:888 
0.1934650818507665 1:931 2:889 
0.1434614196650481 1:930 2:890 
0.25 1:936 2:895 
0.25 1:932 2:894 
0.25 1:932 2:893 
0.25 1:934 2:896 
0.2431301928585114 1:925 2:887 
0.2403036706902517 1:924 2:888 
0.08640450258490225 1:928 2:892 
0.25 1:931 2:895 
0.25 1:931 2:896 
0.25 1:928 2:893 
0.25 1:927 2:891 
0.2099975058737516 1:928 2:892 
0.2126820373516914 1:923 2:888 
0.1193601738710837 1:922 2:887 
0.25 1:920 2:888 
0.06330893647933669 1:921 2:889 
0.25 1:919 2:887 
0.1625159409296774 1:922 2:890 
0.25 1:923 2:891 
0.25 1:925 2:893 
0.25 1:921 2:889 
0.25 1:922 2:891 
0.25 1:923 2:892 
0.25 1:921 2:889 
0.25 1:914 2:883 
0.2210955898358833 1:914 2:885 
0.189769590854003 1:912 2:882 
0.25 1:912 2:882 
0.03811044223497131 1:910 2:882 
0.25 1:910 2:882 
0.235768265629697 1:910 2:882 
0.25 1:913 2:886 
0.25 1:911 2:885 
0.25 1:913 2:886 
0.25 1:915 2:888 
0.25 1:911 2:885 
0.1791460342847563 1:912 2:885 
0.25 1:913 2:888 
0.25 1:909 2:884 
-0.25 1:866 2:807 
-0.25 1:867 2:808 
-0.1847113096002982 1:865 2:809 
-0.25 1:872 2:814 
-0.25 1:868 2:811 
-0.237231472855619 1:867 2:811 
-0.1907705173834688 1:866 2:810 
-0.1589013176049274 1:863 2:809 
-0.25 1:864 2:808 
-0.25 1:862 2:808 
-0.1341920444079315 1:866 2:812 
-0.25 1:867 2:814 
-0.25 1:867 2:813 
-0.1123284836853787 1:864 2:811 
-0.25 1:864 2:811 
-0.05149160908048724 1:863 2:811 
-0.25 1:861 2:809 
-0.25 1:859 2:807 
-0.1403829786276611 1:860 2:810 
-0.25 1:857 2:806 
-0.1484559336276018 1:862 2:811 
-0.216673048215569 1:863 2:813 
-0.002556195189826137 1:864 2:814 
-0.25 1:866 2:815 
-0.1137606547557153 1:864 2:814 
-0.25 1:864 2:815 
-0.25 1:866 2:816 
-0.1783150868962592 1:861 2:812 
-0.2061182207229159 1:857 2:809 
-0.25 1:859 2:811 
-0.132004543599116 1:860 2:811 
-0.25 1:856 2:809 
-0.2131294395605291 1:858 2:809 
-0.2076494788639724 1:861 2:813 
-0.1165004794021257 1:861 2:815 
-0.1837167840448512 1:863 2:815 
-0.25 1:861 2:815 
-0.25 1:861 2:815 
-0.09932367578373828 1:857 2:810 
-0.25 1:857 2:811 
-0.25 1:782 2:729 
-0.25 1:779 2:731 
-0.25 1:775 2:730 
-0.25 1:771 2:729 
-0.1229933797989072 1:770 2:729 
-0.25 1:774 2:733 
-0.25 1:772 2:731 
-0.2475257586135872 1:770 2:729 
-0.25 1:771 2:731 
-0.25 1:768 2:728 
-0.25 1:765 2:725 
-0.25 1:766 2:727 
-0.2113675890718382 1:764 2:725 
-0.07540393823522888 1:767 2:729 
-0.25 1:771 2:733 
-0.08763660295758983 1:769 2:730 
-0.03176813250893024 1:768 2:730 
-0.07800917948510781 1:766 2:728 
-0.2010738093512272 1:763 2:725 
-0.1709175653450016 1:765 2:726 
-0.25 1:762 2:725 
-0.01725851083900419 1:766 2:730 
-0.25 1:769 2:733 
-0.06406778939825576 1:766 2:730 
-0.004242251886853993 1:768 2:732 
-0.05412002267163631 1:761 2:725 
-0.1638733981219199 1:768 2:732 
-0.25 1:768 2:732 
-0.25 1:766 2:730 
-0.003937402890201037 1:764 2:728 
-0.2000327072873311 1:760 2:726 
-0.2063683392823727 1:767 2:731 
-0.2162130243486693 1:765 2:729 
-0.1257121575458185 1:764 2:728 
-0.1900585046600279 1:760 2:725 
-0.25 1:763 2:729 
-0.1374370145893071 1:762 2:728 
-0.25 1:762 2:728 
-0.2278222337089025 1:761 2:727 
-0.25 1:759 2:725 
-0.25 1:758 2:724 
-0.25 1:645 2:591 
-0.25 1:643 2:592 
-0.2474837385959046 1:643 2:594 
-0.25 1:646 2:596 
-0.006597208541150219 1:644 2:595 
-0.2238316286883837 1:650 2:603 
-0.00495412130876427 1:647 2:602 
-0.07939652718120739 1:644 2:598 
-0.07549341548630188 1:645 2:600 
-0.001956728316344233 1:648 2:605 
-0.101803796843726 1:648 2:605 
-0.001909991113849389 1:642 2:601 
-0.002230562736965026 1:645 2:603 
-0.25 1:643 2:603 
-0.2349007711091354 1:641 2:599 
-0.25 1:645 2:591 
-0.25 1:643 2:592 
-0.03663012360508253 1:644 2:593 
-0.1992924929327462 1:643 2:594 
-0.25 1:646 2:596 
-0.1415562225340116 1:644 2:595 
-0.2278502258175265 1:644 2:596 
-0.1713937312174748 1:646 2:598 
-0.1991530227284657 1:646 2:598 
-0.186316383550302 1:648 2:601 
-0.25 1:648 2:601 
-0.25 1:650 2:603 
-0.1995105177898619 1:650 2:603 
-0.1932111304927981 1:648 2:601 
-0.25 1:644 2:598 
-0.25 1:645 2:600 
-0.25 1:648 2:605 
-0.0549310880686484 1:647 2:602 
-0.1136320222513259 1:644 2:600 
-0.25 1:648 2:605 
-0.247769437263035 1:646 2:604 
-0.246494834131768 1:645 2:602 
-0.25 1:641 2:599 
-0.1647265799651245 1:642 2:601 
-0.05982140628082585 1:645 2:603 
-0.2255409666602383 1:646 2:604 
-0.25 1:643 2:603 
-0.1997744443648906 1:641 2:599 
-0.25 1:642 2:601 
-0.25 1:425 2:386 
-0.25 1:429 2:390 
-0.25 1:430 2:393 
-0.25 1:431 2:394 
-0.25 1:432 2:396 
-0.25 1:432 2:398 
-0.25 1:434 2:401 
-0.25 1:436 2:403 
-0.25 1:437 2:404 
-0.25 1:436 2:407 
-0.25 1:439 2:408 
-0.25 1:440 2:410 
-0.25 1:443 2:414 
-0.25 1:442 2:414 
-0.25 1:442 2:416 
-0.25 1:445 2:419 
-0.25 1:447 2:423 
-0.25 1:449 2:424 
-0.25 1:452 2:427 
-0.25 1:451 2:429 
-0.25 1:454 2:432 
-0.25 1:455 2:432 
-0.25 1:455 2:435 
-0.25 1:456 2:435 
-0.25 1:455 2:435 
-0.25 1:457 2:438 
-0.25 1:458 2:440 
-0.25 1:459 2:441 
-0.25 1:460 2:443 
-0.25 1:461 2:444 
-0.25 1:461 2:447 
-0.25 1:465 2:450 
-0.25 1:467 2:452 
-0.25 1:466 2:452 
-0.25 1:468 2:454 
-0.25 1:468 2:456 
-0.25 1:467 2:455 
-0.25 1:468 2:456 
-0.25 1:471 2:459 
-0.25 1:471 2:459 
-0.25 1:472 2:461 
-0.25 1:473 2:463 
-0.25 1:475 2:465 
-0.25 1:477 2:469 
-0.25 1:477 2:468 
-0.25 1:478 2:470 
-0.25 1:480 2:472 
-0.25 1:479 2:472 
-0.25 1:481 2:474 
-0.25 1:479 2:474 
-0.25 1:480 2:474 
-0.001062888530261624 1:665 2:699 
-0.25 1:664 2:698 
-0.1416772992372171 1:665 2:699 
-0.25 1:666 2:700 
-0.25 1:663 2:696 
-0.25 1:664 2:699 
-0.25 1:664 2:695 
-0.00174742759149718 1:670 2:702 
-0.2493563873240993 1:668 2:701 
-0.2446952670819827 1:668 2:701 
-0.2478562990610851 1:666 2:697 
-0.01301979032372422 1:670 2:702 
-0.25 1:672 2:703 
-0.2361928217151388 1:666 2:697 
-0.25 1:670 2:700 
-0.25 1:670 2:702 
-0.1875796301437863 1:671 2:701 
-0.2088070876360795 1:672 2:702 
-0.1909024438175908 1:669 2:699 
-0.2490137439188166 1:668 2:698 
-0.205127638117184 1:668 2:698 
-0.25 1:672 2:703 
-0.25 1:772 2:780 
-0.25 1:776 2:783 
-0.25 1:777 2:785 
-0.1164481723925583 1:775 2:783 
-0.25 1:775 2:783 
-0.25 1:771 2:780 
-0.25 1:777 2:785 
-0.09456743351607809 1:772 2:782 
-0.25 1:776 2:786 
-0.03983038830021445 1:774 2:783 
-0.2445212337000597 1:769 2:779 
-0.01447920022158126 1:772 2:784 
-0.1393943507850325 1:775 2:786 
-0.25 1:772 2:784 
-0.25 1:773 2:786 
-0.25 1:774 2:786 
-0.25 1:773 2:782 
-0.1663548849355029 1:768 2:780 
-0.25 1:767 2:778 
-0.2242802558750543 1:768 2:780 
-0.25 1:772 2:784 
-0.1339465879103347 1:770 2:782 
-0.2106520173094003 1:770 2:782 
-0.01474103374903641 1:773 2:785 
-0.25 1:768 2:778 
-0.25 1:769 2:782 
-0.25 1:791 2:791 
-0.25 1:791 2:792 
-0.07040705096803937 1:790 2:792 
-0.25 1:789 2:789 
-0.25 1:789 2:789 
-0.25 1:793 2:794 
-0.25 1:793 2:796 
-0.1740047776324529 1:789 2:791 
-0.04111461908333813 1:787 2:790 
-0.1050731389335849 1:789 2:792 
-0.007387801762385697 1:790 2:793 
-0.07477948074818075 1:792 2:795 
-0.25 1:792 2:795 
-0.25 1:786 2:789 
-0.04113789956041826 1:790 2:793 
-0.170762450988712 1:788 2:794 
-0.2469645480403145 1:787 2:790 
-0.25 1:790 2:795 
-0.25 1:790 2:795 
-0.005405755563821408 1:785 2:791 
-0.009628232534875604 1:787 2:793 
-0.2422172378316312 1:788 2:794 
-0.25 1:783 2:789 
-0.25 1:784 2:788 
-0.02719190166623478 1:787 2:793 
-0.1539662483824006 1:786 2:792 
-0.25 1:785 2:792 
-0.147341748771752 1:785 2:791 
-0.25 1:787 2:793 
-0.25 1:784 2:790 
-0.25 1:859 2:836 
-0.25 1:861 2:838 
-0.1240165646706135 1:860 2:837 
-0.25 1:858 2:836 
-0.25 1:860 2:836 
-0.07895121543811492 1:861 2:840 
-0.25 1:864 2:842 
-0.25 1:861 2:840 
-0.25 1:864 2:842 
-0.239334833428426 1:861 2:841 
-0.1522626168908382 1:863 2:842 
-0.25 1:862 2:842 
-0.008530097834654242 1:859 2:839 
-0.06918254052063617 1:858 2:839 
-0.04404461128703047 1:859 2:839 
-0.25 1:859 2:839 
-0.25 1:855 2:836 
-0.130483780304009 1:857 2:838 
-0.25 1:853 2:835 
-0.1206342215328104 1:854 2:835 
-0.25 1:854 2:835 
-0.01363694680284732 1:857 2:840 
-0.25 1:857 2:838 
-0.03468282158001636 1:858 2:842 
-0.25 1:858 2:842 
-0.25 1:858 2:842 
-0.25 1:856 2:840 
-0.25 1:855 2:840 
-0.25 1:857 2:842 
-0.25 1:854 2:838 
-0.2154906316689252 1:854 2:838 
-0.25 1:852 2:839 
-0.25 1:852 2:836 
-0.25 1:850 2:835 
