svm_type c_svc
kernel_type rbf
gamma 0.25
nr_class 2
total_sv 408
rho 0.19993
label 1 -1
nr_sv 198 210
SV
0.8739497841370936 1:908 2:864 
0.3699644307011674 1:907 2:863 
0.5365289987411503 1:905 2:863 
0.6845537383283166 1:905 2:865 
0.4778609778164745 1:900 2:862 
0.6786767484155696 1:903 2:864 
0.5162317850507733 1:901 2:862 
0.9510757462946773 1:896 2:858 
0.9923229722747434 1:893 2:856 
0.08586111189744168 1:893 2:858 
0.01949148333283834 1:894 2:858 
0.3444344637351754 1:894 2:859 
0.7213292960158304 1:900 2:864 
0.7337820443776999 1:896 2:861 
0.3321867003007113 1:892 2:859 
0.2828962761128698 1:894 2:861 
0.2973168138364324 1:896 2:863 
0.8363449419000605 1:897 2:865 
0.05577027240365995 1:890 2:859 
0.3363777471421914 1:890 2:857 
0.5420438549757549 1:889 2:856 
0.904398546662237 1:887 2:855 
0.493498193702384 1:892 2:861 
0.7134567109430643 1:933 2:887 
0.06423272700136344 1:936 2:890 
0.9808732667982775 1:936 2:890 
0.4661557827696824 1:925 2:882 
0.04697174448875781 1:926 2:883 
0.0997907965285208 1:932 2:891 
0.4089634968448794 1:920 2:882 
0.1799268215158877 1:927 2:890 
0.1451972094725809 1:918 2:884 
0.1411033886434369 1:921 2:886 
0.254286065804338 1:895 2:865 
0.2361415727557732 1:890 2:860 
0.1433376586897635 1:889 2:860 
0.524471084815448 1:891 2:863 
0.3230960667921352 1:894 2:865 
0.2660266345876811 1:893 2:865 
0.1309497363651143 1:888 2:860 
0.6312505263577605 1:883 2:857 
0.4758753123002541 1:885 2:860 
0.2671834728106005 1:889 2:862 
0.3937581433671944 1:881 2:857 
0.09135514998948595 1:882 2:858 
0.3591500728240073 1:883 2:860 
0.03292616351136012 1:884 2:861 
0.4485524807445048 1:880 2:857 
0.2032808819762098 1:883 2:862 
0.6136461857846061 1:878 2:857 
0.1222152962140071 1:875 2:856 
0.8649433413252822 1:876 2:858 
0.8702906292296197 1:879 2:860 
0.03372702783071881 1:930 2:887 
0.01923281859332394 1:931 2:888 
0.1852250350719576 1:928 2:885 
0.03815002788152983 1:928 2:886 
0.3185613247341819 1:926 2:884 
0.4258178099288221 1:922 2:882 
0.3264548900697274 1:925 2:885 
0.09946882510790865 1:924 2:886 
0.05388520571094375 1:922 2:883 
0.1857951073106309 1:918 2:882 
0.1412468594256027 1:922 2:886 
0.3217050077567118 1:916 2:880 
0.03529429923054227 1:917 2:880 
0.2998011297130463 1:918 2:881 
0.4835702873964506 1:913 2:878 
0.2706855829796272 1:916 2:883 
0.2253460465758941 1:917 2:883 
0.4365633883539273 1:894 2:863 
0.0668244502337966 1:897 2:864 
0.2745464834826096 1:891 2:858 
0.0978188918822387 1:890 2:861 
0.2967929004970284 1:888 2:858 
0.09711661016614702 1:889 2:859 
0.1670034877635934 1:886 2:858 
0.03592694520998796 1:889 2:861 
0.0495812055730666 1:886 2:859 
0.5700487327935185 1:885 2:857 
0.1653115908560187 1:887 2:861 
0.2846564327523693 1:887 2:859 
0.1104892824430339 1:889 2:863 
0.6984939150100051 1:890 2:865 
0.9592388122982929 1:892 2:867 
0.006233483334010267 1:891 2:866 
0.1425127986464471 1:888 2:863 
0.3528792046824055 1:887 2:862 
0.300440798331859 1:885 2:862 
0.9094019960110409 1:887 2:865 
0.06719087557861084 1:886 2:863 
0.06321597526418438 1:880 2:859 
0.2948169589504631 1:882 2:860 
0.8940218102763983 1:884 2:864 
0.819479505181416 1:881 2:862 
1 1:875 2:855 
0.9201681800487628 1:929 2:880 
0.4409934926047523 1:927 2:880 
0.2175983613973803 1:927 2:882 
0.6361217344939816 1:923 2:878 
0.6908742050467019 1:919 2:875 
0.6186487172833732 1:921 2:877 
0.2944908526475936 1:924 2:881 
0.6938023045305408 1:925 2:879 
0.1790103140200492 1:920 2:876 
0.1899215606053101 1:918 2:875 
0.08543611393550221 1:921 2:880 
0.466545030330287 1:916 2:875 
0.3502802169047558 1:922 2:880 
0.1140995501879924 1:919 2:879 
0.2019677304955129 1:918 2:877 
0.4621234134244079 1:915 2:875 
0.1832341679504951 1:920 2:880 
0.2498821364522273 1:920 2:879 
0.3955300569665071 1:918 2:879 
0.2824831424788815 1:917 2:877 
0.534361963018338 1:915 2:878 
0.08243905235778799 1:916 2:878 
0.6776618941130756 1:913 2:874 
1 1:911 2:872 
0.6291985048096354 1:911 2:875 
0.8379564720964684 1:931 2:883 
0.5935817933644173 1:932 2:885 
0.4502491475097459 1:928 2:883 
0.1989634538528404 1:929 2:884 
0.3062622577462081 1:930 2:886 
0.5082826612514219 1:933 2:889 
0.7229316076313437 1:934 2:892 
0.2561309958643747 1:931 2:891 
0.1452769226191283 1:927 2:888 
0.324880818961865 1:930 2:891 
0.08571488824083197 1:928 2:890 
0.4740635379501318 1:923 2:884 
0.0604334937494738 1:927 2:887 
0.2097695456190865 1:929 2:890 
0.1084787775584948 1:929 2:892 
0.105287644987039 1:926 2:890 
0.4053607245568491 1:925 2:890 
0.09216354939601537 1:919 2:885 
0.2684046045549489 1:924 2:889 
0.4348329780905846 1:915 2:881 
0.1968254410499526 1:929 2:886 
0.1431550805259455 1:932 2:890 
0.3112615094840854 1:927 2:886 
0.2213618433751855 1:928 2:888 
0.1245990956467569 1:928 2:889 
0.01597454877272868 1:924 2:885 
0.182111306980697 1:926 2:888 
0.1884543029410953 1:923 2:886 
0.08628793756000862 1:921 2:884 
0.1724734257420336 1:920 2:884 
0.2439655612511915 1:921 2:885 
0.03777926733606375 1:917 2:882 
0.2198431950520496 1:912 2:879 
0.5583073315911652 1:911 2:877 
0.2458317637128465 1:913 2:881 
0.01439687765493097 1:915 2:884 
0.5435517747670395 1:917 2:886 
0.2648035259833526 1:916 2:885 
0.2694811936389325 1:912 2:880 
0.7993130383230692 1:908 2:877 
0.02272485314081266 1:914 2:884 
0.2893469572636113 1:909 2:879 
0.1570193191342929 1:910 2:880 
0.9943632770521835 1:905 2:878 
0.6797026742314336 1:909 2:881 
0.4689177382506179 1:907 2:879 
0.4411726605684466 1:930 2:888 
0.1508948506244217 1:931 2:889 
0.9452553726689943 1:936 2:895 
0.2877402961442481 1:932 2:894 
0.4379635622322132 1:932 2:893 
0.7552612525386133 1:934 2:896 
0.3413534262920103 1:925 2:887 
0.008451034274131308 1:924 2:888 
0.02589573241346965 1:931 2:895 
0.9675147888921803 1:931 2:896 
0.8461327071337458 1:928 2:893 
0.2248430351907815 1:927 2:891 
0.3298607413492747 1:923 2:888 
0.1185756332056787 1:922 2:887 
0.2675158260049448 1:919 2:884 
0.307173594750418 1:920 2:888 
0.562269871114879 1:919 2:887 
0.8565982224348313 1:925 2:893 
0.6136737032854312 1:922 2:891 
0.4669445916002684 1:923 2:892 
0.5351852690902501 1:921 2:889 
0.4286574246291906 1:914 2:883 
0.4332942953029237 1:914 2:885 
0.3415614471120298 1:912 2:882 
0.2639671657947176 1:911 2:882 
0.1646984096394866 1:913 2:886 
0.7447226787814253 1:915 2:888 
0.5741013714954903 1:911 2:885 
0.210129865084348 1:912 2:885 
0.7816959133511291 1:913 2:888 
0.8905350814710309 1:909 2:884 
-0.4218767470806509 1:866 2:807 
-0.3869350045904459 1:867 2:808 
-0.01444792357146809 1:865 2:809 
-0.7982001295280587 1:872 2:814 
-0.5835197312677369 1:868 2:811 
-0.2015358254202669 1:866 2:810 
-0.3652845212734499 1:864 2:808 
-0.4556881607803017 1:862 2:808 
-0.2113042485988377 1:866 2:812 
-0.4366767073399611 1:867 2:814 
-0.05848584722998306 1:867 2:813 
-0.4146758511456884 1:864 2:811 
-0.003889956112075092 1:863 2:811 
-0.1391951451329763 1:861 2:809 
-0.4941890002454694 1:859 2:807 
-0.2116982300458213 1:860 2:810 
-0.603339032086611 1:857 2:806 
-0.2099302619903358 1:862 2:811 
-0.1630814422377303 1:863 2:813 
-0.1446179749122078 1:864 2:814 
-0.2235235491305305 1:864 2:815 
-0.5655502161585659 1:866 2:816 
-0.1783919744584718 1:861 2:812 
-0.3073882530985692 1:859 2:811 
-0.5430624393037565 1:856 2:809 
-0.09907705952268572 1:858 2:809 
-0.2016737724622168 1:861 2:813 
-0.1650774052984179 1:863 2:815 
-0.5814302434299927 1:861 2:815 
-0.4754119863665089 1:857 2:811 
-0.7706004801542077 1:782 2:729 
-0.7597325132425075 1:779 2:731 
-0.7005107900640613 1:775 2:730 
-0.5753539880194211 1:771 2:729 
-0.6497638650554503 1:774 2:733 
-0.3240820380989015 1:772 2:731 
-0.5017146077743435 1:768 2:728 
-0.5377760592721826 1:765 2:725 
-0.3124025643117014 1:766 2:727 
-0.4405138006298716 1:771 2:733 
-0.2235408643251575 1:769 2:730 
-0.2848207075026835 1:763 2:725 
-0.06830241367901958 1:765 2:727 
-0.1989752308434493 1:762 2:725 
-0.4351328743379155 1:769 2:733 
-0.1296438685073219 1:761 2:725 
-0.192424177127188 1:768 2:732 
-0.2938270100698912 1:766 2:730 
-0.3026915551021294 1:760 2:726 
-0.2985298442723123 1:767 2:731 
-0.1943310870301506 1:765 2:729 
-0.0263988007781585 1:764 2:728 
-0.03901693689573948 1:760 2:725 
-0.4817388621869401 1:763 2:729 
-0.2217465307409111 1:762 2:728 
-0.2380288743945647 1:761 2:727 
-0.05363244462852397 1:759 2:725 
-0.6984175431949486 1:758 2:724 
-0.001941149108767721 1:644 2:595 
-0.0006881730719817819 1:648 2:601 
-0.001788731906062838 1:644 2:598 
-0.0005489580140984347 1:648 2:605 
-0.00187373810214079 1:645 2:602 
-0.6562701166965591 1:645 2:591 
-0.4300929860066083 1:643 2:592 
-0.4532895562027812 1:643 2:594 
-0.4959899320567069 1:646 2:596 
-0.1296174694945271 1:644 2:595 
-0.2034145964234514 1:644 2:596 
-0.3365908720511324 1:646 2:598 
-0.6325688207027286 1:650 2:603 
-0.5854101949209272 1:648 2:601 
-0.3121227245145304 1:644 2:598 
-0.3102168365555858 1:645 2:600 
-0.06368376898726501 1:647 2:602 
-0.1028360274896073 1:644 2:600 
-0.561339215144921 1:648 2:605 
-0.2375142670829439 1:645 2:602 
-0.005400209236837834 1:645 2:603 
-0.4651572405536293 1:646 2:604 
-0.5592510716862885 1:643 2:603 
-0.6488168731155705 1:641 2:599 
-0.3651083319851714 1:642 2:601 
-0.7999149991778838 1:425 2:386 
-0.7552938366340396 1:429 2:390 
-0.5115381027635211 1:430 2:393 
-0.3432628677072842 1:431 2:394 
-0.4622840508415798 1:432 2:396 
-0.5965928086664674 1:432 2:398 
-0.7186591489903049 1:434 2:401 
-0.3899165538607399 1:436 2:403 
-0.4939111343820795 1:437 2:404 
-0.7051765140756506 1:436 2:407 
-0.5562812963017856 1:439 2:408 
-0.6368833404520353 1:440 2:410 
-0.4545353088024967 1:443 2:414 
-0.2297060455073223 1:442 2:414 
-0.5766316976327187 1:442 2:416 
-0.7894696498272338 1:445 2:419 
-0.6182986954292652 1:447 2:423 
-0.615574477828326 1:449 2:424 
-0.6155019050773567 1:452 2:427 
-0.6173554143587934 1:451 2:429 
-0.458374221730661 1:454 2:432 
-0.3683056795635554 1:455 2:432 
-0.3940346763710213 1:456 2:435 
-0.3913838907539346 1:455 2:435 
-0.6427730408515586 1:457 2:438 
-0.32008128365919 1:458 2:440 
-0.4633151849758333 1:459 2:441 
-0.3435472313481298 1:460 2:443 
-0.4952321383557897 1:461 2:444 
-0.7419966203709973 1:461 2:447 
-0.6797742462534277 1:465 2:450 
-0.4190421358301905 1:467 2:452 
-0.2142817415345612 1:466 2:452 
-0.3197745555881989 1:468 2:454 
-0.2189807774864926 1:467 2:455 
-0.5348338498592498 1:468 2:456 
-0.002243007552462234 1:471 2:459 
-0.6610827211953304 1:471 2:459 
-0.4439286154324241 1:472 2:461 
-0.574007637789925 1:473 2:463 
-0.6974062661625888 1:475 2:465 
-0.6199095122774657 1:477 2:468 
-0.5270163374719072 1:478 2:470 
-0.3352602571876675 1:480 2:472 
-0.1475259736527459 1:479 2:472 
-0.5167665324932618 1:481 2:474 
-0.4521122578878636 1:479 2:474 
-0.3896035454992059 1:666 2:700 
-0.4328603618816175 1:663 2:696 
-0.5742949149140359 1:664 2:699 
-0.4651913182589487 1:664 2:695 
-0.01145228281859601 1:670 2:702 
-0.4180008452728556 1:668 2:701 
-0.003101804565241238 1:668 2:698 
-0.4496270708324928 1:666 2:697 
-0.2914171718775261 1:670 2:700 
-0.2289887506281028 1:670 2:702 
-0.1841865812773396 1:671 2:701 
-0.08959537114770788 1:672 2:702 
-0.1422637401066344 1:669 2:699 
-0.4322610742391737 1:668 2:698 
-0.594378735558913 1:672 2:703 
-0.5709422759994094 1:772 2:780 
-0.5306348713428825 1:776 2:783 
-0.02881339267705013 1:774 2:783 
-0.04942238533617546 1:771 2:780 
-0.4028713249815515 1:777 2:785 
-0.2933256534541074 1:776 2:786 
-0.1699583993406703 1:774 2:783 
-0.3641950689430082 1:769 2:779 
-0.1758788743548849 1:775 2:786 
-0.5508167550347588 1:773 2:786 
-0.2723550931796436 1:773 2:782 
-0.1349591495110029 1:771 2:782 
-0.632141699722503 1:767 2:778 
-0.2053408348641779 1:768 2:780 
-0.417556871710918 1:772 2:784 
-0.5985852466911991 1:769 2:782 
-0.4734310900576373 1:791 2:791 
-0.1725652158730486 1:791 2:792 
-0.007933818445725325 1:789 2:789 
-0.6113450900074304 1:789 2:789 
-0.4941230373721192 1:793 2:794 
-0.5700158979764284 1:793 2:796 
-0.01878429788683529 1:791 2:794 
-0.2264395966825313 1:789 2:792 
-0.01408270202102564 1:790 2:793 
-0.4358569649742688 1:786 2:789 
-0.01719045160294319 1:787 2:791 
-0.001339226182077116 1:788 2:794 
-0.02938108411081109 1:787 2:790 
-0.0009970961722509039 1:790 2:795 
-0.5344059824773573 1:790 2:795 
-0.1836186563827101 1:787 2:791 
-0.3888813298759953 1:788 2:794 
-0.4751303990407321 1:783 2:789 
-0.348467891696929 1:784 2:788 
-0.5759138485806603 1:785 2:792 
-0.2172386390079401 1:787 2:793 
-0.07074924103695115 1:784 2:790 
-0.4622785196643951 1:861 2:838 
-0.4502870954437667 1:858 2:836 
-0.4637498131819157 1:860 2:836 
-0.005082774896837414 1:864 2:842 
-0.1976094463087781 1:861 2:840 
-0.6459981488745292 1:864 2:842 
-0.2740106999839977 1:861 2:841 
-0.3202864544610597 1:862 2:842 
-0.06230985271053128 1:859 2:839 
-0.1585261035267885 1:858 2:839 
-0.1471195302505093 1:859 2:839 
-0.3635076855508825 1:855 2:836 
-0.06506762151482051 1:857 2:839 
-0.004325311632838988 1:857 2:838 
-0.2238825035725764 1:853 2:835 
-0.2829784982834084 1:854 2:835 
-0.01864846658370641 1:857 2:840 
-0.2620956696748074 1:857 2:838 
-0.0005529156172258132 1:858 2:842 
-0.4122957160638503 1:858 2:842 
-0.002375326166729905 1:854 2:838 
-0.5285291622061874 1:855 2:840 
-0.3610374580873554 1:857 2:842 
-0.2331343155438689 1:854 2:838 
-0.649295065744973 1:852 2:839 
-0.2442642206497781 1:852 2:836 
-0.6959899321286982 1:850 2:835 
