svm_type c_svc
kernel_type rbf
gamma 1
nr_class 2
total_sv 697
rho 0.0306217
label 1 -1
nr_sv 349 348
SV
0.5 1:908 2:864 
0.5 1:907 2:863 
0.4106034454031508 1:906 2:863 
0.01868966337063013 1:906 2:864 
0.5 1:905 2:863 
0.4033069387842845 1:905 2:864 
0.5 1:906 2:864 
0.5 1:905 2:865 
0.5 1:900 2:862 
0.06546159907208315 1:901 2:863 
0.5 1:903 2:864 
0.38735028322411 1:900 2:863 
0.5 1:901 2:863 
0.5 1:901 2:862 
0.5 1:896 2:858 
0.5 1:895 2:858 
0.5 1:896 2:859 
0.5 1:893 2:856 
0.5 1:893 2:858 
0.4512998447616324 1:894 2:858 
0.5 1:894 2:859 
0.5 1:892 2:857 
0.281749566374603 1:894 2:861 
0.5 1:900 2:864 
0.5 1:896 2:861 
0.4177341032987759 1:895 2:862 
0.1156757127015363 1:897 2:865 
0.4635296251588779 1:892 2:859 
0.3253990154185051 1:891 2:859 
0.5 1:894 2:861 
0.5 1:896 2:863 
0.2743073103083857 1:896 2:864 
0.5 1:897 2:865 
0.2337648418868748 1:892 2:858 
0.3428673793088303 1:887 2:855 
0.4564078097994369 1:890 2:859 
0.5 1:890 2:857 
0.5 1:889 2:856 
0.5 1:887 2:855 
0.5 1:889 2:857 
0.1358654979752815 1:892 2:861 
0.4784550808475519 1:891 2:861 
0.4847166293956109 1:892 2:860 
0.5 1:892 2:861 
0.5 1:933 2:887 
0.5 1:936 2:890 
0.5 1:936 2:890 
0.5 1:925 2:882 
0.02469044360448485 1:928 2:885 
0.5 1:926 2:883 
0.2067834953856369 1:932 2:891 
0.5 1:933 2:891 
0.2445537609862254 1:920 2:882 
0.07943307022472781 1:929 2:890 
0.4935220332962884 1:920 2:882 
0.2960743302755555 1:927 2:890 
0.1487221884123981 1:925 2:889 
0.2797579512115265 1:920 2:883 
0.1227496607848492 1:922 2:884 
0.5 1:918 2:884 
0.5 1:916 2:882 
0.1774827583334221 1:925 2:890 
0.4860627524085034 1:921 2:886 
0.3841762532457724 1:895 2:861 
0.07725318073835558 1:897 2:864 
0.3080067574516079 1:894 2:863 
0.4183389697946854 1:896 2:865 
0.5 1:895 2:865 
0.5 1:887 2:856 
0.3630861835058506 1:890 2:860 
0.2266931045714931 1:889 2:860 
0.1358249045836507 1:894 2:865 
0.5 1:891 2:863 
0.5 1:894 2:865 
0.5 1:893 2:865 
0.08729264294772454 1:889 2:862 
0.4425071100401439 1:888 2:860 
0.5 1:884 2:858 
0.5 1:883 2:857 
0.5 1:885 2:860 
0.5 1:889 2:862 
0.5 1:890 2:864 
0.4195477362304015 1:889 2:864 
0.05652484574715224 1:887 2:862 
0.4580976983499209 1:883 2:858 
0.5 1:881 2:857 
0.5 1:882 2:858 
0.5 1:883 2:860 
0.4728353563191062 1:887 2:864 
0.096700046705952 1:884 2:861 
0.5 1:884 2:861 
0.5 1:880 2:857 
0.5 1:883 2:862 
0.1822607531748776 1:882 2:860 
0.4451812634768102 1:878 2:857 
0.4814942176272077 1:878 2:857 
0.3557960560413755 1:880 2:860 
0.1168518845512419 1:879 2:858 
0.5 1:880 2:861 
0.2639066439513626 1:876 2:856 
0.5 1:875 2:856 
0.5 1:876 2:858 
0.5 1:879 2:860 
0.3723757113036158 1:925 2:880 
0.2676929285064101 1:930 2:884 
0.5 1:932 2:887 
0.3612388502293176 1:930 2:887 
0.4392198937262494 1:931 2:888 
0.4018013166877794 1:928 2:884 
0.5 1:928 2:885 
0.4001024047078199 1:928 2:886 
0.1882916575283091 1:926 2:884 
0.5 1:926 2:884 
0.5 1:921 2:881 
0.5 1:922 2:882 
0.2843866805888468 1:923 2:884 
0.1441525758923381 1:922 2:883 
0.08046731675171442 1:925 2:885 
0.4934181797482455 1:925 2:885 
0.4270366722450514 1:924 2:886 
0.1572204521748334 1:923 2:885 
0.4689219970260977 1:922 2:883 
0.155263785724169 1:916 2:878 
0.3238557434218436 1:915 2:878 
0.4994510229807116 1:918 2:882 
0.2130370637192127 1:922 2:886 
0.13642118117646 1:918 2:881 
0.5 1:916 2:880 
0.5 1:917 2:880 
0.4978826441419387 1:918 2:881 
0.01373832375063773 1:919 2:883 
0.5 1:913 2:878 
0.5 1:911 2:876 
0.3844964505806907 1:916 2:883 
0.5 1:917 2:883 
0.5 1:919 2:883 
0.3227110524936559 1:895 2:863 
0.5 1:894 2:863 
0.496143224937731 1:897 2:864 
0.5 1:891 2:858 
0.2575054250944353 1:888 2:859 
0.4659573686789187 1:890 2:861 
0.5 1:888 2:858 
0.465775518452924 1:889 2:859 
0.361953665851505 1:888 2:861 
0.5 1:886 2:858 
0.2730528464378146 1:889 2:861 
0.3898064849834175 1:886 2:859 
0.5 1:885 2:857 
0.5 1:887 2:861 
0.5 1:887 2:859 
0.5 1:886 2:860 
0.3677962489505259 1:889 2:863 
0.5 1:890 2:865 
0.5 1:892 2:867 
0.5 1:891 2:866 
0.3713900971228306 1:888 2:863 
0.4912433289432478 1:887 2:862 
0.3966253750833452 1:888 2:864 
0.1751286594173522 1:883 2:861 
0.3341007970255078 1:885 2:863 
0.2008649475201095 1:887 2:863 
0.2036348854760515 1:884 2:862 
0.09835437426507967 1:886 2:863 
0.5 1:885 2:862 
0.5 1:887 2:865 
0.4993925708322218 1:886 2:863 
0.5 1:880 2:859 
0.5 1:879 2:858 
0.4800266560468336 1:882 2:860 
0.3392796966331181 1:884 2:864 
0.3630702290018186 1:884 2:863 
0.1743479549203819 1:882 2:861 
0.497466263348653 1:884 2:864 
0.5 1:881 2:862 
0.5 1:876 2:856 
0.5 1:875 2:855 
0.374717758184213 1:879 2:859 
0.4944001954908214 1:882 2:862 
0.3767378412849248 1:881 2:861 
0.5 1:929 2:880 
0.5 1:928 2:881 
0.5 1:927 2:880 
0.4373569595627203 1:926 2:880 
0.5 1:926 2:881 
0.5 1:927 2:882 
0.5 1:923 2:878 
0.5 1:919 2:875 
0.5 1:921 2:877 
0.5 1:924 2:881 
0.3139658489756677 1:927 2:883 
0.5 1:925 2:879 
0.4035074766983346 1:924 2:880 
0.3864986351961475 1:923 2:880 
0.5 1:923 2:879 
0.5 1:920 2:876 
0.4512649305866317 1:919 2:876 
0.5 1:918 2:875 
0.2648949270221801 1:916 2:875 
0.5 1:921 2:878 
0.07416160952308144 1:922 2:880 
0.4402156344154071 1:921 2:879 
0.2297465545142943 1:921 2:880 
0.1630300783378525 1:918 2:876 
0.5 1:917 2:876 
0.5 1:916 2:875 
0.4975148011308347 1:922 2:880 
0.3622717915474962 1:919 2:879 
0.5 1:918 2:877 
0.4120090593362664 1:912 2:874 
0.5 1:915 2:875 
0.4105865749602478 1:920 2:880 
0.3959103605608549 1:920 2:879 
0.2221696598215053 1:918 2:879 
0.5 1:918 2:879 
0.2764327725744166 1:913 2:874 
0.2025829127970044 1:912 2:873 
0.5 1:912 2:873 
0.5 1:917 2:877 
0.4461616066248681 1:915 2:878 
0.5 1:916 2:878 
0.5 1:913 2:874 
0.5 1:911 2:872 
0.5 1:911 2:875 
0.4804611302740066 1:919 2:880 
0.5 1:931 2:883 
0.5 1:932 2:885 
0.5 1:930 2:884 
0.09177800459044806 1:931 2:886 
0.5 1:928 2:883 
0.4408981193588477 1:929 2:884 
0.1918849910134803 1:931 2:887 
0.5 1:931 2:886 
0.4211901467444742 1:930 2:886 
0.4777936676949841 1:933 2:889 
0.4427684700046169 1:933 2:889 
0.03161295121385044 1:932 2:890 
0.1670972890844619 1:931 2:890 
0.5 1:934 2:892 
0.4835260284648695 1:932 2:892 
0.5 1:933 2:893 
0.2033230661042494 1:933 2:892 
0.4895769678252184 1:931 2:891 
0.06698183937411023 1:926 2:886 
0.2553736188852064 1:927 2:888 
0.4858854422782892 1:930 2:891 
0.2809155585197318 1:928 2:890 
0.1506928494361645 1:925 2:886 
0.4203773461141942 1:923 2:884 
0.5 1:927 2:887 
0.1869766715477496 1:929 2:892 
0.4811689179980416 1:929 2:890 
0.5 1:929 2:892 
0.319351154102305 1:927 2:889 
0.3968413568306737 1:922 2:885 
0.3616140413855831 1:928 2:891 
0.4048837721694176 1:926 2:890 
0.5 1:925 2:890 
0.5 1:920 2:886 
0.5 1:919 2:885 
0.1133046907272641 1:924 2:889 
0.5 1:924 2:889 
0.5 1:915 2:881 
0.5 1:929 2:886 
0.5 1:932 2:890 
0.5 1:929 2:888 
0.3821009552831114 1:927 2:886 
0.4513877598894093 1:928 2:888 
0.3948576281435247 1:928 2:889 
0.4972135956279606 1:926 2:886 
0.3973787883100645 1:924 2:885 
0.4625555119138109 1:926 2:888 
0.006895528511603815 1:923 2:886 
0.2856378987727862 1:925 2:888 
0.4993819464669827 1:923 2:886 
0.04256854125286148 1:922 2:887 
0.4857669051262731 1:921 2:884 
0.4309414456133747 1:920 2:884 
0.3235787060504665 1:921 2:885 
0.3148939940451653 1:917 2:882 
0.5 1:913 2:879 
0.1252846587383225 1:912 2:880 
0.5 1:912 2:879 
0.5 1:911 2:877 
0.5 1:913 2:881 
0.4744003820313692 1:915 2:884 
0.5 1:917 2:886 
0.3781592780764487 1:915 2:883 
0.5 1:916 2:885 
0.4858706407869253 1:912 2:880 
0.02250702314943027 1:911 2:881 
0.5 1:908 2:877 
0.4206565129732911 1:914 2:884 
0.0929007873213452 1:910 2:881 
0.5 1:909 2:879 
0.5 1:909 2:878 
0.5 1:907 2:878 
0.5 1:911 2:881 
0.5 1:910 2:880 
0.4448710174601281 1:909 2:880 
0.5 1:905 2:878 
0.5 1:909 2:881 
0.5 1:907 2:879 
0.4056035456446458 1:930 2:888 
0.07931879114812024 1:931 2:889 
0.5 1:931 2:889 
0.3992060849328026 1:930 2:890 
0.5 1:936 2:895 
0.5 1:932 2:894 
0.4400063239763526 1:932 2:893 
0.5 1:934 2:896 
0.2973750523979404 1:926 2:889 
0.212023198726528 1:925 2:887 
0.3680704417439984 1:925 2:887 
0.3766873678373749 1:924 2:888 
0.5 1:931 2:895 
0.5 1:931 2:896 
0.5 1:928 2:893 
0.5 1:927 2:891 
0.3791682050867079 1:928 2:892 
0.5 1:923 2:888 
0.4972569307292434 1:922 2:888 
0.4959239206475243 1:922 2:887 
0.2508785263747203 1:919 2:884 
0.5 1:920 2:888 
0.5 1:919 2:887 
0.5 1:922 2:890 
0.5 1:923 2:891 
0.5 1:925 2:893 
0.3171054688161583 1:921 2:889 
0.5 1:922 2:891 
0.5 1:923 2:892 
0.5 1:921 2:889 
0.5 1:914 2:883 
0.5 1:914 2:885 
0.2674725819285332 1:912 2:882 
0.5 1:912 2:882 
0.2596359998551583 1:911 2:882 
0.2326838861407145 1:910 2:882 
0.5 1:910 2:882 
0.3810217862543194 1:913 2:886 
0.3356990426783595 1:911 2:885 
0.1075680373264195 1:912 2:885 
0.4822436711718974 1:913 2:886 
0.5 1:915 2:888 
0.462042246966657 1:911 2:885 
0.5 1:912 2:885 
0.5 1:913 2:888 
0.5 1:909 2:884 
-0.5 1:866 2:807 
-0.5 1:867 2:808 
-0.5 1:865 2:809 
-0.5 1:872 2:814 
-0.5 1:868 2:811 
-0.5 1:867 2:811 
-0.5 1:866 2:810 
-0.5 1:863 2:809 
-0.5 1:864 2:808 
-0.5 1:862 2:808 
-0.5 1:866 2:812 
-0.5 1:867 2:814 
-0.5 1:866 2:814 
-0.5 1:867 2:813 
-0.2671795769658682 1:864 2:811 
-0.5 1:864 2:811 
-0.4779092207265365 1:863 2:811 
-0.5 1:861 2:809 
-0.5 1:859 2:807 
-0.5 1:860 2:810 
-0.5 1:857 2:806 
-0.5 1:862 2:811 
-0.5 1:863 2:813 
-0.13642118117646 1:864 2:814 
-0.5 1:866 2:815 
-0.4903139196292894 1:864 2:814 
-0.3761987364716191 1:862 2:813 
-0.5 1:864 2:815 
-0.5 1:866 2:816 
-0.5 1:861 2:812 
-0.3367330594174415 1:859 2:810 
-0.1110416502902959 1:858 2:809 
-0.3686474442432457 1:857 2:809 
-0.5 1:859 2:811 
-0.4703380894190565 1:860 2:811 
-0.5 1:856 2:809 
-0.5 1:858 2:809 
-0.2771849121955642 1:858 2:810 
-0.4518140189346283 1:861 2:813 
-0.3515879763309481 1:861 2:814 
-0.2606422971630971 1:862 2:814 
-0.5 1:863 2:815 
-0.1454736600220977 1:861 2:815 
-0.5 1:861 2:815 
-0.3778223581651557 1:862 2:815 
-0.3879408714786453 1:857 2:810 
-0.5 1:857 2:811 
-0.5 1:782 2:729 
-0.5 1:779 2:731 
-0.5 1:775 2:730 
-0.5 1:771 2:729 
-0.212023198726528 1:770 2:729 
-0.5 1:774 2:733 
-0.5 1:772 2:731 
-0.4727668025296262 1:770 2:729 
-0.5 1:771 2:731 
-0.5 1:768 2:728 
-0.5 1:765 2:725 
-0.02416504219546022 1:764 2:725 
-0.5 1:766 2:727 
-0.5 1:764 2:725 
-0.5 1:767 2:729 
-0.5 1:771 2:733 
-0.169338213283412 1:769 2:730 
-0.5 1:769 2:730 
-0.5 1:768 2:730 
-0.5 1:766 2:728 
-0.5 1:763 2:725 
-0.4293245516424085 1:765 2:727 
-0.4775866826867038 1:765 2:726 
-0.5 1:762 2:725 
-0.5 1:769 2:733 
-0.2553840069297342 1:766 2:730 
-0.1435756429994508 1:766 2:729 
-0.4657219616225303 1:761 2:725 
-0.3247476911937175 1:768 2:732 
-0.4698794480814981 1:768 2:732 
-0.1884223579765501 1:767 2:731 
-0.4134833271691546 1:766 2:730 
-0.1438966471377488 1:764 2:728 
-0.2138766692846955 1:761 2:726 
-0.5 1:760 2:726 
-0.5 1:767 2:731 
-0.5 1:765 2:729 
-0.5 1:764 2:728 
-0.2767181393384958 1:763 2:728 
-0.4729494081846252 1:762 2:727 
-0.3846119083933201 1:760 2:725 
-0.5 1:763 2:729 
-0.03639096691486561 1:762 2:728 
-0.5 1:762 2:728 
-0.06057524963158931 1:761 2:727 
-0.4989653580398364 1:761 2:727 
-0.5 1:759 2:725 
-0.5 1:758 2:724 
-0.4758718687216105 1:645 2:591 
-0.3006409193274691 1:643 2:592 
-0.2230679517765159 1:643 2:594 
-0.4470296719962925 1:646 2:596 
-0.08795570724635624 1:644 2:595 
-0.2573688551209246 1:644 2:596 
-0.3659257760443549 1:644 2:598 
-0.05953158476802384 1:645 2:600 
-0.09436508282337645 1:648 2:603 
-0.1756217559029617 1:642 2:599 
-0.3810217862543194 1:643 2:603 
-0.4832505229990888 1:645 2:591 
-0.2040423408517763 1:644 2:593 
-0.5 1:643 2:592 
-0.4865078299739665 1:644 2:593 
-0.4983178364032502 1:643 2:594 
-0.1510671595220086 1:643 2:593 
-0.4886602418900936 1:646 2:596 
-0.5 1:644 2:595 
-0.4588459170311547 1:644 2:596 
-0.3815693231740726 1:646 2:598 
-0.5 1:646 2:598 
-0.3883894952590825 1:648 2:601 
-0.4623920989435245 1:650 2:603 
-0.4938418821876109 1:650 2:603 
-0.4791110784004856 1:648 2:601 
-0.3730600400118144 1:645 2:599 
-0.4192371622719991 1:644 2:598 
-0.5 1:645 2:600 
-0.2320165684716871 1:644 2:599 
-0.008860662711549802 1:645 2:602 
-0.5 1:648 2:603 
-0.3049305660535709 1:648 2:605 
-0.1598514607281719 1:647 2:602 
-0.2332315010044756 1:647 2:603 
-0.3059407266815388 1:647 2:604 
-0.5 1:647 2:602 
-0.5 1:642 2:599 
-0.1039965254237872 1:644 2:600 
-0.4844241370333974 1:644 2:600 
-0.5 1:648 2:605 
-0.2239302643294719 1:646 2:604 
-0.2866295321864183 1:648 2:604 
-0.5 1:645 2:602 
-0.2955940548966933 1:641 2:599 
-0.4451812634768102 1:642 2:601 
-0.06368147294068235 1:644 2:602 
-0.1005312377492063 1:645 2:603 
-0.4807914735494217 1:645 2:603 
-0.5 1:644 2:602 
-0.5 1:646 2:604 
-0.4916729621526377 1:643 2:603 
-0.4188272001579174 1:641 2:599 
-0.4930707303943789 1:642 2:601 
-0.5 1:425 2:386 
-0.5 1:429 2:390 
-0.5 1:430 2:393 
-0.5 1:431 2:394 
-0.5 1:432 2:396 
-0.5 1:432 2:398 
-0.5 1:434 2:401 
-0.5 1:436 2:403 
-0.5 1:437 2:404 
-0.5 1:436 2:407 
-0.5 1:439 2:408 
-0.5 1:440 2:410 
-0.5 1:443 2:414 
-0.5 1:442 2:414 
-0.5 1:442 2:416 
-0.5 1:445 2:419 
-0.5 1:447 2:423 
-0.5 1:449 2:424 
-0.5 1:452 2:427 
-0.5 1:451 2:429 
-0.5 1:454 2:432 
-0.5 1:455 2:432 
-0.3015174588668185 1:455 2:435 
-0.5 1:456 2:435 
-0.4834893756446613 1:455 2:435 
-0.5 1:457 2:438 
-0.5 1:458 2:440 
-0.5 1:459 2:441 
-0.5 1:460 2:443 
-0.5 1:461 2:444 
-0.5 1:461 2:447 
-0.5 1:465 2:450 
-0.5 1:467 2:452 
-0.5 1:466 2:452 
-0.5 1:468 2:454 
-0.3927498728090408 1:468 2:456 
-0.5 1:467 2:455 
-0.5 1:468 2:456 
-0.4777936676949841 1:471 2:459 
-0.4878250641309068 1:471 2:459 
-0.5 1:472 2:461 
-0.5 1:473 2:463 
-0.5 1:475 2:465 
-0.5 1:477 2:469 
-0.5 1:477 2:468 
-0.5 1:478 2:470 
-0.5 1:480 2:472 
-0.5 1:479 2:472 
-0.5 1:481 2:474 
-0.5 1:479 2:474 
-0.5 1:480 2:474 
-0.5 1:664 2:698 
-0.4357825122244363 1:665 2:699 
-0.5 1:666 2:700 
-0.1492180326885422 1:665 2:698 
-0.5 1:665 2:697 
-0.4214829603836855 1:667 2:699 
-0.5 1:663 2:696 
-0.5 1:664 2:699 
-0.5 1:664 2:695 
-0.2498376096357287 1:666 2:698 
-0.1233935509755676 1:668 2:701 
-0.5 1:668 2:701 
-0.2771589905115072 1:666 2:699 
-0.4092841457439432 1:668 2:700 
-0.1176004777630353 1:666 2:697 
-0.1448814062582544 1:668 2:699 
-0.2090737788713858 1:670 2:702 
-0.4090087898690632 1:669 2:701 
-0.2528947360672966 1:672 2:703 
-0.1732751208229635 1:671 2:702 
-0.165919006298453 1:671 2:701 
-0.1699010356050835 1:669 2:700 
-0.324046239533979 1:667 2:698 
-0.4929173768791838 1:666 2:697 
-0.5 1:670 2:700 
-0.07297657203122838 1:670 2:701 
-0.5 1:670 2:702 
-0.4677270862618413 1:671 2:701 
-0.5 1:672 2:702 
-0.5 1:669 2:699 
-0.152258033125969 1:668 2:698 
-0.5 1:668 2:698 
-0.5 1:672 2:703 
-0.5 1:772 2:780 
-0.5 1:776 2:783 
-0.2373618924108293 1:777 2:785 
-0.06727635742127851 1:775 2:783 
-0.5 1:775 2:783 
-0.5 1:771 2:780 
-0.4263484385419828 1:776 2:785 
-0.5 1:777 2:785 
-0.3931130532187354 1:772 2:782 
-0.3178277596473332 1:771 2:781 
-0.134875027147259 1:774 2:783 
-0.5 1:776 2:786 
-0.1615316128196853 1:773 2:783 
-0.4249249234089915 1:774 2:783 
-0.5 1:769 2:779 
-0.02580041540652468 1:775 2:786 
-0.5 1:775 2:786 
-0.3566412134115927 1:773 2:784 
-0.3137081698590289 1:770 2:781 
-0.09869072617898925 1:772 2:784 
-0.5 1:773 2:786 
-0.5 1:774 2:786 
-0.5 1:773 2:782 
-0.4316924914246022 1:771 2:782 
-0.2168402928118534 1:768 2:780 
-0.5 1:767 2:778 
-0.5 1:768 2:780 
-0.352038109762037 1:772 2:783 
-0.5 1:772 2:784 
-0.4008060340640971 1:770 2:782 
-0.4926465695030252 1:773 2:785 
-0.5 1:768 2:778 
-0.3831334610107516 1:769 2:781 
-0.3114205677426626 1:769 2:780 
-0.5 1:769 2:782 
-0.5 1:791 2:791 
-0.5 1:791 2:792 
-0.2661110541311358 1:790 2:792 
-0.4606441645084063 1:789 2:789 
-0.4952315126914035 1:789 2:789 
-0.5 1:793 2:794 
-0.1598532735464465 1:791 2:794 
-0.5 1:793 2:796 
-0.4910823632067621 1:791 2:794 
-0.5 1:789 2:791 
-0.1184887518573095 1:787 2:790 
-0.4721952077642422 1:789 2:792 
-0.06117342717400754 1:790 2:794 
-0.261309195581478 1:792 2:795 
-0.4695691396765064 1:792 2:795 
-0.5 1:786 2:789 
-0.2097664805646932 1:789 2:793 
-0.4653471554273049 1:790 2:793 
-0.1969153752485067 1:786 2:790 
-0.09168715517557559 1:788 2:794 
-0.5 1:787 2:790 
-0.2712096669753402 1:788 2:793 
-0.3162932657340006 1:790 2:795 
-0.4579058760417142 1:790 2:795 
-0.4259506436198409 1:787 2:791 
-0.1770103838980582 1:786 2:791 
-0.5 1:788 2:794 
-0.420926365294491 1:789 2:794 
-0.351588830586454 1:787 2:792 
-0.5 1:783 2:789 
-0.5 1:784 2:788 
-0.4440120150770443 1:785 2:790 
-0.08606787836158357 1:787 2:793 
-0.3880682827634609 1:786 2:792 
-0.5 1:785 2:792 
-0.3922800067728874 1:785 2:791 
-0.4989812495331526 1:787 2:793 
-0.5 1:784 2:790 
-0.5 1:859 2:836 
-0.5 1:861 2:838 
-0.4569608905639769 1:860 2:837 
-0.5 1:858 2:836 
-0.00244629303748963 1:860 2:838 
-0.5 1:860 2:836 
-0.5 1:860 2:838 
-0.2172678427303849 1:861 2:840 
-0.3003796621923862 1:864 2:842 
-0.4981247523820309 1:861 2:840 
-0.4532359452626744 1:862 2:841 
-0.5 1:864 2:842 
-0.4682316198431331 1:861 2:841 
-0.4262149986472767 1:863 2:842 
-0.5 1:862 2:842 
-0.5 1:858 2:839 
-0.1985571894653911 1:859 2:839 
-0.4945293987394666 1:859 2:839 
-0.5 1:855 2:836 
-0.3193091570256719 1:857 2:838 
-0.5 1:853 2:835 
-0.09777309966302131 1:854 2:835 
-0.499374816563503 1:854 2:835 
-0.2939234641144578 1:854 2:836 
-0.4657479443825184 1:857 2:840 
-0.470444106336186 1:857 2:838 
-0.07657993340911859 1:856 2:839 
-0.08277941471857929 1:858 2:842 
-0.04073300858212066 1:857 2:839 
-0.4751947964146916 1:858 2:842 
-0.3411557721204236 1:856 2:840 
-0.5 1:855 2:840 
-0.2965329377328372 1:857 2:841 
-0.5 1:858 2:841 
-0.5 1:857 2:842 
-0.4980167620140262 1:856 2:839 
-0.272479516096016 1:854 2:838 
-0.4927826685298061 1:854 2:837 
-0.4960664183114221 1:854 2:838 
-0.5 1:852 2:839 
-0.5 1:852 2:836 
-0.5 1:850 2:835 
