svm_type c_svc
kernel_type rbf
gamma 1
nr_class 2
total_sv 836
rho 0.00151773
label 1 -1
nr_sv 421 415
SV
0.25 1:908 2:864 
0.25 1:907 2:863 
0.25 1:906 2:863 
0.25 1:906 2:864 
0.25 1:905 2:863 
0.25 1:905 2:864 
0.25 1:906 2:864 
0.25 1:905 2:865 
0.2489209359966564 1:901 2:863 
0.25 1:900 2:862 
0.25 1:901 2:863 
0.25 1:903 2:864 
0.25 1:900 2:863 
0.2493144583845139 1:901 2:863 
0.25 1:901 2:862 
0.25 1:896 2:858 
0.25 1:895 2:858 
0.25 1:896 2:859 
0.25 1:893 2:856 
0.25 1:893 2:858 
0.25 1:894 2:858 
0.25 1:894 2:859 
0.25 1:892 2:857 
0.25 1:894 2:861 
0.25 1:895 2:862 
0.07695627565970994 1:897 2:864 
0.25 1:900 2:864 
0.25 1:896 2:861 
0.02860766257900567 1:895 2:861 
0.25 1:895 2:862 
0.25 1:895 2:861 
0.25 1:897 2:865 
0.25 1:892 2:859 
0.25 1:891 2:859 
0.25 1:892 2:858 
0.25 1:894 2:861 
0.25 1:896 2:863 
0.2368348762376826 1:896 2:864 
0.223277469267544 1:896 2:864 
0.25 1:897 2:865 
0.25 1:892 2:858 
0.25 1:887 2:855 
0.25 1:890 2:859 
0.25 1:890 2:857 
0.25 1:889 2:856 
0.25 1:887 2:855 
0.25 1:889 2:857 
0.25 1:892 2:861 
0.25 1:891 2:861 
0.25 1:892 2:860 
0.25 1:892 2:861 
0.25 1:933 2:887 
0.25 1:936 2:890 
0.25 1:936 2:890 
0.25 1:930 2:887 
0.25 1:929 2:884 
0.25 1:925 2:882 
0.25 1:928 2:885 
0.25 1:928 2:886 
0.25 1:926 2:883 
0.127286177924777 1:931 2:889 
0.25 1:932 2:891 
0.25 1:933 2:891 
0.1010056741371423 1:932 2:890 
0.05675648699935655 1:929 2:890 
0.06469584952511929 1:926 2:886 
0.25 1:920 2:882 
0.25 1:929 2:890 
0.05672743168291975 1:928 2:890 
0.2442593284406987 1:930 2:890 
0.1936963323639934 1:928 2:891 
0.1438398383194555 1:927 2:890 
0.0385714595069258 1:927 2:888 
0.25 1:920 2:882 
0.211374585265625 1:927 2:890 
0.003497313390219484 1:924 2:888 
0.2486246859231837 1:925 2:889 
0.25 1:920 2:883 
0.2486492680423438 1:922 2:884 
0.25 1:926 2:890 
0.25 1:924 2:888 
0.25 1:924 2:886 
0.25 1:918 2:884 
0.25 1:916 2:882 
0.25 1:925 2:890 
0.25 1:921 2:886 
0.25 1:895 2:861 
0.25 1:897 2:864 
0.25 1:894 2:863 
0.25 1:896 2:865 
0.25 1:895 2:865 
0.25 1:887 2:856 
0.25 1:890 2:860 
0.25 1:889 2:860 
0.25 1:894 2:865 
0.25 1:891 2:863 
0.25 1:894 2:865 
0.25 1:893 2:865 
0.25 1:889 2:862 
0.25 1:888 2:860 
0.25 1:884 2:858 
0.25 1:883 2:857 
0.25 1:885 2:860 
0.134825477195822 1:887 2:862 
0.25 1:889 2:862 
0.007074698115685405 1:889 2:863 
0.25 1:890 2:864 
0.25 1:889 2:864 
0.25 1:887 2:862 
0.25 1:883 2:858 
0.25 1:881 2:857 
0.25 1:882 2:858 
0.25 1:883 2:860 
0.25 1:887 2:864 
0.1515405968734658 1:883 2:861 
0.25 1:884 2:861 
0.25 1:884 2:861 
0.25 1:880 2:857 
0.25 1:883 2:862 
0.008651096688191568 1:884 2:863 
0.25 1:882 2:860 
0.25 1:882 2:860 
0.25 1:878 2:857 
0.25 1:878 2:857 
0.1803617533537231 1:879 2:858 
0.25 1:880 2:860 
0.03298055551159224 1:879 2:859 
0.25 1:879 2:858 
0.25 1:880 2:861 
0.25 1:876 2:856 
0.25 1:875 2:856 
0.25 1:876 2:858 
0.1891093102168804 1:882 2:862 
0.25 1:879 2:859 
0.25 1:881 2:861 
0.25 1:879 2:860 
0.25 1:927 2:883 
0.25 1:925 2:880 
0.25 1:930 2:884 
0.1130854068807741 1:931 2:887 
0.25 1:932 2:887 
0.2489896001268744 1:930 2:887 
0.25 1:931 2:888 
0.25 1:928 2:884 
0.25 1:928 2:885 
0.2461273255000717 1:928 2:886 
0.25 1:926 2:884 
0.25 1:926 2:884 
0.25 1:921 2:881 
0.2259580460784253 1:920 2:879 
0.004799485888039286 1:921 2:880 
0.25 1:922 2:882 
0.25 1:923 2:884 
0.25 1:922 2:883 
0.25 1:925 2:885 
0.25 1:925 2:885 
0.1603294574969257 1:924 2:886 
0.2316926996488352 1:923 2:885 
0.07690288897537226 1:919 2:879 
0.25 1:916 2:878 
0.25 1:922 2:883 
0.25 1:916 2:878 
0.25 1:915 2:878 
0.25 1:918 2:882 
0.25 1:922 2:886 
0.25 1:918 2:881 
0.25 1:916 2:880 
0.25 1:917 2:880 
0.2230237599050188 1:921 2:885 
0.05942788625758406 1:922 2:885 
0.25 1:918 2:881 
0.25 1:919 2:883 
0.25 1:913 2:878 
0.25 1:911 2:876 
0.25 1:916 2:883 
0.25 1:917 2:883 
0.25 1:919 2:883 
0.25 1:895 2:863 
0.25 1:894 2:863 
0.25 1:897 2:864 
0.25 1:891 2:858 
0.25 1:888 2:859 
0.25 1:890 2:861 
0.25 1:888 2:858 
0.25 1:889 2:859 
0.25 1:888 2:861 
0.25 1:886 2:858 
0.25 1:889 2:861 
0.25 1:886 2:859 
0.25 1:885 2:857 
0.25 1:887 2:861 
0.25 1:887 2:859 
0.25 1:886 2:860 
0.25 1:889 2:863 
0.25 1:889 2:863 
0.25 1:890 2:865 
0.25 1:892 2:867 
0.25 1:891 2:866 
0.25 1:888 2:863 
0.25 1:888 2:864 
0.2467119724454983 1:887 2:862 
0.25 1:888 2:864 
0.2113157229981635 1:883 2:861 
0.08426851074612449 1:884 2:862 
0.25 1:884 2:863 
0.1621418853889387 1:886 2:863 
0.25 1:885 2:863 
0.25 1:887 2:863 
0.25 1:884 2:862 
0.25 1:886 2:863 
0.25 1:885 2:862 
0.25 1:887 2:865 
0.2257459106489044 1:886 2:863 
0.25 1:880 2:859 
0.2320096226124843 1:879 2:858 
0.2405483462488181 1:882 2:860 
0.25 1:884 2:864 
0.25 1:882 2:862 
0.2487971662530439 1:884 2:863 
0.05249281542651713 1:882 2:861 
0.25 1:884 2:864 
0.25 1:881 2:862 
0.25 1:876 2:856 
0.25 1:875 2:855 
0.25 1:879 2:859 
0.2123495611521183 1:882 2:862 
0.25 1:881 2:861 
0.25 1:929 2:880 
0.25 1:928 2:881 
0.25 1:927 2:880 
0.25 1:926 2:880 
0.25 1:926 2:881 
0.25 1:927 2:882 
0.25 1:923 2:878 
0.25 1:919 2:875 
0.25 1:921 2:877 
0.25 1:924 2:881 
0.25 1:927 2:883 
0.25 1:925 2:879 
0.25 1:924 2:880 
0.25 1:923 2:880 
0.25 1:923 2:879 
0.25 1:920 2:876 
0.25 1:919 2:876 
0.25 1:918 2:875 
0.25 1:916 2:875 
0.25 1:921 2:878 
0.1712500041451224 1:922 2:880 
0.25 1:921 2:879 
0.25 1:922 2:880 
0.25 1:921 2:879 
0.25 1:921 2:880 
0.25 1:918 2:876 
0.25 1:917 2:876 
0.25 1:916 2:875 
0.1559770985283218 1:920 2:880 
0.25 1:918 2:879 
0.2348550806878925 1:922 2:880 
0.25 1:919 2:879 
0.25 1:918 2:877 
0.25 1:912 2:874 
0.25 1:915 2:875 
0.25 1:920 2:880 
0.1655571244005719 1:920 2:879 
0.25 1:919 2:880 
0.25 1:918 2:879 
0.2486751081968114 1:918 2:879 
0.25 1:913 2:874 
0.25 1:912 2:873 
0.25 1:912 2:873 
0.25 1:917 2:877 
0.25 1:915 2:878 
0.25 1:916 2:878 
0.25 1:913 2:874 
0.25 1:911 2:872 
0.25 1:911 2:875 
0.2405609241139938 1:919 2:880 
0.25 1:931 2:883 
0.25 1:932 2:885 
0.25 1:930 2:884 
0.25 1:931 2:886 
0.25 1:928 2:883 
0.25 1:929 2:884 
0.2476702640552728 1:931 2:887 
0.25 1:931 2:886 
0.25 1:930 2:886 
0.25 1:933 2:889 
0.25 1:933 2:889 
0.25 1:932 2:890 
0.1886026434228778 1:931 2:890 
0.25 1:934 2:892 
0.25 1:932 2:892 
0.25 1:933 2:893 
0.25 1:933 2:892 
0.25 1:931 2:891 
0.25 1:926 2:886 
0.117943491620612 1:928 2:888 
0.25 1:927 2:888 
0.06011744277076046 1:927 2:889 
0.25 1:930 2:891 
0.25 1:928 2:890 
0.1860341691818338 1:925 2:886 
0.25 1:923 2:884 
0.25 1:927 2:887 
0.25 1:929 2:892 
0.2382369821299015 1:929 2:890 
0.25 1:929 2:892 
0.25 1:926 2:888 
0.25 1:927 2:889 
0.25 1:922 2:885 
0.2070170112725582 1:928 2:891 
0.2173147887811658 1:926 2:890 
0.25 1:925 2:890 
0.25 1:920 2:886 
0.25 1:919 2:885 
0.25 1:924 2:889 
0.25 1:924 2:889 
0.06944796245539452 1:922 2:887 
0.1072197803186449 1:917 2:882 
0.25 1:915 2:881 
0.25 1:929 2:886 
0.25 1:932 2:890 
0.25 1:929 2:888 
0.1921719412925044 1:927 2:886 
0.2265581348895016 1:927 2:886 
0.25 1:928 2:888 
0.2229024214505086 1:928 2:888 
0.25 1:928 2:889 
0.25 1:926 2:886 
0.155794823727757 1:924 2:885 
0.25 1:924 2:885 
0.2492979320932692 1:926 2:888 
0.2172379087159703 1:923 2:886 
0.2225114173964705 1:925 2:888 
0.2421508395877081 1:923 2:886 
0.25 1:922 2:887 
0.25 1:921 2:884 
0.2349921757337484 1:919 2:884 
0.1552262030988048 1:920 2:884 
0.1612444136580639 1:921 2:884 
0.25 1:920 2:884 
0.2378009185087979 1:921 2:885 
0.25 1:922 2:888 
0.25 1:917 2:882 
0.25 1:917 2:882 
0.25 1:913 2:879 
0.25 1:912 2:880 
0.25 1:912 2:879 
0.25 1:911 2:877 
0.25 1:913 2:881 
0.25 1:915 2:883 
0.25 1:915 2:884 
0.25 1:917 2:886 
0.25 1:915 2:883 
0.25 1:914 2:884 
0.25 1:916 2:885 
0.25 1:912 2:880 
0.25 1:911 2:881 
0.25 1:908 2:877 
0.25 1:914 2:884 
0.25 1:910 2:881 
0.25 1:912 2:882 
0.25 1:909 2:879 
0.25 1:909 2:878 
0.25 1:907 2:878 
0.25 1:911 2:881 
0.25 1:910 2:880 
0.25 1:909 2:880 
0.25 1:905 2:878 
0.25 1:909 2:881 
0.25 1:907 2:879 
0.25 1:930 2:888 
0.25 1:931 2:889 
0.2472927824862484 1:931 2:889 
0.2421358750898531 1:930 2:890 
0.25 1:936 2:895 
0.25 1:932 2:894 
0.25 1:932 2:893 
0.25 1:934 2:896 
0.2257064315145115 1:926 2:889 
0.25 1:925 2:887 
0.25 1:925 2:887 
0.249113623511741 1:924 2:888 
0.25 1:928 2:892 
0.25 1:931 2:895 
0.25 1:931 2:896 
0.25 1:928 2:893 
0.25 1:927 2:891 
0.25 1:928 2:892 
0.25 1:923 2:888 
0.25 1:922 2:888 
0.25 1:922 2:887 
0.1961015718983559 1:919 2:884 
0.25 1:920 2:888 
0.1085377338000279 1:921 2:889 
0.25 1:921 2:889 
0.25 1:919 2:887 
0.25 1:922 2:890 
0.25 1:923 2:891 
0.25 1:925 2:893 
0.25 1:921 2:889 
0.25 1:922 2:891 
0.25 1:923 2:892 
0.25 1:921 2:889 
0.25 1:914 2:883 
0.25 1:914 2:885 
0.25 1:912 2:882 
0.25 1:912 2:882 
0.2425910963101195 1:911 2:882 
0.1976860940302128 1:910 2:882 
0.25 1:910 2:882 
0.2491723386702591 1:910 2:882 
0.25 1:913 2:886 
0.25 1:911 2:885 
0.25 1:912 2:885 
0.25 1:913 2:886 
0.25 1:915 2:888 
0.25 1:911 2:885 
0.25 1:912 2:885 
0.25 1:913 2:888 
0.25 1:909 2:884 
-0.25 1:866 2:807 
-0.25 1:867 2:808 
-0.25 1:865 2:809 
-0.25 1:872 2:814 
-0.25 1:868 2:811 
-0.25 1:867 2:811 
-0.25 1:866 2:810 
-0.25 1:863 2:809 
-0.25 1:864 2:808 
-0.25 1:862 2:808 
-0.25 1:866 2:812 
-0.25 1:867 2:814 
-0.25 1:866 2:814 
-0.25 1:867 2:813 
-0.25 1:864 2:811 
-0.25 1:864 2:811 
-0.25 1:863 2:811 
-0.25 1:861 2:809 
-0.25 1:859 2:807 
-0.25 1:860 2:810 
-0.25 1:857 2:806 
-0.25 1:862 2:811 
-0.25 1:863 2:813 
-0.25 1:864 2:814 
-0.25 1:866 2:815 
-0.25 1:864 2:814 
-0.25 1:862 2:813 
-0.25 1:864 2:815 
-0.25 1:866 2:816 
-0.25 1:861 2:812 
-0.25 1:859 2:810 
-0.25 1:858 2:809 
-0.25 1:857 2:809 
-0.25 1:859 2:811 
-0.25 1:860 2:811 
-0.25 1:856 2:809 
-0.25 1:858 2:809 
-0.25 1:858 2:810 
-0.25 1:861 2:813 
-0.25 1:861 2:814 
-0.25 1:863 2:815 
-0.2250640096024497 1:862 2:814 
-0.25 1:861 2:815 
-0.25 1:862 2:814 
-0.25 1:863 2:815 
-0.25 1:861 2:815 
-0.234658717672248 1:861 2:815 
-0.25 1:862 2:815 
-0.25 1:857 2:810 
-0.25 1:857 2:811 
-0.25 1:782 2:729 
-0.25 1:779 2:731 
-0.25 1:775 2:730 
-0.25 1:771 2:729 
-0.25 1:770 2:729 
-0.25 1:774 2:733 
-0.25 1:772 2:731 
-0.25 1:770 2:729 
-0.25 1:771 2:731 
-0.25 1:768 2:728 
-0.25 1:765 2:725 
-0.25 1:764 2:725 
-0.25 1:766 2:727 
-0.25 1:764 2:725 
-0.25 1:767 2:729 
-0.25 1:771 2:733 
-0.25 1:769 2:730 
-0.25 1:769 2:730 
-0.25 1:768 2:730 
-0.25 1:766 2:728 
-0.25 1:763 2:725 
-0.25 1:765 2:727 
-0.25 1:765 2:726 
-0.25 1:762 2:725 
-0.25 1:766 2:730 
-0.25 1:769 2:733 
-0.25 1:766 2:730 
-0.25 1:768 2:732 
-0.25 1:766 2:729 
-0.25 1:761 2:725 
-0.25 1:763 2:728 
-0.25 1:768 2:732 
-0.25 1:768 2:732 
-0.25 1:767 2:731 
-0.25 1:766 2:730 
-0.25 1:764 2:728 
-0.25 1:761 2:726 
-0.25 1:760 2:726 
-0.25 1:767 2:731 
-0.25 1:765 2:729 
-0.25 1:764 2:728 
-0.2477138345253558 1:763 2:728 
-0.25 1:762 2:727 
-0.25 1:760 2:725 
-0.25 1:763 2:729 
-0.25 1:762 2:728 
-0.25 1:762 2:728 
-0.25 1:761 2:727 
-0.25 1:761 2:727 
-0.25 1:759 2:725 
-0.25 1:758 2:724 
-0.25 1:645 2:591 
-0.25 1:643 2:592 
-0.25 1:644 2:593 
-0.25 1:643 2:594 
-0.1132291749553453 1:643 2:593 
-0.25 1:646 2:596 
-0.25 1:644 2:595 
-0.25 1:644 2:596 
-0.168806604342457 1:646 2:598 
-0.25 1:646 2:598 
-0.2442593284406987 1:650 2:603 
-0.25 1:650 2:603 
-0.1444483934301165 1:648 2:601 
-0.25 1:644 2:598 
-0.25 1:645 2:600 
-0.1129404737550633 1:644 2:599 
-0.25 1:648 2:603 
-0.06592423498504567 1:648 2:605 
-0.03038088739063389 1:647 2:603 
-0.05102053697241888 1:647 2:604 
-0.25 1:642 2:599 
-0.117943491620612 1:644 2:600 
-0.25 1:648 2:605 
-0.003079022130519062 1:645 2:602 
-0.05790570473393957 1:641 2:599 
-0.2230237599050188 1:642 2:601 
-0.1071624197232116 1:645 2:603 
-0.25 1:646 2:604 
-0.25 1:643 2:603 
-0.25 1:641 2:599 
-0.25 1:642 2:601 
-0.25 1:645 2:591 
-0.25 1:644 2:593 
-0.25 1:643 2:592 
-0.2169608093367785 1:644 2:593 
-0.25 1:643 2:594 
-0.25 1:643 2:593 
-0.25 1:646 2:596 
-0.25 1:644 2:595 
-0.25 1:644 2:596 
-0.25 1:646 2:598 
-0.25 1:646 2:598 
-0.25 1:648 2:601 
-0.25 1:648 2:601 
-0.25 1:650 2:603 
-0.2419806248333944 1:650 2:603 
-0.2067110566482306 1:647 2:602 
-0.25 1:648 2:601 
-0.2368348762376826 1:645 2:599 
-0.1721428433952814 1:645 2:599 
-0.25 1:644 2:598 
-0.25 1:645 2:600 
-0.25 1:644 2:599 
-0.25 1:645 2:602 
-0.25 1:648 2:603 
-0.25 1:648 2:605 
-0.25 1:647 2:602 
-0.25 1:647 2:603 
-0.25 1:647 2:604 
-0.223773102165561 1:647 2:602 
-0.25 1:642 2:599 
-0.25 1:644 2:600 
-0.2231068871825568 1:644 2:600 
-0.127286177924777 1:648 2:604 
-0.25 1:648 2:605 
-0.25 1:646 2:604 
-0.1465143265231021 1:644 2:602 
-0.2136328793802973 1:648 2:604 
-0.25 1:645 2:602 
-0.25 1:641 2:599 
-0.25 1:642 2:601 
-0.25 1:644 2:602 
-0.25 1:645 2:603 
-0.2476997128771251 1:645 2:603 
-0.246251751716758 1:644 2:602 
-0.2448457516270507 1:646 2:604 
-0.25 1:643 2:603 
-0.25 1:641 2:599 
-0.2489896001268744 1:642 2:601 
-0.25 1:425 2:386 
-0.25 1:429 2:390 
-0.25 1:430 2:393 
-0.25 1:431 2:394 
-0.25 1:432 2:396 
-0.25 1:432 2:398 
-0.25 1:434 2:401 
-0.25 1:436 2:403 
-0.25 1:437 2:404 
-0.25 1:436 2:407 
-0.25 1:439 2:408 
-0.25 1:440 2:410 
-0.25 1:443 2:414 
-0.25 1:442 2:414 
-0.25 1:442 2:416 
-0.25 1:445 2:419 
-0.25 1:447 2:423 
-0.25 1:449 2:424 
-0.25 1:452 2:427 
-0.25 1:451 2:429 
-0.25 1:454 2:432 
-0.25 1:455 2:432 
-0.25 1:455 2:435 
-0.25 1:456 2:435 
-0.25 1:455 2:435 
-0.25 1:457 2:438 
-0.25 1:458 2:440 
-0.25 1:459 2:441 
-0.25 1:460 2:443 
-0.25 1:461 2:444 
-0.25 1:461 2:447 
-0.25 1:465 2:450 
-0.25 1:467 2:452 
-0.25 1:466 2:452 
-0.25 1:468 2:454 
-0.25 1:468 2:456 
-0.25 1:467 2:455 
-0.25 1:468 2:456 
-0.25 1:471 2:459 
-0.25 1:471 2:459 
-0.25 1:472 2:461 
-0.25 1:473 2:463 
-0.25 1:475 2:465 
-0.25 1:477 2:469 
-0.25 1:477 2:468 
-0.25 1:478 2:470 
-0.25 1:480 2:472 
-0.25 1:479 2:472 
-0.25 1:481 2:474 
-0.25 1:479 2:474 
-0.25 1:480 2:474 
-0.25 1:665 2:699 
-0.25 1:664 2:698 
-0.25 1:665 2:699 
-0.25 1:666 2:700 
-0.25 1:665 2:698 
-0.25 1:665 2:697 
-0.25 1:667 2:699 
-0.25 1:663 2:696 
-0.25 1:664 2:699 
-0.25 1:664 2:695 
-0.2169051750374997 1:666 2:698 
-0.25 1:668 2:701 
-0.25 1:668 2:701 
-0.1980184476250526 1:666 2:699 
-0.25 1:666 2:699 
-0.25 1:668 2:700 
-0.1621418853889387 1:669 2:701 
-0.1765030324595191 1:668 2:700 
-0.2390413127936238 1:666 2:697 
-0.1936963323639934 1:670 2:702 
-0.03871342652092322 1:668 2:699 
-0.25 1:666 2:697 
-0.25 1:668 2:699 
-0.25 1:670 2:702 
-0.2353342138703913 1:669 2:701 
-0.1091701532256677 1:669 2:700 
-0.25 1:672 2:703 
-0.25 1:671 2:702 
-0.25 1:671 2:701 
-0.25 1:669 2:700 
-0.25 1:667 2:698 
-0.2259580460784253 1:668 2:698 
-0.25 1:666 2:697 
-0.25 1:670 2:700 
-0.2267396986999956 1:670 2:701 
-0.2395177316723884 1:670 2:702 
-0.25 1:671 2:701 
-0.25 1:672 2:702 
-0.25 1:669 2:699 
-0.25 1:668 2:698 
-0.2341220969414957 1:668 2:698 
-0.25 1:672 2:703 
-0.25 1:772 2:780 
-0.25 1:776 2:783 
-0.25 1:777 2:785 
-0.25 1:775 2:783 
-0.25 1:775 2:783 
-0.25 1:771 2:780 
-0.25 1:776 2:785 
-0.1210964038590357 1:774 2:783 
-0.25 1:777 2:785 
-0.25 1:772 2:782 
-0.25 1:771 2:781 
-0.25 1:774 2:783 
-0.1256155536113922 1:773 2:784 
-0.25 1:776 2:786 
-0.25 1:769 2:780 
-0.2463092208057223 1:773 2:783 
-0.25 1:774 2:783 
-0.25 1:769 2:779 
-0.2064955650732862 1:770 2:781 
-0.08465752443865387 1:772 2:784 
-0.25 1:775 2:786 
-0.25 1:775 2:786 
-0.2200106755570974 1:773 2:784 
-0.25 1:770 2:781 
-0.25 1:768 2:780 
-0.25 1:772 2:784 
-0.25 1:773 2:786 
-0.25 1:774 2:786 
-0.25 1:773 2:785 
-0.25 1:773 2:782 
-0.25 1:771 2:782 
-0.25 1:768 2:780 
-0.25 1:767 2:778 
-0.25 1:768 2:780 
-0.25 1:772 2:783 
-0.2165088322939905 1:772 2:783 
-0.25 1:772 2:784 
-0.25 1:770 2:782 
-0.25 1:770 2:782 
-0.25 1:773 2:785 
-0.25 1:768 2:778 
-0.25 1:769 2:781 
-0.2108509994774778 1:769 2:780 
-0.25 1:769 2:782 
-0.25 1:791 2:791 
-0.25 1:791 2:792 
-0.25 1:790 2:792 
-0.25 1:789 2:789 
-0.25 1:789 2:789 
-0.2253707469486304 1:791 2:794 
-0.25 1:793 2:794 
-0.25 1:791 2:794 
-0.25 1:793 2:796 
-0.25 1:791 2:794 
-0.25 1:789 2:791 
-0.25 1:787 2:790 
-0.25 1:789 2:792 
-0.1247260764763791 1:790 2:794 
-0.01687106586668258 1:790 2:793 
-0.25 1:792 2:795 
-0.25 1:790 2:793 
-0.25 1:792 2:795 
-0.25 1:786 2:789 
-0.25 1:789 2:793 
-0.25 1:790 2:793 
-0.06388237134469121 1:786 2:790 
-0.25 1:786 2:790 
-0.25 1:787 2:791 
-0.25 1:788 2:794 
-0.2322285767359711 1:789 2:794 
-0.25 1:787 2:790 
-0.25 1:788 2:793 
-0.25 1:790 2:795 
-0.25 1:790 2:795 
-0.25 1:787 2:791 
-0.2009897231045436 1:786 2:791 
-0.02204817926040109 1:785 2:791 
-0.1909145355399755 1:787 2:793 
-0.25 1:788 2:794 
-0.2483099380494782 1:789 2:794 
-0.25 1:787 2:792 
-0.25 1:785 2:790 
-0.25 1:783 2:789 
-0.25 1:784 2:788 
-0.25 1:785 2:790 
-0.25 1:785 2:791 
-0.25 1:787 2:793 
-0.25 1:786 2:792 
-0.25 1:785 2:792 
-0.25 1:785 2:791 
-0.25 1:787 2:793 
-0.25 1:784 2:790 
-0.25 1:859 2:836 
-0.25 1:861 2:838 
-0.25 1:860 2:837 
-0.25 1:858 2:836 
-0.25 1:860 2:838 
-0.25 1:860 2:836 
-0.25 1:860 2:838 
-0.25 1:861 2:840 
-0.25 1:864 2:842 
-0.25 1:861 2:840 
-0.25 1:862 2:841 
-0.25 1:864 2:842 
-0.25 1:861 2:841 
-0.25 1:863 2:842 
-0.25 1:862 2:842 
-0.25 1:859 2:839 
-0.25 1:858 2:839 
-0.25 1:859 2:839 
-0.25 1:859 2:839 
-0.25 1:855 2:836 
-0.08674619031178732 1:857 2:839 
-0.2401835233513729 1:854 2:836 
-0.25 1:857 2:838 
-0.25 1:853 2:835 
-0.25 1:854 2:835 
-0.25 1:854 2:835 
-0.25 1:854 2:837 
-0.2480066580924969 1:854 2:836 
-0.25 1:857 2:840 
-0.25 1:857 2:838 
-0.1515405968734658 1:856 2:839 
-0.25 1:858 2:842 
-0.25 1:856 2:839 
-0.25 1:858 2:842 
-0.25 1:857 2:839 
-0.2450397004444963 1:858 2:842 
-0.25 1:856 2:840 
-0.25 1:857 2:841 
-0.25 1:854 2:838 
-0.25 1:855 2:840 
-0.25 1:857 2:841 
-0.25 1:858 2:841 
-0.25 1:857 2:842 
-0.2324910789465539 1:856 2:839 
-0.25 1:854 2:838 
-0.245817938524834 1:854 2:837 
-0.25 1:854 2:838 
-0.25 1:852 2:839 
-0.25 1:852 2:836 
-0.25 1:850 2:835 
