svm_type c_svc
kernel_type rbf
gamma 1
nr_class 2
total_sv 573
rho 0.0607765
label 1 -1
nr_sv 293 280
SV
0.9476800486354758 1:908 2:864 
0.7476059792457795 1:907 2:863 
0.2552218586965552 1:906 2:863 
0.7893561538790803 1:905 2:863 
0.1778899477832499 1:905 2:864 
0.5546184633555883 1:906 2:864 
0.8970640806226207 1:905 2:865 
0.6873626922450746 1:900 2:862 
1 1:903 2:864 
0.1952540816893591 1:900 2:863 
0.5585505936520274 1:901 2:863 
0.5694833385306056 1:901 2:862 
0.5922654681998798 1:896 2:858 
0.4995708051615746 1:895 2:858 
0.7418314479383166 1:896 2:859 
0.9501078935633156 1:893 2:856 
0.5786564989414223 1:893 2:858 
0.3608794033903352 1:894 2:858 
0.7333715318812024 1:894 2:859 
0.7086962024702208 1:892 2:857 
0.8969589078785974 1:900 2:864 
0.8679346613794259 1:896 2:861 
0.4286801846056643 1:895 2:862 
0.5086278454034144 1:892 2:859 
0.3272788494786421 1:891 2:859 
0.8497693424737626 1:894 2:861 
0.6955692495107867 1:896 2:863 
0.2186034384933859 1:896 2:864 
0.6540192961096845 1:897 2:865 
0.1178953021105964 1:892 2:858 
0.4613993904907402 1:890 2:859 
0.7046075735535986 1:890 2:857 
0.8014578402394653 1:889 2:856 
0.7827646317810867 1:887 2:855 
0.3793595533680867 1:889 2:857 
0.4845850875519714 1:891 2:861 
0.487719395928761 1:892 2:860 
0.6572123679868457 1:892 2:861 
0.8455996005742462 1:933 2:887 
0.06039694870055534 1:936 2:890 
1 1:936 2:890 
0.7958435339317474 1:925 2:882 
0.4799213964414731 1:926 2:883 
0.1236559390922512 1:932 2:891 
0.6990262169325067 1:933 2:891 
0.733517547033549 1:920 2:882 
0.2340633777681988 1:927 2:890 
0.1542509075546526 1:925 2:889 
0.2984003549041385 1:920 2:883 
0.167809824317207 1:922 2:884 
0.7539387388929226 1:918 2:884 
0.5266845608923307 1:916 2:882 
0.4602277218397415 1:921 2:886 
0.2458935847520936 1:895 2:861 
0.3925687341800385 1:896 2:865 
0.6651932065142674 1:895 2:865 
0.7394649039094314 1:887 2:856 
0.3781842642060777 1:890 2:860 
0.2323074936202539 1:889 2:860 
0.9656640608651968 1:891 2:863 
0.4747536180225239 1:894 2:865 
0.8556156968625936 1:893 2:865 
0.4939956886351156 1:888 2:860 
0.7280728693239968 1:884 2:858 
0.7544757799573987 1:883 2:857 
0.7134072329514032 1:885 2:860 
0.6034728304980918 1:889 2:862 
0.4365208717474332 1:890 2:864 
0.4290118630483424 1:889 2:864 
0.2132358806040583 1:883 2:858 
0.6816907760199146 1:881 2:857 
0.7493475196119673 1:882 2:858 
0.6245876623221688 1:883 2:860 
0.3354822786688694 1:887 2:864 
0.5858767877214061 1:884 2:861 
0.6891649646673248 1:880 2:857 
0.5843969508288688 1:883 2:862 
0.9493196707873887 1:878 2:857 
0.2249677325454264 1:880 2:860 
0.6638469272130753 1:880 2:861 
0.49212948668593 1:875 2:856 
1 1:876 2:858 
0.6773917501195819 1:879 2:860 
0.2973391097359417 1:925 2:880 
0.4901853367255586 1:932 2:887 
0.3607250282978093 1:930 2:887 
0.4520792890692024 1:931 2:888 
0.3601355195760545 1:928 2:884 
0.5584243444135613 1:928 2:885 
0.375917397908451 1:928 2:886 
0.7281715819371792 1:926 2:884 
0.6323169315378223 1:921 2:881 
0.7308655893184662 1:922 2:882 
0.5875212185732507 1:925 2:885 
0.4412982924253882 1:924 2:886 
0.1624975349658062 1:923 2:885 
0.5375350542781209 1:922 2:883 
0.5121272270333702 1:918 2:882 
0.2410357981744948 1:922 2:886 
0.6889319937210056 1:916 2:880 
0.5865411719888383 1:917 2:880 
0.6444570712338382 1:918 2:881 
0.7892745965298749 1:913 2:878 
0.4337516253607041 1:911 2:876 
0.40472410770146 1:916 2:883 
0.5239846068092067 1:917 2:883 
0.5606210567677246 1:919 2:883 
0.2652533520319561 1:895 2:863 
0.8536870418380826 1:894 2:863 
0.5860777412640981 1:897 2:864 
0.5510163725242575 1:891 2:858 
0.1484605768505681 1:888 2:859 
0.4769965944428686 1:890 2:861 
0.7725170929252828 1:888 2:858 
0.4858380749490411 1:889 2:859 
0.3481783123117158 1:888 2:861 
0.7195879245412032 1:886 2:858 
0.2853144045272814 1:889 2:861 
0.2906112604797388 1:886 2:859 
0.8416392628191015 1:885 2:857 
0.5572695393481648 1:887 2:861 
0.5337555120811418 1:887 2:859 
0.5056159036408806 1:886 2:860 
0.3806392774744886 1:889 2:863 
0.7178730454182446 1:890 2:865 
0.9429954718980196 1:892 2:867 
0.8269008561984202 1:891 2:866 
0.3822652905354441 1:888 2:863 
0.5300311144438683 1:887 2:862 
0.4086808236390931 1:888 2:864 
0.1255534215584052 1:883 2:861 
0.3059383014895026 1:885 2:863 
0.2680272126391767 1:887 2:863 
0.1625188002598375 1:884 2:862 
0.6249668932836356 1:885 2:862 
0.8669236267147802 1:887 2:865 
0.6142605544298432 1:886 2:863 
0.6523703745091958 1:880 2:859 
0.6231065009104962 1:879 2:858 
0.6388965467615709 1:882 2:860 
0.3817255371652811 1:884 2:863 
0.2345387552055758 1:882 2:861 
0.8630688503099178 1:884 2:864 
0.654320249484197 1:881 2:862 
0.7496855267813791 1:876 2:856 
0.7782814031161674 1:875 2:855 
0.2956305973803335 1:879 2:859 
0.431571311054218 1:882 2:862 
0.2945158372292507 1:881 2:861 
0.9489621467088221 1:929 2:880 
0.7269261565822973 1:928 2:881 
0.7211101824111312 1:927 2:880 
0.3410139255835121 1:926 2:880 
0.5637895551595072 1:926 2:881 
0.6011990454190181 1:927 2:882 
0.8669525574056475 1:923 2:878 
0.5664766580287377 1:919 2:875 
0.7481095662096042 1:921 2:877 
0.7017411422637356 1:924 2:881 
0.2568347569037167 1:927 2:883 
0.8297594255623184 1:925 2:879 
0.3331978084190837 1:924 2:880 
0.4290491033042918 1:923 2:880 
0.4247288470757243 1:923 2:879 
0.7383844350209484 1:920 2:876 
0.3545190235052421 1:919 2:876 
0.6725674057247092 1:918 2:875 
0.5242310518474103 1:921 2:878 
0.4602200756959138 1:921 2:879 
0.1914241554969887 1:921 2:880 
0.05795213597945727 1:918 2:876 
0.5677967182791389 1:917 2:876 
0.6721333568978063 1:916 2:875 
0.582609544676255 1:922 2:880 
0.3775435611995746 1:919 2:879 
0.6980005341477394 1:918 2:877 
0.3940434466086192 1:912 2:874 
0.8037667324980572 1:915 2:875 
0.4229263228243162 1:920 2:880 
0.4053674553006046 1:920 2:879 
0.7279946945138884 1:918 2:879 
0.6691501680275108 1:912 2:873 
0.4735334735920899 1:917 2:877 
0.7854767469613838 1:915 2:878 
0.6769937733781117 1:916 2:878 
0.8140408654666184 1:913 2:874 
0.9671408659338897 1:911 2:872 
0.8217886527325995 1:911 2:875 
0.494862698145208 1:919 2:880 
0.9537412494648021 1:931 2:883 
0.9569338329604888 1:932 2:885 
0.7197170899271915 1:930 2:884 
0.6455917981339783 1:928 2:883 
0.4757632795117911 1:929 2:884 
0.231189648324096 1:931 2:887 
0.5392827701327566 1:931 2:886 
0.4320183753810172 1:930 2:886 
0.9379151468321065 1:933 2:889 
0.1734202271190711 1:931 2:890 
0.8659536176159457 1:934 2:892 
0.6072503072908121 1:932 2:892 
0.6324346217030146 1:933 2:893 
0.521575923491442 1:931 2:891 
0.262150608412432 1:927 2:888 
0.4943373303066604 1:930 2:891 
0.2945394085918924 1:928 2:890 
0.1572603341138034 1:925 2:886 
0.7230833603212491 1:923 2:884 
0.5292374377850642 1:927 2:887 
0.5760576153077219 1:929 2:890 
0.7160685981418362 1:929 2:892 
0.3569302584822425 1:927 2:889 
0.3946759324961414 1:922 2:885 
0.3677161975171417 1:928 2:891 
0.4170430432625951 1:926 2:890 
0.6972824130020294 1:925 2:890 
0.5920694657233401 1:920 2:886 
0.7457661795705117 1:919 2:885 
0.6299031390101156 1:924 2:889 
0.8606708715813215 1:915 2:881 
0.5841243061511345 1:929 2:886 
0.5525918438770595 1:932 2:890 
0.5999072400366202 1:929 2:888 
0.4002741925214792 1:927 2:886 
0.4300956201503087 1:928 2:888 
0.4040285270244939 1:928 2:889 
0.5758528844797063 1:926 2:886 
0.409723156313834 1:924 2:885 
0.4697729579420316 1:926 2:888 
0.2996866912246127 1:925 2:888 
0.5146760416539985 1:923 2:886 
0.485685878338631 1:921 2:884 
0.4777648404166738 1:920 2:884 
0.3324671705749629 1:921 2:885 
0.3115481071088884 1:917 2:882 
0.4688058651820101 1:913 2:879 
0.5499929065028488 1:912 2:879 
0.8722613133399173 1:911 2:877 
0.8385389003596549 1:913 2:881 
0.4595245159356336 1:915 2:884 
0.9303772755732862 1:917 2:886 
0.3254722395263455 1:915 2:883 
0.8384831036897206 1:916 2:885 
0.5737983695662712 1:912 2:880 
0.8733011479195718 1:908 2:877 
0.2899093333551383 1:914 2:884 
0.556402509599047 1:909 2:879 
0.705152293711986 1:909 2:878 
0.6111310906313726 1:907 2:878 
0.5501754315410179 1:911 2:881 
0.6605106472273874 1:910 2:880 
0.3166228497154381 1:909 2:880 
1 1:905 2:878 
0.7311472082398977 1:909 2:881 
0.8057729206777839 1:907 2:879 
0.3860332483835152 1:930 2:888 
0.5990132241777479 1:931 2:889 
0.4102546824626815 1:930 2:890 
1 1:936 2:895 
0.7565792391175178 1:932 2:894 
0.3055462871817372 1:932 2:893 
1 1:934 2:896 
0.3051631163896714 1:926 2:889 
0.59642649104997 1:925 2:887 
0.3763341388734372 1:924 2:888 
0.6568944602904304 1:931 2:895 
0.8139230031623029 1:931 2:896 
0.8651595992636801 1:928 2:893 
0.6800825630502919 1:927 2:891 
0.237157199634162 1:928 2:892 
0.5417442022312032 1:923 2:888 
0.5037786348667143 1:922 2:888 
0.5502776722356523 1:922 2:887 
0.05881228121280789 1:919 2:884 
0.8129893613291114 1:920 2:888 
0.8470899565413097 1:919 2:887 
0.6757980968853015 1:922 2:890 
0.4707572959421091 1:923 2:891 
1 1:925 2:893 
0.5243921204237434 1:922 2:891 
0.8050622535506274 1:923 2:892 
0.7795454130952442 1:921 2:889 
0.730682184239866 1:914 2:883 
0.7338447516510085 1:914 2:885 
0.7345137060796666 1:912 2:882 
0.2948603069912497 1:911 2:882 
0.7441327710669784 1:910 2:882 
0.8501281499105997 1:913 2:886 
1 1:915 2:888 
0.817057475980879 1:911 2:885 
0.629098695481049 1:912 2:885 
1 1:913 2:888 
1 1:909 2:884 
-0.8187974654814073 1:866 2:807 
-0.81819904069005 1:867 2:808 
-0.7092572499654541 1:865 2:809 
-0.9392710258261673 1:872 2:814 
-0.7624814774841868 1:868 2:811 
-0.441936696994581 1:867 2:811 
-0.7534689559816962 1:866 2:810 
-0.6980517285167787 1:863 2:809 
-0.7297838613130979 1:864 2:808 
-0.7292846520075739 1:862 2:808 
-0.7652577617983245 1:866 2:812 
-0.4808434477212381 1:867 2:814 
-0.500734824887613 1:866 2:814 
-0.5748563443065546 1:867 2:813 
-0.7630673115706132 1:864 2:811 
-0.3781729797449298 1:863 2:811 
-0.7525527830838901 1:861 2:809 
-0.9282195555762311 1:859 2:807 
-0.4799094892799332 1:860 2:810 
-0.932897707990193 1:857 2:806 
-0.6748709626292958 1:862 2:811 
-0.6796450086520555 1:863 2:813 
-0.3848287213317497 1:866 2:815 
-0.567689223794274 1:864 2:814 
-0.2793756456803844 1:862 2:813 
-0.529475121851235 1:864 2:815 
-0.7817119104233864 1:866 2:816 
-0.5742520725151249 1:861 2:812 
-0.3020686585644705 1:859 2:810 
-0.2714111569504359 1:857 2:809 
-0.5474370407914936 1:859 2:811 
-0.4200812536662299 1:860 2:811 
-0.7868553198987848 1:856 2:809 
-0.6324667695055362 1:858 2:809 
-0.2695248357401332 1:858 2:810 
-0.4263795636135419 1:861 2:813 
-0.3551427479711337 1:861 2:814 
-0.2539804493489007 1:862 2:814 
-0.4678858509997288 1:863 2:815 
-0.6183120462895759 1:861 2:815 
-0.3719749390535735 1:862 2:815 
-0.2501209788913716 1:857 2:810 
-0.7842853735095425 1:857 2:811 
-0.9392129271751102 1:782 2:729 
-0.9392071253277605 1:779 2:731 
-0.9391465170702198 1:775 2:730 
-0.7059701401834414 1:771 2:729 
-0.9387965336181539 1:774 2:733 
-0.6897726495696828 1:772 2:731 
-0.5775727098252891 1:770 2:729 
-0.6469341631245866 1:771 2:731 
-0.8336306001248739 1:768 2:728 
-0.6004520802030386 1:765 2:725 
-0.537037337046449 1:766 2:727 
-0.4410061212577124 1:764 2:725 
-0.5575443009829874 1:767 2:729 
-0.9074803476944863 1:771 2:733 
-0.6539199626638379 1:769 2:730 
-0.4868557107251603 1:768 2:730 
-0.4598182845731977 1:766 2:728 
-0.5648654170198563 1:763 2:725 
-0.4146644154017728 1:765 2:727 
-0.4220836898143479 1:765 2:726 
-0.5035564450582461 1:762 2:725 
-0.823824892360605 1:769 2:733 
-0.0572241208476627 1:766 2:729 
-0.4691825119082102 1:761 2:725 
-0.7232413026085067 1:768 2:732 
-0.6452717826309246 1:766 2:730 
-0.1901167869381973 1:761 2:726 
-0.5320796570152644 1:760 2:726 
-0.6728601098431966 1:767 2:731 
-0.6515479416666797 1:765 2:729 
-0.5993267835243667 1:764 2:728 
-0.1975432872380261 1:763 2:728 
-0.4709696626233272 1:762 2:727 
-0.2934006918012991 1:760 2:725 
-0.7005135617854265 1:763 2:729 
-0.513122710898225 1:762 2:728 
-0.5381701742262236 1:761 2:727 
-0.6335821920307345 1:759 2:725 
-0.8513064994576828 1:758 2:724 
-0.9294369980483015 1:645 2:591 
-0.77629227173332 1:643 2:592 
-0.6694448585759839 1:644 2:593 
-0.6993106756460878 1:643 2:594 
-0.1459132126362551 1:643 2:593 
-0.9072385747781002 1:646 2:596 
-0.5699548099263159 1:644 2:595 
-0.6935227748799604 1:644 2:596 
-0.8543796953711844 1:646 2:598 
-0.9263381733454816 1:650 2:603 
-0.8398491668047477 1:648 2:601 
-0.3610512595465751 1:645 2:599 
-0.7601861716652202 1:644 2:598 
-0.5420291251987154 1:645 2:600 
-0.2253836066747649 1:644 2:599 
-0.5757044300734526 1:648 2:603 
-0.2258092606804384 1:647 2:603 
-0.2969171589118392 1:647 2:604 
-0.6398528507928181 1:647 2:602 
-0.6546352784201933 1:642 2:599 
-0.5697468579213774 1:644 2:600 
-0.7800327375591151 1:648 2:605 
-0.2772972337658226 1:648 2:604 
-0.4928383099277843 1:645 2:602 
-0.5634333290487613 1:645 2:603 
-0.5465925019880853 1:644 2:602 
-0.7010990817262176 1:646 2:604 
-0.8457680312095848 1:643 2:603 
-0.6925157918766673 1:641 2:599 
-0.9092186479234935 1:642 2:601 
-0.9391973821113224 1:425 2:386 
-0.9391806121932568 1:429 2:390 
-0.8281550392166409 1:430 2:393 
-0.821071741507355 1:431 2:394 
-0.9167699680398772 1:432 2:396 
-0.922246746034563 1:432 2:398 
-0.9388731503380495 1:434 2:401 
-0.8270566107504475 1:436 2:403 
-0.8272595109529276 1:437 2:404 
-0.9392128760904426 1:436 2:407 
-0.9329240750318147 1:439 2:408 
-0.9328730324190312 1:440 2:410 
-0.686738880264076 1:443 2:414 
-0.669343142552332 1:442 2:414 
-0.9224288151117812 1:442 2:416 
-0.9393136013345041 1:445 2:419 
-0.9328113796030061 1:447 2:423 
-0.9329061977310369 1:449 2:424 
-0.932986928530936 1:452 2:427 
-0.9329977740606078 1:451 2:429 
-0.6864821010439544 1:454 2:432 
-0.6870162419515931 1:455 2:432 
-0.6866423479779471 1:456 2:435 
-0.6861938103222956 1:455 2:435 
-0.9336319971047897 1:457 2:438 
-0.82163131795193 1:458 2:440 
-0.8223386094200142 1:459 2:441 
-0.8216648778703486 1:460 2:443 
-0.8275006873643268 1:461 2:444 
-0.9391160871670661 1:461 2:447 
-0.9343184745727515 1:465 2:450 
-0.6826707686209629 1:467 2:452 
-0.6812169131689572 1:466 2:452 
-0.8223472146957419 1:468 2:454 
-0.7159186575260853 1:467 2:455 
-0.8274164428840728 1:468 2:456 
-0.9330778200455206 1:471 2:459 
-0.9266497412320939 1:472 2:461 
-0.9328955799163322 1:473 2:463 
-0.9389333116996257 1:475 2:465 
-0.555164258555218 1:477 2:469 
-0.7292309320610456 1:477 2:468 
-0.8544244437842193 1:478 2:470 
-0.6761020672444521 1:480 2:472 
-0.667857140669649 1:479 2:472 
-0.7935232266869725 1:481 2:474 
-0.7812564855472853 1:479 2:474 
-0.3429991702539184 1:480 2:474 
-0.5552290554830108 1:664 2:698 
-0.4022581438761942 1:665 2:699 
-0.7436552974341181 1:666 2:700 
-0.08097139370823966 1:665 2:698 
-0.5655135887004329 1:665 2:697 
-0.4205642108304528 1:667 2:699 
-0.8199549441492618 1:663 2:696 
-0.5619103681750414 1:664 2:699 
-0.8241659003947968 1:664 2:695 
-0.3054333240060493 1:666 2:698 
-0.5873995524806095 1:668 2:701 
-0.160464597542939 1:666 2:699 
-0.4409283789183762 1:668 2:700 
-0.07933841204862993 1:668 2:699 
-0.4437500913652928 1:669 2:701 
-0.1583106143158466 1:671 2:702 
-0.02196388696872916 1:669 2:700 
-0.3125917926845331 1:667 2:698 
-0.548623744661407 1:666 2:697 
-0.6748911097337271 1:670 2:700 
-0.7071317880733378 1:670 2:702 
-0.6098214783017024 1:671 2:701 
-0.5212871910393106 1:672 2:702 
-0.6434781290441673 1:669 2:699 
-0.6317612131705161 1:668 2:698 
-0.7174316895791155 1:672 2:703 
-0.6987826773254161 1:772 2:780 
-0.7567168230848045 1:776 2:783 
-0.4343743104735259 1:775 2:783 
-0.5204944033073393 1:771 2:780 
-0.40362957741318 1:776 2:785 
-0.7149145160291934 1:777 2:785 
-0.3061787366134134 1:772 2:782 
-0.2471748986878037 1:771 2:781 
-0.4969611721472003 1:776 2:786 
-0.07504119061482774 1:773 2:783 
-0.584145013569886 1:774 2:783 
-0.6617061773968915 1:769 2:779 
-0.5134102952189713 1:775 2:786 
-0.3823007354344744 1:773 2:784 
-0.3424496327734028 1:770 2:781 
-0.5915395276589235 1:773 2:786 
-0.4601464895556644 1:774 2:786 
-0.6411474058157336 1:773 2:782 
-0.4819693006311027 1:771 2:782 
-0.7202503811098474 1:767 2:778 
-0.6936188278590018 1:768 2:780 
-0.3657524678886947 1:772 2:783 
-0.5745301005058676 1:772 2:784 
-0.3086368375276025 1:770 2:782 
-0.4296283545533879 1:773 2:785 
-0.5701886419081776 1:768 2:778 
-0.329338928460964 1:769 2:781 
-0.2433783645919645 1:769 2:780 
-0.6382477021391777 1:769 2:782 
-0.7025037644049064 1:791 2:791 
-0.5161770290599919 1:791 2:792 
-0.205960885799411 1:790 2:792 
-0.9214760978233528 1:789 2:789 
-0.8291283562304125 1:793 2:794 
-0.8408194529590763 1:793 2:796 
-0.6371621992150569 1:791 2:794 
-0.7166494895190599 1:789 2:791 
-0.3759950584467783 1:789 2:792 
-0.05083940412697691 1:790 2:794 
-0.612465692169244 1:792 2:795 
-0.753923164878946 1:786 2:789 
-0.236789911780126 1:789 2:793 
-0.4647436052686387 1:790 2:793 
-0.09071090616089762 1:786 2:790 
-0.5940617647371463 1:787 2:790 
-0.2569321459096033 1:788 2:793 
-0.7550195174690957 1:790 2:795 
-0.3987927683203249 1:787 2:791 
-0.2456538398612862 1:786 2:791 
-0.573957658612178 1:788 2:794 
-0.3985464075842938 1:789 2:794 
-0.3657194491409027 1:787 2:792 
-0.7405800187779377 1:783 2:789 
-0.8199728516181619 1:784 2:788 
-0.3883518046989006 1:785 2:790 
-0.288091029761986 1:786 2:792 
-0.6613489037405049 1:785 2:792 
-0.3075860059423925 1:785 2:791 
-0.5700890094660475 1:787 2:793 
-0.6267725684107424 1:784 2:790 
-0.3585975479364031 1:859 2:836 
-0.7103348491442181 1:861 2:838 
-0.3972496498006849 1:860 2:837 
-0.7875121394484221 1:858 2:836 
-0.6346577959369557 1:860 2:836 
-0.4167774065819838 1:860 2:838 
-0.6924201957360084 1:861 2:840 
-0.4133055595210118 1:862 2:841 
-0.7858114953374197 1:864 2:842 
-0.4524236191325824 1:861 2:841 
-0.3823225395314311 1:863 2:842 
-0.5662438094068559 1:862 2:842 
-0.4769335018263813 1:858 2:839 
-0.6821480276480458 1:859 2:839 
-0.7217602567884134 1:855 2:836 
-0.5927364056281907 1:853 2:835 
-0.5389994725403809 1:854 2:835 
-0.003551771768672509 1:854 2:837 
-0.1902556253461474 1:854 2:836 
-0.5023811888091185 1:857 2:840 
-0.7640981860263472 1:857 2:838 
-0.03873443329041108 1:857 2:839 
-0.5030723350356182 1:858 2:842 
-0.212084279598774 1:856 2:840 
-0.7693176085313304 1:855 2:840 
-0.2449725631788318 1:857 2:841 
-0.5012293067697019 1:858 2:841 
-0.5849001790751835 1:857 2:842 
-0.555916904400485 1:856 2:839 
-0.4760280314713316 1:854 2:837 
-0.7390250363685665 1:854 2:838 
-0.9339234687321694 1:852 2:839 
-0.8418817426736577 1:852 2:836 
-0.9335603008822086 1:850 2:835 
