svm_type c_svc
kernel_type rbf
gamma 2
nr_class 2
total_sv 918
rho -0.0990516
label 1 -1
nr_sv 459 459
SV
0.125 1:908 2:864 
0.125 1:907 2:863 
0.125 1:906 2:863 
0.125 1:906 2:864 
0.125 1:905 2:863 
0.125 1:905 2:864 
0.125 1:906 2:864 
0.125 1:905 2:865 
0.125 1:901 2:863 
0.125 1:900 2:862 
0.125 1:901 2:863 
0.125 1:903 2:864 
0.125 1:900 2:863 
0.125 1:901 2:863 
0.125 1:901 2:862 
0.125 1:896 2:858 
0.125 1:895 2:858 
0.125 1:896 2:859 
0.125 1:893 2:856 
0.125 1:893 2:858 
0.125 1:894 2:858 
0.125 1:894 2:859 
0.125 1:892 2:857 
0.125 1:894 2:861 
0.125 1:895 2:862 
0.125 1:897 2:864 
0.125 1:900 2:864 
0.125 1:896 2:861 
0.125 1:895 2:861 
0.125 1:895 2:862 
0.125 1:895 2:861 
0.125 1:897 2:865 
0.125 1:892 2:859 
0.125 1:891 2:859 
0.125 1:892 2:858 
0.125 1:894 2:861 
0.125 1:896 2:863 
0.125 1:896 2:864 
0.125 1:896 2:864 
0.125 1:897 2:865 
0.125 1:892 2:858 
0.125 1:887 2:855 
0.125 1:890 2:859 
0.125 1:890 2:857 
0.125 1:889 2:856 
0.125 1:887 2:855 
0.125 1:889 2:857 
0.125 1:892 2:861 
0.125 1:891 2:861 
0.125 1:892 2:860 
0.125 1:892 2:861 
0.125 1:933 2:887 
0.125 1:936 2:890 
0.125 1:936 2:890 
0.125 1:930 2:887 
0.125 1:929 2:884 
0.125 1:925 2:882 
0.125 1:928 2:885 
0.125 1:928 2:886 
0.125 1:927 2:886 
0.125 1:926 2:883 
0.125 1:928 2:888 
0.125 1:931 2:889 
0.125 1:931 2:890 
0.125 1:932 2:891 
0.125 1:933 2:891 
0.125 1:932 2:890 
0.125 1:927 2:888 
0.125 1:929 2:890 
0.125 1:930 2:890 
0.125 1:926 2:886 
0.125 1:920 2:882 
0.125 1:924 2:886 
0.125 1:929 2:890 
0.125 1:928 2:890 
0.125 1:930 2:890 
0.125 1:924 2:885 
0.125 1:922 2:884 
0.125 1:927 2:889 
0.125 1:928 2:891 
0.125 1:927 2:890 
0.125 1:927 2:888 
0.125 1:922 2:884 
0.125 1:920 2:882 
0.125 1:922 2:885 
0.125 1:927 2:890 
0.125 1:924 2:888 
0.125 1:925 2:889 
0.125 1:926 2:888 
0.125 1:920 2:883 
0.125 1:922 2:884 
0.125 1:926 2:890 
0.08391288400282269 1:922 2:887 
0.125 1:924 2:888 
0.125 1:924 2:886 
0.125 1:918 2:884 
0.125 1:916 2:882 
0.125 1:925 2:890 
0.125 1:922 2:887 
0.125 1:921 2:885 
0.125 1:921 2:886 
0.125 1:921 2:884 
0.125 1:895 2:861 
0.125 1:897 2:864 
0.125 1:894 2:863 
0.125 1:896 2:865 
0.125 1:895 2:865 
0.125 1:887 2:856 
0.125 1:890 2:860 
0.125 1:889 2:860 
0.125 1:894 2:865 
0.125 1:891 2:863 
0.125 1:894 2:865 
0.125 1:893 2:865 
0.125 1:889 2:862 
0.125 1:888 2:860 
0.125 1:884 2:858 
0.125 1:883 2:857 
0.125 1:885 2:860 
0.125 1:887 2:862 
0.125 1:889 2:862 
0.125 1:889 2:863 
0.125 1:890 2:864 
0.125 1:889 2:864 
0.125 1:887 2:862 
0.125 1:883 2:858 
0.125 1:881 2:857 
0.125 1:882 2:858 
0.125 1:883 2:860 
0.125 1:887 2:864 
0.125 1:883 2:861 
0.125 1:884 2:861 
0.125 1:884 2:861 
0.125 1:880 2:857 
0.125 1:883 2:862 
0.125 1:884 2:863 
0.125 1:882 2:860 
0.125 1:882 2:860 
0.125 1:878 2:857 
0.125 1:878 2:857 
0.125 1:879 2:858 
0.125 1:880 2:860 
0.125 1:884 2:862 
0.125 1:879 2:859 
0.125 1:879 2:858 
0.125 1:880 2:861 
0.125 1:876 2:856 
0.125 1:875 2:856 
0.125 1:876 2:858 
0.125 1:882 2:862 
0.125 1:879 2:859 
0.125 1:881 2:861 
0.125 1:879 2:860 
0.125 1:927 2:883 
0.125 1:925 2:880 
0.125 1:930 2:884 
0.125 1:931 2:887 
0.125 1:932 2:887 
0.125 1:930 2:887 
0.125 1:931 2:888 
0.125 1:928 2:884 
0.125 1:928 2:885 
0.125 1:928 2:886 
0.125 1:926 2:884 
0.125 1:926 2:884 
0.125 1:922 2:880 
0.125 1:921 2:881 
0.125 1:920 2:879 
0.125 1:921 2:880 
0.125 1:920 2:880 
0.125 1:922 2:882 
0.125 1:919 2:879 
0.125 1:920 2:880 
0.125 1:923 2:884 
0.125 1:922 2:883 
0.125 1:925 2:885 
0.125 1:925 2:885 
0.125 1:924 2:885 
0.125 1:924 2:886 
0.125 1:923 2:885 
0.125 1:919 2:879 
0.125 1:916 2:878 
0.125 1:923 2:886 
0.125 1:923 2:886 
0.125 1:922 2:883 
0.125 1:922 2:885 
0.125 1:916 2:878 
0.125 1:915 2:878 
0.125 1:918 2:882 
0.125 1:923 2:886 
0.125 1:922 2:886 
0.125 1:921 2:884 
0.125 1:918 2:881 
0.125 1:916 2:880 
0.125 1:917 2:880 
0.125 1:921 2:885 
0.125 1:922 2:885 
0.125 1:918 2:881 
0.125 1:919 2:883 
0.125 1:913 2:878 
0.125 1:911 2:876 
0.125 1:916 2:883 
0.125 1:917 2:883 
0.125 1:919 2:883 
0.125 1:895 2:863 
0.125 1:894 2:863 
0.125 1:897 2:864 
0.125 1:891 2:858 
0.125 1:888 2:859 
0.125 1:890 2:861 
0.125 1:888 2:858 
0.125 1:889 2:859 
0.125 1:888 2:861 
0.125 1:886 2:858 
0.125 1:889 2:861 
0.125 1:886 2:859 
0.125 1:885 2:857 
0.125 1:887 2:861 
0.125 1:887 2:859 
0.125 1:886 2:860 
0.125 1:889 2:863 
0.125 1:889 2:863 
0.125 1:890 2:865 
0.125 1:892 2:867 
0.125 1:891 2:866 
0.125 1:888 2:863 
0.125 1:888 2:864 
0.125 1:887 2:862 
0.125 1:888 2:864 
0.125 1:883 2:861 
0.125 1:884 2:862 
0.125 1:884 2:863 
0.125 1:886 2:863 
0.125 1:885 2:863 
0.125 1:887 2:863 
0.125 1:884 2:862 
0.125 1:886 2:863 
0.125 1:885 2:862 
0.125 1:887 2:865 
0.125 1:886 2:863 
0.125 1:880 2:859 
0.125 1:879 2:858 
0.125 1:882 2:860 
0.125 1:882 2:861 
0.125 1:884 2:864 
0.125 1:882 2:862 
0.125 1:884 2:863 
0.125 1:882 2:861 
0.125 1:884 2:864 
0.125 1:881 2:862 
0.125 1:876 2:856 
0.125 1:875 2:855 
0.125 1:879 2:859 
0.125 1:882 2:862 
0.125 1:881 2:861 
0.125 1:929 2:880 
0.125 1:928 2:881 
0.125 1:927 2:880 
0.125 1:926 2:880 
0.125 1:926 2:881 
0.125 1:927 2:882 
0.125 1:923 2:878 
0.125 1:919 2:875 
0.125 1:921 2:877 
0.125 1:924 2:881 
0.125 1:927 2:883 
0.125 1:925 2:879 
0.125 1:924 2:880 
0.125 1:923 2:880 
0.125 1:923 2:879 
0.125 1:920 2:876 
0.125 1:919 2:876 
0.125 1:918 2:875 
0.125 1:916 2:875 
0.125 1:921 2:878 
0.125 1:920 2:880 
0.125 1:922 2:880 
0.125 1:921 2:879 
0.125 1:922 2:880 
0.125 1:921 2:879 
0.125 1:921 2:880 
0.125 1:918 2:876 
0.125 1:917 2:876 
0.125 1:916 2:875 
0.125 1:920 2:880 
0.125 1:918 2:879 
0.125 1:922 2:880 
0.125 1:919 2:879 
0.125 1:918 2:877 
0.125 1:912 2:874 
0.125 1:915 2:875 
0.125 1:920 2:880 
0.125 1:920 2:879 
0.125 1:919 2:880 
0.125 1:918 2:879 
0.125 1:918 2:879 
0.125 1:913 2:874 
0.125 1:912 2:873 
0.125 1:912 2:873 
0.125 1:917 2:877 
0.125 1:915 2:878 
0.125 1:916 2:878 
0.125 1:913 2:874 
0.125 1:911 2:872 
0.125 1:911 2:875 
0.125 1:919 2:880 
0.125 1:931 2:883 
0.125 1:932 2:885 
0.125 1:930 2:884 
0.125 1:931 2:886 
0.125 1:928 2:883 
0.125 1:929 2:884 
0.125 1:931 2:887 
0.125 1:931 2:886 
0.125 1:930 2:886 
0.125 1:933 2:889 
0.125 1:933 2:889 
0.125 1:932 2:890 
0.125 1:931 2:890 
0.125 1:934 2:892 
0.125 1:932 2:892 
0.125 1:933 2:893 
0.125 1:933 2:892 
0.125 1:931 2:891 
0.125 1:928 2:888 
0.125 1:926 2:886 
0.125 1:928 2:888 
0.125 1:927 2:888 
0.125 1:927 2:889 
0.125 1:930 2:891 
0.125 1:928 2:890 
0.125 1:925 2:886 
0.125 1:923 2:884 
0.125 1:927 2:887 
0.125 1:929 2:892 
0.125 1:929 2:890 
0.125 1:929 2:892 
0.125 1:926 2:888 
0.125 1:925 2:888 
0.125 1:927 2:889 
0.125 1:921 2:884 
0.125 1:922 2:885 
0.125 1:921 2:884 
0.125 1:925 2:888 
0.125 1:928 2:891 
0.125 1:926 2:890 
0.125 1:925 2:890 
0.125 1:920 2:886 
0.125 1:917 2:882 
0.125 1:919 2:885 
0.125 1:924 2:889 
0.125 1:922 2:887 
0.125 1:922 2:887 
0.125 1:924 2:889 
0.125 1:922 2:887 
0.125 1:917 2:882 
0.125 1:915 2:881 
0.125 1:929 2:886 
0.125 1:932 2:890 
0.125 1:929 2:888 
0.125 1:927 2:886 
0.125 1:927 2:886 
0.125 1:928 2:888 
0.125 1:928 2:888 
0.125 1:928 2:889 
0.125 1:926 2:886 
0.125 1:924 2:885 
0.125 1:924 2:885 
0.125 1:926 2:888 
0.125 1:923 2:886 
0.125 1:925 2:888 
0.125 1:923 2:886 
0.125 1:922 2:887 
0.125 1:921 2:884 
0.125 1:919 2:884 
0.125 1:920 2:884 
0.125 1:921 2:884 
0.125 1:920 2:884 
0.125 1:921 2:885 
0.125 1:922 2:888 
0.125 1:917 2:882 
0.125 1:917 2:882 
0.125 1:913 2:879 
0.125 1:912 2:880 
0.125 1:912 2:879 
0.125 1:911 2:877 
0.125 1:913 2:881 
0.125 1:915 2:883 
0.125 1:915 2:884 
0.125 1:917 2:886 
0.125 1:915 2:883 
0.125 1:914 2:884 
0.125 1:916 2:885 
0.125 1:912 2:880 
0.125 1:911 2:881 
0.125 1:908 2:877 
0.125 1:914 2:884 
0.125 1:910 2:881 
0.125 1:912 2:882 
0.125 1:909 2:879 
0.125 1:909 2:878 
0.125 1:907 2:878 
0.125 1:911 2:881 
0.125 1:910 2:880 
0.125 1:909 2:880 
0.125 1:905 2:878 
0.125 1:909 2:881 
0.125 1:907 2:879 
0.125 1:930 2:888 
0.125 1:931 2:889 
0.125 1:931 2:889 
0.125 1:930 2:890 
0.125 1:936 2:895 
0.125 1:932 2:894 
0.125 1:932 2:893 
0.125 1:934 2:896 
0.125 1:926 2:889 
0.125 1:925 2:887 
0.125 1:925 2:887 
0.125 1:924 2:888 
0.125 1:928 2:892 
0.125 1:931 2:895 
0.125 1:931 2:896 
0.125 1:928 2:893 
0.125 1:927 2:891 
0.125 1:928 2:892 
0.125 1:923 2:888 
0.125 1:922 2:888 
0.125 1:922 2:887 
0.125 1:919 2:884 
0.125 1:920 2:888 
0.125 1:921 2:889 
0.125 1:921 2:889 
0.125 1:919 2:887 
0.125 1:922 2:890 
0.125 1:923 2:891 
0.125 1:925 2:893 
0.125 1:921 2:889 
0.125 1:922 2:891 
0.125 1:923 2:892 
0.125 1:921 2:889 
0.125 1:914 2:883 
0.125 1:914 2:885 
0.125 1:912 2:882 
0.125 1:911 2:882 
0.125 1:912 2:882 
0.125 1:911 2:882 
0.125 1:910 2:882 
0.125 1:910 2:882 
0.125 1:910 2:882 
0.125 1:913 2:886 
0.125 1:911 2:885 
0.125 1:912 2:885 
0.125 1:913 2:886 
0.125 1:915 2:888 
0.125 1:911 2:885 
0.125 1:912 2:885 
0.125 1:913 2:888 
0.125 1:909 2:884 
-0.125 1:866 2:807 
-0.125 1:867 2:808 
-0.125 1:865 2:809 
-0.125 1:872 2:814 
-0.125 1:868 2:811 
-0.125 1:867 2:811 
-0.125 1:866 2:810 
-0.125 1:863 2:809 
-0.125 1:864 2:808 
-0.125 1:862 2:808 
-0.125 1:866 2:812 
-0.125 1:867 2:814 
-0.125 1:866 2:814 
-0.125 1:867 2:813 
-0.125 1:864 2:811 
-0.125 1:864 2:811 
-0.125 1:863 2:811 
-0.125 1:861 2:809 
-0.125 1:859 2:807 
-0.125 1:860 2:810 
-0.125 1:857 2:806 
-0.125 1:862 2:811 
-0.125 1:863 2:813 
-0.125 1:864 2:814 
-0.125 1:866 2:815 
-0.125 1:864 2:814 
-0.125 1:862 2:813 
-0.125 1:864 2:815 
-0.125 1:866 2:816 
-0.125 1:861 2:812 
-0.125 1:859 2:810 
-0.125 1:858 2:809 
-0.125 1:857 2:809 
-0.125 1:859 2:811 
-0.125 1:860 2:811 
-0.125 1:856 2:809 
-0.125 1:858 2:809 
-0.125 1:858 2:810 
-0.125 1:861 2:813 
-0.125 1:861 2:814 
-0.125 1:863 2:815 
-0.125 1:862 2:814 
-0.125 1:862 2:814 
-0.125 1:861 2:815 
-0.125 1:862 2:814 
-0.125 1:863 2:815 
-0.125 1:861 2:815 
-0.125 1:861 2:815 
-0.125 1:862 2:815 
-0.125 1:857 2:810 
-0.125 1:857 2:811 
-0.125 1:782 2:729 
-0.125 1:779 2:731 
-0.125 1:775 2:730 
-0.125 1:771 2:729 
-0.125 1:770 2:729 
-0.125 1:774 2:733 
-0.125 1:772 2:731 
-0.125 1:770 2:729 
-0.125 1:771 2:731 
-0.125 1:768 2:728 
-0.125 1:765 2:725 
-0.125 1:764 2:725 
-0.125 1:766 2:727 
-0.125 1:764 2:725 
-0.125 1:767 2:729 
-0.125 1:771 2:733 
-0.125 1:769 2:730 
-0.125 1:769 2:730 
-0.125 1:768 2:730 
-0.125 1:766 2:728 
-0.125 1:763 2:725 
-0.125 1:765 2:727 
-0.125 1:765 2:726 
-0.125 1:762 2:725 
-0.125 1:766 2:730 
-0.125 1:769 2:733 
-0.125 1:766 2:730 
-0.125 1:768 2:732 
-0.125 1:766 2:729 
-0.125 1:761 2:725 
-0.125 1:763 2:728 
-0.125 1:768 2:732 
-0.125 1:768 2:732 
-0.125 1:767 2:731 
-0.125 1:766 2:730 
-0.125 1:764 2:728 
-0.125 1:761 2:726 
-0.125 1:760 2:726 
-0.125 1:767 2:731 
-0.125 1:765 2:729 
-0.125 1:764 2:728 
-0.125 1:763 2:728 
-0.125 1:762 2:727 
-0.125 1:760 2:725 
-0.125 1:763 2:729 
-0.125 1:762 2:728 
-0.125 1:762 2:728 
-0.125 1:761 2:727 
-0.125 1:761 2:727 
-0.125 1:759 2:725 
-0.125 1:758 2:724 
-0.125 1:645 2:591 
-0.125 1:644 2:593 
-0.125 1:643 2:592 
-0.125 1:644 2:593 
-0.125 1:643 2:594 
-0.125 1:643 2:593 
-0.125 1:646 2:596 
-0.125 1:644 2:595 
-0.125 1:644 2:596 
-0.125 1:646 2:598 
-0.125 1:646 2:598 
-0.125 1:648 2:601 
-0.125 1:648 2:601 
-0.125 1:650 2:603 
-0.125 1:650 2:603 
-0.125 1:647 2:602 
-0.125 1:648 2:601 
-0.125 1:645 2:599 
-0.125 1:645 2:599 
-0.125 1:644 2:598 
-0.125 1:645 2:600 
-0.125 1:644 2:599 
-0.125 1:645 2:602 
-0.125 1:648 2:603 
-0.125 1:648 2:605 
-0.08391288400282269 1:648 2:604 
-0.125 1:647 2:602 
-0.125 1:647 2:603 
-0.125 1:647 2:604 
-0.125 1:647 2:602 
-0.125 1:642 2:599 
-0.125 1:644 2:600 
-0.125 1:644 2:600 
-0.125 1:644 2:602 
-0.125 1:648 2:604 
-0.125 1:648 2:604 
-0.125 1:648 2:605 
-0.125 1:646 2:604 
-0.125 1:644 2:602 
-0.125 1:648 2:604 
-0.125 1:645 2:602 
-0.125 1:641 2:599 
-0.125 1:642 2:601 
-0.125 1:644 2:602 
-0.125 1:645 2:603 
-0.125 1:645 2:603 
-0.125 1:644 2:602 
-0.125 1:646 2:604 
-0.125 1:643 2:603 
-0.125 1:641 2:599 
-0.125 1:642 2:601 
-0.125 1:645 2:591 
-0.125 1:644 2:593 
-0.125 1:643 2:592 
-0.125 1:644 2:593 
-0.125 1:643 2:594 
-0.125 1:643 2:593 
-0.125 1:646 2:596 
-0.125 1:644 2:595 
-0.125 1:644 2:596 
-0.125 1:646 2:598 
-0.125 1:646 2:598 
-0.125 1:648 2:601 
-0.125 1:648 2:601 
-0.125 1:650 2:603 
-0.125 1:650 2:603 
-0.125 1:647 2:602 
-0.125 1:648 2:601 
-0.125 1:645 2:599 
-0.125 1:645 2:599 
-0.125 1:644 2:598 
-0.125 1:645 2:600 
-0.125 1:644 2:599 
-0.125 1:645 2:602 
-0.125 1:648 2:603 
-0.125 1:648 2:605 
-0.125 1:648 2:604 
-0.125 1:647 2:602 
-0.125 1:647 2:603 
-0.125 1:647 2:604 
-0.125 1:647 2:602 
-0.125 1:642 2:599 
-0.125 1:644 2:600 
-0.125 1:644 2:600 
-0.125 1:644 2:602 
-0.125 1:648 2:604 
-0.125 1:648 2:604 
-0.125 1:648 2:605 
-0.125 1:646 2:604 
-0.125 1:644 2:602 
-0.125 1:648 2:604 
-0.125 1:645 2:602 
-0.125 1:641 2:599 
-0.125 1:642 2:601 
-0.125 1:644 2:602 
-0.125 1:645 2:603 
-0.125 1:645 2:603 
-0.125 1:644 2:602 
-0.125 1:646 2:604 
-0.125 1:643 2:603 
-0.125 1:641 2:599 
-0.125 1:642 2:601 
-0.125 1:425 2:386 
-0.125 1:429 2:390 
-0.125 1:430 2:393 
-0.125 1:431 2:394 
-0.125 1:432 2:396 
-0.125 1:432 2:398 
-0.125 1:434 2:401 
-0.125 1:436 2:403 
-0.125 1:437 2:404 
-0.125 1:436 2:407 
-0.125 1:439 2:408 
-0.125 1:440 2:410 
-0.125 1:443 2:414 
-0.125 1:442 2:414 
-0.125 1:442 2:416 
-0.125 1:445 2:419 
-0.125 1:447 2:423 
-0.125 1:449 2:424 
-0.125 1:452 2:427 
-0.125 1:451 2:429 
-0.125 1:454 2:432 
-0.125 1:455 2:432 
-0.125 1:455 2:435 
-0.125 1:456 2:435 
-0.125 1:455 2:435 
-0.125 1:457 2:438 
-0.125 1:458 2:440 
-0.125 1:459 2:441 
-0.125 1:460 2:443 
-0.125 1:461 2:444 
-0.125 1:461 2:447 
-0.125 1:465 2:450 
-0.125 1:467 2:452 
-0.125 1:466 2:452 
-0.125 1:468 2:454 
-0.125 1:468 2:456 
-0.125 1:467 2:455 
-0.125 1:468 2:456 
-0.125 1:471 2:459 
-0.125 1:471 2:459 
-0.125 1:472 2:461 
-0.125 1:473 2:463 
-0.125 1:475 2:465 
-0.125 1:477 2:469 
-0.125 1:477 2:468 
-0.125 1:478 2:470 
-0.125 1:480 2:472 
-0.125 1:479 2:472 
-0.125 1:481 2:474 
-0.125 1:479 2:474 
-0.125 1:480 2:474 
-0.125 1:665 2:699 
-0.125 1:664 2:698 
-0.125 1:665 2:699 
-0.125 1:666 2:700 
-0.125 1:666 2:698 
-0.125 1:668 2:700 
-0.125 1:665 2:698 
-0.125 1:665 2:697 
-0.125 1:667 2:699 
-0.125 1:663 2:696 
-0.125 1:664 2:699 
-0.125 1:664 2:695 
-0.125 1:666 2:698 
-0.125 1:666 2:699 
-0.125 1:670 2:702 
-0.125 1:668 2:701 
-0.125 1:668 2:701 
-0.125 1:666 2:699 
-0.125 1:666 2:699 
-0.125 1:669 2:701 
-0.125 1:668 2:700 
-0.125 1:669 2:701 
-0.125 1:668 2:700 
-0.125 1:666 2:697 
-0.125 1:670 2:702 
-0.125 1:668 2:699 
-0.125 1:669 2:700 
-0.125 1:666 2:697 
-0.125 1:668 2:699 
-0.125 1:670 2:701 
-0.125 1:670 2:702 
-0.125 1:669 2:701 
-0.125 1:668 2:698 
-0.125 1:669 2:700 
-0.125 1:670 2:701 
-0.125 1:672 2:703 
-0.125 1:671 2:702 
-0.125 1:671 2:701 
-0.125 1:669 2:700 
-0.125 1:667 2:698 
-0.125 1:668 2:698 
-0.125 1:666 2:697 
-0.125 1:670 2:700 
-0.125 1:670 2:701 
-0.125 1:670 2:702 
-0.125 1:671 2:701 
-0.125 1:672 2:702 
-0.125 1:669 2:699 
-0.125 1:668 2:698 
-0.125 1:668 2:698 
-0.125 1:672 2:703 
-0.125 1:772 2:780 
-0.125 1:776 2:783 
-0.125 1:777 2:785 
-0.125 1:775 2:783 
-0.125 1:775 2:783 
-0.125 1:774 2:783 
-0.125 1:771 2:780 
-0.125 1:772 2:783 
-0.125 1:776 2:785 
-0.125 1:774 2:783 
-0.125 1:777 2:785 
-0.125 1:772 2:782 
-0.125 1:771 2:781 
-0.125 1:774 2:783 
-0.125 1:773 2:784 
-0.125 1:773 2:783 
-0.125 1:776 2:786 
-0.125 1:769 2:780 
-0.125 1:773 2:783 
-0.125 1:772 2:783 
-0.125 1:773 2:783 
-0.125 1:774 2:783 
-0.125 1:772 2:783 
-0.125 1:769 2:779 
-0.125 1:770 2:781 
-0.125 1:772 2:784 
-0.125 1:775 2:786 
-0.125 1:775 2:786 
-0.125 1:772 2:783 
-0.125 1:773 2:784 
-0.125 1:770 2:781 
-0.125 1:768 2:780 
-0.125 1:772 2:784 
-0.125 1:773 2:786 
-0.125 1:774 2:786 
-0.125 1:773 2:785 
-0.125 1:773 2:782 
-0.125 1:771 2:782 
-0.125 1:768 2:780 
-0.125 1:767 2:778 
-0.125 1:768 2:780 
-0.125 1:772 2:783 
-0.125 1:772 2:783 
-0.125 1:772 2:784 
-0.125 1:770 2:782 
-0.125 1:770 2:782 
-0.125 1:773 2:785 
-0.125 1:768 2:778 
-0.125 1:769 2:781 
-0.125 1:769 2:780 
-0.125 1:769 2:782 
-0.125 1:791 2:791 
-0.125 1:791 2:792 
-0.125 1:790 2:792 
-0.125 1:789 2:789 
-0.125 1:789 2:789 
-0.125 1:791 2:794 
-0.125 1:793 2:794 
-0.125 1:791 2:794 
-0.125 1:793 2:796 
-0.125 1:791 2:794 
-0.125 1:789 2:791 
-0.125 1:787 2:790 
-0.125 1:789 2:792 
-0.125 1:790 2:794 
-0.125 1:790 2:793 
-0.125 1:792 2:795 
-0.125 1:790 2:793 
-0.125 1:792 2:795 
-0.125 1:786 2:790 
-0.125 1:786 2:789 
-0.125 1:789 2:794 
-0.125 1:789 2:793 
-0.125 1:790 2:793 
-0.125 1:786 2:790 
-0.125 1:786 2:790 
-0.125 1:787 2:791 
-0.125 1:788 2:794 
-0.125 1:789 2:794 
-0.125 1:787 2:790 
-0.125 1:786 2:791 
-0.125 1:788 2:793 
-0.125 1:790 2:795 
-0.125 1:790 2:795 
-0.125 1:787 2:791 
-0.125 1:786 2:791 
-0.125 1:785 2:791 
-0.125 1:787 2:793 
-0.125 1:788 2:794 
-0.125 1:789 2:794 
-0.125 1:787 2:792 
-0.125 1:785 2:790 
-0.125 1:783 2:789 
-0.125 1:784 2:788 
-0.125 1:785 2:790 
-0.125 1:785 2:791 
-0.125 1:787 2:793 
-0.125 1:786 2:792 
-0.125 1:785 2:792 
-0.125 1:785 2:791 
-0.125 1:787 2:793 
-0.125 1:784 2:790 
-0.125 1:859 2:836 
-0.125 1:861 2:838 
-0.125 1:860 2:837 
-0.125 1:858 2:836 
-0.125 1:860 2:838 
-0.125 1:860 2:836 
-0.125 1:860 2:838 
-0.125 1:861 2:840 
-0.125 1:864 2:842 
-0.125 1:861 2:840 
-0.125 1:862 2:841 
-0.125 1:864 2:842 
-0.125 1:861 2:841 
-0.125 1:863 2:842 
-0.125 1:862 2:842 
-0.125 1:859 2:839 
-0.125 1:858 2:839 
-0.125 1:859 2:839 
-0.125 1:859 2:839 
-0.125 1:855 2:836 
-0.125 1:857 2:839 
-0.125 1:854 2:836 
-0.125 1:857 2:838 
-0.125 1:853 2:835 
-0.125 1:854 2:835 
-0.125 1:854 2:835 
-0.125 1:854 2:837 
-0.125 1:854 2:836 
-0.125 1:857 2:840 
-0.125 1:857 2:838 
-0.125 1:856 2:839 
-0.125 1:856 2:839 
-0.125 1:858 2:842 
-0.125 1:856 2:839 
-0.125 1:858 2:842 
-0.125 1:857 2:839 
-0.125 1:858 2:842 
-0.125 1:856 2:840 
-0.125 1:857 2:841 
-0.125 1:854 2:838 
-0.125 1:855 2:840 
-0.125 1:857 2:841 
-0.125 1:858 2:841 
-0.125 1:857 2:842 
-0.125 1:856 2:839 
-0.125 1:854 2:838 
-0.125 1:854 2:837 
-0.125 1:854 2:838 
-0.125 1:852 2:839 
-0.125 1:852 2:836 
-0.125 1:850 2:835 
