svm_type c_svc
kernel_type rbf
gamma 2
nr_class 2
total_sv 575
rho 0.00725564
label 1 -1
nr_sv 295 280
SV
0.9910420960116922 1:908 2:864 
0.885208461451986 1:907 2:863 
0.6597072793515224 1:906 2:863 
0.8141989761283046 1:905 2:863 
0.6568585444767041 1:905 2:864 
0.7809721181103669 1:906 2:864 
0.9035717970633507 1:905 2:865 
0.7979478320312767 1:900 2:862 
1 1:903 2:864 
0.6570050154640461 1:900 2:863 
0.7813168101477594 1:901 2:863 
0.7815261445668467 1:901 2:862 
0.7817418528432546 1:896 2:858 
0.7773092682183607 1:895 2:858 
0.8864147959043616 1:896 2:859 
0.9911532314840332 1:893 2:856 
0.7934225703726014 1:893 2:858 
0.6740830380534958 1:894 2:858 
0.8862083311472394 1:894 2:859 
0.8824910716813352 1:892 2:857 
0.9038858348163736 1:900 2:864 
0.9034671076587126 1:896 2:861 
0.764388859666877 1:895 2:862 
0.7042601626495326 1:892 2:859 
0.6731786366927315 1:891 2:859 
0.9032037619192266 1:894 2:861 
0.7994165397680585 1:896 2:863 
0.6588281624215262 1:896 2:864 
0.7958336538634602 1:897 2:865 
0.5662615023928401 1:892 2:858 
0.7005460509313541 1:890 2:859 
0.8745082133522372 1:890 2:857 
0.8886703530292328 1:889 2:856 
0.8874784499310188 1:887 2:855 
0.751598209374997 1:889 2:857 
0.7769776115132957 1:891 2:861 
0.7768471821943701 1:892 2:860 
0.7959528268233858 1:892 2:861 
0.901258186533369 1:933 2:887 
0.007395715522173579 1:936 2:890 
1 1:936 2:890 
0.96122864765578 1:925 2:882 
0.7668531120420571 1:926 2:883 
0.5765153586820092 1:932 2:891 
0.8097131589672371 1:933 2:891 
0.8863722413100279 1:920 2:882 
0.6027752037720728 1:927 2:890 
0.5880681190861257 1:925 2:889 
0.6626024402673965 1:920 2:883 
0.5887740626954396 1:922 2:884 
0.8868381761553867 1:918 2:884 
0.7802171829727581 1:916 2:882 
0.6895485124289653 1:921 2:886 
0.6588291725434646 1:895 2:861 
0.6878740722802419 1:896 2:865 
0.7959455999488185 1:895 2:865 
0.8870455505249342 1:887 2:856 
0.6859787247508712 1:890 2:860 
0.5919125227327287 1:889 2:860 
0.9924871051504646 1:891 2:863 
0.7772816428685299 1:894 2:865 
0.9015976166186452 1:893 2:865 
0.7027544033635742 1:888 2:860 
0.8848066188326464 1:884 2:858 
0.8866506160669867 1:883 2:857 
0.8756080545070927 1:885 2:860 
0.7933371287719855 1:889 2:862 
0.7648980380351637 1:890 2:864 
0.6884562038818359 1:889 2:864 
0.6470882532480743 1:883 2:858 
0.8727826771248937 1:881 2:857 
0.8869273423173937 1:882 2:858 
0.7952202215759222 1:883 2:860 
0.6840322849890665 1:887 2:864 
0.7921830600564792 1:884 2:861 
0.8723324741519025 1:880 2:857 
0.7173981296432761 1:883 2:862 
0.9911771861795625 1:878 2:857 
0.6584478737451976 1:880 2:860 
0.7977345583608006 1:880 2:861 
0.7667487927775664 1:875 2:856 
1 1:876 2:858 
0.799385710083295 1:879 2:860 
0.6730875716676545 1:925 2:880 
0.7784155149369857 1:932 2:887 
0.6858152815038324 1:930 2:887 
0.7000796342341267 1:931 2:888 
0.6773847047222132 1:928 2:884 
0.7811066878534152 1:928 2:885 
0.685502695628466 1:928 2:886 
0.8759425561842656 1:926 2:884 
0.8688852414688271 1:921 2:881 
0.8848820106469342 1:922 2:882 
0.7922813758523233 1:925 2:885 
0.6989961193342221 1:924 2:886 
0.5894049890205153 1:923 2:885 
0.7793775703462928 1:922 2:883 
0.7715589003080575 1:918 2:882 
0.60358372783326 1:922 2:886 
0.8726714866115037 1:916 2:880 
0.85647302585992 1:917 2:880 
0.8596977661013762 1:918 2:881 
0.8891326151246726 1:913 2:878 
0.7647464224452227 1:911 2:876 
0.6774395743444029 1:916 2:883 
0.7805606515350831 1:917 2:883 
0.7823819436272962 1:919 2:883 
0.660241006477764 1:895 2:863 
0.9030286737673834 1:894 2:863 
0.7828804330571786 1:897 2:864 
0.7811144786164806 1:891 2:858 
0.5787416301354215 1:888 2:859 
0.7008776557333528 1:890 2:861 
0.8868856547003189 1:888 2:858 
0.7113724776578207 1:889 2:859 
0.6838062636046484 1:888 2:861 
0.8843203855333851 1:886 2:858 
0.6058426619962691 1:889 2:861 
0.6617399488799119 1:886 2:859 
0.9746714387843239 1:885 2:857 
0.7815944137770209 1:887 2:861 
0.7791478652276754 1:887 2:859 
0.770072398949643 1:886 2:860 
0.6866237450185239 1:889 2:863 
0.8731045944944582 1:890 2:865 
0.9895303756577317 1:892 2:867 
0.9732889394924554 1:891 2:866 
0.6859736785994582 1:888 2:863 
0.7802121950999489 1:887 2:862 
0.6883891341020301 1:888 2:864 
0.5767537130560684 1:883 2:861 
0.6715725781070777 1:885 2:863 
0.5953528784058284 1:887 2:863 
0.5780443915305845 1:884 2:862 
0.7955803624069565 1:885 2:862 
0.9018657320139941 1:887 2:865 
0.7939101164792357 1:886 2:863 
0.7970858405802481 1:880 2:859 
0.8690613131008701 1:879 2:858 
0.7949163401509585 1:882 2:860 
0.6880961197757749 1:884 2:863 
0.593337441446452 1:882 2:861 
0.9011551719054925 1:884 2:864 
0.7963511506925032 1:881 2:862 
0.8870934233254709 1:876 2:856 
0.8875888469163782 1:875 2:855 
0.6614769048243051 1:879 2:859 
0.6985123418618576 1:882 2:862 
0.6713107183582401 1:881 2:861 
0.9893452890246907 1:929 2:880 
0.9568414361716648 1:928 2:881 
0.8831545148021769 1:927 2:880 
0.663872256294916 1:926 2:880 
0.854425580834811 1:926 2:881 
0.8562591790314468 1:927 2:882 
0.9033380058612859 1:923 2:878 
0.7813641557842969 1:919 2:875 
0.8852668348250091 1:921 2:877 
0.8725580627894264 1:924 2:881 
0.651002578637368 1:927 2:883 
0.8911334861021867 1:925 2:879 
0.6738430703784225 1:924 2:880 
0.6885879682798497 1:923 2:880 
0.7641974056465861 1:923 2:879 
0.8847389146356208 1:920 2:876 
0.6755700533907317 1:919 2:876 
0.7980069393890666 1:918 2:875 
0.7790960009659444 1:921 2:878 
0.7020939721724955 1:921 2:879 
0.5806201909511568 1:921 2:880 
0.5652803570948484 1:918 2:876 
0.7809635148966013 1:917 2:876 
0.8726806933162529 1:916 2:875 
0.7921126085962367 1:922 2:880 
0.6765359303457892 1:919 2:879 
0.7999970981084918 1:918 2:877 
0.7525735027342486 1:912 2:874 
0.8889880308403583 1:915 2:875 
0.6888491133968602 1:920 2:880 
0.6879895705685675 1:920 2:879 
0.8846786619391066 1:918 2:879 
0.8708204277732042 1:912 2:873 
0.7661987796678801 1:917 2:877 
0.8891695712670313 1:915 2:878 
0.8723491146189069 1:916 2:878 
0.8895241238829363 1:913 2:874 
0.9914155238790222 1:911 2:872 
0.8898638482778064 1:911 2:875 
0.7775483677816641 1:919 2:880 
0.9912249418763308 1:931 2:883 
0.9922190962663902 1:932 2:885 
0.8846695436089076 1:930 2:884 
0.7967978314699233 1:928 2:883 
0.7665223952613291 1:929 2:884 
0.5811775398658088 1:931 2:887 
0.7901069711635789 1:931 2:886 
0.688344517201863 1:930 2:886 
0.9918008502626695 1:933 2:889 
0.5785105726579816 1:931 2:890 
0.9034561065057343 1:934 2:892 
0.7214590179805597 1:932 2:892 
0.7961959378809023 1:933 2:893 
0.5466699059600438 1:933 2:892 
0.7046795192162724 1:931 2:891 
0.6027453196821323 1:927 2:888 
0.7773552434222507 1:930 2:891 
0.6045698754962202 1:928 2:890 
0.5774619618096286 1:925 2:886 
0.8091380746235285 1:923 2:884 
0.7792060716233131 1:927 2:887 
0.7915021069499936 1:929 2:890 
0.8745688506111104 1:929 2:892 
0.6176043669108723 1:927 2:889 
0.6195349097141317 1:922 2:885 
0.6857122631908683 1:928 2:891 
0.6969729751925214 1:926 2:890 
0.8070359583903474 1:925 2:890 
0.8665281116276049 1:920 2:886 
0.8864307710668662 1:919 2:885 
0.7943033351626047 1:924 2:889 
0.9764322558751619 1:915 2:881 
0.7933325887487154 1:929 2:886 
0.7895018329074879 1:932 2:890 
0.7933583381855005 1:929 2:888 
0.6866053501161089 1:927 2:886 
0.6978629599195658 1:928 2:888 
0.6957922046209419 1:928 2:889 
0.7917182805424959 1:926 2:886 
0.6867571041820818 1:924 2:885 
0.7098373649949151 1:926 2:888 
0.6047875376994736 1:925 2:888 
0.7118367302443915 1:923 2:886 
0.7014900978851051 1:921 2:884 
0.7034432554475656 1:920 2:884 
0.6837801907257413 1:921 2:885 
0.6629945603604749 1:917 2:882 
0.7665374092438553 1:913 2:879 
0.7711602710612863 1:912 2:879 
0.9036490018231869 1:911 2:877 
0.9745675673596126 1:913 2:881 
0.7648230179379416 1:915 2:884 
0.9892305427053111 1:917 2:886 
0.6751269030688668 1:915 2:883 
0.9746518824081767 1:916 2:885 
0.8557351943485532 1:912 2:880 
0.9753467240327522 1:908 2:877 
0.6618722166094442 1:914 2:884 
0.5492176542148277 1:910 2:881 
0.7815157671552433 1:909 2:879 
0.8831465573259958 1:909 2:878 
0.86860126464259 1:907 2:878 
0.7813493402799008 1:911 2:881 
0.7980196790969489 1:910 2:880 
0.6731768783067896 1:909 2:880 
1 1:905 2:878 
0.8116809992940605 1:909 2:881 
0.8891777740823872 1:907 2:879 
0.6860779541624635 1:930 2:888 
0.7938589502581285 1:931 2:889 
0.6885457477856998 1:930 2:890 
1 1:936 2:895 
0.8856639866457363 1:932 2:894 
0.6712431944079911 1:932 2:893 
1 1:934 2:896 
0.6052178572932077 1:926 2:889 
0.7931952123642169 1:925 2:887 
0.6861338415229522 1:924 2:888 
0.8702410116317072 1:931 2:895 
0.889548501702879 1:931 2:896 
0.9020333763435916 1:928 2:893 
0.7964172146645858 1:927 2:891 
0.6590391505638492 1:928 2:892 
0.7798611537925041 1:923 2:888 
0.7771717376524652 1:922 2:888 
0.7803460232726942 1:922 2:887 
0.5537390913438573 1:919 2:884 
0.9713489947896045 1:920 2:888 
0.9734244707142867 1:919 2:887 
0.8710821640570371 1:922 2:890 
0.7665198846650515 1:923 2:891 
1 1:925 2:893 
0.7692122466766721 1:922 2:891 
0.8894081469744468 1:923 2:892 
0.9592811621339656 1:921 2:889 
0.8111563058928104 1:914 2:883 
0.8848162689589928 1:914 2:885 
0.8851635814662934 1:912 2:882 
0.6617945042970225 1:911 2:882 
0.8130303182954798 1:910 2:882 
0.9747914959708739 1:913 2:886 
1 1:915 2:888 
0.8899063601672945 1:911 2:885 
0.8683436854566462 1:912 2:885 
1 1:913 2:888 
1 1:909 2:884 
-0.9746310240405341 1:866 2:807 
-0.9748300715633719 1:867 2:808 
-0.9575821286392643 1:865 2:809 
-0.9926021306369265 1:872 2:814 
-0.8788645585879931 1:868 2:811 
-0.8383646091490711 1:867 2:811 
-0.9591497065812877 1:866 2:810 
-0.9566733753096059 1:863 2:809 
-0.9571771082664396 1:864 2:808 
-0.9572537544201811 1:862 2:808 
-0.9607690910291038 1:866 2:812 
-0.7583575170833796 1:867 2:814 
-0.7713277597401832 1:866 2:814 
-0.8586228400250818 1:867 2:813 
-0.8903572246990388 1:864 2:811 
-0.7534493875346776 1:863 2:811 
-0.9604096844713773 1:861 2:809 
-0.9924761623960749 1:859 2:807 
-0.7688019779403102 1:860 2:810 
-0.992792392637353 1:857 2:806 
-0.8737890520965016 1:862 2:811 
-0.8738314047358309 1:863 2:813 
-0.7539829169991473 1:866 2:815 
-0.858131115206741 1:864 2:814 
-0.6637864382414733 1:862 2:813 
-0.7717424022344324 1:864 2:815 
-0.8903764331182955 1:866 2:816 
-0.858101349663367 1:861 2:812 
-0.6660046489579625 1:859 2:810 
-0.663495849753302 1:857 2:809 
-0.7739844899936996 1:859 2:811 
-0.7555631478773598 1:860 2:811 
-0.8903752607742338 1:856 2:809 
-0.7882551722669816 1:858 2:809 
-0.6637847732731402 1:858 2:810 
-0.6823342203823317 1:861 2:813 
-0.6781447393204084 1:861 2:814 
-0.661967929624498 1:862 2:814 
-0.7684426731381833 1:863 2:815 
-0.7966760329992368 1:861 2:815 
-0.6783932700497178 1:862 2:815 
-0.6616942045488551 1:857 2:810 
-0.8904317726210986 1:857 2:811 
-0.9926301612943111 1:782 2:729 
-0.9925996494743772 1:779 2:731 
-0.9926335936168376 1:775 2:730 
-0.8763413314850357 1:771 2:729 
-0.9926046791564632 1:774 2:733 
-0.8741626283754274 1:772 2:731 
-0.8586766487019835 1:770 2:729 
-0.8735696562929548 1:771 2:731 
-0.9761252431967108 1:768 2:728 
-0.7862798670607137 1:765 2:725 
-0.7719926177477247 1:766 2:727 
-0.7663259221010681 1:764 2:725 
-0.8565258344017938 1:767 2:729 
-0.9921359788381007 1:771 2:733 
-0.8625884483807744 1:769 2:730 
-0.8416558214863732 1:768 2:730 
-0.7690575727098278 1:766 2:728 
-0.7828573661414172 1:763 2:725 
-0.7557773176665576 1:765 2:727 
-0.7558264235128297 1:765 2:726 
-0.7801033412150047 1:762 2:725 
-0.9747685772215111 1:769 2:733 
-0.5368216859736712 1:766 2:729 
-0.6947921723554643 1:761 2:725 
-0.957025842961764 1:768 2:732 
-0.8704798358474606 1:766 2:730 
-0.6486895514264179 1:761 2:726 
-0.772234514382942 1:760 2:726 
-0.9434363888709212 1:767 2:731 
-0.8731704763267865 1:765 2:729 
-0.8597407528650262 1:764 2:728 
-0.6389686947481797 1:763 2:728 
-0.7598977628698295 1:762 2:727 
-0.6640085528742982 1:760 2:725 
-0.87586969111671 1:763 2:729 
-0.7729243991840292 1:762 2:728 
-0.7735764184963684 1:761 2:727 
-0.8706818694032671 1:759 2:725 
-0.9765192340782685 1:758 2:724 
-0.9931059702836453 1:645 2:591 
-0.8902838634430092 1:643 2:592 
-0.8739915924842195 1:644 2:593 
-0.8745448908945759 1:643 2:594 
-0.6352269935069892 1:643 2:593 
-0.9918046088395897 1:646 2:596 
-0.8576193252054565 1:644 2:595 
-0.8757380225071592 1:644 2:596 
-0.9780494716939983 1:646 2:598 
-0.9926859076692942 1:650 2:603 
-0.9762790152116929 1:648 2:601 
-0.7516945162275165 1:645 2:599 
-0.8903429728632745 1:644 2:598 
-0.7722827245950187 1:645 2:600 
-0.6499480164326451 1:644 2:599 
-0.7854369662231669 1:648 2:603 
-0.6499176471577569 1:647 2:603 
-0.6653920846401229 1:647 2:604 
-0.8720605907824254 1:647 2:602 
-0.8737386033508457 1:642 2:599 
-0.7856756800909791 1:644 2:600 
-0.8900731042860172 1:648 2:605 
-0.6638995823138691 1:648 2:604 
-0.7600540984871286 1:645 2:602 
-0.857551243882814 1:645 2:603 
-0.8555818957583129 1:644 2:602 
-0.874561425566867 1:646 2:604 
-0.9764840834813928 1:643 2:603 
-0.8741528635424102 1:641 2:599 
-0.992431502216619 1:642 2:601 
-0.9926327432262307 1:425 2:386 
-0.9927339635946359 1:429 2:390 
-0.9747773992475744 1:430 2:393 
-0.9747836169925673 1:431 2:394 
-0.9925688131198462 1:432 2:396 
-0.9921358822812991 1:432 2:398 
-0.9927588519399817 1:434 2:401 
-0.9746871854085809 1:436 2:403 
-0.9746507342770113 1:437 2:404 
-0.9927423738063624 1:436 2:407 
-0.9925168439307431 1:439 2:408 
-0.9927888045828713 1:440 2:410 
-0.8745209645304266 1:443 2:414 
-0.8739069422646112 1:442 2:414 
-0.9921762583839907 1:442 2:416 
-0.9926905263470043 1:445 2:419 
-0.992510737913334 1:447 2:423 
-0.993259827708895 1:449 2:424 
-0.9924964572438986 1:452 2:427 
-0.9932765241193644 1:451 2:429 
-0.8740643080244829 1:454 2:432 
-0.8745603761024053 1:455 2:432 
-0.8745305735178146 1:456 2:435 
-0.8742336847132498 1:455 2:435 
-0.9927767902835318 1:457 2:438 
-0.9747584154998248 1:458 2:440 
-0.9751262650513148 1:459 2:441 
-0.9746562471476631 1:460 2:443 
-0.9746900844806879 1:461 2:444 
-0.9927542350287147 1:461 2:447 
-0.9924702507211456 1:465 2:450 
-0.8744782608546233 1:467 2:452 
-0.8741981396252375 1:466 2:452 
-0.9747776957892854 1:468 2:454 
-0.9568956107706064 1:467 2:455 
-0.9747838039379473 1:468 2:456 
-0.9924768285772062 1:471 2:459 
-0.9930265403548914 1:472 2:461 
-0.9925128515190084 1:473 2:463 
-0.9928465241702393 1:475 2:465 
-0.8562141132559856 1:477 2:469 
-0.8772862798700539 1:477 2:468 
-0.9768304491797003 1:478 2:470 
-0.8738089636435574 1:480 2:472 
-0.8738303329966997 1:479 2:472 
-0.8908045524127832 1:481 2:474 
-0.8905558508054158 1:479 2:474 
-0.7514201510873206 1:480 2:474 
-0.7828925256962455 1:664 2:698 
-0.6893959222587831 1:665 2:699 
-0.8880373785614624 1:666 2:700 
-0.5666347911775819 1:665 2:698 
-0.7844545687727384 1:665 2:697 
-0.691038541562208 1:667 2:699 
-0.9746195945832287 1:663 2:696 
-0.7828950452772412 1:664 2:699 
-0.9745539620502957 1:664 2:695 
-0.5993567356227928 1:666 2:698 
-0.7943982302848027 1:668 2:701 
-0.5815350314925447 1:666 2:699 
-0.6927245992759887 1:668 2:700 
-0.5667609077874732 1:668 2:699 
-0.6928523154823962 1:669 2:701 
-0.6466177461278904 1:671 2:702 
-0.5531692235711219 1:669 2:700 
-0.6741401789713672 1:667 2:698 
-0.782907281933417 1:666 2:697 
-0.8009466746386493 1:670 2:700 
-0.5537228181692324 1:670 2:701 
-0.8026739725455967 1:670 2:702 
-0.786378917715611 1:671 2:701 
-0.7717779159016556 1:672 2:702 
-0.7991338061400415 1:669 2:699 
-0.7969764026657423 1:668 2:698 
-0.876469217397426 1:672 2:703 
-0.8762309883483477 1:772 2:780 
-0.8882661210568339 1:776 2:783 
-0.7657112971159863 1:775 2:783 
-0.7714797030003384 1:771 2:780 
-0.7555546090976262 1:776 2:785 
-0.8764677131515706 1:777 2:785 
-0.6757432407317085 1:772 2:782 
-0.6631657363983015 1:771 2:781 
-0.7699811112731227 1:776 2:786 
-0.5675899126290258 1:773 2:783 
-0.7845811732635919 1:774 2:783 
-0.8723298950326938 1:769 2:779 
-0.7706211406301913 1:775 2:786 
-0.6783615386761832 1:773 2:784 
-0.6661838825643085 1:770 2:781 
-0.7847336274627441 1:773 2:786 
-0.7679025778476909 1:774 2:786 
-0.7968685691290072 1:773 2:782 
-0.6942397141532899 1:771 2:782 
-0.8767561579204639 1:767 2:778 
-0.8757574703296274 1:768 2:780 
-0.6779199430105795 1:772 2:783 
-0.7841742297734914 1:772 2:784 
-0.6760136975494774 1:770 2:782 
-0.7659517597758864 1:773 2:785 
-0.8575347263223693 1:768 2:778 
-0.6777703720851584 1:769 2:781 
-0.6518996769141923 1:769 2:780 
-0.7967469184267832 1:769 2:782 
-0.8759618003939615 1:791 2:791 
-0.7717015101187559 1:791 2:792 
-0.6594569659620865 1:790 2:792 
-0.9926449820184308 1:789 2:789 
-0.9747592721546106 1:793 2:794 
-0.9750526418301275 1:793 2:796 
-0.8704759788718252 1:791 2:794 
-0.8875574338726939 1:789 2:791 
-0.6783666058220967 1:789 2:792 
-0.5559553916630616 1:790 2:794 
-0.9405190918231001 1:792 2:795 
-0.888556128053272 1:786 2:789 
-0.5869549664542424 1:789 2:793 
-0.6929981149728787 1:790 2:793 
-0.5682946354841071 1:786 2:790 
-0.7948230838269535 1:787 2:790 
-0.6630369965054809 1:788 2:793 
-0.8883948412195793 1:790 2:795 
-0.6910169602535959 1:787 2:791 
-0.5852410150837299 1:786 2:791 
-0.7847219988580026 1:788 2:794 
-0.6900621122752609 1:789 2:794 
-0.6779607960113057 1:787 2:792 
-0.9588352803129541 1:783 2:789 
-0.974765880305929 1:784 2:788 
-0.6791309178940083 1:785 2:790 
-0.6741240516589125 1:786 2:792 
-0.7988196623389342 1:785 2:792 
-0.674391290293197 1:785 2:791 
-0.7836812160575614 1:787 2:793 
-0.8703995373061462 1:784 2:790 
-0.7517671542917773 1:859 2:836 
-0.8762949585916737 1:861 2:838 
-0.7539203836727647 1:860 2:837 
-0.8904060263301521 1:858 2:836 
-0.7884547232264938 1:860 2:836 
-0.755492631599809 1:860 2:838 
-0.8759858828106368 1:861 2:840 
-0.7555883240708341 1:862 2:841 
-0.890475728008677 1:864 2:842 
-0.7576056754063762 1:861 2:841 
-0.7536306287321495 1:863 2:842 
-0.774082067145243 1:862 2:842 
-0.7699655684598615 1:858 2:839 
-0.8743928627765102 1:859 2:839 
-0.8769789080653373 1:855 2:836 
-0.8584803861375051 1:853 2:835 
-0.7722282343885161 1:854 2:835 
-0.6493792703830586 1:854 2:836 
-0.6966892909491321 1:857 2:840 
-0.8887912474898686 1:857 2:838 
-0.555685056711247 1:857 2:839 
-0.7698621461978509 1:858 2:842 
-0.6494488466576332 1:856 2:840 
-0.890254374513528 1:855 2:840 
-0.6618513596687892 1:857 2:841 
-0.7715245048832845 1:858 2:841 
-0.7844982121365022 1:857 2:842 
-0.7840657909578581 1:856 2:839 
-0.7679505392664299 1:854 2:837 
-0.8889893766794817 1:854 2:838 
-0.9927757573362966 1:852 2:839 
-0.976561709549274 1:852 2:836 
-0.9927963626158965 1:850 2:835 
