svm_type c_svc
kernel_type rbf
gamma 2
nr_class 2
total_sv 574
rho 0.00711934
label 1 -1
nr_sv 294 280
SV
0.9905244234441243 1:908 2:864 
0.8848927390482862 1:907 2:863 
0.6593850563376573 1:906 2:863 
0.814289129667166 1:905 2:863 
0.6564984002191339 1:905 2:864 
0.7812620298261395 1:906 2:864 
0.9035717970633507 1:905 2:865 
0.797859177077048 1:900 2:862 
1.006968289380997 1:903 2:864 
0.6566960049126832 1:900 2:863 
0.781177829416621 1:901 2:863 
0.7815550450122962 1:901 2:862 
0.7815607790561311 1:896 2:858 
0.7773092682183607 1:895 2:858 
0.8863018834520677 1:896 2:859 
0.99052590061865 1:893 2:856 
0.79318680253755 1:893 2:858 
0.6740830380534958 1:894 2:858 
0.8860608341134451 1:894 2:859 
0.8824910716813352 1:892 2:857 
0.9037531165171727 1:900 2:864 
0.9034239717516013 1:896 2:861 
0.764388859666877 1:895 2:862 
0.7041485677415824 1:892 2:859 
0.6731786366927315 1:891 2:859 
0.9030907829639909 1:894 2:861 
0.7993601475363256 1:896 2:863 
0.6587926815758122 1:896 2:864 
0.7957404597207099 1:897 2:865 
0.5661985528023309 1:892 2:858 
0.7005460509313541 1:890 2:859 
0.8743720457121986 1:890 2:857 
0.8885672841267029 1:889 2:856 
0.8873561806154221 1:887 2:855 
0.7513352860856939 1:889 2:857 
0.7768947163958461 1:891 2:861 
0.7767044347579638 1:892 2:860 
0.7959681020183572 1:892 2:861 
0.9011993163083518 1:933 2:887 
1.007153920899853 1:936 2:890 
0.9610523711540768 1:925 2:882 
0.7667320610099041 1:926 2:883 
0.5763117224232651 1:932 2:891 
0.8097131589672371 1:933 2:891 
0.8863464715228629 1:920 2:882 
0.6026419551510206 1:927 2:890 
0.5879568448347732 1:925 2:889 
0.6626687292051401 1:920 2:883 
0.5887751309466991 1:922 2:884 
0.8868381761553867 1:918 2:884 
0.7803833640427887 1:916 2:882 
0.6894667677076698 1:921 2:886 
0.65826956528648 1:895 2:861 
0.6877931028049958 1:896 2:865 
0.7957538433421456 1:895 2:865 
0.8867865731235025 1:887 2:856 
0.6859787247508712 1:890 2:860 
0.5918111389428266 1:889 2:860 
0.9919059326795993 1:891 2:863 
0.7767439767229377 1:894 2:865 
0.9014520114173383 1:893 2:865 
0.7025586492470037 1:888 2:860 
0.8847140836831373 1:884 2:858 
0.8864284500896228 1:883 2:857 
0.8755049607727901 1:885 2:860 
0.7932336093250597 1:889 2:862 
0.7648084563920357 1:890 2:864 
0.6883627425360193 1:889 2:864 
0.6470426828007572 1:883 2:858 
0.8727139761680376 1:881 2:857 
0.8868039326952241 1:882 2:858 
0.795077823272264 1:883 2:860 
0.6840322849890665 1:887 2:864 
0.7917904555092696 1:884 2:861 
0.8722714404397095 1:880 2:857 
0.7175799092333333 1:883 2:862 
0.9911771861795625 1:878 2:857 
0.6582219705132341 1:880 2:860 
0.7976416896789731 1:880 2:861 
0.766448972124302 1:875 2:856 
1.006993716847078 1:876 2:858 
0.7990675918897007 1:879 2:860 
0.6730875716676545 1:925 2:880 
0.7781968705737635 1:932 2:887 
0.685705659846914 1:930 2:887 
0.7000335804099644 1:931 2:888 
0.6773038082308783 1:928 2:884 
0.7809669978742667 1:928 2:885 
0.685502695628466 1:928 2:886 
0.8759425561842656 1:926 2:884 
0.8688852414688271 1:921 2:881 
0.8847646371222088 1:922 2:882 
0.7920422878346166 1:925 2:885 
0.6989833223814634 1:924 2:886 
0.5892496299672878 1:923 2:885 
0.7793765020950334 1:922 2:883 
0.7714821850836465 1:918 2:882 
0.6035078454659614 1:922 2:886 
0.8726658145787108 1:916 2:880 
0.8564786978927129 1:917 2:880 
0.8595655655636769 1:918 2:881 
0.8890830566971809 1:913 2:878 
0.7646738310827097 1:911 2:876 
0.6774395743444029 1:916 2:883 
0.780416961756292 1:917 2:883 
0.7822620395809432 1:919 2:883 
0.6601933514107929 1:895 2:863 
0.9029291712054385 1:894 2:863 
0.7828804330571786 1:897 2:864 
0.7809718306034443 1:891 2:858 
0.5786873029025777 1:888 2:859 
0.7003047023169233 1:890 2:861 
0.8868796284110821 1:888 2:858 
0.7113008819414997 1:889 2:859 
0.6837156027209526 1:888 2:861 
0.8841617538122675 1:886 2:858 
0.6057740982304276 1:889 2:861 
0.6616069772300177 1:886 2:859 
0.9745851069976551 1:885 2:857 
0.7809960436198775 1:887 2:861 
0.7791924771106773 1:887 2:859 
0.770072398949643 1:886 2:860 
0.686534061968719 1:889 2:863 
0.8729780953218456 1:890 2:865 
0.9894512081771154 1:892 2:867 
0.973104447132818 1:891 2:866 
0.6859013401098006 1:888 2:863 
0.7801892955516715 1:887 2:862 
0.6883225940611302 1:888 2:864 
0.5768197060155951 1:883 2:861 
0.6715447554030576 1:885 2:863 
0.5952602554492562 1:887 2:863 
0.5780865099259198 1:884 2:862 
0.7952272831795889 1:885 2:862 
0.901813941534675 1:887 2:865 
0.7938557622844733 1:886 2:863 
0.7974333484516151 1:880 2:859 
0.8684181456660478 1:879 2:858 
0.7948888188403439 1:882 2:860 
0.6876753318117805 1:884 2:863 
0.5936003078780183 1:882 2:861 
0.9008712329250589 1:884 2:864 
0.7962404405993082 1:881 2:862 
0.8870448291534808 1:876 2:856 
0.887041359999123 1:875 2:855 
0.6615225347392482 1:879 2:859 
0.6983559134512877 1:882 2:862 
0.6712559857439871 1:881 2:861 
0.9891923356824081 1:929 2:880 
0.9566883654584774 1:928 2:881 
0.8830528394932989 1:927 2:880 
0.6638273812637733 1:926 2:880 
0.8543390154049219 1:926 2:881 
0.8562591790314468 1:927 2:882 
0.9031592680623699 1:923 2:878 
0.7812192504013186 1:919 2:875 
0.8851934789270152 1:921 2:877 
0.8725580627894264 1:924 2:881 
0.6509003131515609 1:927 2:883 
0.8911334861021867 1:925 2:879 
0.6737283400370757 1:924 2:880 
0.6884855622264401 1:923 2:880 
0.7641067531145371 1:923 2:879 
0.8847389146356208 1:920 2:876 
0.6750352597234974 1:919 2:876 
0.7979136069697402 1:918 2:875 
0.7789921392022668 1:921 2:878 
0.7020609124160589 1:921 2:879 
0.5805062152509824 1:921 2:880 
0.5652758301441001 1:918 2:876 
0.7809023345820758 1:917 2:876 
0.8725089527587735 1:916 2:875 
0.7920447954230745 1:922 2:880 
0.6760014329185279 1:919 2:879 
0.7995302376721963 1:918 2:877 
0.7525735027342486 1:912 2:874 
0.8883996997719446 1:915 2:875 
0.6887886109597198 1:920 2:880 
0.6878952118290678 1:920 2:879 
0.8842697605620914 1:918 2:879 
0.8702757720665066 1:912 2:873 
0.7661875362796019 1:917 2:877 
0.8890657182611674 1:915 2:878 
0.8722022205258899 1:916 2:878 
0.8894293398118158 1:913 2:874 
0.9914155238790222 1:911 2:872 
0.8897594240924598 1:911 2:875 
0.7774444311744331 1:919 2:880 
0.9912249418763308 1:931 2:883 
0.9922190962663902 1:932 2:885 
0.8842271149012578 1:930 2:884 
0.7966087191960595 1:928 2:883 
0.7665223952613291 1:929 2:884 
0.581223593689971 1:931 2:887 
0.789705889497371 1:931 2:886 
0.688344517201863 1:930 2:886 
0.9918008502626695 1:933 2:889 
0.5785105726579816 1:931 2:890 
0.9033515695433777 1:934 2:892 
0.7210598689851268 1:932 2:892 
0.7960954815652712 1:933 2:893 
0.5466699059600438 1:933 2:892 
0.7046795192162724 1:931 2:891 
0.602632272192389 1:927 2:888 
0.7767868905045966 1:930 2:891 
0.6045698754962202 1:928 2:890 
0.5773733626730578 1:925 2:886 
0.8087443759799626 1:923 2:884 
0.7790809872656504 1:927 2:887 
0.7911896721998772 1:929 2:890 
0.8745049093380715 1:929 2:892 
0.6176043669108723 1:927 2:889 
0.619466981618121 1:922 2:885 
0.6855716402146295 1:928 2:891 
0.6969729751925214 1:926 2:890 
0.8069116948492749 1:925 2:890 
0.8664382255105797 1:920 2:886 
0.8865854334726377 1:919 2:885 
0.7942352934043665 1:924 2:889 
0.9763518494151643 1:915 2:881 
0.793296957963264 1:929 2:886 
0.7897990370222603 1:932 2:890 
0.7933325728176871 1:929 2:888 
0.6860652582522087 1:927 2:886 
0.6977592274902494 1:928 2:888 
0.695682969071716 1:928 2:889 
0.7916400664519269 1:926 2:886 
0.6866792957336991 1:924 2:885 
0.709745490193967 1:926 2:888 
0.6047826739982143 1:925 2:888 
0.7118232639754817 1:923 2:886 
0.7014378125703693 1:921 2:884 
0.7032235760330059 1:920 2:884 
0.6836764156349696 1:921 2:885 
0.6629407030371685 1:917 2:882 
0.7663154695099702 1:913 2:879 
0.7710659286664923 1:912 2:879 
0.903524963323457 1:911 2:877 
0.9745016770545628 1:913 2:881 
0.7646929027713771 1:915 2:884 
0.9890679607678109 1:917 2:886 
0.6750090448789908 1:915 2:883 
0.9745790298083823 1:916 2:885 
0.8557351943485532 1:912 2:880 
0.9752330953263363 1:908 2:877 
0.6618664438826567 1:914 2:884 
0.549014607414594 1:910 2:881 
0.7812880941219608 1:909 2:879 
0.8831664095000723 1:909 2:878 
0.8684688087888482 1:907 2:878 
0.781177712737846 1:911 2:881 
0.79741850493382 1:910 2:880 
0.6735070214025527 1:909 2:880 
1.006942274715984 1:905 2:878 
0.8116809992940605 1:909 2:881 
0.8890597666084159 1:907 2:879 
0.6860779541624635 1:930 2:888 
0.793764061978866 1:931 2:889 
0.6884675562126613 1:930 2:890 
1.007252602541533 1:936 2:895 
0.8855601520296472 1:932 2:894 
0.6714023333492931 1:932 2:893 
1.007163223302638 1:934 2:896 
0.6052178572932077 1:926 2:889 
0.7927995420630339 1:925 2:887 
0.686056804085292 1:924 2:888 
0.8704056440567081 1:931 2:895 
0.8893740263774171 1:931 2:896 
0.9020333763435916 1:928 2:893 
0.7961940764126122 1:927 2:891 
0.6585307005997241 1:928 2:892 
0.7797100155208 1:923 2:888 
0.7770639269847248 1:922 2:888 
0.7802684130129167 1:922 2:887 
0.5536279226231079 1:919 2:884 
0.9712752786183073 1:920 2:888 
0.9733243064449146 1:919 2:887 
0.8709316864029066 1:922 2:890 
0.7661317907383679 1:923 2:891 
1.007232734095854 1:925 2:893 
0.7691692887603382 1:922 2:891 
0.8893466154772914 1:923 2:892 
0.9591302438253322 1:921 2:889 
0.8113973988354513 1:914 2:883 
0.8848162689589928 1:914 2:885 
0.8850400569964195 1:912 2:882 
0.6612045187103381 1:911 2:882 
0.8133951578122273 1:910 2:882 
0.974759447071277 1:913 2:886 
1.006989769578774 1:915 2:888 
0.889773551196161 1:911 2:885 
0.8682781686999242 1:912 2:885 
1.006603597381237 1:913 2:888 
1.007241075501129 1:909 2:884 
-0.9749179650230465 1:866 2:807 
-0.9748129379621071 1:867 2:808 
-0.9574180503924948 1:865 2:809 
-0.992838170881716 1:872 2:814 
-0.8790362695647762 1:868 2:811 
-0.8384641316114286 1:867 2:811 
-0.9593437513984765 1:866 2:810 
-0.9567637348574095 1:863 2:809 
-0.9571771082664396 1:864 2:808 
-0.957267512053888 1:862 2:808 
-0.9608408100135649 1:866 2:812 
-0.7582528730819316 1:867 2:814 
-0.7712506777551607 1:866 2:814 
-0.8587581431318511 1:867 2:813 
-0.890932712721886 1:864 2:811 
-0.7537615394710596 1:863 2:811 
-0.9605141153066999 1:861 2:809 
-0.9925846790878491 1:859 2:807 
-0.7686855205200163 1:860 2:810 
-0.9933746449408725 1:857 2:806 
-0.8738774291437916 1:862 2:811 
-0.8738314047358309 1:863 2:813 
-0.7541859185050271 1:866 2:815 
-0.8578819727193913 1:864 2:814 
-0.663979883926611 1:862 2:813 
-0.7722428578814783 1:864 2:815 
-0.8904700221398097 1:866 2:816 
-0.8582520304538641 1:861 2:812 
-0.6657588003545757 1:859 2:810 
-0.663495849753302 1:857 2:809 
-0.7739844899936996 1:859 2:811 
-0.7555631478773598 1:860 2:811 
-0.8906269457601778 1:856 2:809 
-0.7884927625847278 1:858 2:809 
-0.6637847732731402 1:858 2:810 
-0.6823342203823317 1:861 2:813 
-0.6783441908027799 1:861 2:814 
-0.6614909726029828 1:862 2:814 
-0.7684426731381833 1:863 2:815 
-0.7966760329992368 1:861 2:815 
-0.6785813853480122 1:862 2:815 
-0.6621974457939062 1:857 2:810 
-0.8905974675905191 1:857 2:811 
-0.9928868207892498 1:782 2:729 
-0.9927942169514711 1:779 2:731 
-0.9928941735563355 1:775 2:730 
-0.8763413314850357 1:771 2:729 
-0.9928274944851658 1:774 2:733 
-0.8742282641937302 1:772 2:731 
-0.8584447395938218 1:770 2:729 
-0.8739137917824987 1:771 2:731 
-0.9762672452229685 1:768 2:728 
-0.7864196972345192 1:765 2:725 
-0.7721032206542584 1:766 2:727 
-0.7663259221010681 1:764 2:725 
-0.8566140614878692 1:767 2:729 
-0.9921359788381007 1:771 2:733 
-0.8626970866002909 1:769 2:730 
-0.8422537584754464 1:768 2:730 
-0.7691435340864948 1:766 2:728 
-0.7828710090218393 1:763 2:725 
-0.7557773176665576 1:765 2:727 
-0.7559939440195824 1:765 2:726 
-0.7802941582239182 1:762 2:725 
-0.9748569216863513 1:769 2:733 
-0.5368216859736712 1:766 2:729 
-0.6947921723554643 1:761 2:725 
-0.95720132483623 1:768 2:732 
-0.8707121441436978 1:766 2:730 
-0.6488120622136873 1:761 2:726 
-0.7722759070845994 1:760 2:726 
-0.9434778305011029 1:767 2:731 
-0.8731704763267865 1:765 2:729 
-0.8598508895043511 1:764 2:728 
-0.6390483737210119 1:763 2:728 
-0.7600458274027179 1:762 2:727 
-0.6640911619890836 1:760 2:725 
-0.87586969111671 1:763 2:729 
-0.7729741575985969 1:762 2:728 
-0.7737044344564907 1:761 2:727 
-0.8706818694032671 1:759 2:725 
-0.9766240462282469 1:758 2:724 
-0.9931059702836453 1:645 2:591 
-0.8904656239526685 1:643 2:592 
-0.8739915924842195 1:644 2:593 
-0.8749338790616364 1:643 2:594 
-0.6353729175848654 1:643 2:593 
-0.9919292951774522 1:646 2:596 
-0.8579028029321696 1:644 2:595 
-0.8758140123697736 1:644 2:596 
-0.9781417836978205 1:646 2:598 
-0.9926859076692942 1:650 2:603 
-0.9763389995230829 1:648 2:601 
-0.7516945162275165 1:645 2:599 
-0.8903429728632745 1:644 2:598 
-0.7723298640327915 1:645 2:600 
-0.6499480203744553 1:644 2:599 
-0.7854688165608766 1:648 2:603 
-0.6500447100974762 1:647 2:603 
-0.66542094153336 1:647 2:604 
-0.8722060951312025 1:647 2:602 
-0.874063037702723 1:642 2:599 
-0.7857227903295749 1:644 2:600 
-0.8900731042860172 1:648 2:605 
-0.6643505506126811 1:648 2:604 
-0.760049562104587 1:645 2:602 
-0.8580306524302789 1:645 2:603 
-0.8557181662696655 1:644 2:602 
-0.8746182998605667 1:646 2:604 
-0.9765575998260013 1:643 2:603 
-0.8742341908529069 1:641 2:599 
-0.992431502216619 1:642 2:601 
-0.9928975292830056 1:425 2:386 
-0.9929812233395177 1:429 2:390 
-0.9748609112124847 1:430 2:393 
-0.9751454001614365 1:431 2:394 
-0.9925688131198462 1:432 2:396 
-0.9922466949712213 1:432 2:398 
-0.9929973816391358 1:434 2:401 
-0.9748780630872378 1:436 2:403 
-0.9747892717961554 1:437 2:404 
-0.9929889600899117 1:436 2:407 
-0.9926220777641906 1:439 2:408 
-0.9933389703799517 1:440 2:410 
-0.8746565100038397 1:443 2:414 
-0.8739829436550348 1:442 2:414 
-0.9922683500565749 1:442 2:416 
-0.9929205370046574 1:445 2:419 
-0.9927093157920401 1:447 2:423 
-0.993259827708895 1:449 2:424 
-0.9926881801192357 1:452 2:427 
-0.9932765241193644 1:451 2:429 
-0.8741644231069816 1:454 2:432 
-0.8747669957773391 1:455 2:432 
-0.8746532923599991 1:456 2:435 
-0.8742725807842355 1:455 2:435 
-0.992935687178961 1:457 2:438 
-0.975112188053239 1:458 2:440 
-0.9755186129865262 1:459 2:441 
-0.9748465737034668 1:460 2:443 
-0.9747522300903109 1:461 2:444 
-0.9929910152702043 1:461 2:447 
-0.9926843252199214 1:465 2:450 
-0.8746177183527292 1:467 2:452 
-0.8742728465038472 1:466 2:452 
-0.974831131463703 1:468 2:454 
-0.9570246464084763 1:467 2:455 
-0.9749416485960849 1:468 2:456 
-0.9926762413894534 1:471 2:459 
-0.9930265403548914 1:472 2:461 
-0.9926264442564461 1:473 2:463 
-0.9929777214970978 1:475 2:465 
-0.8563702615867845 1:477 2:469 
-0.8772862798700539 1:477 2:468 
-0.9768949478330192 1:478 2:470 
-0.8739583309776329 1:480 2:472 
-0.8739448332901266 1:479 2:472 
-0.8910258354772163 1:481 2:474 
-0.8907123951922283 1:479 2:474 
-0.7515102195997404 1:480 2:474 
-0.7834007972793769 1:664 2:698 
-0.6893959222587831 1:665 2:699 
-0.8880902393556022 1:666 2:700 
-0.5666602969883126 1:665 2:698 
-0.7846046925842401 1:665 2:697 
-0.6911680878943673 1:667 2:699 
-0.9748187417472655 1:663 2:696 
-0.7828950452772412 1:664 2:699 
-0.9747332496608949 1:664 2:695 
-0.5994466829336698 1:666 2:698 
-0.7945254452346366 1:668 2:701 
-0.5816430930708503 1:666 2:699 
-0.6927245992759887 1:668 2:700 
-0.5668669324337934 1:668 2:699 
-0.6928523154823962 1:669 2:701 
-0.6466814429065126 1:671 2:702 
-0.5536792851249378 1:669 2:700 
-0.6747038189202905 1:667 2:698 
-0.782907281933417 1:666 2:697 
-0.8009466746386493 1:670 2:700 
-0.5537228181692324 1:670 2:701 
-0.8027808085847787 1:670 2:702 
-0.7865130519554453 1:671 2:701 
-0.7716877051686405 1:672 2:702 
-0.7992324158190881 1:669 2:699 
-0.7970585236205734 1:668 2:698 
-0.8764514220493328 1:672 2:703 
-0.8764378622525768 1:772 2:780 
-0.8883441788085742 1:776 2:783 
-0.7661171455598331 1:775 2:783 
-0.7715560882266328 1:771 2:780 
-0.7558187991496169 1:776 2:785 
-0.8764677131515706 1:777 2:785 
-0.6757701616872025 1:772 2:782 
-0.6632728796028826 1:771 2:781 
-0.7696349009081033 1:776 2:786 
-0.5676566967639075 1:773 2:783 
-0.7846403212565362 1:774 2:783 
-0.8725972332091829 1:769 2:779 
-0.7707312007928397 1:775 2:786 
-0.6789265765573326 1:773 2:784 
-0.6661838825643085 1:770 2:781 
-0.7852662067896367 1:773 2:786 
-0.7679025778476909 1:774 2:786 
-0.7969210250524257 1:773 2:782 
-0.6942649889843524 1:771 2:782 
-0.8767561579204639 1:767 2:778 
-0.8759659594072335 1:768 2:780 
-0.678443582313312 1:772 2:783 
-0.7843592900103769 1:772 2:784 
-0.6761347188848876 1:770 2:782 
-0.7659517597758864 1:773 2:785 
-0.8577209716930277 1:768 2:778 
-0.6778399564594851 1:769 2:781 
-0.6518996769141923 1:769 2:780 
-0.7969312387095294 1:769 2:782 
-0.8761637133729887 1:791 2:791 
-0.7714099413996243 1:791 2:792 
-0.6596415392939992 1:790 2:792 
-0.9926449820184308 1:789 2:789 
-0.9748515115651935 1:793 2:794 
-0.9751416863519928 1:793 2:796 
-0.8704759788718252 1:791 2:794 
-0.8875763147646257 1:789 2:791 
-0.6784336093916518 1:789 2:792 
-0.5559403305700542 1:790 2:794 
-0.9407033120592581 1:792 2:795 
-0.888556128053272 1:786 2:789 
-0.5869549664542424 1:789 2:793 
-0.6929891975775218 1:790 2:793 
-0.5683322445974565 1:786 2:790 
-0.7949233762495101 1:787 2:790 
-0.6631341375757487 1:788 2:793 
-0.8885523263408136 1:790 2:795 
-0.6910169602535959 1:787 2:791 
-0.5853016589418246 1:786 2:791 
-0.7844185015802946 1:788 2:794 
-0.6901135599730823 1:789 2:794 
-0.6779949621518893 1:787 2:792 
-0.9589485104202263 1:783 2:789 
-0.9748581440792303 1:784 2:788 
-0.6792064745643889 1:785 2:790 
-0.6742263532240101 1:786 2:792 
-0.7988487229262842 1:785 2:792 
-0.6744952344555577 1:785 2:791 
-0.7838628932509935 1:787 2:793 
-0.8705160060632313 1:784 2:790 
-0.751890868670727 1:859 2:836 
-0.8763756357214632 1:861 2:838 
-0.7540321663132461 1:860 2:837 
-0.8906570080972874 1:858 2:836 
-0.7884182805696824 1:860 2:836 
-0.7555011353214213 1:860 2:838 
-0.8759539072044762 1:861 2:840 
-0.7554518397382441 1:862 2:841 
-0.8905400890591892 1:864 2:842 
-0.757957234085381 1:861 2:841 
-0.7538264293061362 1:863 2:842 
-0.7741289499133344 1:862 2:842 
-0.7700269010617038 1:858 2:839 
-0.8745247121173232 1:859 2:839 
-0.8769789080653373 1:855 2:836 
-0.8586066117402071 1:853 2:835 
-0.7723230602759746 1:854 2:835 
-0.6494869531508187 1:854 2:836 
-0.6967059755414802 1:857 2:840 
-0.8888720349069642 1:857 2:838 
-0.5559022326417284 1:857 2:839 
-0.7700939852253911 1:858 2:842 
-0.6494823997361554 1:856 2:840 
-0.8903854150240458 1:855 2:840 
-0.6618513596687892 1:857 2:841 
-0.7716104711066865 1:858 2:841 
-0.7844982121365022 1:857 2:842 
-0.7841713909344117 1:856 2:839 
-0.7680040242658634 1:854 2:837 
-0.8886580012082025 1:854 2:838 
-0.9929407209340725 1:852 2:839 
-0.9765600103180146 1:852 2:836 
-0.9929295076068918 1:850 2:835 
