svm_type c_svc
kernel_type rbf
gamma 4
nr_class 2
total_sv 632
rho -0.0227267
label 1 -1
nr_sv 294 338
SV
0.976855554243128 1:908 2:864 
0.9600033242548391 1:907 2:863 
0.9245148059676319 1:906 2:863 
0.9425866946371759 1:905 2:863 
0.924751717396562 1:905 2:864 
0.9427753623042882 1:906 2:864 
0.9596434330574002 1:905 2:865 
0.9426118925153528 1:900 2:862 
0.9771059798359415 1:903 2:864 
0.9247556404451409 1:900 2:863 
0.9422873490306601 1:901 2:863 
0.9419549809037103 1:901 2:862 
0.9422576642267226 1:896 2:858 
0.9422599061517132 1:895 2:858 
0.9600730478199668 1:896 2:859 
0.976822023523315 1:893 2:856 
0.9425986238758008 1:893 2:858 
0.9250180374471325 1:894 2:858 
0.9594397459220441 1:894 2:859 
0.9599887006683832 1:892 2:857 
0.9594880398562954 1:900 2:864 
0.9599231511029473 1:896 2:861 
0.9423729199113059 1:895 2:862 
0.9257169127508995 1:892 2:859 
0.9250038980527452 1:891 2:859 
0.9599254569093432 1:894 2:861 
0.942997607261632 1:896 2:863 
0.9252684437848272 1:896 2:864 
0.9426558872819299 1:897 2:865 
0.9075305851838654 1:892 2:858 
0.9258311055844763 1:890 2:859 
0.9592498712944524 1:890 2:857 
0.9595330081001442 1:889 2:856 
0.9600888086910403 1:887 2:855 
0.9416245945196489 1:889 2:857 
0.9422368704999223 1:891 2:861 
0.9422753377306796 1:892 2:860 
0.9431598131843824 1:892 2:861 
0.9598353358941595 1:933 2:887 
0.9772981054158841 1:936 2:890 
0.9760965453597527 1:925 2:882 
0.9419284842246057 1:926 2:883 
0.9080691505228967 1:932 2:891 
0.9425646960117789 1:933 2:891 
0.9595183903575001 1:920 2:882 
0.9087185769198535 1:927 2:890 
0.9083463152797437 1:925 2:889 
0.9252611495655122 1:920 2:883 
0.9083591120102176 1:922 2:884 
0.9599948454938886 1:918 2:884 
0.9428207018569555 1:916 2:882 
0.925875936475718 1:921 2:886 
0.9246570807022019 1:895 2:861 
0.9256822444925729 1:896 2:865 
0.9425960998192611 1:895 2:865 
0.9600620336599128 1:887 2:856 
0.9252979616298155 1:890 2:860 
0.9083391663233248 1:889 2:860 
0.9773114630586479 1:891 2:863 
0.9422436135662707 1:894 2:865 
0.9598839636645516 1:893 2:865 
0.9261843633443964 1:888 2:860 
0.9595250738000085 1:884 2:858 
0.9599674129892791 1:883 2:857 
0.9593082107475319 1:885 2:860 
0.9430688284957146 1:889 2:862 
0.9419733099648802 1:890 2:864 
0.9258115128592753 1:889 2:864 
0.9243460624830447 1:883 2:858 
0.9592796000710843 1:881 2:857 
0.95960091675349 1:882 2:858 
0.9422473290892146 1:883 2:860 
0.925315950926084 1:887 2:864 
0.9425855137942879 1:884 2:861 
0.9592196691267285 1:880 2:857 
0.9259439802596893 1:883 2:862 
0.9767800455012047 1:878 2:857 
0.9252035663894572 1:880 2:860 
0.9425783419322438 1:880 2:861 
0.9420592957006488 1:875 2:856 
0.9771027093666149 1:876 2:858 
0.9430932213084453 1:879 2:860 
0.9254898413383605 1:925 2:880 
0.9423397158353642 1:932 2:887 
0.9252928684480937 1:930 2:887 
0.9259869738462407 1:931 2:888 
0.9255873735384882 1:928 2:884 
0.9427222888302428 1:928 2:885 
0.9253696030548931 1:928 2:886 
0.9593020448698872 1:926 2:884 
0.9591912349449987 1:921 2:881 
0.9591609709311264 1:922 2:882 
0.9426342482407044 1:925 2:885 
0.9256845457655802 1:924 2:886 
0.9087900495449244 1:923 2:885 
0.9422836248473355 1:922 2:883 
0.9418966947886331 1:918 2:882 
0.9084805039162216 1:922 2:886 
0.9592740153159658 1:916 2:880 
0.9589929977312613 1:917 2:880 
0.9587891475137261 1:918 2:881 
0.9595330124109309 1:913 2:878 
0.9419265627152026 1:911 2:876 
0.9254958318619348 1:916 2:883 
0.9426336651728443 1:917 2:883 
0.9423454828069417 1:919 2:883 
0.9252374480003303 1:895 2:863 
0.9604378723562417 1:894 2:863 
0.9428245626149214 1:897 2:864 
0.942280640093859 1:891 2:858 
0.9076936398098077 1:888 2:859 
0.9262306496267282 1:890 2:861 
0.959608704708659 1:888 2:858 
0.9264599363069544 1:889 2:859 
0.9258377045402824 1:888 2:861 
0.9595103992377813 1:886 2:858 
0.9086654798110305 1:889 2:861 
0.9252662445685426 1:886 2:859 
0.9763025023321888 1:885 2:857 
0.9418916862227463 1:887 2:861 
0.9422638018999998 1:887 2:859 
0.9419627358212848 1:886 2:860 
0.9253786682675564 1:889 2:863 
0.959198227120088 1:890 2:865 
0.9767771857565861 1:892 2:867 
0.9770479909046076 1:891 2:866 
0.9252987949573076 1:888 2:863 
0.9427691668613187 1:887 2:862 
0.9258078331288144 1:888 2:864 
0.9084724321490584 1:883 2:861 
0.9254785915881943 1:885 2:863 
0.9081881460791066 1:887 2:863 
0.9077944587969461 1:884 2:862 
0.9425836851237815 1:885 2:862 
0.9599078629658582 1:887 2:865 
0.9425770798998702 1:886 2:863 
0.9430896716742605 1:880 2:859 
0.9592962386266884 1:879 2:858 
0.9430881135584711 1:882 2:860 
0.9253333642031389 1:884 2:863 
0.9087496408981518 1:882 2:861 
0.9598474305797701 1:884 2:864 
0.9425722161584049 1:881 2:862 
0.9594563002064439 1:876 2:856 
0.959531664820283 1:875 2:855 
0.9251445362713646 1:879 2:859 
0.9260987824693112 1:882 2:862 
0.9254928545114808 1:881 2:861 
0.9771023228150096 1:929 2:880 
0.9766549086215265 1:928 2:881 
0.9591523180697469 1:927 2:880 
0.9249286141710674 1:926 2:880 
0.9585585048338128 1:926 2:881 
0.959424844613988 1:927 2:882 
0.9598434003522729 1:923 2:878 
0.9427860023371333 1:919 2:875 
0.95915716517684 1:921 2:877 
0.9592281179147739 1:924 2:881 
0.9244261702898132 1:927 2:883 
0.9594689516854618 1:925 2:879 
0.9249910263936292 1:924 2:880 
0.9258510989714639 1:923 2:880 
0.9423802329207692 1:923 2:879 
0.9595192575723703 1:920 2:876 
0.9252962440180543 1:919 2:876 
0.9426698136255197 1:918 2:875 
0.9427504021520122 1:921 2:878 
0.9261967885674777 1:921 2:879 
0.9085853436387139 1:921 2:880 
0.9075373292872576 1:918 2:876 
0.9422618606432251 1:917 2:876 
0.9592807129924071 1:916 2:875 
0.9425966744587716 1:922 2:880 
0.9255092251858376 1:919 2:879 
0.9426265250119825 1:918 2:877 
0.9412517593571109 1:912 2:874 
0.959577647021898 1:915 2:875 
0.9253346615264649 1:920 2:880 
0.9258457924379946 1:920 2:879 
0.9600992764618274 1:918 2:879 
0.9588306280168982 1:912 2:873 
0.942028502770209 1:917 2:877 
0.9596015783900997 1:915 2:878 
0.9592005731941312 1:916 2:878 
0.9600929638290617 1:913 2:874 
0.9773596768590425 1:911 2:872 
0.9595371916738131 1:911 2:875 
0.9426812340363458 1:919 2:880 
0.976844259974334 1:931 2:883 
0.9772793996490832 1:932 2:885 
0.9599703158970568 1:930 2:884 
0.9426095125602691 1:928 2:883 
0.9419366176594302 1:929 2:884 
0.9085529186114252 1:931 2:887 
0.94311989797093 1:931 2:886 
0.9252895064082916 1:930 2:886 
0.9772878839801556 1:933 2:889 
0.9082927778180326 1:931 2:890 
0.960439074799819 1:934 2:892 
0.9265079548686761 1:932 2:892 
0.9422114131877427 1:933 2:893 
0.9074079167973247 1:933 2:892 
0.9260483732968996 1:931 2:891 
0.9086860348947582 1:927 2:888 
0.9422362269415161 1:930 2:891 
0.9087160043822996 1:928 2:890 
0.9081035446497492 1:925 2:886 
0.9432131316624723 1:923 2:884 
0.9426760179181358 1:927 2:887 
0.9429145006942738 1:929 2:890 
0.9592405994483242 1:929 2:892 
0.9088997753682767 1:927 2:889 
0.909325672688325 1:922 2:885 
0.925334095939355 1:928 2:891 
0.926163463128838 1:926 2:890 
0.942870985834399 1:925 2:890 
0.9588365293895466 1:920 2:886 
0.9595637030602978 1:919 2:885 
0.9431819833731547 1:924 2:889 
0.9769632033757535 1:915 2:881 
0.9430982134940936 1:929 2:886 
0.9425984323048168 1:932 2:890 
0.9426316437085922 1:929 2:888 
0.9253029448783757 1:927 2:886 
0.9261119281800664 1:928 2:888 
0.9252642577695102 1:928 2:889 
0.9425908512478547 1:926 2:886 
0.9257668281269145 1:924 2:885 
0.926013367931497 1:926 2:888 
0.9087574178082596 1:925 2:888 
0.9265279968533979 1:923 2:886 
0.9261860559235233 1:921 2:884 
0.9256996833382762 1:920 2:884 
0.9257515307757715 1:921 2:885 
0.9245004070413365 1:917 2:882 
0.9419367896531985 1:913 2:879 
0.9419518631027715 1:912 2:879 
0.9598754023916409 1:911 2:877 
0.9769726776482124 1:913 2:881 
0.9425076030901577 1:915 2:884 
0.9767741615997254 1:917 2:886 
0.9254851215734589 1:915 2:883 
0.9767079013340181 1:916 2:885 
0.9594021789132164 1:912 2:880 
0.9765429591706313 1:908 2:877 
0.9252064987114698 1:914 2:884 
0.9074336726925258 1:910 2:881 
0.9424918673078676 1:909 2:879 
0.9595811886810915 1:909 2:878 
0.9592822325309721 1:907 2:878 
0.942243845516041 1:911 2:881 
0.9425908768929346 1:910 2:880 
0.9250153648583417 1:909 2:880 
0.9768011418766342 1:905 2:878 
0.9429087933490674 1:909 2:881 
0.9595541804697255 1:907 2:879 
0.9258203825598932 1:930 2:888 
0.9426324891539326 1:931 2:889 
0.9258289323324808 1:930 2:890 
0.977186668036656 1:936 2:895 
0.9601190233982425 1:932 2:894 
0.9246385578199391 1:932 2:893 
0.9767149582651443 1:934 2:896 
0.9086708267311515 1:926 2:889 
0.9426016836755291 1:925 2:887 
0.9253051506682368 1:924 2:888 
0.9597222676772438 1:931 2:895 
0.9595239495368718 1:931 2:896 
0.9598399179841691 1:928 2:893 
0.9430992421406668 1:927 2:891 
0.9247525383185171 1:928 2:892 
0.9428410698260191 1:923 2:888 
0.9422387229382553 1:922 2:888 
0.9427812463039188 1:922 2:887 
0.9077706136337149 1:919 2:884 
0.9764482692522818 1:920 2:888 
0.977036930849446 1:919 2:887 
0.9592166803688653 1:922 2:890 
0.9419302475463107 1:923 2:891 
0.9768784673975821 1:925 2:893 
0.9420320870010506 1:922 2:891 
0.9596022702374145 1:923 2:892 
0.9766550314619322 1:921 2:889 
0.9429824313682716 1:914 2:883 
0.9595319982835054 1:914 2:885 
0.9595102834634495 1:912 2:882 
0.9247419547737525 1:911 2:882 
0.942908173028979 1:910 2:882 
0.976464417358456 1:913 2:886 
0.9771370207392236 1:915 2:888 
0.9596237548330763 1:911 2:885 
0.9588497397618486 1:912 2:885 
0.977059414682656 1:913 2:888 
0.9771345311269878 1:909 2:884 
-1 1:866 2:807 
-1 1:867 2:808 
-1 1:865 2:809 
-1 1:872 2:814 
-1 1:868 2:811 
-1 1:867 2:811 
-1 1:866 2:810 
-1 1:863 2:809 
-1 1:864 2:808 
-1 1:862 2:808 
-1 1:866 2:812 
-0.9856249504294678 1:867 2:814 
-0.9859830913236544 1:866 2:814 
-1 1:867 2:813 
-0.007671131489376782 1:864 2:811 
-0.9965965619177408 1:864 2:811 
-0.9861627150473885 1:863 2:811 
-1 1:861 2:809 
-1 1:859 2:807 
-0.9859885582718966 1:860 2:810 
-1 1:857 2:806 
-1 1:862 2:811 
-1 1:863 2:813 
-0.004170958187353069 1:864 2:814 
-0.9861096223591718 1:866 2:815 
-1 1:864 2:814 
-0.96793634425578 1:862 2:813 
-0.9858531592380003 1:864 2:815 
-1 1:866 2:816 
-1 1:861 2:812 
-0.968366303182579 1:859 2:810 
-0.968466185903479 1:857 2:809 
-0.9862147901790572 1:859 2:811 
-0.9857352299445133 1:860 2:811 
-1 1:856 2:809 
-0.9862114287543252 1:858 2:809 
-0.9683159496907008 1:858 2:810 
-0.9687214774898401 1:861 2:813 
-0.9681375718089335 1:861 2:814 
-0.9683119960644645 1:862 2:814 
-0.9859465155485247 1:863 2:815 
-0.9865092729997964 1:861 2:815 
-0.9685310182077425 1:862 2:815 
-0.9678677319605661 1:857 2:810 
-1 1:857 2:811 
-1 1:782 2:729 
-1 1:779 2:731 
-1 1:775 2:730 
-1 1:771 2:729 
-0.004245651560858892 1:770 2:729 
-1 1:774 2:733 
-1 1:772 2:731 
-1 1:770 2:729 
-1 1:771 2:731 
-1 1:768 2:728 
-0.986890112477281 1:765 2:725 
-0.9859549910986347 1:766 2:727 
-0.9858388441649674 1:764 2:725 
-1 1:767 2:729 
-1 1:771 2:733 
-0.004244042435260061 1:769 2:730 
-1 1:769 2:730 
-1 1:768 2:730 
-0.9864128433227469 1:766 2:728 
-0.9867744166939846 1:763 2:725 
-0.9861644214042611 1:765 2:727 
-0.9860193141583441 1:765 2:726 
-0.9862741579163854 1:762 2:725 
-1 1:769 2:733 
-0.004458516976068779 1:766 2:730 
-0.9494874529768361 1:766 2:729 
-0.9689576681237417 1:761 2:725 
-0.02252061246791703 1:768 2:732 
-1 1:768 2:732 
-0.02188598402727075 1:767 2:731 
-1 1:766 2:730 
-0.00416781412911682 1:764 2:728 
-0.9679973279935665 1:761 2:726 
-0.9858578313263083 1:760 2:726 
-1 1:767 2:731 
-1 1:765 2:729 
-1 1:764 2:728 
-0.9675287274776854 1:763 2:728 
-0.985523663040011 1:762 2:727 
-0.9683573363453657 1:760 2:725 
-1 1:763 2:729 
-0.9861668558384921 1:762 2:728 
-0.9866992513509439 1:761 2:727 
-1 1:759 2:725 
-1 1:758 2:724 
-0.02539746733944535 1:645 2:591 
-0.007680109243631009 1:643 2:592 
-0.004459899863561431 1:643 2:594 
-0.0255021102921451 1:646 2:596 
-0.004130422909858817 1:644 2:595 
-0.005501077994246126 1:644 2:596 
-0.007648764214718801 1:644 2:598 
-0.004560933299852197 1:642 2:599 
-0.02517417212566191 1:643 2:603 
-0.9971724663176736 1:645 2:591 
-0.004361681850344475 1:644 2:593 
-0.9971108191016584 1:643 2:592 
-1 1:644 2:593 
-1 1:643 2:594 
-0.9680004692727932 1:643 2:593 
-0.9969220451392339 1:646 2:596 
-1 1:644 2:595 
-0.9991401350747376 1:644 2:596 
-0.02507761897745057 1:646 2:598 
-0.9971432276850511 1:646 2:598 
-0.02508927449486789 1:648 2:601 
-0.02542991730333084 1:650 2:603 
-0.9970875682261363 1:650 2:603 
-0.9971014441106725 1:648 2:601 
-0.9860686594816634 1:645 2:599 
-0.9966534002712854 1:644 2:598 
-0.9860323860205173 1:645 2:600 
-0.9676884742261161 1:644 2:599 
-0.9862713977569315 1:648 2:603 
-0.007516499747125868 1:648 2:605 
-0.004148176988063672 1:647 2:602 
-0.9674505803412863 1:647 2:603 
-0.9680490415458868 1:647 2:604 
-1 1:647 2:602 
-1 1:642 2:599 
-0.98671914271077 1:644 2:600 
-0.99681145890123 1:648 2:605 
-0.00453247417899099 1:646 2:604 
-0.9684301828889441 1:648 2:604 
-0.9855348139760829 1:645 2:602 
-0.004523647192211709 1:641 2:599 
-0.02546810290724368 1:642 2:601 
-0.004155128762054849 1:644 2:602 
-0.004162057827329797 1:645 2:603 
-1 1:645 2:603 
-1 1:644 2:602 
-1 1:646 2:604 
-0.9968844486278864 1:643 2:603 
-1 1:641 2:599 
-0.9969896364466398 1:642 2:601 
-1 1:425 2:386 
-1 1:429 2:390 
-1 1:430 2:393 
-1 1:431 2:394 
-1 1:432 2:396 
-1 1:432 2:398 
-1 1:434 2:401 
-1 1:436 2:403 
-1 1:437 2:404 
-1 1:436 2:407 
-1 1:439 2:408 
-1 1:440 2:410 
-1 1:443 2:414 
-1 1:442 2:414 
-1 1:442 2:416 
-1 1:445 2:419 
-1 1:447 2:423 
-1 1:449 2:424 
-1 1:452 2:427 
-1 1:451 2:429 
-1 1:454 2:432 
-1 1:455 2:432 
-0.004540545660674003 1:455 2:435 
-1 1:456 2:435 
-1 1:455 2:435 
-1 1:457 2:438 
-1 1:458 2:440 
-1 1:459 2:441 
-1 1:460 2:443 
-1 1:461 2:444 
-1 1:461 2:447 
-1 1:465 2:450 
-1 1:467 2:452 
-1 1:466 2:452 
-1 1:468 2:454 
-0.02517535931705619 1:468 2:456 
-1 1:467 2:455 
-0.996881726611938 1:468 2:456 
-0.02538971951001572 1:471 2:459 
-0.9972131645162049 1:471 2:459 
-1 1:472 2:461 
-1 1:473 2:463 
-1 1:475 2:465 
-1 1:477 2:469 
-1 1:477 2:468 
-1 1:478 2:470 
-1 1:480 2:472 
-1 1:479 2:472 
-1 1:481 2:474 
-1 1:479 2:474 
-0.9862792072486868 1:480 2:474 
-0.9870281200459389 1:664 2:698 
-0.9689806875390179 1:665 2:699 
-1 1:666 2:700 
-0.9505591059988528 1:665 2:698 
-0.9862829519473709 1:665 2:697 
-0.9689875145885231 1:667 2:699 
-1 1:663 2:696 
-0.9871439229474426 1:664 2:699 
-1 1:664 2:695 
-0.9516588793107437 1:666 2:698 
-0.9870000958120821 1:668 2:701 
-0.9509194217042205 1:666 2:699 
-0.9689587704975573 1:668 2:700 
-0.9509859517881617 1:668 2:699 
-0.9689916375405758 1:669 2:701 
-0.004512482393640993 1:672 2:703 
-0.967542137561358 1:671 2:702 
-0.9505509762133612 1:669 2:700 
-0.9686010371821332 1:667 2:698 
-0.9862890800934024 1:666 2:697 
-0.9872427515570019 1:670 2:700 
-0.9498041117652956 1:670 2:701 
-0.9870605864180219 1:670 2:702 
-0.9867135126794774 1:671 2:701 
-0.9864453670290286 1:672 2:702 
-0.9870072043499243 1:669 2:699 
-0.9869506422023783 1:668 2:698 
-1 1:672 2:703 
-1 1:772 2:780 
-1 1:776 2:783 
-0.004363615951271445 1:777 2:785 
-0.9859618298614424 1:775 2:783 
-0.9865287816551246 1:771 2:780 
-0.9860306137219722 1:776 2:785 
-1 1:777 2:785 
-0.9685785628896384 1:772 2:782 
-0.9678691684639805 1:771 2:781 
-0.9868284117138705 1:776 2:786 
-0.9505293823213921 1:773 2:783 
-0.9864127841131078 1:774 2:783 
-1 1:769 2:779 
-0.9864344392267038 1:775 2:786 
-0.9686360351570318 1:773 2:784 
-0.9682076099498772 1:770 2:781 
-0.9861696274822253 1:773 2:786 
-0.9859515312737788 1:774 2:786 
-0.9870073160918528 1:773 2:782 
-0.9690372621180693 1:771 2:782 
-0.005213187837810226 1:768 2:780 
-1 1:767 2:778 
-0.9992785855139007 1:768 2:780 
-0.9688271457834829 1:772 2:783 
-0.9867387338443987 1:772 2:784 
-0.9681029416795713 1:770 2:782 
-0.9864219046396475 1:773 2:785 
-1 1:768 2:778 
-0.9686517301768279 1:769 2:781 
-0.9681005670071081 1:769 2:780 
-0.9871050256664621 1:769 2:782 
-1 1:791 2:791 
-0.986413810610389 1:791 2:792 
-0.9684688688793681 1:790 2:792 
-0.02544809960291635 1:789 2:789 
-0.9970282409362182 1:789 2:789 
-0.0006857700326250559 1:791 2:794 
-1 1:793 2:794 
-0.003794676016971969 1:791 2:794 
-1 1:793 2:796 
-1 1:791 2:794 
-1 1:789 2:791 
-0.0005516198107674009 1:787 2:790 
-0.9685448130810279 1:789 2:792 
-0.9502081044900457 1:790 2:794 
-0.000540580659119232 1:790 2:793 
-0.02222463810668618 1:792 2:795 
-1 1:792 2:795 
-0.0008356860886323016 1:786 2:790 
-1 1:786 2:789 
-0.9508851327800936 1:789 2:793 
-0.9683872819646678 1:790 2:793 
-0.9499503905410569 1:786 2:790 
-0.00315097550568472 1:788 2:794 
-0.9864554405112583 1:787 2:790 
-0.001488556794675208 1:786 2:791 
-0.9683074581067909 1:788 2:793 
-0.004261544918329202 1:790 2:795 
-1 1:790 2:795 
-0.968850398288031 1:787 2:791 
-0.9493710569345978 1:786 2:791 
-0.001092607990583144 1:785 2:791 
-0.003262822898594935 1:787 2:793 
-0.9830725061830364 1:788 2:794 
-0.9692270668448512 1:789 2:794 
-0.9686085973769646 1:787 2:792 
-0.000696580184427668 1:785 2:790 
-1 1:783 2:789 
-1 1:784 2:788 
-0.9680115098876213 1:785 2:790 
-0.9681057179896597 1:786 2:792 
-0.9866326480496802 1:785 2:792 
-0.9675488262292972 1:785 2:791 
-0.9829711965159809 1:787 2:793 
-1 1:784 2:790 
-0.9861665960344118 1:859 2:836 
-1 1:861 2:838 
-0.9857682032439233 1:860 2:837 
-1 1:858 2:836 
-0.9863296458418208 1:860 2:836 
-0.9859025257104814 1:860 2:838 
-0.004516416013047926 1:861 2:840 
-0.004294366602263117 1:864 2:842 
-1 1:861 2:840 
-0.986093907158863 1:862 2:841 
-1 1:864 2:842 
-0.9860680361722522 1:861 2:841 
-0.9856439648440511 1:863 2:842 
-0.9864130352147141 1:862 2:842 
-0.0007027601842843102 1:859 2:839 
-0.986411800622212 1:858 2:839 
-0.003724662899870829 1:859 2:839 
-1 1:859 2:839 
-1 1:855 2:836 
-0.0007118659158789672 1:857 2:839 
-0.004325066718344128 1:857 2:838 
-1 1:853 2:835 
-0.9862548940417989 1:854 2:835 
-0.003004827026947614 1:854 2:837 
-0.9678833805984521 1:854 2:836 
-0.9685745342436655 1:857 2:840 
-1 1:857 2:838 
-0.004351822503596054 1:856 2:839 
-0.0005596295137580264 1:858 2:842 
-0.9495569912899059 1:857 2:839 
-0.9858197646193478 1:858 2:842 
-0.9681049781677784 1:856 2:840 
-0.00411359326789089 1:857 2:841 
-1 1:855 2:840 
-0.9641749794323674 1:857 2:841 
-0.9858653197565737 1:858 2:841 
-0.9861798446111113 1:857 2:842 
-0.9824254637864998 1:856 2:839 
-0.004300281593039738 1:854 2:838 
-0.9829978045341937 1:854 2:837 
-1 1:854 2:838 
-1 1:852 2:839 
-1 1:852 2:836 
-1 1:850 2:835 
