svm_type c_svc
kernel_type rbf
gamma 0.5
nr_class 2
total_sv 351
rho -0.0659942
label 1 -1
nr_sv 185 166
SV
0.9173094096656779 1:429 2:552 
0.9284769445689787 1:408 2:500 
0.9340442786713198 1:376 2:405 
0.9340168888537579 1:362 2:362 
0.6830915782517557 1:351 2:326 
0.9153066896881379 1:343 2:293 
0.9281920334031736 1:336 2:268 
0.9298396172824615 1:329 2:246 
0.9339848562822668 1:322 2:225 
0.9339533875578817 1:319 2:211 
0.9339702106413603 1:314 2:198 
0.9336589347140268 1:312 2:188 
0.9340499039497974 1:307 2:177 
0.9335357236129759 1:305 2:170 
0.9340387548597916 1:303 2:162 
0.9340051336896644 1:300 2:156 
0.9339753287253507 1:299 2:150 
0.8631926927785633 1:296 2:145 
0.8628213544140189 1:295 2:143 
0.9334601288072333 1:294 2:139 
0.9340394925507636 1:423 2:508 
0.9337002452786571 1:408 2:468 
0.9277193315197512 1:393 2:432 
0.9341373126038055 1:383 2:400 
0.9340484459329904 1:374 2:373 
0.6832363500999508 1:367 2:352 
0.9339830923824211 1:363 2:336 
0.9339891598020064 1:356 2:320 
0.8249618530276833 1:353 2:310 
0.9344619499622053 1:353 2:304 
0.9332487811760483 1:350 2:298 
0.9338322955023217 1:350 2:294 
0.8718081398005955 1:347 2:289 
0.5484541990032675 1:349 2:288 
0.8225941716186072 1:345 2:284 
0.7145454990232598 1:347 2:284 
0.8020001386636736 1:347 2:286 
0.3671595435651605 1:350 2:288 
0.862951641274185 1:352 2:288 
0.8173336272065294 1:350 2:290 
0.9338173704410647 1:614 2:735 
0.9339522415436499 1:586 2:714 
0.9237840031528965 1:557 2:686 
0.9321328199405366 1:532 2:662 
0.9172594239246776 1:510 2:635 
0.9340266841014121 1:489 2:606 
0.9338870360175618 1:469 2:577 
0.9335300949100016 1:453 2:548 
0.9340526004723465 1:435 2:516 
0.9340131762966699 1:422 2:488 
0.9334288763206119 1:408 2:459 
0.9321802959043444 1:399 2:432 
0.5806595156625005 1:387 2:405 
0.9335717515862214 1:375 2:378 
0.6826215978154101 1:366 2:353 
0.8628695378089126 1:358 2:330 
0.9191568365802035 1:349 2:308 
0.9333957586993556 1:343 2:289 
0.915943085071616 1:335 2:271 
0.932815750098574 1:330 2:255 
0.9215174652487013 1:326 2:242 
0.9105152065571287 1:431 2:550 
0.8161373555723553 1:411 2:501 
0.8632465086936428 1:392 2:452 
0.8628567802757762 1:379 2:410 
0.9234112958677019 1:365 2:370 
0.9338557345649323 1:353 2:333 
0.9340350218850407 1:344 2:306 
0.5819439740985495 1:336 2:283 
0.600134053681271 1:326 2:247 
0.6034823270280221 1:319 2:234 
0.8632391779529663 1:316 2:223 
0.932637361067322 1:314 2:214 
0.9339295714533307 1:309 2:207 
0.5816608535505233 1:308 2:202 
0.7491970131456392 1:303 2:197 
0.4045735977604808 1:302 2:193 
0.2321377949694074 1:301 2:189 
0.8063153571224067 1:296 2:182 
0.7603467845907388 1:297 2:180 
0.9340500059766174 1:571 2:712 
0.9340547750787667 1:543 2:687 
0.9340551442898211 1:522 2:661 
0.9340549948206154 1:498 2:634 
0.9340515944082902 1:481 2:606 
0.9340509563929604 1:466 2:581 
0.9340531741471677 1:453 2:559 
0.9340577987783851 1:439 2:533 
0.9337895021192377 1:429 2:511 
0.9326368952403937 1:416 2:486 
0.933734022841362 1:404 2:459 
0.9278146025898842 1:394 2:435 
0.9337741516044525 1:383 2:410 
0.9339174130066312 1:373 2:388 
0.581963280682064 1:366 2:367 
0.933648421710382 1:359 2:348 
0.9334960836148132 1:354 2:329 
0.8634276906946824 1:347 2:312 
0.8604368285585817 1:340 2:295 
0.5796950304545507 1:336 2:282 
0.7928197978674099 1:330 2:269 
0.9336387469610686 1:428 2:537 
0.9340477510885924 1:407 2:487 
0.9340455031639407 1:389 2:439 
0.68238684950297 1:374 2:392 
0.9337354241621152 1:359 2:352 
0.9326333851213688 1:350 2:319 
0.8628924374716196 1:338 2:289 
0.8633766260296948 1:331 2:267 
0.5153031464715455 1:325 2:247 
0.8771459795578053 1:321 2:233 
0.9236134236374861 1:315 2:219 
0.9323820716479647 1:312 2:211 
0.5808062100135345 1:308 2:201 
0.83149213693265 1:305 2:197 
0.6786733710409912 1:303 2:193 
0.5782533721792935 1:301 2:188 
0.6820710360903778 1:299 2:185 
0.1762273685592583 1:297 2:181 
0.9335073483774421 1:294 2:177 
0.6824009393615481 1:293 2:173 
0.6833262153111306 1:292 2:172 
0.9335249924075149 1:482 2:621 
0.9335965227340207 1:456 2:582 
0.9340494330741584 1:433 2:539 
0.9337555361780367 1:412 2:497 
0.934052872729311 1:397 2:459 
0.934045601891114 1:385 2:424 
0.6833765165797663 1:373 2:393 
0.5708161705353098 1:365 2:367 
0.5818525642951824 1:357 2:344 
0.6826360542092513 1:352 2:325 
0.8631093335586743 1:345 2:311 
0.9323849017031161 1:342 2:298 
0.8633014739971523 1:339 2:287 
0.9331275162704561 1:334 2:279 
0.8571329636915487 1:332 2:270 
0.9339154159730502 1:329 2:263 
0.8198611906757739 1:327 2:257 
0.9321128943524115 1:325 2:254 
0.9239037859680324 1:325 2:250 
0.4156812693701089 1:324 2:245 
0.6448154635882279 1:324 2:244 
0.9344317567610287 1:455 2:591 
0.9282869264230342 1:432 2:547 
0.8235643189920948 1:413 2:501 
0.8631903099270271 1:393 2:454 
0.8631457241622783 1:378 2:412 
0.9344288271014461 1:367 2:375 
0.5811198830760613 1:356 2:344 
0.9321234119532096 1:347 2:317 
0.8629002625515205 1:339 2:293 
0.9277629481657335 1:334 2:274 
0.8227362473296226 1:327 2:259 
0.8844954980749565 1:322 2:246 
0.7022838037208218 1:318 2:233 
0.8629298402581721 1:315 2:225 
0.9237941587762504 1:312 2:219 
0.9338615673673087 1:308 2:212 
0.9336220760421375 1:305 2:205 
0.8709316320552293 1:302 2:199 
0.8715276438065646 1:300 2:193 
0.5791048622384447 1:300 2:189 
0.6817280685103775 1:298 2:186 
0.9340254641139385 1:649 2:755 
0.9340498908291778 1:620 2:736 
0.9339751050892334 1:590 2:712 
0.9237164695325888 1:560 2:686 
0.9326472312954596 1:535 2:660 
0.9168977387620347 1:512 2:637 
0.9340254641138854 1:494 2:612 
0.9340416421564457 1:475 2:586 
0.9340120122860431 1:459 2:560 
0.9340472582271905 1:445 2:536 
0.9337931122024278 1:428 2:507 
0.9325800026399992 1:419 2:484 
0.9332380929119702 1:408 2:455 
0.9326490075641692 1:397 2:429 
0.5818606222207466 1:386 2:405 
0.9345201008674662 1:378 2:384 
0.9340486114469381 1:369 2:362 
0.9339900987978359 1:364 2:345 
0.8633503707977384 1:359 2:328 
0.8050987083507052 1:351 2:310 
0.917201586926231 1:345 2:295 
-1.065947007774226 1:537 2:486 
-1.066409460424014 1:507 2:440 
-1.065977135110395 1:482 2:395 
-1.065901707540688 1:460 2:351 
-1.066013200622066 1:436 2:303 
-1.066022038349778 1:415 2:259 
-1.065526264065042 1:396 2:218 
-1.06558097106172 1:378 2:185 
-1.06599028149753 1:367 2:158 
-1.065550027509472 1:355 2:134 
-1.065961025543811 1:344 2:115 
-1.065954433961778 1:335 2:101 
-1.065950692781543 1:327 2:90 
-1.065951694746271 1:318 2:80 
-1.066366156211088 1:312 2:73 
-1.06646427414717 1:308 2:67 
-1.065803377231435 1:303 2:62 
-1.065447345069024 1:300 2:59 
-1.065826898071249 1:296 2:55 
-1.064083089951588 1:293 2:52 
-1.064345678739215 1:290 2:50 
-1.065941194977025 1:497 2:393 
-1.066008025611695 1:473 2:347 
-1.066013200622066 1:450 2:301 
-1.066013883760708 1:431 2:259 
-1.066020274451115 1:412 2:220 
-1.066022038349778 1:395 2:186 
-1.06601690761753 1:378 2:157 
-1.06601946960638 1:365 2:133 
-1.066027448940062 1:355 2:114 
-1.065962563482826 1:344 2:99 
-1.06601066150869 1:335 2:85 
-1.065936374187989 1:326 2:76 
-1.066360310798628 1:315 2:68 
-1.066241432689734 1:310 2:61 
-1.066020108099442 1:306 2:57 
-1.066016735511343 1:301 2:52 
-1.065823956325417 1:296 2:49 
-1.065976736952744 1:293 2:45 
-0.9867470218292481 1:284 2:43 
-0.9657993219524511 1:283 2:41 
-1.048258325771399 1:281 2:39 
-1.065940319461406 1:330 2:62 
-1.065949994023383 1:320 2:52 
-1.06594417301452 1:312 2:45 
-1.065996105363566 1:301 2:40 
-1.065672252589338 1:296 2:38 
-1.066470424289558 1:290 2:35 
-1.06598395933784 1:284 2:34 
-1.065645486003751 1:280 2:31 
-1.06566364560767 1:276 2:31 
-0.9916837165101184 1:270 2:30 
-0.9031657453952606 1:268 2:29 
-0.9914500693985689 1:266 2:30 
-1.064299186697572 1:261 2:28 
-0.9301047505420714 1:257 2:28 
-0.8865831100380566 1:258 2:26 
-0.7488938664689156 1:256 2:26 
-0.8887433969289242 1:254 2:26 
-0.4867769725750116 1:252 2:26 
-0.7560702063777539 1:251 2:26 
-0.6554928795678772 1:248 2:25 
-0.6682975737143818 1:247 2:25 
-1.066469905089938 1:277 2:122 
-1.066364268500625 1:272 2:116 
-1.066032077442651 1:269 2:111 
-1.065811345021368 1:265 2:108 
-1.066321408682619 1:262 2:105 
-1.058859290451247 1:260 2:100 
-1.051847954791154 1:257 2:99 
-1.044345355608518 1:254 2:98 
-0.790165991156183 1:252 2:96 
-0.6930383556276086 1:251 2:95 
-1 1:250 2:93 
-0.6461186452369004 1:247 2:93 
-0.9085447542057317 1:246 2:91 
-0.5504999684987172 1:246 2:93 
-0.6783230309838167 1:244 2:89 
-0.6943961043568486 1:243 2:90 
-0.1544065952223477 1:244 2:90 
-0.04345369799963437 1:242 2:88 
-0.7474084209496132 1:241 2:88 
-0.7472892074102493 1:242 2:87 
-1.0663391223652 1:320 2:160 
-0.6630830528924651 1:310 2:143 
-1.06581757676499 1:302 2:128 
-1.058757518022794 1:292 2:118 
-0.9386486407816698 1:285 2:109 
-0.7817950939856979 1:282 2:100 
-0.9630331565996434 1:276 2:95 
-1.01934942588169 1:273 2:91 
-1.057830279580643 1:267 2:86 
-1.061637376949718 1:264 2:84 
-0.9832201562629523 1:261 2:82 
-0.984393532554834 1:259 2:81 
-0.8417390587817283 1:255 2:78 
-0.265426983415598 1:254 2:78 
-0.7696969897178638 1:253 2:79 
-0.9580906139683638 1:251 2:79 
-1.064563732579642 1:249 2:76 
-0.2597902696359001 1:245 2:74 
-0.6639760672513635 1:245 2:73 
-0.6644553845534964 1:244 2:74 
-1.065949443884401 1:408 2:349 
-1.065952248911408 1:392 2:309 
-1.065553371800585 1:374 2:272 
-1.066034723160667 1:358 2:238 
-1.058861136545734 1:345 2:210 
-1.065945995539962 1:336 2:186 
-1.065963871534134 1:326 2:165 
-0.9848776872742687 1:318 2:149 
-0.93858072994304 1:310 2:134 
-0.937109547895619 1:302 2:123 
-0.9655067836731188 1:295 2:113 
-0.9854215538867171 1:290 2:105 
-0.6641952950458266 1:287 2:100 
-0.6632236173538282 1:281 2:95 
-0.9861552903094341 1:278 2:90 
-0.76266367871789 1:272 2:85 
-0.9226556180211217 1:270 2:83 
-0.7793554069359235 1:267 2:80 
-0.6444225878508681 1:264 2:78 
-0.916821973175882 1:262 2:76 
-1.041062217679815 1:260 2:74 
-1.065934908039248 1:401 2:339 
-1.065983087168971 1:382 2:297 
-1.065951497518212 1:368 2:259 
-1.065946058634655 1:353 2:225 
-1.066012678467576 1:340 2:196 
-1.065947399346917 1:329 2:172 
-0.9854973655888326 1:317 2:151 
-0.9388663683541913 1:310 2:136 
-0.9395352961661815 1:304 2:123 
-0.9864912543260858 1:297 2:114 
-0.9848886350624168 1:292 2:106 
-0.6631826297168292 1:287 2:101 
-0.6639826408294025 1:282 2:95 
-0.8941501108384654 1:276 2:91 
-0.967411071544561 1:275 2:89 
-0.7785025387598724 1:271 2:86 
-0.9146706389554596 1:268 2:83 
-0.7476844802181526 1:266 2:81 
-0.6501906862071887 1:264 2:79 
-0.7135025184287634 1:261 2:78 
-0.7162497357342354 1:260 2:77 
-1.06601536808045 1:401 2:360 
-1.066022385716514 1:382 2:315 
-1.065958357828756 1:367 2:273 
-1.06579577411883 1:354 2:239 
-1.058738066771944 1:342 2:211 
-1.066239148727996 1:331 2:187 
-1.066329453228313 1:323 2:169 
-1.065395256335671 1:317 2:157 
-0.6642079788593417 1:311 2:143 
-1.066317691561739 1:305 2:134 
-1.064398288921373 1:299 2:125 
-1.06587908288577 1:296 2:119 
-1.040453098504779 1:293 2:115 
-1.066356000480645 1:290 2:111 
-0.9387271641355959 1:285 2:107 
-1.060600416276647 1:282 2:104 
-0.7716312202383817 1:281 2:101 
-0.8283545103234443 1:277 2:98 
-0.6293524735178737 1:276 2:97 
-1.034833536236003 1:273 2:95 
-1.028756502674346 1:271 2:93 
