svm_type c_svc
kernel_type rbf
gamma 0.125
nr_class 2
total_sv 344
rho -0.0816095
label 1 -1
nr_sv 179 165
SV
0.7540304030333447 1:429 2:552 
0.8060483455863441 1:408 2:500 
0.9106304985817014 1:376 2:405 
0.9098008337124934 1:362 2:362 
0.462285414512312 1:351 2:326 
0.4060580603168087 1:343 2:293 
0.7561122077776585 1:336 2:268 
0.7700729427876259 1:329 2:246 
0.9130387537021674 1:322 2:225 
0.9061057970752833 1:319 2:211 
0.9152835822172252 1:314 2:198 
0.9186021815540001 1:312 2:188 
0.9173496512369044 1:307 2:177 
0.9167137040510331 1:305 2:170 
0.914542741418151 1:303 2:162 
0.9062517924380763 1:300 2:156 
0.9003294745650132 1:299 2:150 
0.6489794941104439 1:296 2:145 
0.4686935989107112 1:295 2:143 
0.8583491033356975 1:294 2:139 
0.8851332363624081 1:423 2:508 
0.9183443245155518 1:408 2:468 
0.6749638612967186 1:393 2:432 
0.9092247447752462 1:383 2:400 
0.8830226932101145 1:374 2:373 
0.5160202031137637 1:367 2:352 
0.9180652046300249 1:363 2:336 
0.9076965410175148 1:356 2:320 
0.7568927330669412 1:353 2:310 
0.89322681510408 1:353 2:304 
0.8076154956219941 1:350 2:298 
0.7249078622352007 1:350 2:294 
0.5417917027860703 1:347 2:289 
0.08220434359265939 1:349 2:288 
0.5520469961811895 1:345 2:284 
0.4326536162275806 1:347 2:284 
0.1821936027687941 1:347 2:286 
0.7337763781902388 1:352 2:288 
0.3379462923854237 1:350 2:290 
0.9094603935188461 1:614 2:735 
0.8486714368319023 1:586 2:714 
0.6935539898093431 1:557 2:686 
0.7672486249839194 1:532 2:662 
0.6711828668485236 1:510 2:635 
0.9180712812423407 1:489 2:606 
0.8800089332112712 1:469 2:577 
0.9183197540567163 1:453 2:548 
0.9178860262268381 1:435 2:516 
0.8808653904336081 1:422 2:488 
0.700144709015224 1:408 2:459 
0.7559263498735088 1:399 2:432 
0.5431060240226487 1:387 2:405 
0.8810684978019661 1:375 2:378 
0.5151846991575603 1:366 2:353 
0.4912425297516406 1:358 2:330 
0.6947517770826742 1:349 2:308 
0.6798218191268973 1:343 2:289 
0.3831993510978152 1:335 2:271 
0.8207990707764816 1:330 2:255 
0.7531952023898266 1:326 2:242 
0.4154477739266962 1:431 2:550 
0.1789117174956868 1:411 2:501 
0.6020460418191893 1:392 2:452 
0.4399511045876487 1:379 2:410 
0.6732018084402724 1:365 2:370 
0.8327534740515562 1:353 2:333 
0.8753309950036795 1:344 2:306 
0.7321058485387257 1:336 2:283 
0.3278626952335385 1:326 2:247 
0.02500413096338011 1:319 2:234 
0.4800524622520222 1:316 2:223 
0.7314540916410476 1:314 2:214 
0.7786757614476183 1:309 2:207 
0.2311626674238882 1:308 2:202 
0.2041788593848822 1:301 2:189 
0.5340092504891709 1:296 2:182 
0.5336586891898806 1:297 2:180 
0.9183752096562864 1:571 2:712 
0.9188742666889995 1:543 2:687 
0.918620484981535 1:522 2:661 
0.9186110977366833 1:498 2:634 
0.9180285587861849 1:481 2:606 
0.8796509611960762 1:466 2:581 
0.9091537389506822 1:453 2:559 
0.9146292366575945 1:439 2:533 
0.8208541773950605 1:429 2:511 
0.7689932666618645 1:416 2:486 
0.8068027814435199 1:404 2:459 
0.7062036506862681 1:394 2:435 
0.8321875889986223 1:383 2:410 
0.8458186747202148 1:373 2:388 
0.4774548334545537 1:366 2:367 
0.7419004633141115 1:359 2:348 
0.6467595326266744 1:354 2:329 
0.4958464636680023 1:347 2:312 
0.3415349864226054 1:340 2:295 
0.1050316752093777 1:336 2:282 
0.47596853920477 1:330 2:269 
0.8945875761484238 1:428 2:537 
0.9183414362083486 1:407 2:487 
0.9136312997164376 1:389 2:439 
0.3328068729718797 1:374 2:392 
0.8163149659990194 1:359 2:352 
0.7582988775981 1:350 2:319 
0.5190619993533058 1:338 2:289 
0.4752958543979728 1:331 2:267 
0.6851686638517599 1:321 2:233 
0.6003024062935927 1:315 2:219 
0.6417396896250458 1:312 2:211 
0.6332514600623497 1:308 2:201 
0.6819207696186046 1:305 2:197 
0.6100437527668561 1:303 2:193 
0.3802568620017653 1:301 2:188 
0.4110164443667662 1:299 2:185 
0.792974541228276 1:294 2:177 
0.3164837214836904 1:293 2:173 
0.6511391967937149 1:292 2:172 
0.9179226680277345 1:482 2:621 
0.9183621076033495 1:456 2:582 
0.8937949206343903 1:433 2:539 
0.7799029166724534 1:412 2:497 
0.9131287512338786 1:397 2:459 
0.9184442165531022 1:385 2:424 
0.6216669308715813 1:373 2:393 
0.2599991718946784 1:365 2:367 
0.3328425316344155 1:357 2:344 
0.4935691698360087 1:352 2:325 
0.5819626979990637 1:345 2:311 
0.7612618980407313 1:342 2:298 
0.5414899401380328 1:339 2:287 
0.805212259314116 1:334 2:279 
0.2945231475229819 1:332 2:270 
0.8171626211680384 1:329 2:263 
0.1933032394814257 1:327 2:257 
0.7384114123878207 1:325 2:254 
0.6736352433786081 1:325 2:250 
0.2805111675572768 1:324 2:244 
0.9186331844974558 1:455 2:591 
0.7883513892097833 1:432 2:547 
0.6854539544563172 1:413 2:501 
0.5905516020292501 1:393 2:454 
0.6595323611464027 1:378 2:412 
0.8991119305143721 1:367 2:375 
0.5919982957590926 1:356 2:344 
0.7435522833348093 1:347 2:317 
0.5851472129362787 1:339 2:293 
0.7406194656977074 1:334 2:274 
0.6785156775006272 1:327 2:259 
0.7308437677188556 1:322 2:246 
0.676211656382115 1:318 2:233 
0.6502050742768799 1:315 2:225 
0.6923505684198378 1:312 2:219 
0.8055312406289308 1:308 2:212 
0.7986828166333617 1:305 2:205 
0.7659574500689781 1:302 2:199 
0.644381699757091 1:300 2:193 
0.1974958019846071 1:300 2:189 
0.4129698657011485 1:298 2:186 
0.9183694128330786 1:649 2:755 
0.909029536220424 1:620 2:736 
0.8489666485017859 1:590 2:712 
0.6932862500300215 1:560 2:686 
0.7675854684393173 1:535 2:660 
0.6718586462363003 1:512 2:637 
0.9177751568452734 1:494 2:612 
0.9183584007845037 1:475 2:586 
0.9096671757898976 1:459 2:560 
0.9147341264890987 1:445 2:536 
0.7859996683934823 1:428 2:507 
0.7286934126323883 1:419 2:484 
0.80890975491936 1:408 2:455 
0.7373956715095222 1:397 2:429 
0.4139680003909956 1:386 2:405 
0.9103199486536444 1:378 2:384 
0.9077443227710024 1:369 2:362 
0.9063842257012961 1:364 2:345 
0.6293960741916225 1:359 2:328 
0.1507070460465789 1:351 2:310 
0.6209778679047125 1:345 2:295 
-1 1:537 2:486 
-1 1:507 2:440 
-1 1:482 2:395 
-1 1:460 2:351 
-1 1:436 2:303 
-1 1:415 2:259 
-1 1:396 2:218 
-1 1:378 2:185 
-1 1:367 2:158 
-1 1:355 2:134 
-1 1:344 2:115 
-1 1:335 2:101 
-1 1:327 2:90 
-1 1:318 2:80 
-1 1:312 2:73 
-1 1:308 2:67 
-0.9625639993985797 1:303 2:62 
-0.9534932200484629 1:300 2:59 
-0.965195927472364 1:296 2:55 
-0.6984944175080863 1:293 2:52 
-0.9200489208322998 1:290 2:50 
-1 1:497 2:393 
-1 1:473 2:347 
-1 1:450 2:301 
-1 1:431 2:259 
-1 1:412 2:220 
-1 1:395 2:186 
-1 1:378 2:157 
-1 1:365 2:133 
-1 1:355 2:114 
-1 1:344 2:99 
-1 1:335 2:85 
-1 1:326 2:76 
-1 1:315 2:68 
-1 1:310 2:61 
-1 1:306 2:57 
-1 1:301 2:52 
-0.9300852733381446 1:296 2:49 
-1 1:293 2:45 
-0.9073049253509723 1:284 2:43 
-0.2494807304356869 1:283 2:41 
-0.9351163656495793 1:281 2:39 
-0.08160251673946103 1:330 2:62 
-0.08161200470536198 1:320 2:52 
-0.08174561939849156 1:312 2:45 
-0.05320682224440016 1:301 2:40 
-0.04993401416396109 1:296 2:38 
-0.06854538174713395 1:290 2:35 
-0.01814934830045704 1:284 2:34 
-1 1:330 2:62 
-1 1:320 2:52 
-1 1:312 2:45 
-1 1:301 2:40 
-0.9989794068481153 1:296 2:38 
-0.999316045281783 1:290 2:35 
-0.9991381119180727 1:284 2:34 
-0.9076096816550978 1:280 2:31 
-0.9500621036788301 1:276 2:31 
-0.8750729785232658 1:270 2:30 
-0.151635390208116 1:268 2:29 
-0.8588265616726376 1:266 2:30 
-0.8848945394318423 1:261 2:28 
-0.5360158619973434 1:257 2:28 
-0.5014689607109463 1:258 2:26 
-0.05320281712018658 1:256 2:26 
-0.6283945530705553 1:254 2:26 
-0.7523390414694572 1:251 2:26 
-0.990331209548091 1:247 2:25 
-1 1:277 2:122 
-1 1:272 2:116 
-1 1:269 2:111 
-0.9365917160690226 1:265 2:108 
-0.9594202281463953 1:262 2:105 
-0.8703820351556323 1:260 2:100 
-0.6318719296307945 1:257 2:99 
-0.6682496486412942 1:254 2:98 
-0.5627874438095379 1:252 2:96 
-0.1409993684369033 1:251 2:95 
-0.7676491125087431 1:250 2:93 
-0.3826296661641315 1:246 2:91 
-0.6767722428208641 1:246 2:93 
-0.2822420835727253 1:244 2:89 
-0.3639447496315422 1:243 2:90 
-0.4730509660801698 1:241 2:88 
-0.4972880693746877 1:242 2:87 
-0.9786569149619226 1:320 2:160 
-0.5750502195980167 1:310 2:143 
-0.946978155397318 1:302 2:128 
-0.8132448273915911 1:292 2:118 
-0.7171611911848488 1:285 2:109 
-0.6252291440857198 1:282 2:100 
-0.5727503611570801 1:276 2:95 
-0.4521093088897574 1:273 2:91 
-0.7609867232600634 1:267 2:86 
-0.7509789596137753 1:264 2:84 
-0.4903392245720283 1:261 2:82 
-0.6859231818535381 1:259 2:81 
-0.8642186826338529 1:255 2:78 
-0.1375562520462602 1:253 2:79 
-0.7201455018718504 1:251 2:79 
-0.886478264797246 1:249 2:76 
-0.5554213403778181 1:245 2:73 
-0.6257398631856199 1:244 2:74 
-1 1:408 2:349 
-1 1:392 2:309 
-1 1:374 2:272 
-0.966216944973498 1:358 2:238 
-0.8405512745877861 1:345 2:210 
-1 1:336 2:186 
-1 1:326 2:165 
-0.7122598702778475 1:318 2:149 
-0.6309918366682807 1:310 2:134 
-0.3765597045854343 1:302 2:123 
-0.4520910169491339 1:295 2:113 
-0.6454661962700504 1:290 2:105 
-0.6528910581320916 1:287 2:100 
-0.3324425795526358 1:281 2:95 
-0.8476535934391455 1:278 2:90 
-0.5417560781484337 1:272 2:85 
-0.5322180258754451 1:270 2:83 
-0.7572772761268334 1:267 2:80 
-0.6602318723950598 1:264 2:78 
-0.2393341920379388 1:262 2:76 
-0.8398449005467992 1:260 2:74 
-1 1:401 2:339 
-1 1:382 2:297 
-1 1:368 2:259 
-1 1:353 2:225 
-1 1:340 2:196 
-1 1:329 2:172 
-0.68967981090445 1:317 2:151 
-0.6702729552116224 1:310 2:136 
-0.8043944554968637 1:304 2:123 
-0.7373337022195994 1:297 2:114 
-0.7065962792483492 1:292 2:106 
-0.4321005577225471 1:287 2:101 
-0.7328373900405691 1:282 2:95 
-0.03911175741156205 1:276 2:91 
-0.590457957385202 1:275 2:89 
-0.3483664086891193 1:271 2:86 
-0.1279591899788672 1:268 2:83 
-0.05344939206148303 1:266 2:81 
-0.03886606865182426 1:264 2:79 
-0.1189869817709664 1:261 2:78 
-0.3705695029448355 1:260 2:77 
-1 1:401 2:360 
-1 1:382 2:315 
-1 1:367 2:273 
-0.9661956236830742 1:354 2:239 
-0.8405696718861588 1:342 2:211 
-1 1:331 2:187 
-1 1:323 2:169 
-0.9705719800635997 1:317 2:157 
-0.5728143276683405 1:311 2:143 
-1 1:305 2:134 
-0.8828022436095604 1:299 2:125 
-0.9255343811357704 1:296 2:119 
-0.5093189785080217 1:293 2:115 
-0.9975579108024654 1:290 2:111 
-0.5298945938367328 1:285 2:107 
-0.8351877909265814 1:282 2:104 
-0.2951277306593788 1:281 2:101 
-0.8375648763123652 1:277 2:98 
-0.5365112770632154 1:273 2:95 
-0.6886546881383641 1:271 2:93 
