svm_type c_svc
kernel_type rbf
gamma 0.5
nr_class 2
total_sv 364
rho -0.0892012
label 1 -1
nr_sv 185 179
SV
0.8944334982478912 1:429 2:552 
0.9057986987175533 1:408 2:500 
0.9106932108313937 1:376 2:405 
0.9107503026848527 1:362 2:362 
0.6659028003332227 1:351 2:326 
0.8928831147291209 1:343 2:293 
0.9048845430598966 1:336 2:268 
0.9066416510359286 1:329 2:246 
0.9109129507833464 1:322 2:225 
0.9104582126632057 1:319 2:211 
0.910631411291126 1:314 2:198 
0.9112149953823839 1:312 2:188 
0.9105374701701935 1:307 2:177 
0.9104684174512303 1:305 2:170 
0.9106932663287047 1:303 2:162 
0.9111518065788603 1:300 2:156 
0.9106537153231643 1:299 2:150 
0.8414898755284425 1:296 2:145 
0.8417432598656283 1:295 2:143 
0.9107800731224958 1:294 2:139 
0.9110340431565905 1:423 2:508 
0.9112495862995674 1:408 2:468 
0.9044546332786212 1:393 2:432 
0.9112525471300141 1:383 2:400 
0.911249366667626 1:374 2:373 
0.6659086843534879 1:367 2:352 
0.9109222204888917 1:363 2:336 
0.9112100287368344 1:356 2:320 
0.8048070152451515 1:353 2:310 
0.9108573027367136 1:353 2:304 
0.9104288548468258 1:350 2:298 
0.9103656051232988 1:350 2:294 
0.8503899996762668 1:347 2:289 
0.5353297678403502 1:349 2:288 
0.8022631422602571 1:345 2:284 
0.6965155001464287 1:347 2:284 
0.7819434813357093 1:347 2:286 
0.357262929172087 1:350 2:288 
0.8419335795235336 1:352 2:288 
0.7974509428395299 1:350 2:290 
0.9107594270478995 1:614 2:735 
0.9106513226831823 1:586 2:714 
0.9011985982185392 1:557 2:686 
0.9098516137505263 1:532 2:662 
0.8943533266227656 1:510 2:635 
0.9109129525365673 1:489 2:606 
0.9107790923098227 1:469 2:577 
0.9107068055340835 1:453 2:548 
0.9107682485695647 1:435 2:516 
0.9109766214552016 1:422 2:488 
0.9106084865207192 1:408 2:459 
0.9093214098694564 1:399 2:432 
0.5666474053247439 1:387 2:405 
0.9110495382656624 1:375 2:378 
0.6656957611365635 1:366 2:353 
0.8413762895597402 1:358 2:330 
0.8962912956522116 1:349 2:308 
0.9099991721105967 1:343 2:289 
0.8927090502482774 1:335 2:271 
0.9094402994610883 1:330 2:255 
0.898439022956683 1:326 2:242 
0.8884744976519942 1:431 2:550 
0.7956384386955004 1:411 2:501 
0.8416581497871396 1:392 2:452 
0.8416780509246314 1:379 2:410 
0.9010065381075476 1:365 2:370 
0.9105102215508637 1:353 2:333 
0.9112199224844737 1:344 2:306 
0.5674033217044671 1:336 2:283 
0.5862922871799893 1:326 2:247 
0.5884976068502585 1:319 2:234 
0.8412965435474618 1:316 2:223 
0.9093045191092876 1:314 2:214 
0.9106529986474522 1:309 2:207 
0.5670979628661879 1:308 2:202 
0.7313077811577446 1:303 2:197 
0.3946573965477973 1:302 2:193 
0.2248198478316147 1:301 2:189 
0.7866869520813515 1:296 2:182 
0.7420157251308011 1:297 2:180 
0.910694554206448 1:571 2:712 
0.9106272278348041 1:543 2:687 
0.9107300804714826 1:522 2:661 
0.9105230420943776 1:498 2:634 
0.9107456462346651 1:481 2:606 
0.9108182247634076 1:466 2:581 
0.9106954707622984 1:453 2:559 
0.9110386808536988 1:439 2:533 
0.9109878312796148 1:429 2:511 
0.9098752111452965 1:416 2:486 
0.9107302069871116 1:404 2:459 
0.9051611977291729 1:394 2:435 
0.9101112543708818 1:383 2:410 
0.9105388963973469 1:373 2:388 
0.5675656927731647 1:366 2:367 
0.9102701975218528 1:359 2:348 
0.9105062137557058 1:354 2:329 
0.8410851407653519 1:347 2:312 
0.8388666561232186 1:340 2:295 
0.5657093930666408 1:336 2:282 
0.7729229256027799 1:330 2:269 
0.911254292509018 1:428 2:537 
0.9105977307051893 1:407 2:487 
0.9108364028080341 1:389 2:439 
0.6653393209854792 1:374 2:392 
0.9104222263264223 1:359 2:352 
0.9097481097816511 1:350 2:319 
0.8414866121538709 1:338 2:289 
0.8417851243782171 1:331 2:267 
0.5015731875966248 1:325 2:247 
0.8547669075318683 1:321 2:233 
0.9004948634123865 1:315 2:219 
0.9089206458313623 1:312 2:211 
0.5667267855473644 1:308 2:201 
0.8100654439602147 1:305 2:197 
0.6615844635730234 1:303 2:193 
0.5641647144173948 1:301 2:188 
0.6650786755425925 1:299 2:185 
0.1712492229359126 1:297 2:181 
0.9104859687061404 1:294 2:177 
0.6655019101371982 1:293 2:173 
0.6659609176612173 1:292 2:172 
0.910640230500676 1:482 2:621 
0.9107130339728983 1:456 2:582 
0.9106922045570972 1:433 2:539 
0.9101715465153926 1:412 2:497 
0.9110934705904773 1:397 2:459 
0.910712125530788 1:385 2:424 
0.6662883902984602 1:373 2:393 
0.5563707970168758 1:365 2:367 
0.5673726690554368 1:357 2:344 
0.6656410106296586 1:352 2:325 
0.8417971315621716 1:345 2:311 
0.9093335749985937 1:342 2:298 
0.8416748204957634 1:339 2:287 
0.9097771345937051 1:334 2:279 
0.8352539319300074 1:332 2:270 
0.9106373862716917 1:329 2:263 
0.7996748380512174 1:327 2:257 
0.9091812490555585 1:325 2:254 
0.9012747005835531 1:325 2:250 
0.4052787457605954 1:324 2:245 
0.6287174827312229 1:324 2:244 
0.9106119918856469 1:455 2:591 
0.9048153760464225 1:432 2:547 
0.8033437540755609 1:413 2:501 
0.8419066325514933 1:393 2:454 
0.8414120473912949 1:378 2:412 
0.9107451918113014 1:367 2:375 
0.5665625431013338 1:356 2:344 
0.909828875708942 1:347 2:317 
0.8411597746907149 1:339 2:293 
0.9047058118172236 1:334 2:274 
0.8022070974734551 1:327 2:259 
0.8628224192901415 1:322 2:246 
0.6850827491110927 1:318 2:233 
0.8414600985762276 1:315 2:225 
0.9007301152496237 1:312 2:219 
0.9105177469590207 1:308 2:212 
0.9109225317489331 1:305 2:205 
0.8495772568258674 1:302 2:199 
0.8496919357451073 1:300 2:193 
0.5656605838219829 1:300 2:189 
0.6645638396649485 1:298 2:186 
0.9106704663189581 1:649 2:755 
0.9110881949778086 1:620 2:736 
0.9106062942685703 1:590 2:712 
0.9009689533758848 1:560 2:686 
0.9096994428512 1:535 2:660 
0.8943109892211279 1:512 2:637 
0.9105749742083807 1:494 2:612 
0.9107601563249599 1:475 2:586 
0.9111518066327476 1:459 2:560 
0.91058586649936 1:445 2:536 
0.910348942326364 1:428 2:507 
0.9093357524281044 1:419 2:484 
0.9109117314203588 1:408 2:455 
0.9096152704475479 1:397 2:429 
0.5672923059818513 1:386 2:405 
0.9105677171383215 1:378 2:384 
0.911263707739719 1:369 2:362 
0.9106987553279792 1:364 2:345 
0.8414136562552315 1:359 2:328 
0.7851545868962845 1:351 2:310 
0.8941201329418803 1:345 2:295 
-1 1:537 2:486 
-1 1:507 2:440 
-1 1:482 2:395 
-1 1:460 2:351 
-1 1:436 2:303 
-1 1:415 2:259 
-1 1:396 2:218 
-1 1:378 2:185 
-1 1:367 2:158 
-1 1:355 2:134 
-1 1:344 2:115 
-1 1:335 2:101 
-1 1:327 2:90 
-1 1:318 2:80 
-1 1:312 2:73 
-1 1:308 2:67 
-1 1:303 2:62 
-1 1:300 2:59 
-1 1:296 2:55 
-1 1:293 2:52 
-1 1:290 2:50 
-1 1:497 2:393 
-1 1:473 2:347 
-1 1:450 2:301 
-1 1:431 2:259 
-1 1:412 2:220 
-1 1:395 2:186 
-1 1:378 2:157 
-1 1:365 2:133 
-1 1:355 2:114 
-1 1:344 2:99 
-1 1:335 2:85 
-1 1:326 2:76 
-1 1:315 2:68 
-1 1:310 2:61 
-1 1:306 2:57 
-1 1:301 2:52 
-1 1:296 2:49 
-1 1:293 2:45 
-1 1:284 2:43 
-0.9889143165806412 1:283 2:41 
-1 1:281 2:39 
-0.08923167630740743 1:330 2:62 
-0.08921718478753624 1:320 2:52 
-0.08926595155973521 1:312 2:45 
-0.08929293643722747 1:301 2:40 
-0.0893045923550336 1:296 2:38 
-0.08916860369508429 1:290 2:35 
-0.0892948031347644 1:284 2:34 
-0.08868074418787805 1:280 2:31 
-0.08867589450415821 1:276 2:31 
-0.02144427292862443 1:270 2:30 
-0.0211931666628952 1:266 2:30 
-0.0878435352745591 1:261 2:28 
-1 1:330 2:62 
-1 1:320 2:52 
-1 1:312 2:45 
-1 1:301 2:40 
-1 1:296 2:38 
-1 1:290 2:35 
-1 1:284 2:34 
-1 1:280 2:31 
-1 1:276 2:31 
-0.9913914071992339 1:270 2:30 
-0.923230491130804 1:268 2:29 
-0.9915347218278969 1:266 2:30 
-1 1:261 2:28 
-0.9504986766143034 1:257 2:28 
-0.9058284083405159 1:258 2:26 
-0.7657224195940783 1:256 2:26 
-0.9085549388588448 1:254 2:26 
-0.4964232744418105 1:252 2:26 
-0.7735372181882152 1:251 2:26 
-0.6695105460138792 1:248 2:25 
-0.68278054750075 1:247 2:25 
-1 1:277 2:122 
-1 1:272 2:116 
-1 1:269 2:111 
-1 1:265 2:108 
-1 1:262 2:105 
-1 1:260 2:100 
-1 1:257 2:99 
-0.06791846728743192 1:254 2:98 
-1 1:254 2:98 
-0.8073238048283339 1:252 2:96 
-0.7100050848113512 1:251 2:95 
-1 1:250 2:93 
-0.6601204166737705 1:247 2:93 
-0.9284273353321502 1:246 2:91 
-0.562620202214228 1:246 2:93 
-0.6925906111717886 1:244 2:89 
-0.7092360683356775 1:243 2:90 
-0.1584659206005659 1:244 2:90 
-0.04434192566090107 1:242 2:88 
-0.7636338564003948 1:241 2:88 
-0.7637884622032319 1:242 2:87 
-1 1:320 2:160 
-0.6785543119691584 1:310 2:143 
-1 1:302 2:128 
-1 1:292 2:118 
-0.959399235545413 1:285 2:109 
-0.7986052760175474 1:282 2:100 
-0.9852465116419455 1:276 2:95 
-1 1:273 2:91 
-1 1:267 2:86 
-1 1:264 2:84 
-1 1:261 2:82 
-1 1:259 2:81 
-0.8598121991383019 1:255 2:78 
-0.2715767957140547 1:254 2:78 
-0.7864623453288768 1:253 2:79 
-0.9789385501282966 1:251 2:79 
-1 1:249 2:76 
-0.2660722426127597 1:245 2:74 
-0.6782655576981784 1:245 2:73 
-0.6784493915390104 1:244 2:74 
-1 1:408 2:349 
-1 1:392 2:309 
-1 1:374 2:272 
-1 1:358 2:238 
-1 1:345 2:210 
-1 1:336 2:186 
-1 1:326 2:165 
-1 1:318 2:149 
-0.9597654605575275 1:310 2:134 
-0.9582618957256659 1:302 2:123 
-0.988547231540051 1:295 2:113 
-1 1:290 2:105 
-0.6771483661037659 1:287 2:100 
-0.6785375680331438 1:281 2:95 
-1 1:278 2:90 
-0.7794646834036936 1:272 2:85 
-0.942656512959902 1:270 2:83 
-0.7961865485095577 1:267 2:80 
-0.6584210613576226 1:264 2:78 
-0.937690992924102 1:262 2:76 
-1 1:260 2:74 
-1 1:401 2:339 
-1 1:382 2:297 
-1 1:368 2:259 
-1 1:353 2:225 
-1 1:340 2:196 
-1 1:329 2:172 
-1 1:317 2:151 
-0.959482139022402 1:310 2:136 
-0.9596768515254819 1:304 2:123 
-1 1:297 2:114 
-1 1:292 2:106 
-0.6786489148939088 1:287 2:101 
-0.6773353854025942 1:282 2:95 
-0.9148274293763375 1:276 2:91 
-0.9887825761112192 1:275 2:89 
-0.7960866510927778 1:271 2:86 
-0.9352518047759353 1:268 2:83 
-0.7643446840571144 1:266 2:81 
-0.6640634656426594 1:264 2:79 
-0.7294196080002039 1:261 2:78 
-0.7325995204487173 1:260 2:77 
-1 1:401 2:360 
-1 1:382 2:315 
-1 1:367 2:273 
-1 1:354 2:239 
-1 1:342 2:211 
-1 1:331 2:187 
-1 1:323 2:169 
-1 1:317 2:157 
-0.6773520200809013 1:311 2:143 
-1 1:305 2:134 
-1 1:299 2:125 
-1 1:296 2:119 
-1 1:293 2:115 
-1 1:290 2:111 
-0.9594147150820169 1:285 2:107 
-1 1:282 2:104 
-0.7887916428306054 1:281 2:101 
-0.8453013529578335 1:277 2:98 
-0.6438648463532189 1:276 2:97 
-1 1:273 2:95 
-1 1:271 2:93 
