svm_type c_svc
kernel_type rbf
gamma 0.125
nr_class 2
total_sv 364
rho -0.167802
label 1 -1
nr_sv 182 182
SV
0.5 1:429 2:552 
0.5 1:408 2:500 
0.06467291092560701 1:392 2:452 
0.5 1:376 2:405 
0.5 1:362 2:362 
0.4248881995164244 1:351 2:326 
0.4089753545822614 1:343 2:293 
0.5 1:336 2:268 
0.5 1:329 2:246 
0.5 1:322 2:225 
0.5 1:319 2:211 
0.5 1:314 2:198 
0.5 1:312 2:188 
0.5 1:307 2:177 
0.5 1:305 2:170 
0.5 1:303 2:162 
0.5 1:300 2:156 
0.5 1:299 2:150 
0.5 1:296 2:145 
0.5 1:295 2:143 
0.5 1:294 2:139 
0.5 1:423 2:508 
0.5 1:408 2:468 
0.5 1:393 2:432 
0.5 1:383 2:400 
0.5 1:374 2:373 
0.4685453711720169 1:367 2:352 
0.5 1:363 2:336 
0.5 1:356 2:320 
0.5 1:353 2:310 
0.5 1:353 2:304 
0.5 1:350 2:298 
0.5 1:350 2:294 
0.5 1:347 2:289 
0.5 1:345 2:284 
0.3860980768546701 1:347 2:284 
0.1797791696493982 1:347 2:286 
0.1039778401889387 1:350 2:288 
0.5 1:352 2:288 
0.3622688617275993 1:350 2:290 
0.5 1:614 2:735 
0.5 1:586 2:714 
0.5 1:557 2:686 
0.5 1:532 2:662 
0.5 1:510 2:635 
0.5 1:489 2:606 
0.5 1:469 2:577 
0.5 1:453 2:548 
0.5 1:435 2:516 
0.5 1:422 2:488 
0.5 1:408 2:459 
0.5 1:399 2:432 
0.4710554392699964 1:387 2:405 
0.5 1:375 2:378 
0.4659345954777382 1:366 2:353 
0.4972562125061002 1:358 2:330 
0.5 1:349 2:308 
0.5 1:343 2:289 
0.4495918311086593 1:335 2:271 
0.5 1:330 2:255 
0.5 1:326 2:242 
0.5 1:431 2:550 
0.3260819644885117 1:411 2:501 
0.5 1:392 2:452 
0.4896335768548411 1:379 2:410 
0.5 1:365 2:370 
0.5 1:353 2:333 
0.5 1:344 2:306 
0.5 1:336 2:283 
0.2582826988269361 1:329 2:263 
0.3903887984250201 1:326 2:247 
0.1751486685632075 1:319 2:234 
0.4921026248525492 1:316 2:223 
0.5 1:314 2:214 
0.5 1:309 2:207 
0.3089649402659565 1:308 2:202 
0.1675795838515292 1:303 2:197 
0.2288854691296947 1:301 2:189 
0.4806962413369222 1:296 2:182 
0.5 1:297 2:180 
0.5 1:571 2:712 
0.5 1:543 2:687 
0.5 1:522 2:661 
0.5 1:498 2:634 
0.5 1:481 2:606 
0.5 1:466 2:581 
0.5 1:453 2:559 
0.5 1:439 2:533 
0.5 1:429 2:511 
0.5 1:416 2:486 
0.5 1:404 2:459 
0.5 1:394 2:435 
0.5 1:383 2:410 
0.5 1:373 2:388 
0.4377332239826863 1:366 2:367 
0.5 1:359 2:348 
0.5 1:354 2:329 
0.4716595533515585 1:347 2:312 
0.3584833699626195 1:340 2:295 
0.2846524028221152 1:336 2:282 
0.4282329238884006 1:330 2:269 
0.5 1:428 2:537 
0.5 1:407 2:487 
0.5 1:389 2:439 
0.3829279417271074 1:374 2:392 
0.5 1:359 2:352 
0.5 1:350 2:319 
0.4738131539311978 1:338 2:289 
0.4373423491600016 1:331 2:267 
0.5 1:321 2:233 
0.5 1:315 2:219 
0.5 1:312 2:211 
0.5 1:308 2:201 
0.5 1:305 2:197 
0.5 1:303 2:193 
0.3082868188774704 1:301 2:188 
0.3753721848950562 1:299 2:185 
0.5 1:294 2:177 
0.3829573283034041 1:293 2:173 
0.5 1:292 2:172 
0.5 1:482 2:621 
0.5 1:456 2:582 
0.5 1:433 2:539 
0.5 1:412 2:497 
0.5 1:397 2:459 
0.5 1:385 2:424 
0.5 1:373 2:393 
0.2734554773626628 1:365 2:367 
0.3489919028235411 1:357 2:344 
0.4532131629901846 1:352 2:325 
0.5 1:345 2:311 
0.5 1:342 2:298 
0.5 1:339 2:287 
0.5 1:334 2:279 
0.2666889392886128 1:332 2:270 
0.4905389259773433 1:329 2:263 
0.3259920117344961 1:327 2:257 
0.5 1:325 2:254 
0.5 1:325 2:250 
0.3695125521720353 1:324 2:244 
0.5 1:455 2:591 
0.5 1:432 2:547 
0.5 1:413 2:501 
0.5 1:393 2:454 
0.5 1:378 2:412 
0.5 1:367 2:375 
0.5 1:356 2:344 
0.5 1:347 2:317 
0.5 1:339 2:293 
0.5 1:334 2:274 
0.5 1:327 2:259 
0.5 1:322 2:246 
0.5 1:318 2:233 
0.5 1:315 2:225 
0.5 1:312 2:219 
0.5 1:308 2:212 
0.5 1:305 2:205 
0.5 1:302 2:199 
0.5 1:300 2:193 
0.1819024137156058 1:300 2:189 
0.3746531429675191 1:298 2:186 
0.5 1:649 2:755 
0.5 1:620 2:736 
0.5 1:590 2:712 
0.5 1:560 2:686 
0.5 1:535 2:660 
0.5 1:512 2:637 
0.5 1:494 2:612 
0.5 1:475 2:586 
0.5 1:459 2:560 
0.5 1:445 2:536 
0.5 1:428 2:507 
0.5 1:419 2:484 
0.5 1:408 2:455 
0.5 1:397 2:429 
0.4022686161119281 1:386 2:405 
0.5 1:378 2:384 
0.5 1:369 2:362 
0.5 1:364 2:345 
0.5 1:359 2:328 
0.297715556469376 1:351 2:310 
0.5 1:345 2:295 
-0.5 1:537 2:486 
-0.5 1:507 2:440 
-0.5 1:482 2:395 
-0.5 1:460 2:351 
-0.5 1:436 2:303 
-0.5 1:415 2:259 
-0.5 1:396 2:218 
-0.5 1:378 2:185 
-0.5 1:367 2:158 
-0.5 1:355 2:134 
-0.5 1:344 2:115 
-0.5 1:335 2:101 
-0.5 1:327 2:90 
-0.5 1:318 2:80 
-0.5 1:312 2:73 
-0.5 1:308 2:67 
-0.5 1:303 2:62 
-0.5 1:300 2:59 
-0.5 1:296 2:55 
-0.5 1:293 2:52 
-0.5 1:290 2:50 
-0.5 1:497 2:393 
-0.5 1:473 2:347 
-0.5 1:450 2:301 
-0.5 1:431 2:259 
-0.5 1:412 2:220 
-0.5 1:395 2:186 
-0.5 1:378 2:157 
-0.5 1:365 2:133 
-0.5 1:355 2:114 
-0.5 1:344 2:99 
-0.5 1:335 2:85 
-0.5 1:326 2:76 
-0.5 1:315 2:68 
-0.5 1:310 2:61 
-0.5 1:306 2:57 
-0.5 1:301 2:52 
-0.5 1:296 2:49 
-0.5 1:293 2:45 
-0.5 1:284 2:43 
-0.5 1:283 2:41 
-0.5 1:281 2:39 
-0.5 1:330 2:62 
-0.5 1:320 2:52 
-0.5 1:312 2:45 
-0.5 1:301 2:40 
-0.5 1:296 2:38 
-0.5 1:290 2:35 
-0.5 1:284 2:34 
-0.4924335875774893 1:280 2:31 
-0.5 1:276 2:31 
-0.4442858126206213 1:270 2:30 
-0.4264420034825612 1:266 2:30 
-0.5 1:261 2:28 
-0.07872810071938005 1:257 2:28 
-0.04247620073881125 1:258 2:26 
-0.1815145468678143 1:254 2:26 
-0.3366530571710182 1:251 2:26 
-0.5 1:247 2:25 
-0.5 1:330 2:62 
-0.5 1:320 2:52 
-0.5 1:312 2:45 
-0.5 1:301 2:40 
-0.5 1:296 2:38 
-0.5 1:290 2:35 
-0.5 1:284 2:34 
-0.4962872913944583 1:280 2:31 
-0.5 1:276 2:31 
-0.5 1:270 2:30 
-0.1648387565662185 1:268 2:29 
-0.5 1:266 2:30 
-0.4557170715703085 1:261 2:28 
-0.5 1:257 2:28 
-0.5 1:258 2:26 
-0.05512539962588632 1:256 2:26 
-0.5 1:254 2:26 
-0.4695575785343746 1:251 2:26 
-0.04799500540291815 1:248 2:25 
-0.5 1:247 2:25 
-0.5 1:277 2:122 
-0.5 1:272 2:116 
-0.5 1:269 2:111 
-0.5 1:265 2:108 
-0.5 1:262 2:105 
-0.5 1:260 2:100 
-0.5 1:257 2:99 
-0.3285681192465422 1:254 2:98 
-0.5 1:254 2:98 
-0.3770620955938839 1:252 2:96 
-0.4815567445310046 1:251 2:95 
-0.5 1:250 2:93 
-0.2527534395207213 1:247 2:93 
-0.4380711799735833 1:246 2:91 
-0.5 1:246 2:93 
-0.3040865052689917 1:244 2:89 
-0.4143587114427268 1:243 2:90 
-0.5 1:241 2:88 
-0.5 1:242 2:87 
-0.5 1:320 2:160 
-0.5 1:310 2:143 
-0.5 1:302 2:128 
-0.5 1:292 2:118 
-0.5 1:285 2:109 
-0.5 1:282 2:100 
-0.5 1:276 2:95 
-0.5 1:273 2:91 
-0.5 1:267 2:86 
-0.5 1:264 2:84 
-0.5 1:261 2:82 
-0.5 1:259 2:81 
-0.5 1:255 2:78 
-0.2847545346359202 1:254 2:78 
-0.3490652996710862 1:253 2:79 
-0.5 1:251 2:79 
-0.5 1:249 2:76 
-0.2758676597592028 1:245 2:73 
-0.08061771901363815 1:245 2:74 
-0.4092386706224611 1:245 2:73 
-0.5 1:244 2:74 
-0.5 1:408 2:349 
-0.5 1:392 2:309 
-0.5 1:374 2:272 
-0.5 1:358 2:238 
-0.5 1:345 2:210 
-0.5 1:336 2:186 
-0.5 1:326 2:165 
-0.5 1:318 2:149 
-0.5 1:310 2:134 
-0.5 1:302 2:123 
-0.5 1:295 2:113 
-0.5 1:290 2:105 
-0.5 1:287 2:100 
-0.5 1:281 2:95 
-0.5 1:278 2:90 
-0.5 1:272 2:85 
-0.5 1:270 2:83 
-0.5 1:267 2:80 
-0.5 1:264 2:78 
-0.4270318049652449 1:262 2:76 
-0.5 1:260 2:74 
-0.5 1:401 2:339 
-0.5 1:382 2:297 
-0.5 1:368 2:259 
-0.5 1:353 2:225 
-0.5 1:340 2:196 
-0.5 1:329 2:172 
-0.5 1:317 2:151 
-0.5 1:310 2:136 
-0.5 1:304 2:123 
-0.5 1:297 2:114 
-0.5 1:292 2:106 
-0.5 1:287 2:101 
-0.5 1:282 2:95 
-0.3569158925876412 1:276 2:91 
-0.5 1:275 2:89 
-0.4962014056996736 1:271 2:86 
-0.3077852688095841 1:268 2:83 
-0.2971443731042798 1:266 2:81 
-0.2282098894668123 1:264 2:79 
-0.08038422262909023 1:261 2:78 
-0.5 1:260 2:77 
-0.5 1:401 2:360 
-0.5 1:382 2:315 
-0.5 1:367 2:273 
-0.5 1:354 2:239 
-0.5 1:342 2:211 
-0.5 1:331 2:187 
-0.5 1:323 2:169 
-0.5 1:317 2:157 
-0.5 1:311 2:143 
-0.5 1:305 2:134 
-0.5 1:299 2:125 
-0.5 1:296 2:119 
-0.5 1:293 2:115 
-0.5 1:290 2:111 
-0.5 1:285 2:107 
-0.5 1:282 2:104 
-0.5 1:281 2:101 
-0.5 1:277 2:98 
-0.3454744332755527 1:276 2:97 
-0.5 1:273 2:95 
-0.5 1:271 2:93 
