svm_type c_svc
kernel_type rbf
gamma 0.25
nr_class 2
total_sv 345
rho -0.0710454
label 1 -1
nr_sv 182 163
SV
0.8276355696121622 1:429 2:552 
0.8779462667131961 1:408 2:500 
0.9288239565434044 1:376 2:405 
0.9286661201794457 1:362 2:362 
0.5688362332901756 1:351 2:326 
0.7621389815359724 1:343 2:293 
0.8632431722369207 1:336 2:268 
0.88050511546747 1:329 2:246 
0.9287077236969135 1:322 2:225 
0.9291386824239535 1:319 2:211 
0.9294609854767236 1:314 2:198 
0.9289343409625036 1:312 2:188 
0.9289557467077852 1:307 2:177 
0.9288881894767927 1:305 2:170 
0.9289578735393884 1:303 2:162 
0.9286827530453312 1:300 2:156 
0.9287316721781467 1:299 2:150 
0.7263716149299887 1:296 2:145 
0.708025363901555 1:295 2:143 
0.9189957654502303 1:294 2:139 
0.9273883658069986 1:423 2:508 
0.9288029453577918 1:408 2:468 
0.85679575144985 1:393 2:432 
0.9285206835526721 1:383 2:400 
0.9273966778220483 1:374 2:373 
0.5781560224736625 1:367 2:352 
0.9294517080192569 1:363 2:336 
0.9287744304366037 1:356 2:320 
0.7225300490292265 1:353 2:310 
0.9284010469621178 1:353 2:304 
0.9122790926106229 1:350 2:298 
0.8997911693419721 1:350 2:294 
0.7003740627897242 1:347 2:289 
0.3335231056491516 1:349 2:288 
0.6796399544073851 1:345 2:284 
0.4775974389464762 1:347 2:284 
0.5362720466534766 1:347 2:286 
0.0727397665005264 1:350 2:288 
0.7807629466290819 1:352 2:288 
0.6256516785349366 1:350 2:290 
0.9293695138680518 1:614 2:735 
0.9230010891738563 1:586 2:714 
0.8401089194384873 1:557 2:686 
0.8947463765894761 1:532 2:662 
0.8186352976809832 1:510 2:635 
0.9294441959113143 1:489 2:606 
0.9271442250882282 1:469 2:577 
0.9287146537491513 1:453 2:548 
0.9289376261539071 1:435 2:516 
0.9271116015222882 1:422 2:488 
0.8960100200570693 1:408 2:459 
0.894226147480623 1:399 2:432 
0.5221076999253492 1:387 2:405 
0.9280283501803801 1:375 2:378 
0.578148718493956 1:366 2:353 
0.708284268236233 1:358 2:330 
0.8431929934831743 1:349 2:308 
0.8939394602695464 1:343 2:289 
0.7337359110346147 1:335 2:271 
0.9027448057266952 1:330 2:255 
0.8365373801402883 1:326 2:242 
0.7462085016303226 1:431 2:550 
0.5869875711009613 1:411 2:501 
0.7219757382367092 1:392 2:452 
0.7037462434314851 1:379 2:410 
0.8402220045985018 1:365 2:370 
0.9160355854186331 1:353 2:333 
0.9272659885570852 1:344 2:306 
0.5725376274861516 1:336 2:283 
0.5052436161687945 1:326 2:247 
0.3063431557976757 1:319 2:234 
0.7087895502564597 1:316 2:223 
0.89258931901162 1:314 2:214 
0.9192204594828782 1:309 2:207 
0.5004598499215881 1:308 2:202 
0.4164583873608154 1:303 2:197 
0.1849862475453669 1:301 2:189 
0.7135477361009652 1:296 2:182 
0.7140543133836589 1:297 2:180 
0.9292465570813148 1:571 2:712 
0.9291772125480628 1:543 2:687 
0.928744557664009 1:522 2:661 
0.9290612708655333 1:498 2:634 
0.9289400582080325 1:481 2:606 
0.9274453119682511 1:466 2:581 
0.9287045778914257 1:453 2:559 
0.9294282516855351 1:439 2:533 
0.9157433137862493 1:429 2:511 
0.8942890677393341 1:416 2:486 
0.9120055667276538 1:404 2:459 
0.858208617914073 1:394 2:435 
0.9159421423737303 1:383 2:410 
0.919804802449624 1:373 2:388 
0.5223688540169659 1:366 2:367 
0.9073577355603646 1:359 2:348 
0.894456193358808 1:354 2:329 
0.7113756912460986 1:347 2:312 
0.6582966640363589 1:340 2:295 
0.4479642871222516 1:336 2:282 
0.5390207264673839 1:330 2:269 
0.9280854588150882 1:428 2:537 
0.9294764443779736 1:407 2:487 
0.9288008109664745 1:389 2:439 
0.5583926048138755 1:374 2:392 
0.9122774756389509 1:359 2:352 
0.8943845956937356 1:350 2:319 
0.7110785293813392 1:338 2:289 
0.7139174368171605 1:331 2:267 
0.313127155127175 1:325 2:247 
0.7716451414940124 1:321 2:233 
0.8290853398730086 1:315 2:219 
0.8791295302936764 1:312 2:211 
0.5354199048527141 1:308 2:201 
0.7389076448434722 1:305 2:197 
0.8269110567272627 1:303 2:193 
0.4613468544192076 1:301 2:188 
0.5654844450329169 1:299 2:185 
0.9119903079746454 1:294 2:177 
0.5584360839289885 1:293 2:173 
0.5894098889546155 1:292 2:172 
0.9290585136573725 1:482 2:621 
0.9287470541752961 1:456 2:582 
0.928080305391329 1:433 2:539 
0.9088513360487214 1:412 2:497 
0.9289070686230643 1:397 2:459 
0.9287412978136279 1:385 2:424 
0.5889601764928586 1:373 2:393 
0.4329575439160124 1:365 2:367 
0.5094518673333114 1:357 2:344 
0.5776235832801678 1:352 2:325 
0.722040974723049 1:345 2:311 
0.892903024381796 1:342 2:298 
0.7179009317483078 1:339 2:287 
0.9058332206660207 1:334 2:279 
0.6437727667691827 1:332 2:270 
0.9194940754848123 1:329 2:263 
0.6021758700006897 1:327 2:257 
0.8883453465414117 1:325 2:254 
0.8361980802500393 1:325 2:250 
0.6612684666363291 1:324 2:244 
0.9294012715639036 1:455 2:591 
0.8676947234687382 1:432 2:547 
0.6985074923926871 1:413 2:501 
0.7222948310191054 1:393 2:454 
0.7266104718793187 1:378 2:412 
0.9281961825489536 1:367 2:375 
0.5302531424931919 1:356 2:344 
0.8933635376125657 1:347 2:317 
0.7154795339629071 1:339 2:293 
0.8626805439936647 1:334 2:274 
0.6989440821127432 1:327 2:259 
0.8046673934660238 1:322 2:246 
0.6619906458622131 1:318 2:233 
0.7256538845016268 1:315 2:225 
0.8402999026117881 1:312 2:219 
0.9149944948145794 1:308 2:212 
0.916122031713809 1:305 2:205 
0.7808961328016977 1:302 2:199 
0.8293083237936091 1:300 2:193 
0.4594306526692563 1:300 2:189 
0.5433188143337312 1:298 2:186 
0.9290907602917002 1:649 2:755 
0.9288489364732549 1:620 2:736 
0.9226904094154917 1:590 2:712 
0.8401667334099219 1:560 2:686 
0.8944593648918895 1:535 2:660 
0.8180538320729653 1:512 2:637 
0.9289685636871229 1:494 2:612 
0.9287437600637658 1:475 2:586 
0.9288807323156655 1:459 2:560 
0.928771965854458 1:445 2:536 
0.9143166318813104 1:428 2:507 
0.8924237226979603 1:419 2:484 
0.9120776524288612 1:408 2:455 
0.8922522140665186 1:397 2:429 
0.5217628472364116 1:386 2:405 
0.92868266737286 1:378 2:384 
0.9288871972227668 1:369 2:362 
0.9285649966939357 1:364 2:345 
0.7247093373725794 1:359 2:328 
0.5441120291092457 1:351 2:310 
0.8128077098562138 1:345 2:295 
-1.070798420663997 1:537 2:486 
-1.071243076601995 1:507 2:440 
-1.071218334033995 1:482 2:395 
-1.07131671558931 1:460 2:351 
-1.071227502609615 1:436 2:303 
-1.071042618126254 1:415 2:259 
-1.070973847596079 1:396 2:218 
-1.07105256860565 1:378 2:185 
-1.070802411956734 1:367 2:158 
-1.071235207489523 1:355 2:134 
-1.070529899851896 1:344 2:115 
-1.070519963108447 1:335 2:101 
-1.071167249510566 1:327 2:90 
-1.070554045409608 1:318 2:80 
-1.070811388852551 1:312 2:73 
-1.070461034087134 1:308 2:67 
-1.059189390326063 1:303 2:62 
-1.059047855750795 1:300 2:59 
-1.059281666889335 1:296 2:55 
-1.007721283430936 1:293 2:52 
-1.031841937167503 1:290 2:50 
-1.071192998258249 1:497 2:393 
-1.071246420248464 1:473 2:347 
-1.07131671558931 1:450 2:301 
-1.071253705864671 1:431 2:259 
-1.071250881054215 1:412 2:220 
-1.071246317718809 1:395 2:186 
-1.070522199291333 1:378 2:157 
-1.070623105153266 1:365 2:133 
-1.070525713682078 1:355 2:114 
-1.070555477418409 1:344 2:99 
-1.070566446562881 1:335 2:85 
-1.071018507701677 1:326 2:76 
-1.070983878019046 1:315 2:68 
-1.070695171864802 1:310 2:61 
-1.070822159886212 1:306 2:57 
-1.070708466771728 1:301 2:52 
-1.057528473001475 1:296 2:49 
-1.068347832300211 1:293 2:45 
-0.8718676964373745 1:284 2:43 
-0.6891547759912359 1:283 2:41 
-0.9762963207706873 1:281 2:39 
-1.071245959913124 1:330 2:62 
-1.07114599349628 1:320 2:52 
-1.070623600806466 1:312 2:45 
-1.070483363714842 1:301 2:40 
-1.070431762441449 1:296 2:38 
-1.070947938481122 1:290 2:35 
-1.068231922724918 1:284 2:34 
-1.049236394868741 1:280 2:31 
-1.051295051666153 1:276 2:31 
-0.89429890088389 1:270 2:30 
-0.5591915885393863 1:268 2:29 
-0.8933800778551821 1:266 2:30 
-1.030008952662915 1:261 2:28 
-0.7343227457402797 1:257 2:28 
-0.6922257627062628 1:258 2:26 
-0.3100286520890124 1:256 2:26 
-0.7926937315857334 1:254 2:26 
-0.08439995126797729 1:252 2:26 
-0.8752351822882064 1:251 2:26 
-0.4403462402056059 1:248 2:25 
-0.7156624191131744 1:247 2:25 
-1.071088076361853 1:277 2:122 
-1.070903374432706 1:272 2:116 
-1.068866289416085 1:269 2:111 
-1.057387692494537 1:265 2:108 
-1.058834323710671 1:262 2:105 
-0.9947655955342426 1:260 2:100 
-0.9154788646136564 1:257 2:99 
-0.9002232677179318 1:254 2:98 
-0.6736885514633141 1:252 2:96 
-0.3982036396311448 1:251 2:95 
-0.8749907268179317 1:250 2:93 
-0.4065970732179885 1:247 2:93 
-0.6544090118056646 1:246 2:91 
-0.4875018450004259 1:246 2:93 
-0.495934609068365 1:244 2:89 
-0.5815639263325799 1:243 2:90 
-0.5881666579028275 1:241 2:88 
-0.5996232642724628 1:242 2:87 
-1.058977839421263 1:320 2:160 
-0.6022413559602762 1:310 2:143 
-1.057641296092849 1:302 2:128 
-0.9833931229394127 1:292 2:118 
-0.7867353691687905 1:285 2:109 
-0.7109660872756539 1:282 2:100 
-0.8212420224000484 1:276 2:95 
-0.7824219283397457 1:273 2:91 
-0.9638247906862948 1:267 2:86 
-0.9746293787425493 1:264 2:84 
-0.782697642753708 1:261 2:82 
-0.8200388551830307 1:259 2:81 
-0.9136332653790754 1:255 2:78 
-0.4998059601142383 1:253 2:79 
-0.834417290464051 1:251 2:79 
-1.035518444634433 1:249 2:76 
-0.1095050675026569 1:245 2:74 
-0.6112968904258514 1:245 2:73 
-0.6144896407445971 1:244 2:74 
-1.071076483555349 1:408 2:349 
-1.071087015002132 1:392 2:309 
-1.071225462979501 1:374 2:272 
-1.055516875792843 1:358 2:238 
-0.9894604190496716 1:345 2:210 
-1.069313501854029 1:336 2:186 
-1.068998440233214 1:326 2:165 
-0.8327827550769582 1:318 2:149 
-0.7812437083931856 1:310 2:134 
-0.7347306530078237 1:302 2:123 
-0.705648970935407 1:295 2:113 
-0.830871633706303 1:290 2:105 
-0.6037374428717079 1:287 2:100 
-0.593269067065425 1:281 2:95 
-0.8616312511242565 1:278 2:90 
-0.5862050857526767 1:272 2:85 
-0.7005886538544683 1:270 2:83 
-0.6814964640393213 1:267 2:80 
-0.5254577089630791 1:264 2:78 
-0.5821402842726533 1:262 2:76 
-0.9314352618504192 1:260 2:74 
-1.070584942690109 1:401 2:339 
-1.071255026202572 1:382 2:297 
-1.071037183076901 1:368 2:259 
-1.071258702186361 1:353 2:225 
-1.071005512382238 1:340 2:196 
-1.070623906000185 1:329 2:172 
-0.8324355673272262 1:317 2:151 
-0.7830012341123327 1:310 2:136 
-0.7989308111844398 1:304 2:123 
-0.854733738508729 1:297 2:114 
-0.8320879929242772 1:292 2:106 
-0.5976437833495574 1:287 2:101 
-0.60760361710713 1:282 2:95 
-0.5108835172990805 1:276 2:91 
-0.745269818700207 1:275 2:89 
-0.6320620917412707 1:271 2:86 
-0.5923391544953414 1:268 2:83 
-0.4480481082906201 1:266 2:81 
-0.472341042620014 1:264 2:79 
-0.4372602766110114 1:261 2:78 
-0.5159784370412147 1:260 2:77 
-1.070742115692505 1:401 2:360 
-1.07110108504461 1:382 2:315 
-1.071037104337503 1:367 2:273 
-1.056187019478519 1:354 2:239 
-0.9900068619113984 1:342 2:211 
-1.06964859214608 1:331 2:187 
-1.069046600936505 1:323 2:169 
-1.059185584116836 1:317 2:157 
-0.6022451017593154 1:311 2:143 
-1.068546610956947 1:305 2:134 
-1.030461445964057 1:299 2:125 
-1.053994493800876 1:296 2:119 
-0.8787614292392187 1:293 2:115 
-1.06758692811472 1:290 2:111 
-0.7701786003970995 1:285 2:107 
-1.003164508688342 1:282 2:104 
-0.5557139049043832 1:281 2:101 
-0.8748703932601363 1:277 2:98 
-0.2051578505404889 1:276 2:97 
-0.8442336485462211 1:273 2:95 
-0.8498456533519918 1:271 2:93 
