svm_type c_svc
kernel_type rbf
gamma 2
nr_class 2
total_sv 374
rho -0.0891182
label 1 -1
nr_sv 186 188
SV
0.9111265961025345 1:429 2:552 
0.9110345398085299 1:408 2:500 
0.9107719832192253 1:376 2:405 
0.9109169198211707 1:362 2:362 
0.8945997883198319 1:351 2:326 
0.9111880439056625 1:343 2:293 
0.9108966185042842 1:336 2:268 
0.9105111349104478 1:329 2:246 
0.9110170422060625 1:322 2:225 
0.9110514822832969 1:319 2:211 
0.911323068958303 1:314 2:198 
0.9110141306493595 1:312 2:188 
0.9106568456903729 1:307 2:177 
0.9107878352414812 1:305 2:170 
0.9107719832192247 1:303 2:162 
0.910502806407713 1:300 2:156 
0.9109542671676278 1:299 2:150 
0.9104994188997897 1:296 2:145 
0.9109960373984173 1:295 2:143 
0.9111849003427777 1:294 2:139 
0.9103915259610258 1:423 2:508 
0.9103915113885992 1:408 2:468 
0.9109075895900365 1:393 2:432 
0.9110333131598157 1:383 2:400 
0.9103909751851085 1:374 2:373 
0.8949002020953808 1:367 2:352 
0.9109415717059971 1:363 2:336 
0.9108376164027288 1:356 2:320 
0.9104414268765287 1:353 2:310 
0.9112722059291515 1:353 2:304 
0.9103442952482148 1:350 2:298 
0.9110141306493365 1:350 2:294 
0.9110866494645542 1:347 2:289 
0.802414430685415 1:349 2:288 
0.6898444036403817 1:347 2:285 
0.9105733729697509 1:345 2:284 
0.8168917305712133 1:347 2:284 
0.8175815926009795 1:347 2:286 
0.8017672807358227 1:350 2:288 
0.9107304517632905 1:352 2:288 
0.9107464982845197 1:350 2:290 
0.9109542671676278 1:614 2:735 
0.9110333131598157 1:586 2:714 
0.9111848264905105 1:557 2:686 
0.9107830349205609 1:532 2:662 
0.9110836762388139 1:510 2:635 
0.9109897042811612 1:489 2:606 
0.9109994113419272 1:469 2:577 
0.9103915401414936 1:453 2:548 
0.9107719832192253 1:435 2:516 
0.9105028064077135 1:422 2:488 
0.9110518770590106 1:408 2:459 
0.9110180958253431 1:399 2:432 
0.8023080857596648 1:387 2:405 
0.9106568456904038 1:375 2:378 
0.8946855850752566 1:366 2:353 
0.9103497539725993 1:358 2:330 
0.911185272237561 1:349 2:308 
0.9108783013626937 1:343 2:289 
0.9111855057236462 1:335 2:271 
0.9103915404125758 1:330 2:255 
0.9111868872466793 1:326 2:242 
0.9103914213773207 1:431 2:550 
0.9109667742467253 1:411 2:501 
0.9111440803377553 1:392 2:452 
0.910837490693681 1:379 2:410 
0.911017028310635 1:365 2:370 
0.9110293105928717 1:353 2:333 
0.9107419021574872 1:344 2:306 
0.8023080862623331 1:336 2:283 
0.8023084740359389 1:326 2:247 
0.8946233974015148 1:319 2:234 
0.9103501299058016 1:316 2:223 
0.9109468208544227 1:314 2:214 
0.9105416769313575 1:309 2:207 
0.8023080862609054 1:308 2:202 
0.9107293250029845 1:303 2:197 
0.8020622141453223 1:302 2:193 
0.6939178597931958 1:301 2:189 
0.8965902219013944 1:296 2:182 
0.8045452625589919 1:297 2:180 
0.9105527435190758 1:571 2:712 
0.9110818153585534 1:543 2:687 
0.9110821111271745 1:522 2:661 
0.911083777064582 1:498 2:634 
0.9110759543408902 1:481 2:606 
0.9108325020386355 1:466 2:581 
0.9103911855244001 1:453 2:559 
0.9103915401414936 1:439 2:533 
0.9108376164025037 1:429 2:511 
0.9110982155643305 1:416 2:486 
0.9108376164027173 1:404 2:459 
0.910622697551474 1:394 2:435 
0.9110520032020876 1:383 2:410 
0.9109540024945723 1:373 2:388 
0.8023080878310687 1:366 2:367 
0.9107426524091936 1:359 2:348 
0.9110821776618282 1:354 2:329 
0.9111435343343393 1:347 2:312 
0.9105558362981794 1:340 2:295 
0.8024405811744826 1:336 2:282 
0.9104700160483442 1:330 2:269 
0.9111875083028157 1:428 2:537 
0.9111849003427792 1:407 2:487 
0.9111266945702877 1:389 2:439 
0.8947122747925589 1:374 2:392 
0.9107719832192132 1:359 2:352 
0.9110510592903428 1:350 2:319 
0.9103498902343106 1:338 2:289 
0.9103744745218196 1:331 2:267 
0.8023875072838889 1:325 2:247 
0.9104463950791091 1:321 2:233 
0.9110208525301997 1:315 2:219 
0.9107830208536638 1:312 2:211 
0.8024369192483783 1:308 2:201 
0.9108949015815978 1:305 2:197 
0.8023633048649951 1:303 2:193 
0.8023311162342307 1:301 2:188 
0.8946812233377806 1:299 2:185 
0.7856858354466359 1:297 2:181 
0.9106677528261108 1:294 2:177 
0.8947106538414384 1:293 2:173 
0.8947663255848735 1:292 2:172 
0.9110519950912885 1:482 2:621 
0.9107760854540714 1:456 2:582 
0.9107830208582596 1:433 2:539 
0.9110091921131216 1:412 2:497 
0.9108190787441146 1:397 2:459 
0.9104132922202948 1:385 2:424 
0.8946403844316088 1:373 2:393 
0.8024364392892797 1:365 2:367 
0.8023080862608929 1:357 2:344 
0.8946329287473707 1:352 2:325 
0.9110120321117211 1:345 2:311 
0.9110045946141599 1:342 2:298 
0.9109678622909508 1:339 2:287 
0.9105111365600236 1:334 2:279 
0.91099320265578 1:332 2:270 
0.9104873459340127 1:329 2:263 
0.9106484363392577 1:327 2:257 
0.9106568456857055 1:325 2:254 
0.9110804634417488 1:325 2:250 
0.8023626087653768 1:324 2:245 
0.8023084442268671 1:324 2:244 
0.9104869835604551 1:455 2:591 
0.9110821757853749 1:432 2:547 
0.9104734001244937 1:413 2:501 
0.9111456117244738 1:393 2:454 
0.9103497252031829 1:378 2:412 
0.9110045469880732 1:367 2:375 
0.8024567833123359 1:356 2:344 
0.9108376163978446 1:347 2:317 
0.9109798327040532 1:339 2:293 
0.91057886191447 1:334 2:274 
0.9108798535579389 1:327 2:259 
0.9103078241371991 1:322 2:246 
0.8947146909139405 1:318 2:233 
0.9110342352580496 1:315 2:225 
0.910391526563691 1:312 2:219 
0.9110759543408886 1:308 2:212 
0.9111535232404068 1:305 2:205 
0.9109756404561378 1:302 2:199 
0.9101824177673687 1:300 2:193 
0.8024208355226837 1:300 2:189 
0.8946652184337877 1:298 2:186 
0.9111275271203122 1:649 2:755 
0.9111266985535932 1:620 2:736 
0.9111855524858201 1:590 2:712 
0.9103914975353796 1:560 2:686 
0.9105028064030602 1:535 2:660 
0.9109074890380586 1:512 2:637 
0.9111875083028157 1:494 2:612 
0.9111881464192434 1:475 2:586 
0.9110755650911044 1:459 2:560 
0.9110167445837932 1:445 2:536 
0.9111266945702862 1:428 2:507 
0.910533150025941 1:419 2:484 
0.9106568456903923 1:408 2:455 
0.9103911855197397 1:397 2:429 
0.8024358355976482 1:386 2:405 
0.9110175099452279 1:378 2:384 
0.9110164262266621 1:369 2:362 
0.9110213286270988 1:364 2:345 
0.9110861973043247 1:359 2:328 
0.9106245709341547 1:351 2:310 
0.9109054556956082 1:345 2:295 
-1 1:537 2:486 
-1 1:507 2:440 
-1 1:482 2:395 
-1 1:460 2:351 
-1 1:436 2:303 
-1 1:415 2:259 
-1 1:396 2:218 
-1 1:378 2:185 
-1 1:367 2:158 
-1 1:355 2:134 
-1 1:344 2:115 
-1 1:335 2:101 
-1 1:327 2:90 
-1 1:318 2:80 
-1 1:312 2:73 
-1 1:308 2:67 
-1 1:303 2:62 
-1 1:300 2:59 
-1 1:296 2:55 
-1 1:293 2:52 
-1 1:290 2:50 
-1 1:497 2:393 
-1 1:473 2:347 
-1 1:450 2:301 
-1 1:431 2:259 
-1 1:412 2:220 
-1 1:395 2:186 
-1 1:378 2:157 
-1 1:365 2:133 
-1 1:355 2:114 
-1 1:344 2:99 
-1 1:335 2:85 
-1 1:326 2:76 
-1 1:315 2:68 
-1 1:310 2:61 
-1 1:306 2:57 
-1 1:301 2:52 
-1 1:296 2:49 
-1 1:293 2:45 
-1 1:284 2:43 
-1 1:283 2:41 
-1 1:281 2:39 
-0.1215757697519589 1:330 2:62 
-0.1215757697519589 1:320 2:52 
-0.1215758185218939 1:312 2:45 
-0.1215758185218939 1:301 2:40 
-0.1215760993500187 1:296 2:38 
-0.1215760993511441 1:290 2:35 
-0.121576099352361 1:284 2:34 
-0.08898291339725094 1:280 2:31 
-0.08897867137288734 1:276 2:31 
-0.08904497650495419 1:270 2:30 
-0.08948668573525891 1:268 2:29 
-0.08917445192559148 1:266 2:30 
-0.08898325541062539 1:261 2:28 
-0.08948782641806752 1:257 2:28 
-0.08972313296571188 1:258 2:26 
-0.08828361622158802 1:256 2:26 
-0.08867278341668731 1:254 2:26 
-0.02183224515426085 1:252 2:26 
-0.02741778259692367 1:251 2:26 
-0.02739310369107072 1:248 2:25 
-0.02226968703713706 1:247 2:25 
-0.9674770439213238 1:330 2:62 
-0.9673727479647443 1:320 2:52 
-0.9674246520470442 1:312 2:45 
-0.9672386701218938 1:301 2:40 
-0.9680323605085034 1:296 2:38 
-0.9673705026835737 1:290 2:35 
-0.9673008679691812 1:284 2:34 
-1 1:280 2:31 
-1 1:276 2:31 
-1 1:270 2:30 
-1 1:268 2:29 
-1 1:266 2:30 
-1 1:261 2:28 
-1 1:257 2:28 
-0.9987805105202676 1:258 2:26 
-1 1:256 2:26 
-1 1:254 2:26 
-0.9367564522967983 1:252 2:26 
-0.9323096507092605 1:251 2:26 
-0.9323096592888689 1:248 2:25 
-0.9369014830602951 1:247 2:25 
-1 1:277 2:122 
-1 1:272 2:116 
-1 1:269 2:111 
-1 1:265 2:108 
-1 1:262 2:105 
-1 1:260 2:100 
-1 1:257 2:99 
-0.08891610665572179 1:254 2:98 
-1 1:254 2:98 
-1 1:252 2:96 
-1 1:251 2:95 
-1 1:250 2:93 
-0.9596304384471762 1:247 2:93 
-1 1:246 2:91 
-0.9592949934344625 1:246 2:93 
-0.9591254704146754 1:244 2:89 
-0.959563945682232 1:243 2:90 
-0.8294398025180623 1:244 2:90 
-0.8291574497318993 1:242 2:88 
-0.9595003904543706 1:241 2:88 
-0.9598508264322345 1:242 2:87 
-1 1:320 2:160 
-0.9596675607280344 1:310 2:143 
-1 1:302 2:128 
-1 1:292 2:118 
-1 1:285 2:109 
-1 1:282 2:100 
-1 1:276 2:95 
-1 1:273 2:91 
-1 1:267 2:86 
-1 1:264 2:84 
-1 1:261 2:82 
-1 1:259 2:81 
-0.9620423889528714 1:255 2:78 
-0.9405493547916103 1:254 2:78 
-1 1:253 2:79 
-1 1:251 2:79 
-1 1:249 2:76 
-0.8292987667763972 1:245 2:74 
-0.9591959169900474 1:245 2:73 
-0.9591690208865227 1:244 2:74 
-1 1:408 2:349 
-1 1:392 2:309 
-1 1:374 2:272 
-1 1:358 2:238 
-1 1:345 2:210 
-1 1:336 2:186 
-1 1:326 2:165 
-1 1:318 2:149 
-1 1:310 2:134 
-1 1:302 2:123 
-1 1:295 2:113 
-1 1:290 2:105 
-0.9597004526872196 1:287 2:100 
-0.9596293642980552 1:281 2:95 
-1 1:278 2:90 
-1 1:272 2:85 
-1 1:270 2:83 
-1 1:267 2:80 
-0.9598004170554327 1:264 2:78 
-1 1:262 2:76 
-1 1:260 2:74 
-1 1:401 2:339 
-1 1:382 2:297 
-1 1:368 2:259 
-1 1:353 2:225 
-1 1:340 2:196 
-1 1:329 2:172 
-1 1:317 2:151 
-1 1:310 2:136 
-1 1:304 2:123 
-1 1:297 2:114 
-1 1:292 2:106 
-0.9591770973822696 1:287 2:101 
-0.9596293642980552 1:282 2:95 
-1 1:276 2:91 
-1 1:275 2:89 
-1 1:271 2:86 
-1 1:268 2:83 
-1 1:266 2:81 
-0.9589041885287686 1:264 2:79 
-1 1:261 2:78 
-1 1:260 2:77 
-1 1:401 2:360 
-1 1:382 2:315 
-1 1:367 2:273 
-1 1:354 2:239 
-1 1:342 2:211 
-1 1:331 2:187 
-1 1:323 2:169 
-1 1:317 2:157 
-0.9591762996717459 1:311 2:143 
-1 1:305 2:134 
-1 1:299 2:125 
-1 1:296 2:119 
-1 1:293 2:115 
-1 1:290 2:111 
-1 1:285 2:107 
-1 1:282 2:104 
-1 1:281 2:101 
-1 1:277 2:98 
-1 1:276 2:97 
-1 1:273 2:95 
-1 1:271 2:93 
