svm_type c_svc
kernel_type rbf
gamma 0.125
nr_class 2
total_sv 90
rho -0.031964
label 1 -1
nr_sv 45 45
SV
0.9679426309360071 1:409 2:576 
0.9682297985422033 1:595 2:745 
0.9681445644229222 1:682 2:785 
0.9782439808407809 1:760 2:808 
0.9681477497651561 1:815 2:821 
0.9679669895690108 1:376 2:559 
0.9678738244708902 1:613 2:778 
0.9680172656964489 1:740 2:825 
0.9874262901524801 1:819 2:843 
1 1:869 2:857 
0.9681445580874471 1:436 2:612 
0.968147749765211 1:568 2:744 
0.9676588116203392 1:651 2:784 
1 1:740 2:813 
0.967021043914625 1:803 2:831 
0.9682326852221305 1:888 2:835 
0.9680123687560322 1:906 2:854 
0.846120415998767 1:919 2:867 
0.311835378759408 1:922 2:868 
0.7735078089340659 1:923 2:870 
0.96839687275098 1:380 2:464 
0.9682297985422033 1:494 2:686 
0.968342252746162 1:605 2:767 
0.9676588087149639 1:688 2:796 
0.8698082277101687 1:758 2:812 
0.9681340274191377 1:585 2:719 
0.966899631836029 1:805 2:838 
0.760074131207032 1:877 2:864 
0.9956318030982266 1:909 2:877 
1 1:920 2:878 
0.9680122237098622 1:463 2:568 
0.9679426309360041 1:679 2:769 
0.9680456850921459 1:798 2:824 
0.9584846263573008 1:869 2:851 
0.9680410507075971 1:904 2:867 
0.9681200096966269 1:439 2:389 
0.9679320078709667 1:592 2:712 
1 1:760 2:817 
1 1:834 2:846 
0.886786559173348 1:874 2:861 
0.968004437584607 1:448 2:463 
1 1:722 2:804 
1 1:828 2:848 
0.8740720859287885 1:877 2:868 
1 1:903 2:877 
-1 1:309 2:43 
-1 1:509 2:637 
-1 1:756 2:806 
-1 1:865 2:857 
-1 1:904 2:876 
-1 1:341 2:167 
-1 1:745 2:669 
-1 1:892 2:828 
-1 1:917 2:860 
-1 1:924 2:876 
-1 1:370 2:291 
-1 1:659 2:742 
-1 1:767 2:823 
-1 1:825 2:855 
-0.8931444250942645 1:858 2:866 
-1 1:345 2:233 
-1 1:561 2:710 
-0.9162997677617556 1:725 2:810 
-0.951513769611379 1:815 2:847 
-0.6742236593043885 1:861 2:861 
-1 1:372 2:272 
-1 1:448 2:535 
-1 1:617 2:741 
-0.9053735720019908 1:744 2:816 
-0.6408912780331821 1:833 2:852 
-1 1:382 2:310 
-1 1:573 2:714 
-1 1:724 2:806 
-0.9333358975897671 1:812 2:844 
-0.317275382714398 1:861 2:863 
-1 1:364 2:263 
-1 1:568 2:697 
-0.8651303052275771 1:746 2:813 
-1 1:829 2:850 
-1 1:871 2:867 
-1 1:408 2:426 
-1 1:670 2:783 
-1 1:794 2:838 
-0.3352238671177369 1:859 2:863 
-0.988410012228452 1:891 2:875 
-1 1:580 2:692 
-1 1:763 2:817 
-1 1:833 2:849 
-1 1:867 2:861 
-0.9884688498511844 1:888 2:871 
