svm_type c_svc
kernel_type rbf
gamma 1
nr_class 2
total_sv 90
rho -0.00128566
label 1 -1
nr_sv 45 45
SV
0.9989045756464239 1:409 2:576 
0.998887886243996 1:595 2:745 
0.9988713437857178 1:682 2:785 
0.9988713012057959 1:760 2:808 
0.9985874405694153 1:815 2:821 
0.9985618459512922 1:376 2:559 
0.9985555594841479 1:613 2:778 
0.9982502179018452 1:740 2:825 
0.9986038322335499 1:819 2:843 
0.998920887507071 1:869 2:857 
0.9982042825056301 1:436 2:612 
0.9981839135008992 1:568 2:744 
0.9981839135008992 1:651 2:784 
0.9988713861505554 1:740 2:813 
0.9989831717710823 1:803 2:831 
0.9990312611999242 1:888 2:835 
0.998146876032501 1:906 2:854 
0.9988263759430992 1:919 2:867 
0.9921755517015968 1:922 2:868 
0.9918817431408026 1:923 2:870 
0.9990009482081786 1:380 2:464 
0.9989045756464239 1:494 2:686 
0.998887886243996 1:605 2:767 
0.9988713437857178 1:688 2:796 
0.9990312591408426 1:758 2:812 
0.9988713012031779 1:585 2:719 
0.9985874405694153 1:805 2:838 
0.9989830441417018 1:877 2:864 
0.9988713012082867 1:909 2:877 
0.9988878910820645 1:920 2:878 
0.9985555594841479 1:463 2:568 
0.9982042825056301 1:679 2:769 
0.9981839135008992 1:798 2:824 
0.9990615229511486 1:869 2:851 
0.9981859342650733 1:904 2:867 
0.9990615229511488 1:439 2:389 
0.9988878890209109 1:592 2:712 
0.9991243580096695 1:760 2:817 
0.9990847879955207 1:834 2:846 
0.9981838982734756 1:874 2:861 
0.9988713012056687 1:448 2:463 
0.999239607588213 1:722 2:804 
1 1:828 2:848 
0.9990392755482592 1:877 2:868 
1 1:903 2:877 
-1 1:309 2:43 
-1 1:509 2:637 
-1 1:756 2:806 
-1 1:865 2:857 
-1 1:904 2:876 
-1 1:341 2:167 
-1 1:745 2:669 
-1 1:892 2:828 
-1 1:917 2:860 
-1 1:924 2:876 
-1 1:370 2:291 
-1 1:659 2:742 
-1 1:767 2:823 
-1 1:825 2:855 
-1 1:858 2:866 
-1 1:345 2:233 
-1 1:561 2:710 
-1 1:725 2:810 
-1 1:815 2:847 
-0.9830621506566456 1:861 2:861 
-1 1:372 2:272 
-1 1:448 2:535 
-1 1:617 2:741 
-1 1:744 2:816 
-1 1:833 2:852 
-1 1:382 2:310 
-1 1:573 2:714 
-1 1:724 2:806 
-1 1:812 2:844 
-0.9656886384163994 1:861 2:863 
-1 1:364 2:263 
-1 1:568 2:697 
-1 1:746 2:813 
-1 1:829 2:850 
-1 1:871 2:867 
-1 1:408 2:426 
-1 1:670 2:783 
-1 1:794 2:838 
-0.983333421432771 1:859 2:863 
-1 1:891 2:875 
-1 1:580 2:692 
-1 1:763 2:817 
-1 1:833 2:849 
-1 1:867 2:861 
-1 1:888 2:871 
