svm_type c_svc
kernel_type rbf
gamma 0.125
nr_class 2
total_sv 131
rho -0.348637
label 1 -1
nr_sv 84 47
SV
0.6509497167647174 1:22 2:147 
0.5475888898644607 1:229 2:147 
0.2085475117470295 1:232 2:149 
0.2075031215787127 1:232 2:148 
0.1999307423842817 1:234 2:150 
0.2775960407047903 1:236 2:150 
0.1365295477862159 1:236 2:151 
0.289178455070717 1:239 2:152 
0.0728071874967669 1:238 2:152 
0.3356408771704957 1:240 2:154 
0.1463309013939044 1:242 2:155 
0.5436038967192155 1:244 2:156 
0.6292067664363679 1:273 2:315 
0.4988315836550727 1:276 2:319 
0.3888949798790429 1:279 2:320 
0.2728721844448136 1:279 2:323 
0.2459074614618064 1:280 2:324 
0.3538502552150755 1:282 2:326 
0.2993045257807522 1:284 2:327 
0.3312937020819895 1:286 2:329 
0.1260248136834781 1:286 2:330 
0.211785120555887 1:287 2:332 
0.5100365257183063 1:289 2:333 
0.6510814905306616 1:345 2:419 
0.5953764721615671 1:348 2:426 
0.5209967537049548 1:351 2:429 
0.5681409413252165 1:352 2:433 
0.4682572530227128 1:355 2:437 
0.4276854472979967 1:357 2:439 
0.4508501100693577 1:360 2:442 
0.1629581211302824 1:362 2:444 
0.4641271791037859 1:363 2:446 
0.5208779226990785 1:366 2:449 
0.5936715693863301 1:317 2:340 
0.5462761742819283 1:320 2:343 
0.2444780673415629 1:323 2:346 
0.3711448290359426 1:324 2:346 
0.4860962915791234 1:326 2:350 
0.1063280708015068 1:327 2:352 
0.129348680534454 1:328 2:352 
0.453663814814444 1:329 2:354 
0.3009528530792195 1:332 2:356 
0.4820823261321626 1:333 2:358 
0.3364644657815475 1:363 2:440 
0.209285496442851 1:365 2:440 
0.2856379035539965 1:367 2:443 
0.200949715369065 1:366 2:441 
0.4558416558290821 1:369 2:445 
0.4212717281211973 1:370 2:449 
0.3348097480839677 1:373 2:450 
0.5222414824650914 1:375 2:452 
0.404703072970517 1:385 2:460 
0.2630615239052392 1:386 2:459 
0.2718087775222601 1:389 2:461 
0.2325558790687492 1:390 2:461 
0.3665275195871939 1:392 2:463 
0.3611024365103682 1:394 2:465 
0.104418467756072 1:395 2:466 
0.5112184514016237 1:397 2:468 
0.07119293785393963 1:397 2:467 
0.4973180200750229 1:300 2:71 
0.05452849403287711 1:301 2:73 
0.401104737592418 1:299 2:74 
0.3827064964983086 1:302 2:76 
0.05937456941907485 1:303 2:78 
0.3340023184413176 1:304 2:78 
0.1054092994625728 1:305 2:80 
0.5417416702996583 1:305 2:82 
0.615318567781888 1:428 2:368 
0.4190066442447092 1:430 2:372 
0.2524374504617402 1:432 2:373 
0.212031908619474 1:432 2:375 
0.346777132289558 1:433 2:377 
0.3976013863808427 1:435 2:379 
0.08060975148250951 1:435 2:381 
0.5589502451094374 1:436 2:383 
0.6514712219991123 1:420 2:43 
0.2895029570384589 1:427 2:382 
0.2068186491525728 1:429 2:384 
0.3261785315341476 1:426 2:383 
0.3813626327956101 1:429 2:386 
0.3992512708636217 1:431 2:389 
0.1590725682389357 1:432 2:390 
0.5728275343606264 1:433 2:393 
-0.3872099590952943 1:297 2:41 
-0.8899167706225978 1:296 2:42 
-0.3855617722876797 1:299 2:43 
-1.056696018669736 1:301 2:42 
-0.7169049713722029 1:273 2:45 
-0.5550858917374375 1:273 2:46 
-1.187991190150975 1:277 2:46 
-1.194751564952092 1:295 2:51 
-0.6898561828023761 1:292 2:53 
-0.655576815192183 1:290 2:53 
-0.9367785530096456 1:286 2:53 
-0.4044628417649253 1:287 2:54 
-0.5266344840277404 1:263 2:55 
-0.7120806736675312 1:263 2:56 
-0.4943888940885003 1:266 2:55 
-0.6193733993839219 1:268 2:55 
-0.1252994515468181 1:268 2:56 
-0.8907892297855602 1:271 2:57 
-0.3245617160880843 1:271 2:56 
-0.3026612730666506 1:244 2:47 
-0.7478647610416638 1:247 2:47 
-0.3201485023578996 1:245 2:48 
-0.2160393065940791 1:249 2:49 
-0.5847757835720225 1:250 2:48 
-0.6813746026619452 1:253 2:47 
-0.7721098487160466 1:255 2:48 
-1.140153014618453 1:245 2:52 
-0.9580781889536049 1:249 2:53 
-0.1738309980425827 1:251 2:51 
-0.1021872335897426 1:251 2:52 
-0.6148185501999865 1:253 2:52 
-0.009827580859116567 1:256 2:52 
-1.022705877127478 1:256 2:52 
-0.760829353291361 1:230 2:43 
-0.7219850433256805 1:233 2:44 
-0.1923130138705 1:235 2:44 
-0.8140105675721123 1:238 2:45 
-0.9088498218673304 1:242 2:46 
-0.3851257726560619 1:224 2:40 
-0.5484841791597217 1:226 2:41 
-1.008410808354774 1:240 2:42 
-0.7200436393861738 1:236 2:42 
-1.150910508019052 1:221 2:38 
-0.395629078390781 1:224 2:39 
-0.003410070229624029 1:228 2:40 
-0.668402808202895 1:228 2:40 
-0.9482039300508025 1:232 2:40 
