svm_type c_svc
kernel_type rbf
gamma 0.5
nr_class 2
total_sv 169
rho -0.25289
label 1 -1
nr_sv 91 78
SV
0.7471432040364114 1:22 2:147 
0.7433199771587771 1:229 2:147 
0.3989591791064848 1:232 2:149 
0.4885282299840067 1:232 2:148 
0.6165210055849261 1:234 2:150 
0.4050668231463685 1:236 2:150 
0.4119908137673648 1:236 2:151 
0.4259601884071885 1:239 2:152 
0.4355338237983196 1:238 2:152 
0.6520385707519178 1:240 2:154 
0.6364230990219051 1:242 2:155 
0.6948250286603591 1:244 2:156 
0.7469765655660173 1:273 2:315 
0.7421773373174348 1:276 2:319 
0.7362498956548034 1:279 2:320 
0.5419406816497272 1:279 2:323 
0.5350615866718684 1:280 2:324 
0.6812807594452326 1:282 2:326 
0.6816948174407128 1:284 2:327 
0.4916451838243611 1:286 2:329 
0.3940881834981119 1:286 2:330 
0.6543473192780688 1:287 2:332 
0.6934090577231263 1:289 2:333 
0.7476085886255014 1:345 2:419 
0.747019712503315 1:348 2:426 
0.7468568729887359 1:351 2:429 
0.7470574628720752 1:352 2:433 
0.7333663198709209 1:355 2:437 
0.7339904712231548 1:357 2:439 
0.6219718009396784 1:360 2:442 
0.3092048592751735 1:361 2:443 
0.5635853152040523 1:362 2:444 
0.7004770909517924 1:363 2:446 
0.7466550727273704 1:366 2:449 
0.7474471709620608 1:317 2:340 
0.7470802806366759 1:320 2:343 
0.464444521509374 1:323 2:346 
0.4658630657554109 1:324 2:346 
0.7049895142031219 1:326 2:350 
0.4212204939826888 1:327 2:352 
0.420583294741094 1:328 2:352 
0.7038434227178794 1:329 2:354 
0.6889271108303586 1:332 2:356 
0.6905390771948695 1:333 2:358 
0.6714082802569707 1:363 2:440 
0.4647813925546044 1:365 2:440 
0.4926136434745971 1:365 2:442 
0.664919983151113 1:367 2:443 
0.3358014940992293 1:366 2:441 
0.7347745372502128 1:369 2:445 
0.7421005294008721 1:370 2:449 
0.7284827929882893 1:373 2:450 
0.7342543891462059 1:375 2:452 
0.546704819129827 1:385 2:460 
0.5452681613621159 1:386 2:459 
0.4720327440338086 1:389 2:461 
0.449912814819605 1:390 2:461 
0.3735367127027032 1:393 2:464 
0.5933978469449447 1:392 2:463 
0.39419790615117 1:394 2:465 
0.5531575739559065 1:395 2:466 
0.4935205032919747 1:397 2:468 
0.4017651772836489 1:397 2:467 
0.6476092340549091 1:300 2:71 
0.07516376444580145 1:300 2:72 
0.6055868435974361 1:301 2:73 
0.6861130705116973 1:299 2:74 
0.6994897465753521 1:302 2:76 
0.4175421211951873 1:303 2:78 
0.430493232870206 1:304 2:78 
0.6145690556452331 1:305 2:80 
0.6638588528166522 1:305 2:82 
0.7467102237243091 1:428 2:368 
0.6965087268641708 1:430 2:372 
0.6075952735210692 1:432 2:373 
0.6073890063612648 1:432 2:375 
0.6848508110243126 1:433 2:377 
0.6600569284284366 1:435 2:379 
0.5405706734882831 1:435 2:381 
0.1868550372648602 1:436 2:382 
0.5893024498990849 1:436 2:383 
0.7470821943440319 1:420 2:43 
0.4973598883579523 1:427 2:382 
0.6389179844701688 1:429 2:384 
0.08351715984715832 1:427 2:383 
0.5089808048526884 1:426 2:383 
0.6595169602187427 1:429 2:386 
0.6315205684288451 1:431 2:389 
0.1956056132790829 1:432 2:390 
0.7032285187230739 1:433 2:393 
0.5188872719984227 1:432 2:391 
-0.7418196853555028 1:297 2:41 
-0.9225250423557037 1:296 2:42 
-0.8169610680860118 1:299 2:43 
-0.3615661052930704 1:298 2:42 
-0.04737333118088231 1:300 2:42 
-0.2875906637985057 1:299 2:42 
-1.114305474432128 1:301 2:42 
-0.7801446628413817 1:273 2:45 
-0.6513241594241483 1:273 2:46 
-0.9485565525852306 1:275 2:46 
-1.12421409127177 1:277 2:46 
-1.180988730341608 1:295 2:51 
-0.8608913808834328 1:293 2:52 
-0.781120768980659 1:292 2:53 
-1.134625563993783 1:290 2:53 
-0.9186354022652886 1:286 2:53 
-0.9076185794352065 1:287 2:54 
-0.6481245403880898 1:264 2:56 
-0.7679455673625661 1:263 2:55 
-0.3869889146796099 1:263 2:56 
-1.061026717707535 1:266 2:55 
-0.6395588373386876 1:268 2:55 
-0.4458787978094373 1:269 2:56 
-0.463350277798255 1:268 2:56 
-0.2357412891935227 1:270 2:56 
-0.7829907592128882 1:271 2:57 
-0.5653219653891404 1:271 2:56 
-0.7704784300356492 1:244 2:47 
-0.1485422916149989 1:245 2:47 
-1.137779460910653 1:247 2:47 
-0.7836629854263069 1:245 2:48 
-0.9022738543070643 1:249 2:49 
-0.827241048745968 1:250 2:48 
-0.8621466119356302 1:253 2:47 
-0.5163755349738093 1:252 2:48 
-0.76848066436993 1:253 2:49 
-1.108149485363702 1:255 2:48 
-1.120953363909966 1:245 2:52 
-0.9670242110376051 1:247 2:52 
-0.8267088388150828 1:249 2:53 
-0.4740938297243149 1:249 2:52 
-0.7529968274917143 1:251 2:51 
-0.5472166816500063 1:251 2:52 
-0.8070335365546589 1:253 2:52 
-0.6909665193121961 1:254 2:51 
-0.2649014761806824 1:255 2:52 
-1.02663967251313 1:256 2:52 
-0.9658620124347134 1:230 2:43 
-0.8034066232219234 1:233 2:44 
-0.8520615574578285 1:235 2:44 
-0.7648539970171337 1:238 2:45 
-0.8749572314506323 1:240 2:45 
-1.114623085645601 1:242 2:46 
-0.3870942376091637 1:225 2:40 
-0.4709037390899725 1:224 2:40 
-0.8469401050933404 1:226 2:41 
-0.5240170638393745 1:229 2:41 
-0.2869725154248633 1:231 2:42 
-0.06411433024701324 1:232 2:41 
-0.7315147918132382 1:233 2:42 
-0.4653742634447661 1:237 2:43 
-1.200846336922818 1:240 2:42 
-0.2115578526137422 1:234 2:43 
-0.3806313920391255 1:232 2:43 
-0.008139803773418408 1:232 2:42 
-0.9349132616966135 1:236 2:42 
-0.03453599652383883 1:235 2:43 
-0.4237221135567433 1:237 2:44 
-0.4519909118119257 1:239 2:44 
-0.9392772068549029 1:221 2:38 
-0.4370127388863173 1:222 2:38 
-0.5466292348330309 1:223 2:39 
-0.4326105434275773 1:224 2:39 
-0.05686845180398215 1:228 2:40 
-0.4174217717197017 1:227 2:40 
-0.6300627073334536 1:228 2:40 
-0.5297281115847196 1:230 2:41 
-1.075927926566441 1:232 2:40 
