svm_type c_svc
kernel_type rbf
gamma 0.125
nr_class 2
total_sv 152
rho -0.405558
label 1 -1
nr_sv 85 67
SV
0.5 1:22 2:147 
0.5 1:229 2:147 
0.1896460828139729 1:232 2:149 
0.1901510465175042 1:232 2:148 
0.1823435937935481 1:234 2:150 
0.2502189069367727 1:236 2:150 
0.1288148364870868 1:236 2:151 
0.26906503469386 1:239 2:152 
0.06098367350360008 1:238 2:152 
0.3049123650685108 1:240 2:154 
0.1344414645770231 1:242 2:155 
0.4955947100634385 1:244 2:156 
0.5 1:273 2:315 
0.4591107282273903 1:276 2:319 
0.3536479301528235 1:279 2:320 
0.2498356132546631 1:279 2:323 
0.2238473978337993 1:280 2:324 
0.3227054059731741 1:282 2:326 
0.2732547476376139 1:284 2:327 
0.3026256316680762 1:286 2:329 
0.1144911476799207 1:286 2:330 
0.1938983950067922 1:287 2:332 
0.4648602753534532 1:289 2:333 
0.5 1:345 2:419 
0.5 1:348 2:426 
0.4824651881164802 1:351 2:429 
0.5 1:352 2:433 
0.4281189839937096 1:355 2:437 
0.3899490598649273 1:357 2:439 
0.4118333736105432 1:360 2:442 
0.1484027796165246 1:362 2:444 
0.4239519508697855 1:363 2:446 
0.4751796966695088 1:366 2:449 
0.04419228927420296 1:317 2:340 
0.4976581676787877 1:317 2:340 
0.4991169519308325 1:320 2:343 
0.2200526857676478 1:323 2:346 
0.3418247375508648 1:324 2:346 
0.4431063230088278 1:326 2:350 
0.09904664865708561 1:327 2:352 
0.1160075399944073 1:328 2:352 
0.4142781657294373 1:329 2:354 
0.274172195135465 1:332 2:356 
0.4399310231409471 1:333 2:358 
0.305699497509867 1:363 2:440 
0.195425769127023 1:365 2:440 
0.2632239967823014 1:367 2:443 
0.1785302378176633 1:366 2:441 
0.415151572909418 1:369 2:445 
0.3855321213454025 1:370 2:449 
0.3045536599857798 1:373 2:450 
0.4773499224831783 1:375 2:452 
0.3695395134063945 1:385 2:460 
0.2399923391819218 1:386 2:459 
0.248990092116403 1:389 2:461 
0.211160685925505 1:390 2:461 
0.3337416526801885 1:392 2:463 
0.3320491174948781 1:394 2:465 
0.09314914473543735 1:395 2:466 
0.4667538684230755 1:397 2:468 
0.06547896142562537 1:397 2:467 
0.4538934203073315 1:300 2:71 
0.04856304538441174 1:301 2:73 
0.3670162716867001 1:299 2:74 
0.3495586200833631 1:302 2:76 
0.05469603331150511 1:303 2:78 
0.3037853285503653 1:304 2:78 
0.09693141953118864 1:305 2:80 
0.4932553761331008 1:305 2:82 
0.5 1:428 2:368 
0.3892899516686164 1:430 2:372 
0.2263113397020075 1:432 2:373 
0.1942683157623967 1:432 2:375 
0.3174768492090212 1:433 2:377 
0.3585733554604357 1:435 2:379 
0.08199510437201342 1:435 2:381 
0.5 1:436 2:383 
0.5 1:420 2:43 
0.264169234399015 1:427 2:382 
0.1881185554197647 1:429 2:384 
0.2980126977744073 1:426 2:383 
0.3494862572954269 1:429 2:386 
0.3575217581700738 1:431 2:389 
0.15670405909698 1:432 2:390 
0.5 1:433 2:393 
-0.5 1:297 2:41 
-0.5 1:296 2:42 
-0.07786164107204649 1:297 2:42 
-0.5 1:299 2:43 
-0.3387614468499083 1:300 2:42 
-0.5 1:301 2:42 
-0.5 1:273 2:45 
-0.5 1:273 2:46 
-0.1091324372586435 1:274 2:46 
-0.5 1:276 2:46 
-0.5 1:277 2:46 
-0.5 1:295 2:51 
-0.5 1:293 2:52 
-0.5 1:292 2:53 
-0.5 1:290 2:53 
-0.5 1:286 2:53 
-0.5 1:287 2:54 
-0.2674316547723811 1:263 2:55 
-0.5 1:263 2:55 
-0.5 1:263 2:56 
-0.5 1:266 2:55 
-0.5 1:268 2:55 
-0.3012630340699611 1:268 2:56 
-0.06227634189465617 1:270 2:56 
-0.5 1:271 2:57 
-0.5 1:271 2:56 
-0.5 1:244 2:47 
-0.01697521096521149 1:245 2:47 
-0.5 1:247 2:47 
-0.4589735422129751 1:245 2:48 
-0.2157725436516427 1:249 2:49 
-0.2126795208289398 1:250 2:48 
-0.4570442967990622 1:250 2:48 
-0.5 1:253 2:47 
-0.09717999688005972 1:252 2:48 
-0.1504158117455523 1:253 2:49 
-0.5 1:255 2:48 
-0.5 1:245 2:52 
-0.5 1:247 2:52 
-0.5 1:249 2:53 
-0.03245513072557027 1:249 2:52 
-0.5 1:251 2:52 
-0.5 1:253 2:52 
-0.02661226929088007 1:255 2:52 
-0.5 1:256 2:52 
-0.5 1:256 2:52 
-0.5 1:230 2:43 
-0.5 1:233 2:44 
-0.4835909269707681 1:235 2:44 
-0.5 1:238 2:45 
-0.5 1:240 2:45 
-0.5 1:242 2:46 
-0.5 1:224 2:40 
-0.5 1:226 2:41 
-0.3397567875193024 1:232 2:41 
-0.1416975502328913 1:237 2:43 
-0.5 1:240 2:42 
-0.1072414639936566 1:230 2:42 
-0.04156586386915003 1:232 2:43 
-0.5 1:236 2:42 
-0.05367142015854225 1:239 2:45 
-0.5 1:221 2:38 
-0.5 1:222 2:38 
-0.2745777785666378 1:224 2:39 
-0.3148505777323864 1:228 2:40 
-0.4678986464603712 1:228 2:40 
-0.5 1:232 2:40 
