svm_type c_svc
kernel_type rbf
gamma 0.5
nr_class 2
total_sv 189
rho -0.348974
label 1 -1
nr_sv 97 92
SV
0.5 1:22 2:147 
0.5 1:229 2:147 
0.351422642040957 1:232 2:149 
0.4253294337698177 1:232 2:148 
0.5 1:234 2:150 
0.357107551360473 1:236 2:150 
0.36003243091795 1:236 2:151 
0.3794345733206235 1:239 2:152 
0.3755937594614892 1:238 2:152 
0.5 1:240 2:154 
0.5 1:242 2:155 
0.5 1:244 2:156 
0.5 1:273 2:315 
0.5 1:276 2:319 
0.5 1:279 2:320 
0.4732736793176732 1:279 2:323 
0.4678479303041534 1:280 2:324 
0.5 1:282 2:326 
0.5 1:284 2:327 
0.4248070761896237 1:286 2:329 
0.35148893141891 1:286 2:330 
0.5 1:287 2:332 
0.5 1:289 2:333 
0.5 1:345 2:419 
0.5 1:348 2:426 
0.5 1:351 2:429 
0.5 1:352 2:433 
0.5 1:355 2:437 
0.5 1:357 2:439 
0.5 1:360 2:442 
0.2829181125402367 1:361 2:443 
0.4959382838532542 1:362 2:444 
0.5 1:363 2:446 
0.5 1:366 2:449 
0.1519133084818858 1:317 2:340 
0.4989059898652613 1:317 2:340 
0.5 1:320 2:343 
0.4045307695070335 1:323 2:346 
0.4060877449058375 1:324 2:346 
0.5 1:326 2:350 
0.3744300698415535 1:327 2:352 
0.3738751491195588 1:328 2:352 
0.5 1:329 2:354 
0.5 1:332 2:356 
0.5 1:333 2:358 
0.08514260366873208 1:363 2:440 
0.5 1:363 2:440 
0.4028154024505821 1:365 2:440 
0.4342135928724639 1:365 2:442 
0.5 1:367 2:443 
0.2980479557509044 1:366 2:441 
0.5 1:369 2:445 
0.5 1:370 2:449 
0.5 1:373 2:450 
0.1417283266740081 1:375 2:452 
0.5 1:375 2:452 
0.4763341591900525 1:385 2:460 
0.4750959390559472 1:386 2:459 
0.4121204279623163 1:389 2:461 
0.3919233132943734 1:390 2:461 
0.3326239316383267 1:393 2:464 
0.5 1:392 2:463 
0.3412384077523528 1:394 2:465 
0.4829135326289802 1:395 2:466 
0.4300610029672577 1:397 2:468 
0.3495232466674617 1:397 2:467 
0.5 1:300 2:71 
0.1224517993897129 1:300 2:72 
0.5 1:301 2:73 
0.5 1:299 2:74 
0.5 1:302 2:76 
0.3768587523816608 1:303 2:78 
0.3683836039679581 1:304 2:78 
0.06252036801395226 1:305 2:80 
0.483415137969835 1:305 2:80 
0.5 1:305 2:82 
0.5 1:428 2:368 
0.1095959220509932 1:430 2:372 
0.5 1:430 2:372 
0.5 1:432 2:373 
0.5 1:432 2:375 
0.5 1:433 2:377 
0.5 1:435 2:379 
0.4390220950145514 1:435 2:381 
0.06250685933534308 1:435 2:380 
0.1777441233777546 1:436 2:382 
0.5 1:436 2:383 
0.5 1:420 2:43 
0.4314095375341875 1:427 2:382 
0.5 1:429 2:384 
0.08071443540138119 1:427 2:383 
0.4399310318631126 1:426 2:383 
0.5 1:429 2:386 
0.5 1:431 2:389 
0.1874318659015638 1:432 2:390 
0.5 1:433 2:393 
0.4554989888477577 1:432 2:391 
-0.5 1:297 2:41 
-0.5 1:296 2:42 
-0.3800331012324659 1:297 2:42 
-0.003224253859161869 1:298 2:42 
-0.5 1:299 2:43 
-0.001726942002714042 1:300 2:42 
-0.1802703593783163 1:300 2:42 
-0.4745128915204397 1:298 2:42 
-0.5 1:300 2:42 
-0.176792537056612 1:299 2:42 
-0.5 1:301 2:42 
-0.5 1:273 2:45 
-0.5 1:273 2:46 
-0.4851578973884906 1:274 2:46 
-0.5 1:276 2:46 
-0.5 1:275 2:46 
-0.5 1:277 2:46 
-0.5 1:295 2:51 
-0.5 1:293 2:52 
-0.5 1:292 2:53 
-0.5 1:290 2:53 
-0.5 1:286 2:53 
-0.5 1:287 2:54 
-0.5 1:264 2:56 
-0.3563490111160192 1:263 2:55 
-0.5 1:263 2:55 
-0.5 1:263 2:56 
-0.5 1:266 2:55 
-0.5 1:268 2:55 
-0.4641119280113182 1:269 2:56 
-0.5 1:268 2:56 
-0.4710884258680059 1:270 2:56 
-0.5 1:271 2:57 
-0.5 1:271 2:56 
-0.5 1:244 2:47 
-0.5 1:245 2:47 
-0.5 1:247 2:47 
-0.5 1:245 2:48 
-0.5 1:249 2:49 
-0.5 1:250 2:48 
-0.5 1:250 2:48 
-0.5 1:253 2:47 
-0.5 1:252 2:48 
-0.5 1:253 2:49 
-0.5 1:255 2:48 
-0.5 1:245 2:52 
-0.5 1:247 2:52 
-0.5 1:249 2:53 
-0.5 1:249 2:52 
-0.5 1:251 2:51 
-0.5 1:251 2:52 
-0.5 1:253 2:52 
-0.5 1:254 2:51 
-0.4897326201884289 1:255 2:52 
-0.5 1:256 2:52 
-0.5 1:256 2:52 
-0.5 1:230 2:43 
-0.1867959831500594 1:232 2:43 
-0.5 1:233 2:44 
-0.5 1:235 2:44 
-0.1139678104810643 1:237 2:44 
-0.5 1:238 2:45 
-0.5 1:240 2:45 
-0.5 1:242 2:46 
-0.5 1:225 2:40 
-0.5 1:224 2:40 
-0.5 1:226 2:41 
-0.07635793509486227 1:229 2:41 
-0.5 1:229 2:41 
-0.2156259679789844 1:231 2:42 
-0.5 1:232 2:41 
-0.5 1:233 2:42 
-0.5 1:237 2:43 
-0.5 1:240 2:42 
-0.3930464108091163 1:234 2:43 
-0.275301023455393 1:230 2:42 
-0.4803566903817477 1:232 2:43 
-0.5 1:236 2:42 
-0.4145631430968785 1:235 2:43 
-0.5 1:237 2:44 
-0.5 1:239 2:44 
-0.372664341211344 1:239 2:45 
-0.5 1:221 2:38 
-0.5 1:222 2:38 
-0.5 1:223 2:39 
-0.5 1:224 2:39 
-0.2847855184197278 1:228 2:40 
-0.1396097183640417 1:227 2:40 
-0.5 1:227 2:40 
-0.370129289774623 1:228 2:40 
-0.5 1:230 2:41 
-0.5 1:232 2:40 
