svm_type c_svc
kernel_type rbf
gamma 0.25
nr_class 2
total_sv 152
rho -0.318506
label 1 -1
nr_sv 88 64
SV
0.6816337632715346 1:22 2:147 
0.6403697508714401 1:229 2:147 
0.2394710481206171 1:232 2:149 
0.3883675059371979 1:232 2:148 
0.3785905288834609 1:234 2:150 
0.3159128939446273 1:236 2:150 
0.2202048807505067 1:236 2:151 
0.3073415208095143 1:239 2:152 
0.273329031259969 1:238 2:152 
0.4409454618151966 1:240 2:154 
0.3886267102052583 1:242 2:155 
0.5674660479240037 1:244 2:156 
0.6806589575162914 1:273 2:315 
0.6315171151483865 1:276 2:319 
0.5833123720643617 1:279 2:320 
0.3893889909301899 1:279 2:323 
0.369769606309719 1:280 2:324 
0.4898197398311085 1:282 2:326 
0.4760506283889873 1:284 2:327 
0.4162999416704228 1:286 2:329 
0.2100961866230648 1:286 2:330 
0.4276726904577183 1:287 2:332 
0.5560563688747956 1:289 2:333 
0.6814997912136848 1:345 2:419 
0.6741709752269746 1:348 2:426 
0.664499787182392 1:351 2:429 
0.6704988245495205 1:352 2:433 
0.599678740162263 1:355 2:437 
0.5938944811702841 1:357 2:439 
0.5687633634914713 1:360 2:442 
0.05113465769448787 1:361 2:443 
0.3963325586077404 1:362 2:444 
0.5550808839032431 1:363 2:446 
0.6628006916328462 1:366 2:449 
0.673833140604098 1:317 2:340 
0.6691957425161892 1:320 2:343 
0.371589103547431 1:323 2:346 
0.3868831940793803 1:324 2:346 
0.57328944320056 1:326 2:350 
0.2425838138222299 1:327 2:352 
0.2563486188447395 1:328 2:352 
0.5547312146020433 1:329 2:354 
0.5063727450174074 1:332 2:356 
0.5363126417298574 1:333 2:358 
0.5029380806026421 1:363 2:440 
0.2684376150875252 1:365 2:440 
0.2401368931953062 1:365 2:442 
0.4604189427102386 1:367 2:443 
0.1981658584159947 1:366 2:441 
0.6086730465412791 1:369 2:445 
0.6151424160369631 1:370 2:449 
0.5487046596388795 1:373 2:450 
0.6071743407301935 1:375 2:452 
0.4310904508572155 1:385 2:460 
0.4022516188295321 1:386 2:459 
0.4200351314092728 1:389 2:461 
0.2825758952577357 1:390 2:461 
0.1534616161869345 1:393 2:464 
0.4907458643886419 1:392 2:463 
0.2924887569895205 1:394 2:465 
0.3570605106368823 1:395 2:466 
0.4763480673802769 1:397 2:468 
0.1966734971253516 1:397 2:467 
0.542462548993227 1:300 2:71 
0.3332519701366953 1:301 2:73 
0.5210104425647546 1:299 2:74 
0.5246779998002074 1:302 2:76 
0.225981540186397 1:303 2:78 
0.3246587636016124 1:304 2:78 
0.356348000305837 1:305 2:80 
0.5445957539567872 1:305 2:82 
0.6777933910460306 1:428 2:368 
0.5543163420322913 1:430 2:372 
0.3768199867199417 1:432 2:373 
0.3774495665238703 1:432 2:375 
0.5001676137300995 1:433 2:377 
0.481961597870205 1:435 2:379 
0.3349144865241425 1:435 2:381 
0.578647103941715 1:436 2:383 
0.6817666271982827 1:420 2:43 
0.3678916667238334 1:427 2:382 
0.4124529847957498 1:429 2:384 
0.418897459311986 1:426 2:383 
0.5020559838945007 1:429 2:386 
0.5222800275126382 1:431 2:389 
0.0809932855791913 1:432 2:390 
0.5851073139384897 1:433 2:393 
0.3013067145408529 1:432 2:391 
-0.6818302559155256 1:297 2:41 
-0.8317788309242138 1:296 2:42 
-0.871423543662748 1:299 2:43 
-1 1:301 2:42 
-0.7412464917600365 1:273 2:45 
-0.5220713130159282 1:273 2:46 
-0.5459871243140414 1:275 2:46 
-1 1:277 2:46 
-1 1:295 2:51 
-0.6280295440978555 1:293 2:52 
-0.5309438943276658 1:292 2:53 
-0.9968537978738808 1:290 2:53 
-0.8707069387631295 1:286 2:53 
-0.7081137034482661 1:287 2:54 
-0.2449367021792563 1:264 2:56 
-0.6543822465533703 1:263 2:55 
-0.5494564022956653 1:263 2:56 
-0.8166822023564604 1:266 2:55 
-0.4890519922694677 1:268 2:55 
-0.202912733510013 1:269 2:56 
-0.4170103596540876 1:268 2:56 
-0.7728309135696244 1:271 2:57 
-0.5567271432382177 1:271 2:56 
-0.5528241865195682 1:244 2:47 
-0.9314770212332502 1:247 2:47 
-0.646290731567583 1:245 2:48 
-0.6500570919120887 1:249 2:49 
-0.6251041509581584 1:250 2:48 
-0.7233774359584526 1:253 2:47 
-0.2278412183572538 1:252 2:48 
-0.3303238478516142 1:253 2:49 
-0.9447710507730004 1:255 2:48 
-1 1:245 2:52 
-0.6355134421664314 1:247 2:52 
-0.9408661994316674 1:249 2:53 
-0.4889818880423146 1:251 2:51 
-0.3216098535459808 1:251 2:52 
-0.699048588947241 1:253 2:52 
-0.2957676541402851 1:254 2:51 
-0.2090578274662583 1:256 2:52 
-0.9322945937072449 1:256 2:52 
-1 1:230 2:43 
-0.8116907288142502 1:233 2:44 
-0.5382834334637986 1:235 2:44 
-0.08926035573101324 1:237 2:44 
-0.8453335458324668 1:238 2:45 
-0.6103224331972674 1:240 2:45 
-0.9401406003148567 1:242 2:46 
-0.4595980375806286 1:224 2:40 
-0.8315619644877238 1:226 2:41 
-0.08067487763980043 1:229 2:41 
-0.07333925037695548 1:229 2:41 
-0.4587769710038628 1:233 2:42 
-0.1722051064015098 1:237 2:43 
-1 1:240 2:42 
-0.8889531459642641 1:236 2:42 
-0.02223561877672746 1:237 2:44 
-1 1:221 2:38 
-0.2394534232167323 1:222 2:38 
-0.1043111784418375 1:223 2:39 
-0.6043042479527144 1:224 2:39 
-0.8434890239070278 1:228 2:40 
-0.2406117284456563 1:230 2:41 
-1 1:232 2:40 
