svm_type c_svc
kernel_type rbf
gamma 2
nr_class 2
total_sv 180
rho -0.11123
label 1 -1
nr_sv 92 88
SV
0.8886735354823582 1:22 2:147 
0.8888890366820426 1:229 2:147 
0.7822895683186138 1:232 2:149 
0.7830313089203719 1:232 2:148 
0.8885924635869927 1:234 2:150 
0.7824771259164947 1:236 2:150 
0.7823003691207107 1:236 2:151 
0.7827070935642491 1:239 2:152 
0.7831832961972687 1:238 2:152 
0.8885866952165736 1:240 2:154 
0.8881861390833019 1:242 2:155 
0.8890160834506191 1:244 2:156 
0.8886695027865561 1:273 2:315 
0.8888787419888449 1:276 2:319 
0.8889403662733014 1:279 2:320 
0.8729130081899983 1:279 2:323 
0.8726784879740433 1:280 2:324 
0.8888500243034748 1:282 2:326 
0.8888934180165012 1:284 2:327 
0.7824567559085129 1:286 2:329 
0.7827322201310261 1:286 2:330 
0.8881596965088187 1:287 2:332 
0.8888361110113853 1:289 2:333 
0.8886603149762501 1:345 2:419 
0.888901530040048 1:348 2:426 
0.8888746900373299 1:351 2:429 
0.8888764334002944 1:352 2:433 
0.8890401448187408 1:355 2:437 
0.888432462850764 1:357 2:439 
0.8731549164590445 1:360 2:442 
0.8569321855722349 1:361 2:443 
0.8731724142081971 1:362 2:444 
0.8886477297594968 1:363 2:446 
0.888902789688664 1:366 2:449 
0.8887550376688573 1:317 2:340 
0.8882449576817534 1:320 2:343 
0.7829383727244418 1:323 2:346 
0.7826760270728174 1:324 2:346 
0.888905006509808 1:326 2:350 
0.7830279562568803 1:327 2:352 
0.7828385127710166 1:328 2:352 
0.8888538222467023 1:329 2:354 
0.8890014347593292 1:332 2:356 
0.8882147036623809 1:333 2:358 
0.8887175541343999 1:363 2:440 
0.8728157261830813 1:365 2:440 
0.8726283193353364 1:365 2:442 
0.8888396990628374 1:367 2:443 
0.857122430303864 1:366 2:441 
0.8888889382742539 1:369 2:445 
0.8882026458323583 1:370 2:449 
0.8889405395183279 1:373 2:450 
0.8890583784301302 1:375 2:452 
0.8730685834084265 1:385 2:460 
0.8726838836274857 1:386 2:459 
0.7830219707299716 1:389 2:461 
0.7829695409491114 1:390 2:461 
0.8572157420910987 1:393 2:464 
0.8731613354890063 1:392 2:463 
0.8571766412812994 1:394 2:465 
0.8730517167582573 1:395 2:466 
0.7830563860722249 1:397 2:468 
0.7830071001373159 1:397 2:467 
0.7851091037735665 1:300 2:71 
0.7667849152896697 1:300 2:72 
0.8749076929896422 1:301 2:73 
0.8882611768249759 1:299 2:74 
0.8888976121905141 1:302 2:76 
0.7826564149557912 1:303 2:78 
0.7830377323887178 1:304 2:78 
0.888694688415988 1:305 2:80 
0.8883529472143999 1:305 2:82 
0.8888746900373317 1:428 2:368 
0.8888683341813388 1:430 2:372 
0.8880371446042684 1:432 2:373 
0.8887698982014555 1:432 2:375 
0.8883753367731693 1:433 2:377 
0.7970724455480565 1:435 2:379 
0.7825504677137625 1:435 2:381 
0.6746733234858039 1:435 2:380 
0.7681874038030222 1:436 2:382 
0.7849488489119915 1:436 2:383 
0.8889157607964996 1:420 2:43 
0.7826367182749662 1:427 2:382 
0.8886825491847345 1:429 2:384 
0.6767517480450316 1:427 2:383 
0.7827981020885012 1:426 2:383 
0.8886277817673994 1:429 2:386 
0.8742634450756223 1:431 2:389 
0.7663839847471008 1:432 2:390 
0.8888294718469166 1:433 2:393 
0.7848650197913312 1:432 2:391 
-0.9787267702415668 1:297 2:41 
-0.9947838782114722 1:296 2:42 
-0.7249959940162921 1:297 2:42 
-0.9783845573817873 1:299 2:43 
-0.8758684903086635 1:298 2:42 
-0.8578640573521007 1:300 2:42 
-0.7437540700048347 1:299 2:42 
-0.994744564435589 1:301 2:42 
-0.9784879254728045 1:273 2:45 
-0.8628148150379146 1:273 2:46 
-0.8574787132849866 1:274 2:46 
-0.8575255790717905 1:276 2:46 
-0.8784023520148577 1:275 2:46 
-0.9948138781534557 1:277 2:46 
-1 1:295 2:51 
-1 1:293 2:52 
-1 1:292 2:53 
-1 1:290 2:53 
-1 1:286 2:53 
-1 1:287 2:54 
-0.9786771191274879 1:264 2:56 
-0.9792812220996119 1:263 2:55 
-0.846007248453702 1:263 2:56 
-1 1:266 2:55 
-0.9781736548267906 1:268 2:55 
-0.8599814257924282 1:269 2:56 
-0.8620991824660095 1:268 2:56 
-0.8600357834498487 1:270 2:56 
-0.9785009872864683 1:271 2:57 
-0.8622645054320141 1:271 2:56 
-0.9789129287731904 1:244 2:47 
-0.845666623292792 1:245 2:47 
-1 1:247 2:47 
-0.9789129442821015 1:245 2:48 
-1 1:249 2:49 
-0.09306912953462917 1:250 2:48 
-1 1:250 2:48 
-1 1:253 2:47 
-1 1:252 2:48 
-1 1:253 2:49 
-1 1:255 2:48 
-1 1:245 2:52 
-1 1:247 2:52 
-0.9789130916316773 1:249 2:53 
-0.9781980621404524 1:249 2:52 
-0.9784223856532491 1:251 2:51 
-0.978659632252258 1:251 2:52 
-1 1:253 2:52 
-1 1:254 2:51 
-0.9595347728733995 1:255 2:52 
-0.9817609060607897 1:256 2:52 
-0.9968390964842523 1:230 2:43 
-0.9968963986501505 1:233 2:44 
-0.9809923251973033 1:235 2:44 
-0.0009447970727079827 1:237 2:44 
-0.8828588974024862 1:238 2:45 
-0.01435488489388349 1:239 2:45 
-0.9965745339462868 1:240 2:45 
-1 1:242 2:46 
-0.9620005280424945 1:225 2:40 
-0.8486662354486898 1:224 2:40 
-1 1:226 2:41 
-0.962709806376321 1:229 2:41 
-0.8619878410255459 1:231 2:42 
-0.8594712675674563 1:232 2:41 
-0.8967177191032022 1:233 2:42 
-0.9620191129124397 1:237 2:43 
-1 1:240 2:42 
-0.8619005492950167 1:234 2:43 
-0.7242125924281533 1:230 2:42 
-0.8935438291019819 1:232 2:43 
-0.605479450477474 1:233 2:43 
-1 1:236 2:42 
-0.8427044150700557 1:235 2:43 
-0.8651345837491309 1:237 2:44 
-0.7244386378431213 1:238 2:44 
-0.8804880880540982 1:239 2:44 
-0.7097255669936497 1:239 2:45 
-0.9810709219792949 1:221 2:38 
-0.9606265687433854 1:222 2:38 
-0.9632702400755995 1:223 2:39 
-0.8482974561187989 1:224 2:39 
-0.004703866337875388 1:228 2:40 
-0.9618642298189156 1:227 2:40 
-0.9591481674816852 1:228 2:40 
-0.8667623483904487 1:230 2:41 
-0.6238986637223238 1:232 2:42 
-0.9944135121162225 1:232 2:40 
