svm_type c_svc
kernel_type rbf
gamma 4
nr_class 2
total_sv 189
rho -0.074962
label 1 -1
nr_sv 92 97
SV
0.9246036441839746 1:22 2:147 
0.9251047787477273 1:229 2:147 
0.9084345855156269 1:232 2:149 
0.908448513410534 1:232 2:148 
0.9250525764148778 1:234 2:150 
0.9084266004178718 1:236 2:150 
0.9085979753090647 1:236 2:151 
0.9085143170664686 1:239 2:152 
0.9084550723824113 1:238 2:152 
0.925189226395449 1:240 2:154 
0.9250885274192534 1:242 2:155 
0.9251853241775303 1:244 2:156 
0.9249941087850452 1:273 2:315 
0.9245958915986858 1:276 2:319 
0.9249303452756488 1:279 2:320 
0.9247090994188021 1:279 2:323 
0.9247451840903522 1:280 2:324 
0.9250553875258091 1:282 2:326 
0.9251047768410345 1:284 2:327 
0.9083818977284812 1:286 2:329 
0.9084544246068659 1:286 2:330 
0.9251190593479937 1:287 2:332 
0.9246591077502762 1:289 2:333 
0.9250682573458658 1:345 2:419 
0.9251799044991919 1:348 2:426 
0.925057200690199 1:351 2:429 
0.9250870736490443 1:352 2:433 
0.9246606944220743 1:355 2:437 
0.9251190631263108 1:357 2:439 
0.9247715873789648 1:360 2:442 
0.9245580727867279 1:361 2:443 
0.9247925711943902 1:362 2:444 
0.9252139251970424 1:363 2:446 
0.9246213724605428 1:366 2:449 
0.9251713110513414 1:317 2:340 
0.9251799044991919 1:320 2:343 
0.9084490147160086 1:323 2:346 
0.9084027325803281 1:324 2:346 
0.9249303434055414 1:326 2:350 
0.9084639402510778 1:327 2:352 
0.9084347993023195 1:328 2:352 
0.925189228302205 1:329 2:354 
0.9251735880540909 1:332 2:356 
0.9246535035440069 1:333 2:358 
0.9251317969996959 1:363 2:440 
0.9243444547903932 1:365 2:440 
0.9247942248400836 1:365 2:442 
0.9251190593100821 1:367 2:443 
0.9244274964877375 1:366 2:441 
0.9248892963107161 1:369 2:445 
0.9251785324330023 1:370 2:449 
0.92457663398856 1:373 2:450 
0.9251002150040259 1:375 2:452 
0.924776609145028 1:385 2:460 
0.9252369122714874 1:386 2:459 
0.9084847542771668 1:389 2:461 
0.9082024674570791 1:390 2:461 
0.9242688474823612 1:393 2:464 
0.924805917405135 1:392 2:463 
0.9245652026251139 1:394 2:465 
0.9242931513987173 1:395 2:466 
0.9085611804828355 1:397 2:468 
0.9085304302399703 1:397 2:467 
0.9084248689443141 1:300 2:71 
0.9081852057899981 1:300 2:72 
0.9247660344150765 1:301 2:73 
0.9250578238570588 1:299 2:74 
0.9251732594745132 1:302 2:76 
0.9085886677710275 1:303 2:78 
0.9079777497714583 1:304 2:78 
0.9246263569600438 1:305 2:80 
0.9246034471799512 1:305 2:82 
0.9250950948280229 1:428 2:368 
0.9251864226621747 1:430 2:372 
0.9250884252743201 1:432 2:373 
0.9246035383300157 1:432 2:375 
0.925077296816011 1:433 2:377 
0.9088589550491023 1:435 2:379 
0.9084423815658862 1:435 2:381 
0.8915972105211993 1:435 2:380 
0.9081192123691123 1:436 2:382 
0.9085477658964446 1:436 2:383 
0.9250526822528357 1:420 2:43 
0.9080134483211061 1:427 2:382 
0.9250570946457968 1:429 2:384 
0.8917369013081654 1:427 2:383 
0.9085362539091274 1:426 2:383 
0.9252138230017193 1:429 2:386 
0.9247151435363504 1:431 2:389 
0.9080671335325721 1:432 2:390 
0.9251620909220752 1:433 2:393 
0.908449686657436 1:432 2:391 
-1 1:297 2:41 
-1 1:296 2:42 
-1 1:297 2:42 
-0.03758159166960236 1:298 2:42 
-1 1:299 2:43 
-0.03785259023487129 1:300 2:42 
-1 1:298 2:42 
-1 1:300 2:42 
-1 1:299 2:42 
-1 1:301 2:42 
-1 1:273 2:45 
-1 1:273 2:46 
-1 1:274 2:46 
-1 1:276 2:46 
-1 1:275 2:46 
-1 1:277 2:46 
-1 1:295 2:51 
-1 1:293 2:52 
-1 1:292 2:53 
-1 1:290 2:53 
-1 1:286 2:53 
-1 1:287 2:54 
-1 1:264 2:56 
-0.05675300643026883 1:263 2:55 
-1 1:263 2:55 
-1 1:263 2:56 
-1 1:266 2:55 
-1 1:268 2:55 
-1 1:269 2:56 
-1 1:268 2:56 
-1 1:270 2:56 
-1 1:271 2:57 
-1 1:271 2:56 
-1 1:244 2:47 
-1 1:245 2:47 
-1 1:247 2:47 
-1 1:245 2:48 
-1 1:249 2:49 
-0.1167452445024196 1:250 2:48 
-0.9578484799516307 1:250 2:48 
-1 1:253 2:47 
-1 1:252 2:48 
-1 1:253 2:49 
-1 1:255 2:48 
-1 1:245 2:52 
-1 1:247 2:52 
-1 1:249 2:53 
-1 1:249 2:52 
-1 1:251 2:51 
-1 1:251 2:52 
-1 1:253 2:52 
-1 1:254 2:51 
-1 1:255 2:52 
-0.05702524893808165 1:256 2:52 
-1 1:256 2:52 
-1 1:230 2:43 
-0.04649119234461129 1:232 2:43 
-1 1:233 2:44 
-1 1:235 2:44 
-0.03784660480103862 1:237 2:44 
-1 1:238 2:45 
-0.02011511320220905 1:239 2:45 
-1 1:240 2:45 
-1 1:242 2:46 
-1 1:225 2:40 
-1 1:224 2:40 
-1 1:226 2:41 
-0.05643587417262931 1:229 2:41 
-0.9994546298813656 1:229 2:41 
-1 1:231 2:42 
-1 1:232 2:41 
-1 1:233 2:42 
-0.03785976600451296 1:235 2:43 
-1 1:237 2:43 
-1 1:240 2:42 
-1 1:234 2:43 
-1 1:230 2:42 
-0.9903404667201623 1:232 2:43 
-0.0005932242273537919 1:232 2:42 
-1 1:233 2:43 
-1 1:236 2:42 
-1 1:235 2:43 
-0.9999999979388463 1:237 2:44 
-1 1:238 2:44 
-1 1:239 2:44 
-1 1:239 2:45 
-1 1:221 2:38 
-1 1:222 2:38 
-1 1:223 2:39 
-1 1:224 2:39 
-0.05509827308417058 1:228 2:40 
-0.05529842560332295 1:227 2:40 
-1 1:227 2:40 
-1 1:228 2:40 
-1 1:230 2:41 
-0.9999999416712584 1:232 2:42 
-1 1:232 2:40 
