svm_type c_svc
kernel_type rbf
gamma 4
nr_class 2
total_sv 199
rho 0.661255
label 1 -1
nr_sv 99 100
SV
0.125 1:22 2:147 
0.125 1:229 2:147 
0.125 1:232 2:149 
0.125 1:232 2:148 
0.125 1:234 2:150 
0.125 1:236 2:150 
0.125 1:236 2:151 
0.125 1:239 2:152 
0.125 1:238 2:152 
0.125 1:240 2:154 
0.125 1:242 2:155 
0.125 1:244 2:156 
0.125 1:273 2:315 
0.125 1:276 2:319 
0.125 1:279 2:320 
0.125 1:279 2:323 
0.125 1:280 2:324 
0.125 1:282 2:326 
0.125 1:284 2:327 
0.125 1:286 2:329 
0.125 1:286 2:330 
0.125 1:287 2:332 
0.125 1:289 2:333 
0.125 1:345 2:419 
0.125 1:348 2:426 
0.125 1:351 2:429 
0.125 1:352 2:433 
0.125 1:355 2:437 
0.125 1:357 2:439 
0.125 1:360 2:442 
0.125 1:361 2:443 
0.125 1:362 2:444 
0.125 1:363 2:446 
0.125 1:366 2:449 
0.125 1:317 2:340 
0.125 1:317 2:340 
0.125 1:320 2:343 
0.125 1:323 2:346 
0.125 1:324 2:346 
0.125 1:326 2:350 
0.125 1:327 2:352 
0.125 1:328 2:352 
0.125 1:329 2:354 
0.125 1:332 2:356 
0.125 1:333 2:358 
0.125 1:363 2:440 
0.125 1:363 2:440 
0.125 1:365 2:440 
0.125 1:365 2:442 
0.125 1:367 2:443 
0.125 1:366 2:441 
0.125 1:369 2:445 
0.125 1:370 2:449 
0.125 1:373 2:450 
0.125 1:375 2:452 
0.125 1:375 2:452 
0.125 1:385 2:460 
0.125 1:386 2:459 
0.125 1:389 2:461 
0.125 1:390 2:461 
0.125 1:390 2:461 
0.125 1:393 2:464 
0.125 1:392 2:463 
0.125 1:394 2:465 
0.125 1:395 2:466 
0.125 1:397 2:468 
0.125 1:397 2:467 
0.125 1:300 2:71 
0.125 1:300 2:72 
0.125 1:301 2:73 
0.125 1:299 2:74 
0.125 1:302 2:76 
0.125 1:303 2:78 
0.125 1:304 2:78 
0.125 1:305 2:80 
0.125 1:305 2:80 
0.125 1:305 2:82 
0.125 1:428 2:368 
0.125 1:430 2:372 
0.125 1:430 2:372 
0.125 1:432 2:373 
0.125 1:432 2:375 
0.125 1:433 2:377 
0.125 1:435 2:379 
0.125 1:435 2:381 
0.125 1:435 2:380 
0.125 1:436 2:382 
0.125 1:436 2:383 
0.125 1:420 2:43 
0.125 1:427 2:382 
0.125 1:429 2:384 
0.125 1:427 2:383 
0.125 1:426 2:383 
0.125 1:429 2:386 
0.125 1:431 2:389 
0.125 1:432 2:390 
0.125 1:432 2:391 
0.125 1:433 2:393 
0.125 1:432 2:391 
-0.125 1:297 2:41 
-0.125 1:296 2:42 
-0.125 1:297 2:42 
-0.125 1:298 2:42 
-0.125 1:299 2:43 
-0.125 1:300 2:42 
-0.125 1:300 2:42 
-0.125 1:298 2:42 
-0.08476312585187584 1:300 2:42 
-0.125 1:299 2:42 
-0.125 1:301 2:42 
-0.125 1:273 2:45 
-0.125 1:273 2:46 
-0.125 1:274 2:46 
-0.125 1:276 2:46 
-0.125 1:275 2:46 
-0.125 1:277 2:46 
-0.125 1:295 2:51 
-0.125 1:293 2:52 
-0.125 1:292 2:53 
-0.125 1:290 2:53 
-0.125 1:286 2:53 
-0.125 1:287 2:54 
-0.125 1:264 2:56 
-0.125 1:263 2:55 
-0.125 1:263 2:55 
-0.125 1:263 2:56 
-0.125 1:266 2:55 
-0.125 1:268 2:55 
-0.125 1:269 2:56 
-0.125 1:268 2:56 
-0.125 1:270 2:56 
-0.125 1:271 2:57 
-0.125 1:271 2:56 
-0.125 1:244 2:47 
-0.125 1:245 2:47 
-0.125 1:247 2:47 
-0.125 1:245 2:48 
-0.125 1:249 2:49 
-0.125 1:250 2:48 
-0.125 1:250 2:48 
-0.125 1:253 2:47 
-0.125 1:252 2:48 
-0.125 1:253 2:49 
-0.125 1:255 2:48 
-0.125 1:245 2:52 
-0.125 1:247 2:52 
-0.125 1:249 2:53 
-0.125 1:249 2:52 
-0.125 1:251 2:51 
-0.125 1:251 2:52 
-0.125 1:253 2:52 
-0.125 1:254 2:51 
-0.125 1:255 2:52 
-0.125 1:256 2:52 
-0.125 1:256 2:52 
-0.08143177013987592 1:232 2:43 
-0.125 1:230 2:43 
-0.125 1:232 2:43 
-0.125 1:233 2:44 
-0.125 1:235 2:43 
-0.125 1:235 2:44 
-0.125 1:237 2:44 
-0.125 1:238 2:45 
-0.125 1:239 2:45 
-0.125 1:240 2:45 
-0.125 1:242 2:46 
-0.125 1:225 2:40 
-0.125 1:224 2:40 
-0.125 1:226 2:41 
-0.125 1:229 2:41 
-0.125 1:229 2:41 
-0.125 1:231 2:42 
-0.125 1:232 2:41 
-0.125 1:233 2:42 
-0.125 1:235 2:43 
-0.125 1:237 2:43 
-0.125 1:240 2:42 
-0.125 1:234 2:43 
-0.125 1:230 2:42 
-0.125 1:232 2:43 
-0.125 1:232 2:42 
-0.125 1:233 2:43 
-0.125 1:236 2:42 
-0.08380510400824824 1:235 2:43 
-0.125 1:237 2:44 
-0.125 1:238 2:44 
-0.125 1:239 2:44 
-0.125 1:239 2:45 
-0.125 1:221 2:38 
-0.125 1:222 2:38 
-0.125 1:223 2:39 
-0.125 1:224 2:39 
-0.125 1:228 2:40 
-0.125 1:227 2:40 
-0.125 1:227 2:40 
-0.125 1:228 2:40 
-0.125 1:230 2:41 
-0.125 1:232 2:42 
-0.125 1:232 2:40 
