svm_type c_svc
kernel_type rbf
gamma 0.5
nr_class 2
total_sv 368
rho -0.144501
label 1 -1
nr_sv 188 180
SV
0.8559387640399726 1:482 2:650 
0.8555688150449273 1:443 2:612 
0.8555828750911325 1:409 2:573 
0.8462818847560927 1:380 2:533 
0.855217513568202 1:354 2:491 
0.8557043229091548 1:329 2:446 
0.8555619601930404 1:309 2:404 
0.5319406278265708 1:290 2:364 
0.8556426830868218 1:274 2:328 
0.8556736064043918 1:264 2:300 
0.7908321837472571 1:252 2:273 
0.8498132389571506 1:244 2:251 
0.7906990975533186 1:234 2:232 
0.6251361220985348 1:227 2:215 
0.5330508942178831 1:222 2:202 
0.8553498542507212 1:216 2:192 
0.8555036676999392 1:212 2:183 
0.8556843909865404 1:207 2:176 
0.8553010915858505 1:205 2:170 
0.8556211650989269 1:203 2:165 
0.8552895949859239 1:200 2:159 
0.8556879883813563 1:591 2:744 
0.8554978603581495 1:542 2:712 
0.8555232279069354 1:502 2:682 
0.8552650637993681 1:462 2:647 
0.8555406682995392 1:430 2:613 
0.8559387622733508 1:398 2:571 
0.8557006808137269 1:368 2:527 
0.855668174706275 1:344 2:484 
0.8557006808137269 1:322 2:439 
0.8555851975478732 1:305 2:400 
0.5329011741701855 1:289 2:364 
0.8555620566612288 1:278 2:336 
0.8554903400802178 1:268 2:306 
0.8557221801997881 1:257 2:283 
0.8556805824905012 1:250 2:264 
0.8498479977245241 1:243 2:248 
0.855609788314139 1:237 2:235 
0.8556816930529545 1:232 2:223 
0.6255235292341487 1:228 2:214 
0.8463156431518196 1:225 2:207 
0.7536099112830847 1:221 2:200 
0.8554703083299583 1:889 2:858 
0.8543993904325072 1:882 2:852 
0.8541732629662389 1:884 2:855 
0.8549496616665763 1:878 2:849 
0.8498653239071609 1:872 2:845 
0.8496463540962775 1:869 2:844 
0.5324341688588461 1:865 2:839 
0.5319130331246531 1:864 2:839 
0.8551021139959795 1:865 2:843 
0.855397443966916 1:860 2:838 
0.7906704279102736 1:854 2:834 
0.7907474338565531 1:852 2:835 
0.8556038412110695 1:845 2:829 
0.8555492249405435 1:841 2:827 
0.8554803422018933 1:832 2:820 
0.8556731780204956 1:825 2:816 
0.854994133218783 1:821 2:813 
0.5234479526096858 1:816 2:813 
0.5319648560144582 1:816 2:814 
0.8460343828050811 1:813 2:813 
0.8556608730504127 1:804 2:807 
0.8552996881421037 1:543 2:707 
0.8552737246799902 1:502 2:673 
0.8554579269445508 1:465 2:641 
0.8554966056268598 1:434 2:610 
0.8556325187646275 1:404 2:573 
0.8460600130174581 1:377 2:533 
0.8547006219347288 1:350 2:491 
0.8551368752891774 1:330 2:451 
0.8549839361054105 1:312 2:414 
0.8556815304887834 1:297 2:380 
0.8555775306741097 1:283 2:348 
0.8556863909158612 1:272 2:319 
0.8556732468682475 1:261 2:294 
0.790566608833275 1:253 2:275 
0.8555088890668072 1:245 2:257 
0.8556674562480454 1:239 2:243 
0.7903872996867171 1:233 2:230 
0.8552245634529734 1:228 2:220 
0.8461119424806194 1:225 2:210 
0.4296481685546385 1:221 2:202 
0.8554991255615337 1:217 2:196 
0.8552360031545502 1:467 2:627 
0.8556859310525278 1:428 2:586 
0.855632932616774 1:393 2:539 
0.855591897220939 1:362 2:489 
0.8557194108666512 1:335 2:438 
0.8552097646596669 1:315 2:393 
0.8552356001179209 1:294 2:350 
0.8553450883810183 1:277 2:311 
0.8554681306968154 1:264 2:279 
0.855409413621433 1:253 2:253 
0.8557647985479446 1:245 2:233 
0.8554452825062863 1:237 2:216 
0.8556112039585297 1:230 2:202 
0.8554820674407608 1:223 2:188 
0.8555999631666049 1:218 2:179 
0.8555025787831982 1:214 2:172 
0.8554497779479964 1:209 2:166 
0.8555781512757437 1:207 2:160 
0.790497728734594 1:201 2:155 
0.790608064564846 1:202 2:153 
0.8556111156764886 1:198 2:149 
0.8556848801892671 1:476 2:507 
0.8554703436689867 1:448 2:454 
0.8556112050110761 1:423 2:402 
0.85549528379048 1:403 2:356 
0.855558768638452 1:389 2:318 
0.8555527605960006 1:377 2:286 
0.9375331503776088 1:366 2:258 
0.8572130609005721 1:356 2:235 
0.8555014698031954 1:348 2:215 
0.8667895788370943 1:340 2:199 
1 1:335 2:187 
0.8556357089925996 1:331 2:179 
0.8740846843458674 1:327 2:170 
1 1:326 2:165 
0.9851953190033088 1:322 2:160 
0.8558866133079477 1:321 2:157 
1 1:318 2:152 
0.572910996561437 1:316 2:147 
0.494708789194951 1:316 2:146 
0.7802950315379257 1:314 2:144 
0.8640516557460666 1:313 2:142 
0.855409413621433 1:544 2:688 
0.8552650639440105 1:511 2:654 
0.8555042336817492 1:457 2:584 
0.8557221801997946 1:434 2:546 
0.8556487898856688 1:415 2:507 
0.8553662542392516 1:397 2:466 
0.8554997921668567 1:381 2:429 
0.5323887392500071 1:368 2:393 
0.7905504927847975 1:356 2:361 
0.8556863909158612 1:347 2:334 
0.8555359659418045 1:340 2:309 
0.8555232279069352 1:335 2:287 
0.8554433597096289 1:327 2:267 
0.8555096105082536 1:323 2:252 
0.8554527952413948 1:318 2:236 
0.8555622593254228 1:313 2:224 
0.854252304548758 1:311 2:214 
0.7536382443140737 1:306 2:204 
0.7538494997773323 1:304 2:198 
0.8462874681079781 1:303 2:191 
0.8556347447856587 1:609 2:729 
0.8551388124986492 1:575 2:704 
0.8552356001179209 1:542 2:673 
0.8554502623837784 1:512 2:643 
0.8556815304887834 1:485 2:609 
0.8555388353665272 1:459 2:572 
0.855632932616774 1:441 2:539 
0.8554481518891824 1:420 2:500 
0.8556151255957202 1:403 2:464 
0.8556347447812863 1:389 2:431 
0.8555616813789872 1:377 2:397 
0.8553662560061155 1:366 2:367 
0.8554997936172132 1:356 2:340 
0.855680762349702 1:349 2:316 
0.855581470745354 1:341 2:293 
0.8550455950470709 1:335 2:275 
0.8550471040617363 1:329 2:258 
0.8556979841867566 1:324 2:243 
0.8555036518964928 1:319 2:230 
0.8455956758763989 1:314 2:219 
0.8492821396886313 1:312 2:210 
0.8554427892420798 1:519 2:665 
0.8555999631709791 1:481 2:620 
0.8557222959364554 1:450 2:576 
0.8554578358793143 1:425 2:528 
0.8556857500337819 1:401 2:480 
0.8555163647076713 1:383 2:435 
0.5327317374267434 1:369 2:393 
0.7910074996987085 1:357 2:359 
0.8556736065533518 1:347 2:325 
0.8552737249203548 1:338 2:299 
0.8549924880631519 1:330 2:276 
0.8552581340069234 1:324 2:256 
0.8552717799467175 1:319 2:242 
0.8552705317359771 1:313 2:229 
0.8461690064428227 1:311 2:219 
0.848712422924158 1:309 2:211 
0.7537616421032405 1:306 2:206 
0.7526324946006637 1:302 2:198 
0.8542790549125182 1:300 2:195 
0.8460192501706463 1:300 2:191 
0.8552291666983036 1:297 2:185 
-1 1:537 2:486 
-1 1:507 2:440 
-1 1:482 2:395 
-1 1:460 2:351 
-1 1:436 2:303 
-1 1:415 2:259 
-1 1:396 2:218 
-1 1:378 2:185 
-1 1:367 2:158 
-1 1:355 2:134 
-1 1:344 2:115 
-1 1:335 2:101 
-1 1:327 2:90 
-1 1:318 2:80 
-1 1:312 2:73 
-1 1:308 2:67 
-1 1:303 2:62 
-1 1:300 2:59 
-1 1:296 2:55 
-1 1:293 2:52 
-1 1:290 2:50 
-1 1:497 2:393 
-1 1:473 2:347 
-1 1:450 2:301 
-1 1:431 2:259 
-1 1:412 2:220 
-1 1:395 2:186 
-1 1:378 2:157 
-1 1:365 2:133 
-1 1:355 2:114 
-1 1:344 2:99 
-1 1:335 2:85 
-1 1:326 2:76 
-1 1:315 2:68 
-1 1:310 2:61 
-1 1:306 2:57 
-1 1:301 2:52 
-1 1:296 2:49 
-1 1:293 2:45 
-1 1:284 2:43 
-1 1:283 2:41 
-1 1:281 2:39 
-0.229478750547681 1:330 2:62 
-0.229479260045775 1:320 2:52 
-0.2308218756101376 1:312 2:45 
-0.1445507259262221 1:301 2:40 
-0.1443882185841992 1:296 2:38 
-0.1453717727991983 1:290 2:35 
-0.1445528931746019 1:284 2:34 
-0.1485136633678905 1:280 2:31 
-0.1463201577630224 1:276 2:31 
-0.07015767662608491 1:270 2:30 
-0.06979185836674681 1:266 2:30 
-0.1489293691237904 1:261 2:28 
-0.9150325673364886 1:330 2:62 
-0.915062812864972 1:320 2:52 
-0.913672336736375 1:312 2:45 
-1 1:301 2:40 
-1 1:296 2:38 
-0.9989438236849789 1:290 2:35 
-1 1:284 2:34 
-0.9961031109694209 1:280 2:31 
-0.9978524965403082 1:276 2:31 
-0.9942704612948634 1:270 2:30 
-0.9696951772374605 1:268 2:29 
-0.9953054423151096 1:266 2:30 
-0.9935851858843652 1:261 2:28 
-0.9983943115009549 1:257 2:28 
-0.9514114999854241 1:258 2:26 
-0.8049671882048534 1:256 2:26 
-0.95397453904664 1:254 2:26 
-0.5219370797659727 1:252 2:26 
-0.8127907393302543 1:251 2:26 
-0.7030665797365859 1:248 2:25 
-0.7184100088630372 1:247 2:25 
-1 1:277 2:122 
-1 1:272 2:116 
-1 1:269 2:111 
-1 1:265 2:108 
-1 1:262 2:105 
-1 1:260 2:100 
-1 1:257 2:99 
-0.1219289663244044 1:254 2:98 
-1 1:254 2:98 
-0.8461141602817459 1:252 2:96 
-0.7505762040892558 1:251 2:95 
-1 1:250 2:93 
-0.6951184577548448 1:247 2:93 
-0.9754234098366116 1:246 2:91 
-0.5904766443294212 1:246 2:93 
-0.7278044795514543 1:244 2:89 
-0.7455608264664616 1:243 2:90 
-0.1664663931036546 1:244 2:90 
-0.04774637868872729 1:242 2:88 
-0.8022442149240993 1:241 2:88 
-0.8014787438030748 1:242 2:87 
-1 1:320 2:160 
-0.6483745805188813 1:310 2:143 
-1 1:302 2:128 
-1 1:292 2:118 
-1 1:285 2:109 
-0.8389974892835298 1:282 2:100 
-1 1:276 2:95 
-1 1:273 2:91 
-1 1:267 2:86 
-1 1:264 2:84 
-1 1:261 2:82 
-1 1:259 2:81 
-0.9041374606528295 1:255 2:78 
-0.2834346694318441 1:254 2:78 
-0.8306838725551513 1:253 2:79 
-1 1:251 2:79 
-1 1:249 2:76 
-0.01810472066812874 1:245 2:73 
-0.279809741985723 1:245 2:74 
-0.6943043523070518 1:245 2:73 
-0.7130300084477118 1:244 2:74 
-1 1:408 2:349 
-1 1:392 2:309 
-1 1:374 2:272 
-1 1:358 2:238 
-1 1:345 2:210 
-1 1:336 2:186 
-1 1:326 2:165 
-1 1:318 2:149 
-1 1:310 2:134 
-1 1:302 2:123 
-1 1:295 2:113 
-1 1:290 2:105 
-0.7128541715497099 1:287 2:100 
-0.7121716589483397 1:281 2:95 
-1 1:278 2:90 
-0.8186382883589514 1:272 2:85 
-0.9908099546255311 1:270 2:83 
-0.8359510617327005 1:267 2:80 
-0.6928330446827451 1:264 2:78 
-0.9861178139194415 1:262 2:76 
-1 1:260 2:74 
-1 1:401 2:339 
-1 1:382 2:297 
-1 1:368 2:259 
-1 1:353 2:225 
-1 1:340 2:196 
-1 1:329 2:172 
-1 1:317 2:151 
-1 1:310 2:136 
-1 1:304 2:123 
-1 1:297 2:114 
-1 1:292 2:106 
-0.7120797166365365 1:287 2:101 
-0.7128637595492175 1:282 2:95 
-0.9693808352234983 1:276 2:91 
-1 1:275 2:89 
-0.8361020624013868 1:271 2:86 
-0.9827499744406839 1:268 2:83 
-0.8036555939211033 1:266 2:81 
-0.6971133127412906 1:264 2:79 
-0.7659395736493367 1:261 2:78 
-0.7702253917598111 1:260 2:77 
-1 1:401 2:360 
-1 1:382 2:315 
-1 1:367 2:273 
-1 1:354 2:239 
-1 1:342 2:211 
-1 1:331 2:187 
-1 1:323 2:169 
-1 1:317 2:157 
-0.8277422098869324 1:311 2:143 
-1 1:305 2:134 
-1 1:299 2:125 
-1 1:296 2:119 
-1 1:293 2:115 
-1 1:290 2:111 
-1 1:285 2:107 
-1 1:282 2:104 
-0.8294113293393142 1:281 2:101 
-0.8870191203293486 1:277 2:98 
-0.6811343800706683 1:276 2:97 
-1 1:273 2:95 
-1 1:271 2:93 
