svm_type c_svc
kernel_type rbf
gamma 0.25
nr_class 2
total_sv 351
rho -0.137766
label 1 -1
nr_sv 188 163
SV
0.8623197381487765 1:482 2:650 
0.8622815730087351 1:443 2:612 
0.8606280579084559 1:409 2:573 
0.7800945105897691 1:380 2:533 
0.8467954223471539 1:354 2:491 
0.8610395618961197 1:329 2:446 
0.8620368134534887 1:309 2:404 
0.4836492046598195 1:290 2:364 
0.8622834001141788 1:274 2:328 
0.8623054782361829 1:264 2:300 
0.6697992247343323 1:252 2:273 
0.7965159218007951 1:244 2:251 
0.6600584824247059 1:234 2:232 
0.5354805208663301 1:227 2:215 
0.4846883005007322 1:222 2:202 
0.8501989464726193 1:216 2:192 
0.8622720736815943 1:212 2:183 
0.8622071389972421 1:207 2:176 
0.8613282033434939 1:205 2:170 
0.8611216097570661 1:203 2:165 
0.8528657627987644 1:200 2:159 
0.8623244749335713 1:591 2:744 
0.8604635008094338 1:542 2:712 
0.8623245090771176 1:502 2:682 
0.8625658006194045 1:462 2:647 
0.8601463766136239 1:430 2:613 
0.8622482315906131 1:398 2:571 
0.8621561978863579 1:368 2:527 
0.8622846866302527 1:344 2:484 
0.8625755076829011 1:322 2:439 
0.8619904178229243 1:305 2:400 
0.4856213985709072 1:289 2:364 
0.8622102264977737 1:278 2:336 
0.8617321849538132 1:268 2:306 
0.8622801935608404 1:257 2:283 
0.8624156554001162 1:250 2:264 
0.7965729541441162 1:243 2:248 
0.8549051746423884 1:237 2:235 
0.8606972222255026 1:232 2:223 
0.5355575274542186 1:228 2:214 
0.7796343564917368 1:225 2:207 
0.6297679872313676 1:221 2:200 
0.8620594200874547 1:889 2:858 
0.8280527974355857 1:882 2:852 
0.8298459252169484 1:884 2:855 
0.8607522498252049 1:878 2:849 
0.7975280255285141 1:872 2:845 
0.7849314319056743 1:869 2:844 
0.4894225275229359 1:865 2:839 
0.4572273947339198 1:864 2:839 
0.8356847445111284 1:865 2:843 
0.8550219553275722 1:860 2:838 
0.6701907755174472 1:854 2:834 
0.6701934673980033 1:852 2:835 
0.8562059149820489 1:845 2:829 
0.8565082375759339 1:841 2:827 
0.8623187369761914 1:832 2:820 
0.8606266330166552 1:825 2:816 
0.8591650246492526 1:821 2:813 
0.4017100388383049 1:816 2:813 
0.4835980444761037 1:816 2:814 
0.7801904541810218 1:813 2:813 
0.8623407280785982 1:804 2:807 
0.8610950271931568 1:543 2:707 
0.8622524499556584 1:502 2:673 
0.8621784475593071 1:465 2:641 
0.8606652873381455 1:434 2:610 
0.8603163222468249 1:404 2:573 
0.7800625748440209 1:377 2:533 
0.8467454685714384 1:350 2:491 
0.8608951466185015 1:330 2:451 
0.8622991200550518 1:312 2:414 
0.8622844081330011 1:297 2:380 
0.8623840752927084 1:283 2:348 
0.8622765573001311 1:272 2:319 
0.8624635062553355 1:261 2:294 
0.6706975982135976 1:253 2:275 
0.8621990970734014 1:245 2:257 
0.8622483576016799 1:239 2:243 
0.6732285066905845 1:233 2:230 
0.8597159393836685 1:228 2:220 
0.7787072883478037 1:225 2:210 
0.2530624833313713 1:221 2:202 
0.8499500806043353 1:217 2:196 
0.8622589397889243 1:467 2:627 
0.862287414172722 1:428 2:586 
0.8623218525509364 1:393 2:539 
0.8622819854267401 1:362 2:489 
0.8621940855947152 1:335 2:438 
0.8625207309088295 1:315 2:393 
0.8622780824002267 1:294 2:350 
0.8622888589448192 1:277 2:311 
0.8622861404895584 1:264 2:279 
0.8622894664763531 1:253 2:253 
0.8625754723769625 1:245 2:233 
0.8622801128816671 1:237 2:216 
0.8619541654861456 1:230 2:202 
0.8625982217171474 1:223 2:188 
0.8625395237993354 1:218 2:179 
0.8622803172257605 1:214 2:172 
0.8616456175173601 1:209 2:166 
0.8622448920698491 1:207 2:160 
0.6572591506169563 1:201 2:155 
0.6731823182248784 1:202 2:153 
0.8620519953706706 1:198 2:149 
0.8618434145814975 1:476 2:507 
0.8618026576901385 1:448 2:454 
0.8622804562012385 1:423 2:402 
0.8700480974376009 1:403 2:356 
0.8623166168047567 1:389 2:318 
0.8618720700805972 1:377 2:286 
1.294433859551523 1:366 2:258 
0.9147828511182355 1:356 2:235 
0.8620737151903525 1:348 2:215 
0.9932179279405817 1:340 2:199 
2.487620230453091 1:335 2:187 
0.8621308360458998 1:331 2:179 
1.052188423189073 1:327 2:170 
4 1:326 2:165 
1.421705955410861 1:322 2:160 
0.9070106149852275 1:321 2:157 
2.377853068474118 1:318 2:152 
0.8901304933613232 1:316 2:147 
0.1201097879117923 1:316 2:146 
0.6132007157615748 1:314 2:144 
1.09239775095093 1:313 2:142 
0.86203477325571 1:544 2:688 
0.8623653838799232 1:511 2:654 
0.8617752797083935 1:457 2:584 
0.861981447707256 1:434 2:546 
0.8622516861215477 1:415 2:507 
0.8619305962137878 1:397 2:466 
0.8620856912049799 1:381 2:429 
0.4842199301876079 1:368 2:393 
0.6697860143694868 1:356 2:361 
0.8623497890129254 1:347 2:334 
0.8622966554636187 1:340 2:309 
0.8623568356390776 1:335 2:287 
0.8623473795989717 1:327 2:267 
0.850211434155723 1:323 2:252 
0.8621147013501183 1:318 2:236 
0.8589028789727692 1:313 2:224 
0.8194631621983525 1:311 2:214 
0.6305281332653858 1:306 2:204 
0.6415810577320719 1:304 2:198 
0.7797959283797503 1:303 2:191 
0.8625337989366159 1:609 2:729 
0.8622493675023115 1:575 2:704 
0.8622274015186659 1:542 2:673 
0.8622795989544796 1:512 2:643 
0.8622662565427449 1:485 2:609 
0.8623497903720889 1:459 2:572 
0.8621151940215825 1:441 2:539 
0.8622860771907515 1:420 2:500 
0.8617048398403828 1:403 2:464 
0.8625318214874798 1:389 2:431 
0.8619791099110161 1:377 2:397 
0.8619697175540303 1:366 2:367 
0.8622805930908409 1:356 2:340 
0.8621603120095134 1:349 2:316 
0.8622748555544273 1:341 2:293 
0.8610788704645996 1:335 2:275 
0.8615880577209368 1:329 2:258 
0.8609907864254593 1:324 2:243 
0.8615789787428415 1:319 2:230 
0.7790871914038433 1:314 2:219 
0.7875024970854437 1:312 2:210 
0.8622782311854004 1:519 2:665 
0.8621190378236433 1:481 2:620 
0.8619571263791216 1:450 2:576 
0.8622863720474706 1:425 2:528 
0.8623598809772387 1:401 2:480 
0.8622371429484632 1:383 2:435 
0.4855031301722171 1:369 2:393 
0.6705690409754834 1:357 2:359 
0.8623915069404791 1:347 2:325 
0.862321134311266 1:338 2:299 
0.8607744292428005 1:330 2:276 
0.8495771551047806 1:324 2:256 
0.8610088313436361 1:319 2:242 
0.8605080206310532 1:313 2:229 
0.7779697956498965 1:311 2:219 
0.76584681015028 1:309 2:211 
0.6299385691465723 1:306 2:206 
0.5944411718075573 1:302 2:198 
0.8225417801130869 1:300 2:195 
0.7650197105000478 1:300 2:191 
0.8621787689650344 1:297 2:185 
-1.137627007555294 1:537 2:486 
-1.137615924707269 1:507 2:440 
-1.138028255777913 1:482 2:395 
-1.137715312869718 1:460 2:351 
-1.137807737016229 1:436 2:303 
-1.137811260964377 1:415 2:259 
-1.137821355057775 1:396 2:218 
-1.13823993078188 1:378 2:185 
-1.137525456536114 1:367 2:158 
-1.137607572756295 1:355 2:134 
-1.1378102784612 1:344 2:115 
-1.137719878149158 1:335 2:101 
-1.13768296302569 1:327 2:90 
-1.137752180847798 1:318 2:80 
-1.137518086866994 1:312 2:73 
-1.137563734578666 1:308 2:67 
-1.124979423510612 1:303 2:62 
-1.124791214053212 1:300 2:59 
-1.125090198520383 1:296 2:55 
-1.06985585257317 1:293 2:52 
-1.095570287113831 1:290 2:50 
-1.137616920527655 1:497 2:393 
-1.137675489537567 1:473 2:347 
-1.137542358575697 1:450 2:301 
-1.137699541882447 1:431 2:259 
-1.137765614921209 1:412 2:220 
-1.137541958749339 1:395 2:186 
-1.137716071291331 1:378 2:157 
-1.137765614908919 1:365 2:133 
-1.138179271742343 1:355 2:114 
-1.137741059539217 1:344 2:99 
-1.137755397056493 1:335 2:85 
-1.137558584845958 1:326 2:76 
-1.13789212154296 1:315 2:68 
-1.137373818675367 1:310 2:61 
-1.137559654479761 1:306 2:57 
-1.137247782633326 1:301 2:52 
-1.12317031599232 1:296 2:49 
-1.135322707233532 1:293 2:45 
-0.9260872748353958 1:284 2:43 
-0.7317705427570049 1:283 2:41 
-1.036997763498794 1:281 2:39 
-1.137722692349256 1:330 2:62 
-1.137635791782652 1:320 2:52 
-1.137775353584854 1:312 2:45 
-1.137371488932492 1:301 2:40 
-1.137442548073898 1:296 2:38 
-1.137554241963395 1:290 2:35 
-1.135241680838342 1:284 2:34 
-1.115033133387297 1:280 2:31 
-1.117212165528517 1:276 2:31 
-0.9501278287781265 1:270 2:30 
-0.5937453855095161 1:268 2:29 
-0.9492403060344632 1:266 2:30 
-1.094003402688957 1:261 2:28 
-0.7798808117949994 1:257 2:28 
-0.7354812302520575 1:258 2:26 
-0.3296380497685241 1:256 2:26 
-0.8422396629488268 1:254 2:26 
-0.08959367039000923 1:252 2:26 
-0.9293298396061453 1:251 2:26 
-0.4680914805387318 1:248 2:25 
-0.7597777788932643 1:247 2:25 
-1.137607301766432 1:277 2:122 
-1.137531990397283 1:272 2:116 
-1.135324161752456 1:269 2:111 
-1.123426856503323 1:265 2:108 
-1.124281225143247 1:262 2:105 
-1.056981065857621 1:260 2:100 
-0.9722418402700268 1:257 2:99 
-0.9560626500151184 1:254 2:98 
-0.71569989549216 1:252 2:96 
-0.4234515639838625 1:251 2:95 
-0.9289244600525542 1:250 2:93 
-0.4321921729899952 1:247 2:93 
-0.6948243433570994 1:246 2:91 
-0.5176868863470303 1:246 2:93 
-0.5279087314315646 1:244 2:89 
-0.6166925929685189 1:243 2:90 
-0.6253707790292905 1:241 2:88 
-0.6360081665454479 1:242 2:87 
-1.722595586340093 1:320 2:160 
-0.1706506986013326 1:310 2:143 
-1.123478577235249 1:302 2:128 
-1.044533902501405 1:292 2:118 
-0.8357899331552565 1:285 2:109 
-0.7555740792160682 1:282 2:100 
-0.8724806477780003 1:276 2:95 
-0.8310723526678107 1:273 2:91 
-1.02351094033082 1:267 2:86 
-1.035543543232579 1:264 2:84 
-0.8312685451752276 1:261 2:82 
-0.8708287947782211 1:259 2:81 
-0.9705327376452275 1:255 2:78 
-0.5315673967769293 1:253 2:79 
-0.8858870234792207 1:251 2:79 
-1.099952558049021 1:249 2:76 
-0.1175657216237229 1:245 2:74 
-0.6488175184114511 1:245 2:73 
-0.651588951501931 1:244 2:74 
-1.138020897099786 1:408 2:349 
-1.137703344677676 1:392 2:309 
-1.138061880054484 1:374 2:272 
-1.157059726660465 1:358 2:238 
-1.051580528837656 1:345 2:210 
-2.644778768010582 1:336 2:186 
-4 1:326 2:165 
-0.8399530828728704 1:318 2:149 
-0.829487663222801 1:310 2:134 
-0.7809552352197251 1:302 2:123 
-0.7499652248526008 1:295 2:113 
-0.8827145541299468 1:290 2:105 
-0.6426738819437591 1:287 2:100 
-0.6306709084744667 1:281 2:95 
-0.9148299773132069 1:278 2:90 
-0.6220244595127029 1:272 2:85 
-0.7434306624400873 1:270 2:83 
-0.7238081273732612 1:267 2:80 
-0.5579517623241027 1:264 2:78 
-0.6183107243905854 1:262 2:76 
-0.9894763365657796 1:260 2:74 
-1.138249474532164 1:401 2:339 
-1.137541958749339 1:382 2:297 
-1.508514555396582 1:368 2:259 
-1.137681311200536 1:353 2:225 
-1.242298884008199 1:340 2:196 
-1.279873948684381 1:329 2:172 
-2.352122227705657 1:317 2:151 
-0.8319132054267337 1:310 2:136 
-0.848631500494761 1:304 2:123 
-0.9077774792438318 1:297 2:114 
-0.8839961482691028 1:292 2:106 
-0.6340406393710043 1:287 2:101 
-0.6445769735428566 1:282 2:95 
-0.5427110742217505 1:276 2:91 
-0.7919016214978988 1:275 2:89 
-0.6720467033522574 1:271 2:86 
-0.6303118989878111 1:268 2:83 
-0.4757072520400959 1:266 2:81 
-0.5019941161757809 1:264 2:79 
-0.4644878157050709 1:261 2:78 
-0.5482024645194942 1:260 2:77 
-1.143585490117705 1:401 2:360 
-1.137692202203491 1:382 2:315 
-1.137709720903766 1:367 2:273 
-1.127333383935021 1:354 2:239 
-1.051366209759388 1:342 2:211 
-1.179255848632776 1:331 2:187 
-1.15255968645322 1:323 2:169 
-1.139098950199154 1:317 2:157 
-1.368463652403767 1:311 2:143 
-1.135306192209126 1:305 2:134 
-1.094327192324749 1:299 2:125 
-1.119557854832776 1:296 2:119 
-0.9334724943181666 1:293 2:115 
-1.134120876944309 1:290 2:111 
-0.8176127262735509 1:285 2:107 
-1.066076624700309 1:282 2:104 
-0.589563517501449 1:281 2:101 
-0.9292935887815189 1:277 2:98 
-0.2179087576808857 1:276 2:97 
-0.8970161806016973 1:273 2:95 
-0.9025585464417598 1:271 2:93 
