svm_type c_svc
kernel_type rbf
gamma 0.125
nr_class 2
total_sv 344
rho -0.176777
label 1 -1
nr_sv 187 157
SV
0.8229225542400426 1:482 2:650 
0.8230538879115795 1:443 2:612 
0.7888620136098727 1:409 2:573 
0.6214599899455009 1:380 2:533 
0.7247140354190627 1:354 2:491 
0.7926178141685281 1:329 2:446 
0.8085205219131837 1:309 2:404 
0.4368912308471819 1:290 2:364 
0.8232428834044093 1:274 2:328 
0.8190592242354502 1:264 2:300 
0.5358095454214223 1:252 2:273 
0.6331129254667004 1:244 2:251 
0.4264240798030325 1:234 2:232 
0.4162886837257376 1:227 2:215 
0.4137881968351997 1:222 2:202 
0.7362991309469965 1:216 2:192 
0.8219098854477366 1:212 2:183 
0.8176711153465339 1:207 2:176 
0.7821528604584768 1:205 2:170 
0.787038730615248 1:203 2:165 
0.7649234596325186 1:200 2:159 
0.8231918890346652 1:591 2:744 
0.7924615723093462 1:542 2:712 
0.8235197719447971 1:502 2:682 
0.8200204382927323 1:462 2:647 
0.7886779002378448 1:430 2:613 
0.8181823256505443 1:398 2:571 
0.8231624987724088 1:368 2:527 
0.8232463996450765 1:344 2:484 
0.8232371016594272 1:322 2:439 
0.808084600802595 1:305 2:400 
0.4377065591197612 1:289 2:364 
0.8230413076548659 1:278 2:336 
0.8221221760049732 1:268 2:306 
0.8230071173149153 1:257 2:283 
0.8231692739276625 1:250 2:264 
0.637055066235964 1:243 2:248 
0.7744649140022711 1:237 2:235 
0.7883325385439938 1:232 2:223 
0.4639464445140319 1:228 2:214 
0.6228373399978734 1:225 2:207 
0.4962215245046172 1:221 2:200 
0.8134757094321585 1:889 2:858 
0.6539014269199764 1:882 2:852 
0.6832418959352836 1:884 2:855 
0.7934590450346645 1:878 2:849 
0.6633674694056843 1:872 2:845 
0.5510179193997684 1:869 2:844 
0.5723523475447739 1:865 2:839 
0.1444990491561899 1:864 2:839 
0.6603446423284368 1:865 2:843 
0.7813606050078021 1:860 2:838 
0.5344590713928656 1:854 2:834 
0.5374291109361634 1:852 2:835 
0.7605874704494739 1:845 2:829 
0.7608357489807517 1:841 2:827 
0.8227172905830056 1:832 2:820 
0.7892136110865093 1:825 2:816 
0.7627047504768814 1:821 2:813 
0.1969239063218342 1:816 2:813 
0.4384489119824458 1:816 2:814 
0.6329883221607615 1:813 2:813 
0.8232112943630809 1:804 2:807 
0.7925780317901602 1:543 2:707 
0.8232310336325521 1:502 2:673 
0.8205813886154282 1:465 2:641 
0.7885426103975588 1:434 2:610 
0.7831178993467686 1:404 2:573 
0.621459447658641 1:377 2:533 
0.7251868902441495 1:350 2:491 
0.7925425739392572 1:330 2:451 
0.8235815142994374 1:312 2:414 
0.823356268921564 1:297 2:380 
0.823184408128634 1:283 2:348 
0.8232568222246781 1:272 2:319 
0.8205693314017426 1:261 2:294 
0.5364069218011349 1:253 2:275 
0.8169663061947942 1:245 2:257 
0.819741308207256 1:239 2:243 
0.5887943700788144 1:233 2:230 
0.7672886482246639 1:228 2:220 
0.5896762971421919 1:225 2:210 
0.1522328788580406 1:221 2:202 
0.7258958030338203 1:217 2:196 
0.8231909248892201 1:467 2:627 
0.8232611363830133 1:428 2:586 
0.8232355556222772 1:393 2:539 
0.8231100417711753 1:362 2:489 
0.8229898999700459 1:335 2:438 
0.8233927906234578 1:315 2:393 
0.8230246127878142 1:294 2:350 
0.8232307073603333 1:277 2:311 
0.8230542126369138 1:264 2:279 
0.8232884253927133 1:253 2:253 
0.823097902972296 1:245 2:233 
0.8230987035104579 1:237 2:216 
0.8218979211697829 1:230 2:202 
0.8230383897440037 1:223 2:188 
0.8217868726680515 1:218 2:179 
0.8223354723957789 1:214 2:172 
0.7952257968362786 1:209 2:166 
0.8111439251010362 1:207 2:160 
0.4185744147711544 1:201 2:155 
0.5790992726419065 1:202 2:153 
0.8112150581648236 1:198 2:149 
0.8231586988397903 1:476 2:507 
0.8233413627497147 1:448 2:454 
0.8232542498745303 1:423 2:402 
0.9263070776949605 1:403 2:356 
0.8241205422174666 1:389 2:318 
0.8234940280686875 1:377 2:286 
1.893802228048451 1:366 2:258 
1.165969409499638 1:356 2:235 
0.8378518229054945 1:348 2:215 
1.347485770331633 1:340 2:199 
2 1:335 2:187 
0.8262590921411257 1:331 2:179 
1.639910615901826 1:327 2:170 
2 1:326 2:165 
1.758717876780646 1:322 2:160 
1.027667839349109 1:321 2:157 
2 1:318 2:152 
1.435308368435462 1:316 2:147 
0.1661386849983977 1:314 2:144 
1.787231919960966 1:313 2:142 
0.8232561091492387 1:544 2:688 
0.8231594747948314 1:511 2:654 
0.8234155642667134 1:457 2:584 
0.8228017034348202 1:434 2:546 
0.8232343730871232 1:415 2:507 
0.8175231813222782 1:397 2:466 
0.8175781591635783 1:381 2:429 
0.4371369152490086 1:368 2:393 
0.5364708952089584 1:356 2:361 
0.8231679449096028 1:347 2:334 
0.8232653662184922 1:340 2:309 
0.8231266905045302 1:335 2:287 
0.8232128956217806 1:327 2:267 
0.7378782605727805 1:323 2:252 
0.8075326690695015 1:318 2:236 
0.7501244156598563 1:313 2:224 
0.6146997604217954 1:311 2:214 
0.5132815796908129 1:306 2:204 
0.5823533315069619 1:304 2:198 
0.6209188788355475 1:303 2:191 
0.8233962264579193 1:609 2:729 
0.8233002140405001 1:575 2:704 
0.8233541691943702 1:542 2:673 
0.8229550680082265 1:512 2:643 
0.8232533788898796 1:485 2:609 
0.8227629024592216 1:459 2:572 
0.8233136278909899 1:441 2:539 
0.8231196728666452 1:420 2:500 
0.817745984392161 1:403 2:464 
0.8219648948058054 1:389 2:431 
0.823211474612816 1:377 2:397 
0.8232682905106007 1:366 2:367 
0.8229813533200644 1:356 2:340 
0.8228809488362913 1:349 2:316 
0.8202016534441711 1:341 2:293 
0.7924980697546022 1:335 2:275 
0.8041269458118098 1:329 2:258 
0.7927958521449229 1:324 2:243 
0.8075524925052797 1:319 2:230 
0.5960608273903766 1:314 2:219 
0.5995354634944901 1:312 2:210 
0.8232739054155837 1:519 2:665 
0.8232956315285572 1:481 2:620 
0.8230679984872626 1:450 2:576 
0.8232518791201917 1:425 2:528 
0.8229303480757386 1:401 2:480 
0.8161814179865633 1:383 2:435 
0.4374053569504487 1:369 2:393 
0.5357598620294208 1:357 2:359 
0.8229175458963656 1:347 2:325 
0.8202735019919108 1:338 2:299 
0.7924834676618462 1:330 2:276 
0.7136271973325464 1:324 2:256 
0.7845446576681789 1:319 2:242 
0.7821535081151676 1:313 2:229 
0.5830093034086261 1:311 2:219 
0.5227660004249702 1:309 2:211 
0.5030068192017145 1:306 2:206 
0.3431025810302427 1:302 2:198 
0.6308319970815525 1:300 2:195 
0.5327111679507823 1:300 2:191 
0.8212766280610533 1:297 2:185 
-1.176710996916282 1:537 2:486 
-1.176966869526255 1:507 2:440 
-1.176713693940261 1:482 2:395 
-1.176763438057329 1:460 2:351 
-1.176732566586893 1:436 2:303 
-1.17680811096532 1:415 2:259 
-1.17693790873831 1:396 2:218 
-1.177047206917022 1:378 2:185 
-1.176475723568177 1:367 2:158 
-1.177208108999031 1:355 2:134 
-1.176788143614272 1:344 2:115 
-1.176989710560327 1:335 2:101 
-1.176423643931255 1:327 2:90 
-1.176577077511684 1:318 2:80 
-1.158483237234032 1:312 2:73 
-1.163011730450919 1:308 2:67 
-1.046820649258692 1:303 2:62 
-1.037684754681338 1:300 2:59 
-1.049664683951323 1:296 2:55 
-0.7595459708539669 1:293 2:52 
-1.000815328182764 1:290 2:50 
-1.176760708958957 1:497 2:393 
-1.177232556014791 1:473 2:347 
-1.17672881051583 1:450 2:301 
-1.176741114545816 1:431 2:259 
-1.176798718357587 1:412 2:220 
-1.176938356133159 1:395 2:186 
-1.176317447459208 1:378 2:157 
-1.176934037183497 1:365 2:133 
-1.176311757379502 1:355 2:114 
-1.176703964775453 1:344 2:99 
-1.176797222367495 1:335 2:85 
-1.176530618314336 1:326 2:76 
-1.157859783899375 1:315 2:68 
-1.146034011437601 1:310 2:61 
-1.131638544579613 1:306 2:57 
-1.142957688017396 1:301 2:52 
-1.009785277850472 1:296 2:49 
-1.115606595224844 1:293 2:45 
-0.9860427386803832 1:284 2:43 
-0.2728215361846363 1:283 2:41 
-1.016519498712858 1:281 2:39 
-1.176740138494914 1:330 2:62 
-1.176937493049823 1:320 2:52 
-1.176737637447876 1:312 2:45 
-1.146311772153386 1:301 2:40 
-1.141222310812315 1:296 2:38 
-1.161725038990062 1:290 2:35 
-1.106683101158166 1:284 2:34 
-0.9880261311547855 1:280 2:31 
-1.033534322231293 1:276 2:31 
-0.9516962443452653 1:270 2:30 
-0.1654950245737518 1:268 2:29 
-0.9337187673169215 1:266 2:30 
-0.9629290704454185 1:261 2:28 
-0.5838513577889513 1:257 2:28 
-0.5455882987716986 1:258 2:26 
-0.0571806753567513 1:256 2:26 
-0.6838022755603851 1:254 2:26 
-0.8184060893241756 1:251 2:26 
-1.077588475742988 1:247 2:25 
-1.176234253337961 1:277 2:122 
-1.160256884456542 1:272 2:116 
-1.115527471503249 1:269 2:111 
-1.017651577010081 1:265 2:108 
-1.044219717064273 1:262 2:105 
-0.9472544876855516 1:260 2:100 
-0.6876820882731115 1:257 2:99 
-0.7267393234962122 1:254 2:98 
-0.6142716982229839 1:252 2:96 
-0.1518010522670664 1:251 2:95 
-0.8352631423058126 1:250 2:93 
-0.4163696071964054 1:246 2:91 
-0.7365916884619077 1:246 2:93 
-0.3079464998159205 1:244 2:89 
-0.3948498303507434 1:243 2:90 
-0.5150159064304585 1:241 2:88 
-0.5405822124641366 1:242 2:87 
-2 1:320 2:160 
-1.030280785828714 1:302 2:128 
-0.8840669710652829 1:292 2:118 
-0.7804725961362801 1:285 2:109 
-0.678323367383812 1:282 2:100 
-0.6224935748936755 1:276 2:95 
-0.4924062366411533 1:273 2:91 
-0.8276922219310145 1:267 2:86 
-0.8171918661272867 1:264 2:84 
-0.5336538371715926 1:261 2:82 
-0.7462033291827054 1:259 2:81 
-0.940235054145747 1:255 2:78 
-0.1499931142013479 1:253 2:79 
-0.7836867814893413 1:251 2:79 
-0.9649356680923038 1:249 2:76 
-0.605559207274185 1:245 2:73 
-0.6793702385350868 1:244 2:74 
-1.176823529585566 1:408 2:349 
-1.176780094572583 1:392 2:309 
-1.174658435311654 1:374 2:272 
-1.27292445075016 1:358 2:238 
-0.9271541655312669 1:345 2:210 
-2 1:336 2:186 
-2 1:326 2:165 
-1.284412719496406 1:318 2:149 
-0.6811439629759272 1:310 2:134 
-0.4095813915493381 1:302 2:123 
-0.4912729053562042 1:295 2:113 
-0.7018136729994926 1:290 2:105 
-0.7125473971604868 1:287 2:100 
-0.3616467823841104 1:281 2:95 
-0.9222849260257232 1:278 2:90 
-0.5885507379278487 1:272 2:85 
-0.5792275383534388 1:270 2:83 
-0.8246389811341436 1:267 2:80 
-0.7171116260009626 1:264 2:78 
-0.2609428335024316 1:262 2:76 
-0.9139111868261653 1:260 2:74 
-1.176772763670052 1:401 2:339 
-1.176763447931435 1:382 2:297 
-2 1:368 2:259 
-1.176683984354615 1:353 2:225 
-1.614224500392678 1:340 2:196 
-1.776685162662742 1:329 2:172 
-2 1:317 2:151 
-0.7367391476983445 1:310 2:136 
-0.8753129392387357 1:304 2:123 
-0.8019883885476962 1:297 2:114 
-0.7688699746170893 1:292 2:106 
-0.4679508635803249 1:287 2:101 
-0.7976845182763136 1:282 2:95 
-0.04349467734254026 1:276 2:91 
-0.641215255206975 1:275 2:89 
-0.3800221710268061 1:271 2:86 
-0.1388833044124414 1:268 2:83 
-0.05731424345207978 1:266 2:81 
-0.04342524623360735 1:264 2:79 
-0.1298006038955057 1:261 2:78 
-0.4026643300600957 1:260 2:77 
-1.252918520613552 1:401 2:360 
-1.177305896927978 1:382 2:315 
-1.174493513241823 1:367 2:273 
-1.120485068326125 1:354 2:239 
-0.9128877579493815 1:342 2:211 
-1.370125419475017 1:331 2:187 
-1.36622380104514 1:323 2:169 
-1.185123874170693 1:317 2:157 
-2 1:311 2:143 
-1.123237671051086 1:305 2:134 
-0.9606234897164085 1:299 2:125 
-1.006750293976803 1:296 2:119 
-0.5552799336886015 1:293 2:115 
-1.084972387207895 1:290 2:111 
-0.5763091453826765 1:285 2:107 
-0.9090464830745906 1:282 2:104 
-0.3228064441914489 1:281 2:101 
-0.9116654965206675 1:277 2:98 
-0.5842992739461086 1:273 2:95 
-0.7490775760039792 1:271 2:93 
