svm_type c_svc
kernel_type rbf
gamma 0.125
nr_class 2
total_sv 356
rho -0.223279
label 1 -1
nr_sv 187 169
SV
0.7768340510675039 1:482 2:650 
0.7764280212994314 1:443 2:612 
0.7444385737530171 1:409 2:573 
0.5866181095334947 1:380 2:533 
0.6837045997094191 1:354 2:491 
0.7481911296172773 1:329 2:446 
0.7628073786412094 1:309 2:404 
0.4119736251636356 1:290 2:364 
0.7762232577399218 1:274 2:328 
0.7730791221290176 1:264 2:300 
0.5061844707093565 1:252 2:273 
0.5967515126710258 1:244 2:251 
0.4018770194604313 1:234 2:232 
0.3927672722062494 1:227 2:215 
0.3892926369405909 1:222 2:202 
0.6947081416440029 1:216 2:192 
0.7756135138936794 1:212 2:183 
0.771490807184396 1:207 2:176 
0.7379595266579499 1:205 2:170 
0.7422837019728442 1:203 2:165 
0.7216982472987967 1:200 2:159 
0.7767935667472675 1:591 2:744 
0.747699589954009 1:542 2:712 
0.7768218027271019 1:502 2:682 
0.7739334635985954 1:462 2:647 
0.7441640172139854 1:430 2:613 
0.7712402901343045 1:398 2:571 
0.7768057134124895 1:368 2:527 
0.7766849174158236 1:344 2:484 
0.777194459899901 1:322 2:439 
0.7629473313114781 1:305 2:400 
0.4131269571393551 1:289 2:364 
0.7766503596934061 1:278 2:336 
0.7756602966118876 1:268 2:306 
0.776541633476089 1:257 2:283 
0.7769199087081728 1:250 2:264 
0.6013890912174717 1:243 2:248 
0.7306148139991275 1:237 2:235 
0.7439293493334794 1:232 2:223 
0.4377404558434817 1:228 2:214 
0.5874525867340256 1:225 2:207 
0.4672429816337769 1:221 2:200 
0.7676405323048604 1:889 2:858 
0.6168943183196588 1:882 2:852 
0.6443073595038649 1:884 2:855 
0.7488056077835824 1:878 2:849 
0.6259435695313859 1:872 2:845 
0.5191489503144127 1:869 2:844 
0.5403805791307479 1:865 2:839 
0.1360223137816994 1:864 2:839 
0.6229925426782743 1:865 2:843 
0.7378981613063216 1:860 2:838 
0.5038366137712617 1:854 2:834 
0.5068562063404183 1:852 2:835 
0.7181340952307683 1:845 2:829 
0.7178930754606632 1:841 2:827 
0.7767832005967704 1:832 2:820 
0.7448660609817814 1:825 2:816 
0.7197766105737233 1:821 2:813 
0.1869462963753827 1:816 2:813 
0.4120744906586933 1:816 2:814 
0.5977217812815998 1:813 2:813 
0.7768363258761575 1:804 2:807 
0.747590909856461 1:543 2:707 
0.7767887095241606 1:502 2:673 
0.7743301127339166 1:465 2:641 
0.7439406448566677 1:434 2:610 
0.738930515912012 1:404 2:573 
0.5862367235494702 1:377 2:533 
0.6838407626129945 1:350 2:491 
0.7479018234134532 1:330 2:451 
0.7767762320753165 1:312 2:414 
0.7768703566459524 1:297 2:380 
0.7768364683653922 1:283 2:348 
0.7768057799848426 1:272 2:319 
0.7739836058447152 1:261 2:294 
0.5057277592047882 1:253 2:275 
0.7706182003695583 1:245 2:257 
0.7729097007297151 1:239 2:243 
0.5562070342822829 1:233 2:230 
0.7239037863363479 1:228 2:220 
0.5562133754674641 1:225 2:210 
0.1456338943398933 1:221 2:202 
0.6847126327580252 1:217 2:196 
0.7771395094967137 1:467 2:627 
0.7767817618163718 1:428 2:586 
0.7767935667429521 1:393 2:539 
0.7766501600423052 1:362 2:489 
0.7765828360214457 1:335 2:438 
0.7766367927466477 1:315 2:393 
0.7771377835243443 1:294 2:350 
0.7766799054624978 1:277 2:311 
0.776484263148585 1:264 2:279 
0.7765754216620944 1:253 2:253 
0.7768434671628039 1:245 2:233 
0.7769059473316793 1:237 2:216 
0.7753948009224617 1:230 2:202 
0.7764916321952131 1:223 2:188 
0.7753151439359217 1:218 2:179 
0.7761743895897495 1:214 2:172 
0.750334483731447 1:209 2:166 
0.7655454254965107 1:207 2:160 
0.3949477796024555 1:201 2:155 
0.546084200006189 1:202 2:153 
0.7656780885493334 1:198 2:149 
0.7768363119617605 1:476 2:507 
0.7771980405445196 1:448 2:454 
0.7766984586707528 1:423 2:402 
0.8590637557289796 1:403 2:356 
0.7774273271539958 1:389 2:318 
0.7768293848628711 1:377 2:286 
1 1:366 2:258 
1 1:356 2:235 
0.7918950664458071 1:348 2:215 
1 1:340 2:199 
1 1:335 2:187 
0.7784172931496975 1:331 2:179 
1 1:327 2:170 
1 1:326 2:165 
1 1:322 2:160 
0.8993613891727861 1:321 2:157 
1 1:318 2:152 
1 1:316 2:147 
0.4185428236685151 1:314 2:144 
1 1:313 2:142 
0.7767208480016249 1:544 2:688 
0.776690236996285 1:511 2:654 
0.7767509595113032 1:457 2:584 
0.7768929341138721 1:434 2:546 
0.7761317979133262 1:415 2:507 
0.7716134144482729 1:397 2:466 
0.7708916534846978 1:381 2:429 
0.4116787660626186 1:368 2:393 
0.5056950995574299 1:356 2:361 
0.7769511956573787 1:347 2:334 
0.7766722349615534 1:340 2:309 
0.7769098385485401 1:335 2:287 
0.7768460470014908 1:327 2:267 
0.6961646834525452 1:323 2:252 
0.7621995838507166 1:318 2:236 
0.7074828592397086 1:313 2:224 
0.5797567572564927 1:311 2:214 
0.4842546145866928 1:306 2:204 
0.5502730461162586 1:304 2:198 
0.5859464525254736 1:303 2:191 
0.7766904221996831 1:609 2:729 
0.7766917284436476 1:575 2:704 
0.7768419846704377 1:542 2:673 
0.7770962449695576 1:512 2:643 
0.7767277900791638 1:485 2:609 
0.7767145616539757 1:459 2:572 
0.7766377563406064 1:441 2:539 
0.7766967366068595 1:420 2:500 
0.7714032056485842 1:403 2:464 
0.7755966599341093 1:389 2:431 
0.7770208326463521 1:377 2:397 
0.7770964022455739 1:366 2:367 
0.7767990099658418 1:356 2:340 
0.777113712231664 1:349 2:316 
0.7738050800764953 1:341 2:293 
0.74815467095328 1:335 2:275 
0.7586268524316907 1:329 2:258 
0.7479326553358917 1:324 2:243 
0.7618758153822178 1:319 2:230 
0.5625897337367013 1:314 2:219 
0.5650342336480368 1:312 2:210 
0.7767995397720278 1:519 2:665 
0.7768730181800914 1:481 2:620 
0.7766418192657958 1:450 2:576 
0.7771395095075064 1:425 2:528 
0.7768600999802197 1:401 2:480 
0.7705223560983292 1:383 2:435 
0.4132935782951442 1:369 2:393 
0.5062945148336349 1:357 2:359 
0.7768597203071017 1:347 2:325 
0.7742583620980763 1:338 2:299 
0.7476775023771182 1:330 2:276 
0.6732270031775136 1:324 2:256 
0.7404492032937486 1:319 2:242 
0.7379359168476061 1:313 2:229 
0.54942968874584 1:311 2:219 
0.4937147438612652 1:309 2:211 
0.4745560413086048 1:306 2:206 
0.3230654416325945 1:302 2:198 
0.595630049541223 1:300 2:195 
0.5024147642883456 1:300 2:191 
0.7749293317940762 1:297 2:185 
-1 1:537 2:486 
-1 1:507 2:440 
-1 1:482 2:395 
-1 1:460 2:351 
-1 1:436 2:303 
-1 1:415 2:259 
-1 1:396 2:218 
-1 1:378 2:185 
-1 1:367 2:158 
-1 1:355 2:134 
-1 1:344 2:115 
-1 1:335 2:101 
-1 1:327 2:90 
-1 1:318 2:80 
-1 1:312 2:73 
-1 1:308 2:67 
-1 1:303 2:62 
-1 1:300 2:59 
-1 1:296 2:55 
-0.8131154984631771 1:293 2:52 
-1 1:290 2:50 
-1 1:497 2:393 
-1 1:473 2:347 
-1 1:450 2:301 
-1 1:431 2:259 
-1 1:412 2:220 
-1 1:395 2:186 
-1 1:378 2:157 
-1 1:365 2:133 
-1 1:355 2:114 
-1 1:344 2:99 
-1 1:335 2:85 
-1 1:326 2:76 
-1 1:315 2:68 
-1 1:310 2:61 
-1 1:306 2:57 
-1 1:301 2:52 
-1 1:296 2:49 
-1 1:293 2:45 
-1 1:284 2:43 
-0.317901153330223 1:283 2:41 
-1 1:281 2:39 
-0.2238036425146497 1:330 2:62 
-0.2233966774547435 1:320 2:52 
-0.2230672412404741 1:312 2:45 
-0.1914985485201752 1:301 2:40 
-0.1865788410541945 1:296 2:38 
-0.2075698836255404 1:290 2:35 
-0.1509111130620101 1:284 2:34 
-0.02946128436409925 1:280 2:31 
-0.08742236160184447 1:276 2:31 
-0.0009259501750011473 1:261 2:28 
-0.1288723809041129 1:247 2:25 
-0.9994985165342779 1:330 2:62 
-1 1:320 2:52 
-1 1:312 2:45 
-1 1:301 2:40 
-1 1:296 2:38 
-1 1:290 2:35 
-1 1:284 2:34 
-0.9973832468442226 1:280 2:31 
-0.9870578232910561 1:276 2:31 
-0.9887263331993631 1:270 2:30 
-0.1730749713353069 1:268 2:29 
-0.9701939506988718 1:266 2:30 
-1 1:261 2:28 
-0.6064455458086198 1:257 2:28 
-0.5672487655022541 1:258 2:26 
-0.05974644912489283 1:256 2:26 
-0.7109498111092484 1:254 2:26 
-0.8509114295918804 1:251 2:26 
-0.9913395569328021 1:247 2:25 
-1 1:277 2:122 
-1 1:272 2:116 
-1 1:269 2:111 
-1 1:265 2:108 
-1 1:262 2:105 
-0.9872570662611079 1:260 2:100 
-0.7137943115834819 1:257 2:99 
-0.7560160474592519 1:254 2:98 
-0.6364364143434807 1:252 2:96 
-0.1596704701606055 1:251 2:95 
-0.868203667004308 1:250 2:93 
-0.4330721549922271 1:246 2:91 
-0.7650848518435329 1:246 2:93 
-0.319337911301743 1:244 2:89 
-0.4118128250258956 1:243 2:90 
-0.5329975584833676 1:241 2:88 
-0.5641516658138752 1:242 2:87 
-1 1:320 2:160 
-0.6772410103294175 1:310 2:143 
-1 1:302 2:128 
-0.9233225994882776 1:292 2:118 
-0.8159950627710664 1:285 2:109 
-0.7067455186040217 1:282 2:100 
-0.6470084397248808 1:276 2:95 
-0.512298190799136 1:273 2:91 
-0.8606228260391262 1:267 2:86 
-0.849426202678875 1:264 2:84 
-0.5545379677020438 1:261 2:82 
-0.7758760453247582 1:259 2:81 
-0.9774781928718808 1:255 2:78 
-0.1550949751477639 1:253 2:79 
-0.8156488644531721 1:251 2:79 
-1 1:249 2:76 
-0.6291755013332312 1:245 2:73 
-0.7066140289414207 1:244 2:74 
-1 1:408 2:349 
-1 1:392 2:309 
-1 1:374 2:272 
-1 1:358 2:238 
-0.9627984388784383 1:345 2:210 
-1 1:336 2:186 
-1 1:326 2:165 
-1 1:318 2:149 
-0.7171636856420737 1:310 2:134 
-0.4296969684870725 1:302 2:123 
-0.5123400683212749 1:295 2:113 
-0.7296147340836049 1:290 2:105 
-0.7387184122245116 1:287 2:100 
-0.3756234579737875 1:281 2:95 
-0.9584136946473764 1:278 2:90 
-0.6120589566150914 1:272 2:85 
-0.6028014029711063 1:270 2:83 
-0.8559318147631587 1:267 2:80 
-0.7470638283861303 1:264 2:78 
-0.2706071901735169 1:262 2:76 
-0.9503688516426626 1:260 2:74 
-1 1:401 2:339 
-1 1:382 2:297 
-1 1:368 2:259 
-1 1:353 2:225 
-1 1:340 2:196 
-1 1:329 2:172 
-1 1:317 2:151 
-0.7623824336293258 1:310 2:136 
-0.9088888917898388 1:304 2:123 
-0.834486482158982 1:297 2:114 
-0.802732920909612 1:292 2:106 
-0.4885599771717645 1:287 2:101 
-0.8296520711152958 1:282 2:95 
-0.04543018172246609 1:276 2:91 
-0.6665434810964359 1:275 2:89 
-0.3948957815056154 1:271 2:86 
-0.1440914653605362 1:268 2:83 
-0.06067734955957902 1:266 2:81 
-0.04418396839000495 1:264 2:79 
-0.1345275467348814 1:261 2:78 
-0.4190242334482596 1:260 2:77 
-1 1:401 2:360 
-1 1:382 2:315 
-1 1:367 2:273 
-1 1:354 2:239 
-0.9486948089973769 1:342 2:211 
-1 1:331 2:187 
-1 1:323 2:169 
-1 1:317 2:157 
-1 1:311 2:143 
-1 1:305 2:134 
-1 1:299 2:125 
-1 1:296 2:119 
-0.5827376666884384 1:293 2:115 
-1 1:290 2:111 
-0.5964902340473215 1:285 2:107 
-0.9455257541234573 1:282 2:104 
-0.3344617771456448 1:281 2:101 
-0.9478286538106345 1:277 2:98 
-0.6076868817144226 1:273 2:95 
-0.7779591423091702 1:271 2:93 
