svm_type c_svc
kernel_type rbf
gamma 0.25
nr_class 2
total_sv 361
rho -0.181443
label 1 -1
nr_sv 188 173
SV
0.8186358206044021 1:482 2:650 
0.8187822526371776 1:443 2:612 
0.8167391524522336 1:409 2:573 
0.7409085391247262 1:380 2:533 
0.8037204131656809 1:354 2:491 
0.817457428323215 1:329 2:446 
0.8186749396975943 1:309 2:404 
0.4597891025641313 1:290 2:364 
0.8187064859219629 1:274 2:328 
0.8183315029767468 1:264 2:300 
0.6360470064085224 1:252 2:273 
0.7560674693658771 1:244 2:251 
0.6263980332833442 1:234 2:232 
0.5083686283721482 1:227 2:215 
0.4607216492323523 1:222 2:202 
0.8070949725704837 1:216 2:192 
0.8185909051862492 1:212 2:183 
0.8188047686349129 1:207 2:176 
0.8176300389337184 1:205 2:170 
0.8174447554056814 1:203 2:165 
0.8090383196315907 1:200 2:159 
0.8186267004022468 1:591 2:744 
0.8174844525426997 1:542 2:712 
0.818758733929781 1:502 2:682 
0.8183591777335659 1:462 2:647 
0.8166476537216365 1:430 2:613 
0.8181707813274239 1:398 2:571 
0.8184803028687501 1:368 2:527 
0.8188261956059888 1:344 2:484 
0.8188941866052482 1:322 2:439 
0.8185122400114936 1:305 2:400 
0.4604669596322165 1:289 2:364 
0.8188439402013215 1:278 2:336 
0.8189175758525701 1:268 2:306 
0.8181088502777097 1:257 2:283 
0.8179953153141351 1:250 2:264 
0.756398355352805 1:243 2:248 
0.8114173238001551 1:237 2:235 
0.8173580416157389 1:232 2:223 
0.5089350045279509 1:228 2:214 
0.7403331097695764 1:225 2:207 
0.5980696735121268 1:221 2:200 
0.8184034781522064 1:889 2:858 
0.7866542905601798 1:882 2:852 
0.7882973091359627 1:884 2:855 
0.8172385334020318 1:878 2:849 
0.7573368245420943 1:872 2:845 
0.7454194030942443 1:869 2:844 
0.4662456522213581 1:865 2:839 
0.4324770266818908 1:864 2:839 
0.7931430672969032 1:865 2:843 
0.8120829794497619 1:860 2:838 
0.6362512561574312 1:854 2:834 
0.6362537981474545 1:852 2:835 
0.8132247719950056 1:845 2:829 
0.8125856999405683 1:841 2:827 
0.818839169597001 1:832 2:820 
0.8168769410566041 1:825 2:816 
0.8152316544547662 1:821 2:813 
0.3795671259062977 1:816 2:813 
0.4610133141135638 1:816 2:814 
0.7410849987389533 1:813 2:813 
0.8181990145657807 1:804 2:807 
0.8172816164883836 1:543 2:707 
0.818948807617124 1:502 2:673 
0.8188459474117489 1:465 2:641 
0.8172133751328325 1:434 2:610 
0.8171020484328542 1:404 2:573 
0.7403725616529118 1:377 2:533 
0.8037874865286734 1:350 2:491 
0.8174800545528741 1:330 2:451 
0.8186971488727276 1:312 2:414 
0.8185428998377166 1:297 2:380 
0.8186405117469031 1:283 2:348 
0.8181539835771898 1:272 2:319 
0.8187015204024326 1:261 2:294 
0.6365511267829871 1:253 2:275 
0.8186861820256952 1:245 2:257 
0.8189434216845067 1:239 2:243 
0.6389529117969956 1:233 2:230 
0.8160768470642721 1:228 2:220 
0.7394328834674171 1:225 2:210 
0.2395957189951896 1:221 2:202 
0.8071880477332329 1:217 2:196 
0.8189373291833124 1:467 2:627 
0.8189348501531064 1:428 2:586 
0.8185833526496171 1:393 2:539 
0.8183986033773388 1:362 2:489 
0.8188559455911941 1:335 2:438 
0.8187585004936233 1:315 2:393 
0.8189023608751969 1:294 2:350 
0.8186999315702266 1:277 2:311 
0.8180270960395778 1:264 2:279 
0.8188348365094058 1:253 2:253 
0.8184422951694252 1:245 2:233 
0.8187753316045828 1:237 2:216 
0.818914783289715 1:230 2:202 
0.8189385479071244 1:223 2:188 
0.8184958305287756 1:218 2:179 
0.8185821366856832 1:214 2:172 
0.8184492097517235 1:209 2:166 
0.8189007410893629 1:207 2:160 
0.6237863693702619 1:201 2:155 
0.6395806563575736 1:202 2:153 
0.8185015993766362 1:198 2:149 
0.8183422729216301 1:476 2:507 
0.8181539842341676 1:448 2:454 
0.8182984979617448 1:423 2:402 
0.8252204648155668 1:403 2:356 
0.81868075566986 1:389 2:318 
0.8188024501887003 1:377 2:286 
1 1:366 2:258 
0.8640709749768291 1:356 2:235 
0.8186814521221298 1:348 2:215 
0.9241780266179208 1:340 2:199 
1 1:335 2:187 
0.8185457903769615 1:331 2:179 
0.9677578709111246 1:327 2:170 
1 1:326 2:165 
1 1:322 2:160 
0.8366655170587899 1:321 2:157 
1 1:318 2:152 
0.8595296327518116 1:316 2:147 
0.1088231561128716 1:316 2:146 
0.5787238122883557 1:314 2:144 
0.9794019366493099 1:313 2:142 
0.818036441650605 1:544 2:688 
0.818205229408572 1:511 2:654 
0.818894186623546 1:457 2:584 
0.8187850751487203 1:434 2:546 
0.8186743647331917 1:415 2:507 
0.8179547964337694 1:397 2:466 
0.818819432828317 1:381 2:429 
0.4606801948736549 1:368 2:393 
0.6361527097263081 1:356 2:361 
0.818087405034352 1:347 2:334 
0.8188419423241334 1:340 2:309 
0.8187131732680499 1:335 2:287 
0.8183422722840898 1:327 2:267 
0.8074523923693746 1:323 2:252 
0.818340078044041 1:318 2:236 
0.8154920676550995 1:313 2:224 
0.7783986135035419 1:311 2:214 
0.5983394107026917 1:306 2:204 
0.6095106148631435 1:304 2:198 
0.7405570882778612 1:303 2:191 
0.8184825123701925 1:609 2:729 
0.8180874063382374 1:575 2:704 
0.8181686868126239 1:542 2:673 
0.8186449238305744 1:512 2:643 
0.81877880543605 1:485 2:609 
0.8187242685370435 1:459 2:572 
0.8181431082766222 1:441 2:539 
0.8189488013578802 1:420 2:500 
0.818396660145487 1:403 2:464 
0.8187986618626508 1:389 2:431 
0.8187850742062723 1:377 2:397 
0.818392441569522 1:366 2:367 
0.81863582060424 1:356 2:340 
0.8186266999181283 1:349 2:316 
0.8185171545236136 1:341 2:293 
0.8175527287101967 1:335 2:275 
0.8174183811834292 1:329 2:258 
0.8173510121660157 1:324 2:243 
0.8185017339323677 1:319 2:230 
0.7395437317312884 1:314 2:219 
0.7477495215294813 1:312 2:210 
0.8187900800149084 1:519 2:665 
0.8187887372567351 1:481 2:620 
0.8186673227090761 1:450 2:576 
0.8184763697599928 1:425 2:528 
0.8185476905793637 1:401 2:480 
0.8189042076485452 1:383 2:435 
0.459773341002394 1:369 2:393 
0.6362230281174073 1:357 2:359 
0.8188005449579131 1:347 2:325 
0.8184718656697574 1:338 2:299 
0.8174081094559457 1:330 2:276 
0.8066771397457753 1:324 2:256 
0.8167604422793914 1:319 2:242 
0.8168234245766801 1:313 2:229 
0.7388293676653152 1:311 2:219 
0.7269069475913844 1:309 2:211 
0.5984148931079311 1:306 2:206 
0.5640745366999055 1:302 2:198 
0.7803515756549328 1:300 2:195 
0.7261857406052058 1:300 2:191 
0.8188344730090902 1:297 2:185 
-1 1:537 2:486 
-1 1:507 2:440 
-1 1:482 2:395 
-1 1:460 2:351 
-1 1:436 2:303 
-1 1:415 2:259 
-1 1:396 2:218 
-1 1:378 2:185 
-1 1:367 2:158 
-1 1:355 2:134 
-1 1:344 2:115 
-1 1:335 2:101 
-1 1:327 2:90 
-1 1:318 2:80 
-1 1:312 2:73 
-1 1:308 2:67 
-1 1:303 2:62 
-1 1:300 2:59 
-1 1:296 2:55 
-1 1:293 2:52 
-1 1:290 2:50 
-1 1:497 2:393 
-1 1:473 2:347 
-1 1:450 2:301 
-1 1:431 2:259 
-1 1:412 2:220 
-1 1:395 2:186 
-1 1:378 2:157 
-1 1:365 2:133 
-1 1:355 2:114 
-1 1:344 2:99 
-1 1:335 2:85 
-1 1:326 2:76 
-1 1:315 2:68 
-1 1:310 2:61 
-1 1:306 2:57 
-1 1:301 2:52 
-1 1:296 2:49 
-1 1:293 2:45 
-0.9584996262817029 1:284 2:43 
-0.77144787371068 1:283 2:41 
-1 1:281 2:39 
-0.2234284535941912 1:330 2:62 
-0.1975877490608897 1:320 2:52 
-0.1956297736047398 1:312 2:45 
-0.1806737099234269 1:301 2:40 
-0.1802478297555472 1:296 2:38 
-0.1820681377429478 1:290 2:35 
-0.178686135818255 1:284 2:34 
-0.1597374163313769 1:280 2:31 
-0.1603690977414152 1:276 2:31 
-0.1384190863979212 1:261 2:28 
-0.9576342172224963 1:330 2:62 
-0.9835110746255925 1:320 2:52 
-0.9858814216533387 1:312 2:45 
-1 1:301 2:40 
-1 1:296 2:38 
-0.9989357484352798 1:290 2:35 
-1 1:284 2:34 
-0.998157007088464 1:280 2:31 
-1 1:276 2:31 
-0.9868611946214919 1:270 2:30 
-0.6160236603837757 1:268 2:29 
-0.9859234063136871 1:266 2:30 
-0.9977535611590505 1:261 2:28 
-0.810112730120581 1:257 2:28 
-0.7640132042276792 1:258 2:26 
-0.3418937965471418 1:256 2:26 
-0.874242215884138 1:254 2:26 
-0.09328909432158822 1:252 2:26 
-0.9652692637416437 1:251 2:26 
-0.4867574115792239 1:248 2:25 
-0.7881755503155455 1:247 2:25 
-1 1:277 2:122 
-1 1:272 2:116 
-1 1:269 2:111 
-1 1:265 2:108 
-1 1:262 2:105 
-1 1:260 2:100 
-1 1:257 2:99 
-0.9941944189077401 1:254 2:98 
-0.7425814457643031 1:252 2:96 
-0.4400336001691365 1:251 2:95 
-0.9646726706078029 1:250 2:93 
-0.4491701160492831 1:247 2:93 
-0.7208537847027057 1:246 2:91 
-0.5378656590515998 1:246 2:93 
-0.5474862027955907 1:244 2:89 
-0.6413625926774178 1:243 2:90 
-0.6492281474087557 1:241 2:88 
-0.6605991182946268 1:242 2:87 
-1 1:320 2:160 
-0.4909809459264946 1:310 2:143 
-1 1:302 2:128 
-1 1:292 2:118 
-0.8682267624121309 1:285 2:109 
-0.7786758297606532 1:282 2:100 
-0.9064121024502093 1:276 2:95 
-0.863288608748692 1:273 2:91 
-1 1:267 2:86 
-1 1:264 2:84 
-0.8659000921530245 1:261 2:82 
-0.9038933645809029 1:259 2:81 
-1 1:255 2:78 
-0.5528681040911291 1:253 2:79 
-0.9253268629370062 1:251 2:79 
-1 1:249 2:76 
-0.1233245750654586 1:245 2:74 
-0.6730868500979713 1:245 2:73 
-0.6769240722181223 1:244 2:74 
-1 1:408 2:349 
-1 1:392 2:309 
-1 1:374 2:272 
-1 1:358 2:238 
-1 1:345 2:210 
-1 1:336 2:186 
-1 1:326 2:165 
-1 1:318 2:149 
-0.8617142516366609 1:310 2:134 
-0.8170840589798896 1:302 2:123 
-0.7781138200576069 1:295 2:113 
-0.9159936437942057 1:290 2:105 
-0.6663625567908833 1:287 2:100 
-0.6549254375700408 1:281 2:95 
-0.9503429621935172 1:278 2:90 
-0.6454635395168419 1:272 2:85 
-0.7710166505674501 1:270 2:83 
-0.7504077351351242 1:267 2:80 
-0.5776764797669739 1:264 2:78 
-0.6457290960540509 1:262 2:76 
-1 1:260 2:74 
-1 1:401 2:339 
-1 1:382 2:297 
-1 1:368 2:259 
-1 1:353 2:225 
-1 1:340 2:196 
-1 1:329 2:172 
-1 1:317 2:151 
-0.8640678214207823 1:310 2:136 
-0.879432393946133 1:304 2:123 
-0.9431514408084669 1:297 2:114 
-0.9185785849525127 1:292 2:106 
-0.6597041754556303 1:287 2:101 
-0.6699229203476984 1:282 2:95 
-0.5632635676716555 1:276 2:91 
-0.8225305543153071 1:275 2:89 
-0.6991676034723683 1:271 2:86 
-0.6599194253029725 1:268 2:83 
-0.4969701952228265 1:266 2:81 
-0.5220672017218286 1:264 2:79 
-0.480120377046293 1:261 2:78 
-0.5727535338254791 1:260 2:77 
-1 1:401 2:360 
-1 1:382 2:315 
-1 1:367 2:273 
-1 1:354 2:239 
-1 1:342 2:211 
-1 1:331 2:187 
-1 1:323 2:169 
-1 1:317 2:157 
-1 1:311 2:143 
-1 1:305 2:134 
-1 1:299 2:125 
-1 1:296 2:119 
-0.9766724390728464 1:293 2:115 
-1 1:290 2:111 
-0.8502448767655874 1:285 2:107 
-1 1:282 2:104 
-0.6253510437834833 1:281 2:101 
-0.9658340013105831 1:277 2:98 
-0.2254365050917828 1:276 2:97 
-0.931492415881211 1:273 2:95 
-0.9368938516932258 1:271 2:93 
