svm_type c_svc
kernel_type rbf
gamma 1
nr_class 2
total_sv 354
rho -0.0829127
label 1 -1
nr_sv 188 166
SV
0.9168844470624955 1:482 2:650 
0.9172408543154291 1:443 2:612 
0.9171389201762326 1:409 2:573 
0.9172174189702094 1:380 2:533 
0.9172519727254663 1:354 2:491 
0.9171934002770088 1:329 2:446 
0.9170797378246648 1:309 2:404 
0.6704567255048693 1:290 2:364 
0.9173350809289912 1:274 2:328 
0.9170923235186945 1:264 2:300 
0.9109110565677653 1:252 2:273 
0.9172848432001155 1:244 2:251 
0.9110755765186667 1:234 2:232 
0.8078989531029772 1:227 2:215 
0.6704916960109651 1:222 2:202 
0.9168458940103689 1:216 2:192 
0.9171254874898367 1:212 2:183 
0.9172216088676449 1:207 2:176 
0.917265983117215 1:205 2:170 
0.9172480459921846 1:203 2:165 
0.9166573257265104 1:200 2:159 
0.9172672721579684 1:591 2:744 
0.9172408543107482 1:542 2:712 
0.9171985817970869 1:502 2:682 
0.9166925328769392 1:462 2:647 
0.9171030774427162 1:430 2:613 
0.9172141908841398 1:398 2:571 
0.9173097796969526 1:368 2:527 
0.9170594954137268 1:344 2:484 
0.9170836174267848 1:322 2:439 
0.9172495898191626 1:305 2:400 
0.6703752060188342 1:289 2:364 
0.9172335883530617 1:278 2:336 
0.9172475011993987 1:268 2:306 
0.9169991646983329 1:257 2:283 
0.9169359731300887 1:250 2:264 
0.9170150925159699 1:243 2:248 
0.9169910173201525 1:237 2:235 
0.9172436982515765 1:232 2:223 
0.8080775603293093 1:228 2:214 
0.9171514686632117 1:225 2:207 
0.9007385302722577 1:221 2:200 
0.9170705064088074 1:889 2:858 
0.9164894516425831 1:882 2:852 
0.9170587041896713 1:884 2:855 
0.9169646588312717 1:878 2:849 
0.9171203779126138 1:872 2:845 
0.9172043485993117 1:869 2:844 
0.6703718871949821 1:865 2:839 
0.6704838679576218 1:864 2:839 
0.9170705796577209 1:865 2:843 
0.9170016478180715 1:860 2:838 
0.9108069869027746 1:854 2:834 
0.9111131417341711 1:852 2:835 
0.9170016210918207 1:845 2:829 
0.9170450797691178 1:841 2:827 
0.9164915362684397 1:832 2:820 
0.9172303446182747 1:825 2:816 
0.9172436982388731 1:821 2:813 
0.670126237156585 1:816 2:813 
0.6704720728155165 1:816 2:814 
0.9168886123215984 1:813 2:813 
0.9172141908841398 1:804 2:807 
0.9171030775692115 1:543 2:707 
0.9170472889956357 1:502 2:673 
0.9170389742384676 1:465 2:641 
0.9170735622182707 1:434 2:610 
0.9173335525781189 1:404 2:573 
0.9171272591042097 1:377 2:533 
0.9169353025331569 1:350 2:491 
0.9170739877993517 1:330 2:451 
0.9166046714630776 1:312 2:414 
0.9172520759129418 1:297 2:380 
0.9165087991627827 1:283 2:348 
0.9165194364893116 1:272 2:319 
0.9171380277524093 1:261 2:294 
0.9111307990729717 1:253 2:275 
0.9171619232558731 1:245 2:257 
0.9172691409687795 1:239 2:243 
0.9109054661983489 1:233 2:230 
0.917066029731449 1:228 2:220 
0.9171812728704991 1:225 2:210 
0.653709970204567 1:221 2:202 
0.9170794463638466 1:217 2:196 
0.9172127657177739 1:467 2:627 
0.9165087991627827 1:428 2:586 
0.9172949335407401 1:393 2:539 
0.9173333359209005 1:362 2:489 
0.91734882586169 1:335 2:438 
0.9172519983096901 1:315 2:393 
0.9170796121320395 1:294 2:350 
0.9170705064088088 1:277 2:311 
0.9170767887940801 1:264 2:279 
0.9170637652887056 1:253 2:253 
0.9170653798056866 1:245 2:233 
0.9172127925576088 1:237 2:216 
0.9172661468499186 1:230 2:202 
0.9172408544888254 1:223 2:188 
0.9171928873771631 1:218 2:179 
0.9171960790473025 1:214 2:172 
0.9173071436915147 1:209 2:166 
0.917308713670815 1:207 2:160 
0.9109027396686564 1:201 2:155 
0.9110696668497881 1:202 2:153 
0.9173307696593084 1:198 2:149 
0.9172229382340695 1:476 2:507 
0.9171577472215314 1:448 2:454 
0.917247443105956 1:423 2:402 
0.9173187873331609 1:403 2:356 
0.917079097392717 1:389 2:318 
0.9170664757720437 1:377 2:286 
0.9243391933521014 1:366 2:258 
0.9172628084919963 1:356 2:235 
0.9170318027995676 1:348 2:215 
0.9174407066488038 1:340 2:199 
1.08360680635504 1:335 2:187 
0.9170945857241949 1:331 2:179 
0.9175016315010623 1:327 2:170 
2 1:326 2:165 
0.9371875646366238 1:322 2:160 
0.9173407579633474 1:321 2:157 
1.082960158236787 1:318 2:152 
0.6710366261201269 1:316 2:147 
0.6697737116084185 1:316 2:146 
0.9106073476366525 1:314 2:144 
0.9164860375731227 1:313 2:142 
0.9173339395341557 1:544 2:688 
0.917207423895945 1:511 2:654 
0.9172416900800746 1:457 2:584 
0.9171960790473025 1:434 2:546 
0.9165087804849297 1:415 2:507 
0.9165194571616766 1:397 2:466 
0.9173110367851162 1:381 2:429 
0.6696778790269983 1:368 2:393 
0.9109090514224789 1:356 2:361 
0.9172563299031039 1:347 2:334 
0.9172216088676449 1:340 2:309 
0.9172944583628448 1:335 2:287 
0.917261155987562 1:327 2:267 
0.9170653418359277 1:323 2:252 
0.9173251829513659 1:318 2:236 
0.9170503776521359 1:313 2:224 
0.9168419933352245 1:311 2:214 
0.9007087449986697 1:306 2:204 
0.9007869158222741 1:304 2:198 
0.9164716541784778 1:303 2:191 
0.9165077279026566 1:609 2:729 
0.9170393173827222 1:575 2:704 
0.9169065192938657 1:542 2:673 
0.916505833848835 1:512 2:643 
0.9165193114022857 1:485 2:609 
0.9173222863879109 1:459 2:572 
0.9173276466948985 1:441 2:539 
0.9171928873771631 1:420 2:500 
0.9173071436915264 1:403 2:464 
0.9172303005947308 1:389 2:431 
0.9171580193895394 1:377 2:397 
0.9165194364893117 1:366 2:367 
0.9170836966277865 1:356 2:340 
0.9170016755791116 1:349 2:316 
0.9172290317122099 1:341 2:293 
0.9172704432514122 1:335 2:275 
0.9172127925573601 1:329 2:258 
0.9172519983049898 1:324 2:243 
0.9171030774554523 1:319 2:230 
0.917118725600973 1:314 2:219 
0.9170351097517057 1:312 2:210 
0.9172320891490849 1:519 2:665 
0.917064134960234 1:481 2:620 
0.9170836174267848 1:450 2:576 
0.9173236387399167 1:425 2:528 
0.9165194364893117 1:401 2:480 
0.9170594954137268 1:383 2:435 
0.6709723747342564 1:369 2:393 
0.9111119329103924 1:357 2:359 
0.9172141908841398 1:347 2:325 
0.9170016229819916 1:338 2:299 
0.9165055215358847 1:330 2:276 
0.9171577096296508 1:324 2:256 
0.9171380278016953 1:319 2:242 
0.9171030775611695 1:313 2:229 
0.9171348645393489 1:311 2:219 
0.9172059251606089 1:309 2:211 
0.9007895339726372 1:306 2:206 
0.900701427856463 1:302 2:198 
0.9170668674753977 1:300 2:195 
0.916757405148535 1:300 2:191 
0.9169373757858403 1:297 2:185 
-1.082933276849557 1:537 2:486 
-1.082866608248693 1:507 2:440 
-1.082968197200434 1:482 2:395 
-1.083155890756795 1:460 2:351 
-1.082931574828091 1:436 2:303 
-1.083000835301667 1:415 2:259 
-1.082935744277004 1:396 2:218 
-1.083494166151165 1:378 2:185 
-1.082801418202913 1:367 2:158 
-1.082786776763848 1:355 2:134 
-1.082758309919925 1:344 2:115 
-1.08275677823597 1:335 2:101 
-1.08284976210769 1:327 2:90 
-1.082666218233192 1:318 2:80 
-1.082672791402633 1:312 2:73 
-1.082784897336282 1:308 2:67 
-1.083154045123498 1:303 2:62 
-1.082666201702818 1:300 2:59 
-1.083120661406118 1:296 2:55 
-1.082923974554915 1:293 2:52 
-1.082998408317784 1:290 2:50 
-1.082729556743905 1:497 2:393 
-1.082674817048634 1:473 2:347 
-1.082666218199245 1:450 2:301 
-1.082953932771431 1:431 2:259 
-1.083093480706134 1:412 2:220 
-1.08349121951507 1:395 2:186 
-1.082861972193618 1:378 2:157 
-1.082788833647709 1:365 2:133 
-1.082784897336282 1:355 2:114 
-1.082838076744127 1:344 2:99 
-1.082930993449956 1:335 2:85 
-1.083000856082725 1:326 2:76 
-1.082997930043152 1:315 2:68 
-1.082770968287776 1:310 2:61 
-1.082645136697654 1:306 2:57 
-1.083494166151161 1:301 2:52 
-1.082792559596107 1:296 2:49 
-1.082736185211547 1:293 2:45 
-1.075428489208551 1:284 2:43 
-1.075084752568628 1:283 2:41 
-1.082396264507975 1:281 2:39 
-1.08306262421416 1:330 2:62 
-1.082787234282226 1:320 2:52 
-1.082787207442391 1:312 2:45 
-1.082679720643654 1:301 2:40 
-1.083157917104515 1:296 2:38 
-1.082645136697669 1:290 2:35 
-1.082752498785564 1:284 2:34 
-1.082645529952407 1:280 2:31 
-1.082920383060474 1:276 2:31 
-1.075654833108035 1:270 2:30 
-1.068183325655688 1:268 2:29 
-1.07550307300157 1:266 2:30 
-1.083151577542162 1:261 2:28 
-1.068666553115646 1:257 2:28 
-1.057300981133146 1:258 2:26 
-1.037146382245805 1:256 2:26 
-1.049595021205626 1:254 2:26 
-0.769556027510312 1:252 2:26 
-0.7996654922723483 1:251 2:26 
-0.7918133027173236 1:248 2:25 
-0.7916374035023119 1:247 2:25 
-1.083410422171413 1:277 2:122 
-1.082743670096894 1:272 2:116 
-1.083413096998783 1:269 2:111 
-1.082666765794756 1:265 2:108 
-1.083410405587937 1:262 2:105 
-1.082642100841788 1:260 2:100 
-1.083382420897688 1:257 2:99 
-1.082370051199941 1:254 2:98 
-0.954462073931052 1:252 2:96 
-0.946337701798357 1:251 2:95 
-1.076930151600572 1:250 2:93 
-0.7916671086946406 1:247 2:93 
-1.059592007590284 1:246 2:91 
-0.77194147610634 1:246 2:93 
-0.7905418025220353 1:244 2:89 
-0.7907800616092941 1:243 2:90 
-0.4935968295437269 1:244 2:90 
-0.4865289611337649 1:242 2:88 
-0.7962275988562981 1:241 2:88 
-0.7959171184726714 1:242 2:87 
-1.099952042529314 1:320 2:160 
-0.7890467011855568 1:310 2:143 
-1.082734000371126 1:302 2:128 
-1.083368076228061 1:292 2:118 
-1.063324829274364 1:285 2:109 
-0.9535659901532284 1:282 2:100 
-1.065381413037407 1:276 2:95 
-1.082051920575765 1:273 2:91 
-1.083256738360595 1:267 2:86 
-1.082924200313161 1:264 2:84 
-1.075406919896665 1:261 2:82 
-1.075424577586321 1:259 2:81 
-0.8398403822923827 1:255 2:78 
-0.6427973140431823 1:254 2:78 
-0.9707951660518108 1:253 2:79 
-1.065035782500604 1:251 2:79 
-1.082958243589448 1:249 2:76 
-0.5002515561191393 1:245 2:74 
-0.7916235697689423 1:245 2:73 
-0.7921060249474527 1:244 2:74 
-1.082933970251684 1:408 2:349 
-1.08293999200206 1:392 2:309 
-1.082783153745454 1:374 2:272 
-1.083496202643722 1:358 2:238 
-1.083015252701178 1:345 2:210 
-1.229648081362885 1:336 2:186 
-2 1:326 2:165 
-1.075357350933365 1:318 2:149 
-1.063325442868493 1:310 2:134 
-1.063320084295109 1:302 2:123 
-1.075049510112376 1:295 2:113 
-1.076260418770115 1:290 2:105 
-0.7916224029440382 1:287 2:100 
-0.7918938171167867 1:281 2:95 
-1.075500545403583 1:278 2:90 
-0.9532122603298312 1:272 2:85 
-1.063123673603979 1:270 2:83 
-0.9535629905622927 1:267 2:80 
-0.7912356841449502 1:264 2:78 
-1.069970901911198 1:262 2:76 
-1.082522064008369 1:260 2:74 
-1.082855729128625 1:401 2:339 
-1.082792063505792 1:382 2:297 
-1.088913664416323 1:368 2:259 
-1.083480563510689 1:353 2:225 
-1.082979048162619 1:340 2:196 
-1.083753900826701 1:329 2:172 
-1.222158665760173 1:317 2:151 
-1.063445019576007 1:310 2:136 
-1.063445128504543 1:304 2:123 
-1.075696320567459 1:297 2:114 
-1.075414432574846 1:292 2:106 
-0.7918604086650245 1:287 2:101 
-0.7916142821100801 1:282 2:95 
-1.068697201203487 1:276 2:91 
-1.0751192922341 1:275 2:89 
-0.9539363081769766 1:271 2:86 
-1.062924184887467 1:268 2:83 
-0.9533056767287814 1:266 2:81 
-0.7916553337854014 1:264 2:79 
-0.9474492391991941 1:261 2:78 
-0.9471821746158204 1:260 2:77 
-1.082666897131333 1:401 2:360 
-1.08278580911586 1:382 2:315 
-1.082664856339146 1:367 2:273 
-1.082785729533316 1:354 2:239 
-1.083431519780004 1:342 2:211 
-1.082752679194265 1:331 2:187 
-1.082651212169119 1:323 2:169 
-1.083508550453278 1:317 2:157 
-0.7989357865064795 1:311 2:143 
-1.082664856324108 1:305 2:134 
-1.083151646631268 1:299 2:125 
-1.08278716257111 1:296 2:119 
-1.08236776284897 1:293 2:115 
-1.082673524362138 1:290 2:111 
-1.063440812804832 1:285 2:107 
-1.082954817582737 1:282 2:104 
-0.9539014035249892 1:281 2:101 
-0.9561727724961279 1:277 2:98 
-0.9340140253362177 1:276 2:97 
-1.082073885777364 1:273 2:95 
-1.082338354850113 1:271 2:93 
