svm_type c_svc
kernel_type rbf
gamma 1
nr_class 2
total_sv 375
rho -0.121709
label 1 -1
nr_sv 188 187
SV
0.8783174164982946 1:482 2:650 
0.8784974075678441 1:443 2:612 
0.8781752078300443 1:409 2:573 
0.8783894320796924 1:380 2:533 
0.878223390498275 1:354 2:491 
0.8785362873688995 1:329 2:446 
0.878179833520228 1:309 2:404 
0.642283585010275 1:290 2:364 
0.8784647794737671 1:274 2:328 
0.8781942881291613 1:264 2:300 
0.8724099462792756 1:252 2:273 
0.8781028873191858 1:244 2:251 
0.8724378384177328 1:234 2:232 
0.773476132328171 1:227 2:215 
0.6421266824490184 1:222 2:202 
0.8784578069537331 1:216 2:192 
0.8786755823387246 1:212 2:183 
0.8781798335202391 1:207 2:176 
0.8784974070895312 1:205 2:170 
0.8784289366754338 1:203 2:165 
0.8784673899989999 1:200 2:159 
0.8783080673334237 1:591 2:744 
0.8781586333821824 1:542 2:712 
0.8785653881234941 1:502 2:682 
0.8778640813139702 1:462 2:647 
0.8781881557450961 1:430 2:613 
0.8782880541170269 1:398 2:571 
0.8782454584235 1:368 2:527 
0.878124141197274 1:344 2:484 
0.8781500376964865 1:322 2:439 
0.8782508466079566 1:305 2:400 
0.6420043371208995 1:289 2:364 
0.8783607115782013 1:278 2:336 
0.8783140644874787 1:268 2:306 
0.8783005762150187 1:257 2:283 
0.8781065143968205 1:250 2:264 
0.8784151866351744 1:243 2:248 
0.8782338254738887 1:237 2:235 
0.878154410169882 1:232 2:223 
0.7736032848845512 1:228 2:214 
0.8783162752128449 1:225 2:207 
0.8623258809900237 1:221 2:200 
0.8784865293171441 1:889 2:858 
0.8785634075001787 1:882 2:852 
0.8782324122919393 1:884 2:855 
0.8782381948873672 1:878 2:849 
0.8781021575289901 1:872 2:845 
0.878125402688046 1:869 2:844 
0.6421201967877586 1:865 2:839 
0.6420913355236337 1:864 2:839 
0.8781882525006861 1:865 2:843 
0.8781534235450348 1:860 2:838 
0.8724038565613292 1:854 2:834 
0.8724274905849247 1:852 2:835 
0.878483732503432 1:845 2:829 
0.8781883643690567 1:841 2:827 
0.8781288271677709 1:832 2:820 
0.8782234894586609 1:825 2:816 
0.8782857157893081 1:821 2:813 
0.6420781823211645 1:816 2:813 
0.6417921268447506 1:816 2:814 
0.8781804875127148 1:813 2:813 
0.8781502035690915 1:804 2:807 
0.8781769453217347 1:543 2:707 
0.8781544093718063 1:502 2:673 
0.8784282979336453 1:465 2:641 
0.8784289366634344 1:434 2:610 
0.8786755823257066 1:404 2:573 
0.8783147255232547 1:377 2:533 
0.87828468370567 1:350 2:491 
0.8786794457248751 1:330 2:451 
0.8782872693248077 1:312 2:414 
0.8783108952489556 1:297 2:380 
0.8781427673080207 1:283 2:348 
0.8781693099766308 1:272 2:319 
0.8782508466079678 1:261 2:294 
0.8724834106775474 1:253 2:275 
0.8783535673203795 1:245 2:257 
0.8781883830657733 1:239 2:243 
0.8724038430879146 1:233 2:230 
0.8781753339761027 1:228 2:220 
0.8783894325468029 1:225 2:210 
0.6265864056317275 1:221 2:202 
0.8785253622652044 1:217 2:196 
0.8782381948995686 1:467 2:627 
0.8782338378064201 1:428 2:586 
0.8781556896490658 1:393 2:539 
0.8781544093718063 1:362 2:489 
0.8784282979336453 1:335 2:438 
0.878436143331173 1:315 2:393 
0.8784813553394627 1:294 2:350 
0.8783379573933601 1:277 2:311 
0.878124141197274 1:264 2:279 
0.8784246770785715 1:253 2:253 
0.878674576048773 1:245 2:233 
0.878726720137106 1:237 2:216 
0.8782892408431374 1:230 2:202 
0.8781408960876016 1:223 2:188 
0.8781719506553104 1:218 2:179 
0.8781960771017923 1:214 2:172 
0.8782343981346629 1:209 2:166 
0.8781659741309922 1:207 2:160 
0.8724008395881959 1:201 2:155 
0.8724556473902418 1:202 2:153 
0.8782278246818473 1:198 2:149 
0.8781942881291613 1:476 2:507 
0.8780900096253191 1:448 2:454 
0.8784595091762486 1:423 2:402 
0.8784937527554744 1:403 2:356 
0.8783784087289919 1:389 2:318 
0.8783379568035627 1:377 2:286 
0.8852053730652975 1:366 2:258 
0.8781904181478877 1:356 2:235 
0.8783607115782031 1:348 2:215 
0.8784954510520597 1:340 2:199 
1 1:335 2:187 
0.8784874047667213 1:331 2:179 
0.8784165526359908 1:327 2:170 
1 1:326 2:165 
0.89644106912787 1:322 2:160 
0.8784696871520402 1:321 2:157 
1 1:318 2:152 
0.6428201491802683 1:316 2:147 
0.6415268775990529 1:316 2:146 
0.8723693979955071 1:314 2:144 
0.8782039155989694 1:313 2:142 
0.87844743247435 1:544 2:688 
0.8782381948987488 1:511 2:654 
0.8782338387421216 1:457 2:584 
0.8781653122441847 1:434 2:546 
0.8781883661797467 1:415 2:507 
0.8785362873733703 1:397 2:466 
0.8781701326700774 1:381 2:429 
0.6423095173430335 1:368 2:393 
0.8724144576609955 1:356 2:361 
0.878452787050877 1:347 2:334 
0.8784244675349326 1:340 2:309 
0.8780912114663217 1:335 2:287 
0.8781694665805904 1:327 2:267 
0.8783379209424864 1:323 2:252 
0.8781693099766306 1:318 2:236 
0.8781653047250784 1:313 2:224 
0.8781101791814711 1:311 2:214 
0.8628404316073458 1:306 2:204 
0.8625067711570886 1:304 2:198 
0.8783164925226861 1:303 2:191 
0.8787778753338543 1:609 2:729 
0.8781514684713674 1:575 2:704 
0.8784937506943207 1:542 2:673 
0.8783605695984236 1:512 2:643 
0.8782454584235 1:485 2:609 
0.8780810486124055 1:459 2:572 
0.878124141197274 1:441 2:539 
0.8781979762434678 1:420 2:500 
0.8782381948987488 1:403 2:464 
0.8782205267400943 1:389 2:431 
0.8782338378064201 1:377 2:397 
0.878134196019417 1:366 2:367 
0.8781883830657733 1:356 2:340 
0.8781271718815401 1:349 2:316 
0.878191239753836 1:341 2:293 
0.8784527870463971 1:335 2:275 
0.8784361433309491 1:329 2:258 
0.8781408960831311 1:324 2:243 
0.8782606632760521 1:319 2:230 
0.8781844191502329 1:314 2:219 
0.8781102039811594 1:312 2:210 
0.8781556895731553 1:519 2:665 
0.8781544101820493 1:481 2:620 
0.8784009596197888 1:450 2:576 
0.8781556896490658 1:425 2:528 
0.8784391110763999 1:401 2:480 
0.878726720137106 1:383 2:435 
0.6419681910998235 1:369 2:393 
0.8722952108557644 1:357 2:359 
0.878158633386669 1:347 2:325 
0.878124141197274 1:338 2:299 
0.8784527870464027 1:330 2:276 
0.8781556532102881 1:324 2:256 
0.8784474324698635 1:319 2:242 
0.8784865293049782 1:313 2:229 
0.87856760731626 1:311 2:219 
0.8781542261408593 1:309 2:211 
0.8623236977223484 1:306 2:206 
0.8623125159128279 1:302 2:198 
0.8783095713362823 1:300 2:195 
0.8781868937685134 1:300 2:191 
0.8783140644874787 1:297 2:185 
-1 1:537 2:486 
-1 1:507 2:440 
-1 1:482 2:395 
-1 1:460 2:351 
-1 1:436 2:303 
-1 1:415 2:259 
-1 1:396 2:218 
-1 1:378 2:185 
-1 1:367 2:158 
-1 1:355 2:134 
-1 1:344 2:115 
-1 1:335 2:101 
-1 1:327 2:90 
-1 1:318 2:80 
-1 1:312 2:73 
-1 1:308 2:67 
-1 1:303 2:62 
-1 1:300 2:59 
-1 1:296 2:55 
-1 1:293 2:52 
-1 1:290 2:50 
-1 1:497 2:393 
-1 1:473 2:347 
-1 1:450 2:301 
-1 1:431 2:259 
-1 1:412 2:220 
-1 1:395 2:186 
-1 1:378 2:157 
-1 1:365 2:133 
-1 1:355 2:114 
-1 1:344 2:99 
-1 1:335 2:85 
-1 1:326 2:76 
-1 1:315 2:68 
-1 1:310 2:61 
-1 1:306 2:57 
-1 1:301 2:52 
-1 1:296 2:49 
-1 1:293 2:45 
-1 1:284 2:43 
-1 1:283 2:41 
-1 1:281 2:39 
-0.2499578032127665 1:330 2:62 
-0.2499691264686624 1:320 2:52 
-0.2499691475456366 1:312 2:45 
-0.124976851074119 1:301 2:40 
-0.1249768440186591 1:296 2:38 
-0.1249845632343311 1:290 2:35 
-0.1249614396616048 1:284 2:34 
-0.1241189176351688 1:280 2:31 
-0.1241548674261151 1:276 2:31 
-0.114103956466478 1:270 2:30 
-0.1098979865005214 1:268 2:29 
-0.1138419953801289 1:266 2:30 
-0.1237382842945455 1:261 2:28 
-0.1104734519678075 1:257 2:28 
-0.09444687095106354 1:258 2:26 
-0.07443922190816081 1:256 2:26 
-0.08729451750457728 1:254 2:26 
-0.002334710395466233 1:252 2:26 
-0.005732188927820375 1:251 2:26 
-0.00431578358060561 1:248 2:25 
-0.8717541426702067 1:330 2:62 
-0.8719408639060185 1:320 2:52 
-0.8718424645744246 1:312 2:45 
-0.9962452735917404 1:301 2:40 
-0.9963485799322828 1:296 2:38 
-0.9969242252993471 1:290 2:35 
-0.9965622691012674 1:284 2:34 
-0.9977687509072829 1:280 2:31 
-0.9976935375995974 1:276 2:31 
-1 1:270 2:30 
-0.9967903137439728 1:268 2:29 
-1 1:266 2:30 
-0.9980312926429035 1:261 2:28 
-0.9964662622266575 1:257 2:28 
-1 1:258 2:26 
-1 1:256 2:26 
-1 1:254 2:26 
-0.7952004910762275 1:252 2:26 
-0.8225294819183696 1:251 2:26 
-0.8160375555753969 1:248 2:25 
-0.8204127624557224 1:247 2:25 
-1 1:277 2:122 
-1 1:272 2:116 
-1 1:269 2:111 
-1 1:265 2:108 
-1 1:262 2:105 
-1 1:260 2:100 
-1 1:257 2:99 
-0.1213963456861261 1:254 2:98 
-1 1:254 2:98 
-0.9886428849436616 1:252 2:96 
-0.9812912989899026 1:251 2:95 
-1 1:250 2:93 
-0.8199406970126356 1:247 2:93 
-1 1:246 2:91 
-0.8020233214802089 1:246 2:93 
-0.8184666892007612 1:244 2:89 
-0.819112999885746 1:243 2:90 
-0.5123578026387248 1:244 2:90 
-0.5043680336463844 1:242 2:88 
-0.8240412205025216 1:241 2:88 
-0.8238583239184378 1:242 2:87 
-1 1:320 2:160 
-0.8172993153318228 1:310 2:143 
-1 1:302 2:128 
-1 1:292 2:118 
-1 1:285 2:109 
-0.9880267853890782 1:282 2:100 
-1 1:276 2:95 
-1 1:273 2:91 
-1 1:267 2:86 
-1 1:264 2:84 
-1 1:261 2:82 
-1 1:259 2:81 
-0.8695451194938408 1:255 2:78 
-0.6664490468391299 1:254 2:78 
-1 1:253 2:79 
-1 1:251 2:79 
-1 1:249 2:76 
-0.5179245577447558 1:245 2:74 
-0.8204584823260292 1:245 2:73 
-0.8201183234822988 1:244 2:74 
-1 1:408 2:349 
-1 1:392 2:309 
-1 1:374 2:272 
-1 1:358 2:238 
-1 1:345 2:210 
-1 1:336 2:186 
-1 1:326 2:165 
-1 1:318 2:149 
-1 1:310 2:134 
-1 1:302 2:123 
-1 1:295 2:113 
-1 1:290 2:105 
-0.8200341583985921 1:287 2:100 
-0.8202998146857197 1:281 2:95 
-1 1:278 2:90 
-0.9878240924169578 1:272 2:85 
-1 1:270 2:83 
-0.9880958366079637 1:267 2:80 
-0.8197328402057709 1:264 2:78 
-1 1:262 2:76 
-1 1:260 2:74 
-1 1:401 2:339 
-1 1:382 2:297 
-1 1:368 2:259 
-1 1:353 2:225 
-1 1:340 2:196 
-1 1:329 2:172 
-1 1:317 2:151 
-1 1:310 2:136 
-1 1:304 2:123 
-1 1:297 2:114 
-1 1:292 2:106 
-0.8200341583903337 1:287 2:101 
-0.8202998147161197 1:282 2:95 
-1 1:276 2:91 
-1 1:275 2:89 
-0.988124902737103 1:271 2:86 
-1 1:268 2:83 
-0.9875191600441885 1:266 2:81 
-0.8197945561810304 1:264 2:79 
-0.9818753319620751 1:261 2:78 
-0.9820621722506555 1:260 2:77 
-1 1:401 2:360 
-1 1:382 2:315 
-1 1:367 2:273 
-1 1:354 2:239 
-1 1:342 2:211 
-1 1:331 2:187 
-1 1:323 2:169 
-1 1:317 2:157 
-0.8269776547775769 1:311 2:143 
-1 1:305 2:134 
-1 1:299 2:125 
-1 1:296 2:119 
-1 1:293 2:115 
-1 1:290 2:111 
-1 1:285 2:107 
-1 1:282 2:104 
-0.9878474365419292 1:281 2:101 
-0.990117225079493 1:277 2:98 
-0.9692247977817683 1:276 2:97 
-1 1:273 2:95 
-1 1:271 2:93 
