svm_type c_svc
kernel_type rbf
gamma 2
nr_class 2
total_sv 354
rho -0.0695494
label 1 -1
nr_sv 188 166
SV
0.9298739693508195 1:482 2:650 
0.9303817776657126 1:443 2:612 
0.9298739698661196 1:409 2:573 
0.9304691695588032 1:380 2:533 
0.9300672783743527 1:354 2:491 
0.9300789312280191 1:329 2:446 
0.9300835252075711 1:309 2:404 
0.8196721958477257 1:290 2:364 
0.9299122848691017 1:274 2:328 
0.9300846430299609 1:264 2:300 
0.9307595877265499 1:252 2:273 
0.9299038392079405 1:244 2:251 
0.9303662855476914 1:234 2:232 
0.9138935990814305 1:227 2:215 
0.8196235405456032 1:222 2:202 
0.9300673059820572 1:216 2:192 
0.9304759648737021 1:212 2:183 
0.9304763947509571 1:207 2:176 
0.9300694844304622 1:205 2:170 
0.9300694817948373 1:203 2:165 
0.9304721183683038 1:200 2:159 
0.9306179204614391 1:591 2:744 
0.9306162020891234 1:542 2:712 
0.9304691837618067 1:502 2:682 
0.930472146969429 1:462 2:647 
0.9304722117265638 1:430 2:613 
0.9306016193952886 1:398 2:571 
0.9304718923770032 1:368 2:527 
0.9306186136659056 1:344 2:484 
0.9303817990815074 1:322 2:439 
0.9308644722610921 1:305 2:400 
0.819098886447715 1:289 2:364 
0.9306176434515658 1:278 2:336 
0.9306176434515659 1:268 2:306 
0.9306151758980606 1:257 2:283 
0.9304718923770032 1:250 2:264 
0.9300694798725184 1:243 2:248 
0.9306184489979664 1:237 2:235 
0.9303817796112115 1:232 2:223 
0.913729834146991 1:228 2:214 
0.9304718782196754 1:225 2:207 
0.9301630685841382 1:221 2:200 
0.9303817796112115 1:889 2:858 
0.930640670649283 1:882 2:852 
0.9305171254308693 1:884 2:855 
0.9304643509485924 1:878 2:849 
0.930608972479898 1:872 2:845 
0.9304671530714603 1:869 2:844 
0.8195123841588297 1:865 2:839 
0.8193649717015845 1:864 2:839 
0.9304717935594453 1:865 2:843 
0.9306178121426011 1:860 2:838 
0.9302890927245638 1:854 2:834 
0.930421619441244 1:852 2:835 
0.9306177308967079 1:845 2:829 
0.9306175732470551 1:841 2:827 
0.9305911763533179 1:832 2:820 
0.9308531982021861 1:825 2:816 
0.9306164330851294 1:821 2:813 
0.819920889442846 1:816 2:813 
0.8196447481059542 1:816 2:814 
0.9306164048381368 1:813 2:813 
0.9306164190149286 1:804 2:807 
0.93046715498959 1:543 2:707 
0.930754036825657 1:502 2:673 
0.9304434040062661 1:465 2:641 
0.9304615957127532 1:434 2:610 
0.9305254354961099 1:404 2:573 
0.9304643396889587 1:377 2:533 
0.930084643023432 1:350 2:491 
0.9305351015088482 1:330 2:451 
0.9305911693468297 1:312 2:414 
0.930590791478046 1:297 2:380 
0.9299038411910747 1:283 2:348 
0.9304656725902339 1:272 2:319 
0.9304650806700259 1:261 2:294 
0.9304301424226326 1:253 2:275 
0.930472146895795 1:245 2:257 
0.9304722117265638 1:239 2:243 
0.9305755735774632 1:233 2:230 
0.9304718923770032 1:228 2:220 
0.9304763805798898 1:225 2:210 
0.8192186400361083 1:221 2:202 
0.9305911693468281 1:217 2:196 
0.9305275632306739 1:467 2:627 
0.9306189307321246 1:428 2:586 
0.9304727363391252 1:393 2:539 
0.9306178121426025 1:362 2:489 
0.9306178121426025 1:335 2:438 
0.9304718923770032 1:315 2:393 
0.9304640105959778 1:294 2:350 
0.929936048430374 1:277 2:311 
0.9303817776657126 1:264 2:279 
0.9300694844304622 1:253 2:253 
0.9300835252046595 1:245 2:233 
0.9308465455414073 1:237 2:216 
0.930472839365714 1:230 2:202 
0.9304721460263949 1:223 2:188 
0.9304746609545964 1:218 2:179 
0.9306164131206114 1:214 2:172 
0.930616508861194 1:209 2:166 
0.9306181839134471 1:207 2:160 
0.9304305046956863 1:201 2:155 
0.9307595597034795 1:202 2:153 
0.9304616780375741 1:198 2:149 
0.9300789294847387 1:476 2:507 
0.9304683797091504 1:448 2:454 
0.9304643509485924 1:423 2:402 
0.9299518307012666 1:403 2:356 
0.9305315519953528 1:389 2:318 
0.930547623950701 1:377 2:286 
0.9305206625598336 1:366 2:258 
0.9298911919577475 1:356 2:235 
0.9305544869481831 1:348 2:215 
0.9304721631827102 1:340 2:199 
0.9504982146599771 1:335 2:187 
0.9304674250206064 1:331 2:179 
0.9306163225071958 1:327 2:170 
4 1:326 2:165 
0.9309741365435281 1:322 2:160 
0.9300789315101974 1:321 2:157 
0.9505251963484952 1:318 2:152 
0.8190811426961974 1:316 2:147 
0.8196747537403903 1:316 2:146 
0.9308218313589505 1:314 2:144 
0.9306186487528818 1:313 2:142 
0.9300789294847387 1:544 2:688 
0.9300828128541735 1:511 2:654 
0.9300835252046595 1:457 2:584 
0.9300846412716106 1:434 2:546 
0.9299518307012666 1:415 2:507 
0.9299518312392111 1:397 2:466 
0.9304546575566546 1:381 2:429 
0.8196739917761278 1:368 2:393 
0.9305981135720158 1:356 2:361 
0.9306161429210742 1:347 2:334 
0.9305884860866421 1:340 2:309 
0.9304718854318557 1:335 2:287 
0.9304718924009102 1:327 2:267 
0.9303817796112099 1:323 2:252 
0.9306178149003417 1:318 2:236 
0.93061778714148 1:313 2:224 
0.9300559586502239 1:311 2:214 
0.9302094894558274 1:306 2:204 
0.930158436129168 1:304 2:198 
0.9304671408497768 1:303 2:191 
0.9306189307321246 1:609 2:729 
0.9306178356860428 1:575 2:704 
0.9304707143330155 1:542 2:673 
0.9304722117315566 1:512 2:643 
0.9304721183656233 1:485 2:609 
0.930465710567569 1:459 2:572 
0.9304641925788342 1:441 2:539 
0.9303817796112115 1:420 2:500 
0.9303817776657126 1:403 2:464 
0.9304547711937409 1:389 2:431 
0.9301174570795939 1:377 2:397 
0.9304990440916687 1:366 2:367 
0.9305907914780459 1:356 2:340 
0.9306181689233064 1:349 2:316 
0.9306177308967079 1:341 2:293 
0.930616508861194 1:335 2:275 
0.9304722117265638 1:329 2:258 
0.9304671550230663 1:324 2:243 
0.9298951393400255 1:319 2:230 
0.9304545839023638 1:314 2:219 
0.9299986397729717 1:312 2:210 
0.9306161429210742 1:519 2:665 
0.9304640127683088 1:481 2:620 
0.9304650806700259 1:450 2:576 
0.9308021190527446 1:425 2:528 
0.9303817776657126 1:401 2:480 
0.9303799970074913 1:383 2:435 
0.8190735544744223 1:369 2:393 
0.9305755658102263 1:357 2:359 
0.9305275714988728 1:347 2:325 
0.9304721183656233 1:338 2:299 
0.9306174022724082 1:330 2:276 
0.9308508916841389 1:324 2:256 
0.9303799970074913 1:319 2:242 
0.9306180155911256 1:313 2:229 
0.9304720896751222 1:311 2:219 
0.9306185761270106 1:309 2:211 
0.9301427206773457 1:306 2:206 
0.9301645692058197 1:302 2:198 
0.9303316524497398 1:300 2:195 
0.9306178007185275 1:300 2:191 
0.9306178149003417 1:297 2:185 
-1.069527788273436 1:537 2:486 
-1.069474825785679 1:507 2:440 
-1.069381551002033 1:482 2:395 
-1.069383857078926 1:460 2:351 
-1.069535807421166 1:436 2:303 
-1.069382079538561 1:415 2:259 
-1.069535646140015 1:396 2:218 
-1.069382830508732 1:378 2:185 
-1.0694404954363 1:367 2:158 
-1.069482874564376 1:355 2:134 
-1.069528215885303 1:344 2:115 
-1.069916474792429 1:335 2:101 
-1.069921068792045 1:327 2:90 
-1.069382164313957 1:318 2:80 
-1.069472428501127 1:312 2:73 
-1.069383566914871 1:308 2:67 
-1.069471426540406 1:303 2:62 
-1.069475107847052 1:300 2:59 
-1.069472436769326 1:296 2:55 
-1.069383797905419 1:293 2:52 
-1.069381421945904 1:290 2:50 
-1.069409208521954 1:497 2:393 
-1.069527788268443 1:473 2:347 
-1.070080921294289 1:450 2:301 
-1.069910827824001 1:431 2:259 
-1.069149063179673 1:412 2:220 
-1.069452376049299 1:395 2:186 
-1.069535643670157 1:378 2:157 
-1.069391396002954 1:365 2:133 
-1.06938221285852 1:355 2:114 
-1.069535989404022 1:344 2:99 
-1.069519903895808 1:335 2:85 
-1.0694404954363 1:326 2:76 
-1.069921068792045 1:315 2:68 
-1.069910827824001 1:310 2:61 
-1.069915356976556 1:306 2:57 
-1.069384704241625 1:301 2:52 
-1.069527601156336 1:296 2:49 
-1.069529285666984 1:293 2:45 
-1.069488054425736 1:284 2:43 
-1.069422444977783 1:283 2:41 
-1.069534273189454 1:281 2:39 
-1.069382305370999 1:330 2:62 
-1.069383491138806 1:320 2:52 
-1.069529750584209 1:312 2:45 
-1.069528114568144 1:301 2:40 
-1.069528206440541 1:296 2:38 
-1.069527853030571 1:290 2:35 
-1.070122343513081 1:284 2:34 
-1.06940920852194 1:280 2:31 
-1.069471088369335 1:276 2:31 
-1.069486388572821 1:270 2:30 
-1.069430154796248 1:268 2:29 
-1.069478639681217 1:266 2:30 
-1.069383043269654 1:261 2:28 
-1.069428260140554 1:257 2:28 
-1.068974576288258 1:258 2:26 
-1.069330423395632 1:256 2:26 
-1.068924089954097 1:254 2:26 
-0.9413926673548504 1:252 2:26 
-0.9420684550587074 1:251 2:26 
-0.9420446915214949 1:248 2:25 
-0.9416572248114307 1:247 2:25 
-1.069944041345015 1:277 2:122 
-1.069932694017941 1:272 2:116 
-1.070096158875043 1:269 2:111 
-1.069445513051817 1:265 2:108 
-1.069476458167013 1:262 2:105 
-1.069527851768309 1:260 2:100 
-1.069932717218995 1:257 2:99 
-1.069135399675756 1:254 2:98 
-1.050297743589092 1:252 2:96 
-1.050083591708904 1:251 2:95 
-1.070048343140164 1:250 2:93 
-0.942639808308622 1:247 2:93 
-1.06898734888269 1:246 2:91 
-0.9413613078333566 1:246 2:93 
-0.9419629168419371 1:244 2:89 
-0.9419624727454931 1:243 2:90 
-0.8149584664985279 1:244 2:90 
-0.8145043311237756 1:242 2:88 
-0.9418267838833342 1:241 2:88 
-0.941998359846253 1:242 2:87 
-1.069695030963865 1:320 2:160 
-0.9424576014509604 1:310 2:143 
-1.069392219340036 1:302 2:128 
-1.069915354766992 1:292 2:118 
-1.069177525446676 1:285 2:109 
-1.050827687640612 1:282 2:100 
-1.0690303755581 1:276 2:95 
-1.069535886182284 1:273 2:91 
-1.070096156602024 1:267 2:86 
-1.069383797894579 1:264 2:84 
-1.069489615203024 1:261 2:82 
-1.069424048936276 1:259 2:81 
-0.9443958982565719 1:255 2:78 
-0.9223005473544011 1:254 2:78 
-1.052693894655476 1:253 2:79 
-1.069029689144961 1:251 2:79 
-1.069470526491569 1:249 2:76 
-0.8146304277437255 1:245 2:74 
-0.9418356453869902 1:245 2:73 
-0.9420023956533682 1:244 2:74 
-1.069381386334094 1:408 2:349 
-1.069384663319461 1:392 2:309 
-1.069528215885303 1:374 2:272 
-1.069382434205177 1:358 2:238 
-1.069527879425789 1:345 2:210 
-1.086941557478919 1:336 2:186 
-4 1:326 2:165 
-1.069334323238329 1:318 2:149 
-1.069177528003936 1:310 2:134 
-1.06902604568531 1:302 2:123 
-1.069421883105648 1:295 2:113 
-1.069430173731127 1:290 2:105 
-0.9420440244938728 1:287 2:100 
-0.9421089193072701 1:281 2:95 
-1.069487119654475 1:278 2:90 
-1.050290405837405 1:272 2:85 
-1.06902579751942 1:270 2:83 
-1.050221847208131 1:267 2:80 
-0.9420100976417806 1:264 2:78 
-1.069424318091589 1:262 2:76 
-1.069535850965573 1:260 2:74 
-1.069618200918493 1:401 2:339 
-1.07012603013388 1:382 2:297 
-1.069576608041621 1:368 2:259 
-1.069382830508732 1:353 2:225 
-1.069398394764897 1:340 2:196 
-1.070048273185548 1:329 2:172 
-1.08745313293934 1:317 2:151 
-1.069023695491898 1:310 2:136 
-1.069024096303529 1:304 2:123 
-1.069489770282755 1:297 2:114 
-1.069489852231184 1:292 2:106 
-0.9416572699476173 1:287 2:101 
-0.9416528786686981 1:282 2:95 
-1.069426271892907 1:276 2:91 
-1.069485683032243 1:275 2:89 
-1.050288902279731 1:271 2:86 
-1.069038196199522 1:268 2:83 
-1.050298578560304 1:266 2:81 
-0.9416594778412571 1:264 2:79 
-1.050253391391933 1:261 2:78 
-1.050177769985014 1:260 2:77 
-1.069382597732845 1:401 2:360 
-1.069383857078926 1:382 2:315 
-1.069382356548434 1:367 2:273 
-1.069478202049205 1:354 2:239 
-1.069534907321429 1:342 2:211 
-1.069530816238205 1:331 2:187 
-1.069382356548436 1:323 2:169 
-1.069535506283744 1:317 2:157 
-0.9420185222813141 1:311 2:143 
-1.069470944865263 1:305 2:134 
-1.069472572045352 1:299 2:125 
-1.069915358728388 1:296 2:119 
-1.069535383730891 1:293 2:115 
-1.069408823646682 1:290 2:111 
-1.069023928268561 1:285 2:107 
-1.069917184979147 1:282 2:104 
-1.050218315343391 1:281 2:101 
-1.050834277372456 1:277 2:98 
-1.049904490439057 1:276 2:97 
-1.069470808309025 1:273 2:95 
-1.069524457448253 1:271 2:93 
