svm_type c_svc
kernel_type rbf
gamma 2
nr_class 2
total_sv 376
rho -0.106244
label 1 -1
nr_sv 188 188
SV
0.8935102033307363 1:482 2:650 
0.8935102033307363 1:443 2:612 
0.8939120293441597 1:409 2:573 
0.8935353017478934 1:380 2:533 
0.893494389390399 1:354 2:491 
0.8935376100929424 1:329 2:446 
0.8936864414149179 1:309 2:404 
0.7870556426338886 1:290 2:364 
0.8934944691032124 1:274 2:328 
0.8935199766751067 1:264 2:300 
0.8934960971969357 1:252 2:273 
0.8935701095857808 1:244 2:251 
0.8934950821669061 1:234 2:232 
0.8774866346633448 1:227 2:215 
0.7872015021346388 1:222 2:202 
0.8935673499176471 1:216 2:192 
0.8938214757247566 1:212 2:183 
0.8938214844328674 1:207 2:176 
0.8935846998465578 1:205 2:170 
0.8935683596259634 1:203 2:165 
0.8934944691032108 1:200 2:159 
0.8936133027541143 1:591 2:744 
0.8935657858295092 1:542 2:712 
0.8936497838333262 1:502 2:682 
0.8936478603666889 1:462 2:647 
0.8936469386493345 1:430 2:613 
0.8939658908339074 1:398 2:571 
0.8944396377884449 1:368 2:527 
0.8944448643315047 1:344 2:484 
0.8944210604031673 1:322 2:439 
0.8944210479823685 1:305 2:400 
0.7871857920911031 1:289 2:364 
0.8936094330594188 1:278 2:336 
0.8936274789920025 1:268 2:306 
0.893706399676981 1:257 2:283 
0.8936784355291614 1:250 2:264 
0.8944396340734747 1:243 2:248 
0.894421060403167 1:237 2:235 
0.8936729456281637 1:232 2:223 
0.877447806249806 1:228 2:214 
0.8937309749631178 1:225 2:207 
0.8932449363255441 1:221 2:200 
0.893737255853009 1:889 2:858 
0.8944806695584775 1:882 2:852 
0.8936133027495191 1:884 2:855 
0.8935713802930638 1:878 2:849 
0.8936784336873818 1:872 2:845 
0.8935673480769346 1:869 2:844 
0.7870156111821999 1:865 2:839 
0.7870604010156863 1:864 2:839 
0.8938272949847128 1:865 2:843 
0.8936729456337037 1:860 2:838 
0.8934970276307821 1:854 2:834 
0.893888190896692 1:852 2:835 
0.8938272947273997 1:845 2:829 
0.8935657858295092 1:841 2:827 
0.8938438526726948 1:832 2:820 
0.8938272949847257 1:825 2:816 
0.8935200858200204 1:821 2:813 
0.787055349780535 1:816 2:813 
0.7870930739056553 1:816 2:814 
0.8936729320556425 1:813 2:813 
0.8935366597262184 1:804 2:807 
0.8937312329354903 1:543 2:707 
0.8934943893904103 1:502 2:673 
0.8938168841754739 1:465 2:641 
0.8935102033307363 1:434 2:610 
0.893507624081687 1:404 2:573 
0.8934875351019222 1:377 2:533 
0.8943721529054335 1:350 2:491 
0.893734200423845 1:330 2:451 
0.8935379622668511 1:312 2:414 
0.893544807994772 1:297 2:380 
0.8936864414149179 1:283 2:348 
0.8936981575958187 1:272 2:319 
0.8935008205207525 1:261 2:294 
0.8934491400675524 1:253 2:275 
0.8939619868545956 1:245 2:257 
0.8936469386493345 1:239 2:243 
0.8934496976513323 1:233 2:230 
0.8936469386493345 1:228 2:220 
0.8934938649729579 1:225 2:210 
0.7873687150601814 1:221 2:202 
0.894421047982367 1:217 2:196 
0.8936497837689137 1:467 2:627 
0.8941780463799806 1:428 2:586 
0.8943721529054449 1:393 2:539 
0.8943874753491575 1:362 2:489 
0.893719360890316 1:335 2:438 
0.8936131990824064 1:315 2:393 
0.8934953822713469 1:294 2:350 
0.8935362403516893 1:277 2:311 
0.8938214845283242 1:264 2:279 
0.8935199766751067 1:253 2:253 
0.8939120293381635 1:245 2:233 
0.8935683596259634 1:237 2:216 
0.8935846998465576 1:230 2:202 
0.8938430364399044 1:223 2:188 
0.893837842204358 1:218 2:179 
0.8935657858295092 1:214 2:172 
0.8937045720493535 1:209 2:166 
0.8937178621374847 1:207 2:160 
0.8934540047769689 1:201 2:155 
0.8936772993873444 1:202 2:153 
0.8938430364399044 1:198 2:149 
0.8935657858295092 1:476 2:507 
0.8934943893904103 1:448 2:454 
0.893507624081687 1:423 2:402 
0.8934943893904103 1:403 2:356 
0.8938438526726948 1:389 2:318 
0.8937174426525269 1:377 2:286 
0.8939158849907005 1:366 2:258 
0.8935102186769444 1:356 2:235 
0.8937045720493535 1:348 2:215 
0.8935847150765368 1:340 2:199 
0.9118538971910425 1:335 2:187 
0.8935362403516893 1:331 2:179 
0.893568472161141 1:327 2:170 
1 1:326 2:165 
0.8939006056087955 1:322 2:160 
0.8939229645826908 1:321 2:157 
0.9118512992983205 1:318 2:152 
0.7871873028445401 1:316 2:147 
0.7870788832870692 1:316 2:146 
0.8937971479084218 1:314 2:144 
0.8944485405726404 1:313 2:142 
0.8935371807519717 1:544 2:688 
0.893598711374176 1:511 2:654 
0.8939233514304417 1:457 2:584 
0.8938214844328674 1:434 2:546 
0.8934938785565617 1:415 2:507 
0.8939120293381635 1:397 2:466 
0.8935673499176486 1:381 2:429 
0.7869753500132934 1:368 2:393 
0.8935684512330081 1:356 2:361 
0.8944177795409859 1:347 2:334 
0.8944396359124482 1:340 2:309 
0.894421047467077 1:335 2:287 
0.8939628671000509 1:327 2:267 
0.8939233514304401 1:323 2:252 
0.8936216273353731 1:318 2:236 
0.893719360890316 1:313 2:224 
0.8936784355276929 1:311 2:214 
0.8932348840415977 1:306 2:204 
0.8933279488171274 1:304 2:198 
0.8937260890760242 1:303 2:191 
0.8937312329354903 1:609 2:729 
0.8936729456337051 1:575 2:704 
0.8944396377884449 1:542 2:673 
0.8944145621083611 1:512 2:643 
0.8935683596259634 1:485 2:609 
0.8935928010518477 1:459 2:572 
0.8938214845283242 1:441 2:539 
0.8935673499249349 1:420 2:500 
0.8934896105686378 1:403 2:464 
0.8935056362608421 1:389 2:431 
0.893494627377202 1:377 2:397 
0.8935701114293584 1:366 2:367 
0.8944806695630432 1:356 2:340 
0.8944177795409859 1:349 2:316 
0.893684268770409 1:341 2:293 
0.8936478603666889 1:335 2:275 
0.893647860366762 1:329 2:258 
0.8936497838333262 1:324 2:243 
0.8941780463841549 1:319 2:230 
0.8936276724082226 1:314 2:219 
0.8939639650000294 1:312 2:210 
0.8939715424532911 1:519 2:665 
0.8935896533924739 1:481 2:620 
0.893684268770409 1:450 2:576 
0.8936981575958187 1:425 2:528 
0.8938214757247566 1:401 2:480 
0.8938272947273997 1:383 2:435 
0.787192131162091 1:369 2:393 
0.8934534127398511 1:357 2:359 
0.8939619868545956 1:347 2:325 
0.8943874753491575 1:338 2:299 
0.8941780463841549 1:330 2:276 
0.8935846998465561 1:324 2:256 
0.8934875486916686 1:319 2:242 
0.8935102033307363 1:313 2:229 
0.8934944555233711 1:311 2:219 
0.8939319390031846 1:309 2:211 
0.8932383153486171 1:306 2:206 
0.8935040072062149 1:302 2:198 
0.8939286616825608 1:300 2:195 
0.8939120437485646 1:300 2:191 
0.893737255853009 1:297 2:185 
-1 1:537 2:486 
-1 1:507 2:440 
-1 1:482 2:395 
-1 1:460 2:351 
-1 1:436 2:303 
-1 1:415 2:259 
-1 1:396 2:218 
-1 1:378 2:185 
-1 1:367 2:158 
-1 1:355 2:134 
-1 1:344 2:115 
-1 1:335 2:101 
-1 1:327 2:90 
-1 1:318 2:80 
-1 1:312 2:73 
-1 1:308 2:67 
-1 1:303 2:62 
-1 1:300 2:59 
-1 1:296 2:55 
-1 1:293 2:52 
-1 1:290 2:50 
-1 1:497 2:393 
-1 1:473 2:347 
-1 1:450 2:301 
-1 1:431 2:259 
-1 1:412 2:220 
-1 1:395 2:186 
-1 1:378 2:157 
-1 1:365 2:133 
-1 1:355 2:114 
-1 1:344 2:99 
-1 1:335 2:85 
-1 1:326 2:76 
-1 1:315 2:68 
-1 1:310 2:61 
-1 1:306 2:57 
-1 1:301 2:52 
-1 1:296 2:49 
-1 1:293 2:45 
-1 1:284 2:43 
-1 1:283 2:41 
-1 1:281 2:39 
-0.2499999961925052 1:330 2:62 
-0.2499999961925052 1:320 2:52 
-0.2499999961925053 1:312 2:45 
-0.2499999989682319 1:301 2:40 
-0.2499999992258761 1:296 2:38 
-0.2499999995547892 1:290 2:35 
-0.4369112727704982 1:284 2:34 
-0.1249790326341479 1:280 2:31 
-0.1249790326341487 1:276 2:31 
-0.1061851806814847 1:270 2:30 
-0.1054852580555346 1:268 2:29 
-0.1062156106217386 1:266 2:30 
-0.1249371077888485 1:261 2:28 
-0.1054841415385434 1:257 2:28 
-0.1091569111837021 1:258 2:26 
-0.1057070772462146 1:256 2:26 
-0.1055388887852428 1:254 2:26 
-0.0371698633620011 1:252 2:26 
-0.04230323289562619 1:251 2:26 
-0.04235071832248451 1:248 2:25 
-0.03272071145096656 1:247 2:25 
-0.8564647784731775 1:330 2:62 
-0.856462823055523 1:320 2:52 
-0.8564617459633029 1:312 2:45 
-0.8565061224752064 1:301 2:40 
-0.8560879432627311 1:296 2:38 
-0.8560879711010512 1:290 2:35 
-0.6694102916972371 1:284 2:34 
-0.9806058051981366 1:280 2:31 
-0.9808429209858567 1:276 2:31 
-1 1:270 2:30 
-1 1:268 2:29 
-1 1:266 2:30 
-0.9813564925285054 1:261 2:28 
-1 1:257 2:28 
-0.9969166890873231 1:258 2:26 
-1 1:256 2:26 
-1 1:254 2:26 
-0.9369226332306509 1:252 2:26 
-0.9323323506798061 1:251 2:26 
-0.9323323592543585 1:248 2:25 
-0.941406313037821 1:247 2:25 
-1 1:277 2:122 
-1 1:272 2:116 
-1 1:269 2:111 
-1 1:265 2:108 
-1 1:262 2:105 
-1 1:260 2:100 
-1 1:257 2:99 
-0.1055788379365932 1:254 2:98 
-1 1:254 2:98 
-1 1:252 2:96 
-1 1:251 2:95 
-1 1:250 2:93 
-0.9745898889617367 1:247 2:93 
-1 1:246 2:91 
-0.9738022495763764 1:246 2:93 
-0.9741249590773813 1:244 2:89 
-0.9741553585519618 1:243 2:90 
-0.8425204214784313 1:244 2:90 
-0.8426810280850845 1:242 2:88 
-0.9740508839553177 1:241 2:88 
-0.9743443906909973 1:242 2:87 
-1 1:320 2:160 
-0.9744015556764194 1:310 2:143 
-1 1:302 2:128 
-1 1:292 2:118 
-1 1:285 2:109 
-1 1:282 2:100 
-1 1:276 2:95 
-1 1:273 2:91 
-1 1:267 2:86 
-1 1:264 2:84 
-1 1:261 2:82 
-1 1:259 2:81 
-0.9767163705920793 1:255 2:78 
-0.9559055332186552 1:254 2:78 
-1 1:253 2:79 
-1 1:251 2:79 
-1 1:249 2:76 
-0.8423690214485771 1:245 2:74 
-0.974199328478173 1:245 2:73 
-0.9737883262905712 1:244 2:74 
-1 1:408 2:349 
-1 1:392 2:309 
-1 1:374 2:272 
-1 1:358 2:238 
-1 1:345 2:210 
-1 1:336 2:186 
-1 1:326 2:165 
-1 1:318 2:149 
-1 1:310 2:134 
-1 1:302 2:123 
-1 1:295 2:113 
-1 1:290 2:105 
-0.9744783220890109 1:287 2:100 
-0.9746217135352058 1:281 2:95 
-1 1:278 2:90 
-1 1:272 2:85 
-1 1:270 2:83 
-1 1:267 2:80 
-0.9745772682603346 1:264 2:78 
-1 1:262 2:76 
-1 1:260 2:74 
-1 1:401 2:339 
-1 1:382 2:297 
-1 1:368 2:259 
-1 1:353 2:225 
-1 1:340 2:196 
-1 1:329 2:172 
-1 1:317 2:151 
-1 1:310 2:136 
-1 1:304 2:123 
-1 1:297 2:114 
-1 1:292 2:106 
-0.9746168857240315 1:287 2:101 
-0.9744718170591972 1:282 2:95 
-1 1:276 2:91 
-1 1:275 2:89 
-1 1:271 2:86 
-1 1:268 2:83 
-1 1:266 2:81 
-0.9744602576251088 1:264 2:79 
-1 1:261 2:78 
-1 1:260 2:77 
-1 1:401 2:360 
-1 1:382 2:315 
-1 1:367 2:273 
-1 1:354 2:239 
-1 1:342 2:211 
-1 1:331 2:187 
-1 1:323 2:169 
-1 1:317 2:157 
-0.9743993636155153 1:311 2:143 
-1 1:305 2:134 
-1 1:299 2:125 
-1 1:296 2:119 
-1 1:293 2:115 
-1 1:290 2:111 
-1 1:285 2:107 
-1 1:282 2:104 
-1 1:281 2:101 
-1 1:277 2:98 
-1 1:276 2:97 
-1 1:273 2:95 
-1 1:271 2:93 
