svm_type c_svc
kernel_type rbf
gamma 4
nr_class 2
total_sv 378
rho -0.014635
label 1 -1
nr_sv 189 189
SV
0.5 1:482 2:650 
0.5 1:443 2:612 
0.5 1:409 2:573 
0.5 1:380 2:533 
0.5 1:354 2:491 
0.5 1:329 2:446 
0.5 1:309 2:404 
0.5 1:290 2:364 
0.5 1:274 2:328 
0.5 1:264 2:300 
0.5 1:252 2:273 
0.5 1:244 2:251 
0.5 1:234 2:232 
0.5 1:227 2:215 
0.5 1:222 2:202 
0.5 1:216 2:192 
0.5 1:212 2:183 
0.5 1:207 2:176 
0.5 1:205 2:170 
0.5 1:203 2:165 
0.5 1:200 2:159 
0.5 1:591 2:744 
0.5 1:542 2:712 
0.5 1:502 2:682 
0.5 1:462 2:647 
0.5 1:430 2:613 
0.5 1:398 2:571 
0.5 1:368 2:527 
0.5 1:344 2:484 
0.5 1:322 2:439 
0.5 1:305 2:400 
0.5 1:289 2:364 
0.5 1:278 2:336 
0.5 1:268 2:306 
0.5 1:257 2:283 
0.5 1:250 2:264 
0.5 1:243 2:248 
0.5 1:237 2:235 
0.5 1:232 2:223 
0.5 1:228 2:214 
0.5 1:225 2:207 
0.5 1:221 2:200 
0.5 1:889 2:858 
0.5 1:882 2:852 
0.5 1:884 2:855 
0.5 1:878 2:849 
0.5 1:872 2:845 
0.5 1:869 2:844 
0.5 1:865 2:839 
0.5 1:864 2:839 
0.5 1:865 2:843 
0.5 1:860 2:838 
0.5 1:854 2:834 
0.5 1:852 2:835 
0.5 1:845 2:829 
0.5 1:841 2:827 
0.5 1:832 2:820 
0.5 1:825 2:816 
0.5 1:821 2:813 
0.5 1:816 2:813 
0.5 1:816 2:814 
0.5 1:813 2:813 
0.5 1:804 2:807 
0.5 1:543 2:707 
0.5 1:502 2:673 
0.5 1:465 2:641 
0.5 1:434 2:610 
0.5 1:404 2:573 
0.5 1:377 2:533 
0.5 1:350 2:491 
0.5 1:330 2:451 
0.5 1:312 2:414 
0.5 1:297 2:380 
0.5 1:283 2:348 
0.5 1:272 2:319 
0.5 1:261 2:294 
0.5 1:253 2:275 
0.5 1:245 2:257 
0.5 1:239 2:243 
0.5 1:233 2:230 
0.5 1:228 2:220 
0.5 1:225 2:210 
0.5 1:221 2:202 
0.5 1:217 2:196 
0.5 1:467 2:627 
0.5 1:428 2:586 
0.5 1:393 2:539 
0.5 1:362 2:489 
0.5 1:335 2:438 
0.5 1:315 2:393 
0.5 1:294 2:350 
0.5 1:277 2:311 
0.5 1:264 2:279 
0.5 1:253 2:253 
0.5 1:245 2:233 
0.5 1:237 2:216 
0.5 1:230 2:202 
0.5 1:223 2:188 
0.5 1:218 2:179 
0.5 1:214 2:172 
0.5 1:209 2:166 
0.5 1:207 2:160 
0.5 1:201 2:155 
0.5 1:202 2:153 
0.5 1:198 2:149 
0.5 1:476 2:507 
0.5 1:448 2:454 
0.5 1:423 2:402 
0.5 1:403 2:356 
0.5 1:389 2:318 
0.5 1:377 2:286 
0.5 1:366 2:258 
0.5 1:356 2:235 
0.5 1:348 2:215 
0.5 1:340 2:199 
0.5 1:335 2:187 
0.5 1:331 2:179 
0.5 1:327 2:170 
0.5 1:326 2:165 
0.5 1:322 2:160 
0.5 1:321 2:157 
0.5 1:318 2:152 
0.5 1:316 2:147 
0.5 1:316 2:146 
0.5 1:314 2:144 
0.5 1:313 2:142 
0.5 1:544 2:688 
0.5 1:511 2:654 
0.4908421240589931 1:481 2:620 
0.5 1:457 2:584 
0.5 1:434 2:546 
0.5 1:415 2:507 
0.5 1:397 2:466 
0.5 1:381 2:429 
0.5 1:368 2:393 
0.5 1:356 2:361 
0.5 1:347 2:334 
0.5 1:340 2:309 
0.5 1:335 2:287 
0.5 1:327 2:267 
0.5 1:323 2:252 
0.5 1:318 2:236 
0.5 1:313 2:224 
0.5 1:311 2:214 
0.5 1:306 2:204 
0.5 1:304 2:198 
0.5 1:303 2:191 
0.5 1:609 2:729 
0.5 1:575 2:704 
0.5 1:542 2:673 
0.5 1:512 2:643 
0.5 1:485 2:609 
0.5 1:459 2:572 
0.5 1:441 2:539 
0.5 1:420 2:500 
0.5 1:403 2:464 
0.5 1:389 2:431 
0.5 1:377 2:397 
0.5 1:366 2:367 
0.5 1:356 2:340 
0.5 1:349 2:316 
0.5 1:341 2:293 
0.5 1:335 2:275 
0.5 1:329 2:258 
0.5 1:324 2:243 
0.5 1:319 2:230 
0.5 1:314 2:219 
0.5 1:312 2:210 
0.5 1:519 2:665 
0.4943391052405851 1:481 2:620 
0.5 1:450 2:576 
0.5 1:425 2:528 
0.5 1:401 2:480 
0.5 1:383 2:435 
0.5 1:369 2:393 
0.5 1:357 2:359 
0.5 1:347 2:325 
0.5 1:338 2:299 
0.5 1:330 2:276 
0.5 1:324 2:256 
0.5 1:319 2:242 
0.5 1:313 2:229 
0.5 1:311 2:219 
0.5 1:309 2:211 
0.5 1:306 2:206 
0.5 1:302 2:198 
0.5 1:300 2:195 
0.5 1:300 2:191 
0.5 1:297 2:185 
-0.5 1:537 2:486 
-0.5 1:507 2:440 
-0.5 1:482 2:395 
-0.5 1:460 2:351 
-0.5 1:436 2:303 
-0.5 1:415 2:259 
-0.5 1:396 2:218 
-0.5 1:378 2:185 
-0.5 1:367 2:158 
-0.5 1:355 2:134 
-0.5 1:344 2:115 
-0.5 1:335 2:101 
-0.5 1:327 2:90 
-0.5 1:318 2:80 
-0.5 1:312 2:73 
-0.5 1:308 2:67 
-0.5 1:303 2:62 
-0.5 1:300 2:59 
-0.5 1:296 2:55 
-0.5 1:293 2:52 
-0.5 1:290 2:50 
-0.5 1:497 2:393 
-0.5 1:473 2:347 
-0.5 1:450 2:301 
-0.5 1:431 2:259 
-0.5 1:412 2:220 
-0.5 1:395 2:186 
-0.5 1:378 2:157 
-0.5 1:365 2:133 
-0.5 1:355 2:114 
-0.5 1:344 2:99 
-0.5 1:335 2:85 
-0.5 1:326 2:76 
-0.5 1:315 2:68 
-0.5 1:310 2:61 
-0.5 1:306 2:57 
-0.5 1:301 2:52 
-0.5 1:296 2:49 
-0.5 1:293 2:45 
-0.5 1:284 2:43 
-0.5 1:283 2:41 
-0.5 1:281 2:39 
-0.5 1:330 2:62 
-0.5 1:320 2:52 
-0.5 1:312 2:45 
-0.5 1:301 2:40 
-0.5 1:296 2:38 
-0.5 1:290 2:35 
-0.5 1:284 2:34 
-0.5 1:280 2:31 
-0.5 1:276 2:31 
-0.5 1:270 2:30 
-0.5 1:268 2:29 
-0.5 1:266 2:30 
-0.5 1:261 2:28 
-0.5 1:257 2:28 
-0.5 1:258 2:26 
-0.5 1:256 2:26 
-0.5 1:254 2:26 
-0.496565917658592 1:252 2:26 
-0.5 1:251 2:26 
-0.5 1:248 2:25 
-0.5 1:247 2:25 
-0.5 1:330 2:62 
-0.5 1:320 2:52 
-0.5 1:312 2:45 
-0.5 1:301 2:40 
-0.5 1:296 2:38 
-0.5 1:290 2:35 
-0.5 1:284 2:34 
-0.5 1:280 2:31 
-0.5 1:276 2:31 
-0.5 1:270 2:30 
-0.5 1:268 2:29 
-0.5 1:266 2:30 
-0.5 1:261 2:28 
-0.5 1:257 2:28 
-0.5 1:258 2:26 
-0.5 1:256 2:26 
-0.5 1:254 2:26 
-0.5 1:252 2:26 
-0.496014727584519 1:251 2:26 
-0.4960143555788837 1:248 2:25 
-0.4965862284775834 1:247 2:25 
-0.5 1:277 2:122 
-0.5 1:272 2:116 
-0.5 1:269 2:111 
-0.5 1:265 2:108 
-0.5 1:262 2:105 
-0.5 1:260 2:100 
-0.5 1:257 2:99 
-0.5 1:254 2:98 
-0.5 1:254 2:98 
-0.5 1:252 2:96 
-0.5 1:251 2:95 
-0.5 1:250 2:93 
-0.5 1:247 2:93 
-0.5 1:246 2:91 
-0.5 1:246 2:93 
-0.5 1:244 2:89 
-0.5 1:243 2:90 
-0.5 1:244 2:90 
-0.5 1:242 2:88 
-0.5 1:241 2:88 
-0.5 1:242 2:87 
-0.5 1:320 2:160 
-0.5 1:310 2:143 
-0.5 1:302 2:128 
-0.5 1:292 2:118 
-0.5 1:285 2:109 
-0.5 1:282 2:100 
-0.5 1:276 2:95 
-0.5 1:273 2:91 
-0.5 1:267 2:86 
-0.5 1:264 2:84 
-0.5 1:261 2:82 
-0.5 1:259 2:81 
-0.5 1:255 2:78 
-0.5 1:254 2:78 
-0.5 1:253 2:79 
-0.5 1:251 2:79 
-0.5 1:249 2:76 
-0.5 1:245 2:73 
-0.5 1:245 2:74 
-0.5 1:245 2:73 
-0.5 1:244 2:74 
-0.5 1:408 2:349 
-0.5 1:392 2:309 
-0.5 1:374 2:272 
-0.5 1:358 2:238 
-0.5 1:345 2:210 
-0.5 1:336 2:186 
-0.5 1:326 2:165 
-0.5 1:318 2:149 
-0.5 1:310 2:134 
-0.5 1:302 2:123 
-0.5 1:295 2:113 
-0.5 1:290 2:105 
-0.5 1:287 2:100 
-0.5 1:281 2:95 
-0.5 1:278 2:90 
-0.5 1:272 2:85 
-0.5 1:270 2:83 
-0.5 1:267 2:80 
-0.5 1:264 2:78 
-0.5 1:262 2:76 
-0.5 1:260 2:74 
-0.5 1:401 2:339 
-0.5 1:382 2:297 
-0.5 1:368 2:259 
-0.5 1:353 2:225 
-0.5 1:340 2:196 
-0.5 1:329 2:172 
-0.5 1:317 2:151 
-0.5 1:310 2:136 
-0.5 1:304 2:123 
-0.5 1:297 2:114 
-0.5 1:292 2:106 
-0.5 1:287 2:101 
-0.5 1:282 2:95 
-0.5 1:276 2:91 
-0.5 1:275 2:89 
-0.5 1:271 2:86 
-0.5 1:268 2:83 
-0.5 1:266 2:81 
-0.5 1:264 2:79 
-0.5 1:261 2:78 
-0.5 1:260 2:77 
-0.5 1:401 2:360 
-0.5 1:382 2:315 
-0.5 1:367 2:273 
-0.5 1:354 2:239 
-0.5 1:342 2:211 
-0.5 1:331 2:187 
-0.5 1:323 2:169 
-0.5 1:317 2:157 
-0.5 1:311 2:143 
-0.5 1:305 2:134 
-0.5 1:299 2:125 
-0.5 1:296 2:119 
-0.5 1:293 2:115 
-0.5 1:290 2:111 
-0.5 1:285 2:107 
-0.5 1:282 2:104 
-0.5 1:281 2:101 
-0.5 1:277 2:98 
-0.5 1:276 2:97 
-0.5 1:273 2:95 
-0.5 1:271 2:93 
