svm_type c_svc
kernel_type rbf
gamma 4
nr_class 2
total_sv 377
rho -0.104309
label 1 -1
nr_sv 188 189
SV
0.8958887587435872 1:482 2:650 
0.895868561199888 1:443 2:612 
0.8958379308023452 1:409 2:573 
0.8954249828018616 1:380 2:533 
0.8958326968095193 1:354 2:491 
0.8955367140510001 1:329 2:446 
0.8958339572411453 1:309 2:404 
0.8793966145617741 1:290 2:364 
0.8957384978825151 1:274 2:328 
0.8954456563063146 1:264 2:300 
0.8952206336318267 1:252 2:273 
0.8956969495040599 1:244 2:251 
0.8951619753328629 1:234 2:232 
0.8956154057288019 1:227 2:215 
0.8793413411772906 1:222 2:202 
0.8956969494542282 1:216 2:192 
0.8961397507746756 1:212 2:183 
0.8953368915009123 1:207 2:176 
0.8953368694442201 1:205 2:170 
0.8959161389420215 1:203 2:165 
0.8954354546199218 1:200 2:159 
0.8954885686347205 1:591 2:744 
0.8954885689132832 1:542 2:712 
0.8958131684758204 1:502 2:682 
0.8959146883268985 1:462 2:647 
0.8952206553053064 1:430 2:613 
0.8952206354774555 1:398 2:571 
0.8952206354631332 1:368 2:527 
0.895914701954498 1:344 2:484 
0.895738497883104 1:322 2:439 
0.8961397505627852 1:305 2:400 
0.8793622978208439 1:289 2:364 
0.8954885716162333 1:278 2:336 
0.8954885686347205 1:268 2:306 
0.8954885689132832 1:257 2:283 
0.8954989456497378 1:250 2:264 
0.8952206570651267 1:243 2:248 
0.8959147018379497 1:237 2:235 
0.8958379308447266 1:232 2:223 
0.8955587167021519 1:228 2:214 
0.8956969501395537 1:225 2:207 
0.895488470985505 1:221 2:200 
0.8961397505627847 1:889 2:858 
0.8961397505627852 1:882 2:852 
0.8958887587435889 1:884 2:855 
0.8958593251213236 1:878 2:849 
0.895914698848286 1:872 2:845 
0.8959147018379497 1:869 2:844 
0.8793956886685632 1:865 2:839 
0.8794635571998354 1:864 2:839 
0.8958379308023452 1:865 2:843 
0.8954989456497378 1:860 2:838 
0.8951619753317122 1:854 2:834 
0.8952206542463538 1:852 2:835 
0.8958379308023452 1:845 2:829 
0.8959168884394347 1:841 2:827 
0.8959147018379497 1:832 2:820 
0.8958352219383079 1:825 2:816 
0.8959185575613426 1:821 2:813 
0.8793518329782454 1:816 2:813 
0.8793967119477042 1:816 2:814 
0.8961397505627849 1:813 2:813 
0.895914701954498 1:804 2:807 
0.8958160761535057 1:543 2:707 
0.8958379308023452 1:502 2:673 
0.8958352219544106 1:465 2:641 
0.8958326968033918 1:434 2:610 
0.8954354546199218 1:404 2:573 
0.8956969498905843 1:377 2:533 
0.8954251301402423 1:350 2:491 
0.8956969494542282 1:330 2:451 
0.8955036260009226 1:312 2:414 
0.8956969498905845 1:297 2:380 
0.8954989456497378 1:283 2:348 
0.8959185575613426 1:272 2:319 
0.8958090077502936 1:261 2:294 
0.8959168865942474 1:253 2:275 
0.8954251244377012 1:245 2:257 
0.8954251301402423 1:239 2:243 
0.8958160743084392 1:233 2:230 
0.8954989456497378 1:228 2:220 
0.8961397505627849 1:225 2:210 
0.879265690829672 1:221 2:202 
0.8954913773917097 1:217 2:196 
0.8954913770052857 1:467 2:627 
0.8959146988459152 1:428 2:586 
0.8958326967975523 1:393 2:539 
0.8958591621964381 1:362 2:489 
0.8958379308023452 1:335 2:438 
0.8958379308023452 1:315 2:393 
0.8958378489060419 1:294 2:350 
0.8958090077502936 1:277 2:311 
0.8958232086419939 1:264 2:279 
0.8958090077502936 1:253 2:253 
0.8958379308023452 1:245 2:233 
0.8958379307904561 1:237 2:216 
0.8961397507746756 1:230 2:202 
0.8954249898341309 1:223 2:188 
0.8955027787840806 1:218 2:179 
0.8959146988459152 1:214 2:172 
0.8954465237919738 1:209 2:166 
0.8959147018379497 1:207 2:160 
0.8951619753328597 1:201 2:155 
0.8958378470609755 1:202 2:153 
0.8958887587435889 1:198 2:149 
0.895738497883104 1:476 2:507 
0.8954885689132832 1:448 2:454 
0.8958378489060419 1:423 2:402 
0.8958326967975523 1:403 2:356 
0.8951619771857924 1:389 2:318 
0.8954249898341309 1:377 2:286 
0.8958378509728657 1:366 2:258 
0.8954249828018617 1:356 2:235 
0.8954249898341309 1:348 2:215 
0.8958326966995184 1:340 2:199 
0.8958721766752072 1:335 2:187 
0.8954885717423882 1:331 2:179 
0.8958378489117247 1:327 2:170 
1 1:326 2:165 
0.8955368265861759 1:322 2:160 
0.8955026972638673 1:321 2:157 
0.8954974398099997 1:318 2:152 
0.8793413415221244 1:316 2:147 
0.879265769748813 1:316 2:146 
0.8956969478294667 1:314 2:144 
0.8958326970228161 1:313 2:142 
0.895491377517413 1:544 2:688 
0.8954913760327471 1:511 2:654 
0.8955026029795147 1:457 2:584 
0.8959185575613426 1:434 2:546 
0.8957384978825151 1:415 2:507 
0.895914701954498 1:397 2:466 
0.8961397507746756 1:381 2:429 
0.8793965358854059 1:368 2:393 
0.8951619753328597 1:356 2:361 
0.8959185575613426 1:347 2:334 
0.8961185196527971 1:340 2:309 
0.8961397507746756 1:335 2:287 
0.8958131684758204 1:327 2:267 
0.8954354546199218 1:323 2:252 
0.8958131684758204 1:318 2:236 
0.8958352219544106 1:313 2:224 
0.8958352219544106 1:311 2:214 
0.8956968489038046 1:306 2:204 
0.8956968487913013 1:304 2:198 
0.895696949454228 1:303 2:191 
0.8958326968078314 1:609 2:729 
0.8961397507746756 1:575 2:704 
0.8958131684758204 1:542 2:673 
0.8958339572411453 1:512 2:643 
0.8958352219544106 1:485 2:609 
0.8958352219544106 1:459 2:572 
0.8958090077502936 1:441 2:539 
0.8958326968033918 1:420 2:500 
0.895491377517413 1:403 2:464 
0.8958593251213236 1:389 2:431 
0.8954885716162333 1:377 2:397 
0.8952206570651267 1:366 2:367 
0.8958352219544106 1:356 2:340 
0.8958379307904561 1:349 2:316 
0.8956969501395539 1:341 2:293 
0.8961397505627847 1:335 2:275 
0.8954913773917097 1:329 2:258 
0.8961397505627852 1:324 2:243 
0.8958379308023452 1:319 2:230 
0.895696949454228 1:314 2:219 
0.8958326968015923 1:312 2:210 
0.8954913760327471 1:519 2:665 
0.8961397505627852 1:481 2:620 
0.895914698848286 1:450 2:576 
0.8952206354774555 1:425 2:528 
0.8954251244377012 1:401 2:480 
0.8954465248130303 1:383 2:435 
0.8793710442576073 1:369 2:393 
0.8954441992637054 1:357 2:359 
0.8958352219383079 1:347 2:325 
0.8958379306346508 1:338 2:299 
0.8958326967975523 1:330 2:276 
0.8958378489060801 1:324 2:256 
0.8954913770052857 1:319 2:242 
0.8952206560914201 1:313 2:229 
0.895220635463133 1:311 2:219 
0.8958378489060419 1:309 2:211 
0.8954884680216234 1:306 2:206 
0.8958325959480262 1:302 2:198 
0.8961397507746756 1:300 2:195 
0.8954465237919735 1:300 2:191 
0.8958379307904559 1:297 2:185 
-1 1:537 2:486 
-1 1:507 2:440 
-1 1:482 2:395 
-1 1:460 2:351 
-1 1:436 2:303 
-1 1:415 2:259 
-1 1:396 2:218 
-1 1:378 2:185 
-1 1:367 2:158 
-1 1:355 2:134 
-1 1:344 2:115 
-1 1:335 2:101 
-1 1:327 2:90 
-1 1:318 2:80 
-1 1:312 2:73 
-1 1:308 2:67 
-1 1:303 2:62 
-1 1:300 2:59 
-1 1:296 2:55 
-1 1:293 2:52 
-1 1:290 2:50 
-1 1:497 2:393 
-1 1:473 2:347 
-1 1:450 2:301 
-1 1:431 2:259 
-1 1:412 2:220 
-1 1:395 2:186 
-1 1:378 2:157 
-1 1:365 2:133 
-1 1:355 2:114 
-1 1:344 2:99 
-1 1:335 2:85 
-1 1:326 2:76 
-1 1:315 2:68 
-1 1:310 2:61 
-1 1:306 2:57 
-1 1:301 2:52 
-1 1:296 2:49 
-1 1:293 2:45 
-1 1:284 2:43 
-1 1:283 2:41 
-1 1:281 2:39 
-0.2499999999999999 1:330 2:62 
-0.2499999999999999 1:320 2:52 
-0.2382431313465205 1:312 2:45 
-0.2291673605006125 1:301 2:40 
-0.2291673605527363 1:296 2:38 
-0.2920114027161971 1:290 2:35 
-0.4763451619306952 1:284 2:34 
-0.476077248702111 1:280 2:31 
-0.5420543151000667 1:276 2:31 
-0.1041621488167998 1:270 2:30 
-0.10477935996417 1:268 2:29 
-0.1041620670882292 1:266 2:30 
-0.4791839801140823 1:261 2:28 
-0.1041672986485216 1:257 2:28 
-0.1041671767550788 1:258 2:26 
-0.104167052509931 1:256 2:26 
-0.104161823005221 1:254 2:26 
-0.09319527099607086 1:252 2:26 
-0.08432195339169146 1:251 2:26 
-0.08426503998791907 1:248 2:25 
-0.08427243137130835 1:247 2:25 
-0.854085298045502 1:330 2:62 
-0.8545534751869698 1:320 2:52 
-0.865842180326581 1:312 2:45 
-0.8749999427018351 1:301 2:40 
-0.8749999427018351 1:296 2:38 
-0.8125000286490824 1:290 2:35 
-0.6284341827639984 1:284 2:34 
-0.6284341823846058 1:280 2:31 
-0.5625000286490824 1:276 2:31 
-1 1:270 2:30 
-1 1:268 2:29 
-1 1:266 2:30 
-0.6249999437324121 1:261 2:28 
-1 1:257 2:28 
-1 1:258 2:26 
-1 1:256 2:26 
-1 1:254 2:26 
-0.9908421240589962 1:252 2:26 
-1 1:251 2:26 
-1 1:248 2:25 
-1 1:247 2:25 
-1 1:277 2:122 
-1 1:272 2:116 
-1 1:269 2:111 
-1 1:265 2:108 
-1 1:262 2:105 
-1 1:260 2:100 
-1 1:257 2:99 
-0.1041620692095314 1:254 2:98 
-1 1:254 2:98 
-1 1:252 2:96 
-1 1:251 2:95 
-1 1:250 2:93 
-1 1:247 2:93 
-1 1:246 2:91 
-1 1:246 2:93 
-1 1:244 2:89 
-1 1:243 2:90 
-1 1:244 2:90 
-1 1:242 2:88 
-1 1:241 2:88 
-1 1:242 2:87 
-1 1:320 2:160 
-1 1:310 2:143 
-1 1:302 2:128 
-1 1:292 2:118 
-1 1:285 2:109 
-1 1:282 2:100 
-1 1:276 2:95 
-1 1:273 2:91 
-1 1:267 2:86 
-1 1:264 2:84 
-1 1:261 2:82 
-1 1:259 2:81 
-1 1:255 2:78 
-1 1:254 2:78 
-1 1:253 2:79 
-1 1:251 2:79 
-1 1:249 2:76 
-0.08570055318755278 1:245 2:73 
-1 1:245 2:74 
-0.9998322686878964 1:245 2:73 
-1 1:244 2:74 
-1 1:408 2:349 
-1 1:392 2:309 
-1 1:374 2:272 
-1 1:358 2:238 
-1 1:345 2:210 
-1 1:336 2:186 
-1 1:326 2:165 
-1 1:318 2:149 
-1 1:310 2:134 
-1 1:302 2:123 
-1 1:295 2:113 
-1 1:290 2:105 
-1 1:287 2:100 
-1 1:281 2:95 
-1 1:278 2:90 
-1 1:272 2:85 
-1 1:270 2:83 
-1 1:267 2:80 
-1 1:264 2:78 
-1 1:262 2:76 
-1 1:260 2:74 
-1 1:401 2:339 
-1 1:382 2:297 
-1 1:368 2:259 
-1 1:353 2:225 
-1 1:340 2:196 
-1 1:329 2:172 
-1 1:317 2:151 
-1 1:310 2:136 
-1 1:304 2:123 
-1 1:297 2:114 
-1 1:292 2:106 
-1 1:287 2:101 
-1 1:282 2:95 
-1 1:276 2:91 
-1 1:275 2:89 
-1 1:271 2:86 
-1 1:268 2:83 
-1 1:266 2:81 
-1 1:264 2:79 
-1 1:261 2:78 
-1 1:260 2:77 
-1 1:401 2:360 
-1 1:382 2:315 
-1 1:367 2:273 
-1 1:354 2:239 
-1 1:342 2:211 
-1 1:331 2:187 
-1 1:323 2:169 
-1 1:317 2:157 
-1 1:311 2:143 
-1 1:305 2:134 
-1 1:299 2:125 
-1 1:296 2:119 
-1 1:293 2:115 
-1 1:290 2:111 
-1 1:285 2:107 
-1 1:282 2:104 
-1 1:281 2:101 
-1 1:277 2:98 
-1 1:276 2:97 
-1 1:273 2:95 
-1 1:271 2:93 
