svm_type c_svc
kernel_type rbf
gamma 4
nr_class 2
total_sv 354
rho -0.0634599
label 1 -1
nr_sv 188 166
SV
0.9365766737725418 1:482 2:650 
0.9367376097720745 1:443 2:612 
0.9367557792820228 1:409 2:573 
0.9367195382682986 1:380 2:533 
0.9367584751957909 1:354 2:491 
0.9367611429224407 1:329 2:446 
0.9360638352307443 1:309 2:404 
0.9194493125381427 1:290 2:364 
0.9360638489755845 1:274 2:328 
0.9360638489756273 1:264 2:300 
0.9367494390056051 1:252 2:273 
0.9360638474590596 1:244 2:251 
0.9367438047670029 1:234 2:232 
0.9364466227740929 1:227 2:215 
0.9192527441379905 1:222 2:202 
0.9360638474590592 1:216 2:192 
0.9360638474590596 1:212 2:183 
0.936061233769637 1:207 2:176 
0.9360612364787487 1:205 2:170 
0.9360612312701554 1:203 2:165 
0.9367376097720745 1:200 2:159 
0.9367291076944785 1:591 2:744 
0.9367494409349765 1:542 2:712 
0.9367195391280309 1:502 2:682 
0.9367195373213767 1:462 2:647 
0.9367143341065391 1:430 2:613 
0.9367559014634527 1:398 2:571 
0.9367506712883693 1:368 2:527 
0.9367524099658402 1:344 2:484 
0.9365744004510657 1:322 2:439 
0.9365744001773635 1:305 2:400 
0.9198827828258765 1:289 2:364 
0.936570244288653 1:278 2:336 
0.9366761989426566 1:268 2:306 
0.9366594992819781 1:257 2:283 
0.9367584752399998 1:250 2:264 
0.9367584752399998 1:243 2:248 
0.9360391627621104 1:237 2:235 
0.9360389520984 1:232 2:223 
0.936441636440517 1:228 2:214 
0.9367195382232022 1:225 2:207 
0.9367583730442962 1:221 2:200 
0.9367506712883693 1:889 2:858 
0.9367637021067761 1:882 2:852 
0.9367431818225738 1:884 2:855 
0.9367431783150851 1:878 2:849 
0.9367313261953621 1:872 2:845 
0.9367577268453557 1:869 2:844 
0.919444295871724 1:865 2:839 
0.919247908995213 1:864 2:839 
0.9360638474590597 1:865 2:843 
0.9360638474590596 1:860 2:838 
0.9367438047574754 1:854 2:834 
0.9360638332984128 1:852 2:835 
0.936583464722755 1:845 2:829 
0.9365834645763507 1:841 2:827 
0.9365766737725418 1:832 2:820 
0.9365744004510657 1:825 2:816 
0.9365744001773635 1:821 2:813 
0.9192136363733829 1:816 2:813 
0.9193393559504511 1:816 2:814 
0.936719537396913 1:813 2:813 
0.9365743575730697 1:804 2:807 
0.9365730901462669 1:543 2:707 
0.936570244288653 1:502 2:673 
0.9365692320070037 1:465 2:641 
0.9364481869101341 1:434 2:610 
0.9364349795702483 1:404 2:573 
0.9367195373213766 1:377 2:533 
0.9362833241317274 1:350 2:491 
0.9362809090432153 1:330 2:451 
0.9366363167484592 1:312 2:414 
0.9366466890239745 1:297 2:380 
0.9367143377923333 1:283 2:348 
0.9367143377912074 1:272 2:319 
0.9367143377903814 1:261 2:294 
0.9360638332984144 1:253 2:275 
0.9367143377902377 1:245 2:257 
0.9367143371461729 1:239 2:243 
0.9360638315406445 1:233 2:230 
0.9367143371461729 1:228 2:220 
0.9367176676618061 1:225 2:210 
0.9193140827496814 1:221 2:202 
0.9367143341065799 1:217 2:196 
0.9367143341065799 1:467 2:627 
0.9367143341065391 1:428 2:586 
0.9367143341065391 1:393 2:539 
0.9367119427964621 1:362 2:489 
0.9367065358269164 1:335 2:438 
0.936698536620805 1:315 2:393 
0.9366985366113663 1:294 2:350 
0.9366985366032818 1:277 2:311 
0.9366985365385949 1:264 2:279 
0.9366985365223603 1:253 2:253 
0.9367176676618063 1:245 2:233 
0.9367176577646343 1:237 2:216 
0.936731254702198 1:230 2:202 
0.9367312476832467 1:223 2:188 
0.9367293623303302 1:218 2:179 
0.9367291958279472 1:214 2:172 
0.9367291923178458 1:209 2:166 
0.9367291077721182 1:207 2:160 
0.9367494390064123 1:201 2:155 
0.9360612318373055 1:202 2:153 
0.9367291077706117 1:198 2:149 
0.9367291076944785 1:476 2:507 
0.9367291076944785 1:448 2:454 
0.9367278975372592 1:423 2:402 
0.9367230848320233 1:403 2:356 
0.9367229327904656 1:389 2:318 
0.9367229149999546 1:377 2:286 
0.9367420609400159 1:366 2:258 
0.9367229085675294 1:356 2:235 
0.9367229015071489 1:348 2:215 
0.9365873230414586 1:340 2:199 
0.9370550652023586 1:335 2:187 
0.9367210161193715 1:331 2:179 
0.9360638474590727 1:327 2:170 
2 1:326 2:165 
0.9366763202275569 1:322 2:160 
0.9367195382232024 1:321 2:157 
0.9371091909347858 1:318 2:152 
0.9192532039237757 1:316 2:147 
0.9193337137033417 1:316 2:146 
0.9360638455599616 1:314 2:144 
0.9361377566220057 1:313 2:142 
0.9367195450351964 1:544 2:688 
0.9367143341065799 1:511 2:654 
0.9367143377902377 1:457 2:584 
0.936742653923371 1:434 2:546 
0.9362518988840057 1:415 2:507 
0.936761146230253 1:397 2:466 
0.9367611429224413 1:381 2:429 
0.9194442889462349 1:368 2:393 
0.9367494390064106 1:356 2:361 
0.9360638334729762 1:347 2:334 
0.9360638352307459 1:340 2:309 
0.9360638489755846 1:335 2:287 
0.9360638489756277 1:327 2:267 
0.9360638474866892 1:323 2:252 
0.9360638474590597 1:318 2:236 
0.9360612364796194 1:313 2:224 
0.9360612312701554 1:311 2:214 
0.9367142286048245 1:306 2:204 
0.9367142286048652 1:304 2:198 
0.9366466890239744 1:303 2:191 
0.9360535128710905 1:609 2:729 
0.9360535129342136 1:575 2:704 
0.9366466890239745 1:542 2:673 
0.9360389520984 1:512 2:643 
0.9366985366032818 1:485 2:609 
0.9367179248539266 1:459 2:572 
0.9360391627621104 1:441 2:539 
0.9367322964787831 1:420 2:500 
0.9367506712883693 1:403 2:464 
0.9367195483218181 1:389 2:431 
0.9367195382685948 1:377 2:397 
0.9367143371461729 1:366 2:367 
0.9367506712883693 1:356 2:340 
0.936742653923371 1:349 2:316 
0.9367420587484555 1:341 2:293 
0.9367195391280309 1:335 2:275 
0.9367195483218181 1:329 2:258 
0.9367195382685948 1:324 2:243 
0.9367179248539266 1:319 2:230 
0.9367426539233707 1:314 2:219 
0.9366982916781421 1:312 2:210 
0.9365743575730697 1:519 2:665 
0.9365730901462669 1:481 2:620 
0.9365692320070037 1:450 2:576 
0.9366592518945402 1:425 2:528 
0.9367611464831787 1:401 2:480 
0.936761146230253 1:383 2:435 
0.9192479095982633 1:369 2:393 
0.9360612318373055 1:357 2:359 
0.9367143371461729 1:347 2:325 
0.9367494409050556 1:338 2:299 
0.9367291076944785 1:330 2:276 
0.9367229327904656 1:324 2:256 
0.9367229149999546 1:319 2:242 
0.9360389517553844 1:313 2:229 
0.9367179248539264 1:311 2:219 
0.9360563835497793 1:309 2:211 
0.9367610425311053 1:306 2:206 
0.9367583697824906 1:302 2:198 
0.9367426539395478 1:300 2:195 
0.9367179248539264 1:300 2:191 
0.9367611446476921 1:297 2:185 
-1.063938768663875 1:537 2:486 
-1.063238853516821 1:507 2:440 
-1.063238852055594 1:482 2:395 
-1.063250559094944 1:460 2:351 
-1.063934209315928 1:436 2:303 
-1.063936151056239 1:415 2:259 
-1.063936151056609 1:396 2:218 
-1.06393615254094 1:378 2:185 
-1.063411366809633 1:367 2:158 
-1.063411374809385 1:355 2:134 
-1.063719097871229 1:344 2:115 
-1.063731015580746 1:335 2:101 
-1.06373195273646 1:327 2:90 
-1.063731959645815 1:318 2:80 
-1.063748101115994 1:312 2:73 
-1.063824658603038 1:308 2:67 
-1.063829576145153 1:303 2:62 
-1.06383787611184 1:300 2:59 
-1.06340973099296 1:296 2:55 
-1.06330146348734 1:293 2:52 
-1.063301469374154 1:290 2:50 
-1.063301469374154 1:497 2:393 
-1.063301501686396 1:473 2:347 
-1.063301502402258 1:450 2:301 
-1.063301708321858 1:431 2:259 
-1.06330170895045 1:412 2:220 
-1.06330969051494 1:395 2:186 
-1.063309692229208 1:378 2:157 
-1.063282117831618 1:365 2:133 
-1.063280451678182 1:355 2:114 
-1.063280451678182 1:344 2:99 
-1.06328045495861 1:335 2:85 
-1.063280454964804 1:326 2:76 
-1.063280459454197 1:315 2:68 
-1.063280459498483 1:310 2:61 
-1.063280460871969 1:306 2:57 
-1.063280460871969 1:301 2:52 
-1.063936151056609 1:296 2:49 
-1.063936151056239 1:293 2:45 
-1.063270805489165 1:284 2:43 
-1.063267818463064 1:283 2:41 
-1.063936151024402 1:281 2:39 
-1.063936150766776 1:330 2:62 
-1.063936152540939 1:320 2:52 
-1.063938766230363 1:312 2:45 
-1.063938768663875 1:301 2:40 
-1.06324152476 1:296 2:38 
-1.063301463461405 1:290 2:35 
-1.063340500718022 1:284 2:34 
-1.063301463388634 1:280 2:31 
-1.063250559064222 1:276 2:31 
-1.063938766536751 1:270 2:30 
-1.063256188917743 1:268 2:29 
-1.063938766536751 1:266 2:30 
-1.063285662209619 1:261 2:28 
-1.063285657823972 1:257 2:28 
-1.06330134154987 1:258 2:26 
-1.063280217859543 1:256 2:26 
-1.063280217784741 1:254 2:26 
-1.04427297338929 1:252 2:26 
-1.044144110509421 1:251 2:26 
-1.044274465778477 1:248 2:25 
-1.044142172374467 1:247 2:25 
-1.063270892227882 1:277 2:122 
-1.063280459498483 1:272 2:116 
-1.063257346060452 1:269 2:111 
-1.063288057203538 1:265 2:108 
-1.063301469374154 1:262 2:105 
-1.063363683251541 1:260 2:100 
-1.063565020429752 1:257 2:99 
-1.063934208966351 1:254 2:98 
-1.062925359691193 1:252 2:96 
-1.0634810398171 1:251 2:95 
-1.063938761326496 1:250 2:93 
-1.044273153853633 1:247 2:93 
-1.063301587094509 1:246 2:91 
-1.044142102192354 1:246 2:93 
-1.044210351661551 1:244 2:89 
-1.044110964254296 1:243 2:90 
-1.025009707085285 1:244 2:90 
-1.024993445381076 1:242 2:88 
-1.044172177579676 1:241 2:88 
-1.044119543263883 1:242 2:87 
-1.063241953105946 1:320 2:160 
-1.044278327449803 1:310 2:143 
-1.063353310976025 1:302 2:128 
-1.063277091432471 1:292 2:118 
-1.063238735694404 1:285 2:109 
-1.062911138201297 1:282 2:100 
-1.063301343686265 1:276 2:95 
-1.063936151024345 1:273 2:91 
-1.063277098492851 1:267 2:86 
-1.063946487065786 1:264 2:84 
-1.063241952895985 1:261 2:82 
-1.063256191123177 1:259 2:81 
-1.044279336041057 1:255 2:78 
-1.043755588033078 1:254 2:78 
-1.06349194279672 1:253 2:79 
-1.063280342922834 1:251 2:79 
-1.063942186610306 1:249 2:76 
-1.024993449648896 1:245 2:74 
-1.044172175785749 1:245 2:73 
-1.044119539674957 1:244 2:74 
-1.063946487128909 1:408 2:349 
-1.06324152476 1:392 2:309 
-1.063241521605811 1:374 2:272 
-1.063842450048251 1:358 2:238 
-1.063257346076629 1:345 2:210 
-1.063550644844423 1:336 2:186 
-2 1:326 2:165 
-1.063244096344421 1:318 2:149 
-1.063238737420908 1:310 2:134 
-1.063238737420907 1:302 2:123 
-1.063961882537375 1:295 2:113 
-1.063241845368699 1:290 2:105 
-1.044280352225134 1:287 2:100 
-1.044415747026738 1:281 2:95 
-1.063938761327194 1:278 2:90 
-1.063375112526441 1:272 2:85 
-1.063301343733356 1:270 2:83 
-1.062983819345289 1:267 2:80 
-1.044273154514541 1:264 2:78 
-1.063285657824968 1:262 2:76 
-1.063936151024359 1:260 2:74 
-1.063849110018381 1:401 2:339 
-1.063241955087519 1:382 2:297 
-1.063268728798093 1:368 2:259 
-1.063862243602344 1:353 2:225 
-1.063411366407699 1:340 2:196 
-1.063262584115029 1:329 2:172 
-1.063549090717869 1:317 2:151 
-1.063282212769581 1:310 2:136 
-1.063282222666753 1:304 2:123 
-1.063270890036399 1:297 2:114 
-1.063270801982077 1:292 2:106 
-1.04480016720875 1:287 2:101 
-1.044793779826853 1:282 2:95 
-1.063278979494617 1:276 2:91 
-1.063250556872628 1:275 2:89 
-1.062944779796493 1:271 2:86 
-1.063280342072884 1:268 2:83 
-1.063374142268849 1:266 2:81 
-1.044142214820115 1:264 2:79 
-1.0633751034251 1:261 2:78 
-1.06294477689047 1:260 2:77 
-1.063932963377356 1:401 2:360 
-1.063934138559641 1:382 2:315 
-1.063323799341079 1:367 2:273 
-1.063323801057343 1:354 2:239 
-1.063340500718022 1:342 2:211 
-1.063340500718022 1:331 2:187 
-1.063340541625569 1:323 2:169 
-1.063242273154644 1:317 2:157 
-1.044142050510872 1:311 2:143 
-1.06334074810546 1:305 2:134 
-1.063348710054574 1:299 2:125 
-1.063282332338194 1:296 2:119 
-1.063936151024402 1:293 2:115 
-1.063280461731405 1:290 2:111 
-1.063293344604471 1:285 2:107 
-1.063280461731405 1:282 2:104 
-1.062906250027147 1:281 2:101 
-1.062911021066283 1:277 2:98 
-1.063604594407749 1:276 2:97 
-1.063936152540926 1:273 2:95 
-1.063936150766749 1:271 2:93 
