svm_type c_svc
kernel_type rbf
gamma 0.2
nr_class 2
total_sv 26
rho -0.00134851
label 1 -1
nr_sv 13 13
SV
0.9989260309640324 1:0 2:573 3:174 4:113 5:857 
0.9986707266085405 1:5 2:569 3:182 4:111 5:856 
0.9984999001304588 1:10 2:565 3:183 4:110 5:855 
0.9987201637783178 1:15 2:561 3:185 4:109 5:856 
0.9982928518355102 1:20 2:557 3:185 4:107 5:856 
0.9976732218034332 1:25 2:554 3:186 4:105 5:856 
0.993570224395756 1:30 2:551 3:186 4:104 5:857 
0.9936947539566117 1:35 2:550 3:187 4:104 5:857 
0.9958539215492617 1:40 2:546 3:187 4:103 5:859 
0.9964135427000486 1:45 2:544 3:188 4:102 5:859 
0.9953511832131614 1:50 2:540 3:188 4:101 5:859 
0.9944325517205594 1:55 2:539 3:189 4:100 5:860 
0.9971860026927665 1:60 2:536 3:189 4:100 5:860 
-0.9959195579138223 1:0 2:504 3:189 4:92 5:856 
-0.9949302905350393 1:5 2:504 3:189 4:92 5:857 
-0.9994316252993392 1:10 2:504 3:190 4:91 5:860 
-1 1:15 2:502 3:188 4:92 5:859 
-0.9984999001304588 1:20 2:500 3:189 4:90 5:859 
-0.9950143319712779 1:25 2:499 3:187 4:91 5:858 
-0.9971860026927665 1:30 2:499 3:187 4:90 5:857 
-0.9966850461347382 1:35 2:494 3:187 4:90 5:855 
-0.9944325517205594 1:40 2:495 3:186 4:90 5:855 
-0.9964135427000486 1:45 2:495 3:186 4:91 5:857 
-0.9936947539566117 1:50 2:495 3:186 4:90 5:859 
-0.9950774722937965 1:55 2:494 3:186 4:90 5:859 
-1 1:60 2:491 3:185 4:89 5:858 
