svm_type c_svc
kernel_type rbf
gamma 0.5
nr_class 2
total_sv 512
rho 0.12741
label 1 -1
nr_sv 256 256
SV
0.8772340129686697 1:908 2:864 
0.5801095260934105 1:907 2:863 
0.09909349994285792 1:906 2:863 
0.736534509381694 1:905 2:863 
0.1313487046482674 1:906 2:864 
0.8761608366298644 1:905 2:865 
0.5884050591016271 1:900 2:862 
0.9600891615210621 1:903 2:864 
0.1233439241453853 1:901 2:863 
0.6017532021834179 1:901 2:862 
0.7248817795842118 1:896 2:858 
0.03144636496366035 1:895 2:858 
0.449197144279774 1:896 2:859 
0.8947847617667403 1:893 2:856 
0.1416711067197019 1:893 2:858 
0.4464751472836201 1:894 2:858 
0.4543521451314864 1:894 2:859 
0.4328608512033121 1:892 2:857 
0.9333629835639229 1:900 2:864 
0.8464318647754669 1:896 2:861 
0.009862248875697026 1:895 2:862 
0.4859546662392877 1:892 2:859 
0.05125448552635582 1:891 2:859 
0.7085034501371933 1:894 2:861 
0.6371366669276196 1:896 2:863 
0.7524345418761224 1:897 2:865 
0.3837906013552344 1:890 2:859 
0.5340032581735901 1:890 2:857 
0.7449557708194001 1:889 2:856 
0.814441338046313 1:887 2:855 
0.1308499029987136 1:891 2:861 
0.1484308231829426 1:892 2:860 
0.6168201117347671 1:892 2:861 
0.8641722293542117 1:933 2:887 
0.1110191288217961 1:936 2:890 
0.9941974825775497 1:936 2:890 
0.5949997279427154 1:925 2:882 
0.2336260598256885 1:926 2:883 
0.3970235820748881 1:933 2:891 
0.5189983958987843 1:920 2:882 
0.1046099399366262 1:920 2:883 
0.4833939061787955 1:918 2:884 
0.2144253651438889 1:916 2:882 
0.4153115906799161 1:921 2:886 
0.7458408471197413 1:895 2:865 
0.3828391123729602 1:887 2:856 
0.1671352003682385 1:890 2:860 
0.1133647240336513 1:889 2:860 
0.8507141346675425 1:891 2:863 
0.04038571257538387 1:894 2:865 
0.8035292935252307 1:893 2:865 
0.3481482065055032 1:888 2:860 
0.4196126132418199 1:884 2:858 
0.6304425462256342 1:883 2:857 
0.5688556281785324 1:885 2:860 
0.4396073653082955 1:889 2:862 
0.4116869359004942 1:889 2:864 
0.4841385567929934 1:881 2:857 
0.4621811307645788 1:882 2:858 
0.4207348935875139 1:883 2:860 
0.2354266853736164 1:884 2:861 
0.5196821684633174 1:880 2:857 
0.5257361072272004 1:883 2:862 
0.8234666564900593 1:878 2:857 
0.5123362804988622 1:880 2:861 
0.2896011893225816 1:875 2:856 
0.9625085934923698 1:876 2:858 
0.602324502925906 1:879 2:860 
0.2043183297686077 1:931 2:888 
0.04646654663220969 1:928 2:884 
0.4047706085916045 1:928 2:885 
0.1588599650036507 1:928 2:886 
0.5685836876821426 1:926 2:884 
0.311598804114846 1:921 2:881 
0.5504820972155382 1:922 2:882 
0.3863781559430865 1:925 2:885 
0.2501808901431829 1:924 2:886 
0.2442323294442819 1:922 2:883 
0.2898387423365341 1:918 2:882 
0.02967286759637427 1:922 2:886 
0.4791310868781016 1:916 2:880 
0.26539976841302 1:917 2:880 
0.4519729152424789 1:918 2:881 
0.6652378978726745 1:913 2:878 
0.03673333546877902 1:911 2:876 
0.3964172686690758 1:916 2:883 
0.2503006923108386 1:917 2:883 
0.292334691981849 1:919 2:883 
0.7689473104465132 1:894 2:863 
0.352469106691373 1:897 2:864 
0.3026023424854789 1:891 2:858 
0.3878621954938798 1:890 2:861 
0.6361437759348381 1:888 2:858 
0.2041084148494035 1:889 2:859 
0.1169310327032603 1:888 2:861 
0.4311398326871832 1:886 2:858 
0.06069638571736044 1:889 2:861 
0.1499214936854788 1:886 2:859 
0.6494278111873113 1:885 2:857 
0.4301663905333847 1:887 2:861 
0.2552616295614271 1:887 2:859 
0.2080471002631322 1:886 2:860 
0.1029648047330803 1:889 2:863 
0.6698339934637773 1:890 2:865 
0.8715186159230682 1:892 2:867 
0.4768139445584638 1:891 2:866 
0.2888788738337482 1:888 2:863 
0.210205442539747 1:887 2:862 
0.1001646055816024 1:888 2:864 
0.004720283308363472 1:885 2:863 
0.1351930528945601 1:887 2:863 
0.07301111715469474 1:884 2:862 
0.4628911704660639 1:885 2:862 
0.9517208741660672 1:887 2:865 
0.5244603226977352 1:886 2:863 
0.4162407381425702 1:880 2:859 
0.2148632117702844 1:879 2:858 
0.5563344226666261 1:882 2:860 
0.9766225443368114 1:884 2:864 
0.6818896452806434 1:881 2:862 
0.469997907156838 1:876 2:856 
0.7710975818913136 1:875 2:855 
0.2034989967409995 1:879 2:859 
0.1882423509490364 1:882 2:862 
0.9243551889307349 1:929 2:880 
0.3002273995650792 1:928 2:881 
0.5648611578241092 1:927 2:880 
0.1806220611859773 1:926 2:880 
0.2104603982799138 1:926 2:881 
0.3774309562403159 1:927 2:882 
0.8625300505590207 1:923 2:878 
0.5115210589361165 1:919 2:875 
0.621408647896773 1:921 2:877 
0.5279677193608082 1:924 2:881 
0.8269170686822033 1:925 2:879 
0.03962316539513669 1:924 2:880 
0.3791010362659425 1:923 2:880 
0.5924308554287513 1:920 2:876 
0.5141406808877244 1:918 2:875 
0.2125290115660832 1:921 2:878 
0.3006336215953281 1:921 2:879 
0.01230775443608251 1:921 2:880 
0.2174727705149835 1:917 2:876 
0.4836062210671953 1:916 2:875 
0.3649680762791438 1:922 2:880 
0.2549564607693308 1:919 2:879 
0.5502298224875521 1:918 2:877 
0.7239623289637942 1:915 2:875 
0.3026519664390602 1:920 2:880 
0.2458650523835221 1:920 2:879 
0.5054190796207328 1:918 2:879 
0.3980468258386404 1:912 2:873 
0.3038010597295144 1:917 2:877 
0.6884130874484675 1:915 2:878 
0.3794480140546358 1:916 2:878 
0.8265543971404372 1:913 2:874 
0.9559741375724616 1:911 2:872 
0.8765213139002248 1:911 2:875 
0.1650832939185418 1:919 2:880 
0.8909019678699567 1:931 2:883 
0.8401925073136719 1:932 2:885 
0.3446336383675162 1:930 2:884 
0.6035068280414992 1:928 2:883 
0.3236256333774552 1:929 2:884 
0.3701224159764733 1:931 2:887 
0.1166044222162322 1:931 2:886 
0.4210891849316479 1:930 2:886 
0.76313898623025 1:933 2:889 
0.7649794497232806 1:934 2:892 
0.3189431348120783 1:932 2:892 
0.3027877518137527 1:933 2:893 
0.4731523104471722 1:931 2:891 
0.04412542644994732 1:927 2:888 
0.2527166689191777 1:930 2:891 
0.1766138829873972 1:928 2:890 
0.6483262242379066 1:923 2:884 
0.3061004511635382 1:927 2:887 
0.4485439537401807 1:929 2:890 
0.5266010421052487 1:929 2:892 
0.3633896584868418 1:927 2:889 
0.1768649865219654 1:922 2:885 
0.1218714718443554 1:926 2:890 
0.664024156910403 1:925 2:890 
0.1837651031516968 1:920 2:886 
0.4858403844990076 1:919 2:885 
0.4254473931427198 1:924 2:889 
0.6385508211867296 1:915 2:881 
0.3205363317623715 1:929 2:886 
0.224753038969731 1:932 2:890 
0.4533121179884835 1:929 2:888 
0.2671173044461873 1:927 2:886 
0.2715236343312872 1:928 2:888 
0.09820858319191823 1:928 2:889 
0.2931321275002994 1:926 2:886 
0.2028245256697079 1:924 2:885 
0.3128034531974926 1:926 2:888 
0.1239148967485409 1:925 2:888 
0.3614218380093809 1:923 2:886 
0.3768271026988652 1:921 2:884 
0.2373536177165016 1:920 2:884 
0.1289814539612465 1:921 2:885 
0.1387314505210346 1:917 2:882 
0.2001427547642175 1:913 2:879 
0.3570702310279029 1:912 2:879 
0.8456582319233974 1:911 2:877 
0.5459069644105881 1:913 2:881 
0.1951096509475719 1:915 2:884 
0.7556893435932682 1:917 2:886 
0.5493412632267347 1:916 2:885 
0.3659080369930506 1:912 2:880 
0.8374307580884406 1:908 2:877 
0.06680826648918531 1:914 2:884 
0.4357806097945703 1:909 2:879 
0.3522077278315335 1:909 2:878 
0.109112585212865 1:907 2:878 
0.07919845127501725 1:911 2:881 
0.4758029935629077 1:910 2:880 
1 1:905 2:878 
0.6584730799616483 1:909 2:881 
0.8070636680931822 1:907 2:879 
0.1988689250897422 1:930 2:888 
0.4459962585693362 1:931 2:889 
0.1470183981619718 1:930 2:890 
1 1:936 2:895 
0.6142388308833998 1:932 2:894 
0.1959905833044439 1:932 2:893 
1 1:934 2:896 
0.08449258346767359 1:926 2:889 
0.4143757665461698 1:925 2:887 
0.1429612567003337 1:924 2:888 
0.3535807756860752 1:931 2:895 
0.8490324221585404 1:931 2:896 
0.8513996590514368 1:928 2:893 
0.7202677136149142 1:927 2:891 
0.4057413980251359 1:923 2:888 
0.1695405194132461 1:922 2:888 
0.3596983671258082 1:922 2:887 
0.5297875538682952 1:920 2:888 
0.6773245762350811 1:919 2:887 
0.4094296078238636 1:922 2:890 
0.1060047548453219 1:923 2:891 
1 1:925 2:893 
0.4676085514456818 1:922 2:891 
0.7587454189154044 1:923 2:892 
0.5900763301638424 1:921 2:889 
0.7006515455917455 1:914 2:883 
0.5523881530509758 1:914 2:885 
0.5189473198224803 1:912 2:882 
0.2897598776395659 1:911 2:882 
0.4437910569988163 1:910 2:882 
0.5831313227182036 1:913 2:886 
0.9718675439992775 1:915 2:888 
0.7840873324970913 1:911 2:885 
0.3209094142886395 1:912 2:885 
0.9098597149557636 1:913 2:888 
1 1:909 2:884 
-0.5869365935755263 1:866 2:807 
-0.5785991896538145 1:867 2:808 
-0.3033852951894461 1:865 2:809 
-0.8725336953505309 1:872 2:814 
-0.7606721785738473 1:868 2:811 
-0.512517528838617 1:866 2:810 
-0.2921443110976277 1:863 2:809 
-0.5095849111254298 1:864 2:808 
-0.5126618658827893 1:862 2:808 
-0.522784358070594 1:866 2:812 
-0.4547749684165769 1:867 2:814 
-0.2628649238274307 1:866 2:814 
-0.2336034882110136 1:867 2:813 
-0.5792225210030727 1:864 2:811 
-0.06648212536308873 1:863 2:811 
-0.4446074252670729 1:861 2:809 
-0.7447049860584228 1:859 2:807 
-0.2959780153282692 1:860 2:810 
-0.8028104282554259 1:857 2:806 
-0.4760236459929404 1:862 2:811 
-0.4969188416584094 1:863 2:813 
-0.2571004801311862 1:864 2:814 
-0.38707165680186 1:864 2:815 
-0.7598406990466459 1:866 2:816 
-0.2087190100894928 1:861 2:812 
-0.02416548583279388 1:859 2:810 
-0.4693459223362059 1:859 2:811 
-0.1602258079404326 1:860 2:811 
-0.7308820180952285 1:856 2:809 
-0.5702342626788298 1:858 2:809 
-0.4909437323085092 1:861 2:813 
-0.02589771756801708 1:861 2:814 
-0.2852746719216078 1:863 2:815 
-0.6500911134494134 1:861 2:815 
-0.1389621506326063 1:862 2:815 
-0.69634627506978 1:857 2:811 
-0.8711318988940493 1:782 2:729 
-0.8707407814278826 1:779 2:731 
-0.8625390652226391 1:775 2:730 
-0.6094363489888291 1:771 2:729 
-0.8480967570709753 1:774 2:733 
-0.5685252249021021 1:772 2:731 
-0.2181503401552937 1:770 2:729 
-0.2759300979726353 1:771 2:731 
-0.654568526462929 1:768 2:728 
-0.6523790104289304 1:765 2:725 
-0.4844510263849323 1:766 2:727 
-0.06938853315084809 1:764 2:725 
-0.2101912418596335 1:767 2:729 
-0.6934518122175406 1:771 2:733 
-0.5065219726430701 1:769 2:730 
-0.09214270971360486 1:768 2:730 
-0.06882053316501728 1:766 2:728 
-0.5300845911859141 1:763 2:725 
-0.2284754229909604 1:765 2:727 
-0.0500487307207101 1:765 2:726 
-0.1948990032745161 1:762 2:725 
-0.6039793506347103 1:769 2:733 
-0.374514535124128 1:761 2:725 
-0.4204276366484598 1:768 2:732 
-0.4299929700969674 1:766 2:730 
-0.353881588495181 1:760 2:726 
-0.4322717769318831 1:767 2:731 
-0.3869723855394345 1:765 2:729 
-0.3042351320600945 1:764 2:728 
-0.2396627020066045 1:762 2:727 
-0.08150993711407345 1:760 2:725 
-0.5535214670772783 1:763 2:729 
-0.325059268756378 1:762 2:728 
-0.3751526489039118 1:761 2:727 
-0.3668409329814828 1:759 2:725 
-0.722080979497209 1:758 2:724 
-0.792953554516607 1:645 2:591 
-0.606714221698765 1:643 2:592 
-0.349633512183526 1:644 2:593 
-0.5167291571187216 1:643 2:594 
-0.6863065534686535 1:646 2:596 
-0.2820644114899985 1:644 2:595 
-0.4706962724682965 1:644 2:596 
-0.6444987615067728 1:646 2:598 
-0.7922261456225335 1:650 2:603 
-0.677497124304417 1:648 2:601 
-0.5838001463342964 1:644 2:598 
-0.4719243963558556 1:645 2:600 
-0.006928018467062575 1:644 2:599 
-0.381590079998721 1:648 2:603 
-0.02646715457685479 1:647 2:603 
-0.3220407406151282 1:647 2:602 
-0.3290671620470222 1:642 2:599 
-0.3465269842772229 1:644 2:600 
-0.7502497005357193 1:648 2:605 
-0.40598887968498 1:645 2:602 
-0.2067786167753439 1:645 2:603 
-0.1354795492932088 1:644 2:602 
-0.6258966255872387 1:646 2:604 
-0.6991169374097905 1:643 2:603 
-0.6113249751075572 1:641 2:599 
-0.6737371483207333 1:642 2:601 
-0.872255518134983 1:425 2:386 
-0.8680910550684856 1:429 2:390 
-0.6552653423533386 1:430 2:393 
-0.5718760674351245 1:431 2:394 
-0.7198959046848881 1:432 2:396 
-0.7734508431591567 1:432 2:398 
-0.8595443003661677 1:434 2:401 
-0.6221369201084879 1:436 2:403 
-0.6379862177087228 1:437 2:404 
-0.8628158051291215 1:436 2:407 
-0.8004091732618795 1:439 2:408 
-0.8068627101116975 1:440 2:410 
-0.5438674158276978 1:443 2:414 
-0.4387893922014585 1:442 2:414 
-0.7682221459128495 1:442 2:416 
-0.8721634426301182 1:445 2:419 
-0.8064755278006293 1:447 2:423 
-0.8064909532847193 1:449 2:424 
-0.8058690678164975 1:452 2:427 
-0.806356546391463 1:451 2:429 
-0.5448728864666459 1:454 2:432 
-0.532875760875941 1:455 2:432 
-0.537597257504532 1:456 2:435 
-0.5360840165630326 1:455 2:435 
-0.8194086968429569 1:457 2:438 
-0.5805832202291092 1:458 2:440 
-0.6090045749637504 1:459 2:441 
-0.5835120977999189 1:460 2:443 
-0.6474130611288457 1:461 2:444 
-0.8651206104002712 1:461 2:447 
-0.8235130251396271 1:465 2:450 
-0.5134114600869086 1:467 2:452 
-0.4800868876801733 1:466 2:452 
-0.5832042455288967 1:468 2:454 
-0.4129090188218974 1:467 2:455 
-0.642018849827938 1:468 2:456 
-0.8119592306425512 1:471 2:459 
-0.7405644336219772 1:472 2:461 
-0.7960404654527593 1:473 2:463 
-0.8568023574294449 1:475 2:465 
-0.1889477990340233 1:477 2:469 
-0.6992729592492316 1:477 2:468 
-0.7029252165145963 1:478 2:470 
-0.4968024080551402 1:480 2:472 
-0.4081220680410543 1:479 2:472 
-0.7324219897066396 1:481 2:474 
-0.6773006342459644 1:479 2:474 
-0.2994548418519053 1:664 2:698 
-0.6182950958907725 1:666 2:700 
-0.2458570628389825 1:665 2:697 
-0.156255594556492 1:667 2:699 
-0.5913624219329664 1:663 2:696 
-0.588106042982703 1:664 2:699 
-0.6216773657798871 1:664 2:695 
-0.04300728062706391 1:666 2:698 
-0.6743835287538233 1:668 2:701 
-0.08749239687152247 1:666 2:699 
-0.01228548772622881 1:668 2:700 
-0.08385179622474669 1:667 2:698 
-0.5404766865568985 1:666 2:697 
-0.4519625905277402 1:670 2:700 
-0.539211889747526 1:670 2:702 
-0.3356147417511565 1:671 2:701 
-0.2882442787884988 1:672 2:702 
-0.4085275383774679 1:669 2:699 
-0.5256091857178939 1:668 2:698 
-0.6256306613294274 1:672 2:703 
-0.5717762553679998 1:772 2:780 
-0.6512162569868348 1:776 2:783 
-0.1751950276624038 1:775 2:783 
-0.3255033288808629 1:771 2:780 
-0.6570885436085181 1:777 2:785 
-0.001240369396185239 1:774 2:783 
-0.3294856526439236 1:776 2:786 
-0.000691586074743164 1:772 2:783 
-0.3658086277772702 1:774 2:783 
-0.4861819661545324 1:769 2:779 
-0.000625605298017516 1:770 2:781 
-0.4410420237605061 1:775 2:786 
-0.1269799365410774 1:773 2:784 
-0.1707441718055697 1:770 2:781 
-0.6178605262374203 1:773 2:786 
-0.1247581758138423 1:774 2:786 
-0.001359495972914918 1:773 2:785 
-0.5255906580647595 1:773 2:782 
-0.4943362398759069 1:771 2:782 
-0.6531190485967505 1:767 2:778 
-0.524455645108353 1:768 2:780 
-0.01423109948205127 1:772 2:783 
-0.5879396676602919 1:772 2:784 
-0.07658077883087602 1:773 2:785 
-0.2253307681922898 1:768 2:778 
-0.0316406067139289 1:769 2:781 
-0.6673307824855027 1:769 2:782 
-0.5836805790842015 1:791 2:791 
-0.2860750916489039 1:791 2:792 
-0.7676024701456254 1:789 2:789 
-0.0005886496069525404 1:791 2:794 
-0.6625655575296785 1:793 2:794 
-0.7142265075023624 1:793 2:796 
-0.3154884029794661 1:791 2:794 
-0.4068085073562389 1:789 2:791 
-0.03151847778954679 1:787 2:790 
-0.2095859926521234 1:789 2:792 
-0.005247543179303322 1:790 2:793 
-0.1582082394793778 1:792 2:795 
-0.5957563698494159 1:786 2:789 
-0.1323556503619815 1:789 2:793 
-0.2591603502114853 1:790 2:793 
-0.0180490765614783 1:788 2:794 
-0.2596098323013319 1:787 2:790 
-0.02023064352063353 1:786 2:791 
-0.01367967710863604 1:790 2:795 
-0.6110985033580558 1:790 2:795 
-0.3163115622950932 1:787 2:791 
-0.5267690523375971 1:788 2:794 
-0.0132135461531176 1:789 2:794 
-0.1460994680400128 1:787 2:792 
-0.03767894869716645 1:785 2:790 
-0.4917532466593649 1:783 2:789 
-0.5787746396384091 1:784 2:788 
-0.04584466947707708 1:785 2:790 
-0.6622222935844539 1:785 2:792 
-0.1079190789220679 1:785 2:791 
-0.4317231748088553 1:787 2:793 
-0.4124394561601407 1:784 2:790 
-0.6297979096030555 1:861 2:838 
-0.08625321387614625 1:860 2:837 
-0.7148213834308527 1:858 2:836 
-0.6581822731797015 1:860 2:836 
-0.0652322200206553 1:860 2:838 
-0.4657641751343215 1:861 2:840 
-0.1304866044401869 1:862 2:841 
-0.7851622628112177 1:864 2:842 
-0.2813237329391789 1:861 2:841 
-0.5450258595721934 1:862 2:842 
-0.03567829824249005 1:859 2:839 
-0.06840332256645898 1:858 2:839 
-0.5557483824497403 1:859 2:839 
-0.5746790561823371 1:855 2:836 
-0.01321214931819552 1:857 2:838 
-0.352848447791455 1:853 2:835 
-0.0198836913279179 1:854 2:835 
-0.3486932769075306 1:854 2:835 
-0.007962632995211143 1:854 2:837 
-0.367034612361402 1:857 2:840 
-0.5702574347010818 1:857 2:838 
-0.03085589284905476 1:858 2:842 
-0.3624159666685814 1:858 2:842 
-0.6755157419649586 1:855 2:840 
-0.2466659136763903 1:858 2:841 
-0.4783570295867027 1:857 2:842 
-0.1961910532924025 1:856 2:839 
-0.1555423966059811 1:854 2:837 
-0.5633540073131834 1:854 2:838 
-0.8115589393459325 1:852 2:839 
-0.6059386464333143 1:852 2:836 
-0.8186954004183932 1:850 2:835 
