svm_type c_svc
kernel_type rbf
gamma 0.333333
nr_class 2
total_sv 377
rho -0.104668
label 1 -1
nr_sv 188 189
SV
0.8368308552751569 1:500 2:429 3:552 
0.8645733461110626 1:505 2:408 3:500 
0.8953078010577142 1:515 2:376 3:405 
0.8953785624639223 1:520 2:362 3:362 
0.8953787388019629 1:525 2:351 3:326 
0.895319924466266 1:530 2:343 3:293 
0.8952648242164691 1:535 2:336 3:268 
0.8922260716333021 1:540 2:329 3:246 
0.8956247819478361 1:545 2:322 3:225 
0.8952337582844436 1:550 2:319 3:211 
0.8952432257226838 1:555 2:314 3:198 
0.8953836217920425 1:560 2:312 3:188 
0.8952621815071337 1:565 2:307 3:177 
0.8954140024356975 1:570 2:305 3:170 
0.8956275413228284 1:575 2:303 3:162 
0.8956247812833719 1:580 2:300 3:156 
0.8952337547804541 1:585 2:299 3:150 
0.8952365243014958 1:590 2:296 3:145 
0.8951934412471981 1:595 2:295 3:143 
0.8952613901813986 1:600 2:294 3:139 
0.8952188535127822 1:500 2:423 3:508 
0.8952431986506808 1:505 2:408 3:468 
0.89531871023323 1:510 2:393 3:432 
0.8952347238022573 1:515 2:383 3:400 
0.8952191511191312 1:520 2:374 3:373 
0.8952188586033336 1:525 2:367 3:352 
0.895378452145336 1:530 2:363 3:336 
0.8954416452527273 1:535 2:356 3:320 
0.8947817200068902 1:540 2:353 3:310 
0.8954233572507659 1:545 2:353 3:304 
0.8952338969882058 1:550 2:350 3:298 
0.8956267279317751 1:555 2:350 3:294 
0.8952803125007124 1:560 2:347 3:289 
0.8953403631521024 1:565 2:349 3:288 
0.895696976388597 1:570 2:347 3:285 
0.8952187453007026 1:575 2:345 3:284 
0.895265179604068 1:580 2:347 3:284 
0.8951040144922509 1:585 2:347 3:286 
0.8951596681614085 1:590 2:350 3:288 
0.8953511000131831 1:595 2:352 3:288 
0.8952199253569005 1:600 2:350 3:290 
0.8957402835656454 1:500 2:614 3:735 
0.8952547015579627 1:505 2:586 3:714 
0.8953679410489545 1:510 2:557 3:686 
0.8954160729540415 1:515 2:532 3:662 
0.8953636575212569 1:520 2:510 3:635 
0.8954228313338299 1:525 2:489 3:606 
0.8953786448231906 1:530 2:469 3:577 
0.895407706305427 1:535 2:453 3:548 
0.8952190810335867 1:540 2:435 3:516 
0.8952174074824478 1:545 2:422 3:488 
0.8909547541546001 1:550 2:408 3:459 
0.8953966019579808 1:555 2:399 3:432 
0.8952057711644797 1:560 2:387 3:405 
0.8952188535127813 1:565 2:375 3:378 
0.8954405599658041 1:570 2:366 3:353 
0.895413257765229 1:575 2:358 3:330 
0.8953158606054508 1:580 2:349 3:308 
0.8951627338963264 1:585 2:343 3:289 
0.8952432224346554 1:590 2:335 3:271 
0.8952072501545708 1:595 2:330 3:255 
0.8367785339913582 1:600 2:326 3:242 
0.8372319200492975 1:500 2:431 3:550 
0.8644921139211064 1:505 2:411 3:501 
0.8953784226277357 1:510 2:392 3:452 
0.8951910478345939 1:515 2:379 3:410 
0.8952072365074838 1:520 2:365 3:370 
0.8952349173902461 1:525 2:353 3:333 
0.8952475130049322 1:530 2:344 3:306 
0.8952700892017867 1:535 2:336 3:283 
0.8947814476813313 1:540 2:329 3:263 
0.8950735193698768 1:545 2:326 3:247 
0.8953821909123614 1:550 2:319 3:234 
0.8954221171102191 1:555 2:316 3:223 
0.8954199615807255 1:560 2:314 3:214 
0.8952188205872637 1:565 2:309 3:207 
0.8954076679783354 1:570 2:308 3:202 
0.8956258270162679 1:575 2:303 3:197 
0.8952173258189742 1:580 2:302 3:193 
0.8952988495840575 1:585 2:301 3:189 
0.8952031154109655 1:590 2:298 3:186 
0.8952108821591434 1:595 2:296 3:182 
0.8953781536098433 1:600 2:297 3:180 
0.8954228135182516 1:500 2:571 3:712 
0.8956287715554486 1:505 2:543 3:687 
0.8953985410616214 1:510 2:522 3:661 
0.895627541388354 1:515 2:498 3:634 
0.895250090068451 1:520 2:481 3:606 
0.8954072882727913 1:525 2:466 3:581 
0.8954077077250927 1:530 2:453 3:559 
0.8952337641343209 1:535 2:439 3:533 
0.8957405603145147 1:540 2:429 3:511 
0.8952687400750939 1:545 2:416 3:486 
0.8909510670887181 1:550 2:404 3:459 
0.8947485174446987 1:555 2:394 3:435 
0.8952327240906819 1:560 2:383 3:410 
0.8953493626601849 1:565 2:373 3:388 
0.8952106358867055 1:570 2:366 3:367 
0.8953784691407427 1:575 2:359 3:348 
0.895739817774767 1:580 2:354 3:329 
0.8954138688185893 1:585 2:347 3:312 
0.895210750369257 1:590 2:340 3:295 
0.8952347722142027 1:595 2:336 3:282 
0.8954228610519456 1:600 2:330 3:269 
0.895253588006626 1:500 2:428 3:537 
0.895270089550376 1:505 2:407 3:487 
0.89521908200794 1:510 2:389 3:439 
0.8952192218955961 1:515 2:374 3:392 
0.8957405600379107 1:520 2:359 3:352 
0.895413950707574 1:525 2:350 3:319 
0.8954218222052647 1:530 2:338 3:289 
0.8950879371746121 1:535 2:331 3:267 
0.8921602958519693 1:540 2:325 3:247 
0.8952297477355312 1:545 2:321 3:233 
0.8952181088675284 1:550 2:315 3:219 
0.8956219506589191 1:555 2:312 3:211 
0.8952621287588116 1:560 2:308 3:201 
0.8954996879254485 1:565 2:305 3:197 
0.8954214717130591 1:570 2:303 3:193 
0.8953807718042937 1:575 2:301 3:188 
0.8954044508671215 1:580 2:299 3:185 
0.8954069772495314 1:585 2:297 3:181 
0.8954106831386753 1:590 2:294 3:177 
0.8952676594825701 1:595 2:293 3:173 
0.8951431032021437 1:600 2:292 3:172 
0.8953836390243044 1:500 2:482 3:621 
0.8952874157472042 1:505 2:456 3:582 
0.8953836386943717 1:510 2:433 3:539 
0.8952060641757815 1:515 2:412 3:497 
0.8956274340525506 1:520 2:397 3:459 
0.8952432224346554 1:525 2:385 3:424 
0.8954139967176444 1:530 2:373 3:393 
0.8952771928385134 1:535 2:365 3:367 
0.8952191269180588 1:540 2:357 3:344 
0.8953784691407469 1:545 2:352 3:325 
0.8947829643146171 1:550 2:345 3:311 
0.895243412303606 1:555 2:342 3:298 
0.8954227867312085 1:560 2:339 3:287 
0.895383996339323 1:565 2:334 3:279 
0.8949523517748273 1:570 2:332 3:270 
0.8952549750655344 1:575 2:329 3:263 
0.8952350203726812 1:580 2:327 3:257 
0.8953148482695864 1:585 2:325 3:254 
0.8952177813618118 1:590 2:325 3:250 
0.8955936662331733 1:595 2:324 3:245 
0.836486654817576 1:600 2:324 3:244 
0.8952874323086141 1:500 2:455 3:591 
0.8954156497144389 1:505 2:432 3:547 
0.8953672268270207 1:510 2:413 3:501 
0.8952295404896952 1:515 2:393 3:454 
0.8952025332485375 1:520 2:378 3:412 
0.8952874020717307 1:525 2:367 3:375 
0.8947592643199344 1:530 2:356 3:344 
0.8952337629695726 1:535 2:347 3:317 
0.895383996339323 1:540 2:339 3:293 
0.8953185346684192 1:545 2:334 3:274 
0.895414002598616 1:550 2:327 3:259 
0.8952378428661502 1:555 2:322 3:246 
0.8952068072958764 1:560 2:318 3:233 
0.8949515942935065 1:565 2:315 3:225 
0.8954077062395379 1:570 2:312 3:219 
0.895270398372909 1:575 2:308 3:212 
0.8957405599712962 1:580 2:305 3:205 
0.8953853175911201 1:585 2:302 3:199 
0.8952088308584912 1:590 2:300 3:193 
0.8953426730066524 1:595 2:300 3:189 
0.8953130214540378 1:600 2:298 3:186 
0.8954228303087277 1:500 2:649 3:755 
0.8953836208429043 1:505 2:620 3:736 
0.8952431386019687 1:510 2:590 3:712 
0.8952355638756385 1:515 2:560 3:686 
0.8952318965703174 1:520 2:535 3:660 
0.8954078445558437 1:525 2:512 3:637 
0.8956276042876046 1:530 2:494 3:612 
0.8952337641343209 1:535 2:475 3:586 
0.895243225788475 1:540 2:459 3:560 
0.8953011461179804 1:545 2:445 3:536 
0.8956247779242411 1:550 2:428 3:507 
0.8952072486753808 1:555 2:419 3:484 
0.8956274343053258 1:560 2:408 3:455 
0.895378573075942 1:565 2:397 3:429 
0.895252093974273 1:570 2:386 3:405 
0.8954139967176444 1:575 2:378 3:384 
0.8952068093865031 1:580 2:369 3:362 
0.8954114929400311 1:585 2:364 3:345 
0.8954073096741803 1:590 2:359 3:328 
0.8953916298752923 1:595 2:351 3:310 
0.8954233068836804 1:600 2:345 3:295 
-1 1:500 2:537 3:486 
-1 1:505 2:507 3:440 
-1 1:510 2:482 3:395 
-1 1:515 2:460 3:351 
-1 1:520 2:436 3:303 
-1 1:525 2:415 3:259 
-1 1:530 2:396 3:218 
-1 1:535 2:378 3:185 
-1 1:540 2:367 3:158 
-1 1:545 2:355 3:134 
-1 1:550 2:344 3:115 
-1 1:555 2:335 3:101 
-1 1:560 2:327 3:90 
-1 1:565 2:318 3:80 
-1 1:570 2:312 3:73 
-1 1:575 2:308 3:67 
-1 1:580 2:303 3:62 
-1 1:585 2:300 3:59 
-1 1:590 2:296 3:55 
-1 1:595 2:293 3:52 
-1 1:600 2:290 3:50 
-1 1:500 2:497 3:393 
-1 1:505 2:473 3:347 
-1 1:510 2:450 3:301 
-1 1:515 2:431 3:259 
-1 1:520 2:412 3:220 
-1 1:525 2:395 3:186 
-1 1:530 2:378 3:157 
-1 1:535 2:365 3:133 
-1 1:540 2:355 3:114 
-1 1:545 2:344 3:99 
-1 1:550 2:335 3:85 
-1 1:555 2:326 3:76 
-1 1:560 2:315 3:68 
-1 1:565 2:310 3:61 
-1 1:570 2:306 3:57 
-1 1:575 2:301 3:52 
-1 1:580 2:296 3:49 
-1 1:585 2:293 3:45 
-1 1:590 2:284 3:43 
-1 1:595 2:283 3:41 
-1 1:600 2:281 3:39 
-0.1249932134881221 1:500 2:330 3:62 
-0.1249935258666633 1:505 2:320 3:52 
-0.1249935504052336 1:510 2:312 3:45 
-0.1249386939715217 1:515 2:301 3:40 
-0.1249195192260122 1:520 2:296 3:38 
-0.1249583408335858 1:525 2:290 3:35 
-0.1243515675873411 1:530 2:284 3:34 
-0.1206559416281065 1:535 2:280 3:31 
-0.1234969249091972 1:540 2:276 3:31 
-0.1047391427266857 1:545 2:270 3:30 
-0.1092056735088211 1:550 2:268 3:29 
-0.1072277334587142 1:555 2:266 3:30 
-0.1206560381664926 1:560 2:261 3:28 
-0.1072263853893192 1:565 2:257 3:28 
-0.1088134160335854 1:570 2:258 3:26 
-0.1049080992078649 1:575 2:256 3:26 
-0.1049091100262101 1:580 2:254 3:26 
-0.1050721145809872 1:585 2:252 3:26 
-0.1052280230691851 1:590 2:251 3:26 
-0.1045812528710908 1:595 2:248 3:25 
-0.1045476209105387 1:600 2:247 3:25 
-0.9797605075072172 1:500 2:330 3:62 
-0.9795923312284778 1:505 2:320 3:52 
-0.9797716773805636 1:510 2:312 3:45 
-0.9798050677131699 1:515 2:301 3:40 
-0.9796726400628302 1:520 2:296 3:38 
-0.9796632057702702 1:525 2:290 3:35 
-0.9802292733583249 1:530 2:284 3:34 
-0.984135902007493 1:535 2:280 3:31 
-0.9812668608416349 1:540 2:276 3:31 
-1 1:545 2:270 3:30 
-0.9952713065281293 1:550 2:268 3:29 
-0.9973434476038825 1:555 2:266 3:30 
-0.9841354144910741 1:560 2:261 3:28 
-0.997343620632542 1:565 2:257 3:28 
-0.9953261442949879 1:570 2:258 3:26 
-1 1:575 2:256 3:26 
-1 1:580 2:254 3:26 
-0.9994485537693769 1:585 2:252 3:26 
-0.9989362147988637 1:590 2:251 3:26 
-1 1:595 2:248 3:25 
-1 1:600 2:247 3:25 
-1 1:500 2:277 3:122 
-1 1:505 2:272 3:116 
-1 1:510 2:269 3:111 
-1 1:515 2:265 3:108 
-1 1:520 2:262 3:105 
-1 1:525 2:260 3:100 
-1 1:530 2:257 3:99 
-1 1:535 2:254 3:98 
-1 1:540 2:254 3:98 
-1 1:545 2:252 3:96 
-1 1:550 2:251 3:95 
-1 1:555 2:250 3:93 
-1 1:560 2:247 3:93 
-1 1:565 2:246 3:91 
-1 1:570 2:246 3:93 
-1 1:575 2:244 3:89 
-1 1:580 2:243 3:90 
-1 1:585 2:244 3:90 
-1 1:590 2:242 3:88 
-1 1:595 2:241 3:88 
-1 1:600 2:242 3:87 
-1 1:500 2:320 3:160 
-1 1:505 2:310 3:143 
-1 1:510 2:302 3:128 
-1 1:515 2:292 3:118 
-1 1:520 2:285 3:109 
-1 1:525 2:282 3:100 
-1 1:530 2:276 3:95 
-1 1:535 2:273 3:91 
-1 1:540 2:267 3:86 
-1 1:545 2:264 3:84 
-1 1:550 2:261 3:82 
-1 1:555 2:259 3:81 
-1 1:560 2:255 3:78 
-1 1:565 2:254 3:78 
-1 1:570 2:253 3:79 
-1 1:575 2:251 3:79 
-1 1:580 2:249 3:76 
-1 1:585 2:245 3:73 
-1 1:590 2:245 3:74 
-1 1:595 2:245 3:73 
-1 1:600 2:244 3:74 
-1 1:500 2:408 3:349 
-1 1:505 2:392 3:309 
-1 1:510 2:374 3:272 
-1 1:515 2:358 3:238 
-1 1:520 2:345 3:210 
-1 1:525 2:336 3:186 
-1 1:530 2:326 3:165 
-1 1:535 2:318 3:149 
-1 1:540 2:310 3:134 
-1 1:545 2:302 3:123 
-1 1:550 2:295 3:113 
-1 1:555 2:290 3:105 
-1 1:560 2:287 3:100 
-1 1:565 2:281 3:95 
-1 1:570 2:278 3:90 
-0.729575933260993 1:575 2:272 3:85 
-0.8742366538013582 1:580 2:270 3:83 
-0.7295942711665622 1:585 2:267 3:80 
-0.6426371751425279 1:590 2:264 3:78 
-0.9292094802141888 1:595 2:262 3:76 
-1 1:600 2:260 3:74 
-1 1:500 2:401 3:339 
-1 1:505 2:382 3:297 
-1 1:510 2:368 3:259 
-1 1:515 2:353 3:225 
-1 1:520 2:340 3:196 
-1 1:525 2:329 3:172 
-1 1:530 2:317 3:151 
-1 1:535 2:310 3:136 
-1 1:540 2:304 3:123 
-1 1:545 2:297 3:114 
-1 1:550 2:292 3:106 
-1 1:555 2:287 3:101 
-1 1:560 2:282 3:95 
-1 1:565 2:276 3:91 
-1 1:570 2:275 3:89 
-0.729958489563943 1:575 2:271 3:86 
-0.8742871079434131 1:580 2:268 3:83 
-0.7299355160185161 1:585 2:266 3:81 
-0.6445378545407141 1:590 2:264 3:79 
-0.9288030552247422 1:595 2:261 3:78 
-1 1:600 2:260 3:77 
-1 1:500 2:401 3:360 
-1 1:505 2:382 3:315 
-1 1:510 2:367 3:273 
-1 1:515 2:354 3:239 
-1 1:520 2:342 3:211 
-1 1:525 2:331 3:187 
-1 1:530 2:323 3:169 
-1 1:535 2:317 3:157 
-1 1:540 2:311 3:143 
-1 1:545 2:305 3:134 
-1 1:550 2:299 3:125 
-1 1:555 2:296 3:119 
-1 1:560 2:293 3:115 
-1 1:565 2:290 3:111 
-1 1:570 2:285 3:107 
-1 1:575 2:282 3:104 
-1 1:580 2:281 3:101 
-1 1:585 2:277 3:98 
-1 1:590 2:276 3:97 
-1 1:595 2:273 3:95 
-1 1:600 2:271 3:93 
