svm_type c_svc
kernel_type rbf
gamma 0.333333
nr_class 2
total_sv 18
rho -0.100049
label 1 -1
nr_sv 9 9
SV
0.9003946283080106 1:475 2:610 3:767 
0.8994184563718659 1:475 2:565 3:717 
0.9003947229339654 1:475 2:766 3:823 
0.8993975568762567 1:475 2:613 3:760 
0.9003946318991152 1:475 2:734 3:812 
0.8993975604910462 1:475 2:617 3:756 
0.9003947229339654 1:475 2:674 3:784 
0.9003946319147939 1:475 2:656 3:780 
0.9003946318991152 1:475 2:799 3:832 
-1 1:475 2:693 3:677 
-1 1:475 2:634 3:602 
-0.2255771727037544 1:475 2:420 3:208 
-0.8750043709243798 1:475 2:420 3:208 
-1 1:475 2:315 3:186 
-1 1:475 2:398 3:329 
-1 1:475 2:526 3:555 
-1 1:475 2:530 3:565 
-1 1:475 2:543 3:613 
