svm_type c_svc
kernel_type rbf
gamma 0.333333
nr_class 2
total_sv 18
rho -0.100053
label 1 -1
nr_sv 9 9
SV
0.8994140625 1:70 2:509 3:637 
0.900390625 1:70 2:745 3:669 
0.900390625 1:70 2:659 3:742 
0.8994140625 1:70 2:561 3:710 
0.900390625 1:70 2:448 3:535 
0.900390625 1:70 2:573 3:714 
0.900390625 1:70 2:568 3:697 
0.900390625 1:70 2:670 3:783 
0.8994140625 1:70 2:763 3:817 
-1 1:70 2:509 3:531 
-1 1:70 2:481 3:430 
-0.5068359375 1:70 2:301 3:92 
-0.59375 1:70 2:301 3:92 
-1 1:70 2:380 3:336 
-1 1:70 2:474 3:588 
-1 1:70 2:474 3:633 
-1 1:70 2:491 3:652 
-1 1:70 2:746 3:742 
