svm_type c_svc
kernel_type rbf
gamma 0.333333
nr_class 2
total_sv 51
rho -0.0703003
label 1 -1
nr_sv 27 24
SV
0.9299576615020722 1:180 2:933 3:897 
0.9297244995367332 1:250 2:927 3:896 
0.9298426668581858 1:350 2:924 3:898 
0.9274584265268312 1:180 2:907 3:880 
0.8684742304832025 1:250 2:905 3:883 
0.7821946180786303 1:350 2:901 3:882 
0.8950320858846882 1:180 2:910 3:883 
0.867773279517378 1:250 2:903 3:881 
0.7821895760958182 1:350 2:900 3:880 
0.8556647465849666 1:180 2:921 3:889 
0.9169959845317712 1:250 2:919 3:893 
0.5373787384658653 1:350 2:915 3:890 
0.6136487299520923 1:180 2:917 3:885 
0.8938410764064166 1:250 2:918 3:889 
0.3906868470131784 1:350 2:916 3:890 
0.6149461836824647 1:180 2:918 3:884 
0.9266457476795579 1:250 2:917 3:885 
0.5729442548917877 1:350 2:916 3:888 
0.254674153695473 1:180 2:923 3:888 
0.7367630094574532 1:250 2:921 3:890 
0.9193610835347635 1:350 2:912 3:884 
0.7168561272041948 1:180 2:924 3:888 
0.7874076829370281 1:250 2:922 3:888 
0.8055215531784483 1:350 2:915 3:886 
0.8971026771528923 1:180 2:913 3:882 
0.9277493984822114 1:250 2:907 3:879 
0.9298392231405059 1:350 2:899 3:874 
-1 1:180 2:866 3:810 
-1 1:250 2:857 3:806 
-1 1:350 2:863 3:815 
-0.07004920166573078 1:180 2:646 3:596 
-0.0703916878576408 1:250 2:645 3:600 
-0.07098818153158255 1:350 2:645 3:602 
-1 1:180 2:646 3:596 
-1 1:250 2:645 3:600 
-0.9992451914196565 1:350 2:645 3:602 
-1 1:180 2:434 3:401 
-1 1:250 2:454 3:432 
-1 1:350 2:472 3:461 
-1 1:180 2:665 3:698 
-1 1:250 2:668 3:700 
-1 1:350 2:668 3:698 
-1 1:180 2:771 3:780 
-1 1:250 2:773 3:783 
-1 1:350 2:768 3:780 
-1 1:180 2:793 3:794 
-1 1:250 2:789 3:794 
-1 1:350 2:785 3:790 
-1 1:180 2:860 3:838 
-1 1:250 2:857 3:839 
-1 1:350 2:855 3:840 
