svm_type c_svc
kernel_type rbf
gamma 0.333333
nr_class 2
total_sv 860
rho 0.0335592
label 1 -1
nr_sv 452 408
SV
1 1:150 2:932 3:896 
1 1:155 2:931 3:893 
0.8387165646533746 1:160 2:927 3:890 
0.6292880426521791 1:165 2:926 3:891 
0.875656679270942 1:170 2:928 3:892 
1 1:175 2:932 3:896 
1 1:180 2:933 3:897 
0.9978129012170504 1:185 2:929 3:894 
1 1:190 2:930 3:894 
0.9054181839374394 1:195 2:926 3:891 
1 1:200 2:924 3:890 
1 1:205 2:929 3:896 
1 1:210 2:929 3:896 
1 1:215 2:929 3:896 
0.9814198618420296 1:220 2:925 3:894 
0.63739327013887 1:225 2:922 3:891 
1 1:230 2:924 3:894 
1 1:235 2:928 3:896 
1 1:240 2:925 3:894 
1 1:245 2:926 3:896 
1 1:250 2:927 3:896 
0.9982913831737767 1:255 2:925 3:894 
0.8516164423552403 1:260 2:922 3:892 
1 1:265 2:924 3:895 
1 1:270 2:927 3:897 
1 1:275 2:926 3:897 
1 1:280 2:924 3:895 
1 1:285 2:922 3:893 
1 1:290 2:921 3:894 
1 1:295 2:923 3:896 
1 1:300 2:924 3:895 
1 1:305 2:926 3:898 
1 1:310 2:924 3:896 
1 1:315 2:925 3:897 
1 1:320 2:923 3:896 
0.9552023780954034 1:325 2:917 3:890 
0.4791350508697766 1:330 2:918 3:891 
1 1:335 2:921 3:894 
1 1:340 2:919 3:894 
1 1:345 2:923 3:897 
1 1:350 2:924 3:898 
1 1:355 2:921 3:895 
1 1:360 2:923 3:897 
1 1:365 2:919 3:894 
0.9665717666885948 1:370 2:915 3:890 
1 1:375 2:918 3:893 
1 1:380 2:919 3:895 
0.6854965052712341 1:385 2:918 3:894 
1 1:390 2:919 3:893 
1 1:395 2:916 3:893 
0.9955109236597772 1:400 2:917 3:893 
1 1:150 2:910 3:880 
1 1:155 2:910 3:879 
0.8655627603633428 1:160 2:907 3:878 
1 1:165 2:909 3:881 
1 1:170 2:905 3:878 
1 1:175 2:908 3:879 
1 1:180 2:907 3:880 
0.9493909387649044 1:185 2:910 3:883 
0.9978006133471032 1:190 2:911 3:883 
1 1:195 2:909 3:884 
1 1:200 2:911 3:884 
0.930324471993451 1:205 2:908 3:883 
0.9847275500202323 1:210 2:908 3:882 
0.9651346494597324 1:215 2:906 3:882 
0.5966973480164435 1:220 2:905 3:880 
0.5778339499192783 1:225 2:904 3:880 
1 1:230 2:905 3:881 
1 1:235 2:908 3:886 
1 1:240 2:908 3:885 
0.8043142229539295 1:245 2:905 3:882 
0.9644445169900769 1:250 2:905 3:883 
0.8164277467847882 1:255 2:905 3:882 
0.8180111166068426 1:260 2:903 3:881 
1 1:265 2:904 3:880 
0.6827595778366374 1:270 2:902 3:883 
0.8670468371726978 1:275 2:903 3:882 
0.9805934123969617 1:280 2:905 3:882 
1 1:285 2:907 3:885 
0.8652281192373723 1:290 2:904 3:882 
0.8357583926066 1:295 2:901 3:879 
1 1:300 2:903 3:881 
1 1:305 2:902 3:882 
1 1:310 2:904 3:882 
1 1:315 2:903 3:882 
1 1:320 2:901 3:880 
1 1:325 2:898 3:878 
0.855835800462438 1:330 2:899 3:879 
1 1:335 2:901 3:882 
1 1:340 2:903 3:883 
1 1:345 2:903 3:886 
0.8692585180805679 1:350 2:901 3:882 
1 1:355 2:903 3:884 
0.5966413111850429 1:360 2:900 3:880 
0.6022651515799777 1:365 2:897 3:878 
1 1:370 2:898 3:879 
1 1:375 2:899 3:882 
0.5914926577150588 1:380 2:901 3:881 
0.9964628769307109 1:385 2:899 3:880 
0.8691901072708224 1:390 2:902 3:884 
0.9974720461624592 1:395 2:902 3:883 
0.6013541480330962 1:400 2:898 3:881 
1 1:150 2:905 3:878 
1 1:155 2:906 3:880 
0.8698316132918527 1:160 2:905 3:879 
0.953394963497972 1:165 2:906 3:879 
0.9660188125842513 1:170 2:908 3:882 
1 1:175 2:909 3:884 
0.9951578808925094 1:180 2:910 3:883 
0.987303048254471 1:185 2:907 3:882 
1 1:190 2:905 3:880 
1 1:195 2:905 3:881 
1 1:200 2:907 3:883 
0.999910728740814 1:205 2:905 3:882 
0.9980730451785846 1:210 2:907 3:885 
0.9650735269137888 1:215 2:908 3:884 
0.6026534456925211 1:220 2:905 3:881 
0.6179468110618783 1:225 2:904 3:881 
1 1:230 2:907 3:884 
1 1:235 2:903 3:881 
1 1:240 2:903 3:883 
0.8208444694788606 1:245 2:903 3:882 
0.9653752327966896 1:250 2:903 3:881 
0.8182172320287997 1:255 2:905 3:884 
0.8179554671564406 1:260 2:901 3:881 
1 1:265 2:904 3:884 
0.6829634410286801 1:270 2:903 3:882 
0.8661035650256423 1:275 2:905 3:883 
0.9845503167333037 1:280 2:902 3:882 
1 1:285 2:901 3:880 
0.8701036252227681 1:290 2:902 3:883 
0.8619440644555801 1:295 2:902 3:881 
1 1:300 2:897 3:879 
1 1:305 2:898 3:878 
1 1:310 2:900 3:881 
1 1:315 2:897 3:878 
1 1:320 2:897 3:878 
1 1:325 2:900 3:881 
0.8703015777167045 1:330 2:900 3:881 
1 1:335 2:897 3:879 
1 1:340 2:898 3:879 
1 1:345 2:897 3:879 
0.8695334413164968 1:350 2:900 3:880 
1 1:355 2:896 3:878 
0.6062900762364066 1:360 2:900 3:881 
0.6014234230288983 1:365 2:897 3:879 
1 1:370 2:900 3:882 
1 1:375 2:897 3:878 
0.7266749646363244 1:380 2:900 3:882 
0.9976424729671346 1:385 2:900 3:883 
0.8675759788389703 1:390 2:900 3:883 
0.997805708351211 1:395 2:899 3:882 
0.6030690423286619 1:400 2:897 3:881 
0.8626040202173024 1:150 2:925 3:892 
0.37462389637238 1:155 2:926 3:891 
0.9803123800704472 1:160 2:924 3:891 
0.9720088307547278 1:165 2:921 3:890 
0.8123747584432116 1:170 2:921 3:888 
1 1:175 2:920 3:888 
0.9512965965878947 1:180 2:921 3:889 
0.9670408650954889 1:185 2:920 3:891 
0.8290824623097751 1:190 2:917 3:888 
0.8989616324620164 1:195 2:920 3:889 
0.8981803874457177 1:200 2:917 3:887 
1 1:205 2:918 3:888 
0.8711668530340386 1:210 2:919 3:889 
0.7497155221145302 1:220 2:921 3:892 
0.9100529169803353 1:225 2:921 3:893 
0.5882501114710046 1:230 2:920 3:891 
0.9015608671899126 1:235 2:921 3:893 
0.8787804900254536 1:240 2:920 3:891 
0.5241126262545501 1:245 2:919 3:890 
1 1:250 2:919 3:893 
0.8902077411970802 1:255 2:918 3:891 
0.5731086897172358 1:260 2:919 3:892 
0.7177445302844212 1:265 2:918 3:891 
0.8578144952760601 1:270 2:919 3:892 
1 1:275 2:919 3:892 
0.9273805858751639 1:280 2:916 3:889 
0.9969756055318769 1:285 2:914 3:889 
0.7091509382371411 1:290 2:913 3:889 
1 1:295 2:914 3:889 
1 1:300 2:919 3:894 
1 1:305 2:919 3:893 
1 1:310 2:920 3:894 
1 1:315 2:919 3:893 
0.987391196940931 1:320 2:915 3:890 
0.8160492180446202 1:325 2:912 3:887 
1 1:330 2:911 3:888 
0.9909181695074242 1:335 2:911 3:887 
0.8569636992760944 1:340 2:912 3:888 
0.8340226429766129 1:345 2:913 3:888 
0.5977187427712125 1:350 2:915 3:890 
1 1:355 2:917 3:893 
1 1:360 2:916 3:893 
0.983299388227135 1:365 2:913 3:890 
1 1:370 2:909 3:885 
0.9993361656419886 1:375 2:911 3:888 
1 1:380 2:914 3:891 
0.6779180006288621 1:385 2:917 3:893 
1 1:390 2:915 3:893 
0.6030902178359479 1:395 2:914 3:890 
1 1:400 2:914 3:890 
0.635897672691596 1:150 2:925 3:890 
0.5958128570952993 1:155 2:925 3:890 
0.8066490176893941 1:160 2:922 3:888 
0.7600036888375999 1:165 2:924 3:889 
0.5778819987615135 1:175 2:923 3:889 
0.6823403406022529 1:180 2:917 3:885 
1 1:185 2:915 3:885 
0.7743147053137448 1:190 2:919 3:888 
0.6359364715319923 1:195 2:919 3:887 
0.6942472378297648 1:200 2:919 3:888 
0.9174229340856739 1:205 2:921 3:891 
0.8591223654639111 1:210 2:922 3:892 
0.9840781009444426 1:215 2:920 3:891 
0.8147524420532251 1:220 2:919 3:890 
0.7956071808394696 1:225 2:917 3:887 
1 1:230 2:914 3:884 
0.9966231432366102 1:235 2:918 3:889 
0.9907178627119316 1:245 2:921 3:892 
0.9938931755113523 1:250 2:918 3:889 
0.5040494942289591 1:255 2:917 3:889 
0.7049664070897328 1:260 2:918 3:891 
0.4172885827594275 1:265 2:918 3:890 
0.8054361666167517 1:270 2:917 3:889 
0.9964938091600439 1:275 2:915 3:889 
1 1:280 2:912 3:884 
0.9510730428093165 1:285 2:915 3:886 
0.621754382328139 1:290 2:914 3:888 
0.8729006896875544 1:295 2:911 3:884 
0.7988508025279958 1:300 2:914 3:887 
1 1:305 2:911 3:884 
0.7278576301717451 1:310 2:912 3:885 
1 1:315 2:912 3:886 
0.8412329523655445 1:320 2:912 3:887 
0.8310443535269364 1:325 2:914 3:888 
0.6772209528600039 1:330 2:917 3:891 
0.9974337384828244 1:335 2:917 3:891 
0.8640677480053964 1:340 2:914 3:889 
0.4342863131817627 1:350 2:916 3:890 
0.9045088154098953 1:355 2:913 3:887 
0.6841193582097945 1:360 2:916 3:888 
0.9810388659117459 1:365 2:916 3:890 
0.8989120262069537 1:370 2:913 3:888 
0.9963803196664834 1:375 2:916 3:889 
1 1:380 2:912 3:888 
1 1:385 2:912 3:888 
1 1:390 2:913 3:889 
0.563652504993003 1:395 2:914 3:889 
0.9485318782449164 1:400 2:911 3:886 
0.9013218064026218 1:150 2:924 3:888 
0.6823177148081637 1:155 2:927 3:890 
0.8432916263699211 1:160 2:926 3:888 
0.463442426142598 1:165 2:927 3:890 
0.834957574846743 1:170 2:923 3:887 
1 1:175 2:919 3:884 
0.6831836065483493 1:180 2:918 3:884 
1 1:185 2:920 3:886 
0.997161777912422 1:190 2:921 3:885 
0.8627065460762595 1:195 2:919 3:885 
0.2960848076030803 1:205 2:921 3:888 
0.7088777998540819 1:210 2:921 3:888 
0.6011883209246873 1:215 2:923 3:890 
0.7224589873741879 1:220 2:920 3:888 
0.8492196659242719 1:225 2:922 3:889 
0.773031605909557 1:230 2:920 3:888 
0.9978076578880638 1:235 2:919 3:886 
0.8171674686092808 1:240 2:918 3:887 
1 1:245 2:915 3:883 
1 1:250 2:917 3:885 
0.98132304805769 1:255 2:921 3:889 
0.5759246565456959 1:260 2:919 3:887 
0.8704566403258097 1:270 2:921 3:891 
0.4329756801394253 1:275 2:919 3:888 
0.281940887221665 1:280 2:918 3:888 
0.9994396043460089 1:285 2:914 3:883 
0.9640703940267332 1:290 2:916 3:885 
0.9479615506798558 1:295 2:914 3:884 
0.9779469697937285 1:300 2:916 3:889 
1 1:305 2:918 3:889 
1 1:310 2:917 3:887 
0.6766541641451875 1:315 2:916 3:886 
0.6619743445517153 1:320 2:915 3:887 
0.9588239956701095 1:325 2:915 3:885 
0.8209818500599939 1:330 2:915 3:885 
0.6768376443825924 1:335 2:914 3:885 
1 1:340 2:914 3:885 
0.8094539914330116 1:345 2:915 3:887 
0.6371553794345751 1:350 2:916 3:888 
0.3810033833507766 1:355 2:915 3:887 
0.6784034738163479 1:360 2:915 3:889 
1 1:365 2:915 3:886 
0.08793076706049635 1:370 2:914 3:885 
0.9486827132093403 1:375 2:912 3:885 
0.6000210717524224 1:380 2:910 3:883 
0.03032415439077406 1:385 2:911 3:884 
0.03277346345501437 1:390 2:911 3:883 
0.869354725875829 1:395 2:909 3:882 
0.8728895521216418 1:400 2:911 3:883 
0.6915579012774931 1:150 2:921 3:884 
0.9408162663557998 1:155 2:923 3:888 
0.3447855870417438 1:160 2:923 3:887 
0.9450551257813729 1:165 2:922 3:887 
0.9052953304448663 1:170 2:923 3:890 
0.5800300182966145 1:175 2:924 3:889 
0.2824730936104373 1:180 2:923 3:888 
0.953288439123952 1:185 2:922 3:889 
0.4744438571652165 1:190 2:922 3:888 
0.7267639914561961 1:195 2:923 3:891 
0.5092843265895123 1:205 2:922 3:889 
0.6419865910314481 1:210 2:922 3:890 
0.5534354914182258 1:215 2:923 3:891 
0.7372385597246179 1:220 2:923 3:892 
0.2852432696108023 1:225 2:918 3:887 
0.5525601716109318 1:230 2:921 3:891 
0.636792637353077 1:235 2:922 3:891 
0.5698592979945192 1:240 2:920 3:889 
0.7267093291245313 1:245 2:918 3:889 
0.8195728523825347 1:250 2:921 3:890 
0.6950906220678265 1:255 2:918 3:888 
0.7992036065637689 1:260 2:921 3:890 
0.9598113293854414 1:265 2:916 3:888 
0.817435281680541 1:270 2:917 3:887 
0.694046917960619 1:275 2:918 3:889 
0.7535464674803568 1:280 2:918 3:887 
0.6630695113964011 1:285 2:918 3:888 
0.9595977938552442 1:290 2:913 3:885 
0.1576916809793773 1:295 2:912 3:884 
0.7177615594187318 1:300 2:913 3:885 
0.856240536899098 1:305 2:914 3:886 
0.3367662204307439 1:310 2:913 3:885 
0.9940175190963599 1:315 2:911 3:882 
0.8270416018209186 1:320 2:913 3:885 
0.9574432001983992 1:325 2:912 3:884 
0.8033397700467565 1:330 2:913 3:885 
0.4793324844436668 1:335 2:913 3:885 
0.8114779118361614 1:340 2:918 3:890 
0.9354485805707278 1:345 2:913 3:885 
1 1:350 2:912 3:884 
1 1:355 2:911 3:881 
0.8184032628315884 1:360 2:912 3:884 
0.8556868676931121 1:365 2:912 3:884 
0.8574308787662985 1:370 2:915 3:886 
0.9862374544438532 1:375 2:912 3:882 
0.6029437366286681 1:380 2:910 3:882 
1 1:385 2:911 3:884 
1 1:390 2:911 3:883 
0.8690492692389425 1:395 2:911 3:883 
0.1578239114568016 1:400 2:911 3:884 
0.6664539776820652 1:150 2:922 3:885 
0.9863108824871752 1:155 2:923 3:885 
0.9114330786716246 1:160 2:923 3:885 
0.4275604300719404 1:165 2:926 3:889 
0.835428888994855 1:170 2:926 3:891 
1 1:175 2:927 3:890 
0.7970845683003753 1:180 2:924 3:888 
0.9978378985767783 1:185 2:928 3:891 
0.6761471251073355 1:190 2:923 3:888 
0.4855659256083646 1:195 2:924 3:890 
0.8953311192531201 1:200 2:921 3:887 
0.7403239142486513 1:205 2:922 3:887 
1 1:210 2:920 3:885 
1 1:215 2:919 3:885 
0.8146822196835491 1:220 2:922 3:889 
0.9398189959156722 1:225 2:920 3:886 
0.8017972876897245 1:230 2:922 3:888 
0.853890372890989 1:235 2:924 3:891 
0.6637082278476274 1:240 2:920 3:887 
0.9660326045651837 1:245 2:921 3:888 
0.874695626811778 1:250 2:922 3:888 
0.9850272024949083 1:255 2:924 3:891 
0.619982859365676 1:260 2:919 3:886 
0.981547777718822 1:265 2:919 3:887 
1 1:270 2:916 3:883 
0.8943740873101741 1:275 2:919 3:886 
1 1:280 2:921 3:889 
0.6893578040937816 1:285 2:919 3:887 
1 1:290 2:919 3:887 
1 1:295 2:918 3:887 
0.8689850314801255 1:300 2:915 3:884 
0.8662689360015658 1:305 2:915 3:884 
0.9192876383187978 1:310 2:914 3:883 
0.6851489344077951 1:315 2:917 3:887 
0.8442120642808663 1:320 2:917 3:887 
0.9664858931897726 1:325 2:919 3:888 
0.9912717150963104 1:330 2:920 3:889 
0.9973689301298347 1:335 2:918 3:888 
0.8160762667727248 1:340 2:920 3:890 
1 1:345 2:919 3:889 
0.8952922118522575 1:350 2:915 3:886 
0.8058888588058468 1:355 2:916 3:886 
0.8163500626372864 1:360 2:914 3:884 
0.8701011376034383 1:365 2:913 3:882 
0.9207407706506462 1:370 2:913 3:884 
0.997497194603412 1:375 2:917 3:886 
1 1:380 2:914 3:885 
1 1:385 2:918 3:889 
1 1:390 2:917 3:888 
1 1:395 2:917 3:888 
0.9932331869173873 1:400 2:918 3:890 
1 1:150 2:915 3:882 
1 1:155 2:915 3:881 
1 1:160 2:911 3:879 
0.9637652559028602 1:165 2:908 3:877 
0.966397943999767 1:170 2:910 3:880 
1 1:175 2:914 3:881 
0.9973845834118703 1:180 2:913 3:882 
0.9734294123813081 1:185 2:910 3:880 
0.9970485106196255 1:190 2:910 3:880 
1 1:195 2:909 3:879 
1 1:200 2:907 3:876 
0.9685176168641688 1:205 2:910 3:881 
1 1:210 2:911 3:880 
1 1:215 2:910 3:880 
1 1:220 2:909 3:880 
1 1:225 2:906 3:877 
1 1:230 2:906 3:876 
1 1:235 2:907 3:879 
1 1:240 2:908 3:879 
1 1:245 2:907 3:879 
1 1:250 2:907 3:879 
1 1:255 2:907 3:878 
1 1:260 2:902 3:875 
1 1:265 2:903 3:875 
1 1:270 2:903 3:876 
1 1:275 2:906 3:879 
1 1:280 2:909 3:881 
1 1:285 2:906 3:880 
1 1:290 2:908 3:881 
0.9924661965368093 1:295 2:904 3:878 
1 1:300 2:901 3:874 
1 1:305 2:902 3:877 
1 1:310 2:906 3:879 
0.9974429700831552 1:315 2:908 3:883 
1 1:320 2:906 3:880 
1 1:325 2:903 3:875 
1 1:330 2:902 3:877 
1 1:335 2:906 3:881 
1 1:340 2:906 3:881 
1 1:345 2:902 3:876 
1 1:350 2:899 3:874 
1 1:355 2:903 3:877 
1 1:360 2:903 3:877 
1 1:365 2:902 3:878 
1 1:370 2:902 3:877 
1 1:375 2:900 3:876 
0.9905321005204082 1:380 2:903 3:879 
1 1:385 2:903 3:878 
1 1:390 2:902 3:879 
1 1:395 2:902 3:877 
1 1:400 2:899 3:874 
-0.9663191272077171 1:150 2:866 3:807 
-0.9662488082109931 1:155 2:867 3:808 
-0.9667114362436513 1:160 2:865 3:809 
-0.9664165505115105 1:165 2:872 3:814 
-0.9662405868101851 1:170 2:868 3:811 
-0.9661146319978997 1:175 2:867 3:811 
-0.9658036975240426 1:180 2:866 3:810 
-0.9662833635532108 1:185 2:863 3:809 
-0.9664311132148637 1:190 2:864 3:808 
-0.9663486560985899 1:195 2:862 3:808 
-0.9663763421162886 1:200 2:866 3:812 
-0.9665792112557285 1:205 2:867 3:814 
-0.9665396256301528 1:210 2:866 3:814 
-0.9662904468665305 1:215 2:867 3:813 
-0.9661676096405324 1:220 2:864 3:811 
-0.9655845052490949 1:225 2:864 3:811 
-0.9663410660120462 1:230 2:863 3:811 
-0.9667701020520909 1:235 2:861 3:809 
-0.9667802037279157 1:240 2:859 3:807 
-0.9664095990295913 1:245 2:860 3:810 
-0.9664004159873695 1:250 2:857 3:806 
-0.9667489158671981 1:255 2:862 3:811 
-0.9662259325284611 1:260 2:863 3:813 
-0.9662414762297125 1:265 2:864 3:814 
-0.9663212908103156 1:270 2:866 3:815 
-0.9663237478619574 1:275 2:864 3:814 
-0.9661381679973798 1:280 2:862 3:813 
-0.9659349367380817 1:285 2:864 3:815 
-0.9667501714165363 1:290 2:866 3:816 
-0.9666136034259215 1:295 2:861 3:812 
-0.9663517415551761 1:300 2:859 3:810 
-0.9661228477132516 1:305 2:858 3:809 
-0.9662225085387074 1:310 2:857 3:809 
-0.9663875991514745 1:315 2:859 3:811 
-0.9666044196892855 1:320 2:860 3:811 
-0.9664189870561003 1:325 2:856 3:809 
-0.9663215520843609 1:330 2:858 3:809 
-0.9662465455006248 1:335 2:858 3:810 
-0.9658466971916565 1:340 2:861 3:813 
-0.9663817029694265 1:345 2:861 3:814 
-0.9666309087072554 1:350 2:863 3:815 
-0.9660756642981484 1:355 2:862 3:814 
-0.9659437443373504 1:360 2:862 3:814 
-0.966335731047913 1:365 2:861 3:815 
-0.9661675180252699 1:370 2:862 3:814 
-0.9662443205911844 1:375 2:863 3:815 
-0.9662444731799428 1:380 2:861 3:815 
-0.9657946532552644 1:385 2:861 3:815 
-0.966357176509128 1:390 2:862 3:815 
-0.9662337477932033 1:395 2:857 3:810 
-0.9660072476090658 1:400 2:857 3:811 
-0.9665638972603878 1:150 2:782 3:729 
-0.9663853281304383 1:155 2:779 3:731 
-0.9665686937075049 1:160 2:775 3:730 
-0.9662534539193494 1:165 2:771 3:729 
-0.9666429109893423 1:170 2:770 3:729 
-0.9666896301545368 1:175 2:774 3:733 
-0.9663929612070741 1:180 2:772 3:731 
-0.9659105383867364 1:185 2:770 3:729 
-0.9663592836192015 1:190 2:771 3:731 
-0.9662948800380942 1:195 2:768 3:728 
-0.9660216570174511 1:200 2:765 3:725 
-0.9665006221078397 1:205 2:764 3:725 
-0.966372139423946 1:210 2:766 3:727 
-0.9666171555920497 1:215 2:764 3:725 
-0.9660729959608829 1:220 2:767 3:729 
-0.9664087920024577 1:225 2:771 3:733 
-0.9661672956831592 1:230 2:769 3:730 
-0.9660341447554825 1:235 2:769 3:730 
-0.9662687786612405 1:240 2:768 3:730 
-0.9666079219511928 1:245 2:766 3:728 
-0.9664096175807607 1:250 2:763 3:725 
-0.9664701532348152 1:255 2:765 3:727 
-0.9664622796222641 1:260 2:765 3:726 
-0.9664047576555966 1:265 2:762 3:725 
-0.9663989604111609 1:270 2:766 3:730 
-0.9661202139826399 1:275 2:769 3:733 
-0.9666360245205915 1:280 2:766 3:730 
-0.9664302054656675 1:285 2:768 3:732 
-0.9668269127615562 1:290 2:766 3:729 
-0.9665282688115117 1:295 2:761 3:725 
-0.96687277794794 1:300 2:763 3:728 
-0.9660695484950198 1:305 2:768 3:732 
-0.9656312509371796 1:310 2:768 3:732 
-0.9663157223986781 1:315 2:767 3:731 
-0.9662935725695679 1:320 2:766 3:730 
-0.9665964420190923 1:325 2:764 3:728 
-0.966436458945975 1:330 2:761 3:726 
-0.9662330847724457 1:335 2:760 3:726 
-0.9666600394081869 1:340 2:767 3:731 
-0.9662678007052784 1:345 2:765 3:729 
-0.9661271728889722 1:350 2:764 3:728 
-0.9661167808493391 1:355 2:763 3:728 
-0.9662690177402209 1:360 2:762 3:727 
-0.9666230479348891 1:365 2:760 3:725 
-0.966150704145363 1:370 2:763 3:729 
-0.965857272346661 1:375 2:762 3:728 
-0.9657006838374398 1:380 2:762 3:728 
-0.9665397949022232 1:385 2:761 3:727 
-0.966178325496531 1:390 2:761 3:727 
-0.9662785117642696 1:395 2:759 3:725 
-0.9660527837782329 1:400 2:758 3:724 
-0.9666619744606357 1:150 2:645 3:591 
-0.9663468054638545 1:155 2:644 3:593 
-0.9663122860436334 1:160 2:643 3:592 
-0.9662419947169085 1:165 2:644 3:593 
-0.9663935220834002 1:170 2:643 3:594 
-0.9660573012402353 1:175 2:643 3:593 
-0.9666582734628353 1:180 2:646 3:596 
-0.9662982002617263 1:185 2:644 3:595 
-0.9662633875604599 1:190 2:644 3:596 
-0.9661560470425773 1:195 2:646 3:598 
-0.966181282016277 1:200 2:646 3:598 
-0.9661695413063462 1:205 2:648 3:601 
-0.9664407047902643 1:210 2:648 3:601 
-0.9659125005861288 1:215 2:650 3:603 
-0.9661416451170404 1:220 2:650 3:603 
-0.9662569584993815 1:225 2:647 3:602 
-0.9667871481031437 1:230 2:648 3:601 
-0.9661735315340251 1:235 2:645 3:599 
-0.9660489049088888 1:240 2:645 3:599 
-0.9666054527363309 1:245 2:644 3:598 
-0.9662522809583078 1:250 2:645 3:600 
-0.9662931314391994 1:255 2:644 3:599 
-0.9665416765729952 1:260 2:645 3:602 
-0.9663550471811692 1:265 2:648 3:603 
-0.965973142339709 1:270 2:648 3:605 
-0.966251561764669 1:275 2:648 3:604 
-0.9663699412982265 1:280 2:647 3:602 
-0.9664539101225367 1:285 2:647 3:603 
-0.9661754402166656 1:290 2:647 3:604 
-0.9663489042375218 1:295 2:647 3:602 
-0.9663518079168103 1:300 2:642 3:599 
-0.9663376703219524 1:305 2:644 3:600 
-0.9661094746475942 1:310 2:644 3:600 
-0.9664106787010336 1:315 2:644 3:602 
-0.9665629739363117 1:320 2:648 3:604 
-0.96588193581232 1:325 2:648 3:604 
-0.96657785995565 1:330 2:648 3:605 
-0.9663568092075545 1:335 2:646 3:604 
-0.9665651647140722 1:340 2:644 3:602 
-0.9665729066510095 1:345 2:648 3:604 
-0.9665771586619372 1:350 2:645 3:602 
-0.9664345758201149 1:355 2:641 3:599 
-0.9663113886726088 1:360 2:642 3:601 
-0.9662453398431617 1:365 2:644 3:602 
-0.9656996139097207 1:370 2:645 3:603 
-0.9660505558046841 1:375 2:645 3:603 
-0.9663730283641718 1:380 2:644 3:602 
-0.9664076317641258 1:385 2:646 3:604 
-0.9663942923236417 1:390 2:643 3:603 
-0.9663590571406424 1:395 2:641 3:599 
-0.9663405265467996 1:400 2:642 3:601 
-0.9664050025359466 1:150 2:425 3:386 
-0.9668086247788461 1:155 2:429 3:390 
-0.9662843435031532 1:160 2:430 3:393 
-0.9662423530278643 1:165 2:431 3:394 
-0.966348710111394 1:170 2:432 3:396 
-0.9663651046930802 1:175 2:432 3:398 
-0.9666561437115633 1:180 2:434 3:401 
-0.966275294681101 1:185 2:436 3:403 
-0.9662741955783453 1:190 2:437 3:404 
-0.9664165741219655 1:195 2:436 3:407 
-0.9660327398623276 1:200 2:439 3:408 
-0.9662509633140307 1:205 2:440 3:410 
-0.9667169748533437 1:210 2:443 3:414 
-0.9661999779449291 1:215 2:442 3:414 
-0.9664214292763986 1:220 2:442 3:416 
-0.9665539743795074 1:225 2:445 3:419 
-0.9663739232344253 1:230 2:447 3:423 
-0.9660017740629617 1:235 2:449 3:424 
-0.96637951659069 1:240 2:452 3:427 
-0.9660889281391963 1:245 2:451 3:429 
-0.9660212524916818 1:250 2:454 3:432 
-0.9666179841224913 1:255 2:455 3:432 
-0.9663804299263934 1:260 2:455 3:435 
-0.9662311696854358 1:265 2:456 3:435 
-0.9657623010002984 1:270 2:455 3:435 
-0.9659701632220775 1:275 2:457 3:438 
-0.9662386938708339 1:280 2:458 3:440 
-0.9658109334030022 1:285 2:459 3:441 
-0.9662397762853558 1:290 2:460 3:443 
-0.9662937234789627 1:295 2:461 3:444 
-0.9663952765622058 1:300 2:461 3:447 
-0.9665346065716458 1:305 2:465 3:450 
-0.9662260906167364 1:310 2:467 3:452 
-0.9662241285984581 1:315 2:466 3:452 
-0.9660132511052106 1:320 2:468 3:454 
-0.9662561588063809 1:325 2:468 3:456 
-0.9665215813513728 1:330 2:467 3:455 
-0.9663094570821877 1:335 2:468 3:456 
-0.9663989319139734 1:340 2:471 3:459 
-0.9663877200629775 1:345 2:471 3:459 
-0.9664195801974369 1:350 2:472 3:461 
-0.9658967591623158 1:355 2:473 3:463 
-0.9664215381837266 1:360 2:475 3:465 
-0.9662426136184855 1:365 2:477 3:469 
-0.9662797077508489 1:370 2:477 3:468 
-0.966596917401064 1:375 2:478 3:470 
-0.9663073194847834 1:380 2:480 3:472 
-0.9664341423696916 1:385 2:479 3:472 
-0.9662395375054833 1:390 2:481 3:474 
-0.9662937785092168 1:395 2:479 3:474 
-0.9664710374463191 1:400 2:480 3:474 
-0.9661320183701751 1:150 2:665 3:699 
-0.9661931430044505 1:155 2:664 3:698 
-0.9661701517460953 1:160 2:665 3:699 
-0.9665374813546262 1:165 2:666 3:700 
-0.9663343093254937 1:170 2:666 3:698 
-0.9661367931462487 1:175 2:668 3:700 
-0.9662401074694599 1:180 2:665 3:698 
-0.9663717037218286 1:185 2:665 3:697 
-0.9663886930580297 1:190 2:667 3:699 
-0.9667718561383812 1:195 2:663 3:696 
-0.9664188229848859 1:200 2:664 3:699 
-0.9666836091150524 1:205 2:664 3:695 
-0.9665140628953861 1:210 2:666 3:698 
-0.9662534398018822 1:215 2:666 3:699 
-0.966381455614155 1:220 2:670 3:702 
-0.9663799603562802 1:225 2:668 3:701 
-0.9657800797110042 1:230 2:668 3:701 
-0.9661527505104135 1:235 2:666 3:699 
-0.9661858727876785 1:240 2:666 3:699 
-0.9660111744008094 1:245 2:669 3:701 
-0.9661718754740667 1:250 2:668 3:700 
-0.9661827978426675 1:255 2:669 3:701 
-0.9662796542142078 1:260 2:668 3:700 
-0.9667903352251123 1:265 2:666 3:697 
-0.9668988225779102 1:270 2:670 3:702 
-0.9663054128942442 1:275 2:668 3:699 
-0.9662759356705384 1:280 2:669 3:700 
-0.9664732624215679 1:285 2:666 3:697 
-0.9663635411775157 1:290 2:668 3:699 
-0.9662976381355669 1:295 2:670 3:701 
-0.9662044438879204 1:300 2:670 3:702 
-0.9662797254300235 1:305 2:669 3:701 
-0.9665803165912003 1:310 2:668 3:698 
-0.9662823698717489 1:315 2:669 3:700 
-0.9662874091580707 1:320 2:670 3:701 
-0.9662736019263866 1:325 2:672 3:703 
-0.9666122819006875 1:330 2:671 3:702 
-0.9664289351522842 1:335 2:671 3:701 
-0.9663508611011131 1:340 2:669 3:700 
-0.9662257464889714 1:345 2:667 3:698 
-0.9660147959055007 1:350 2:668 3:698 
-0.9663800396486728 1:355 2:666 3:697 
-0.9662503470677622 1:360 2:670 3:700 
-0.9663239154441947 1:365 2:670 3:701 
-0.9661205752159114 1:370 2:670 3:702 
-0.9661622552900294 1:375 2:671 3:701 
-0.966168241834741 1:380 2:672 3:702 
-0.9664991523218849 1:385 2:669 3:699 
-0.9660789480255616 1:390 2:668 3:698 
-0.9661655778950029 1:395 2:668 3:698 
-0.9665247085200364 1:400 2:672 3:703 
-0.9664264993209567 1:150 2:772 3:780 
-0.9661626719423685 1:155 2:776 3:783 
-0.9663894333356899 1:160 2:777 3:785 
-0.9661750984051869 1:165 2:775 3:783 
-0.9660144526189475 1:170 2:775 3:783 
-0.9661230553377096 1:175 2:774 3:783 
-0.9663981730895979 1:180 2:771 3:780 
-0.9667748585874451 1:185 2:772 3:783 
-0.9663880385287386 1:190 2:776 3:785 
-0.9665722368452032 1:195 2:774 3:783 
-0.9666134215810132 1:200 2:777 3:785 
-0.9661626181195236 1:205 2:772 3:782 
-0.9662876125071223 1:210 2:771 3:781 
-0.9664869969591722 1:215 2:774 3:783 
-0.9663433645020363 1:220 2:773 3:784 
-0.9660055118217239 1:225 2:773 3:783 
-0.9664894466266633 1:230 2:776 3:786 
-0.9659502443995925 1:235 2:769 3:780 
-0.9662805030682386 1:240 2:773 3:783 
-0.9660675970960952 1:245 2:772 3:783 
-0.9661973320505238 1:250 2:773 3:783 
-0.9664670034886109 1:255 2:774 3:783 
-0.9663422187342084 1:260 2:772 3:783 
-0.9662212763823566 1:265 2:769 3:779 
-0.9661624923907798 1:270 2:770 3:781 
-0.9667624113736508 1:275 2:772 3:784 
-0.9661709019751655 1:280 2:775 3:786 
-0.9661799615824026 1:285 2:775 3:786 
-0.9660137994512709 1:290 2:772 3:783 
-0.9658669865052394 1:295 2:773 3:784 
-0.9660044303147949 1:300 2:770 3:781 
-0.9665143792492817 1:305 2:768 3:780 
-0.9662385470045363 1:310 2:772 3:784 
-0.9663917977389548 1:315 2:773 3:786 
-0.9661434212727464 1:320 2:774 3:786 
-0.9662678043281062 1:325 2:773 3:785 
-0.9663355883451717 1:330 2:773 3:782 
-0.9663608219701632 1:335 2:771 3:782 
-0.9663487632531899 1:340 2:768 3:780 
-0.9663159946941657 1:345 2:767 3:778 
-0.966343601536315 1:350 2:768 3:780 
-0.9661814783174177 1:355 2:772 3:783 
-0.9657518531322622 1:360 2:772 3:783 
-0.9662267299166685 1:365 2:772 3:784 
-0.9660166462144014 1:370 2:770 3:782 
-0.966172697516682 1:375 2:770 3:782 
-0.9662619933757249 1:380 2:773 3:785 
-0.9667907181121044 1:385 2:768 3:778 
-0.9660138263351875 1:390 2:769 3:781 
-0.965759099303741 1:395 2:769 3:780 
-0.9658663888041013 1:400 2:769 3:782 
-0.9662366262158198 1:150 2:791 3:791 
-0.9663037083560139 1:155 2:791 3:792 
-0.9660326159846491 1:160 2:790 3:792 
-0.9660548860962035 1:165 2:789 3:789 
-0.9661617001989423 1:170 2:789 3:789 
-0.9664627026894911 1:175 2:791 3:794 
-0.9662882764519901 1:180 2:793 3:794 
-0.9658536055611805 1:185 2:791 3:794 
-0.9665086076677186 1:190 2:793 3:796 
-0.9663947006215963 1:195 2:791 3:794 
-0.9661828156690035 1:200 2:789 3:791 
-0.9663462349806383 1:205 2:787 3:790 
-0.9664674155186841 1:210 2:789 3:792 
-0.9659287836618098 1:215 2:790 3:794 
-0.9658933090604105 1:220 2:790 3:793 
-0.9667373906383834 1:225 2:792 3:795 
-0.9665588456624618 1:230 2:790 3:793 
-0.9664457263708864 1:235 2:792 3:795 
-0.9667426575423272 1:240 2:786 3:790 
-0.9662411658719612 1:245 2:786 3:789 
-0.9662325749397996 1:250 2:789 3:794 
-0.9660299340429084 1:255 2:789 3:793 
-0.9665815007206202 1:260 2:790 3:793 
-0.9661836200985845 1:265 2:786 3:790 
-0.9656053828745421 1:270 2:786 3:790 
-0.9660619500708636 1:275 2:787 3:791 
-0.9664396367250736 1:280 2:788 3:794 
-0.9658054691899334 1:285 2:789 3:794 
-0.9661710646365596 1:290 2:787 3:790 
-0.9662909616215807 1:295 2:786 3:791 
-0.9667687268789243 1:300 2:788 3:793 
-0.9661621445720562 1:305 2:790 3:795 
-0.9661801691459312 1:310 2:790 3:795 
-0.9666169987720469 1:315 2:787 3:791 
-0.9660900626981782 1:320 2:786 3:791 
-0.9662260878966408 1:325 2:785 3:791 
-0.9662754620026504 1:330 2:787 3:793 
-0.9664039649778522 1:335 2:788 3:794 
-0.9662191533097071 1:340 2:789 3:794 
-0.966376662558906 1:345 2:787 3:792 
-0.9663858930683474 1:350 2:785 3:790 
-0.9662619027011073 1:355 2:783 3:789 
-0.9664415944684662 1:360 2:784 3:788 
-0.9661940322952948 1:365 2:785 3:790 
-0.9666109550742316 1:370 2:785 3:791 
-0.9657961501333033 1:375 2:787 3:793 
-0.9659774247748797 1:380 2:786 3:792 
-0.9664465910368081 1:385 2:785 3:792 
-0.9665773241625917 1:390 2:785 3:791 
-0.9664126892043671 1:395 2:787 3:793 
-0.9665289494881437 1:400 2:784 3:790 
-0.9664911556531962 1:150 2:859 3:836 
-0.966275980979894 1:155 2:861 3:838 
-0.9662471646479652 1:160 2:860 3:837 
-0.966347244594993 1:165 2:858 3:836 
-0.9664133525287045 1:170 2:860 3:838 
-0.9662880860396246 1:175 2:860 3:836 
-0.9660447443379893 1:180 2:860 3:838 
-0.9662356879924208 1:185 2:861 3:840 
-0.9663498362168096 1:190 2:864 3:842 
-0.9666577882210213 1:195 2:861 3:840 
-0.9662373235909093 1:200 2:862 3:841 
-0.9659297481064248 1:205 2:864 3:842 
-0.9662471975957111 1:210 2:861 3:841 
-0.9662276880739861 1:215 2:863 3:842 
-0.9661957429466517 1:220 2:862 3:842 
-0.9663615998268471 1:225 2:859 3:839 
-0.966068349949474 1:230 2:858 3:839 
-0.9660060666009712 1:235 2:859 3:839 
-0.9661708690781969 1:240 2:859 3:839 
-0.9666932361208421 1:245 2:855 3:836 
-0.9666130173706163 1:250 2:857 3:839 
-0.9664257855164425 1:255 2:854 3:836 
-0.9659472704220596 1:260 2:857 3:838 
-0.9665795630878929 1:265 2:853 3:835 
-0.9657919767975932 1:270 2:854 3:835 
-0.9661171948472312 1:275 2:854 3:835 
-0.9661988282786484 1:280 2:854 3:837 
-0.966705021078676 1:285 2:854 3:836 
-0.9661715533472871 1:290 2:857 3:840 
-0.9662485754522758 1:295 2:857 3:838 
-0.9656967341941229 1:300 2:856 3:839 
-0.9657204911808687 1:305 2:856 3:839 
-0.966420444914095 1:310 2:858 3:842 
-0.9664209957894295 1:315 2:856 3:839 
-0.9666446376610824 1:320 2:858 3:842 
-0.9663766679008704 1:325 2:857 3:839 
-0.9667354598221599 1:330 2:858 3:842 
-0.9662763043619077 1:335 2:856 3:840 
-0.9661749672508676 1:340 2:857 3:841 
-0.9665889560115549 1:345 2:854 3:838 
-0.9663231027887955 1:350 2:855 3:840 
-0.9664658422412186 1:355 2:857 3:841 
-0.96614084998621 1:360 2:858 3:841 
-0.9662810915560514 1:365 2:857 3:842 
-0.9659968375311695 1:370 2:856 3:839 
-0.9662798388555638 1:375 2:854 3:838 
-0.9657142059145134 1:380 2:854 3:837 
-0.9663518621948773 1:385 2:854 3:838 
-0.9659168932576352 1:390 2:852 3:839 
-0.9663713572997754 1:395 2:852 3:836 
-0.9666156934504909 1:400 2:850 3:835 
