svm_type c_svc
kernel_type rbf
gamma 0.125
nr_class 2
total_sv 170
rho -0.367914
label 1 -1
nr_sv 95 75
SV
0.5797477082291286 1:866 2:852 
0.5286292886663911 1:841 2:840 
0.5647098961282716 1:810 2:828 
0.6052213676430593 1:774 2:813 
0.412191433680448 1:694 2:779 
0.628091695260278 1:655 2:764 
0.6322288493548327 1:613 2:742 
0.6322904219174926 1:566 2:712 
0.6322755057402749 1:524 2:684 
0.6321424929494621 1:482 2:650 
0.5481926818022735 1:896 2:870 
0.3191785027172857 1:880 2:864 
0.5448523985785987 1:863 2:859 
0.6319862692872652 1:844 2:852 
0.6320505471404139 1:818 2:842 
0.632142554631315 1:790 2:831 
0.3185142358831543 1:752 2:811 
0.6309779760062273 1:718 2:802 
0.6319155777699373 1:680 2:788 
0.6322405141050197 1:636 2:768 
0.6320554505500544 1:591 2:744 
0.3897225775352186 1:899 2:868 
0.01168806697061617 1:897 2:865 
0.5404722249530536 1:896 2:863 
0.3840242951815851 1:899 2:865 
0.3029818090003263 1:889 2:856 
0.5661594685739861 1:886 2:854 
0.3947633767638422 1:889 2:859 
0.4554119201032839 1:892 2:858 
0.4578789604563918 1:881 2:862 
0.4946452322878424 1:863 2:855 
0.5263402971379486 1:839 2:843 
0.5067184970405323 1:811 2:832 
0.5645020609639292 1:782 2:822 
0.3678526937296081 1:751 2:812 
0.6038590171052823 1:713 2:797 
0.6320051308319095 1:673 2:780 
0.6321663313561618 1:628 2:756 
0.6319499102289658 1:586 2:733 
0.6321810785542671 1:543 2:707 
0.6299587877858321 1:851 2:843 
0.6320862351223994 1:826 2:832 
0.6318464437492963 1:800 2:820 
0.6050585703405655 1:771 2:809 
0.6322807270439713 1:736 2:797 
0.4109944662435674 1:693 2:777 
0.6285011317698181 1:651 2:759 
0.4104339238281304 1:602 2:732 
0.6056226319406108 1:556 2:703 
0.6315662235109405 1:509 2:667 
0.6322970863188863 1:467 2:627 
0.6298648123711466 1:857 2:840 
0.6323607762699819 1:831 2:823 
0.6319328662464347 1:801 2:805 
0.6323618807493254 1:766 2:785 
0.6319553031733314 1:723 2:758 
0.6322706963696203 1:675 2:725 
0.6322841533468184 1:632 2:692 
0.6321614498247998 1:588 2:652 
0.632177287971558 1:546 2:608 
0.6322368944268701 1:507 2:557 
0.6322380491712316 1:476 2:507 
0.58334086227944 1:880 2:872 
0.5591670700794169 1:855 2:856 
0.6170932636538364 1:830 2:845 
0.3728148569492222 1:805 2:836 
0.6319342301984229 1:778 2:829 
0.6322235108915886 1:740 2:810 
0.6322261753995416 1:700 2:792 
0.6322024394475736 1:662 2:772 
0.6320390066196832 1:620 2:746 
0.6322029624277858 1:582 2:720 
0.6322080303235699 1:544 2:688 
0.6318943849933903 1:888 2:870 
0.5058112778599446 1:876 2:867 
0.1493482181926045 1:857 2:859 
0.4008734466781175 1:835 2:849 
0.4825857898406824 1:807 2:833 
0.5645097116183189 1:778 2:821 
0.6081304203698855 1:749 2:807 
0.6054994463889496 1:716 2:793 
0.6300026996738599 1:680 2:774 
0.6279854527693853 1:644 2:752 
0.6318203874084672 1:609 2:729 
0.3764969731677166 1:879 2:868 
0.4140914720696798 1:858 2:859 
0.2912210418657989 1:834 2:848 
0.5040138084762654 1:802 2:836 
0.6321616442751999 1:764 2:817 
0.6318865224749146 1:727 2:801 
0.6299460940790882 1:683 2:780 
0.6274387620141197 1:642 2:758 
0.4125032350514795 1:600 2:731 
0.605606794944212 1:559 2:699 
0.6317182479866491 1:519 2:665 
-1.144381530080089 1:333 2:98 
-1.134424833467861 1:331 2:95 
-1.309812367520972 1:326 2:91 
-1.166683117902707 1:323 2:87 
-1.206316359722739 1:322 2:83 
-1.238061966849201 1:318 2:79 
-1.015565291596777 1:315 2:76 
-1.125154158830024 1:313 2:73 
-0.9448285783058082 1:309 2:70 
-1.014916402554217 1:307 2:68 
-1.364128681533938 1:301 2:65 
-1.254036412074244 1:311 2:97 
-1.075609167696348 1:308 2:94 
-0.6924313094079874 1:306 2:91 
-0.926053530344064 1:304 2:89 
-0.8478951371435397 1:300 2:86 
-0.7543596640564931 1:298 2:84 
-0.9939910993351893 1:295 2:81 
-0.4480289812903391 1:292 2:78 
-0.7977166127116168 1:292 2:76 
-1.034932982376574 1:289 2:74 
-0.232679343533846 1:303 2:93 
-0.9065557350674537 1:302 2:93 
-1.055659068382613 1:299 2:90 
-0.5232237428214285 1:296 2:87 
-0.8584754919123381 1:294 2:86 
-0.2968477573207772 1:293 2:83 
-0.5063593987049485 1:289 2:81 
-0.5395424170453056 1:287 2:77 
-0.626331286468794 1:291 2:82 
-0.9212834550117672 1:286 2:80 
-0.02746618016597015 1:283 2:75 
-0.849895835154077 1:279 2:74 
-0.4758075719622292 1:281 2:72 
-0.8024085403948789 1:276 2:70 
-0.7852749469869309 1:273 2:69 
-0.6344417431927684 1:271 2:67 
-0.2216284970275075 1:290 2:79 
-0.9243494291547947 1:284 2:75 
-0.03785552813488972 1:277 2:70 
-0.5960298234309187 1:270 2:65 
-0.7919846539353238 1:267 2:63 
-0.6287949273323158 1:265 2:61 
-0.677650108841406 1:262 2:59 
-0.6335670521297445 1:260 2:58 
-0.01961082859472779 1:269 2:63 
-0.3232052873189853 1:259 2:56 
-0.5897520535630598 1:256 2:54 
-0.7995162786152862 1:254 2:52 
-0.491587814807757 1:249 2:51 
-1.030112209059123 1:247 2:49 
-0.02117744133951419 1:285 2:78 
-0.7055911531613831 1:282 2:78 
-1.004634786259565 1:279 2:78 
-0.8128787088794215 1:280 2:70 
-0.3461122836132586 1:277 2:67 
-0.6607610360253686 1:275 2:65 
-0.1965066375959811 1:271 2:63 
-0.4031767867749848 1:268 2:60 
-0.1088443659184402 1:264 2:58 
-0.1318536811202607 1:261 2:56 
-0.6266795786614447 1:259 2:53 
-0.2805467911067805 1:256 2:52 
-0.6150655208685319 1:251 2:50 
-0.2545860224559034 1:250 2:49 
-0.7689266622747354 1:272 2:52 
-0.7675848988168669 1:273 2:53 
-1.072594600492848 1:276 2:60 
-0.4855042386154316 1:278 2:63 
-0.8167483823820439 1:279 2:65 
-0.1618154804598191 1:275 2:63 
-0.9299176681306098 1:272 2:61 
-0.6949398872814393 1:267 2:58 
-1.109616555389823 1:265 2:55 
-0.3791585963627312 1:260 2:54 
