svm_type c_svc
kernel_type rbf
gamma 0.25
nr_class 2
total_sv 192
rho -0.461586
label 1 -1
nr_sv 98 94
SV
0.5 1:866 2:852 
0.5 1:841 2:840 
0.5 1:810 2:828 
0.5 1:774 2:813 
0.04298100155305942 1:736 2:797 
0.4185258666254737 1:694 2:779 
0.5 1:655 2:764 
0.5 1:613 2:742 
0.5 1:566 2:712 
0.5 1:524 2:684 
0.5 1:482 2:650 
0.5 1:896 2:870 
0.409603050343454 1:880 2:864 
0.5 1:863 2:859 
0.5 1:844 2:852 
0.5 1:818 2:842 
0.5 1:790 2:831 
0.3338408264291078 1:752 2:811 
0.5 1:718 2:802 
0.5 1:680 2:788 
0.5 1:636 2:768 
0.5 1:591 2:744 
0.4703967994255094 1:899 2:868 
0.2346374061357532 1:897 2:865 
0.3652579681060057 1:896 2:863 
0.3725308219874407 1:899 2:865 
0.117371518571424 1:897 2:863 
0.4517868256506651 1:889 2:856 
0.02061774764744284 1:886 2:854 
0.5 1:886 2:854 
0.4514444469924171 1:889 2:859 
0.4839609379082287 1:892 2:858 
0.4209266269840274 1:881 2:862 
0.5 1:863 2:855 
0.5 1:839 2:843 
0.5 1:811 2:832 
0.5 1:782 2:822 
0.3353914933760584 1:751 2:812 
0.5 1:713 2:797 
0.5 1:673 2:780 
0.5 1:628 2:756 
0.5 1:586 2:733 
0.5 1:543 2:707 
0.5 1:851 2:843 
0.5 1:826 2:832 
0.5 1:800 2:820 
0.5 1:771 2:809 
0.49532535343664 1:736 2:797 
0.4184291581961627 1:693 2:777 
0.5 1:651 2:759 
0.4182856102833993 1:602 2:732 
0.5 1:556 2:703 
0.5 1:509 2:667 
0.5 1:467 2:627 
0.5 1:857 2:840 
0.5 1:831 2:823 
0.5 1:801 2:805 
0.5 1:766 2:785 
0.5 1:723 2:758 
0.5 1:675 2:725 
0.5 1:632 2:692 
0.5 1:588 2:652 
0.5 1:546 2:608 
0.5 1:507 2:557 
0.5 1:476 2:507 
0.5 1:880 2:872 
0.5 1:855 2:856 
0.5 1:830 2:845 
0.4674935653513506 1:805 2:836 
0.5 1:778 2:829 
0.5 1:740 2:810 
0.5 1:700 2:792 
0.5 1:662 2:772 
0.5 1:620 2:746 
0.5 1:582 2:720 
0.5 1:544 2:688 
0.5 1:888 2:870 
0.4981559534594601 1:876 2:867 
0.2651039552207108 1:857 2:859 
0.3349605720640499 1:835 2:849 
0.5 1:807 2:833 
0.5 1:778 2:821 
0.5 1:749 2:807 
0.5 1:716 2:793 
0.5 1:680 2:774 
0.5 1:644 2:752 
0.5 1:609 2:729 
0.484745480079869 1:879 2:868 
0.3257754135464895 1:858 2:859 
0.334667360299219 1:834 2:848 
0.4888843120481129 1:802 2:836 
0.5 1:764 2:817 
0.5 1:727 2:801 
0.5 1:683 2:780 
0.5 1:642 2:758 
0.4189527219942304 1:600 2:731 
0.5 1:559 2:699 
0.5 1:519 2:665 
-0.5 1:333 2:98 
-0.5 1:331 2:95 
-0.5 1:326 2:91 
-0.5 1:323 2:87 
-0.5 1:322 2:83 
-0.5 1:318 2:79 
-0.5 1:315 2:76 
-0.5 1:313 2:73 
-0.5 1:309 2:70 
-0.5 1:307 2:68 
-0.5 1:301 2:65 
-0.5 1:311 2:97 
-0.5 1:310 2:96 
-0.5 1:308 2:94 
-0.5 1:306 2:91 
-0.5 1:304 2:89 
-0.5 1:300 2:86 
-0.5 1:298 2:84 
-0.5 1:295 2:81 
-0.5 1:292 2:78 
-0.5 1:292 2:76 
-0.5 1:289 2:74 
-0.5 1:303 2:93 
-0.5 1:302 2:93 
-0.5 1:301 2:91 
-0.5 1:299 2:90 
-0.5 1:296 2:87 
-0.5 1:294 2:86 
-0.5 1:293 2:83 
-0.5 1:289 2:81 
-0.5 1:288 2:79 
-0.5 1:287 2:77 
-0.3231651778097004 1:284 2:75 
-0.5 1:291 2:82 
-0.5 1:291 2:81 
-0.1497535513620641 1:289 2:80 
-0.5 1:286 2:80 
-0.5 1:283 2:75 
-0.5 1:279 2:74 
-0.5 1:281 2:72 
-0.5 1:276 2:70 
-0.5 1:273 2:69 
-0.5 1:271 2:67 
-0.5 1:290 2:79 
-0.4990388454621493 1:284 2:75 
-0.5 1:280 2:73 
-0.5 1:277 2:70 
-0.5 1:275 2:67 
-0.5 1:270 2:65 
-0.5 1:267 2:63 
-0.5 1:265 2:61 
-0.5 1:262 2:59 
-0.5 1:260 2:58 
-0.5 1:279 2:70 
-0.4889892510636855 1:275 2:68 
-0.5 1:272 2:66 
-0.5 1:269 2:63 
-0.5 1:265 2:60 
-0.3919531314180115 1:261 2:57 
-0.5 1:259 2:56 
-0.5 1:256 2:54 
-0.5 1:254 2:52 
-0.5 1:249 2:51 
-0.5 1:247 2:49 
-0.1887864280423754 1:285 2:77 
-0.1989895420235665 1:284 2:77 
-0.5 1:285 2:78 
-0.202363207178261 1:286 2:78 
-0.5 1:282 2:78 
-0.5 1:281 2:77 
-0.4370136593559475 1:281 2:78 
-0.5 1:279 2:78 
-0.5 1:280 2:70 
-0.5 1:277 2:67 
-0.5 1:275 2:65 
-0.5 1:271 2:63 
-0.5 1:268 2:60 
-0.5 1:264 2:58 
-0.5 1:261 2:56 
-0.5 1:259 2:53 
-0.5 1:256 2:52 
-0.5 1:251 2:50 
-0.5 1:250 2:49 
-0.5 1:272 2:52 
-0.5 1:273 2:53 
-0.5 1:276 2:60 
-0.5 1:278 2:63 
-0.5 1:279 2:65 
-0.5 1:279 2:65 
-0.5 1:275 2:63 
-0.5 1:272 2:61 
-0.5 1:267 2:58 
-0.5 1:265 2:55 
-0.5 1:260 2:54 
