svm_type c_svc
kernel_type rbf
gamma 0.5
nr_class 2
total_sv 192
rho -0.164241
label 1 -1
nr_sv 97 95
SV
0.8355614354842562 1:866 2:852 
0.8344200118077234 1:841 2:840 
0.8351589255186773 1:810 2:828 
0.8354331497059502 1:774 2:813 
0.7723533819780379 1:694 2:779 
0.8357242475696656 1:655 2:764 
0.8354362826787458 1:613 2:742 
0.8356915709216212 1:566 2:712 
0.8356661814173423 1:524 2:684 
0.835666958920017 1:482 2:650 
0.8347637674910023 1:896 2:870 
0.7723926083999703 1:880 2:864 
0.8354839592777525 1:863 2:859 
0.8357756906442498 1:844 2:852 
0.8357565408227834 1:818 2:842 
0.8360609119228999 1:790 2:831 
0.611044303948872 1:752 2:811 
0.8357653945605139 1:718 2:802 
0.8356714265837237 1:680 2:788 
0.8359791527373446 1:636 2:768 
0.8356661814173423 1:591 2:744 
0.8250620254590406 1:899 2:868 
0.6355266653133624 1:897 2:865 
0.5300904377520405 1:896 2:863 
0.7325420861136585 1:899 2:865 
0.4152569742825485 1:897 2:863 
0.7790213169150972 1:889 2:856 
0.834466178773323 1:886 2:854 
0.6076569243773617 1:889 2:859 
0.8264950462044408 1:892 2:858 
0.3525146768973409 1:889 2:858 
0.7722591623309791 1:881 2:862 
0.8352551930641285 1:863 2:855 
0.8344372767953597 1:839 2:843 
0.8353272638102527 1:811 2:832 
0.8357121362354117 1:782 2:822 
0.6106262187187109 1:751 2:812 
0.8359597054636327 1:713 2:797 
0.8358026113806442 1:673 2:780 
0.835679021322793 1:628 2:756 
0.8359429214336838 1:586 2:733 
0.835641275384851 1:543 2:707 
0.835692930962338 1:851 2:843 
0.8357089435568332 1:826 2:832 
0.8356645141622511 1:800 2:820 
0.8356789563203189 1:771 2:809 
0.8356741876178493 1:736 2:797 
0.772731238581553 1:693 2:777 
0.8361872302961079 1:651 2:759 
0.7722405258280916 1:602 2:732 
0.835778457454598 1:556 2:703 
0.8361996541655685 1:509 2:667 
0.8358026113806442 1:467 2:627 
0.8356926445999865 1:857 2:840 
0.8360143211069637 1:831 2:823 
0.8356387238264945 1:801 2:805 
0.8356384997560975 1:766 2:785 
0.8356391409096684 1:723 2:758 
0.8356682506082134 1:675 2:725 
0.8356820696899199 1:632 2:692 
0.8356929311037286 1:588 2:652 
0.8362150127553769 1:546 2:608 
0.8361678568479289 1:507 2:557 
0.8356314029828037 1:476 2:507 
0.835951288946588 1:880 2:872 
0.8349025595014508 1:855 2:856 
0.8358084694392002 1:830 2:845 
0.8257618138478789 1:805 2:836 
0.8357830245289475 1:778 2:829 
0.8356391409096684 1:740 2:810 
0.8360609119228999 1:700 2:792 
0.8357653945721237 1:662 2:772 
0.8357586305925571 1:620 2:746 
0.8356442921945296 1:582 2:720 
0.8357484337393575 1:544 2:688 
0.8356741876178373 1:888 2:870 
0.8301192468121719 1:876 2:867 
0.5181297079934167 1:857 2:859 
0.6104806803430242 1:835 2:849 
0.8343639765958895 1:807 2:833 
0.8355089803356449 1:778 2:821 
0.8356386902667456 1:749 2:807 
0.8352526844708427 1:716 2:793 
0.8358096229156813 1:680 2:774 
0.8356281411111421 1:644 2:752 
0.8361812251454144 1:609 2:729 
0.829750878391572 1:879 2:868 
0.5210501088125866 1:858 2:859 
0.6110818387120349 1:834 2:848 
0.8264556938124415 1:802 2:836 
0.8357089435568332 1:764 2:817 
0.835637213939644 1:727 2:801 
0.8362159959947081 1:683 2:780 
0.8356676354256972 1:642 2:758 
0.7723297713196472 1:600 2:731 
0.8357555159361203 1:559 2:699 
0.8357661229134026 1:519 2:665 
-1 1:333 2:98 
-1 1:331 2:95 
-1 1:326 2:91 
-1 1:323 2:87 
-1 1:322 2:83 
-1 1:318 2:79 
-1 1:315 2:76 
-1 1:313 2:73 
-1 1:309 2:70 
-1 1:307 2:68 
-1 1:301 2:65 
-0.8588232037487497 1:311 2:97 
-0.8302292309477952 1:310 2:96 
-1 1:308 2:94 
-1 1:306 2:91 
-1 1:304 2:89 
-1 1:300 2:86 
-1 1:298 2:84 
-1 1:295 2:81 
-0.9543953198072864 1:292 2:78 
-1 1:292 2:76 
-1 1:289 2:74 
-0.7721896019729622 1:303 2:93 
-0.6139290255777506 1:302 2:93 
-1 1:301 2:91 
-1 1:299 2:90 
-1 1:296 2:87 
-1 1:294 2:86 
-1 1:293 2:83 
-0.8935546142137332 1:289 2:81 
-0.7977610618854523 1:288 2:79 
-0.9514540205016802 1:287 2:77 
-0.6771726833281538 1:291 2:82 
-0.5365641747753466 1:291 2:81 
-1 1:286 2:80 
-0.692046575962066 1:283 2:75 
-0.9778780443482779 1:279 2:74 
-0.9084080905061499 1:281 2:72 
-0.718810439384076 1:276 2:70 
-1 1:273 2:69 
-0.7857496228087318 1:271 2:67 
-0.8527166215158494 1:290 2:79 
-0.6269184450567534 1:284 2:75 
-0.4573512161987474 1:280 2:73 
-0.6120136967989882 1:277 2:70 
-0.5000926059239261 1:275 2:67 
-0.8934573720611174 1:270 2:65 
-1 1:267 2:63 
-0.7856412941025098 1:265 2:61 
-0.9831732961838144 1:262 2:59 
-0.8694267346581808 1:260 2:58 
-0.6309485166714562 1:279 2:70 
-0.6152561108853584 1:275 2:68 
-0.7779868226248757 1:272 2:66 
-0.8264570069389702 1:269 2:63 
-0.5676482737434283 1:265 2:60 
-0.2051385969372216 1:261 2:57 
-0.901585363399383 1:259 2:56 
-1 1:256 2:54 
-1 1:254 2:52 
-1 1:249 2:51 
-1 1:247 2:49 
-0.02065987427601848 1:284 2:76 
-0.2137251609922066 1:285 2:77 
-0.5672615855505504 1:284 2:77 
-0.5529113185004791 1:285 2:78 
-0.1512616269762233 1:286 2:78 
-0.1867790375696702 1:282 2:77 
-0.1553346520716434 1:281 2:78 
-0.6338656380501937 1:282 2:78 
-0.5823184539798012 1:281 2:77 
-0.06153159277679411 1:281 2:78 
-1 1:279 2:78 
-0.6945870908142667 1:280 2:70 
-0.9964950000197419 1:277 2:67 
-0.928676630312119 1:275 2:65 
-0.8906834610906831 1:271 2:63 
-1 1:268 2:60 
-1 1:264 2:58 
-0.7794908387225967 1:261 2:56 
-0.8833246817816274 1:259 2:53 
-0.8876756942565662 1:256 2:52 
-0.79411194415467 1:251 2:50 
-0.7790104662204516 1:250 2:49 
-0.851024074107129 1:272 2:52 
-0.8512711832328742 1:273 2:53 
-1 1:276 2:60 
-1 1:278 2:63 
-0.06306499059986342 1:279 2:65 
-1 1:279 2:65 
-1 1:275 2:63 
-1 1:272 2:61 
-1 1:267 2:58 
-1 1:265 2:55 
-0.6989754494432256 1:260 2:54 
