svm_type c_svc
kernel_type rbf
gamma 0.5
nr_class 2
total_sv 190
rho -0.139271
label 1 -1
nr_sv 97 93
SV
0.8605597576449018 1:866 2:852 
0.859633782613606 1:841 2:840 
0.8605570368869226 1:810 2:828 
0.8606830790875581 1:774 2:813 
0.7954265202189041 1:694 2:779 
0.8611722319439703 1:655 2:764 
0.8612342980420004 1:613 2:742 
0.8607689129590306 1:566 2:712 
0.8611929307716271 1:524 2:684 
0.8608890214760316 1:482 2:650 
0.8592981452962604 1:896 2:870 
0.7950357200452487 1:880 2:864 
0.8604819203118951 1:863 2:859 
0.8606386760218543 1:844 2:852 
0.860515126666749 1:818 2:842 
0.8606361554890977 1:790 2:831 
0.6291417494098807 1:752 2:811 
0.8605432828626043 1:718 2:802 
0.860575657614621 1:680 2:788 
0.8608213317092148 1:636 2:768 
0.8604581150125218 1:591 2:744 
0.8499173325141572 1:899 2:868 
0.6546325812341424 1:897 2:865 
0.5469354333161612 1:896 2:863 
0.7539783139828742 1:899 2:865 
0.4266308919321204 1:897 2:863 
0.801667846041755 1:889 2:856 
0.8594613049165833 1:886 2:854 
0.6259994092314544 1:889 2:859 
0.8511481699130641 1:892 2:858 
0.3629266534197681 1:889 2:858 
0.795275692348232 1:881 2:862 
0.8607542826117894 1:863 2:855 
0.8594755510934818 1:839 2:843 
0.860312653777924 1:811 2:832 
0.8605975614317306 1:782 2:822 
0.6291461343995518 1:751 2:812 
0.8606211013615082 1:713 2:797 
0.8612599187515012 1:673 2:780 
0.8606595621036472 1:628 2:756 
0.860824199554622 1:586 2:733 
0.860700834316122 1:543 2:707 
0.861243105251623 1:851 2:843 
0.8606632683382158 1:826 2:832 
0.8606398640749722 1:800 2:820 
0.8606044493934705 1:771 2:809 
0.8607184745501129 1:736 2:797 
0.7954772444515196 1:693 2:777 
0.8603169054322611 1:651 2:759 
0.7958715128038909 1:602 2:732 
0.8606912192077009 1:556 2:703 
0.8606712654942246 1:509 2:667 
0.8608556989310671 1:467 2:627 
0.8611528956158789 1:857 2:840 
0.8611540935341473 1:831 2:823 
0.8605437000437716 1:801 2:805 
0.8606699437307058 1:766 2:785 
0.8605493290812303 1:723 2:758 
0.8606662059445387 1:675 2:725 
0.8605826579387855 1:632 2:692 
0.8606214337447996 1:588 2:652 
0.8606627877064691 1:546 2:608 
0.8611515213957508 1:507 2:557 
0.8607663061774251 1:476 2:507 
0.8608291709972287 1:880 2:872 
0.8597446545266794 1:855 2:856 
0.8607227021530797 1:830 2:845 
0.8498317749483961 1:805 2:836 
0.8605739836605688 1:778 2:829 
0.8607705770742173 1:740 2:810 
0.8606676613768672 1:700 2:792 
0.8605747997050353 1:662 2:772 
0.8607492088144719 1:620 2:746 
0.8607972504174176 1:582 2:720 
0.8602718447808152 1:544 2:688 
0.8607654840951555 1:888 2:870 
0.8548137518362303 1:876 2:867 
0.5341444853606904 1:857 2:859 
0.6290687888727677 1:835 2:849 
0.8596971897403664 1:807 2:833 
0.860654906226017 1:778 2:821 
0.8607465469129943 1:749 2:807 
0.8606629987081776 1:716 2:793 
0.8611528956162177 1:680 2:774 
0.86115909566962 1:644 2:752 
0.8607990323169954 1:609 2:729 
0.8544091619265075 1:879 2:868 
0.5366837827878882 1:858 2:859 
0.6293557270686793 1:834 2:848 
0.8511205104170407 1:802 2:836 
0.8605876453536729 1:764 2:817 
0.8606360477049766 1:727 2:801 
0.8606243114894805 1:683 2:780 
0.8607008325411407 1:642 2:758 
0.7950872257124744 1:600 2:731 
0.8606263776274481 1:559 2:699 
0.8606386760218543 1:519 2:665 
-1.137668384827003 1:333 2:98 
-1.13749999808181 1:331 2:95 
-1.139446416570057 1:326 2:91 
-1.139001980247977 1:323 2:87 
-1.139242722528288 1:322 2:83 
-1.139284701422441 1:318 2:79 
-1.137435321952115 1:315 2:76 
-1.137456189364281 1:313 2:73 
-1.118333663443744 1:309 2:70 
-1.118746426683976 1:307 2:68 
-1.138827766790895 1:301 2:65 
-0.8415819499237511 1:311 2:97 
-0.808809770072641 1:310 2:96 
-1.122635433273141 1:308 2:94 
-1.115458233960421 1:306 2:91 
-1.11711326671571 1:304 2:89 
-1.11838151384716 1:300 2:86 
-1.116589081831741 1:298 2:84 
-1.119723856451541 1:295 2:81 
-0.929799530441401 1:292 2:78 
-1.010490347240969 1:292 2:76 
-1.136248885286426 1:289 2:74 
-0.7550050322015803 1:303 2:93 
-0.6000219794401287 1:302 2:93 
-0.9878020530634478 1:301 2:91 
-1.057724387215323 1:299 2:90 
-1.050879968222336 1:296 2:87 
-1.046002299267184 1:294 2:86 
-1.048252355366855 1:293 2:83 
-0.8748730826982144 1:289 2:81 
-0.7793234468638388 1:288 2:79 
-0.9315950856261693 1:287 2:77 
-0.655179987790683 1:291 2:82 
-0.5282901947508931 1:291 2:81 
-0.9967872055203525 1:286 2:80 
-0.6775072690036636 1:283 2:75 
-0.9564392472754271 1:279 2:74 
-0.8886640871095691 1:281 2:72 
-0.7034417103311449 1:276 2:70 
-1.057313700613519 1:273 2:69 
-0.7670356703398638 1:271 2:67 
-0.8347352563339129 1:290 2:79 
-0.6131630407598876 1:284 2:75 
-0.4475300417324055 1:280 2:73 
-0.5991236952816711 1:277 2:70 
-0.4939405114144879 1:275 2:67 
-0.8751822135662324 1:270 2:65 
-1.006786153286285 1:267 2:63 
-0.7688924377229258 1:265 2:61 
-0.9617089960237378 1:262 2:59 
-0.8505184799358741 1:260 2:58 
-0.6171989957461262 1:279 2:70 
-0.5927910645538987 1:275 2:68 
-0.7619685342905695 1:272 2:66 
-0.8054715002188927 1:269 2:63 
-0.5534675002696543 1:265 2:60 
-0.2014878959680069 1:261 2:57 
-0.8819621278704839 1:259 2:56 
-0.9967011832842809 1:256 2:54 
-1.003089207961727 1:254 2:52 
-0.9930431386114236 1:249 2:51 
-1.112448556043529 1:247 2:49 
-0.02044726268436131 1:284 2:76 
-0.2113562362084486 1:285 2:77 
-0.5534021614791361 1:284 2:77 
-0.5405774604041318 1:285 2:78 
-0.1450131995788009 1:286 2:78 
-0.1831879966499612 1:282 2:77 
-0.6291040179846866 1:282 2:78 
-0.5700847154964881 1:281 2:77 
-0.1958598436043364 1:281 2:78 
-1.057678900940342 1:279 2:78 
-0.6799008010536405 1:280 2:70 
-0.9755017128250002 1:277 2:67 
-0.9061279930454597 1:275 2:65 
-0.8646438249993718 1:271 2:63 
-1.030866933331365 1:268 2:60 
-0.988257590408151 1:264 2:58 
-0.7618619419371977 1:261 2:56 
-0.8640966304803129 1:259 2:53 
-0.8628530092107247 1:256 2:52 
-0.7761612698206268 1:251 2:50 
-0.7599345996651811 1:250 2:49 
-0.8331802475298549 1:272 2:52 
-0.8331802475298431 1:273 2:53 
-1.130807238075112 1:276 2:60 
-1.040088730872301 1:278 2:63 
-1.035807351575277 1:279 2:65 
-0.9948007497616163 1:275 2:63 
-1.065107723080729 1:272 2:61 
-1.030721780213415 1:267 2:58 
-1.130774682884434 1:265 2:55 
-0.6846202777764259 1:260 2:54 
