svm_type c_svc
kernel_type rbf
gamma 1
nr_class 2
total_sv 194
rho -0.0985603
label 1 -1
nr_sv 97 97
SV
0.9009931233795951 1:866 2:852 
0.9014410585893951 1:841 2:840 
0.9010615353984028 1:810 2:828 
0.9014606550521922 1:774 2:813 
0.8954425402659775 1:694 2:779 
0.9014084658987973 1:655 2:764 
0.9016387144726257 1:613 2:742 
0.9018428835153297 1:566 2:712 
0.9015430271129802 1:524 2:684 
0.9014430987482581 1:482 2:650 
0.9010331850301322 1:896 2:870 
0.8954523443738617 1:880 2:864 
0.9015017496108282 1:863 2:859 
0.9012126492158232 1:844 2:852 
0.9014775065050474 1:818 2:842 
0.901574377056706 1:790 2:831 
0.7940499321840627 1:752 2:811 
0.9013511033850314 1:718 2:802 
0.9011955435216111 1:680 2:788 
0.9010615727628779 1:636 2:768 
0.9015004032448204 1:591 2:744 
0.90143495009358 1:899 2:868 
0.8694291798686805 1:897 2:865 
0.6594436925212231 1:896 2:863 
0.8856923582442717 1:899 2:865 
0.642297002356452 1:897 2:863 
0.8893202324596549 1:889 2:856 
0.9012106390502287 1:886 2:854 
0.6654427061915176 1:889 2:859 
0.9008817324700439 1:892 2:858 
0.6402638589533859 1:889 2:858 
0.8954204744295136 1:881 2:862 
0.9013691296477719 1:863 2:855 
0.9013852443289221 1:839 2:843 
0.9015579355532238 1:811 2:832 
0.9014856400734528 1:782 2:822 
0.7935395151728402 1:751 2:812 
0.9017915912772767 1:713 2:797 
0.9015685085407409 1:673 2:780 
0.9014606550647131 1:628 2:756 
0.9015002196026751 1:586 2:733 
0.9017627479451465 1:543 2:707 
0.9015430271129802 1:851 2:843 
0.9014432050260496 1:826 2:832 
0.9014775065050474 1:800 2:820 
0.9015685083403205 1:771 2:809 
0.9016230983400126 1:736 2:797 
0.8954490827980934 1:693 2:777 
0.9009931371281532 1:651 2:759 
0.8953403797282292 1:602 2:732 
0.9014940938410341 1:556 2:703 
0.9010262254287223 1:509 2:667 
0.9010352225745301 1:467 2:627 
0.9017217246336204 1:857 2:840 
0.9015727028145704 1:831 2:823 
0.9017627479451465 1:801 2:805 
0.9015199143840198 1:766 2:785 
0.9010106484729212 1:723 2:758 
0.9015018510557212 1:675 2:725 
0.9012198795743979 1:632 2:692 
0.9014754333379246 1:588 2:652 
0.9010071427135103 1:546 2:608 
0.9014432050260496 1:507 2:557 
0.9015482497020425 1:476 2:507 
0.9014437885358996 1:880 2:872 
0.9015283638949131 1:855 2:856 
0.9015743770456768 1:830 2:845 
0.901620072376744 1:805 2:836 
0.9014825271744538 1:778 2:829 
0.9015685083528326 1:740 2:810 
0.9016143911813849 1:700 2:792 
0.901206025604359 1:662 2:772 
0.9016230983400126 1:620 2:746 
0.9014588109868997 1:582 2:720 
0.9015002196026751 1:544 2:688 
0.9017504459753225 1:888 2:870 
0.9014313788927696 1:876 2:867 
0.6589598653250923 1:857 2:859 
0.7935882738483963 1:835 2:849 
0.9010397769642983 1:807 2:833 
0.9017504088438715 1:778 2:821 
0.9016230983826543 1:749 2:807 
0.9016035523144799 1:716 2:793 
0.9013692448862451 1:680 2:774 
0.9015727028145704 1:644 2:752 
0.9015004032448204 1:609 2:729 
0.9014882891055858 1:879 2:868 
0.6595189535315386 1:858 2:859 
0.7941575177171354 1:834 2:848 
0.9008748067974559 1:802 2:836 
0.9016143911813849 1:764 2:817 
0.9015743915961921 1:727 2:801 
0.9014940938535553 1:683 2:780 
0.9014624842850828 1:642 2:758 
0.8954426773138529 1:600 2:731 
0.901585371637315 1:559 2:699 
0.9015284036690143 1:519 2:665 
-1 1:333 2:98 
-1 1:331 2:95 
-1 1:326 2:91 
-1 1:323 2:87 
-1 1:322 2:83 
-1 1:318 2:79 
-1 1:315 2:76 
-1 1:313 2:73 
-1 1:309 2:70 
-1 1:307 2:68 
-1 1:301 2:65 
-0.9676045365177656 1:311 2:97 
-0.9674981706362552 1:310 2:96 
-1 1:308 2:94 
-1 1:306 2:91 
-1 1:304 2:89 
-1 1:300 2:86 
-1 1:298 2:84 
-1 1:295 2:81 
-1 1:292 2:78 
-1 1:292 2:76 
-1 1:289 2:74 
-0.8058661040600826 1:303 2:93 
-0.7957411334641324 1:302 2:93 
-1 1:301 2:91 
-1 1:299 2:90 
-1 1:296 2:87 
-1 1:294 2:86 
-1 1:293 2:83 
-0.88165833470865 1:289 2:81 
-0.9886821537519791 1:288 2:79 
-0.9898775581794823 1:287 2:77 
-0.799595946505373 1:291 2:82 
-0.7778952788769609 1:291 2:81 
-0.4999644178666682 1:289 2:80 
-1 1:286 2:80 
-0.7994706895408377 1:283 2:75 
-0.9855060256450441 1:279 2:74 
-0.979991014161395 1:281 2:72 
-0.8027469939643291 1:276 2:70 
-1 1:273 2:69 
-0.9614815135014319 1:271 2:67 
-0.994759353576613 1:290 2:79 
-0.01093769681776357 1:285 2:77 
-0.6231797011873561 1:284 2:75 
-0.8319279656784045 1:280 2:73 
-0.7886574022678633 1:277 2:70 
-0.768148980401292 1:275 2:67 
-1 1:270 2:65 
-1 1:267 2:63 
-0.8057968280841458 1:265 2:61 
-1 1:262 2:59 
-0.9919651923206808 1:260 2:58 
-0.7885234488248697 1:279 2:70 
-0.7969475619352449 1:275 2:68 
-0.9619737726531166 1:272 2:66 
-1 1:269 2:63 
-0.7949492864802712 1:265 2:60 
-0.6458596195844853 1:261 2:57 
-1 1:259 2:56 
-1 1:256 2:54 
-1 1:254 2:52 
-1 1:249 2:51 
-1 1:247 2:49 
-0.4520422654712808 1:284 2:76 
-0.4657509326173732 1:285 2:77 
-0.6426769846545086 1:284 2:77 
-0.5768531454932611 1:285 2:78 
-0.6588887194312731 1:286 2:78 
-0.5618379514140578 1:282 2:77 
-0.0506275954083763 1:281 2:78 
-0.5989905144020787 1:282 2:78 
-0.5964045364971657 1:281 2:77 
-0.5133622797098228 1:281 2:78 
-1 1:279 2:78 
-0.8016671535596606 1:280 2:70 
-1 1:277 2:67 
-1 1:275 2:65 
-1 1:271 2:63 
-1 1:268 2:60 
-1 1:264 2:58 
-0.8293145748184042 1:261 2:56 
-0.9689193537976837 1:259 2:53 
-1 1:256 2:52 
-0.9618218334265394 1:251 2:50 
-0.9619439891860776 1:250 2:49 
-0.9678086203407873 1:272 2:52 
-0.9678581417314576 1:273 2:53 
-1 1:276 2:60 
-1 1:278 2:63 
-0.09139807050252952 1:279 2:65 
-1 1:279 2:65 
-1 1:275 2:63 
-1 1:272 2:61 
-1 1:267 2:58 
-1 1:265 2:55 
-0.9548978412744208 1:260 2:54 
