svm_type c_svc
kernel_type rbf
gamma 2
nr_class 2
total_sv 194
rho -0.0539907
label 1 -1
nr_sv 97 97
SV
0.9456904008667659 1:866 2:852 
0.9459853488815536 1:841 2:840 
0.946014247270154 1:810 2:828 
0.9459349621308932 1:774 2:813 
0.9459297478748473 1:694 2:779 
0.9457972216424294 1:655 2:764 
0.9459246149161434 1:613 2:742 
0.9458541092983603 1:566 2:712 
0.9459530476102583 1:524 2:684 
0.9459727847158153 1:482 2:650 
0.9460036742541067 1:896 2:870 
0.9460137080582189 1:880 2:864 
0.9459885138223428 1:863 2:859 
0.9462269568927533 1:844 2:852 
0.946117374855691 1:818 2:842 
0.9461121685707592 1:790 2:831 
0.9289363929054625 1:752 2:811 
0.9456739336840024 1:718 2:802 
0.9463621011833827 1:680 2:788 
0.9460134746404372 1:636 2:768 
0.94657060278111 1:591 2:744 
0.9459654157334457 1:899 2:868 
0.9458379421849186 1:897 2:865 
0.8332928900030553 1:896 2:863 
0.9456501505466794 1:899 2:865 
0.8328925998727181 1:897 2:863 
0.9456540701284341 1:889 2:856 
0.9459391242536986 1:886 2:854 
0.8332415093752759 1:889 2:859 
0.9456903863273778 1:892 2:858 
0.8328500692909474 1:889 2:858 
0.9459212342704082 1:881 2:862 
0.9457509253830552 1:863 2:855 
0.9459821581013458 1:839 2:843 
0.9463847357614462 1:811 2:832 
0.9458631189583838 1:782 2:822 
0.9289667794283875 1:751 2:812 
0.9459997706746366 1:713 2:797 
0.9459460335427197 1:673 2:780 
0.9459654301313262 1:628 2:756 
0.9460142472701557 1:586 2:733 
0.9465497093042249 1:543 2:707 
0.9459308464489933 1:851 2:843 
0.9463652961388882 1:826 2:832 
0.9463621011833827 1:800 2:820 
0.9459809543880364 1:771 2:809 
0.9459809500652501 1:736 2:797 
0.9463038669260835 1:693 2:777 
0.946346784768284 1:651 2:759 
0.9457135187867253 1:602 2:732 
0.9459808433769966 1:556 2:703 
0.9459641560245439 1:509 2:667 
0.9459349621308932 1:467 2:627 
0.9459696542076355 1:857 2:840 
0.9459162958273128 1:831 2:823 
0.9463652961388882 1:801 2:805 
0.9459308464489933 1:766 2:785 
0.9456739336840024 1:723 2:758 
0.9457812547709442 1:675 2:725 
0.9458526769878128 1:632 2:692 
0.9461121685707592 1:588 2:652 
0.9462269568927533 1:546 2:608 
0.945972710005081 1:507 2:557 
0.9459246149161434 1:476 2:507 
0.9457558347624304 1:880 2:872 
0.9459727847115584 1:855 2:856 
0.9460134746404372 1:830 2:845 
0.9460719579041617 1:805 2:836 
0.9460287447852986 1:778 2:829 
0.9465311136977548 1:740 2:810 
0.9460568241573512 1:700 2:792 
0.9462264117587842 1:662 2:772 
0.9458526769878128 1:620 2:746 
0.9459768941629046 1:582 2:720 
0.9459997706746366 1:544 2:688 
0.9462264117587842 1:888 2:870 
0.9457558328301096 1:876 2:867 
0.8331297724595756 1:857 2:859 
0.9287328986507304 1:835 2:849 
0.9459675518860436 1:807 2:833 
0.9459654301313245 1:778 2:821 
0.9456739336827219 1:749 2:807 
0.9463652961388882 1:716 2:793 
0.9459334728981647 1:680 2:774 
0.9459538285225609 1:644 2:752 
0.9457736718179768 1:609 2:729 
0.9463620992340314 1:879 2:868 
0.8331613356378187 1:858 2:859 
0.9295602659598797 1:834 2:848 
0.9465496948955687 1:802 2:836 
0.9458330523137255 1:764 2:817 
0.9458858963506003 1:727 2:801 
0.9459632914243744 1:683 2:780 
0.9463652961388882 1:642 2:758 
0.9459390453819099 1:600 2:731 
0.9463621011833827 1:559 2:699 
0.9459809500652501 1:519 2:665 
-1 1:333 2:98 
-1 1:331 2:95 
-1 1:326 2:91 
-1 1:323 2:87 
-1 1:322 2:83 
-1 1:318 2:79 
-1 1:315 2:76 
-1 1:313 2:73 
-1 1:309 2:70 
-1 1:307 2:68 
-1 1:301 2:65 
-1 1:311 2:97 
-1 1:310 2:96 
-1 1:308 2:94 
-1 1:306 2:91 
-1 1:304 2:89 
-1 1:300 2:86 
-1 1:298 2:84 
-1 1:295 2:81 
-1 1:292 2:78 
-1 1:292 2:76 
-1 1:289 2:74 
-0.9281515635305285 1:303 2:93 
-0.9284575306560993 1:302 2:93 
-1 1:301 2:91 
-1 1:299 2:90 
-1 1:296 2:87 
-1 1:294 2:86 
-1 1:293 2:83 
-0.9329261645488116 1:289 2:81 
-1 1:288 2:79 
-1 1:287 2:77 
-0.9285115374229923 1:291 2:82 
-0.9279767766873039 1:291 2:81 
-0.891423599906599 1:289 2:80 
-1 1:286 2:80 
-0.9283195766590999 1:283 2:75 
-1 1:279 2:74 
-1 1:281 2:72 
-0.9279470505740414 1:276 2:70 
-1 1:273 2:69 
-1 1:271 2:67 
-1 1:290 2:79 
-0.00360726371083402 1:285 2:77 
-0.819942990214412 1:284 2:75 
-1 1:280 2:73 
-0.9282714056979011 1:277 2:70 
-0.9279921036770569 1:275 2:67 
-1 1:270 2:65 
-1 1:267 2:63 
-0.9285489416436071 1:265 2:61 
-1 1:262 2:59 
-1 1:260 2:58 
-0.9283683969242816 1:279 2:70 
-0.9279614878977064 1:275 2:68 
-1 1:272 2:66 
-1 1:269 2:63 
-0.9284527327331595 1:265 2:60 
-0.9097335655112392 1:261 2:57 
-1 1:259 2:56 
-1 1:256 2:54 
-1 1:254 2:52 
-1 1:249 2:51 
-1 1:247 2:49 
-0.8001203608804203 1:284 2:76 
-0.7984371775931171 1:285 2:77 
-0.8217468371916702 1:284 2:77 
-0.8069446697665161 1:285 2:78 
-0.9114811940417389 1:286 2:78 
-0.8172141104262254 1:282 2:77 
-0.002848799038414434 1:281 2:78 
-0.8176446771116688 1:282 2:78 
-0.8180313865732666 1:281 2:77 
-0.8145302096027497 1:281 2:78 
-1 1:279 2:78 
-0.9283314142699534 1:280 2:70 
-1 1:277 2:67 
-1 1:275 2:65 
-1 1:271 2:63 
-1 1:268 2:60 
-1 1:264 2:58 
-0.9299593979626711 1:261 2:56 
-1 1:259 2:53 
-1 1:256 2:52 
-1 1:251 2:50 
-1 1:250 2:49 
-1 1:272 2:52 
-1 1:273 2:53 
-1 1:276 2:60 
-1 1:278 2:63 
-0.05406907123788622 1:279 2:65 
-1 1:279 2:65 
-1 1:275 2:63 
-1 1:272 2:61 
-1 1:267 2:58 
-1 1:265 2:55 
-1 1:260 2:54 
