svm_type c_svc
kernel_type rbf
gamma 4
nr_class 2
total_sv 194
rho -0.0301403
label 1 -1
nr_sv 97 97
SV
0.9697527573967611 1:866 2:852 
0.9697575183149065 1:841 2:840 
0.9697472346063342 1:810 2:828 
0.9703463947590149 1:774 2:813 
0.9703463927605135 1:694 2:779 
0.9700658658017431 1:655 2:764 
0.9700941425446774 1:613 2:742 
0.9700941678132501 1:566 2:712 
0.9700736017469233 1:524 2:684 
0.9700660247116801 1:482 2:650 
0.9700658362246515 1:896 2:870 
0.9699577999492881 1:880 2:864 
0.9696874169854974 1:863 2:859 
0.9696035237109401 1:844 2:852 
0.9695196840584742 1:818 2:842 
0.9696034658974837 1:790 2:831 
0.96918614160834 1:752 2:811 
0.9696034919010728 1:718 2:802 
0.9696034648669069 1:680 2:788 
0.9696034653821952 1:636 2:768 
0.9696034658974805 1:591 2:744 
0.9696034653131376 1:899 2:868 
0.9697470162699422 1:897 2:865 
0.9525466699661813 1:896 2:863 
0.9699686745197463 1:899 2:865 
0.9521247310490292 1:897 2:863 
0.9699044207872839 1:889 2:856 
0.9696034647978556 1:886 2:854 
0.9521267460670649 1:889 2:859 
0.9699687836504094 1:892 2:858 
0.9527123953689677 1:889 2:858 
0.9701298254808701 1:881 2:862 
0.9696034913857812 1:863 2:855 
0.9696033053129296 1:839 2:843 
0.9696033053129265 1:811 2:832 
0.9696033053129264 1:782 2:822 
0.9698142271398541 1:751 2:812 
0.9696033053129233 1:713 2:797 
0.9696033053129233 1:673 2:780 
0.9696033053129233 1:628 2:756 
0.9698501081811539 1:586 2:733 
0.9698971554787997 1:543 2:707 
0.9699045280009411 1:851 2:843 
0.969904528047584 1:826 2:832 
0.9700971314460101 1:800 2:820 
0.9700875000516935 1:771 2:809 
0.9700876309822889 1:736 2:797 
0.9696033032713398 1:693 2:777 
0.970131107283194 1:651 2:759 
0.9698971534792105 1:602 2:732 
0.9700876309822889 1:556 2:703 
0.9700971314460101 1:509 2:667 
0.9701513146739738 1:467 2:627 
0.9698971559932547 1:857 2:840 
0.9703572767179546 1:831 2:823 
0.9698501081811539 1:801 2:805 
0.969904528047584 1:766 2:785 
0.9697575183149065 1:723 2:758 
0.9699147112540932 1:675 2:725 
0.9700660247116801 1:632 2:692 
0.9700658362246515 1:588 2:652 
0.9700658658017431 1:546 2:608 
0.9696874169854974 1:507 2:557 
0.9696034648669069 1:476 2:507 
0.9696034658974837 1:880 2:872 
0.9696034919010728 1:855 2:856 
0.9695196840584742 1:830 2:845 
0.9699147112540931 1:805 2:836 
0.9696034653131378 1:778 2:829 
0.9696033053129265 1:740 2:810 
0.9696033053129296 1:700 2:792 
0.9696033053129233 1:662 2:772 
0.9699578019488748 1:620 2:746 
0.969985445152078 1:582 2:720 
0.9701232691955262 1:544 2:688 
0.9701230159329183 1:888 2:870 
0.9701232691955262 1:876 2:867 
0.9520641292639161 1:857 2:859 
0.9696340249275067 1:835 2:849 
0.9701367124159486 1:807 2:833 
0.9700941425446774 1:778 2:821 
0.9700941678132501 1:749 2:807 
0.9700736017469233 1:716 2:793 
0.9696034653821952 1:680 2:774 
0.9696035237109401 1:644 2:752 
0.9696034647978556 1:609 2:729 
0.9696034913857812 1:879 2:868 
0.9525782804078944 1:858 2:859 
0.9698114364414258 1:834 2:848 
0.9696034913857746 1:802 2:836 
0.9696033053129233 1:764 2:817 
0.9696033053129233 1:727 2:801 
0.9698971559932547 1:683 2:780 
0.9700884333279998 1:642 2:758 
0.9701311052829446 1:600 2:731 
0.9702577461888143 1:559 2:699 
0.9696034658974805 1:519 2:665 
-1 1:333 2:98 
-1 1:331 2:95 
-1 1:326 2:91 
-1 1:323 2:87 
-1 1:322 2:83 
-1 1:318 2:79 
-1 1:315 2:76 
-1 1:313 2:73 
-1 1:309 2:70 
-1 1:307 2:68 
-1 1:301 2:65 
-1 1:311 2:97 
-1 1:310 2:96 
-1 1:308 2:94 
-1 1:306 2:91 
-1 1:304 2:89 
-1 1:300 2:86 
-1 1:298 2:84 
-1 1:295 2:81 
-1 1:292 2:78 
-1 1:292 2:76 
-1 1:289 2:74 
-1 1:303 2:93 
-1 1:302 2:93 
-1 1:301 2:91 
-1 1:299 2:90 
-1 1:296 2:87 
-1 1:294 2:86 
-1 1:293 2:83 
-1 1:289 2:81 
-1 1:288 2:79 
-1 1:287 2:77 
-1 1:291 2:82 
-1 1:291 2:81 
-1 1:289 2:80 
-1 1:286 2:80 
-1 1:283 2:75 
-1 1:279 2:74 
-1 1:281 2:72 
-1 1:276 2:70 
-1 1:273 2:69 
-1 1:271 2:67 
-1 1:290 2:79 
-0.01168313837539078 1:285 2:77 
-0.993349392838677 1:284 2:75 
-1 1:280 2:73 
-1 1:277 2:70 
-1 1:275 2:67 
-1 1:270 2:65 
-1 1:267 2:63 
-1 1:265 2:61 
-1 1:262 2:59 
-1 1:260 2:58 
-1 1:279 2:70 
-1 1:275 2:68 
-1 1:272 2:66 
-1 1:269 2:63 
-1 1:265 2:60 
-1 1:261 2:57 
-1 1:259 2:56 
-1 1:256 2:54 
-1 1:254 2:52 
-1 1:249 2:51 
-1 1:247 2:49 
-0.9934406804589048 1:284 2:76 
-0.981601862814877 1:285 2:77 
-0.9931909927741437 1:284 2:77 
-0.9930357600160644 1:285 2:78 
-1 1:286 2:78 
-0.9931879577157207 1:282 2:77 
-0.002398887289479385 1:281 2:78 
-0.9937886733907786 1:282 2:78 
-0.9930559483251884 1:281 2:77 
-0.9907479158118354 1:281 2:78 
-1 1:279 2:78 
-1 1:280 2:70 
-1 1:277 2:67 
-1 1:275 2:65 
-1 1:271 2:63 
-1 1:268 2:60 
-1 1:264 2:58 
-1 1:261 2:56 
-1 1:259 2:53 
-1 1:256 2:52 
-1 1:251 2:50 
-1 1:250 2:49 
-1 1:272 2:52 
-1 1:273 2:53 
-1 1:276 2:60 
-1 1:278 2:63 
-0.03039650655305881 1:279 2:65 
-1 1:279 2:65 
-1 1:275 2:63 
-1 1:272 2:61 
-1 1:267 2:58 
-1 1:265 2:55 
-1 1:260 2:54 
