svm_type c_svc
kernel_type rbf
gamma 4
nr_class 2
total_sv 198
rho -0.0648314
label 1 -1
nr_sv 99 99
SV
0.125 1:866 2:852 
0.125 1:841 2:840 
0.125 1:810 2:828 
0.125 1:774 2:813 
0.125 1:736 2:797 
0.125 1:694 2:779 
0.125 1:655 2:764 
0.125 1:613 2:742 
0.125 1:566 2:712 
0.125 1:524 2:684 
0.125 1:482 2:650 
0.125 1:896 2:870 
0.125 1:880 2:864 
0.125 1:863 2:859 
0.125 1:844 2:852 
0.125 1:818 2:842 
0.125 1:790 2:831 
0.125 1:752 2:811 
0.125 1:718 2:802 
0.125 1:680 2:788 
0.125 1:636 2:768 
0.125 1:591 2:744 
0.125 1:899 2:868 
0.125 1:897 2:865 
0.125 1:896 2:863 
0.125 1:899 2:865 
0.125 1:897 2:863 
0.125 1:889 2:856 
0.125 1:886 2:854 
0.125 1:886 2:854 
0.125 1:889 2:859 
0.125 1:892 2:858 
0.125 1:889 2:858 
0.125 1:881 2:862 
0.125 1:863 2:855 
0.125 1:839 2:843 
0.125 1:811 2:832 
0.125 1:782 2:822 
0.125 1:751 2:812 
0.125 1:713 2:797 
0.125 1:673 2:780 
0.125 1:628 2:756 
0.125 1:586 2:733 
0.125 1:543 2:707 
0.125 1:851 2:843 
0.125 1:826 2:832 
0.125 1:800 2:820 
0.125 1:771 2:809 
0.125 1:736 2:797 
0.125 1:693 2:777 
0.125 1:651 2:759 
0.125 1:602 2:732 
0.125 1:556 2:703 
0.125 1:509 2:667 
0.125 1:467 2:627 
0.125 1:857 2:840 
0.125 1:831 2:823 
0.125 1:801 2:805 
0.125 1:766 2:785 
0.125 1:723 2:758 
0.125 1:675 2:725 
0.125 1:632 2:692 
0.125 1:588 2:652 
0.125 1:546 2:608 
0.125 1:507 2:557 
0.125 1:476 2:507 
0.125 1:880 2:872 
0.125 1:855 2:856 
0.125 1:830 2:845 
0.125 1:805 2:836 
0.125 1:778 2:829 
0.125 1:740 2:810 
0.125 1:700 2:792 
0.125 1:662 2:772 
0.125 1:620 2:746 
0.125 1:582 2:720 
0.125 1:544 2:688 
0.125 1:888 2:870 
0.125 1:876 2:867 
0.125 1:857 2:859 
0.125 1:835 2:849 
0.125 1:807 2:833 
0.125 1:778 2:821 
0.125 1:749 2:807 
0.125 1:716 2:793 
0.125 1:680 2:774 
0.125 1:644 2:752 
0.125 1:609 2:729 
0.125 1:879 2:868 
0.125 1:858 2:859 
0.125 1:834 2:848 
0.125 1:802 2:836 
0.125 1:764 2:817 
0.125 1:727 2:801 
0.125 1:683 2:780 
0.125 1:642 2:758 
0.125 1:600 2:731 
0.125 1:559 2:699 
0.125 1:519 2:665 
-0.125 1:333 2:98 
-0.125 1:331 2:95 
-0.125 1:326 2:91 
-0.125 1:323 2:87 
-0.125 1:322 2:83 
-0.125 1:318 2:79 
-0.125 1:315 2:76 
-0.125 1:313 2:73 
-0.125 1:309 2:70 
-0.125 1:307 2:68 
-0.125 1:301 2:65 
-0.125 1:311 2:97 
-0.125 1:310 2:96 
-0.125 1:308 2:94 
-0.125 1:306 2:91 
-0.125 1:304 2:89 
-0.125 1:300 2:86 
-0.125 1:298 2:84 
-0.125 1:295 2:81 
-0.125 1:292 2:78 
-0.125 1:292 2:76 
-0.125 1:289 2:74 
-0.125 1:303 2:93 
-0.125 1:302 2:93 
-0.125 1:301 2:91 
-0.125 1:299 2:90 
-0.125 1:296 2:87 
-0.125 1:294 2:86 
-0.125 1:293 2:83 
-0.125 1:289 2:81 
-0.125 1:288 2:79 
-0.125 1:287 2:77 
-0.125 1:284 2:75 
-0.125 1:291 2:82 
-0.125 1:291 2:81 
-0.125 1:289 2:80 
-0.125 1:286 2:80 
-0.125 1:285 2:77 
-0.125 1:283 2:75 
-0.125 1:279 2:74 
-0.125 1:281 2:72 
-0.125 1:276 2:70 
-0.125 1:273 2:69 
-0.125 1:271 2:67 
-0.125 1:290 2:79 
-0.125 1:285 2:77 
-0.125 1:284 2:75 
-0.125 1:280 2:73 
-0.125 1:277 2:70 
-0.125 1:275 2:67 
-0.125 1:270 2:65 
-0.125 1:267 2:63 
-0.125 1:265 2:61 
-0.125 1:262 2:59 
-0.125 1:260 2:58 
-0.125 1:279 2:70 
-0.125 1:275 2:68 
-0.125 1:272 2:66 
-0.125 1:269 2:63 
-0.125 1:265 2:60 
-0.125 1:261 2:57 
-0.125 1:259 2:56 
-0.125 1:256 2:54 
-0.125 1:254 2:52 
-0.125 1:249 2:51 
-0.125 1:247 2:49 
-0.125 1:284 2:76 
-0.125 1:285 2:77 
-0.125 1:284 2:77 
-0.125 1:285 2:78 
-0.125 1:286 2:78 
-0.125 1:282 2:77 
-0.125 1:281 2:78 
-0.125 1:282 2:78 
-0.125 1:281 2:77 
-0.125 1:281 2:78 
-0.125 1:279 2:78 
-0.125 1:280 2:70 
-0.125 1:277 2:67 
-0.125 1:275 2:65 
-0.125 1:271 2:63 
-0.125 1:268 2:60 
-0.125 1:264 2:58 
-0.125 1:261 2:56 
-0.125 1:259 2:53 
-0.125 1:256 2:52 
-0.125 1:251 2:50 
-0.125 1:250 2:49 
-0.125 1:272 2:52 
-0.125 1:273 2:53 
-0.125 1:276 2:60 
-0.125 1:278 2:63 
-0.125 1:279 2:65 
-0.125 1:279 2:65 
-0.125 1:275 2:63 
-0.125 1:272 2:61 
-0.125 1:267 2:58 
-0.125 1:265 2:55 
-0.125 1:260 2:54 
