svm_type c_svc
kernel_type rbf
gamma 0.5
nr_class 2
total_sv 181
rho -0.0664193
label 1 -1
nr_sv 96 85
SV
0.6995164710590992 1:303 2:40 
0.5341328571171482 1:304 2:41 
0.225049064182532 1:305 2:40 
0.6648222031271341 1:306 2:40 
0.6684018578953418 1:307 2:42 
0.4046563128953826 1:309 2:41 
0.2589322530035483 1:308 2:41 
0.108855428213413 1:308 2:42 
0.7412307332682126 1:310 2:42 
0.9330841860751284 1:306 2:0 
0.9338201949342464 1:307 2:128 
0.9321946346616771 1:313 2:132 
0.9307992017621269 1:315 2:135 
0.9320718238847334 1:317 2:138 
0.9320645829932784 1:320 2:142 
0.9323541825536389 1:323 2:144 
0.82270928221252 1:328 2:149 
0.8211324186994369 1:328 2:151 
0.9317756251954403 1:330 2:154 
0.9338672684932265 1:333 2:158 
0.9338628540812426 1:332 2:220 
2.499910830130562 1:335 2:225 
1.098106391176817 1:339 2:230 
1.028026113455774 1:343 2:236 
1.533342891689543 1:345 2:240 
0.9418402268830023 1:349 2:246 
0.9329375474583941 1:353 2:250 
2.500675272492494 1:352 2:255 
4 1:355 2:259 
2.490988392607678 1:358 2:264 
1.038309945473393 1:362 2:269 
1.53250996947523 1:310 2:168 
2.533286405303434 1:311 2:171 
2.50532566732559 1:314 2:174 
2.32409644494584 1:317 2:180 
1.06113589320369 1:320 2:183 
1.027495707339843 1:322 2:187 
0.9338552248298693 1:324 2:191 
0.9334916594400778 1:328 2:195 
0.9337128538679627 1:331 2:200 
0.933360976429534 1:334 2:203 
0.9335889062132776 1:337 2:207 
0.9276186841045115 1:337 2:216 
0.8565836668435889 1:341 2:220 
0.9322471785055 1:343 2:224 
0.9131437390411172 1:346 2:228 
0.9157807480903396 1:348 2:233 
0.6759867623090129 1:351 2:239 
0.8469580669262957 1:354 2:243 
0.7520177669240161 1:357 2:247 
0.821403264529166 1:360 2:251 
0.917140671783764 1:364 2:256 
0.9248078776932418 1:350 2:243 
0.8531663433461959 1:353 2:245 
0.8300950446804632 1:357 2:249 
0.8221072854988014 1:360 2:253 
0.9156238489848598 1:362 2:258 
0.9308235621454588 1:364 2:261 
0.9272727035408858 1:368 2:266 
0.9090351630924202 1:369 2:269 
0.9275325781037702 1:371 2:272 
0.5888986495267542 1:373 2:275 
0.9269539181105445 1:374 2:279 
0.9320566959465914 1:327 2:202 
0.9258378558797896 1:329 2:205 
0.9276975452198166 1:330 2:208 
0.9334484842079201 1:333 2:213 
0.9197956064777356 1:338 2:219 
0.8608115816729773 1:340 2:222 
0.9233315495017571 1:343 2:228 
0.9069235679272447 1:346 2:231 
0.9276932612538785 1:350 2:236 
0.6820625518085089 1:352 2:240 
0.8468169678086817 1:356 2:245 
0.8680851913337196 1:367 2:279 
0.7909561022212219 1:368 2:281 
0.868062221071932 1:369 2:283 
0.8705648892345544 1:372 2:286 
0.9307721759089224 1:374 2:291 
0.9259321585846529 1:376 2:294 
0.9276652563818473 1:379 2:298 
0.9130598771126286 1:383 2:302 
0.9231230285773611 1:383 2:305 
0.8220677766988254 1:386 2:308 
0.8224765088918982 1:386 2:310 
0.915762129503588 1:361 2:263 
0.9319012513268726 1:364 2:266 
0.9170900233384216 1:367 2:271 
0.5634090656367181 1:372 2:275 
0.9227006185510227 1:371 2:278 
0.8304390192659026 1:374 2:283 
0.7500888762290844 1:374 2:285 
0.9320893101219334 1:377 2:289 
0.9274352431938901 1:379 2:293 
0.9272238918046097 1:382 2:297 
0.923547574636052 1:386 2:302 
-0.9870096698386606 1:287 2:26 
-0.967491681396292 1:289 2:25 
-0.6723638784903523 1:292 2:26 
-0.7372372711133386 1:291 2:27 
-0.6752211607943286 1:293 2:28 
-0.7482443484746167 1:294 2:27 
-0.9341189036576855 1:297 2:28 
-0.9400869692283917 1:299 2:28 
-1.066080740771234 1:281 2:43 
-0.6676325110729157 1:285 2:45 
-0.57081681408331 1:285 2:46 
-0.6285984170610328 1:287 2:46 
-0.8307797911688524 1:288 2:47 
-0.7821648798351816 1:293 2:49 
-0.7728364751897551 1:294 2:50 
-0.8960360166536382 1:297 2:51 
-0.4053329459258829 1:298 2:52 
-0.9009225170954348 1:299 2:53 
-1.066057289568772 1:303 2:55 
-1.061249388262051 1:257 2:32 
-0.7767906708972797 1:260 2:33 
-0.7687337286720528 1:261 2:34 
-1.040929020104765 1:264 2:34 
-0.92146600062763 1:266 2:36 
-0.9342098947196812 1:268 2:36 
-1.054981229811142 1:271 2:37 
-0.7989862275239892 1:274 2:38 
-0.7050236865014767 1:275 2:39 
-0.7953861546977967 1:278 2:39 
-0.7150118049094861 1:277 2:40 
-2.583077545178636 1:335 2:226 
-1.213689604901514 1:339 2:232 
-1.149060500559257 1:341 2:235 
-1.63045637058172 1:344 2:241 
-1.073134477014206 1:346 2:245 
-1.072428001051885 1:348 2:249 
-2.583686342420005 1:353 2:255 
-4 1:355 2:259 
-2.577779077718652 1:357 2:264 
-1.151581677343879 1:360 2:268 
-1.07771436449194 1:362 2:272 
-1.065965503367797 1:300 2:157 
-1.066200601077128 1:303 2:160 
-0.985627842946335 1:305 2:164 
-0.9849988977662452 1:306 2:166 
-1.672896108741268 1:309 2:169 
-2.604602072711639 1:311 2:172 
-2.585812242910169 1:314 2:175 
-1.886385868620595 1:316 2:179 
-1.893644189295031 1:318 2:181 
-1.132695940085646 1:318 2:184 
-1.150457951199493 1:320 2:188 
-0.9397207056001329 1:269 2:108 
-0.9373908628474676 1:269 2:110 
-1.063946120385466 1:272 2:112 
-1.047202434006667 1:276 2:116 
-1.04762832333045 1:278 2:118 
-1.059352573980039 1:281 2:121 
-1.059382232944483 1:282 2:124 
-1.059927840920117 1:287 2:127 
-0.9782601218977677 1:288 2:130 
-0.9861125188369457 1:289 2:132 
-1.066121542684161 1:293 2:135 
-1.046931260326219 1:253 2:84 
-1.047205455405007 1:255 2:86 
-1.047053260322351 1:258 2:89 
-1.046729050092141 1:260 2:91 
-1.065938179631933 1:261 2:95 
-0.9855181522939136 1:266 2:98 
-0.9854027251776506 1:267 2:100 
-1.064491028737105 1:271 2:104 
-1.052802677595492 1:274 2:106 
-1.052775076812899 1:274 2:109 
-1.066052563197821 1:278 2:112 
-1.046991649572593 1:298 2:132 
-1.047212182571455 1:300 2:134 
-1.066643497431537 1:303 2:137 
-1.059875626103243 1:306 2:141 
-0.9791485810316488 1:307 2:144 
-0.9786260705259044 1:309 2:145 
-1.052774494508076 1:310 2:148 
-1.040466267201673 1:313 2:149 
-1.035322759113355 1:315 2:151 
-1.054656346417514 1:315 2:154 
-1.066098687528488 1:319 2:157 
