svm_type c_svc
kernel_type rbf
gamma 0.125
nr_class 2
total_sv 173
rho -0.0447391
label 1 -1
nr_sv 90 83
SV
0.7858278120051689 1:303 2:40 
0.4143131787840074 1:306 2:40 
0.4137860517766989 1:307 2:42 
0.7860367366419423 1:310 2:42 
0.9550930712294853 1:306 2:0 
0.9540183508030792 1:307 2:128 
0.8269527600307253 1:313 2:132 
0.635817573290598 1:315 2:135 
0.7949828879633025 1:317 2:138 
0.762258754594242 1:320 2:142 
0.8035743922852887 1:323 2:144 
0.7130112380768031 1:328 2:149 
0.3600699921067939 1:328 2:151 
0.8251966282593111 1:330 2:154 
0.91895831663738 1:333 2:158 
0.9015040527959635 1:332 2:220 
4 1:335 2:225 
2.327118691000173 1:339 2:230 
1.643811427560022 1:343 2:236 
3.977306754410856 1:345 2:240 
1.571200341556019 1:349 2:246 
0.9130087123659519 1:353 2:250 
4 1:352 2:255 
4 1:355 2:259 
4 1:358 2:264 
2.78617284114629 1:362 2:269 
3.446001480094735 1:310 2:168 
4 1:311 2:171 
4 1:314 2:174 
4 1:317 2:180 
2.757032514039136 1:320 2:183 
1.827810476630203 1:322 2:187 
0.8779477433367699 1:324 2:191 
0.9264380092338348 1:328 2:195 
0.7778952520008756 1:331 2:200 
0.8128167358124362 1:334 2:203 
0.9165349572709466 1:337 2:207 
0.7596895604035361 1:337 2:216 
0.5296226011574382 1:341 2:220 
0.7416918968892416 1:343 2:224 
0.6029496193548598 1:346 2:228 
0.6040215808457347 1:348 2:233 
0.2530093916002116 1:351 2:239 
0.4719836668341407 1:354 2:243 
0.3132685085868764 1:357 2:247 
0.4736845819434997 1:360 2:251 
0.7005301320220432 1:364 2:256 
0.3429625158882198 1:350 2:243 
0.2110276295272266 1:353 2:245 
0.4794809069025239 1:357 2:249 
0.6051590845357306 1:360 2:253 
0.5217361347634099 1:362 2:258 
0.7582098471162748 1:364 2:261 
0.7561459555449831 1:368 2:266 
0.3328785404040888 1:369 2:269 
0.6688737052343883 1:371 2:272 
0.6438211187893415 1:373 2:275 
0.6455093422724065 1:374 2:279 
0.7795304624422412 1:327 2:202 
0.5359455423840543 1:329 2:205 
0.7789414219606471 1:330 2:208 
0.9073727301984456 1:333 2:213 
0.4864679199854777 1:338 2:219 
0.3913991083129611 1:340 2:222 
0.4575307584983633 1:343 2:228 
0.4698316936399047 1:346 2:231 
0.6923847003315249 1:350 2:236 
0.5174309457100692 1:352 2:240 
0.465952239769271 1:356 2:245 
0.7952030698124563 1:367 2:279 
0.06749735374728633 1:368 2:281 
0.7402664698558716 1:369 2:283 
0.6245108296560381 1:372 2:286 
0.6616955932703542 1:374 2:291 
0.5771475407697882 1:376 2:294 
0.6906602477218907 1:379 2:298 
0.4606093655639548 1:383 2:302 
0.6691504489133184 1:383 2:305 
0.4776471009394453 1:386 2:308 
0.655758486414404 1:386 2:310 
0.1427450627726619 1:361 2:263 
0.4435918183759194 1:364 2:266 
0.7116726944328611 1:367 2:271 
0.5054927971563571 1:371 2:278 
0.5770452838201138 1:374 2:283 
0.2046525994435845 1:374 2:285 
0.7286068875064153 1:377 2:289 
0.6513774151920823 1:379 2:293 
0.7042972202512742 1:382 2:297 
0.7252222104497691 1:386 2:302 
-0.7669227586824723 1:287 2:26 
-0.4399075615364965 1:289 2:25 
-0.3108956528496444 1:292 2:26 
-0.21078249803442 1:291 2:27 
-0.4377072076269083 1:293 2:28 
-0.3060834399705584 1:294 2:27 
-0.4179843090585602 1:297 2:28 
-0.7739611759554894 1:299 2:28 
-0.9443314727583324 1:281 2:43 
-0.5820621777720686 1:285 2:45 
-0.2497951573172659 1:285 2:46 
-0.8366261870816774 1:288 2:47 
-0.7857479555049719 1:293 2:49 
-0.2341662672601826 1:294 2:50 
-0.6465588908360125 1:297 2:51 
-0.7211320424739401 1:299 2:53 
-0.9845200562094433 1:303 2:55 
-0.9142626239708076 1:257 2:32 
-0.3048297624780734 1:260 2:33 
-0.5156948351013874 1:261 2:34 
-0.6265107882996435 1:264 2:34 
-0.4658250130675973 1:266 2:36 
-0.5049553991815541 1:268 2:36 
-0.7029092675171235 1:271 2:37 
-0.5643020434126096 1:274 2:38 
-0.1822099746407161 1:275 2:39 
-0.6578394297000021 1:278 2:39 
-0.2798760206923238 1:277 2:40 
-4 1:335 2:226 
-2.182148962040104 1:339 2:232 
-1.570209847198179 1:341 2:235 
-4 1:344 2:241 
-1.232056118230325 1:346 2:245 
-1.436524457747931 1:348 2:249 
-4 1:353 2:255 
-4 1:355 2:259 
-4 1:357 2:264 
-2.586407511752763 1:360 2:268 
-1.767907064722595 1:362 2:272 
-0.9510208888421915 1:300 2:157 
-0.8865745101695285 1:303 2:160 
-0.6767052384864607 1:305 2:164 
-0.5463125201323036 1:306 2:166 
-4 1:309 2:169 
-4 1:311 2:172 
-4 1:314 2:175 
-2.589945477939729 1:316 2:179 
-3.682199052018323 1:318 2:181 
-1.646326308862594 1:318 2:184 
-2.042789316791689 1:320 2:188 
-0.6017256649758692 1:269 2:108 
-0.4944987142669783 1:269 2:110 
-0.7792015422085186 1:272 2:112 
-0.6928840725709957 1:276 2:116 
-0.7008330288856316 1:278 2:118 
-0.7341641949833646 1:281 2:121 
-0.8208246322822299 1:282 2:124 
-0.9078556727972495 1:287 2:127 
-0.3637420550624283 1:288 2:130 
-0.7819828523953862 1:289 2:132 
-0.9970808006807026 1:293 2:135 
-0.7949283390304237 1:253 2:84 
-0.6747451843373816 1:255 2:86 
-0.7249151759043712 1:258 2:89 
-0.6627562787457519 1:260 2:91 
-0.9530640344193323 1:261 2:95 
-0.6731024544483314 1:266 2:98 
-0.6680899295364532 1:267 2:100 
-0.8401753953915054 1:271 2:104 
-0.6661382089452682 1:274 2:106 
-0.5777115765716626 1:274 2:109 
-0.9451800475300935 1:278 2:112 
-0.7878258538086961 1:298 2:132 
-0.6542572747448508 1:300 2:134 
-0.9367567074581751 1:303 2:137 
-0.8408485850646352 1:306 2:141 
-0.4833088349561263 1:307 2:144 
-0.5422217806321045 1:309 2:145 
-0.6834039999328738 1:310 2:148 
-0.6170150507723799 1:313 2:149 
-0.5443020277970071 1:315 2:151 
-0.8067168775570656 1:315 2:154 
-1.008607981035177 1:319 2:157 
