svm_type c_svc
kernel_type rbf
gamma 0.125
nr_class 2
total_sv 188
rho -0.183825
label 1 -1
nr_sv 94 94
SV
0.5 1:303 2:40 
0.1550186911339559 1:304 2:41 
0.315542067149363 1:306 2:40 
0.3164760233460341 1:307 2:42 
0.1549783643466716 1:309 2:41 
0.5 1:310 2:42 
0.5 1:306 2:0 
0.5 1:307 2:128 
0.5 1:313 2:132 
0.5 1:315 2:135 
0.5 1:317 2:138 
0.5 1:320 2:142 
0.5 1:323 2:144 
0.5 1:328 2:149 
0.4142050359474272 1:328 2:151 
0.5 1:330 2:154 
0.5 1:333 2:158 
0.5 1:332 2:220 
0.5 1:335 2:225 
0.5 1:339 2:230 
0.5 1:343 2:236 
0.5 1:345 2:240 
0.5 1:349 2:246 
0.5 1:353 2:250 
0.5 1:352 2:255 
0.5 1:355 2:259 
0.5 1:358 2:264 
0.5 1:362 2:269 
0.5 1:310 2:168 
0.5 1:311 2:171 
0.5 1:314 2:174 
0.5 1:317 2:180 
0.5 1:320 2:183 
0.5 1:322 2:187 
0.5 1:324 2:191 
0.5 1:328 2:195 
0.5 1:331 2:200 
0.5 1:334 2:203 
0.5 1:337 2:207 
0.5 1:337 2:216 
0.4223854250760941 1:341 2:220 
0.5 1:343 2:224 
0.4833323957424199 1:346 2:228 
0.5 1:348 2:233 
0.1141979228833767 1:350 2:236 
0.2654772518886594 1:351 2:239 
0.3457274628939012 1:354 2:243 
0.2527266145025256 1:357 2:247 
0.4085816477417796 1:360 2:251 
0.5 1:364 2:256 
0.5 1:350 2:243 
0.2815549376412785 1:353 2:245 
0.4479761381832024 1:357 2:249 
0.5 1:360 2:253 
0.5 1:362 2:258 
0.5 1:364 2:261 
0.5 1:368 2:266 
0.3814507734148836 1:369 2:269 
0.5 1:371 2:272 
0.5 1:373 2:275 
0.5 1:374 2:279 
0.5 1:327 2:202 
0.5 1:329 2:205 
0.5 1:330 2:208 
0.5 1:333 2:213 
0.4670855089783161 1:338 2:219 
0.391563898862454 1:340 2:222 
0.5 1:343 2:228 
0.4148058737360471 1:346 2:231 
0.4889215507292151 1:350 2:236 
0.3777341480604377 1:352 2:240 
0.3941713163258035 1:356 2:245 
0.5 1:367 2:279 
0.2232700780719006 1:368 2:281 
0.5 1:369 2:283 
0.5 1:372 2:286 
0.5 1:374 2:291 
0.5 1:376 2:294 
0.5 1:379 2:298 
0.4614268842708287 1:383 2:302 
0.5 1:383 2:305 
0.4528176531703521 1:386 2:308 
0.5 1:386 2:310 
0.5 1:361 2:263 
0.5 1:364 2:266 
0.5 1:367 2:271 
0.05419714569166839 1:372 2:275 
0.4494551057276377 1:371 2:278 
0.4963982245193866 1:374 2:283 
0.2003302698376392 1:374 2:285 
0.5 1:377 2:289 
0.5 1:379 2:293 
0.5 1:382 2:297 
0.5 1:386 2:302 
-0.5 1:287 2:26 
-0.2300765350079799 1:289 2:25 
-0.4817203720986191 1:289 2:25 
-0.2754928938729931 1:292 2:26 
-0.2544806547943021 1:291 2:27 
-0.488150696578441 1:293 2:28 
-0.3906855760729062 1:294 2:27 
-0.5 1:297 2:28 
-0.5 1:299 2:28 
-0.5 1:281 2:43 
-0.5 1:285 2:45 
-0.4115617946414106 1:285 2:46 
-0.2730148699930699 1:287 2:46 
-0.5 1:288 2:47 
-0.5 1:293 2:49 
-0.5 1:294 2:50 
-0.5 1:297 2:51 
-0.3498893561041283 1:298 2:52 
-0.5 1:299 2:53 
-0.5 1:303 2:55 
-0.5 1:257 2:32 
-0.06967977466818522 1:261 2:34 
-0.279458551987223 1:264 2:34 
-0.02535048491131456 1:266 2:36 
-0.09614566504584598 1:268 2:36 
-0.3028848765214996 1:271 2:37 
-0.3940524187464433 1:274 2:38 
-0.25288802731386 1:278 2:39 
-0.5 1:257 2:32 
-0.3664301207866077 1:260 2:33 
-0.5 1:261 2:34 
-0.4335430832735688 1:264 2:34 
-0.5 1:266 2:36 
-0.4782134551137766 1:268 2:36 
-0.4893592011677024 1:271 2:37 
-0.2680455508562257 1:274 2:38 
-0.169086342983173 1:275 2:39 
-0.4990866747671402 1:278 2:39 
-0.3525114325668434 1:277 2:40 
-0.5 1:335 2:226 
-0.5 1:339 2:232 
-0.5 1:341 2:235 
-0.5 1:344 2:241 
-0.5 1:346 2:245 
-0.5 1:348 2:249 
-0.5 1:353 2:255 
-0.5 1:355 2:259 
-0.5 1:357 2:264 
-0.5 1:360 2:268 
-0.5 1:362 2:272 
-0.5 1:300 2:157 
-0.5 1:303 2:160 
-0.5 1:305 2:164 
-0.5 1:306 2:166 
-0.5 1:309 2:169 
-0.5 1:311 2:172 
-0.5 1:314 2:175 
-0.5 1:316 2:179 
-0.5 1:318 2:181 
-0.5 1:318 2:184 
-0.5 1:320 2:188 
-0.5 1:269 2:108 
-0.5 1:269 2:110 
-0.5 1:272 2:112 
-0.5 1:276 2:116 
-0.5 1:278 2:118 
-0.5 1:281 2:121 
-0.5 1:282 2:124 
-0.5 1:287 2:127 
-0.5 1:288 2:130 
-0.5 1:289 2:132 
-0.5 1:293 2:135 
-0.5 1:253 2:84 
-0.5 1:255 2:86 
-0.5 1:258 2:89 
-0.5 1:260 2:91 
-0.5 1:261 2:95 
-0.5 1:266 2:98 
-0.5 1:267 2:100 
-0.5 1:271 2:104 
-0.5 1:274 2:106 
-0.5 1:274 2:109 
-0.5 1:278 2:112 
-0.5 1:298 2:132 
-0.5 1:300 2:134 
-0.5 1:303 2:137 
-0.5 1:306 2:141 
-0.5 1:307 2:144 
-0.5 1:309 2:145 
-0.5 1:310 2:148 
-0.5 1:313 2:149 
-0.5 1:315 2:151 
-0.5 1:315 2:154 
-0.5 1:319 2:157 
