svm_type c_svc
kernel_type rbf
gamma 0.25
nr_class 2
total_sv 178
rho -0.0937558
label 1 -1
nr_sv 93 85
SV
0.6639455815861106 1:303 2:40 
0.2957552193363246 1:304 2:41 
0.5619407118143127 1:306 2:40 
0.5617106940325562 1:307 2:42 
0.2958747711734411 1:309 2:41 
0.6636587116246656 1:310 2:42 
0.9061717214011615 1:306 2:0 
0.9064365078090263 1:307 2:128 
0.8736400847243611 1:313 2:132 
0.8387796830121715 1:315 2:135 
0.8719023334300031 1:317 2:138 
0.8708952027294743 1:320 2:142 
0.8723975691938785 1:323 2:144 
0.6760372204607397 1:328 2:149 
0.6238622005398091 1:328 2:151 
0.8797746596035529 1:330 2:154 
0.9044711732050399 1:333 2:158 
0.9054132988261632 1:332 2:220 
1 1:335 2:225 
1 1:339 2:230 
1 1:343 2:236 
1 1:345 2:240 
0.9983466914345706 1:349 2:246 
0.8959583590235792 1:353 2:250 
1 1:352 2:255 
1 1:355 2:259 
1 1:358 2:264 
1 1:362 2:269 
1 1:310 2:168 
1 1:311 2:171 
1 1:314 2:174 
1 1:317 2:180 
1 1:320 2:183 
1 1:322 2:187 
0.9011092210544956 1:324 2:191 
0.9058363692224947 1:328 2:195 
0.8894860802186821 1:331 2:200 
0.8942415155458525 1:334 2:203 
0.9046632223060576 1:337 2:207 
0.8419613243724421 1:337 2:216 
0.6494015396147754 1:341 2:220 
0.8602594902292169 1:343 2:224 
0.7445625055230695 1:346 2:228 
0.7761994070719872 1:348 2:233 
0.4939423542725364 1:351 2:239 
0.609031472940142 1:354 2:243 
0.4701357218044084 1:357 2:247 
0.6323476919630144 1:360 2:251 
0.7997322218151828 1:364 2:256 
0.7675177362332337 1:350 2:243 
0.6171303855262389 1:353 2:245 
0.6853567289506778 1:357 2:249 
0.6701574924836313 1:360 2:253 
0.7640945843003517 1:362 2:258 
0.8425783037937097 1:364 2:261 
0.8321324700346556 1:368 2:266 
0.6979106797065718 1:369 2:269 
0.8193359051763831 1:371 2:272 
0.5916311859235084 1:373 2:275 
0.8193351263954046 1:374 2:279 
0.8690849609735922 1:327 2:202 
0.8018909323673117 1:329 2:205 
0.840427946705956 1:330 2:208 
0.9045705141584179 1:333 2:213 
0.7577118683460237 1:338 2:219 
0.657259872840172 1:340 2:222 
0.7981019091837424 1:343 2:228 
0.7137360065977552 1:346 2:231 
0.8321481967700766 1:350 2:236 
0.5463684766708817 1:352 2:240 
0.6135456215266549 1:356 2:245 
0.7577601815201895 1:367 2:279 
0.4632154362637183 1:368 2:281 
0.7578239698725128 1:369 2:283 
0.7464290691207002 1:372 2:286 
0.8403852674421396 1:374 2:291 
0.8024997617458154 1:376 2:294 
0.8344764703630504 1:379 2:298 
0.7325800093993714 1:383 2:302 
0.8125362136316718 1:383 2:305 
0.6518158090008801 1:386 2:308 
0.666696932545309 1:386 2:310 
0.7963754977538658 1:361 2:263 
0.8480893634558125 1:364 2:266 
0.7998747515322804 1:367 2:271 
0.3095334415035669 1:372 2:275 
0.7742222151713902 1:371 2:278 
0.7021232377556826 1:374 2:283 
0.4315525194610671 1:374 2:285 
0.8660612855450078 1:377 2:289 
0.8306653981833592 1:379 2:293 
0.8351674884271415 1:382 2:297 
0.8199652115991556 1:386 2:302 
-0.874791898398278 1:287 2:26 
-0.7348814304163244 1:289 2:25 
-0.4033158176527309 1:292 2:26 
-0.546067737393335 1:291 2:27 
-0.4535255437676695 1:293 2:28 
-0.5831319239981764 1:294 2:27 
-0.7346355364096682 1:297 2:28 
-0.8229805681072929 1:299 2:28 
-1 1:281 2:43 
-0.6599480496949268 1:285 2:45 
-0.4337733659530287 1:285 2:46 
-0.187421827194124 1:287 2:46 
-0.9187054627365819 1:288 2:47 
-0.7418534867034187 1:293 2:49 
-0.5691044473738641 1:294 2:50 
-0.9115190663880537 1:297 2:51 
-0.9637033537359559 1:299 2:53 
-1 1:303 2:55 
-0.03782222496516597 1:257 2:32 
-1 1:257 2:32 
-0.6257901860610802 1:260 2:33 
-0.6096754159245537 1:261 2:34 
-0.9223227186925117 1:264 2:34 
-0.688965244925337 1:266 2:36 
-0.7548052817125417 1:268 2:36 
-0.9681331801327143 1:271 2:37 
-0.7246903911628036 1:274 2:38 
-0.4279507165220292 1:275 2:39 
-0.7363196881096223 1:278 2:39 
-0.4948823004980974 1:277 2:40 
-1 1:335 2:226 
-1 1:339 2:232 
-1 1:341 2:235 
-1 1:344 2:241 
-1 1:346 2:245 
-1 1:348 2:249 
-1 1:353 2:255 
-1 1:355 2:259 
-1 1:357 2:264 
-1 1:360 2:268 
-1 1:362 2:272 
-1 1:300 2:157 
-1 1:303 2:160 
-0.84422425457062 1:305 2:164 
-0.8476269481914391 1:306 2:166 
-1 1:309 2:169 
-1 1:311 2:172 
-1 1:314 2:175 
-1 1:316 2:179 
-1 1:318 2:181 
-1 1:318 2:184 
-1 1:320 2:188 
-0.8044088949139564 1:269 2:108 
-0.7575730616538379 1:269 2:110 
-1 1:272 2:112 
-0.957444293007678 1:276 2:116 
-0.9531536355919938 1:278 2:118 
-1 1:281 2:121 
-1 1:282 2:124 
-1 1:287 2:127 
-0.7616954814079498 1:288 2:130 
-0.8729628328575212 1:289 2:132 
-1 1:293 2:135 
-0.9643548898933916 1:253 2:84 
-0.9527655681559994 1:255 2:86 
-0.9541681300952176 1:258 2:89 
-0.9504090357196221 1:260 2:91 
-1 1:261 2:95 
-0.8500583424553289 1:266 2:98 
-0.8500300068001602 1:267 2:100 
-1 1:271 2:104 
-0.9539112378925946 1:274 2:106 
-0.9500120073178291 1:274 2:109 
-1 1:278 2:112 
-0.9647727997622275 1:298 2:132 
-0.9520028315637449 1:300 2:134 
-1 1:303 2:137 
-1 1:306 2:141 
-0.7838248695383611 1:307 2:144 
-0.7886858956926318 1:309 2:145 
-0.953841118518354 1:310 2:148 
-0.897010245751681 1:313 2:149 
-0.8664748624734084 1:315 2:151 
-0.9996308604185042 1:315 2:154 
-1 1:319 2:157 
