svm_type c_svc
kernel_type rbf
gamma 1
nr_class 2
total_sv 183
rho -0.0604057
label 1 -1
nr_sv 98 85
SV
0.7565595023330606 1:303 2:40 
0.2199336108318059 1:304 2:40 
0.6862605470614359 1:304 2:41 
0.4768157902802943 1:305 2:40 
0.7467981008330141 1:306 2:40 
0.7506291764745492 1:307 2:42 
0.504951694304811 1:309 2:41 
0.4952613811228669 1:308 2:41 
0.2872477264173861 1:309 2:42 
0.2935135236385314 1:308 2:42 
0.7564636103142156 1:310 2:42 
0.9395389969166 1:306 2:0 
0.9391573184218877 1:307 2:128 
0.9396146244457387 1:313 2:132 
0.9397485488696437 1:315 2:135 
0.9395425100407562 1:317 2:138 
0.9396475073139677 1:320 2:142 
0.9395589347553652 1:323 2:144 
0.9225824051164891 1:328 2:149 
0.9223598526927358 1:328 2:151 
0.9395590038916876 1:330 2:154 
0.9395315379882014 1:333 2:158 
0.939896595952243 1:332 2:220 
1.537471025504036 1:335 2:225 
0.959175116411719 1:339 2:230 
0.9470038649033944 1:343 2:236 
1.10308438636721 1:345 2:240 
0.9395907254190401 1:349 2:246 
0.940045096554412 1:353 2:250 
1.538271235625156 1:352 2:255 
4 1:355 2:259 
1.537263642049144 1:358 2:264 
0.9467028331303553 1:362 2:269 
1.103308538724911 1:310 2:168 
1.538189830884012 1:311 2:171 
1.53771222732375 1:314 2:174 
1.273618445671276 1:317 2:180 
0.9474464997706573 1:320 2:183 
0.9468018189415566 1:322 2:187 
0.9400734188580556 1:324 2:191 
0.9397861706075574 1:328 2:195 
0.9394853732674385 1:331 2:200 
0.9391848859961015 1:334 2:203 
0.939523741775287 1:337 2:207 
0.9393688980166425 1:337 2:216 
0.9331336650028734 1:341 2:220 
0.9395345955713093 1:343 2:224 
0.9393925462836752 1:346 2:228 
0.9392612214278819 1:348 2:233 
0.8272160364158848 1:351 2:239 
0.9327416236858052 1:354 2:243 
0.9162613062333264 1:357 2:247 
0.9228599160766086 1:360 2:251 
0.9393110983078433 1:364 2:256 
0.9393961290983864 1:350 2:243 
0.9335940749907802 1:353 2:245 
0.9232741323667432 1:357 2:249 
0.9226192342601468 1:360 2:253 
0.9392536706609437 1:362 2:258 
0.9395144810361343 1:364 2:261 
0.9392739747960481 1:368 2:266 
0.9392433926055967 1:369 2:269 
0.9399740319458174 1:371 2:272 
0.6865553224979873 1:373 2:275 
0.9392649250927413 1:374 2:279 
0.940031749909397 1:327 2:202 
0.939262938646809 1:329 2:205 
0.9391986159865413 1:330 2:208 
0.9395371835934474 1:333 2:213 
0.9397674820264148 1:338 2:219 
0.933321768918373 1:340 2:222 
0.9394988182100498 1:343 2:228 
0.9390740126788307 1:346 2:231 
0.9392596806072336 1:350 2:236 
0.8275614672346441 1:352 2:240 
0.9332941588955971 1:356 2:245 
0.9332418948466047 1:367 2:279 
0.9266107068586286 1:368 2:281 
0.9332412302819075 1:369 2:283 
0.9336338984525552 1:372 2:286 
0.9393270700446962 1:374 2:291 
0.9395820935454613 1:376 2:294 
0.9392495183020565 1:379 2:298 
0.9393732368936027 1:383 2:302 
0.9399811661951186 1:383 2:305 
0.9229694596029182 1:386 2:308 
0.922923008561903 1:386 2:310 
0.939412922099684 1:361 2:263 
0.9394392659587989 1:364 2:266 
0.9392459387010688 1:367 2:271 
0.6866922771497417 1:372 2:275 
0.9393008134837171 1:371 2:278 
0.9228757920596212 1:374 2:283 
0.9165086241252977 1:374 2:285 
0.9400060220778329 1:377 2:289 
0.9393404364171773 1:379 2:293 
0.9399662140060947 1:382 2:297 
0.939718011690454 1:386 2:302 
-1.052927271836946 1:287 2:26 
-1.053144245255481 1:289 2:25 
-0.9223158347828082 1:292 2:26 
-0.9286621753035216 1:291 2:27 
-0.921807170679016 1:293 2:28 
-0.9294885312485509 1:294 2:27 
-1.041090532509683 1:297 2:28 
-1.041505553334238 1:299 2:28 
-1.060683276260167 1:281 2:43 
-0.7750214694229532 1:285 2:45 
-0.7585470181770325 1:285 2:46 
-0.9146138372262408 1:287 2:46 
-0.9366753284927193 1:288 2:47 
-0.9339367928664125 1:293 2:49 
-0.9343333775054196 1:294 2:50 
-0.9513067263531186 1:297 2:51 
-0.8032259393276672 1:298 2:52 
-0.9514672726803457 1:299 2:53 
-1.059954863109181 1:303 2:55 
-1.059989780910373 1:257 2:32 
-0.9342803617556976 1:260 2:33 
-0.9341055325996144 1:261 2:34 
-1.05956677221045 1:264 2:34 
-1.040472481610861 1:266 2:36 
-1.041000229656986 1:268 2:36 
-1.060502811098723 1:271 2:37 
-0.9350953547456391 1:274 2:38 
-0.9277908907893617 1:275 2:39 
-0.9348056809085202 1:278 2:39 
-0.9277107562487376 1:277 2:40 
-1.625980327628018 1:335 2:226 
-1.077987119502515 1:339 2:232 
-1.06682624912184 1:341 2:235 
-1.209396519912088 1:344 2:241 
-1.060161990005853 1:346 2:245 
-1.060635094525449 1:348 2:249 
-1.626469474956794 1:353 2:255 
-4 1:355 2:259 
-1.625983108316984 1:357 2:264 
-1.066621877795725 1:360 2:268 
-1.060502815414565 1:362 2:272 
-1.060462800252531 1:300 2:157 
-1.060462853131817 1:303 2:160 
-1.053274822522881 1:305 2:164 
-1.053583897030189 1:306 2:166 
-1.210643789234965 1:309 2:169 
-1.626241257627584 1:311 2:172 
-1.625761356850105 1:314 2:175 
-1.232811511169633 1:316 2:179 
-1.232709305492178 1:318 2:181 
-1.066158480411189 1:318 2:184 
-1.066765294872711 1:320 2:188 
-1.041417981498806 1:269 2:108 
-1.040820277414349 1:269 2:110 
-1.060552383690779 1:272 2:112 
-1.06034889779734 1:276 2:116 
-1.060039066224575 1:278 2:118 
-1.060427917002627 1:281 2:121 
-1.059946834298154 1:282 2:124 
-1.060136039408395 1:287 2:127 
-1.05349435402234 1:288 2:130 
-1.053307528885173 1:289 2:132 
-1.059902809020058 1:293 2:135 
-1.060125171175984 1:253 2:84 
-1.060033794603303 1:255 2:86 
-1.060092153141749 1:258 2:89 
-1.060191385425755 1:260 2:91 
-1.060335506386649 1:261 2:95 
-1.053291849918753 1:266 2:98 
-1.053520926183859 1:267 2:100 
-1.060478556462327 1:271 2:104 
-1.060249969977654 1:274 2:106 
-1.060567331625516 1:274 2:109 
-1.060426919083585 1:278 2:112 
-1.06002070535432 1:298 2:132 
-1.060107746227112 1:300 2:134 
-1.060677707793349 1:303 2:137 
-1.059962188867887 1:306 2:141 
-1.05318200231726 1:307 2:144 
-1.052937084212293 1:309 2:145 
-1.060608781113876 1:310 2:148 
-1.05959128154412 1:313 2:149 
-1.059596307993805 1:315 2:151 
-1.059861080579316 1:315 2:154 
-1.060682778304668 1:319 2:157 
