svm_type c_svc
kernel_type rbf
gamma 1
nr_class 2
total_sv 192
rho -0.0960451
label 1 -1
nr_sv 98 94
SV
0.7283939883258366 1:303 2:40 
0.2108621323167906 1:304 2:40 
0.6610910329747505 1:304 2:41 
0.458703436535048 1:305 2:40 
0.7185262410839621 1:306 2:40 
0.7218595400966619 1:307 2:42 
0.485656478495352 1:309 2:41 
0.4764273541493508 1:308 2:41 
0.2755898697438079 1:309 2:42 
0.2827565579189311 1:308 2:42 
0.7283306863855614 1:310 2:42 
0.9039811802361062 1:306 2:0 
0.9040328373615475 1:307 2:128 
0.9042284264429723 1:313 2:132 
0.9040293301069218 1:315 2:135 
0.9040482067625166 1:317 2:138 
0.904090078495056 1:320 2:142 
0.9039562876455878 1:323 2:144 
0.8876444632570826 1:328 2:149 
0.8877270236047982 1:328 2:151 
0.9039560517792576 1:330 2:154 
0.903834512197396 1:333 2:158 
0.90397829725509 1:332 2:220 
1 1:335 2:225 
0.9222736930557068 1:339 2:230 
0.9106071874910717 1:343 2:236 
1 1:345 2:240 
0.9041551722037855 1:349 2:246 
0.9042239058735352 1:353 2:250 
1 1:352 2:255 
1 1:355 2:259 
1 1:358 2:264 
0.9107725234521219 1:362 2:269 
1 1:310 2:168 
1 1:311 2:171 
1 1:314 2:174 
1 1:317 2:180 
0.9109521996146082 1:320 2:183 
0.9107191803721575 1:322 2:187 
0.9040795324229591 1:324 2:191 
0.9038517517312121 1:328 2:195 
0.9038799698476339 1:331 2:200 
0.904028680125412 1:334 2:203 
0.9041798880848522 1:337 2:207 
0.903916964797724 1:337 2:216 
0.8979820660749946 1:341 2:220 
0.9041067358743855 1:343 2:224 
0.9039596739245366 1:346 2:228 
0.9035826049294257 1:348 2:233 
0.796093966247431 1:351 2:239 
0.8973862875592239 1:354 2:243 
0.8815552288260957 1:357 2:247 
0.8878355023767015 1:360 2:251 
0.903562762627231 1:364 2:256 
0.9040725384595077 1:350 2:243 
0.8979160656788058 1:353 2:245 
0.8881995964310759 1:357 2:249 
0.8877217406146829 1:360 2:253 
0.9035418231236253 1:362 2:258 
0.9038627768416703 1:364 2:261 
0.9038808279090866 1:368 2:266 
0.9032191955042365 1:369 2:269 
0.904079058152943 1:371 2:272 
0.6608327720301128 1:373 2:275 
0.9040341867397539 1:374 2:279 
0.9038720396462703 1:327 2:202 
0.9040322730619398 1:329 2:205 
0.9038516633412651 1:330 2:208 
0.9038574824297301 1:333 2:213 
0.9038744977091685 1:338 2:219 
0.8978196640475287 1:340 2:222 
0.9039253537537474 1:343 2:228 
0.9034664221507025 1:346 2:231 
0.9037531581150545 1:350 2:236 
0.7962346224817086 1:352 2:240 
0.8975227108142206 1:356 2:245 
0.8978437245920847 1:367 2:279 
0.8917823670126995 1:368 2:281 
0.8978429538806161 1:369 2:283 
0.8979320659289746 1:372 2:286 
0.9039743572060858 1:374 2:291 
0.9040744604249571 1:376 2:294 
0.9039419236777509 1:379 2:298 
0.9037893281156972 1:383 2:302 
0.9038105045583398 1:383 2:305 
0.8876091425318638 1:386 2:308 
0.8875898487560269 1:386 2:310 
0.9037919977576458 1:361 2:263 
0.9039090351431996 1:364 2:266 
0.9037188188608836 1:367 2:271 
0.6606816935605473 1:372 2:275 
0.9037966348933445 1:371 2:278 
0.8877312590207165 1:374 2:283 
0.8815741990952869 1:374 2:285 
0.9039412615528595 1:377 2:289 
0.9040525814781619 1:379 2:293 
0.9039917984434457 1:382 2:297 
0.9039220016736564 1:386 2:302 
-1 1:287 2:26 
-0.08988955828224943 1:289 2:25 
-0.9991547383700679 1:289 2:25 
-0.9532246433584965 1:292 2:26 
-0.9601859424476304 1:291 2:27 
-0.953029979752581 1:293 2:28 
-0.9605421031832582 1:294 2:27 
-1 1:297 2:28 
-1 1:299 2:28 
-1 1:281 2:43 
-0.801336248698407 1:285 2:45 
-0.7840295550807841 1:285 2:46 
-0.9454148242132022 1:287 2:46 
-0.9678658626254044 1:288 2:47 
-0.9654050082316601 1:293 2:49 
-0.9651123580050969 1:294 2:50 
-0.983720583255833 1:297 2:51 
-0.8298152630278386 1:298 2:52 
-0.983498758339057 1:299 2:53 
-1 1:303 2:55 
-0.09584727154089512 1:257 2:32 
-0.09560800316725429 1:264 2:34 
-0.07602918857377636 1:266 2:36 
-0.07614612067085996 1:268 2:36 
-0.09581368424503184 1:271 2:37 
-0.0009626690428987186 1:274 2:38 
-0.003308529078329632 1:275 2:39 
-0.003215552622015519 1:278 2:39 
-1 1:257 2:32 
-0.9654334383260247 1:260 2:33 
-0.9652741834432346 1:261 2:34 
-1 1:264 2:34 
-1 1:266 2:36 
-1 1:268 2:36 
-1 1:271 2:37 
-0.9653876451372757 1:274 2:38 
-0.9554578413746811 1:275 2:39 
-0.9630281118916053 1:278 2:39 
-0.9585442518994223 1:277 2:40 
-1 1:335 2:226 
-1 1:339 2:232 
-1 1:341 2:235 
-1 1:344 2:241 
-1 1:346 2:245 
-1 1:348 2:249 
-1 1:353 2:255 
-1 1:355 2:259 
-1 1:357 2:264 
-1 1:360 2:268 
-1 1:362 2:272 
-1 1:300 2:157 
-1 1:303 2:160 
-1 1:305 2:164 
-1 1:306 2:166 
-1 1:309 2:169 
-1 1:311 2:172 
-1 1:314 2:175 
-1 1:316 2:179 
-1 1:318 2:181 
-1 1:318 2:184 
-1 1:320 2:188 
-1 1:269 2:108 
-1 1:269 2:110 
-1 1:272 2:112 
-1 1:276 2:116 
-1 1:278 2:118 
-1 1:281 2:121 
-1 1:282 2:124 
-1 1:287 2:127 
-1 1:288 2:130 
-1 1:289 2:132 
-1 1:293 2:135 
-1 1:253 2:84 
-1 1:255 2:86 
-1 1:258 2:89 
-1 1:260 2:91 
-1 1:261 2:95 
-1 1:266 2:98 
-1 1:267 2:100 
-1 1:271 2:104 
-1 1:274 2:106 
-1 1:274 2:109 
-1 1:278 2:112 
-1 1:298 2:132 
-1 1:300 2:134 
-1 1:303 2:137 
-1 1:306 2:141 
-1 1:307 2:144 
-1 1:309 2:145 
-1 1:310 2:148 
-1 1:313 2:149 
-1 1:315 2:151 
-1 1:315 2:154 
-1 1:319 2:157 
