svm_type c_svc
kernel_type rbf
gamma 2
nr_class 2
total_sv 198
rho -0.0625028
label 1 -1
nr_sv 99 99
SV
0.125 1:303 2:40 
0.125 1:304 2:40 
0.125 1:304 2:41 
0.125 1:305 2:40 
0.125 1:306 2:40 
0.125 1:307 2:42 
0.125 1:309 2:41 
0.125 1:308 2:41 
0.125 1:309 2:42 
0.125 1:308 2:42 
0.125 1:310 2:42 
0.125 1:306 2:0 
0.125 1:307 2:128 
0.125 1:313 2:132 
0.125 1:315 2:135 
0.125 1:317 2:138 
0.125 1:320 2:142 
0.125 1:323 2:144 
0.125 1:328 2:149 
0.125 1:328 2:151 
0.125 1:330 2:154 
0.125 1:333 2:158 
0.125 1:332 2:220 
0.125 1:335 2:225 
0.125 1:339 2:230 
0.125 1:343 2:236 
0.125 1:345 2:240 
0.125 1:349 2:246 
0.125 1:353 2:250 
0.125 1:352 2:255 
0.125 1:355 2:259 
0.125 1:358 2:264 
0.125 1:362 2:269 
0.125 1:310 2:168 
0.125 1:311 2:171 
0.125 1:314 2:174 
0.125 1:317 2:180 
0.125 1:320 2:183 
0.125 1:322 2:187 
0.125 1:324 2:191 
0.125 1:328 2:195 
0.125 1:331 2:200 
0.125 1:334 2:203 
0.125 1:337 2:207 
0.125 1:337 2:216 
0.125 1:341 2:220 
0.125 1:343 2:224 
0.125 1:346 2:228 
0.125 1:348 2:233 
0.125 1:350 2:236 
0.125 1:351 2:239 
0.125 1:354 2:243 
0.125 1:357 2:247 
0.125 1:360 2:251 
0.125 1:364 2:256 
0.125 1:350 2:243 
0.125 1:353 2:245 
0.125 1:357 2:249 
0.125 1:360 2:253 
0.125 1:362 2:258 
0.125 1:364 2:261 
0.125 1:368 2:266 
0.125 1:369 2:269 
0.125 1:371 2:272 
0.125 1:373 2:275 
0.125 1:374 2:279 
0.125 1:327 2:202 
0.125 1:329 2:205 
0.125 1:330 2:208 
0.125 1:333 2:213 
0.125 1:338 2:219 
0.125 1:340 2:222 
0.125 1:343 2:228 
0.125 1:346 2:231 
0.125 1:350 2:236 
0.125 1:352 2:240 
0.125 1:356 2:245 
0.125 1:367 2:279 
0.125 1:368 2:281 
0.125 1:369 2:283 
0.125 1:372 2:286 
0.125 1:374 2:291 
0.125 1:376 2:294 
0.125 1:379 2:298 
0.125 1:383 2:302 
0.125 1:383 2:305 
0.125 1:386 2:308 
0.125 1:386 2:310 
0.125 1:361 2:263 
0.125 1:364 2:266 
0.125 1:367 2:271 
0.125 1:372 2:275 
0.125 1:371 2:278 
0.125 1:374 2:283 
0.125 1:374 2:285 
0.125 1:377 2:289 
0.125 1:379 2:293 
0.125 1:382 2:297 
0.125 1:386 2:302 
-0.125 1:287 2:26 
-0.125 1:289 2:25 
-0.125 1:289 2:25 
-0.125 1:289 2:25 
-0.125 1:292 2:26 
-0.125 1:291 2:27 
-0.125 1:294 2:27 
-0.125 1:293 2:28 
-0.125 1:294 2:27 
-0.125 1:297 2:28 
-0.125 1:299 2:28 
-0.125 1:281 2:43 
-0.125 1:285 2:45 
-0.125 1:285 2:46 
-0.125 1:287 2:46 
-0.125 1:288 2:47 
-0.125 1:293 2:49 
-0.125 1:294 2:50 
-0.125 1:297 2:51 
-0.125 1:298 2:52 
-0.125 1:299 2:53 
-0.125 1:303 2:55 
-0.125 1:257 2:32 
-0.125 1:260 2:33 
-0.125 1:261 2:34 
-0.125 1:264 2:34 
-0.125 1:266 2:36 
-0.125 1:268 2:36 
-0.125 1:271 2:37 
-0.125 1:274 2:38 
-0.125 1:275 2:39 
-0.125 1:278 2:39 
-0.125 1:277 2:40 
-0.125 1:257 2:32 
-0.125 1:260 2:33 
-0.125 1:261 2:34 
-0.125 1:264 2:34 
-0.125 1:266 2:36 
-0.125 1:268 2:36 
-0.125 1:271 2:37 
-0.125 1:274 2:38 
-0.125 1:275 2:39 
-0.125 1:278 2:39 
-0.125 1:277 2:40 
-0.125 1:335 2:226 
-0.125 1:339 2:232 
-0.125 1:341 2:235 
-0.125 1:344 2:241 
-0.125 1:346 2:245 
-0.125 1:348 2:249 
-0.125 1:353 2:255 
-0.125 1:355 2:259 
-0.125 1:357 2:264 
-0.125 1:360 2:268 
-0.125 1:362 2:272 
-0.125 1:300 2:157 
-0.125 1:303 2:160 
-0.125 1:305 2:164 
-0.125 1:306 2:166 
-0.125 1:309 2:169 
-0.125 1:311 2:172 
-0.125 1:314 2:175 
-0.125 1:316 2:179 
-0.125 1:318 2:181 
-0.125 1:318 2:184 
-0.125 1:320 2:188 
-0.125 1:269 2:108 
-0.125 1:269 2:110 
-0.125 1:272 2:112 
-0.125 1:276 2:116 
-0.125 1:278 2:118 
-0.125 1:281 2:121 
-0.125 1:282 2:124 
-0.125 1:287 2:127 
-0.125 1:288 2:130 
-0.125 1:289 2:132 
-0.125 1:293 2:135 
-0.125 1:253 2:84 
-0.125 1:255 2:86 
-0.125 1:258 2:89 
-0.125 1:260 2:91 
-0.125 1:261 2:95 
-0.125 1:266 2:98 
-0.125 1:267 2:100 
-0.125 1:271 2:104 
-0.125 1:274 2:106 
-0.125 1:274 2:109 
-0.125 1:278 2:112 
-0.125 1:298 2:132 
-0.125 1:300 2:134 
-0.125 1:303 2:137 
-0.125 1:306 2:141 
-0.125 1:307 2:144 
-0.125 1:309 2:145 
-0.125 1:310 2:148 
-0.125 1:313 2:149 
-0.125 1:315 2:151 
-0.125 1:315 2:154 
-0.125 1:319 2:157 
