svm_type c_svc
kernel_type rbf
gamma 2
nr_class 2
total_sv 183
rho -0.0626545
label 1 -1
nr_sv 98 85
SV
0.8385236398635751 1:303 2:40 
0.6135816266284229 1:304 2:40 
0.825463450305756 1:304 2:41 
0.7255529193384305 1:305 2:40 
0.8387236767449886 1:306 2:40 
0.8388084241671384 1:307 2:42 
0.7277459436562279 1:309 2:41 
0.7269351700440583 1:308 2:41 
0.6268012978756208 1:309 2:42 
0.627144511662013 1:308 2:42 
0.838611685549985 1:310 2:42 
0.937233176442596 1:306 2:0 
0.9378842880984557 1:307 2:128 
0.9378845157482173 1:313 2:132 
0.9374579879225776 1:315 2:135 
0.9378842880936593 1:317 2:138 
0.9369113452448136 1:320 2:142 
0.9378964901357113 1:323 2:144 
0.9370649461375645 1:328 2:149 
0.9369851069178993 1:328 2:151 
0.9374580457887375 1:330 2:154 
0.937233176442596 1:333 2:158 
0.9372795960433192 1:332 2:220 
1.101257045033436 1:335 2:225 
0.9376559624780737 1:339 2:230 
0.9373049729380968 1:343 2:236 
0.9570524677642144 1:345 2:240 
0.9378875960636628 1:349 2:246 
0.9372152301490041 1:353 2:250 
1.101235358949633 1:352 2:255 
4 1:355 2:259 
1.101247523164996 1:358 2:264 
0.9372930756741603 1:362 2:269 
0.957512179491926 1:310 2:168 
1.101254312748896 1:311 2:171 
1.101293864613863 1:314 2:174 
0.9768470229831027 1:317 2:180 
0.9372677872091757 1:320 2:183 
0.9372730372641973 1:322 2:187 
0.9372317857662991 1:324 2:191 
0.9372713790947772 1:328 2:195 
0.9372247872512098 1:331 2:200 
0.9372080118616037 1:334 2:203 
0.9373315931207786 1:337 2:207 
0.9373304556415697 1:337 2:216 
0.9371911125897362 1:341 2:220 
0.9373790837640044 1:343 2:224 
0.9372336912747637 1:346 2:228 
0.9378779399105026 1:348 2:233 
0.9201647153811616 1:351 2:239 
0.937236940855223 1:354 2:243 
0.9368850164257652 1:357 2:247 
0.9366798408367479 1:360 2:251 
0.9374790175149669 1:364 2:256 
0.9372078062744703 1:350 2:243 
0.9372197547251149 1:353 2:245 
0.9369296643728035 1:357 2:249 
0.9375638244299072 1:360 2:253 
0.9378844104115253 1:362 2:258 
0.9374580509699481 1:364 2:261 
0.9372737024566969 1:368 2:266 
0.9372330689572976 1:369 2:269 
0.9372520946556191 1:371 2:272 
0.8256040435329463 1:373 2:275 
0.9379001445239314 1:374 2:279 
0.9372302260912867 1:327 2:202 
0.9374010458579612 1:329 2:205 
0.937230613120836 1:330 2:208 
0.9378842883496054 1:333 2:213 
0.9372461498926049 1:338 2:219 
0.9372078484643019 1:340 2:222 
0.937699455530386 1:343 2:228 
0.937230106288386 1:346 2:231 
0.9372309857291177 1:350 2:236 
0.9203808342587858 1:352 2:240 
0.9372288653649085 1:356 2:245 
0.9371916928448912 1:367 2:279 
0.9371487834029961 1:368 2:281 
0.9373733249432151 1:369 2:283 
0.937227632307179 1:372 2:286 
0.9372445667350863 1:374 2:291 
0.9372331745042425 1:376 2:294 
0.9373304556416424 1:379 2:298 
0.9372535520002663 1:383 2:302 
0.9372613533999165 1:383 2:305 
0.9366818078167412 1:386 2:308 
0.9371146127829166 1:386 2:310 
0.9372410380285863 1:361 2:263 
0.9372337198251008 1:364 2:266 
0.9378933337084461 1:367 2:271 
0.8253229257258701 1:372 2:275 
0.9372535769349689 1:371 2:278 
0.9368551586021108 1:374 2:283 
0.9375332868874718 1:374 2:285 
0.9372342891199892 1:377 2:289 
0.9374580490463055 1:379 2:293 
0.9372108578411488 1:382 2:297 
0.9372798852567489 1:386 2:302 
-1.062695289571702 1:287 2:26 
-1.062708232981051 1:289 2:25 
-1.043545594622911 1:292 2:26 
-1.043006301723734 1:291 2:27 
-1.043553572022103 1:293 2:28 
-1.043603362885236 1:294 2:27 
-1.061936746685303 1:297 2:28 
-1.062337856206067 1:299 2:28 
-1.062745425848973 1:281 2:43 
-0.9360978102631485 1:285 2:45 
-0.9356094418619698 1:285 2:46 
-1.043295159074317 1:287 2:46 
-1.043659594434576 1:288 2:47 
-1.043653679788747 1:293 2:49 
-1.043669583296238 1:294 2:50 
-1.043886593124616 1:297 2:51 
-1.024419732595271 1:298 2:52 
-1.043824406294913 1:299 2:53 
-1.062758786334253 1:303 2:55 
-1.062668404728092 1:257 2:32 
-1.043652942989868 1:260 2:33 
-1.043613433815665 1:261 2:34 
-1.062541818843693 1:264 2:34 
-1.062293103511086 1:266 2:36 
-1.062389651210217 1:268 2:36 
-1.062758781994815 1:271 2:37 
-1.043670823657737 1:274 2:38 
-1.043578727998624 1:275 2:39 
-1.043679875031062 1:278 2:39 
-1.042961005618761 1:277 2:40 
-1.21176645703718 1:335 2:226 
-1.063034852465208 1:339 2:232 
-1.062801513272419 1:341 2:235 
-1.080075400652542 1:344 2:241 
-1.06266757894142 1:346 2:245 
-1.063004966998071 1:348 2:249 
-1.211734276680449 1:353 2:255 
-4 1:355 2:259 
-1.211772361229282 1:357 2:264 
-1.062808889347765 1:360 2:268 
-1.062756967742764 1:362 2:272 
-1.063000087028031 1:300 2:157 
-1.062694096321018 1:303 2:160 
-1.062698181145609 1:305 2:164 
-1.06271586229717 1:306 2:166 
-1.080296087228258 1:309 2:169 
-1.211752202898135 1:311 2:172 
-1.211787025957755 1:314 2:175 
-1.080660085758288 1:316 2:179 
-1.080429750216465 1:318 2:181 
-1.06280824631314 1:318 2:184 
-1.06277723243339 1:320 2:188 
-1.06231187800845 1:269 2:108 
-1.06221460731615 1:269 2:110 
-1.062416548949052 1:272 2:112 
-1.06211536471447 1:276 2:116 
-1.062115364714469 1:278 2:118 
-1.062769382756474 1:281 2:121 
-1.062784635276523 1:282 2:124 
-1.062755038287145 1:287 2:127 
-1.062706938458403 1:288 2:130 
-1.062734141734829 1:289 2:132 
-1.062789140225693 1:293 2:135 
-1.062115592044685 1:253 2:84 
-1.062829547011698 1:255 2:86 
-1.062112286666593 1:258 2:89 
-1.062751182416324 1:260 2:91 
-1.063003362417948 1:261 2:95 
-1.062708716936438 1:266 2:98 
-1.062480280123697 1:267 2:100 
-1.062791988132963 1:271 2:104 
-1.062694080112735 1:274 2:106 
-1.062668195117855 1:274 2:109 
-1.062792191782892 1:278 2:112 
-1.062700423215458 1:298 2:132 
-1.062742991262661 1:300 2:134 
-1.06272629561151 1:303 2:137 
-1.062620914040808 1:306 2:141 
-1.062699664303893 1:307 2:144 
-1.062493712848875 1:309 2:145 
-1.062755428876202 1:310 2:148 
-1.062106439400797 1:313 2:149 
-1.062693960617869 1:315 2:151 
-1.06230051406002 1:315 2:154 
-1.062103509859502 1:319 2:157 
