svm_type c_svc
kernel_type rbf
gamma 4
nr_class 2
total_sv 183
rho -0.0701263
label 1 -1
nr_sv 98 85
SV
0.9134405241937377 1:303 2:40 
0.8797952767115137 1:304 2:40 
0.9133608274540447 1:304 2:41 
0.8968352762270124 1:305 2:40 
0.9136462599999714 1:306 2:40 
0.9135062021432565 1:307 2:42 
0.8965535208400672 1:309 2:41 
0.8964179919062041 1:308 2:41 
0.8796038008339043 1:309 2:42 
0.8796020255153952 1:308 2:42 
0.9131596453373808 1:310 2:42 
0.9291126646862801 1:306 2:0 
0.9299072710038093 1:307 2:128 
0.9299548628051008 1:313 2:132 
0.92987981831086 1:315 2:135 
0.929808439325766 1:317 2:138 
0.9298345269323727 1:320 2:142 
0.9299014084681809 1:323 2:144 
0.9298347242863961 1:328 2:149 
0.929879885831584 1:328 2:151 
0.9299072719115861 1:330 2:154 
0.9298164475949844 1:333 2:158 
0.9298799905928502 1:332 2:220 
0.949964784257449 1:335 2:225 
0.9298643477481827 1:339 2:230 
0.9298221203514836 1:343 2:236 
0.930175661121865 1:345 2:240 
0.9298744519810064 1:349 2:246 
0.9299644834348608 1:353 2:250 
0.9499511598910033 1:352 2:255 
4 1:355 2:259 
0.9498681040826141 1:358 2:264 
0.9298747498697016 1:362 2:269 
0.9302385578006456 1:310 2:168 
0.9499640399226847 1:311 2:171 
0.9498681040860886 1:314 2:174 
0.930626092433233 1:317 2:180 
0.9298638150160953 1:320 2:183 
0.9299007204402281 1:322 2:187 
0.9298090362188349 1:324 2:191 
0.9300054188658204 1:328 2:195 
0.930008456322684 1:331 2:200 
0.9300067254880976 1:334 2:203 
0.9300793016302979 1:337 2:207 
0.930091245318453 1:337 2:216 
0.9300792997227152 1:341 2:220 
0.9300826524939526 1:343 2:224 
0.929964157817569 1:346 2:228 
0.9300826524939408 1:348 2:233 
0.929517397892122 1:351 2:239 
0.9298347761586573 1:354 2:243 
0.9298268094552322 1:357 2:247 
0.9300674373976721 1:360 2:251 
0.9299550800073491 1:364 2:256 
0.929553930958798 1:350 2:243 
0.929550939554098 1:353 2:245 
0.9298637083287864 1:357 2:249 
0.9299659852418301 1:360 2:253 
0.9295956419241295 1:362 2:258 
0.9299076885181367 1:364 2:261 
0.9298744519810064 1:368 2:266 
0.929907272722355 1:369 2:269 
0.929971570348581 1:371 2:272 
0.9129493513250044 1:373 2:275 
0.9299658603866102 1:374 2:279 
0.9298193640228938 1:327 2:202 
0.9298345269323727 1:329 2:205 
0.9298084393238677 1:330 2:208 
0.930008456322684 1:333 2:213 
0.929971570348517 1:338 2:219 
0.9298345250125662 1:340 2:222 
0.9300912573537047 1:343 2:228 
0.9300912573536929 1:346 2:231 
0.9300112782872212 1:350 2:236 
0.929242112613255 1:352 2:240 
0.929819362106366 1:356 2:245 
0.9297895483606355 1:367 2:279 
0.9298347761782569 1:368 2:281 
0.9299018432769958 1:369 2:283 
0.9298343303269566 1:372 2:286 
0.9296805257168489 1:374 2:291 
0.9298342971205897 1:376 2:294 
0.9299076885181367 1:379 2:298 
0.9298084393257655 1:383 2:302 
0.9295710123522296 1:383 2:305 
0.9298089303816702 1:386 2:308 
0.9299695082155218 1:386 2:310 
0.9299079249048472 1:361 2:263 
0.9299079249048472 1:364 2:266 
0.9299014076066916 1:367 2:271 
0.9130919163369207 1:372 2:275 
0.9298252968162256 1:371 2:278 
0.9300911522035074 1:374 2:283 
0.929835117054906 1:374 2:285 
0.9299072727223667 1:377 2:289 
0.9299691438185609 1:379 2:293 
0.9298342971205897 1:382 2:297 
0.9299018305234301 1:386 2:302 
-1.070183810805242 1:287 2:26 
-1.070120007323475 1:289 2:25 
-1.069686266068111 1:292 2:26 
-1.069766611924454 1:291 2:27 
-1.070087114941422 1:293 2:28 
-1.069805602237762 1:294 2:27 
-1.070030735683355 1:297 2:28 
-1.070120061138935 1:299 2:28 
-1.069908743000196 1:281 2:43 
-1.050891445859823 1:285 2:45 
-1.050962580632111 1:285 2:46 
-1.069671544006132 1:287 2:46 
-1.069824578521251 1:288 2:47 
-1.069700960146717 1:293 2:49 
-1.06977656076019 1:294 2:50 
-1.069815490687808 1:297 2:51 
-1.069453086611459 1:298 2:52 
-1.069833233714181 1:299 2:53 
-1.070171074076166 1:303 2:55 
-1.070125858455675 1:257 2:32 
-1.069633103801683 1:260 2:33 
-1.069733489561227 1:261 2:34 
-1.070170858787415 1:264 2:34 
-1.070090480574866 1:266 2:36 
-1.070125131774179 1:268 2:36 
-1.070190964830007 1:271 2:37 
-1.069832760297674 1:274 2:38 
-1.069675248503484 1:275 2:39 
-1.06976685307074 1:278 2:39 
-1.069630629616883 1:277 2:40 
-1.087423486805412 1:335 2:226 
-1.070183548478816 1:339 2:232 
-1.070183554229016 1:341 2:235 
-1.070476805222706 1:344 2:241 
-1.07084324757287 1:346 2:245 
-1.069920698390165 1:348 2:249 
-1.087497117648146 1:353 2:255 
-4 1:355 2:259 
-1.087433283803872 1:357 2:264 
-1.070044921909254 1:360 2:268 
-1.070098592393297 1:362 2:272 
-1.070033980431497 1:300 2:157 
-1.07012000940715 1:303 2:160 
-1.070191558470839 1:305 2:164 
-1.069931270205183 1:306 2:166 
-1.070758059413632 1:309 2:169 
-1.087433179179186 1:311 2:172 
-1.087432958186645 1:314 2:175 
-1.070411051720363 1:316 2:179 
-1.070476989947444 1:318 2:181 
-1.069908756589161 1:318 2:184 
-1.070183554233753 1:320 2:188 
-1.070030266866264 1:269 2:108 
-1.070021942728022 1:269 2:110 
-1.070092728996191 1:272 2:112 
-1.070191997236723 1:276 2:116 
-1.070092311489154 1:278 2:118 
-1.070033910092867 1:281 2:121 
-1.070120443826885 1:282 2:124 
-1.07009816947657 1:287 2:127 
-1.070022060938924 1:288 2:130 
-1.070404355870379 1:289 2:132 
-1.070190963781165 1:293 2:135 
-1.070165667756497 1:253 2:84 
-1.07003085610949 1:255 2:86 
-1.069990855290297 1:258 2:89 
-1.070153043843247 1:260 2:91 
-1.0700906010016 1:261 2:95 
-1.070183550199745 1:266 2:98 
-1.069920696187463 1:267 2:100 
-1.069908754695009 1:271 2:104 
-1.069908754695009 1:274 2:106 
-1.070165170924435 1:274 2:109 
-1.070092095487359 1:278 2:112 
-1.070059830199091 1:298 2:132 
-1.070092728088401 1:300 2:134 
-1.070192446210147 1:303 2:137 
-1.070177881854329 1:306 2:141 
-1.070098589326044 1:307 2:144 
-1.070165470862155 1:309 2:145 
-1.069979579137518 1:310 2:148 
-1.070030856181426 1:313 2:149 
-1.07012567416867 1:315 2:151 
-1.070030550500893 1:315 2:154 
-1.069988721712779 1:319 2:157 
