svm_type c_svc
kernel_type rbf
gamma 4
nr_class 2
total_sv 196
rho -0.115894
label 1 -1
nr_sv 98 98
SV
0.8685391511127688 1:303 2:40 
0.8370131265653562 1:304 2:40 
0.868030792833667 1:304 2:41 
0.8525209020069525 1:305 2:40 
0.8684808159616092 1:306 2:40 
0.8680501924933937 1:307 2:42 
0.8525604022023776 1:309 2:41 
0.852788513594764 1:308 2:41 
0.8369189282506642 1:309 2:42 
0.836923146768858 1:308 2:42 
0.8685302237000116 1:310 2:42 
0.8844193885466237 1:306 2:0 
0.884120358381094 1:307 2:128 
0.8840821819447098 1:313 2:132 
0.8841825380027184 1:315 2:135 
0.8840737262742315 1:317 2:138 
0.8840194486363313 1:320 2:142 
0.8839158534178417 1:323 2:144 
0.8839476974567302 1:328 2:149 
0.8841826826403146 1:328 2:151 
0.8844664144948422 1:330 2:154 
0.8841651399995963 1:333 2:158 
0.8841730325846388 1:332 2:220 
0.9022684296015018 1:335 2:225 
0.8839479094935596 1:339 2:230 
0.8841651420567518 1:343 2:236 
0.8845180006269255 1:345 2:240 
0.8841731694309085 1:349 2:246 
0.8839607108489349 1:353 2:250 
0.9022684296015018 1:352 2:255 
1 1:355 2:259 
0.9024074532217998 1:358 2:264 
0.8841576100043514 1:362 2:269 
0.8845006026198052 1:310 2:168 
0.902493178388469 1:311 2:171 
0.9022827814926191 1:314 2:174 
0.8847520135821948 1:317 2:180 
0.8839250468887994 1:320 2:183 
0.8840019495361848 1:322 2:187 
0.8839540952454352 1:324 2:191 
0.8844559426191065 1:328 2:195 
0.8840019474750311 1:331 2:200 
0.8840827834490701 1:334 2:203 
0.8844459392028099 1:337 2:207 
0.8839390563574369 1:337 2:216 
0.8844559407982929 1:341 2:220 
0.8839540858697287 1:343 2:224 
0.8840810883337801 1:346 2:228 
0.8844459392027986 1:348 2:233 
0.8837863484122206 1:351 2:239 
0.8839692674531777 1:354 2:243 
0.8841826808130562 1:357 2:247 
0.8839539863793962 1:360 2:251 
0.883988501065408 1:364 2:256 
0.8841334247232979 1:350 2:243 
0.8839671417866029 1:353 2:245 
0.8839691696283022 1:357 2:249 
0.884082082346725 1:360 2:253 
0.8841825380027069 1:362 2:258 
0.884170576577748 1:364 2:261 
0.8840931570148249 1:368 2:266 
0.8839671421457699 1:369 2:269 
0.884170576577748 1:371 2:272 
0.8680607210507768 1:373 2:275 
0.8840196480218045 1:374 2:279 
0.8840737262742315 1:327 2:202 
0.884120358381094 1:329 2:205 
0.883925044827633 1:330 2:208 
0.8839540952454352 1:333 2:213 
0.8844664144948422 1:338 2:219 
0.8839540933379919 1:340 2:222 
0.8839885010654192 1:343 2:228 
0.8841755137537012 1:346 2:231 
0.8839671436018407 1:350 2:236 
0.8837863484122205 1:352 2:240 
0.8841775372175259 1:356 2:245 
0.8841578824595135 1:367 2:279 
0.8840019437734886 1:368 2:281 
0.8840019455958739 1:369 2:283 
0.8844559475736653 1:372 2:286 
0.8839692691299557 1:374 2:291 
0.8840494035953669 1:376 2:294 
0.8841755137537126 1:379 2:298 
0.8840836921791081 1:383 2:302 
0.8841731694309083 1:383 2:305 
0.883953995628597 1:386 2:308 
0.8844558494243644 1:386 2:310 
0.8840918138749618 1:361 2:263 
0.8841825380027181 1:364 2:266 
0.8840688736444035 1:367 2:271 
0.8681100068124621 1:372 2:275 
0.8840827834490701 1:371 2:278 
0.884160770067735 1:374 2:283 
0.8841650387647351 1:374 2:285 
0.8841782680017 1:377 2:289 
0.8841073673641781 1:379 2:293 
0.8841731694309085 1:382 2:297 
0.8840196480218044 1:386 2:302 
-1 1:287 2:26 
-0.1226895634449564 1:289 2:25 
-0.9931374019092385 1:289 2:25 
-1 1:292 2:26 
-1 1:291 2:27 
-0.1169253166170513 1:294 2:27 
-1 1:293 2:28 
-0.9986555265184791 1:294 2:27 
-1 1:297 2:28 
-1 1:299 2:28 
-1 1:281 2:43 
-1 1:285 2:45 
-1 1:285 2:46 
-1 1:287 2:46 
-1 1:288 2:47 
-1 1:293 2:49 
-1 1:294 2:50 
-1 1:297 2:51 
-1 1:298 2:52 
-1 1:299 2:53 
-1 1:303 2:55 
-0.2406073559789654 1:257 2:32 
-0.1154528756755887 1:260 2:33 
-0.1154923825278483 1:261 2:34 
-0.1158296885509871 1:264 2:34 
-0.1160840209248134 1:266 2:36 
-0.1159436613752288 1:268 2:36 
-0.2409887903481839 1:271 2:37 
-0.115455578391937 1:274 2:38 
-0.1152066789817466 1:275 2:39 
-0.1154474135954434 1:278 2:39 
-0.1158274449829266 1:277 2:40 
-0.8750628922085937 1:257 2:32 
-1 1:260 2:33 
-1 1:261 2:34 
-1 1:264 2:34 
-1 1:266 2:36 
-1 1:268 2:36 
-0.875041940376635 1:271 2:37 
-1 1:274 2:38 
-1 1:275 2:39 
-1 1:278 2:39 
-1 1:277 2:40 
-1 1:335 2:226 
-1 1:339 2:232 
-1 1:341 2:235 
-1 1:344 2:241 
-1 1:346 2:245 
-1 1:348 2:249 
-1 1:353 2:255 
-1 1:355 2:259 
-1 1:357 2:264 
-1 1:360 2:268 
-1 1:362 2:272 
-1 1:300 2:157 
-1 1:303 2:160 
-1 1:305 2:164 
-1 1:306 2:166 
-1 1:309 2:169 
-1 1:311 2:172 
-1 1:314 2:175 
-1 1:316 2:179 
-1 1:318 2:181 
-1 1:318 2:184 
-1 1:320 2:188 
-1 1:269 2:108 
-1 1:269 2:110 
-1 1:272 2:112 
-1 1:276 2:116 
-1 1:278 2:118 
-1 1:281 2:121 
-1 1:282 2:124 
-1 1:287 2:127 
-1 1:288 2:130 
-1 1:289 2:132 
-1 1:293 2:135 
-1 1:253 2:84 
-1 1:255 2:86 
-1 1:258 2:89 
-1 1:260 2:91 
-1 1:261 2:95 
-1 1:266 2:98 
-1 1:267 2:100 
-1 1:271 2:104 
-1 1:274 2:106 
-1 1:274 2:109 
-1 1:278 2:112 
-1 1:298 2:132 
-1 1:300 2:134 
-1 1:303 2:137 
-1 1:306 2:141 
-1 1:307 2:144 
-1 1:309 2:145 
-1 1:310 2:148 
-1 1:313 2:149 
-1 1:315 2:151 
-1 1:315 2:154 
-1 1:319 2:157 
