svm_type c_svc
kernel_type rbf
gamma 0.125
nr_class 2
total_sv 168
rho 0.106597
label 1 -1
nr_sv 85 83
SV
1 1:22 2:147 
0.9305674972247296 1:229 2:147 
0.3543000680747482 1:232 2:149 
0.3529848631896246 1:232 2:148 
0.3395518708822463 1:234 2:150 
0.4702497853246116 1:236 2:150 
0.2339007614429803 1:236 2:151 
0.4970388381310017 1:239 2:152 
0.1184870561074459 1:238 2:152 
0.568378096304339 1:240 2:154 
0.2496038157710481 1:242 2:155 
0.9236260230719675 1:244 2:156 
1 1:273 2:315 
0.8509131107702318 1:276 2:319 
0.6597793617196506 1:279 2:320 
0.4632919639783288 1:279 2:323 
0.4182529862765599 1:280 2:324 
0.6003010631263564 1:282 2:326 
0.5090859316654018 1:284 2:327 
0.5620832816739897 1:286 2:329 
0.215453960339436 1:286 2:330 
0.3592348229360524 1:287 2:332 
0.8666501054699934 1:289 2:333 
1 1:345 2:419 
1 1:348 2:426 
0.8860241860047908 1:351 2:429 
0.9653548244573906 1:352 2:433 
0.7952927506679457 1:355 2:437 
0.7265043502760178 1:357 2:439 
0.7661325790722445 1:360 2:442 
0.2769373626392199 1:362 2:444 
0.7880847054685085 1:363 2:446 
0.8849612161406132 1:366 2:449 
0.009172481706489162 1:317 2:340 
1 1:317 2:340 
0.9287643837056196 1:320 2:343 
0.4157278259447726 1:323 2:346 
0.6299830907301555 1:324 2:346 
0.8246643160880716 1:326 2:350 
0.1837183001458612 1:327 2:352 
0.2174038620755807 1:328 2:352 
0.7712370895804067 1:329 2:354 
0.5112117447030142 1:332 2:356 
0.8190550316092542 1:333 2:358 
0.5696539914011866 1:363 2:440 
0.3615465947427098 1:365 2:440 
0.4891674831254549 1:367 2:443 
0.3347225831520872 1:366 2:441 
0.7729784459286445 1:369 2:445 
0.7167103532826542 1:370 2:449 
0.5683003541394331 1:373 2:450 
0.8873201094171034 1:375 2:452 
0.6877862899476836 1:385 2:460 
0.4466859204940959 1:386 2:459 
0.4603780890267815 1:389 2:461 
0.3963777663474335 1:390 2:461 
0.6215577956085553 1:392 2:463 
0.615958721426609 1:394 2:465 
0.1761581565670186 1:395 2:466 
0.8706214790812182 1:397 2:468 
0.1186520570645998 1:397 2:467 
0.8442430384742642 1:300 2:71 
0.09247220646920631 1:301 2:73 
0.6817965047724122 1:299 2:74 
0.6498615681342069 1:302 2:76 
0.100946681671847 1:303 2:78 
0.5671363815119469 1:304 2:78 
0.1791649622969498 1:305 2:80 
0.9196185403441453 1:305 2:82 
1 1:428 2:368 
0.7171492693292637 1:430 2:372 
0.4245711715129498 1:432 2:373 
0.3621455593212821 1:432 2:375 
0.5887624979369717 1:433 2:377 
0.6747373374411493 1:435 2:379 
0.1385514613828733 1:435 2:381 
0.948128658042009 1:436 2:383 
1 1:420 2:43 
0.49136302958503 1:427 2:382 
0.3525440768688475 1:429 2:384 
0.5544183231611551 1:426 2:383 
0.6468267742494471 1:429 2:386 
0.6811454818011538 1:431 2:389 
0.2669524520069902 1:432 2:390 
0.9740087854442958 1:433 2:393 
-0.6559453170502894 1:287 2:26 
-0.375746544812306 1:289 2:25 
-0.2644666025032103 1:292 2:26 
-0.1821548391202074 1:291 2:27 
-0.3736681077621565 1:293 2:28 
-0.26218260568971 1:294 2:27 
-0.3573836648104028 1:297 2:28 
-0.6619582595135146 1:299 2:28 
-0.8073897465141248 1:281 2:43 
-0.4975757004484701 1:285 2:45 
-0.2141117665431183 1:285 2:46 
-0.7150959410783196 1:288 2:47 
-0.6726379800111933 1:293 2:49 
-0.1993103703539566 1:294 2:50 
-0.5528936589165681 1:297 2:51 
-0.6167807894898411 1:299 2:53 
-0.8418181130521522 1:303 2:55 
-0.782179712481969 1:257 2:32 
-0.2587514667816869 1:260 2:33 
-0.4429626466179203 1:261 2:34 
-0.5348943489525015 1:264 2:34 
-0.3990185011851274 1:266 2:36 
-0.4314217372924157 1:268 2:36 
-0.6013938888196259 1:271 2:37 
-0.4823280045902834 1:274 2:38 
-0.1561154627974635 1:275 2:39 
-0.5615511285763882 1:278 2:39 
-0.2398572374703348 1:277 2:40 
-0.8923695335621422 1:335 2:226 
-0.7459890256296468 1:339 2:232 
-0.7434070845616597 1:341 2:235 
-0.8289663004426484 1:344 2:241 
-0.7571033227508719 1:346 2:245 
-0.8307774978161225 1:348 2:249 
-0.8273806534457661 1:353 2:255 
-0.8031602696083332 1:355 2:259 
-0.8374847520137596 1:357 2:264 
-0.7888265676996316 1:360 2:268 
-0.829102849520495 1:362 2:272 
-0.8131608012141698 1:300 2:157 
-0.7605438634293338 1:303 2:160 
-0.5463379761134201 1:305 2:164 
-0.5240668486043161 1:306 2:166 
-0.7017175878739756 1:309 2:169 
-0.6738752784197037 1:311 2:172 
-0.7681142719660534 1:314 2:175 
-0.6527229382981607 1:316 2:179 
-0.4346465505077907 1:318 2:181 
-0.6663010279397747 1:318 2:184 
-0.83781795551046 1:320 2:188 
-0.5147378866976878 1:269 2:108 
-0.4225099125824034 1:269 2:110 
-0.6665331249692689 1:272 2:112 
-0.5924324401579035 1:276 2:116 
-0.5995549202677473 1:278 2:118 
-0.6276332354939615 1:281 2:121 
-0.7015462665819608 1:282 2:124 
-0.7762683306467555 1:287 2:127 
-0.3113001395312268 1:288 2:130 
-0.6686553221925966 1:289 2:132 
-0.8530958710570208 1:293 2:135 
-0.6801206857124318 1:253 2:84 
-0.5762641869459055 1:255 2:86 
-0.6199615387999114 1:258 2:89 
-0.5668908842992699 1:260 2:91 
-0.8148281779017819 1:261 2:95 
-0.5756779148951902 1:266 2:98 
-0.571593622900569 1:267 2:100 
-0.7177552718206592 1:271 2:104 
-0.5698680741339653 1:274 2:106 
-0.4942265706581628 1:274 2:109 
-0.8080776741179159 1:278 2:112 
-0.6737890653240112 1:298 2:132 
-0.5593665321684431 1:300 2:134 
-0.8011488563846773 1:303 2:137 
-0.7193510101851608 1:306 2:141 
-0.4134729204296809 1:307 2:144 
-0.4632066602222829 1:309 2:145 
-0.5845204322011558 1:310 2:148 
-0.5273338686734276 1:313 2:149 
-0.4654262895873011 1:315 2:151 
-0.6904489111500571 1:315 2:154 
-0.86202261815438 1:319 2:157 
