svm_type c_svc
kernel_type rbf
gamma 0.25
nr_class 2
total_sv 198
rho -0.0822918
label 1 -1
nr_sv 99 99
SV
0.25 1:22 2:147 
0.25 1:229 2:147 
0.25 1:232 2:149 
0.25 1:232 2:148 
0.25 1:234 2:150 
0.25 1:236 2:150 
0.25 1:236 2:151 
0.25 1:239 2:152 
0.25 1:238 2:152 
0.25 1:240 2:154 
0.25 1:242 2:155 
0.25 1:244 2:156 
0.25 1:273 2:315 
0.25 1:276 2:319 
0.25 1:279 2:320 
0.25 1:279 2:323 
0.25 1:280 2:324 
0.25 1:282 2:326 
0.25 1:284 2:327 
0.25 1:286 2:329 
0.25 1:286 2:330 
0.25 1:287 2:332 
0.25 1:289 2:333 
0.25 1:345 2:419 
0.25 1:348 2:426 
0.25 1:351 2:429 
0.25 1:352 2:433 
0.25 1:355 2:437 
0.25 1:357 2:439 
0.25 1:360 2:442 
0.25 1:361 2:443 
0.25 1:362 2:444 
0.25 1:363 2:446 
0.25 1:366 2:449 
0.25 1:317 2:340 
0.25 1:317 2:340 
0.25 1:320 2:343 
0.25 1:323 2:346 
0.25 1:324 2:346 
0.25 1:326 2:350 
0.25 1:327 2:352 
0.25 1:328 2:352 
0.25 1:329 2:354 
0.25 1:332 2:356 
0.25 1:333 2:358 
0.25 1:363 2:440 
0.25 1:363 2:440 
0.25 1:365 2:440 
0.25 1:365 2:442 
0.25 1:367 2:443 
0.25 1:366 2:441 
0.25 1:369 2:445 
0.25 1:370 2:449 
0.25 1:373 2:450 
0.25 1:375 2:452 
0.25 1:375 2:452 
0.25 1:385 2:460 
0.25 1:386 2:459 
0.25 1:389 2:461 
0.25 1:390 2:461 
0.25 1:390 2:461 
0.25 1:393 2:464 
0.25 1:392 2:463 
0.25 1:394 2:465 
0.25 1:395 2:466 
0.25 1:397 2:468 
0.25 1:397 2:467 
0.25 1:300 2:71 
0.25 1:300 2:72 
0.25 1:301 2:73 
0.25 1:299 2:74 
0.25 1:302 2:76 
0.25 1:303 2:78 
0.25 1:304 2:78 
0.25 1:305 2:80 
0.25 1:305 2:80 
0.25 1:305 2:82 
0.25 1:428 2:368 
0.25 1:430 2:372 
0.25 1:430 2:372 
0.25 1:432 2:373 
0.25 1:432 2:375 
0.25 1:433 2:377 
0.25 1:435 2:379 
0.25 1:435 2:381 
0.25 1:435 2:380 
0.25 1:436 2:382 
0.25 1:436 2:383 
0.25 1:420 2:43 
0.25 1:427 2:382 
0.25 1:429 2:384 
0.25 1:427 2:383 
0.25 1:426 2:383 
0.25 1:429 2:386 
0.25 1:431 2:389 
0.25 1:432 2:390 
0.25 1:432 2:391 
0.25 1:433 2:393 
0.25 1:432 2:391 
-0.25 1:287 2:26 
-0.25 1:289 2:25 
-0.25 1:289 2:25 
-0.25 1:289 2:25 
-0.25 1:292 2:26 
-0.25 1:291 2:27 
-0.25 1:294 2:27 
-0.25 1:293 2:28 
-0.25 1:294 2:27 
-0.25 1:297 2:28 
-0.25 1:299 2:28 
-0.25 1:281 2:43 
-0.25 1:285 2:45 
-0.25 1:285 2:46 
-0.25 1:287 2:46 
-0.25 1:288 2:47 
-0.25 1:293 2:49 
-0.25 1:294 2:50 
-0.25 1:297 2:51 
-0.25 1:298 2:52 
-0.25 1:299 2:53 
-0.25 1:303 2:55 
-0.25 1:257 2:32 
-0.25 1:260 2:33 
-0.25 1:261 2:34 
-0.25 1:264 2:34 
-0.25 1:266 2:36 
-0.25 1:268 2:36 
-0.25 1:271 2:37 
-0.25 1:274 2:38 
-0.25 1:275 2:39 
-0.25 1:278 2:39 
-0.25 1:277 2:40 
-0.25 1:257 2:32 
-0.25 1:260 2:33 
-0.25 1:261 2:34 
-0.25 1:264 2:34 
-0.25 1:266 2:36 
-0.25 1:268 2:36 
-0.25 1:271 2:37 
-0.25 1:274 2:38 
-0.25 1:275 2:39 
-0.25 1:278 2:39 
-0.25 1:277 2:40 
-0.25 1:335 2:226 
-0.25 1:339 2:232 
-0.25 1:341 2:235 
-0.25 1:344 2:241 
-0.25 1:346 2:245 
-0.25 1:348 2:249 
-0.25 1:353 2:255 
-0.25 1:355 2:259 
-0.25 1:357 2:264 
-0.25 1:360 2:268 
-0.25 1:362 2:272 
-0.25 1:300 2:157 
-0.25 1:303 2:160 
-0.25 1:305 2:164 
-0.25 1:306 2:166 
-0.25 1:309 2:169 
-0.25 1:311 2:172 
-0.25 1:314 2:175 
-0.25 1:316 2:179 
-0.25 1:318 2:181 
-0.25 1:318 2:184 
-0.25 1:320 2:188 
-0.25 1:269 2:108 
-0.25 1:269 2:110 
-0.25 1:272 2:112 
-0.25 1:276 2:116 
-0.25 1:278 2:118 
-0.25 1:281 2:121 
-0.25 1:282 2:124 
-0.25 1:287 2:127 
-0.25 1:288 2:130 
-0.25 1:289 2:132 
-0.25 1:293 2:135 
-0.25 1:253 2:84 
-0.25 1:255 2:86 
-0.25 1:258 2:89 
-0.25 1:260 2:91 
-0.25 1:261 2:95 
-0.25 1:266 2:98 
-0.25 1:267 2:100 
-0.25 1:271 2:104 
-0.25 1:274 2:106 
-0.25 1:274 2:109 
-0.25 1:278 2:112 
-0.25 1:298 2:132 
-0.25 1:300 2:134 
-0.25 1:303 2:137 
-0.25 1:306 2:141 
-0.25 1:307 2:144 
-0.25 1:309 2:145 
-0.25 1:310 2:148 
-0.25 1:313 2:149 
-0.25 1:315 2:151 
-0.25 1:315 2:154 
-0.25 1:319 2:157 
