svm_type c_svc
kernel_type rbf
gamma 1
nr_class 2
total_sv 180
rho 0.0112234
label 1 -1
nr_sv 95 85
SV
1 1:22 2:147 
1 1:229 2:147 
0.732075254206386 1:232 2:149 
0.741146766944911 1:232 2:148 
0.9882170280840047 1:234 2:150 
0.7228611977808893 1:236 2:150 
0.7338197639129276 1:236 2:151 
0.733575972660748 1:239 2:152 
0.7360329641656304 1:238 2:152 
0.9993132630712989 1:240 2:154 
0.9978223712474749 1:242 2:155 
1 1:244 2:156 
1 1:273 2:315 
1 1:276 2:319 
1 1:279 2:320 
0.8906430519819076 1:279 2:323 
0.890373697671585 1:280 2:324 
1 1:282 2:326 
1 1:284 2:327 
0.7418617326750979 1:286 2:329 
0.7312544690126681 1:286 2:330 
0.9991895089524692 1:287 2:332 
1 1:289 2:333 
1 1:345 2:419 
1 1:348 2:426 
1 1:351 2:429 
1 1:352 2:433 
1 1:355 2:437 
1 1:357 2:439 
0.9072969733615825 1:360 2:442 
0.7669760238709487 1:361 2:443 
0.9005975025044934 1:362 2:444 
1 1:363 2:446 
1 1:366 2:449 
0.01083974011420713 1:317 2:340 
1 1:317 2:340 
1 1:320 2:343 
0.7395633302381707 1:323 2:346 
0.7392392100848936 1:324 2:346 
1 1:326 2:350 
0.7339201887088309 1:327 2:352 
0.7346244691207285 1:328 2:352 
1 1:329 2:354 
1 1:332 2:356 
1 1:333 2:358 
0.994926531302627 1:363 2:440 
0.8732955858741496 1:365 2:440 
0.8847780989106666 1:365 2:442 
0.9998084385507482 1:367 2:443 
0.7663498273933134 1:366 2:441 
1 1:369 2:445 
1 1:370 2:449 
1 1:373 2:450 
0.01107030899788226 1:375 2:452 
1 1:375 2:452 
0.8901586167825355 1:385 2:460 
0.8911020693398359 1:386 2:459 
0.7393045516386696 1:389 2:461 
0.7388309510349349 1:390 2:461 
0.7825350189794024 1:393 2:464 
0.904585464964432 1:392 2:463 
0.7834761211103842 1:394 2:465 
0.8997855400078987 1:395 2:466 
0.741142125290964 1:397 2:468 
0.7325672656091404 1:397 2:467 
0.7884135054949636 1:300 2:71 
0.5899697912593314 1:300 2:72 
0.9197226011950108 1:301 2:73 
1 1:299 2:74 
1 1:302 2:76 
0.734454994630369 1:303 2:78 
0.7337067202032553 1:304 2:78 
0.9880054182811231 1:305 2:80 
0.9926423731018688 1:305 2:82 
1 1:428 2:368 
0.004539743491163683 1:430 2:372 
1 1:430 2:372 
0.9859453312032462 1:432 2:373 
0.9868727368739236 1:432 2:375 
1 1:433 2:377 
0.8423111799478959 1:435 2:379 
0.7517185623596444 1:435 2:381 
0.4208213486738958 1:435 2:380 
0.6205895273402264 1:436 2:382 
0.7773385410771628 1:436 2:383 
1 1:420 2:43 
0.7411995176618701 1:427 2:382 
0.9898140772922241 1:429 2:384 
0.458941772863305 1:427 2:383 
0.7421056185445094 1:426 2:383 
0.9925807472166505 1:429 2:386 
0.9247288570793498 1:431 2:389 
0.5998873909641841 1:432 2:390 
1 1:433 2:393 
0.7779744528032845 1:432 2:391 
-0.9821057920644298 1:287 2:26 
-0.9818353070628797 1:289 2:25 
-0.8595230106841577 1:292 2:26 
-0.8662261256915254 1:291 2:27 
-0.8599287135810993 1:293 2:28 
-0.8662850903239618 1:294 2:27 
-0.9710768227919679 1:297 2:28 
-0.9708822657577451 1:299 2:28 
-0.9892111807653956 1:281 2:43 
-0.7232934299389218 1:285 2:45 
-0.7070010113777401 1:285 2:46 
-0.8532441033862949 1:287 2:46 
-0.8732102532182142 1:288 2:47 
-0.870997068452249 1:293 2:49 
-0.8706975081858632 1:294 2:50 
-0.8871345829186972 1:297 2:51 
-0.748426388116029 1:298 2:52 
-0.887195805870427 1:299 2:53 
-0.9886603880622238 1:303 2:55 
-0.9883967999562188 1:257 2:32 
-0.8707972435261114 1:260 2:33 
-0.8709377873190602 1:261 2:34 
-0.9882748002472036 1:264 2:34 
-0.9704760423629878 1:266 2:36 
-0.9711185296291849 1:268 2:36 
-0.9886242279621942 1:271 2:37 
-0.871705621211685 1:274 2:38 
-0.8644262682375954 1:275 2:39 
-0.8717813079729546 1:278 2:39 
-0.8648812771374256 1:277 2:40 
-0.9891167765148088 1:335 2:226 
-0.9887563030390627 1:339 2:232 
-0.9888963962801652 1:341 2:235 
-0.988711283774401 1:344 2:241 
-0.9887737489576321 1:346 2:245 
-0.9887281124055176 1:348 2:249 
-0.9886001013882131 1:353 2:255 
-0.9892292640460177 1:355 2:259 
-0.9889801217482986 1:357 2:264 
-0.9892438014220275 1:360 2:268 
-0.9887151279068431 1:362 2:272 
-0.9892044588674679 1:300 2:157 
-0.9887280973537478 1:303 2:160 
-0.9825995447763695 1:305 2:164 
-0.982301989857708 1:306 2:166 
-0.9883265748550549 1:309 2:169 
-0.9885536435299934 1:311 2:172 
-0.9889925684842839 1:314 2:175 
-0.9883763906702023 1:316 2:179 
-0.9885357751990773 1:318 2:181 
-0.9885095130572433 1:318 2:184 
-0.9884731566942323 1:320 2:188 
-0.9709334720089213 1:269 2:108 
-0.9710007901356038 1:269 2:110 
-0.9892600746561224 1:272 2:112 
-0.9883696942251751 1:276 2:116 
-0.9884082918850128 1:278 2:118 
-0.9885286237211808 1:281 2:121 
-0.9886722733930514 1:282 2:124 
-0.9887702592452501 1:287 2:127 
-0.9820472059950864 1:288 2:130 
-0.9820943037756426 1:289 2:132 
-0.9892135274871019 1:293 2:135 
-0.9886042017131929 1:253 2:84 
-0.9883743119652896 1:255 2:86 
-0.9883582874524623 1:258 2:89 
-0.9881663496472288 1:260 2:91 
-0.9889274657495428 1:261 2:95 
-0.9823726474650325 1:266 2:98 
-0.9824859305162041 1:267 2:100 
-0.9887064080651885 1:271 2:104 
-0.9885785471046094 1:274 2:106 
-0.9885908935860005 1:274 2:109 
-0.9883858905914115 1:278 2:112 
-0.988412383078607 1:298 2:132 
-0.9883853829132548 1:300 2:134 
-0.9889226934963672 1:303 2:137 
-0.9885961806692689 1:306 2:141 
-0.9821837739426595 1:307 2:144 
-0.9820725367761294 1:309 2:145 
-0.9886928477042133 1:310 2:148 
-0.9880825624131871 1:313 2:149 
-0.9881985262843984 1:315 2:151 
-0.9891500557284435 1:315 2:154 
-0.9889919076862435 1:319 2:157 
