svm_type c_svc
kernel_type rbf
gamma 2
nr_class 2
total_sv 190
rho -0.0308991
label 1 -1
nr_sv 92 98
SV
0.9689580653365059 1:22 2:147 
0.969129102633084 1:229 2:147 
0.8537114201114452 1:232 2:149 
0.8536739555452548 1:232 2:148 
0.9688371812261951 1:234 2:150 
0.8532610856550986 1:236 2:150 
0.8536102727796803 1:236 2:151 
0.8537183791181403 1:239 2:152 
0.8529839771833381 1:238 2:152 
0.9688380255931462 1:240 2:154 
0.9692317913379342 1:242 2:155 
0.9690233634539089 1:244 2:156 
0.9691041543723578 1:273 2:315 
0.9691818019839388 1:276 2:319 
0.9694032743115634 1:279 2:320 
0.9514744720034112 1:279 2:323 
0.9518664841872607 1:280 2:324 
0.9687522796136462 1:282 2:326 
0.9685119712600974 1:284 2:327 
0.8537861234033863 1:286 2:329 
0.8534589724130398 1:286 2:330 
0.96923261272543 1:287 2:332 
0.9691911452669641 1:289 2:333 
0.9691819369513685 1:345 2:419 
0.9692264382015587 1:348 2:426 
0.9692731805468107 1:351 2:429 
0.9692507012388285 1:352 2:433 
0.9695197482653395 1:355 2:437 
0.9694412848153021 1:357 2:439 
0.9515555526463585 1:360 2:442 
0.9337394883333064 1:361 2:443 
0.9518675424817683 1:362 2:444 
0.9691179150199356 1:363 2:446 
0.9691558447243334 1:366 2:449 
0.9692225885723973 1:317 2:340 
0.9692235301724043 1:320 2:343 
0.8536325752874604 1:323 2:346 
0.8535190500935691 1:324 2:346 
0.9690215809793457 1:326 2:350 
0.8535956110227033 1:327 2:352 
0.8531798961022535 1:328 2:352 
0.9692487799601693 1:329 2:354 
0.9690063762424136 1:332 2:356 
0.9688254484124785 1:333 2:358 
0.9684973147182286 1:363 2:440 
0.9511717878820886 1:365 2:440 
0.9517636022093037 1:365 2:442 
0.9686396178099415 1:367 2:443 
0.933822053048022 1:366 2:441 
0.9693170294015189 1:369 2:445 
0.9693237569714819 1:370 2:449 
0.9691190772951662 1:373 2:450 
0.9693594082127039 1:375 2:452 
0.9518881954772128 1:385 2:460 
0.9516275658328828 1:386 2:459 
0.8535897772329647 1:389 2:461 
0.8537453865134333 1:390 2:461 
0.934514538501378 1:393 2:464 
0.952012671602595 1:392 2:463 
0.9347176209626847 1:394 2:465 
0.9519021662551805 1:395 2:466 
0.8534853247930951 1:397 2:468 
0.8536447405300681 1:397 2:467 
0.8558237963496398 1:300 2:71 
0.8359864564299668 1:300 2:72 
0.9533800826360344 1:301 2:73 
0.9693600959054997 1:299 2:74 
0.9685218160405993 1:302 2:76 
0.8534343968039325 1:303 2:78 
0.8538560530186551 1:304 2:78 
0.9688305903067522 1:305 2:80 
0.9688066429961177 1:305 2:82 
0.9691953956166113 1:428 2:368 
0.9690751292333419 1:430 2:372 
0.9687922307025595 1:432 2:373 
0.9684484757129073 1:432 2:375 
0.9693592256398034 1:433 2:377 
0.8693578656038931 1:435 2:379 
0.8539688593437365 1:435 2:381 
0.7357954811340963 1:435 2:380 
0.8378834401080282 1:436 2:382 
0.8556116920924693 1:436 2:383 
0.9691048285492824 1:420 2:43 
0.8536975023115198 1:427 2:382 
0.9689340089592946 1:429 2:384 
0.737928388329299 1:427 2:383 
0.853639605395127 1:426 2:383 
0.9690321996000905 1:429 2:386 
0.9536195204313391 1:431 2:389 
0.8357901533380744 1:432 2:390 
0.9687592197049395 1:433 2:393 
0.8560478024808138 1:432 2:391 
-1 1:287 2:26 
-0.03136260406690247 1:289 2:25 
-1 1:289 2:25 
-1 1:292 2:26 
-1 1:291 2:27 
-0.01592552476969301 1:294 2:27 
-1 1:293 2:28 
-0.9964867057722139 1:294 2:27 
-1 1:297 2:28 
-1 1:299 2:28 
-1 1:281 2:43 
-0.9085514260920519 1:285 2:45 
-0.9076123089130174 1:285 2:46 
-1 1:287 2:46 
-1 1:288 2:47 
-1 1:293 2:49 
-1 1:294 2:50 
-1 1:297 2:51 
-0.9947348942156231 1:298 2:52 
-1 1:299 2:53 
-1 1:303 2:55 
-0.03113057944660173 1:257 2:32 
-0.01638829538497065 1:260 2:33 
-0.01562752011458479 1:261 2:34 
-0.03127417442241791 1:264 2:34 
-0.03328603256027846 1:266 2:36 
-0.03085701158464319 1:268 2:36 
-0.03103497303481439 1:271 2:37 
-0.01624747123873967 1:274 2:38 
-0.01435575430138765 1:275 2:39 
-0.01609605073875426 1:278 2:39 
-0.01517905728816815 1:277 2:40 
-1 1:257 2:32 
-0.9959056807482091 1:260 2:33 
-0.9966239480288643 1:261 2:34 
-1 1:264 2:34 
-0.9972121926624666 1:266 2:36 
-1 1:268 2:36 
-1 1:271 2:37 
-0.9959920155144079 1:274 2:38 
-0.9977346986548257 1:275 2:39 
-0.9961671725542863 1:278 2:39 
-0.9971414795013841 1:277 2:40 
-1 1:335 2:226 
-1 1:339 2:232 
-1 1:341 2:235 
-1 1:344 2:241 
-1 1:346 2:245 
-1 1:348 2:249 
-1 1:353 2:255 
-1 1:355 2:259 
-1 1:357 2:264 
-1 1:360 2:268 
-1 1:362 2:272 
-1 1:300 2:157 
-1 1:303 2:160 
-1 1:305 2:164 
-1 1:306 2:166 
-1 1:309 2:169 
-1 1:311 2:172 
-1 1:314 2:175 
-1 1:316 2:179 
-1 1:318 2:181 
-1 1:318 2:184 
-1 1:320 2:188 
-1 1:269 2:108 
-1 1:269 2:110 
-1 1:272 2:112 
-1 1:276 2:116 
-1 1:278 2:118 
-1 1:281 2:121 
-1 1:282 2:124 
-1 1:287 2:127 
-1 1:288 2:130 
-1 1:289 2:132 
-1 1:293 2:135 
-1 1:253 2:84 
-1 1:255 2:86 
-1 1:258 2:89 
-1 1:260 2:91 
-1 1:261 2:95 
-1 1:266 2:98 
-1 1:267 2:100 
-1 1:271 2:104 
-1 1:274 2:106 
-1 1:274 2:109 
-1 1:278 2:112 
-1 1:298 2:132 
-1 1:300 2:134 
-1 1:303 2:137 
-1 1:306 2:141 
-1 1:307 2:144 
-1 1:309 2:145 
-1 1:310 2:148 
-1 1:313 2:149 
-1 1:315 2:151 
-1 1:315 2:154 
-1 1:319 2:157 
