svm_type c_svc
kernel_type rbf
gamma 4
nr_class 2
total_sv 177
rho -0.0366223
label 1 -1
nr_sv 92 85
SV
0.9638113795200004 1:22 2:147 
0.9638115997572404 1:229 2:147 
0.9458035415697783 1:232 2:149 
0.9457982263044561 1:232 2:148 
0.9631209707147165 1:234 2:150 
0.9464156310510697 1:236 2:150 
0.9457693866523575 1:236 2:151 
0.94576978706679 1:239 2:152 
0.9457988425903712 1:238 2:152 
0.9631122188007745 1:240 2:154 
0.9638092791727191 1:242 2:155 
0.9638023216213216 1:244 2:156 
0.9638111873327015 1:273 2:315 
0.9638111872881493 1:276 2:319 
0.9638090615850166 1:279 2:320 
0.9634881880829642 1:279 2:323 
0.9634888948708724 1:280 2:324 
0.9629341349900857 1:282 2:326 
0.9638113775421921 1:284 2:327 
0.945795662090698 1:286 2:329 
0.9457782597170875 1:286 2:330 
0.9631269555050983 1:287 2:332 
0.9638104202908103 1:289 2:333 
0.9631268367715835 1:345 2:419 
0.9631060072964516 1:348 2:426 
0.9631057294790163 1:351 2:429 
0.9631268367715835 1:352 2:433 
0.963098366913673 1:355 2:437 
0.9638067122545707 1:357 2:439 
0.9628154592648256 1:360 2:442 
0.9631570529262665 1:361 2:443 
0.9634889601899789 1:362 2:444 
0.9638121071609527 1:363 2:446 
0.9630983551098529 1:366 2:449 
0.9631115854189017 1:317 2:340 
0.9638090615850168 1:320 2:343 
0.9457951234940828 1:323 2:346 
0.945784056833215 1:324 2:346 
0.9629341350286457 1:326 2:350 
0.9457983639943975 1:327 2:352 
0.9457881765086233 1:328 2:352 
0.9638057578286907 1:329 2:354 
0.9638052090827206 1:332 2:356 
0.9638091851056314 1:333 2:358 
0.9631044202599278 1:363 2:440 
0.9627797058114451 1:365 2:440 
0.962783029002884 1:365 2:442 
0.9631378285093832 1:367 2:443 
0.9624558359276654 1:366 2:441 
0.9638089089627784 1:369 2:445 
0.9631045286065234 1:370 2:449 
0.9631044233518341 1:373 2:450 
0.9638023235927273 1:375 2:452 
0.9634859071696346 1:385 2:460 
0.9634836146785593 1:386 2:459 
0.9457785471909387 1:389 2:461 
0.9457657825372556 1:390 2:461 
0.9631582349690988 1:393 2:464 
0.9627799415611915 1:392 2:463 
0.9631652193265872 1:394 2:465 
0.9634895587823208 1:395 2:466 
0.9457977154899091 1:397 2:468 
0.9457882302523937 1:397 2:467 
0.9457723679767404 1:300 2:71 
0.9454679605704732 1:300 2:72 
0.9627863677252875 1:301 2:73 
0.9638087060087219 1:299 2:74 
0.9631124746126843 1:302 2:76 
0.9457646275141167 1:303 2:78 
0.9457914554067557 1:304 2:78 
0.9631034877101621 1:305 2:80 
0.9631059330809043 1:305 2:82 
0.9638058878687114 1:428 2:368 
0.9631153101968739 1:430 2:372 
0.9631047203309379 1:432 2:373 
0.9631064505816469 1:432 2:375 
0.9638122655250532 1:433 2:377 
0.9461325126000095 1:435 2:379 
0.9458126423395943 1:435 2:381 
0.9284856454070226 1:435 2:380 
0.945448507976495 1:436 2:382 
0.9457850915149336 1:436 2:383 
0.9638057597659249 1:420 2:43 
0.9458160935634548 1:427 2:382 
0.9630939805075351 1:429 2:384 
0.9284923606883397 1:427 2:383 
0.9458022730044008 1:426 2:383 
0.9631027343913577 1:429 2:386 
0.9634895100726772 1:431 2:389 
0.9454648878040424 1:432 2:390 
0.9638052091610195 1:433 2:393 
0.9457941288105706 1:432 2:391 
-1.036897689358442 1:287 2:26 
-1.036898883916469 1:289 2:25 
-1.036536963296263 1:292 2:26 
-1.036539468552452 1:291 2:27 
-1.036550918596807 1:293 2:28 
-1.035852429261471 1:294 2:27 
-1.036887314700245 1:297 2:28 
-1.036189460451374 1:299 2:28 
-1.036896213003635 1:281 2:43 
-1.018474491768093 1:285 2:45 
-1.018474375199294 1:285 2:46 
-1.035843219390699 1:287 2:46 
-1.036539100481186 1:288 2:47 
-1.036549935935842 1:293 2:49 
-1.036540979083139 1:294 2:50 
-1.035847982208355 1:297 2:51 
-1.036192122436501 1:298 2:52 
-1.03654081085251 1:299 2:53 
-1.036188812711851 1:303 2:55 
-1.036191290054576 1:257 2:32 
-1.036541218770316 1:260 2:33 
-1.036531847548944 1:261 2:34 
-1.036187681382719 1:264 2:34 
-1.036893841928407 1:266 2:36 
-1.036188504654115 1:268 2:36 
-1.03618867424885 1:271 2:37 
-1.036550075715754 1:274 2:38 
-1.036539797492947 1:275 2:39 
-1.036548554949767 1:278 2:39 
-1.036540051826939 1:277 2:40 
-1.036194240234075 1:335 2:226 
-1.036188808885183 1:339 2:232 
-1.036188156194932 1:341 2:235 
-1.036187756327859 1:344 2:241 
-1.036187732481198 1:346 2:245 
-1.036187732488243 1:348 2:249 
-1.036187681382732 1:353 2:255 
-1.036873950930738 1:355 2:259 
-1.036898050699129 1:357 2:264 
-1.036898116561531 1:360 2:268 
-1.036897157226692 1:362 2:272 
-1.036897339237963 1:300 2:157 
-1.036887649203279 1:303 2:160 
-1.036873729913643 1:305 2:164 
-1.036886256647848 1:306 2:166 
-1.036898458259496 1:309 2:169 
-1.036898050699129 1:311 2:172 
-1.036893439134747 1:314 2:175 
-1.036898050699116 1:316 2:179 
-1.036187536102753 1:318 2:181 
-1.036193287745417 1:318 2:184 
-1.0368976914941 1:320 2:188 
-1.036893841886244 1:269 2:108 
-1.036188556947644 1:269 2:110 
-1.036886633005434 1:272 2:112 
-1.036897908783307 1:276 2:116 
-1.03689804164585 1:278 2:118 
-1.036895169299098 1:281 2:121 
-1.036191091037209 1:282 2:124 
-1.036896521050349 1:287 2:127 
-1.036187533967018 1:288 2:130 
-1.036190936279766 1:289 2:132 
-1.036898050699129 1:293 2:135 
-1.036194788901716 1:253 2:84 
-1.036888631537983 1:255 2:86 
-1.036887649203265 1:258 2:89 
-1.036187378230292 1:260 2:91 
-1.036898116561531 1:261 2:95 
-1.036188398092867 1:266 2:98 
-1.036893956358162 1:267 2:100 
-1.036876656645848 1:271 2:104 
-1.036188812667298 1:274 2:106 
-1.036194788916385 1:274 2:109 
-1.036187732481198 1:278 2:112 
-1.036888631537983 1:298 2:132 
-1.036187934644794 1:300 2:134 
-1.036188808885183 1:303 2:137 
-1.036194240234075 1:306 2:141 
-1.036873729915069 1:307 2:144 
-1.036194109995689 1:309 2:145 
-1.036193171810635 1:310 2:148 
-1.036882236820958 1:313 2:149 
-1.036187378230292 1:315 2:151 
-1.03619767640726 1:315 2:154 
-1.036192006828156 1:319 2:157 
