svm_type c_svc
kernel_type rbf
gamma 0.125
nr_class 2
total_sv 239
rho -0.175221
label 1 -1
nr_sv 136 103
SV
0.6059960417972066 1:908 2:864 
0.05861270059412098 1:907 2:863 
0.2254414700389463 1:905 2:863 
0.339477806830484 1:905 2:865 
0.1825767389572837 1:900 2:862 
0.2335127974510925 1:903 2:864 
0.3572706553585342 1:901 2:862 
0.5444184145506435 1:896 2:858 
0.5828087413804446 1:893 2:856 
0.2541329412325545 1:900 2:864 
0.3736333719607708 1:896 2:861 
0.0001400544618929081 1:894 2:861 
0.5090879865856149 1:897 2:865 
0.09943800044038709 1:890 2:859 
0.1599103639932525 1:890 2:857 
0.1760259906007527 1:889 2:856 
0.5711766533918884 1:887 2:855 
0.2892569482703974 1:892 2:860 
0.0930959284235033 1:892 2:861 
0.48005737681768 1:933 2:887 
0.6661518007114462 1:936 2:890 
0.1798552703169937 1:925 2:882 
0.1395222225531247 1:926 2:883 
0.01105229393729369 1:918 2:884 
0.02825344390112219 1:916 2:882 
0.1287721673946816 1:895 2:865 
0.215981703399256 1:891 2:863 
0.05391362791201905 1:894 2:865 
0.4270767716194517 1:883 2:857 
0.2702487455269528 1:885 2:860 
0.1775847614377453 1:889 2:862 
0.09050090155312447 1:883 2:860 
0.03342273125608154 1:884 2:861 
0.449542108182198 1:880 2:857 
0.02524064244453645 1:878 2:857 
0.4906669384339828 1:876 2:858 
0.3693991570739154 1:879 2:860 
0.008034958492019439 1:928 2:884 
0.1559976370705796 1:928 2:885 
0.1070295291695254 1:928 2:886 
0.08221753042495973 1:921 2:881 
0.2570776234840836 1:922 2:882 
0.1028837462717418 1:925 2:885 
0.1525750811321495 1:918 2:882 
0.1434496775652191 1:916 2:880 
0.1330173128032317 1:913 2:878 
0.3508272851154645 1:911 2:876 
0.04933491695811122 1:916 2:883 
0.1289654817052578 1:917 2:883 
0.0106176777827748 1:919 2:883 
0.2247926317180557 1:894 2:863 
0.06683413435225746 1:888 2:859 
0.07589314705222069 1:889 2:859 
0.059077113348514 1:888 2:861 
0.1148756826254107 1:885 2:857 
0.1605963167447715 1:887 2:861 
0.10535684385973 1:887 2:859 
0.1926543574962236 1:890 2:865 
0.6324139947404002 1:892 2:867 
0.5059226772369304 1:887 2:865 
0.4975173940223597 1:884 2:864 
0.4886910733490224 1:881 2:862 
0.664817475331408 1:875 2:855 
0.6047400367599381 1:929 2:880 
0.01412520957535278 1:927 2:880 
0.2981191032495054 1:923 2:878 
0.5376388063948764 1:919 2:875 
0.2884310740193775 1:921 2:877 
0.123528576638176 1:927 2:883 
0.4267689697599599 1:925 2:879 
0.2371862099194502 1:916 2:875 
0.2376726483774815 1:915 2:875 
0.1869355583514877 1:920 2:880 
0.2536144587076714 1:918 2:879 
0.1496252191095984 1:915 2:878 
0.08006568438450516 1:916 2:878 
0.1943635805388645 1:913 2:874 
0.6843342077655642 1:911 2:872 
0.4620988557723511 1:931 2:883 
0.2026101242195493 1:932 2:885 
0.01693646957150927 1:931 2:890 
0.04730227261248322 1:934 2:892 
0.2669598669175822 1:932 2:892 
0.009762140541973281 1:933 2:893 
0.1158792552381692 1:933 2:892 
0.04247853857314285 1:930 2:891 
0.1027701374068206 1:928 2:890 
0.02277660642653658 1:925 2:886 
0.1150417112771829 1:923 2:884 
0.01492205657916771 1:927 2:889 
0.06702911092634133 1:922 2:885 
0.07432764416526101 1:915 2:881 
0.07823919149643335 1:929 2:886 
0.07366913941484675 1:932 2:890 
0.1907894804432567 1:929 2:888 
0.09416678951648219 1:926 2:886 
0.1912910656921802 1:923 2:886 
0.1770239274526614 1:920 2:884 
0.03253315952842391 1:921 2:885 
0.002115026765164477 1:917 2:882 
0.1957241497626256 1:912 2:879 
0.2100852619911275 1:913 2:881 
0.01516023350385305 1:915 2:884 
0.2970440724123904 1:917 2:886 
0.01189407674809015 1:912 2:880 
0.4067749671839572 1:908 2:877 
0.2680091847791494 1:914 2:884 
0.0108868559766219 1:912 2:882 
0.1735385077535482 1:909 2:880 
0.6759295866170236 1:905 2:878 
0.2914881178508424 1:909 2:881 
0.003021698145022508 1:907 2:879 
0.03643988316336506 1:930 2:888 
0.0394613391494139 1:931 2:889 
0.1542047742087207 1:930 2:890 
0.6030440379534244 1:936 2:895 
0.006231063602195414 1:932 2:893 
0.2467677586773748 1:934 2:896 
0.2914778358392202 1:926 2:889 
0.213418533887982 1:924 2:888 
0.6212876569062611 1:931 2:896 
0.4381121654362364 1:928 2:893 
0.08371545419266879 1:919 2:884 
0.4423932721244702 1:920 2:888 
0.07898705732175609 1:919 2:887 
0.4716504940543429 1:925 2:893 
0.4798645791693352 1:922 2:891 
0.09645112129943798 1:923 2:892 
0.008164290968330141 1:921 2:889 
0.06015363231937607 1:914 2:883 
0.06083312759004497 1:912 2:882 
0.01675621097774092 1:911 2:885 
0.3234009564230781 1:915 2:888 
0.2575730746299783 1:911 2:885 
0.5000081857684952 1:913 2:888 
0.506382462806193 1:909 2:884 
-0.7517403641150885 1:315 2:68 
-0.4470791838876998 1:317 2:70 
-0.7219672088382731 1:319 2:69 
-0.003590939585799827 1:318 2:67 
-0.1867978292154992 1:318 2:67 
-0.8269958631274323 1:317 2:64 
-0.3465885243374099 1:314 2:64 
-0.3147407379408359 1:313 2:63 
-0.003144673877314846 1:314 2:61 
-0.5315158767307989 1:314 2:61 
-0.6308611149297255 1:310 2:61 
-0.4548613929147228 1:312 2:59 
-0.3843762828492811 1:310 2:58 
-0.9661613213125557 1:307 2:58 
-0.6481851635800603 1:284 2:55 
-0.804329151489189 1:287 2:56 
-0.9907706892380458 1:291 2:54 
-0.5613802522747775 1:288 2:52 
-0.4841989585248053 1:286 2:51 
-0.8987734400547999 1:283 2:51 
-0.1364701381235249 1:279 2:62 
-0.7184110842320746 1:282 2:60 
-0.2818715770589842 1:282 2:58 
-0.006831581781705079 1:277 2:58 
-0.4053011442970858 1:280 2:57 
-0.0139270231182871 1:279 2:55 
-0.01885089310577438 1:276 2:54 
-0.1695125554859891 1:279 2:55 
-0.6622791553268154 1:278 2:54 
-0.1818075026752774 1:276 2:54 
-0.9195471554698338 1:272 2:65 
-0.01779685760439854 1:275 2:63 
-0.1207967624126769 1:275 2:62 
-0.03536746119146349 1:275 2:62 
-0.005985035479359071 1:275 2:61 
-0.1023453928016809 1:275 2:61 
-0.2016478639013821 1:277 2:61 
-0.3533577510620111 1:278 2:60 
-0.06412088169823056 1:275 2:58 
-0.02606779566306682 1:276 2:58 
-0.000643094881813789 1:269 2:59 
-0.3879819765882722 1:269 2:59 
-0.04326278740709329 1:272 2:59 
-0.02721482641933976 1:271 2:59 
-0.3719224200866552 1:272 2:59 
-0.01141652385194605 1:274 2:58 
-0.1400137824720347 1:274 2:59 
-0.2369257858045809 1:275 2:57 
-0.03777133956331504 1:273 2:58 
-0.2561450700410869 1:277 2:58 
-0.03612723630308348 1:275 2:58 
-0.8629058021574176 1:262 2:61 
-0.004751404900843815 1:262 2:59 
-0.2314733093034445 1:262 2:59 
-0.2372676145652518 1:265 2:59 
-0.6100949404009925 1:266 2:61 
-0.631264122535789 1:269 2:62 
-0.04814774459065811 1:272 2:62 
-0.02929327029701533 1:271 2:61 
-0.08604695396569673 1:272 2:62 
-0.2475161152863276 1:274 2:62 
-0.0153838511245969 1:275 2:63 
-0.03890342235837484 1:274 2:64 
-0.3145354710091702 1:280 2:65 
-0.7908418544126873 1:277 2:65 
-0.6693875666514838 1:281 2:64 
-0.6585878111105804 1:257 2:55 
-0.002153867516327815 1:260 2:56 
-0.6256742480802486 1:260 2:56 
-0.01209242467446294 1:264 2:56 
-0.006878278774500892 1:264 2:55 
-0.002143405585400663 1:266 2:56 
-0.02113861694771916 1:264 2:56 
-0.007202107302949288 1:265 2:56 
-0.1346198232198234 1:268 2:56 
-0.1513164457357143 1:270 2:55 
-0.09791018235381348 1:270 2:55 
-0.0111709430055582 1:271 2:56 
-0.2279617681756062 1:271 2:56 
-0.04439729821128178 1:273 2:56 
-0.4002193452662064 1:263 2:56 
-0.2778911636751611 1:265 2:56 
-0.01877302418232472 1:268 2:56 
-0.3556638846449223 1:267 2:56 
-0.06056933128850331 1:269 2:55 
-0.1084136446107551 1:271 2:55 
-0.05746785974730007 1:273 2:56 
-0.5071820197617607 1:274 2:54 
-1 1:252 2:52 
-0.001281881967184745 1:253 2:52 
-0.1252746264347863 1:255 2:53 
-0.5803397744758533 1:256 2:52 
-0.122736370529813 1:258 2:52 
-0.6276848730223835 1:260 2:52 
-0.04522893908659485 1:262 2:52 
-0.5282255152718154 1:263 2:52 
-0.1051950949408252 1:265 2:52 
-0.2306614818472623 1:265 2:52 
-0.2555467342532203 1:267 2:52 
-0.2159106069033707 1:267 2:52 
-0.1491317210267417 1:268 2:52 
-0.4059610584044028 1:270 2:51 
-0.7287361255989389 1:272 2:51 
