svm_type c_svc
kernel_type rbf
gamma 0.5
nr_class 2
total_sv 446
rho -0.207121
label 1 -1
nr_sv 255 191
SV
0.6176496633910621 1:908 2:864 
0.4071633433860665 1:907 2:863 
0.070921189195288 1:906 2:863 
0.5178741648878129 1:905 2:863 
0.09126348834047401 1:906 2:864 
0.6166931829267858 1:905 2:865 
0.4131078575063192 1:900 2:862 
0.67580918903663 1:903 2:864 
0.08635693229076161 1:901 2:863 
0.4239197248882905 1:901 2:862 
0.509983360696354 1:896 2:858 
0.02193932004660653 1:895 2:858 
0.3160390664305897 1:896 2:859 
0.6297867889076081 1:893 2:856 
0.09876798266113808 1:893 2:858 
0.3145737766935602 1:894 2:858 
0.3195280473826225 1:894 2:859 
0.304301080389358 1:892 2:857 
0.6564792680283973 1:900 2:864 
0.5954011892398228 1:896 2:861 
0.006007848020156425 1:895 2:862 
0.3439522119381368 1:892 2:859 
0.03441764375407132 1:891 2:859 
0.4987606771367125 1:894 2:861 
0.4486280224588804 1:896 2:863 
0.5287905048060796 1:897 2:865 
0.2685239109663344 1:890 2:859 
0.3752473618203723 1:890 2:857 
0.524486438232139 1:889 2:856 
0.5722112443059849 1:887 2:855 
0.09624842593792234 1:891 2:861 
0.1025517871534307 1:892 2:860 
0.4331188157795161 1:892 2:861 
0.6077490794995503 1:933 2:887 
0.7769631024393487 1:936 2:890 
0.4193691633087437 1:925 2:882 
0.1633519624936488 1:926 2:883 
0.2798611231578689 1:933 2:891 
0.3646448500977942 1:920 2:882 
0.07506774764811858 1:920 2:883 
0.3405795840646291 1:918 2:884 
0.1503306659709286 1:916 2:882 
0.291291507053018 1:921 2:886 
0.5241975731854829 1:895 2:865 
0.2696555104952965 1:887 2:856 
0.1240659271939948 1:890 2:860 
0.06806835131187883 1:889 2:860 
0.5984705151332531 1:891 2:863 
0.02861002284942244 1:894 2:865 
0.5646074863766954 1:893 2:865 
0.2516075488984605 1:888 2:860 
0.2934303647878253 1:884 2:858 
0.4440540764288432 1:883 2:857 
0.402951879734749 1:885 2:860 
0.3064967013160984 1:889 2:862 
0.289429621253899 1:889 2:864 
0.340071406452752 1:881 2:857 
0.3251270566407488 1:882 2:858 
0.2963039341982955 1:883 2:860 
0.1637867539978772 1:884 2:861 
0.3658305181559882 1:880 2:857 
0.3678428181348043 1:883 2:862 
0.5789110561709044 1:878 2:857 
0.3603577378094385 1:880 2:861 
0.2044557895876269 1:875 2:856 
0.6764067579779527 1:876 2:858 
0.4232884848254355 1:879 2:860 
0.1444675639819634 1:931 2:888 
0.03446551058195046 1:928 2:884 
0.2829949347620551 1:928 2:885 
0.1123976593675203 1:928 2:886 
0.399996692676681 1:926 2:884 
0.2187328178656602 1:921 2:881 
0.386830804789083 1:922 2:882 
0.2710800271458847 1:925 2:885 
0.1737095145127267 1:924 2:886 
0.1720619943391908 1:922 2:883 
0.2041978098543624 1:918 2:882 
0.02245370605345619 1:922 2:886 
0.3372051509895968 1:916 2:880 
0.186347279915795 1:917 2:880 
0.3165549264515513 1:918 2:881 
0.4674481374131525 1:913 2:878 
0.02568364164980053 1:911 2:876 
0.2786392288506368 1:916 2:883 
0.1749867429049611 1:917 2:883 
0.2053417876958127 1:919 2:883 
0.5410768255845355 1:894 2:863 
0.2479613244195434 1:897 2:864 
0.2132461107828161 1:891 2:858 
0.2624975149093636 1:890 2:861 
0.4475889882885835 1:888 2:858 
0.1465146494681449 1:889 2:859 
0.0721103098504496 1:888 2:861 
0.3015354588604772 1:886 2:858 
0.05778571985199293 1:889 2:861 
0.1103008047928066 1:886 2:859 
0.4575041672100105 1:885 2:857 
0.3080459192481828 1:887 2:861 
0.1768316310099892 1:887 2:859 
0.140573613596799 1:886 2:860 
0.07363314671645887 1:889 2:863 
0.4712004579610981 1:890 2:865 
0.6128945989191933 1:892 2:867 
0.3350378698820598 1:891 2:866 
0.2042834421952192 1:888 2:863 
0.1469511864589448 1:887 2:862 
0.06929592253042417 1:888 2:864 
0.002704990049303263 1:885 2:863 
0.09481841328156368 1:887 2:863 
0.05416055048615593 1:884 2:862 
0.3245846607762027 1:885 2:862 
0.6700457474769452 1:887 2:865 
0.3691757297175146 1:886 2:863 
0.2929135646180656 1:880 2:859 
0.1504020555758212 1:879 2:858 
0.3912082945636921 1:882 2:860 
0.6867700249405464 1:884 2:864 
0.478752035901545 1:881 2:862 
0.3301682349134275 1:876 2:856 
0.5419581531378657 1:875 2:855 
0.1435034784049168 1:879 2:859 
0.134126179706845 1:882 2:862 
0.6503937468258384 1:929 2:880 
0.2110198257118042 1:928 2:881 
0.3968917232775074 1:927 2:880 
0.127197751089963 1:926 2:880 
0.1474462439564491 1:926 2:881 
0.2664289387078574 1:927 2:882 
0.6069649519421916 1:923 2:878 
0.35941818387736 1:919 2:875 
0.4357746567063412 1:921 2:877 
0.3710831477610978 1:924 2:881 
0.5816861371118389 1:925 2:879 
0.02687419497408828 1:924 2:880 
0.2680021538318205 1:923 2:880 
0.4167953650842445 1:920 2:876 
0.3613490737334 1:918 2:875 
0.1515318371113847 1:921 2:878 
0.2076030225166911 1:921 2:879 
0.01441797436695461 1:921 2:880 
0.1528657757098583 1:917 2:876 
0.3407800657711011 1:916 2:875 
0.2540508714793036 1:922 2:880 
0.1785905285646453 1:919 2:879 
0.3865823014722289 1:918 2:877 
0.5083564294694216 1:915 2:875 
0.2088844522555321 1:920 2:880 
0.1748216530087426 1:920 2:879 
0.3555109141980321 1:918 2:879 
0.2801597142375185 1:912 2:873 
0.2141030164356409 1:917 2:877 
0.4842955968340802 1:915 2:878 
0.2667058169708905 1:916 2:878 
0.5812713451648325 1:913 2:874 
0.6722124452450814 1:911 2:872 
0.616799114417182 1:911 2:875 
0.118080347606165 1:919 2:880 
0.626485727698431 1:931 2:883 
0.590820769935898 1:932 2:885 
0.2422234473568241 1:930 2:884 
0.423470984613736 1:928 2:883 
0.2275438315461436 1:929 2:884 
0.2601670824682832 1:931 2:887 
0.08223513389735307 1:931 2:886 
0.2963220517655774 1:930 2:886 
0.5371857472468156 1:933 2:889 
0.5376962110021797 1:934 2:892 
0.2227250338231391 1:932 2:892 
0.2128314271609897 1:933 2:893 
0.3332766103207952 1:931 2:891 
0.0347582200106047 1:927 2:888 
0.1775186825823302 1:930 2:891 
0.1254890066761191 1:928 2:890 
0.4554143976903016 1:923 2:884 
0.2130231152365136 1:927 2:887 
0.3144132913336791 1:929 2:890 
0.3709848555106749 1:929 2:892 
0.2509629818138306 1:927 2:889 
0.1228658512790771 1:922 2:885 
0.08695606932843022 1:926 2:890 
0.4650620736179685 1:925 2:890 
0.1286829793430409 1:920 2:886 
0.3419784643580744 1:919 2:885 
0.300533572176239 1:924 2:889 
0.4488875992955209 1:915 2:881 
0.2253430733335959 1:929 2:886 
0.1576347864582647 1:932 2:890 
0.3198643648500362 1:929 2:888 
0.1897820584313148 1:927 2:886 
0.1892109211347576 1:928 2:888 
0.07100679183905743 1:928 2:889 
0.2048426141638732 1:926 2:886 
0.1447041467664416 1:924 2:885 
0.2188549407671835 1:926 2:888 
0.08461523407277328 1:925 2:888 
0.2549898152181329 1:923 2:886 
0.2644762562706572 1:921 2:884 
0.1653751284111668 1:920 2:884 
0.09274509126152534 1:921 2:885 
0.0991328619830637 1:917 2:882 
0.1408110262780113 1:913 2:879 
0.2521014023509598 1:912 2:879 
0.5946120562636427 1:911 2:877 
0.3840776176734182 1:913 2:881 
0.1382687887847961 1:915 2:884 
0.5313684409156294 1:917 2:886 
0.3856013051154609 1:916 2:885 
0.2561879475398897 1:912 2:880 
0.5906743404276198 1:908 2:877 
0.04360903896210922 1:914 2:884 
0.3067368337804375 1:909 2:879 
0.2473733590697915 1:909 2:878 
0.07085911505571638 1:907 2:878 
0.05651932533188514 1:911 2:881 
0.3343120328940089 1:910 2:880 
0.7327026920111779 1:905 2:878 
0.4630358100743527 1:909 2:881 
0.5689881904003353 1:907 2:879 
0.1388877365856024 1:930 2:888 
0.3133224133302646 1:931 2:889 
0.1034807599267198 1:930 2:890 
0.7329922390126622 1:936 2:895 
0.4307642990906317 1:932 2:894 
0.1397471432232917 1:932 2:893 
0.7145372833775674 1:934 2:896 
0.06219872509278888 1:926 2:889 
0.2948131987465558 1:925 2:887 
0.1001986834373107 1:924 2:888 
0.2494518007715702 1:931 2:895 
0.5966778378912296 1:931 2:896 
0.5985509271376385 1:928 2:893 
0.5057499595532439 1:927 2:891 
0.2846703299519054 1:923 2:888 
0.1206382651101575 1:922 2:888 
0.2514919218644287 1:922 2:887 
0.3730190070530083 1:920 2:888 
0.4761989361118049 1:919 2:887 
0.2874127624401133 1:922 2:890 
0.07516752996625721 1:923 2:891 
0.7254184890431666 1:925 2:893 
0.3295957682858345 1:922 2:891 
0.5312371463543009 1:923 2:892 
0.4143398548228264 1:921 2:889 
0.494383007729962 1:914 2:883 
0.3907902507427405 1:914 2:885 
0.3647021123198028 1:912 2:882 
0.2036851734912974 1:911 2:882 
0.3112353330557922 1:910 2:882 
0.4086018005685431 1:913 2:886 
0.6832196900230031 1:915 2:888 
0.5497479995211683 1:911 2:885 
0.2271779461572887 1:912 2:885 
0.6400304556468471 1:913 2:888 
0.7112328295141643 1:909 2:884 
-1.1163829064153 1:315 2:68 
-1.08444568948235 1:317 2:70 
-0.9732053200070557 1:319 2:69 
-0.2003391527567485 1:318 2:68 
-0.862360221543417 1:318 2:67 
-0.7190812649536137 1:316 2:66 
-0.1090608032810295 1:317 2:66 
-0.276163027529072 1:317 2:65 
-0.127804953618855 1:316 2:65 
-0.6299984539581986 1:317 2:64 
-0.8246602852363133 1:314 2:64 
-0.2111671027558841 1:315 2:63 
-0.6964536875211975 1:316 2:63 
-0.4554902423177291 1:313 2:63 
-0.1881908855657373 1:314 2:62 
-0.7171192105745184 1:312 2:62 
-0.752535376955268 1:314 2:61 
-0.0437715424193167 1:311 2:61 
-0.1133888522639364 1:312 2:61 
-0.838977306688658 1:310 2:61 
-0.4694309249513996 1:313 2:60 
-0.1476342303871062 1:311 2:60 
-0.8313984309939478 1:312 2:59 
-0.266453432928627 1:310 2:60 
-0.5823419675147969 1:308 2:59 
-0.133566589983322 1:309 2:59 
-0.8207130727844277 1:310 2:58 
-0.9386931008133244 1:307 2:58 
-0.2507967683282786 1:309 2:58 
-1.064507331507804 1:284 2:55 
-0.3895879704468434 1:287 2:54 
-0.4510084686332815 1:287 2:56 
-0.6519010324572195 1:286 2:56 
-0.616502156314337 1:288 2:55 
-0.1311744653701112 1:290 2:54 
-1.038016909383766 1:291 2:54 
-0.1701375761632271 1:286 2:55 
-0.480268687753768 1:289 2:53 
-0.7607810875330461 1:288 2:52 
-0.3278054053638471 1:289 2:54 
-0.5869346309702217 1:285 2:53 
-0.1395415879128152 1:287 2:53 
-0.2907044337538446 1:286 2:53 
-0.7508476035110796 1:286 2:51 
-0.0922493166170823 1:287 2:52 
-0.3954730994918753 1:284 2:52 
-0.3523834572537997 1:285 2:51 
-0.9942520112165448 1:283 2:51 
-0.3999997285625882 1:279 2:62 
-0.5522900339040145 1:280 2:62 
-0.4815749038268417 1:281 2:61 
-0.7949165829462168 1:282 2:60 
-0.3608172304868078 1:280 2:60 
-0.5009468304460952 1:280 2:59 
-0.9779422791747704 1:282 2:58 
-0.003593871112598635 1:281 2:58 
-0.7696407093807108 1:280 2:57 
-0.308307779195413 1:278 2:57 
-0.6734491634889181 1:279 2:55 
-0.6952204316249286 1:278 2:54 
-0.1487537048937193 1:277 2:54 
-0.757650989754879 1:276 2:54 
-1.051879841295237 1:272 2:65 
-0.2366449446641739 1:273 2:64 
-0.5121970041430612 1:276 2:62 
-0.3614808392111627 1:275 2:61 
-0.5013095554724546 1:277 2:61 
-0.1282021825485767 1:276 2:60 
-0.3839343261887431 1:275 2:60 
-0.5866189264909152 1:278 2:60 
-0.3029438495277611 1:276 2:59 
-0.1346705624066072 1:277 2:59 
-0.1738493868436981 1:278 2:59 
-0.2281661908056416 1:278 2:58 
-0.2339066305430605 1:279 2:58 
-0.2207414479300295 1:276 2:58 
-0.5307965757800552 1:268 2:60 
-0.3439411391865134 1:271 2:60 
-0.687388324567528 1:269 2:59 
-0.01588295844651485 1:270 2:60 
-0.2999429677297827 1:270 2:59 
-0.2805681335649163 1:271 2:59 
-0.5272304923187339 1:272 2:59 
-0.5341328529519282 1:274 2:59 
-0.3710759717620675 1:275 2:57 
-0.5957656160080123 1:273 2:58 
-0.2282942744933777 1:277 2:58 
-0.2258711977162916 1:275 2:58 
-0.04534769554778315 1:275 2:56 
-0.04657011967350496 1:276 2:57 
-0.4859060882874401 1:277 2:56 
-0.1813574438040463 1:279 2:56 
-0.07225251294178849 1:277 2:57 
-0.0395396848875731 1:278 2:56 
-0.9188710113029817 1:262 2:61 
-0.8972175575025819 1:262 2:59 
-0.448455711186513 1:263 2:60 
-1.01721634442777 1:265 2:59 
-0.1592669993429089 1:266 2:60 
-0.7954607525797062 1:266 2:61 
-0.1865434351593698 1:268 2:61 
-0.2511926252348857 1:267 2:61 
-0.8785766939999643 1:269 2:62 
-0.212434853509882 1:270 2:61 
-0.1515150463082565 1:271 2:61 
-0.5199943543185953 1:273 2:62 
-0.5752805882540033 1:271 2:62 
-0.3231436420710772 1:272 2:62 
-0.3688440335849182 1:274 2:62 
-0.6980203493982066 1:278 2:63 
-0.2726959163722992 1:275 2:63 
-0.6842313661194939 1:274 2:64 
-0.4104906577589884 1:280 2:65 
-0.8299752511038158 1:277 2:65 
-0.5595591088196368 1:276 2:64 
-0.631235821771204 1:279 2:65 
-0.1149785721448015 1:279 2:64 
-0.9255566500868138 1:281 2:64 
-1.07304715600551 1:257 2:55 
-0.001196160343373563 1:260 2:56 
-0.7817997895190736 1:260 2:56 
-0.3744800925736825 1:261 2:55 
-0.5500153573213504 1:259 2:54 
-0.02813573496503585 1:263 2:55 
-0.01180743170629081 1:264 2:56 
-0.008047195110546777 1:266 2:56 
-0.3601702663002423 1:264 2:55 
-0.05306624251815718 1:265 2:55 
-0.02466045223598275 1:267 2:55 
-0.2987657657490199 1:264 2:56 
-0.1877059766427616 1:266 2:56 
-0.0710281755665326 1:269 2:56 
-0.06942866193172571 1:270 2:55 
-0.3453069701124752 1:270 2:55 
-0.03029323515230871 1:271 2:56 
-0.5919627423329569 1:271 2:56 
-0.04176774150369772 1:272 2:55 
-0.4716323550147744 1:269 2:56 
-0.01081185950789118 1:274 2:56 
-0.3459327744681719 1:272 2:55 
-0.2280175650079064 1:276 2:56 
-0.1774307745198249 1:275 2:56 
-0.340389565436381 1:259 2:55 
-0.07249572387046999 1:262 2:56 
-0.02373136379349915 1:261 2:56 
-0.2845510446403825 1:262 2:55 
-0.3738889679897068 1:262 2:56 
-0.1325685086226836 1:263 2:55 
-0.2903176377629342 1:263 2:56 
-0.03085244904357716 1:265 2:55 
-0.4715731037170733 1:266 2:55 
-0.3927644944255552 1:265 2:56 
-0.3379391692950398 1:268 2:56 
-0.4846533962296711 1:267 2:56 
-0.7661602935242667 1:268 2:54 
-0.1042782432724884 1:270 2:56 
-0.05421700493442028 1:271 2:55 
-0.222817080849882 1:273 2:54 
-0.5578365949154507 1:273 2:56 
-0.7090206511173811 1:274 2:54 
-0.234935514686858 1:274 2:56 
-0.1701907766657968 1:275 2:55 
-0.8125781178623781 1:252 2:52 
-0.6414958999804432 1:253 2:52 
-0.01227118131685568 1:256 2:53 
-0.7855122997492188 1:255 2:53 
-0.1239092040954166 1:256 2:53 
-0.6925093393628396 1:256 2:52 
-0.9371733406944275 1:258 2:52 
-0.01400069863764528 1:259 2:53 
-0.3472588881459586 1:260 2:53 
-0.4921186026634503 1:260 2:52 
-0.02218396706630264 1:262 2:52 
-0.4397373414667266 1:261 2:52 
-0.310800547714196 1:262 2:52 
-0.4893128388729115 1:263 2:52 
-0.5355897919664131 1:263 2:53 
-0.04680454590093584 1:266 2:52 
-0.5319906043342557 1:265 2:53 
-0.5130506996044886 1:265 2:52 
-0.239635484493874 1:266 2:52 
-0.5195978382989208 1:267 2:52 
-0.4849501614843524 1:268 2:52 
-0.1524767433088577 1:269 2:52 
-0.04307423979243977 1:270 2:53 
-0.5317185254622481 1:270 2:53 
-0.1122151629293723 1:269 2:53 
-0.8620206617501291 1:270 2:51 
-0.972253655737299 1:272 2:51 
-0.6677201303149449 1:272 2:53 
-0.1611235275440256 1:271 2:53 
