svm_type c_svc
kernel_type rbf
gamma 0.125
nr_class 2
total_sv 265
rho -0.190686
label 1 -1
nr_sv 145 120
SV
0.5 1:908 2:864 
0.1519841487776055 1:907 2:863 
0.176184464859808 1:905 2:863 
0.3478866877414613 1:905 2:865 
0.1720958126095792 1:900 2:862 
0.2377592818448755 1:903 2:864 
0.3607430935971537 1:901 2:862 
0.5 1:896 2:858 
0.5 1:893 2:856 
0.2418923951345208 1:900 2:864 
0.3841408592168966 1:896 2:861 
0.02127689402168343 1:897 2:865 
0.07086390016923258 1:892 2:859 
0.01069009215105747 1:894 2:861 
0.5 1:897 2:865 
0.06664221455881816 1:887 2:855 
0.08080321133112697 1:890 2:859 
0.2034119643644665 1:890 2:857 
0.1492473948782696 1:889 2:856 
0.5 1:887 2:855 
0.1801010301798609 1:892 2:860 
0.1633870443520922 1:892 2:861 
0.4776137464579431 1:933 2:887 
0.1599803795114366 1:936 2:890 
0.4844842336337912 1:936 2:890 
0.1866183727002619 1:925 2:882 
0.06117801074189715 1:926 2:883 
0.01679480291565422 1:927 2:890 
0.04248054945252074 1:916 2:882 
0.04011776264842642 1:895 2:865 
0.02238926957664819 1:889 2:860 
0.1723430729928201 1:891 2:863 
0.1821111126226496 1:894 2:865 
0.4213841180429339 1:883 2:857 
0.2749348669462322 1:885 2:860 
0.1757578040129193 1:889 2:862 
0.08846214234910957 1:883 2:860 
0.02668916083053013 1:884 2:861 
0.4325957805669193 1:880 2:857 
0.04044206932900454 1:878 2:857 
0.0784627331095738 1:875 2:856 
0.4761394577886141 1:876 2:858 
0.3607573911548376 1:879 2:860 
0.1324474920941655 1:928 2:885 
0.1139923842850379 1:928 2:886 
0.02619608986771933 1:926 2:884 
0.1081451835729548 1:921 2:881 
0.2430100976017339 1:922 2:882 
0.1279427907008313 1:925 2:885 
0.1526512528984701 1:918 2:882 
0.123030527150005 1:916 2:880 
0.113101324648249 1:913 2:878 
0.1605439985584907 1:911 2:876 
0.006399671177966519 1:916 2:883 
0.1412574578935838 1:917 2:883 
0.1776681568525804 1:894 2:863 
0.1385351456797786 1:888 2:859 
0.006365464176112792 1:889 2:859 
0.02683785376659548 1:888 2:861 
0.02304586682026267 1:889 2:861 
0.1126253051214401 1:885 2:857 
0.1675862627661676 1:887 2:861 
0.06569015329926074 1:887 2:859 
0.2230908800794899 1:890 2:865 
0.5 1:892 2:867 
0.02441091633252406 1:891 2:866 
0.4871740037190766 1:887 2:865 
0.4910818906222498 1:884 2:864 
0.4810261829370067 1:881 2:862 
0.5 1:875 2:855 
0.5 1:929 2:880 
0.08804791843355604 1:927 2:880 
0.3026794677956756 1:923 2:878 
0.5 1:919 2:875 
0.2904829000447244 1:921 2:877 
0.1652600592774681 1:927 2:883 
0.3851938441420686 1:925 2:879 
0.2881830627916241 1:916 2:875 
0.1697625197280116 1:915 2:875 
0.1541780885626788 1:920 2:880 
0.2732039731106488 1:918 2:879 
0.05851088198625673 1:912 2:873 
0.1999519901210587 1:915 2:878 
0.03522319726303417 1:916 2:878 
0.2107298543496956 1:913 2:874 
0.5 1:911 2:872 
0.1195578609435034 1:911 2:875 
0.001070673863099317 1:919 2:880 
0.4760290075509014 1:931 2:883 
0.1841969645508686 1:932 2:885 
0.01281642069084295 1:931 2:890 
0.1262587976040419 1:934 2:892 
0.274459565851035 1:932 2:892 
0.008940275134330955 1:930 2:891 
0.06176340850009898 1:928 2:890 
0.1103804689858466 1:923 2:884 
0.005983537796992494 1:929 2:890 
0.06190181616976102 1:927 2:889 
0.0936623165552133 1:922 2:885 
0.08891655818955781 1:915 2:881 
0.08618039831168767 1:929 2:886 
0.1008715958570496 1:932 2:890 
0.1581801820337503 1:929 2:888 
0.09115308442564299 1:926 2:886 
0.167524405345574 1:923 2:886 
0.1520165836614624 1:920 2:884 
0.02123397443787549 1:921 2:885 
0.1578973936642147 1:912 2:879 
0.1038546643056303 1:911 2:877 
0.1575496963918033 1:913 2:881 
0.0387857241045315 1:915 2:884 
0.2903168843147604 1:917 2:886 
0.08031163896595425 1:912 2:880 
0.4031542719133278 1:908 2:877 
0.2374407293020867 1:914 2:884 
0.008743542746374039 1:912 2:882 
0.05677199788699137 1:909 2:880 
0.5 1:905 2:878 
0.3387102858276327 1:909 2:881 
0.1260182708693821 1:907 2:879 
0.06050435738260409 1:930 2:888 
0.1997471059244663 1:930 2:890 
0.5 1:936 2:895 
0.05777878280218531 1:932 2:893 
0.3133858577939531 1:934 2:896 
0.2461286922027766 1:926 2:889 
0.001242756226173845 1:925 2:887 
0.2284039436096862 1:924 2:888 
0.02762505647967048 1:931 2:895 
0.5 1:931 2:896 
0.4390319160098003 1:928 2:893 
0.1173239151457994 1:919 2:884 
0.4404662577639014 1:920 2:888 
0.07422579702257107 1:919 2:887 
0.4603073883220313 1:925 2:893 
0.469660812375561 1:922 2:891 
0.09735247512303558 1:923 2:892 
0.002796851358785052 1:921 2:889 
0.08504728763499524 1:914 2:883 
0.06299459726255253 1:912 2:882 
0.03318536070863558 1:911 2:885 
0.3177612741963932 1:915 2:888 
0.2399712087604968 1:911 2:885 
0.4905711750155837 1:913 2:888 
0.4889228868201718 1:909 2:884 
-0.5 1:315 2:68 
-0.5 1:317 2:70 
-0.2001134215900573 1:319 2:69 
-0.5 1:319 2:69 
-0.2463978863963814 1:318 2:67 
-0.003648046187791881 1:317 2:65 
-0.1985128794532733 1:317 2:65 
-0.5 1:317 2:64 
-0.3847515982196063 1:314 2:64 
-0.1536350483276681 1:316 2:63 
-0.2643370105484604 1:313 2:63 
-0.001189779897366565 1:314 2:61 
-0.06963304423649422 1:312 2:62 
-0.4982858070009548 1:314 2:61 
-0.5 1:310 2:61 
-0.5 1:312 2:59 
-0.1057347423751564 1:308 2:59 
-0.3322929412886992 1:310 2:58 
-0.5 1:307 2:58 
-0.2925679265489199 1:308 2:58 
-0.0007581067523864254 1:286 2:56 
-0.5 1:284 2:55 
-0.5 1:287 2:56 
-0.2966636702214105 1:286 2:56 
-0.4134685696548698 1:290 2:54 
-0.5 1:291 2:54 
-0.5 1:288 2:52 
-0.5 1:286 2:51 
-0.1972146894353067 1:284 2:52 
-0.05581215791648863 1:285 2:51 
-0.5 1:283 2:51 
-0.1174529796283555 1:279 2:62 
-0.1818077893159327 1:281 2:61 
-0.5 1:282 2:60 
-0.435464070918933 1:282 2:58 
-0.01291312367902242 1:277 2:58 
-0.2797703508833879 1:280 2:57 
-0.00163450116529475 1:279 2:55 
-0.3494022433479601 1:279 2:55 
-0.5 1:278 2:54 
-0.2793200994165371 1:276 2:54 
-0.5 1:272 2:65 
-0.1616928892340658 1:273 2:64 
-0.002059779726490409 1:274 2:64 
-0.02620946177790914 1:275 2:61 
-0.3247393031814154 1:275 2:61 
-0.2040727902044537 1:277 2:61 
-0.3135206014284723 1:278 2:60 
-0.1285939626948769 1:278 2:58 
-0.01974317083595983 1:275 2:58 
-0.127317462777422 1:276 2:58 
-0.02854779993083902 1:269 2:59 
-0.3802279015026181 1:269 2:59 
-0.1164262878709405 1:272 2:59 
-0.2844405246195779 1:272 2:59 
-0.0294233699302515 1:274 2:58 
-0.08870672214784703 1:274 2:59 
-0.006440329907734477 1:275 2:57 
-0.2476959512630849 1:275 2:57 
-0.1189027670835704 1:273 2:58 
-0.103851216769858 1:277 2:58 
-0.5 1:262 2:61 
-0.3327127125363961 1:262 2:60 
-0.1776352848720213 1:262 2:59 
-0.2735985736880644 1:265 2:59 
-0.5 1:266 2:61 
-0.1093513987611535 1:267 2:61 
-0.5 1:269 2:62 
-0.009503525089197344 1:271 2:62 
-0.1204500829613484 1:273 2:62 
-0.2500491981925715 1:271 2:62 
-0.2135118035772134 1:274 2:64 
-0.4736633628472559 1:280 2:65 
-0.5 1:277 2:65 
-0.2786539062157434 1:281 2:64 
-0.2250842708291594 1:276 2:64 
-0.2814448675196843 1:281 2:64 
-0.1895656754522533 1:257 2:55 
-0.5 1:257 2:55 
-0.2222173762628227 1:260 2:56 
-0.411899664030226 1:260 2:56 
-0.0166524074136437 1:264 2:55 
-0.05160732287855101 1:266 2:56 
-0.1856063658265474 1:264 2:56 
-0.09027060631435208 1:265 2:56 
-0.07141139449431765 1:266 2:56 
-0.04775316238727889 1:268 2:56 
-0.02250759500647913 1:269 2:55 
-0.0009347023319016358 1:270 2:55 
-0.08194824681414027 1:270 2:55 
-0.03758179147935197 1:271 2:56 
-0.1935260229419057 1:271 2:56 
-0.07362665126642605 1:269 2:56 
-0.007580543795828478 1:273 2:56 
-0.02851814929212051 1:263 2:55 
-0.311146431578639 1:263 2:56 
-0.3590695464581679 1:267 2:56 
-0.1420894082519326 1:269 2:55 
-0.2080519925076506 1:271 2:55 
-0.04871245333369003 1:273 2:56 
-0.5 1:274 2:54 
-0.5 1:252 2:52 
-0.5 1:253 2:52 
-0.04054493714038557 1:255 2:53 
-0.5 1:256 2:52 
-0.001673331158709932 1:258 2:52 
-0.2318961207607944 1:258 2:52 
-0.5 1:260 2:52 
-0.06700404534207711 1:261 2:52 
-0.02395432865516237 1:263 2:52 
-0.1293065434560589 1:262 2:52 
-0.4101662461111678 1:263 2:52 
-0.3732226965219494 1:265 2:52 
-0.03573314045601432 1:267 2:52 
-0.451449169315957 1:267 2:52 
-0.09957807967862606 1:268 2:52 
-0.006311236825006837 1:272 2:52 
-0.5 1:270 2:51 
-0.5 1:272 2:51 
-0.08902904017109343 1:272 2:52 
