svm_type c_svc
kernel_type rbf
gamma 0.125
nr_class 2
total_sv 235
rho -0.17455
label 1 -1
nr_sv 136 99
SV
0.6069545187024579 1:908 2:864 
0.05902732363832998 1:907 2:863 
0.2247186893021874 1:905 2:863 
0.3398670867613403 1:905 2:865 
0.1819861040987888 1:900 2:862 
0.2337864058283579 1:903 2:864 
0.3587559916337287 1:901 2:862 
0.5447255135790355 1:896 2:858 
0.5828585912568919 1:893 2:856 
0.2545619163573234 1:900 2:864 
0.3733989475786126 1:896 2:861 
0.001078711608830532 1:894 2:861 
0.5082720089559262 1:897 2:865 
0.1119463880145358 1:890 2:859 
0.159983815097732 1:890 2:857 
0.1756825950877211 1:889 2:856 
0.5725739737256241 1:887 2:855 
0.2870033757039772 1:892 2:860 
0.09328551314428966 1:892 2:861 
0.4814095199661272 1:933 2:887 
0.6663704313355558 1:936 2:890 
0.1782128421419734 1:925 2:882 
0.1405512116277322 1:926 2:883 
0.0008830649903435084 1:927 2:890 
0.03641205467506016 1:916 2:882 
0.1311430032378203 1:895 2:865 
0.2148673897179815 1:891 2:863 
0.05291831131863814 1:894 2:865 
0.4256873612771675 1:883 2:857 
0.276720384317506 1:885 2:860 
0.1803799571258896 1:889 2:862 
0.091225832706152 1:883 2:860 
0.02923714566228017 1:884 2:861 
0.4518746948016999 1:880 2:857 
0.02331955160084931 1:878 2:857 
0.4917597434444256 1:876 2:858 
0.369558627011763 1:879 2:860 
0.007935507743041463 1:928 2:884 
0.1588585192231893 1:928 2:885 
0.1050715591870295 1:928 2:886 
0.07891683437847621 1:921 2:881 
0.2606995789319976 1:922 2:882 
0.102894108894091 1:925 2:885 
0.1539162821497564 1:918 2:882 
0.1512161304886726 1:916 2:880 
0.1373127908836282 1:913 2:878 
0.3504153761476075 1:911 2:876 
0.05371590427875823 1:916 2:883 
0.1209657895717063 1:917 2:883 
0.01164570338178379 1:919 2:883 
0.2248657694228868 1:894 2:863 
0.100027101004507 1:888 2:859 
0.04788292634662049 1:889 2:859 
0.0561649671527234 1:888 2:861 
0.1164310738974293 1:885 2:857 
0.1613538270872414 1:887 2:861 
0.08638102670468359 1:887 2:859 
0.1935504158606358 1:890 2:865 
0.6323924848409888 1:892 2:867 
0.5058053293655419 1:887 2:865 
0.499013719849307 1:884 2:864 
0.4898503831907932 1:881 2:862 
0.6655057496070921 1:875 2:855 
0.6050814129105949 1:929 2:880 
0.01364962925950242 1:927 2:880 
0.2964605421228274 1:923 2:878 
0.5369315365110536 1:919 2:875 
0.2905972018672274 1:921 2:877 
0.123563627163462 1:927 2:883 
0.4284342058917315 1:925 2:879 
0.2378531275530491 1:916 2:875 
0.2374860432226056 1:915 2:875 
0.1901957855598815 1:920 2:880 
0.2486593280544669 1:918 2:879 
0.1433710802017092 1:915 2:878 
0.08479435308877618 1:916 2:878 
0.194614261820968 1:913 2:874 
0.6847824898424284 1:911 2:872 
0.0007393925917246892 1:919 2:880 
0.462864308847441 1:931 2:883 
0.2017009153372814 1:932 2:885 
0.03029681887776314 1:931 2:890 
0.04901304681080516 1:934 2:892 
0.2688358026198394 1:932 2:892 
0.01832827358457139 1:933 2:893 
0.1072644241779003 1:933 2:892 
0.04238252502871819 1:930 2:891 
0.09774032969777505 1:928 2:890 
0.02325831822878852 1:925 2:886 
0.1162056918076051 1:923 2:884 
0.02710408724405968 1:927 2:889 
0.06684115027494486 1:922 2:885 
0.06089704121214625 1:915 2:881 
0.07624656631190152 1:929 2:886 
0.07531064751060243 1:932 2:890 
0.1814404085739745 1:929 2:888 
0.09438231826671854 1:926 2:886 
0.1892724765943412 1:923 2:886 
0.1535464588390996 1:920 2:884 
0.03942682022282293 1:921 2:885 
0.1941123461992514 1:912 2:879 
0.2206582464720472 1:913 2:881 
0.01713369789773047 1:915 2:884 
0.2971346563426538 1:917 2:886 
0.007468429270156068 1:912 2:880 
0.4079045719703193 1:908 2:877 
0.268241458112695 1:914 2:884 
0.01936005112954036 1:912 2:882 
0.1773655684825362 1:909 2:880 
0.6769576479445675 1:905 2:878 
0.2896651597001465 1:909 2:881 
0.001292584212841738 1:907 2:879 
0.05359445346614073 1:930 2:888 
0.02105120081128359 1:931 2:889 
0.1523245759234605 1:930 2:890 
0.6033203478453582 1:936 2:895 
0.001216818219409241 1:932 2:893 
0.2460056672891814 1:934 2:896 
0.2836055144874899 1:926 2:889 
0.2149309950260003 1:924 2:888 
0.6220861310781359 1:931 2:896 
0.4388874727729756 1:928 2:893 
0.1122086153655879 1:919 2:884 
0.4412439430589562 1:920 2:888 
0.07797182809799789 1:919 2:887 
0.4719726586537525 1:925 2:893 
0.4781362870904936 1:922 2:891 
0.09827191589961094 1:923 2:892 
0.01013399006806923 1:921 2:889 
0.05752320987785254 1:914 2:883 
0.04993629838193137 1:912 2:882 
0.02728961304732934 1:911 2:885 
0.3238493168308997 1:915 2:888 
0.24806540313267 1:911 2:885 
0.5001934834392439 1:913 2:888 
0.5070834598069605 1:909 2:884 
-0.7512345395849114 1:315 2:68 
-0.446739127658033 1:317 2:70 
-0.7211115286461385 1:319 2:69 
-0.001828921192531405 1:318 2:67 
-0.1884661208551892 1:318 2:67 
-0.8267821702721935 1:317 2:64 
-0.3454071977288395 1:314 2:64 
-0.3155325489818689 1:313 2:63 
-0.00198469822777171 1:314 2:61 
-0.5324770390754415 1:314 2:61 
-0.6301911768834569 1:310 2:61 
-0.4541841218693685 1:312 2:59 
-0.3848681373427956 1:310 2:58 
-0.9650036922818679 1:307 2:58 
-0.6474275586049946 1:284 2:55 
-0.804195213459763 1:287 2:56 
-0.9895038783116704 1:291 2:54 
-0.5609512710154323 1:288 2:52 
-0.48396359035214 1:286 2:51 
-0.8983020208975148 1:283 2:51 
-0.1358146729265618 1:279 2:62 
-0.7172996489673646 1:282 2:60 
-0.2825513993833296 1:282 2:58 
-0.0008244545866354597 1:277 2:58 
-0.4044141537363509 1:280 2:57 
-0.008971210180736008 1:279 2:55 
-0.008985831625950839 1:276 2:54 
-0.1761445229871702 1:279 2:55 
-0.660845481312006 1:278 2:54 
-0.190895902639095 1:276 2:54 
-0.9180764247229923 1:272 2:65 
-0.09980667601578606 1:275 2:62 
-0.07886061461950074 1:275 2:62 
-0.003174516246011243 1:275 2:61 
-0.09867068225307865 1:275 2:61 
-0.1972099359748015 1:277 2:61 
-0.357331121086952 1:278 2:60 
-0.04181625786546739 1:275 2:58 
-0.04257221459974866 1:276 2:58 
-0.3905170885554302 1:269 2:59 
-0.03742375838076304 1:272 2:59 
-0.02145984469287724 1:271 2:59 
-0.385747318913794 1:272 2:59 
-0.01772367846672699 1:274 2:58 
-0.1384476739204193 1:274 2:59 
-0.0183586878739445 1:274 2:58 
-0.2395180178258334 1:275 2:57 
-0.02407465860947813 1:273 2:58 
-0.2550626818968583 1:277 2:58 
-0.0331884469980705 1:275 2:58 
-0.862843021615624 1:262 2:61 
-0.001132960171444239 1:262 2:59 
-0.2344760808680119 1:262 2:59 
-0.2358705049411908 1:265 2:59 
-0.6098799489985492 1:266 2:61 
-0.6306547823681407 1:269 2:62 
-0.0331023425186941 1:272 2:62 
-0.03001369471921998 1:271 2:61 
-0.1006035769781199 1:272 2:62 
-0.2410981579540402 1:274 2:62 
-0.01900101710451906 1:275 2:63 
-0.04462903776207063 1:274 2:64 
-0.3161300939211628 1:280 2:65 
-0.7910568443808064 1:277 2:65 
-0.6673900180922495 1:281 2:64 
-0.001963953024942594 1:257 2:55 
-0.663275125029826 1:257 2:55 
-0.6266767905251354 1:260 2:56 
-0.004272933971844848 1:264 2:55 
-0.0008840966232443159 1:266 2:56 
-0.04399581349787361 1:264 2:56 
-0.02764901630197583 1:268 2:56 
-0.09654863826700315 1:270 2:55 
-0.1413253196754158 1:270 2:55 
-0.2437150450493879 1:271 2:56 
-0.03086925784053252 1:273 2:56 
-0.3963218773867732 1:263 2:56 
-0.2789885660252784 1:265 2:56 
-0.119125243633472 1:268 2:56 
-0.361639623958615 1:267 2:56 
-0.06844890095268943 1:269 2:55 
-0.1128652427911355 1:271 2:55 
-0.067156076339509 1:273 2:56 
-0.5073492796340554 1:274 2:54 
-1.05523175878552 1:252 2:52 
-0.09484139249915514 1:255 2:53 
-0.5979003968065496 1:256 2:52 
-0.1165532516426448 1:258 2:52 
-0.630225848613715 1:260 2:52 
-0.03200817362820101 1:262 2:52 
-0.009615973804980823 1:262 2:52 
-0.5309593994694762 1:263 2:52 
-0.1566628481993102 1:265 2:52 
-0.177930385384 1:265 2:52 
-0.2891819658802558 1:267 2:52 
-0.1823311360629223 1:267 2:52 
-0.1486728375221479 1:268 2:52 
-0.4066193566974901 1:270 2:51 
-0.7279277827366527 1:272 2:51 
