svm_type c_svc
kernel_type rbf
gamma 0.125
nr_class 2
total_sv 465
rho -0.186616
label 1 -1
nr_sv 243 222
SV
0.125 1:908 2:864 
0.125 1:907 2:863 
0.125 1:906 2:863 
0.125 1:906 2:864 
0.125 1:905 2:863 
0.0523648615002292 1:905 2:864 
0.1064036408956567 1:906 2:864 
0.125 1:905 2:865 
0.03556841814745467 1:901 2:863 
0.125 1:900 2:862 
0.125 1:901 2:863 
0.125 1:903 2:864 
0.07267719142193398 1:900 2:863 
0.1193316276249535 1:901 2:863 
0.125 1:901 2:862 
0.125 1:896 2:858 
0.125 1:895 2:858 
0.125 1:896 2:859 
0.125 1:893 2:856 
0.06433116961033798 1:893 2:858 
0.125 1:894 2:858 
0.125 1:892 2:857 
0.125 1:900 2:864 
0.125 1:896 2:861 
0.1033429227285655 1:895 2:862 
0.08408414944990347 1:895 2:861 
0.125 1:897 2:865 
0.125 1:897 2:865 
0.04329252221512223 1:892 2:858 
0.125 1:887 2:855 
0.125 1:890 2:857 
0.125 1:889 2:856 
0.125 1:887 2:855 
0.125 1:889 2:857 
0.125 1:892 2:861 
0.07984435329965978 1:891 2:861 
0.125 1:892 2:861 
0.125 1:933 2:887 
0.125 1:936 2:890 
0.125 1:936 2:890 
0.1000789369056722 1:925 2:882 
0.07155080513226061 1:933 2:891 
0.01102720600809585 1:930 2:890 
0.09503434947609242 1:920 2:882 
0.008878877892881748 1:920 2:883 
0.1091651655453131 1:918 2:884 
0.04590088197807495 1:916 2:882 
0.07174743899654565 1:925 2:890 
0.09216129590612222 1:895 2:861 
0.02423226199834991 1:897 2:864 
0.125 1:896 2:865 
0.02180666067978049 1:895 2:865 
0.125 1:887 2:856 
0.02810575120552992 1:890 2:860 
0.125 1:889 2:860 
0.125 1:894 2:865 
0.125 1:891 2:863 
0.125 1:894 2:865 
0.125 1:893 2:865 
0.09467086500066507 1:888 2:860 
0.1103976307479669 1:884 2:858 
0.125 1:883 2:857 
0.125 1:885 2:860 
0.08228096849311804 1:890 2:864 
0.125 1:883 2:858 
0.125 1:881 2:857 
0.07495610413073257 1:882 2:858 
0.125 1:887 2:864 
0.001637447234894019 1:884 2:861 
0.125 1:880 2:857 
0.125 1:878 2:857 
0.125 1:878 2:857 
0.01364257788202603 1:880 2:860 
0.125 1:880 2:861 
0.125 1:876 2:856 
0.125 1:875 2:856 
0.125 1:876 2:858 
0.006070366118677332 1:882 2:862 
0.06554825218384305 1:879 2:859 
0.125 1:879 2:860 
0.1235218264256362 1:925 2:880 
0.125 1:930 2:884 
0.125 1:932 2:887 
0.04697600393189739 1:928 2:886 
0.1220143414160907 1:926 2:884 
0.125 1:926 2:884 
0.1124047418917745 1:921 2:881 
0.125 1:922 2:882 
0.07123989006411738 1:923 2:884 
0.08064477203580689 1:922 2:883 
0.02037818059707482 1:915 2:878 
0.125 1:918 2:882 
0.08189474085284014 1:916 2:880 
0.008471527123132329 1:918 2:881 
0.125 1:913 2:878 
0.125 1:911 2:876 
0.1178471608148707 1:897 2:864 
0.06874189952829386 1:891 2:858 
0.007094932721109672 1:888 2:859 
0.05760821431792175 1:886 2:858 
0.05237051661655866 1:889 2:861 
0.125 1:885 2:857 
0.125 1:887 2:861 
0.01305167594388033 1:887 2:859 
0.125 1:886 2:860 
0.125 1:890 2:865 
0.125 1:892 2:867 
0.125 1:891 2:866 
0.125 1:888 2:864 
0.1122699517494102 1:888 2:864 
0.1034254244137245 1:884 2:863 
0.002870770391403543 1:885 2:863 
0.125 1:887 2:865 
0.125 1:884 2:864 
0.125 1:882 2:862 
0.08990819960545164 1:884 2:863 
0.125 1:884 2:864 
0.125 1:881 2:862 
0.125 1:876 2:856 
0.125 1:875 2:855 
0.1209303291886576 1:879 2:859 
0.125 1:882 2:862 
0.04341731284293239 1:881 2:861 
0.125 1:929 2:880 
0.125 1:928 2:881 
0.125 1:927 2:880 
0.125 1:926 2:880 
0.01583158396469328 1:927 2:882 
0.125 1:923 2:878 
0.125 1:919 2:875 
0.125 1:921 2:877 
0.125 1:925 2:879 
0.04239054043726153 1:923 2:880 
0.125 1:923 2:879 
0.125 1:920 2:876 
0.125 1:919 2:876 
0.125 1:918 2:875 
0.125 1:916 2:875 
0.125 1:921 2:878 
0.02102591434754269 1:921 2:879 
0.005205699726754831 1:918 2:876 
0.125 1:916 2:875 
0.125 1:915 2:875 
0.03142081511462999 1:920 2:880 
0.07969418729425665 1:918 2:879 
0.1236625708333891 1:918 2:879 
0.125 1:913 2:874 
0.125 1:912 2:873 
0.125 1:912 2:873 
0.125 1:915 2:878 
0.1129317944715475 1:916 2:878 
0.1168809809567539 1:913 2:874 
0.125 1:911 2:872 
0.125 1:911 2:875 
0.08882492543231646 1:919 2:880 
0.125 1:931 2:883 
0.125 1:932 2:885 
0.125 1:930 2:884 
0.006987824055397105 1:931 2:886 
0.125 1:928 2:883 
0.02906878897123372 1:929 2:884 
0.125 1:931 2:886 
0.125 1:933 2:889 
0.125 1:933 2:889 
0.06589681809115371 1:931 2:890 
0.125 1:934 2:892 
0.125 1:933 2:893 
0.09127411168600114 1:933 2:892 
0.1136547089903276 1:923 2:884 
0.01501474733462157 1:929 2:892 
0.125 1:929 2:892 
0.1026494650678094 1:926 2:890 
0.1136214715634158 1:925 2:890 
0.08184930753544034 1:920 2:886 
0.125 1:919 2:885 
0.125 1:915 2:881 
0.125 1:929 2:888 
0.02123247035804908 1:927 2:886 
0.1068670436947992 1:927 2:886 
0.06097529366081449 1:928 2:888 
0.125 1:928 2:888 
0.09894932589174404 1:923 2:886 
0.09602965077376613 1:925 2:888 
0.125 1:923 2:886 
0.06132741098293699 1:920 2:884 
0.03441193478753284 1:921 2:885 
0.07290543420919648 1:917 2:882 
0.09594967719984868 1:913 2:879 
0.07340746829951024 1:912 2:879 
0.125 1:911 2:877 
0.125 1:913 2:881 
0.125 1:915 2:884 
0.125 1:917 2:886 
0.02398949347226303 1:915 2:883 
0.125 1:916 2:885 
0.04074693086100285 1:912 2:880 
0.125 1:908 2:877 
0.03545054475380745 1:909 2:879 
0.125 1:909 2:878 
0.125 1:907 2:878 
0.125 1:909 2:880 
0.125 1:905 2:878 
0.125 1:909 2:881 
0.125 1:907 2:879 
0.01931902456939131 1:930 2:888 
0.004438070491141992 1:931 2:889 
0.1224428151161378 1:930 2:890 
0.125 1:936 2:895 
0.125 1:932 2:894 
0.0971029289574683 1:932 2:893 
0.125 1:934 2:896 
0.03497862693720035 1:925 2:887 
0.125 1:925 2:887 
0.125 1:928 2:892 
0.125 1:931 2:895 
0.125 1:931 2:896 
0.125 1:928 2:893 
0.02895768690171544 1:927 2:891 
0.125 1:928 2:892 
0.125 1:920 2:888 
0.09676677656152927 1:921 2:889 
0.125 1:919 2:887 
0.04101352926172883 1:922 2:890 
0.125 1:923 2:891 
0.125 1:925 2:893 
0.125 1:921 2:889 
0.125 1:922 2:891 
0.125 1:923 2:892 
0.1240271000901956 1:921 2:889 
0.125 1:914 2:883 
0.001118091293079951 1:914 2:885 
0.04037016324670895 1:912 2:882 
0.05224432743031027 1:910 2:882 
0.125 1:910 2:882 
0.1167805930415503 1:910 2:882 
0.125 1:913 2:886 
0.125 1:911 2:885 
0.125 1:913 2:886 
0.125 1:915 2:888 
0.125 1:911 2:885 
0.09534832630426417 1:912 2:885 
0.125 1:913 2:888 
0.125 1:909 2:884 
-0.125 1:315 2:68 
-0.125 1:317 2:70 
-0.125 1:319 2:69 
-0.125 1:319 2:69 
-0.125 1:318 2:68 
-0.125 1:318 2:68 
-0.125 1:318 2:68 
-0.125 1:318 2:67 
-0.125 1:318 2:67 
-0.125 1:316 2:66 
-0.007824445043270734 1:316 2:65 
-0.125 1:317 2:65 
-0.125 1:317 2:65 
-0.125 1:316 2:65 
-0.125 1:317 2:64 
-0.125 1:316 2:64 
-0.125 1:314 2:64 
-0.125 1:315 2:63 
-0.125 1:316 2:63 
-0.125 1:313 2:63 
-0.125 1:314 2:61 
-0.04121501513013613 1:314 2:62 
-0.1149399529579368 1:314 2:62 
-0.125 1:312 2:62 
-0.02398323971355949 1:313 2:62 
-0.125 1:314 2:61 
-0.125 1:311 2:61 
-0.125 1:310 2:61 
-0.125 1:313 2:60 
-0.1221856847227541 1:312 2:60 
-0.09736599994069084 1:312 2:60 
-0.125 1:312 2:59 
-0.125 1:310 2:60 
-0.125 1:308 2:59 
-0.04491296851176933 1:309 2:59 
-0.125 1:310 2:58 
-0.125 1:308 2:58 
-0.125 1:307 2:58 
-0.125 1:309 2:58 
-0.125 1:309 2:58 
-0.125 1:308 2:58 
-0.125 1:308 2:58 
-0.125 1:286 2:56 
-0.02506390497750204 1:286 2:55 
-0.125 1:284 2:55 
-0.125 1:286 2:56 
-0.1112107331391082 1:288 2:55 
-0.125 1:287 2:56 
-0.125 1:286 2:56 
-0.06537516912619527 1:288 2:55 
-0.125 1:290 2:54 
-0.125 1:291 2:54 
-0.125 1:286 2:55 
-0.125 1:289 2:53 
-0.125 1:289 2:53 
-0.125 1:289 2:53 
-0.0737440178356972 1:289 2:54 
-0.125 1:288 2:52 
-0.125 1:289 2:54 
-0.1116822363099114 1:285 2:53 
-0.125 1:286 2:51 
-0.1009569715677798 1:287 2:52 
-0.125 1:285 2:51 
-0.125 1:285 2:52 
-0.125 1:285 2:52 
-0.125 1:284 2:52 
-0.125 1:285 2:51 
-0.125 1:283 2:51 
-0.125 1:280 2:62 
-0.0956010341016105 1:280 2:62 
-0.125 1:281 2:61 
-0.125 1:282 2:60 
-0.125 1:281 2:60 
-0.125 1:281 2:60 
-0.125 1:281 2:59 
-0.125 1:282 2:58 
-0.125 1:281 2:58 
-0.125 1:280 2:57 
-0.125 1:280 2:57 
-0.125 1:280 2:57 
-0.09277609140215928 1:278 2:55 
-0.125 1:279 2:55 
-0.125 1:279 2:55 
-0.125 1:276 2:54 
-0.125 1:279 2:55 
-0.125 1:278 2:54 
-0.125 1:276 2:54 
-0.125 1:277 2:54 
-0.125 1:276 2:54 
-0.125 1:272 2:65 
-0.125 1:273 2:64 
-0.125 1:274 2:64 
-0.125 1:275 2:61 
-0.125 1:275 2:61 
-0.125 1:277 2:61 
-0.07952627004375912 1:275 2:60 
-0.125 1:278 2:60 
-0.125 1:277 2:60 
-0.112727968655211 1:277 2:59 
-0.01311801414995369 1:276 2:58 
-0.06593221533306678 1:277 2:58 
-0.125 1:269 2:59 
-0.06384054537505056 1:269 2:59 
-0.01233065569506611 1:270 2:59 
-0.125 1:270 2:59 
-0.01107609858311171 1:272 2:59 
-0.125 1:272 2:59 
-0.125 1:272 2:59 
-0.001313441624027487 1:274 2:59 
-0.125 1:274 2:59 
-0.125 1:273 2:58 
-0.125 1:275 2:57 
-0.125 1:275 2:57 
-0.04380543195634392 1:273 2:58 
-0.125 1:277 2:58 
-0.02776466133841381 1:276 2:57 
-0.125 1:262 2:61 
-0.125 1:262 2:59 
-0.125 1:263 2:60 
-0.125 1:262 2:60 
-0.125 1:263 2:60 
-0.125 1:262 2:59 
-0.125 1:263 2:60 
-0.08390415797522796 1:265 2:59 
-0.1019111938026404 1:266 2:60 
-0.125 1:266 2:60 
-0.125 1:266 2:60 
-0.06426914942782652 1:269 2:61 
-0.125 1:268 2:61 
-0.125 1:266 2:61 
-0.125 1:268 2:61 
-0.125 1:267 2:61 
-0.125 1:269 2:62 
-0.125 1:271 2:62 
-0.125 1:271 2:62 
-0.09436774330181338 1:272 2:62 
-0.125 1:271 2:62 
-0.103046358931604 1:272 2:62 
-0.125 1:274 2:64 
-0.125 1:274 2:64 
-0.02892505722961196 1:277 2:64 
-0.125 1:277 2:64 
-0.125 1:276 2:64 
-0.1182140417579813 1:277 2:64 
-0.125 1:280 2:65 
-0.125 1:277 2:65 
-0.125 1:281 2:64 
-0.125 1:276 2:64 
-0.125 1:279 2:65 
-0.03413359159015477 1:279 2:64 
-0.125 1:280 2:64 
-0.125 1:281 2:64 
-0.125 1:280 2:64 
-0.125 1:257 2:55 
-0.125 1:257 2:55 
-0.125 1:259 2:55 
-0.125 1:260 2:56 
-0.125 1:260 2:56 
-0.125 1:264 2:56 
-0.01084544371339208 1:266 2:56 
-0.06779908690787732 1:264 2:55 
-0.125 1:264 2:56 
-0.125 1:266 2:56 
-0.09496295961359211 1:266 2:56 
-0.08068329105055376 1:268 2:56 
-0.1215375170400152 1:269 2:56 
-0.00106315287974626 1:270 2:56 
-0.01378208935333154 1:270 2:55 
-0.125 1:271 2:56 
-0.125 1:271 2:56 
-0.125 1:259 2:55 
-0.125 1:262 2:56 
-0.02210306413455979 1:260 2:55 
-0.125 1:261 2:56 
-0.125 1:262 2:56 
-0.1224791964827124 1:265 2:56 
-0.125 1:268 2:56 
-0.125 1:267 2:56 
-0.125 1:270 2:56 
-0.08244792151328882 1:269 2:55 
-0.115992921389259 1:273 2:54 
-0.1161823439401127 1:273 2:54 
-0.003476458917872316 1:273 2:56 
-0.125 1:273 2:56 
-0.125 1:274 2:54 
-0.03172605443963857 1:274 2:55 
-0.125 1:252 2:52 
-0.125 1:253 2:52 
-0.125 1:255 2:53 
-0.125 1:256 2:53 
-0.125 1:255 2:53 
-0.125 1:256 2:53 
-0.125 1:256 2:52 
-0.125 1:258 2:52 
-0.125 1:258 2:52 
-0.125 1:259 2:53 
-0.00539241780793033 1:260 2:53 
-0.125 1:260 2:52 
-0.125 1:262 2:52 
-0.125 1:261 2:52 
-0.125 1:262 2:52 
-0.125 1:263 2:52 
-0.125 1:262 2:52 
-0.125 1:263 2:52 
-0.125 1:265 2:52 
-0.04711604626791527 1:266 2:52 
-0.125 1:265 2:52 
-0.125 1:266 2:52 
-0.125 1:266 2:52 
-0.125 1:267 2:52 
-0.1078408999599845 1:267 2:52 
-0.125 1:268 2:52 
-0.125 1:269 2:52 
-0.125 1:269 2:52 
-0.01744331131572311 1:270 2:52 
-0.125 1:272 2:52 
-0.125 1:270 2:51 
-0.125 1:272 2:51 
-0.06068946838560826 1:271 2:52 
-0.114646401541226 1:271 2:52 
-0.125 1:272 2:52 
-0.125 1:272 2:52 
