svm_type c_svc
kernel_type rbf
gamma 2
nr_class 2
total_sv 506
rho -0.185862
label 1 -1
nr_sv 294 212
SV
0.8012794126622943 1:908 2:864 
0.7151300959570651 1:907 2:863 
0.5331545180009195 1:906 2:863 
0.6576663119764563 1:905 2:863 
0.5308251586528929 1:905 2:864 
0.6315906583092397 1:906 2:864 
0.7305272838025763 1:905 2:865 
0.6450462460104407 1:900 2:862 
0.8138949179641789 1:903 2:864 
0.5309054094520862 1:900 2:863 
0.6318583087586147 1:901 2:863 
0.6315703562790833 1:901 2:862 
0.6319847643471916 1:896 2:858 
0.6283992559716157 1:895 2:858 
0.7164007515371132 1:896 2:859 
0.8008340789895425 1:893 2:856 
0.6412481904518383 1:893 2:858 
0.5449051580133271 1:894 2:858 
0.7165321134245205 1:894 2:859 
0.7136802971673776 1:892 2:857 
0.7302388477251326 1:900 2:864 
0.7301754656000227 1:896 2:861 
0.6176891999080197 1:895 2:862 
0.5692928350125795 1:892 2:859 
0.5444487267220295 1:891 2:859 
0.7297920119476528 1:894 2:861 
0.6461269968496006 1:896 2:863 
0.5325541605212839 1:896 2:864 
0.6435599128083684 1:897 2:865 
0.4574025831803412 1:892 2:858 
0.5663954053164572 1:890 2:859 
0.7067112330247526 1:890 2:857 
0.7187078169331144 1:889 2:856 
0.71711068391827 1:887 2:855 
0.6075959738359369 1:889 2:857 
0.6280553380597432 1:891 2:861 
0.6280001704769304 1:892 2:860 
0.6438909405953448 1:892 2:861 
0.7282015425456519 1:933 2:887 
0.8141316733559715 1:936 2:890 
0.7763868378718061 1:925 2:882 
0.6197168705936423 1:926 2:883 
0.4654526643282429 1:932 2:891 
0.6553288932099274 1:933 2:891 
0.7160966251951246 1:920 2:882 
0.4870777281092118 1:927 2:890 
0.475033615303955 1:925 2:889 
0.5356659299435749 1:920 2:883 
0.4765706645854719 1:922 2:884 
0.7168915721545402 1:918 2:884 
0.6308093682998924 1:916 2:882 
0.5572640606453427 1:921 2:886 
0.53262120046878 1:895 2:861 
0.5559159075722777 1:896 2:865 
0.6431824009881277 1:895 2:865 
0.7167561192508911 1:887 2:856 
0.5546919380318649 1:890 2:860 
0.4784259909904867 1:889 2:860 
0.8023556819398652 1:891 2:863 
0.627969180197094 1:894 2:865 
0.7283565699633784 1:893 2:865 
0.5675506389079833 1:888 2:860 
0.7153172991785591 1:884 2:858 
0.716821202807845 1:883 2:857 
0.7075262595266306 1:885 2:860 
0.6413318929426822 1:889 2:862 
0.6182266367643006 1:890 2:864 
0.5565524430109967 1:889 2:864 
0.5229297087322511 1:883 2:858 
0.7049910117438569 1:881 2:857 
0.7167620136889979 1:882 2:858 
0.6425367870380303 1:883 2:860 
0.5530994795786542 1:887 2:864 
0.6405027988862317 1:884 2:861 
0.7054038908393351 1:880 2:857 
0.5803002817165344 1:883 2:862 
0.801020722304234 1:878 2:857 
0.5323491530567883 1:880 2:860 
0.6444379804390092 1:880 2:861 
0.6199957360493592 1:875 2:856 
0.8138743922078316 1:876 2:858 
0.6459136137833872 1:879 2:860 
0.5441193043807001 1:925 2:880 
0.6293857319387632 1:932 2:887 
0.554224142329808 1:930 2:887 
0.5664890745117888 1:931 2:888 
0.5473462430356352 1:928 2:884 
0.6313858583294488 1:928 2:885 
0.5545714751367607 1:928 2:886 
0.708086251518384 1:926 2:884 
0.7022132018398446 1:921 2:881 
0.7153004925041957 1:922 2:882 
0.6400382952522168 1:925 2:885 
0.5652994381764945 1:924 2:886 
0.4761074778660391 1:923 2:885 
0.6300252259529476 1:922 2:883 
0.6234731930230071 1:918 2:882 
0.4880879768376357 1:922 2:886 
0.7051122744848889 1:916 2:880 
0.6923733807220983 1:917 2:880 
0.6950466480268416 1:918 2:881 
0.7186545771603435 1:913 2:878 
0.618070313848845 1:911 2:876 
0.5480338168008626 1:916 2:883 
0.6309318631500438 1:917 2:883 
0.632578549753251 1:919 2:883 
0.5346020336728993 1:895 2:863 
0.729354437688987 1:894 2:863 
0.6329540114210936 1:897 2:864 
0.6312802539464506 1:891 2:858 
0.4677800417530861 1:888 2:859 
0.5665657288654674 1:890 2:861 
0.717074046161595 1:888 2:858 
0.5744994839836949 1:889 2:859 
0.5529348453596351 1:888 2:861 
0.7152276448800043 1:886 2:858 
0.489586797747955 1:889 2:861 
0.5345679365568298 1:886 2:859 
0.7876743786438646 1:885 2:857 
0.6312234187632154 1:887 2:861 
0.6302890717472043 1:887 2:859 
0.6223893485105619 1:886 2:860 
0.5545946056537422 1:889 2:863 
0.7057921476895325 1:890 2:865 
0.7994472425804388 1:892 2:867 
0.7868868923785904 1:891 2:866 
0.5551011392696327 1:888 2:863 
0.6307105895447581 1:887 2:862 
0.5558975370371457 1:888 2:864 
0.4656903572008476 1:883 2:861 
0.5428577849232821 1:885 2:863 
0.4804633361838817 1:887 2:863 
0.4673037894957718 1:884 2:862 
0.6427230608603428 1:885 2:862 
0.72894358157735 1:887 2:865 
0.641607825870766 1:886 2:863 
0.6444820867828505 1:880 2:859 
0.7021483625742166 1:879 2:858 
0.643078390245243 1:882 2:860 
0.5562083740655576 1:884 2:863 
0.4796100480930044 1:882 2:861 
0.7286147861273332 1:884 2:864 
0.6435514313139618 1:881 2:862 
0.7164933685120051 1:876 2:856 
0.7171398732711707 1:875 2:855 
0.5348284174780437 1:879 2:859 
0.5644133944276739 1:882 2:862 
0.5426892447889315 1:881 2:861 
0.7998000326138257 1:929 2:880 
0.7728335338874084 1:928 2:881 
0.7137114938737641 1:927 2:880 
0.5369820889775552 1:926 2:880 
0.6905478002913341 1:926 2:881 
0.6923322886627112 1:927 2:882 
0.7298885259548054 1:923 2:878 
0.6319308599173252 1:919 2:875 
0.7153116186675894 1:921 2:877 
0.7060776244370163 1:924 2:881 
0.526314312810978 1:927 2:883 
0.7199229907106447 1:925 2:879 
0.5446994792615014 1:924 2:880 
0.5566405016843803 1:923 2:880 
0.6174329707071534 1:923 2:879 
0.7149167333007868 1:920 2:876 
0.5460247991114311 1:919 2:876 
0.6443064339987119 1:918 2:875 
0.6298271321306287 1:921 2:878 
0.5668741396859508 1:921 2:879 
0.4693181723839918 1:921 2:880 
0.4567051770714325 1:918 2:876 
0.6313350574633638 1:917 2:876 
0.7052872604639975 1:916 2:875 
0.6400240279864972 1:922 2:880 
0.5464613328858483 1:919 2:879 
0.6464002942523231 1:918 2:877 
0.6085121028724628 1:912 2:874 
0.7186821304090705 1:915 2:875 
0.5567080080839713 1:920 2:880 
0.5562470724174754 1:920 2:879 
0.7155964356593754 1:918 2:879 
0.70394276700637 1:912 2:873 
0.6194953154942374 1:917 2:877 
0.7180030813776002 1:915 2:878 
0.7054069822504306 1:916 2:878 
0.7186339771796794 1:913 2:874 
0.8012566369692249 1:911 2:872 
0.7194271540196777 1:911 2:875 
0.6283185230987396 1:919 2:880 
0.8014682531141 1:931 2:883 
0.802106022693046 1:932 2:885 
0.7154319488861569 1:930 2:884 
0.643706370486427 1:928 2:883 
0.6193954860805297 1:929 2:884 
0.4699916467179501 1:931 2:887 
0.6384168477602377 1:931 2:886 
0.5568967618897751 1:930 2:886 
0.8014801796805084 1:933 2:889 
0.4680161431439455 1:931 2:890 
0.7302166009457463 1:934 2:892 
0.5830614409523232 1:932 2:892 
0.6435356758945335 1:933 2:893 
0.4418383020016143 1:933 2:892 
0.5697557761595579 1:931 2:891 
0.48673363070609 1:927 2:888 
0.6280794792248923 1:930 2:891 
0.4882873075748835 1:928 2:890 
0.4668205415035842 1:925 2:886 
0.6533900780082835 1:923 2:884 
0.630339931717693 1:927 2:887 
0.6399692594505055 1:929 2:890 
0.7063292750539242 1:929 2:892 
0.4991459588975201 1:927 2:889 
0.5003014649269245 1:922 2:885 
0.5544997368617031 1:928 2:891 
0.563305531674406 1:926 2:890 
0.6528903085763256 1:925 2:890 
0.7003950177489665 1:920 2:886 
0.7164586841559759 1:919 2:885 
0.6417360895711278 1:924 2:889 
0.7893160110780668 1:915 2:881 
0.6410167482590716 1:929 2:886 
0.6385542498300558 1:932 2:890 
0.6415455288410703 1:929 2:888 
0.5548955376492917 1:927 2:886 
0.5637940972120671 1:928 2:888 
0.5625109495728324 1:928 2:889 
0.6402334277760652 1:926 2:886 
0.5552107739776042 1:924 2:885 
0.5739552721036908 1:926 2:888 
0.4888106343149545 1:925 2:888 
0.5752198326051366 1:923 2:886 
0.5663751000400099 1:921 2:884 
0.5689251182263926 1:920 2:884 
0.553183541956313 1:921 2:885 
0.5357297287420842 1:917 2:882 
0.6195726605734045 1:913 2:879 
0.6234171129106456 1:912 2:879 
0.7297213027355455 1:911 2:877 
0.7875103637478446 1:913 2:881 
0.6181428186661786 1:915 2:884 
0.7999917073275671 1:917 2:886 
0.5457841769823321 1:915 2:883 
0.7875892638491679 1:916 2:885 
0.6920572453228181 1:912 2:880 
0.7886861034286855 1:908 2:877 
0.5350859193670029 1:914 2:884 
0.443666863329413 1:910 2:881 
0.6316839200647051 1:909 2:879 
0.7133193142674057 1:909 2:878 
0.7016450067718465 1:907 2:878 
0.6316382643630323 1:911 2:881 
0.6451267532210555 1:910 2:880 
0.5438965186372332 1:909 2:880 
0.8139235547414141 1:905 2:878 
0.6561512500644442 1:909 2:881 
0.7189978716584096 1:907 2:879 
0.5541931001524611 1:930 2:888 
0.6411208556994202 1:931 2:889 
0.5564256398831912 1:930 2:890 
0.8141766910511257 1:936 2:895 
0.7159090873851992 1:932 2:894 
0.5429289652902238 1:932 2:893 
0.8145050813310881 1:934 2:896 
0.4893281981858422 1:926 2:889 
0.6413638229541461 1:925 2:887 
0.5550825134096048 1:924 2:888 
0.7037606290094556 1:931 2:895 
0.7186812813298163 1:931 2:896 
0.7285026743527692 1:928 2:893 
0.6439925993653568 1:927 2:891 
0.5329416627413257 1:928 2:892 
0.6301890761811153 1:923 2:888 
0.6283572228447561 1:922 2:888 
0.6308285738946589 1:922 2:887 
0.4474532595929639 1:919 2:884 
0.7850610659670707 1:920 2:888 
0.7866914853426972 1:919 2:887 
0.7046758830557877 1:922 2:890 
0.6198669528656642 1:923 2:891 
0.8141872061577957 1:925 2:893 
0.6214913791752991 1:922 2:891 
0.7186030209007129 1:923 2:892 
0.7753237708623527 1:921 2:889 
0.656029775898748 1:914 2:883 
0.7148178893476888 1:914 2:885 
0.7153563383928508 1:912 2:882 
0.5345705280534078 1:911 2:882 
0.6577301099324214 1:910 2:882 
0.7879442080797037 1:913 2:886 
0.8142876137044918 1:915 2:888 
0.7188589603324131 1:911 2:885 
0.7022336334120247 1:912 2:885 
0.8136763413242151 1:913 2:888 
0.8141185714072903 1:909 2:884 
-1.185304197148398 1:315 2:68 
-1.186000507433231 1:317 2:70 
-1.166941603625908 1:319 2:69 
-1.025282368769567 1:318 2:68 
-1.030529672473022 1:318 2:67 
-0.9369587728831382 1:316 2:66 
-0.9176706633556531 1:317 2:66 
-0.7930452385349909 1:317 2:65 
-0.8107829569468135 1:316 2:65 
-0.9393769869381785 1:317 2:64 
-0.7904338236814621 1:316 2:64 
-1.147818238041835 1:314 2:64 
-1.008517918549815 1:315 2:63 
-0.924487425647834 1:316 2:63 
-1.027217842709459 1:313 2:63 
-0.9046126312100773 1:314 2:62 
-0.9388478523161981 1:312 2:62 
-0.7630362252218381 1:313 2:62 
-1.029872808711248 1:314 2:61 
-0.7925592402491979 1:311 2:61 
-0.8120322176709883 1:312 2:61 
-0.953765586349358 1:310 2:61 
-1.041568047228859 1:313 2:60 
-0.8120278552646839 1:311 2:60 
-0.6661809548835801 1:312 2:60 
-1.06111969471231 1:312 2:59 
-0.807515283263504 1:310 2:60 
-0.936845958329367 1:308 2:59 
-0.8095948724377003 1:310 2:59 
-0.7925487898695525 1:309 2:59 
-0.9517964482415063 1:310 2:58 
-1.06124463421488 1:307 2:58 
-0.8101558097110524 1:309 2:58 
-0.7910721581498101 1:308 2:58 
-1.185367193465421 1:284 2:55 
-0.8427790156450137 1:287 2:54 
-0.9371980641408237 1:287 2:56 
-0.9198043951789803 1:286 2:56 
-0.9547689168543243 1:288 2:55 
-0.6585571977429125 1:287 2:55 
-0.9145594028539228 1:290 2:54 
-1.062098327179801 1:291 2:54 
-0.9385065527043756 1:286 2:55 
-0.9347076251117616 1:289 2:53 
-0.9502412561702724 1:288 2:52 
-0.8108423931523707 1:289 2:54 
-0.95281079066076 1:285 2:53 
-0.6957716783916086 1:288 2:54 
-0.711070922246949 1:287 2:53 
-0.8219862765872712 1:286 2:53 
-0.9368676149247628 1:286 2:51 
-0.6943127245301119 1:288 2:53 
-0.8212067714368793 1:287 2:52 
-0.6621509218579567 1:285 2:52 
-0.6986457523722545 1:286 2:52 
-1.040375636998031 1:284 2:52 
-0.9367660758338523 1:285 2:51 
-1.166041020245516 1:283 2:51 
-0.7885674938590521 1:280 2:61 
-1.027516147120364 1:279 2:62 
-0.9218463632932705 1:280 2:62 
-0.9374643870556355 1:281 2:61 
-1.063700237656942 1:282 2:60 
-0.8442826167573767 1:280 2:60 
-0.6616195971868829 1:281 2:60 
-0.8081374791834984 1:281 2:59 
-0.8250394955865588 1:280 2:59 
-1.061393351478336 1:282 2:58 
-0.6940447738495936 1:280 2:58 
-0.8056150192627911 1:281 2:58 
-0.952683929630344 1:280 2:57 
-0.7379270916255476 1:278 2:57 
-0.6925976512797876 1:279 2:57 
-0.6748673753107236 1:278 2:55 
-0.9520223302388046 1:279 2:55 
-0.9548135240081698 1:278 2:54 
-0.7905287669930127 1:277 2:54 
-1.045725076014277 1:276 2:54 
-0.8238168993603707 1:277 2:55 
-1.167379882507865 1:272 2:65 
-1.024659980088688 1:273 2:64 
-0.9511421714835049 1:276 2:62 
-0.6806053519044062 1:275 2:62 
-0.8296714947460674 1:275 2:61 
-0.6765618657423967 1:276 2:61 
-0.9521649964448262 1:277 2:61 
-0.7149790802333162 1:276 2:60 
-0.9292926830717259 1:275 2:60 
-0.9496068662309745 1:278 2:60 
-0.6924978735966331 1:277 2:60 
-0.8356241270798382 1:276 2:59 
-0.7105425632231854 1:277 2:59 
-0.8212469648892043 1:278 2:59 
-0.7216459460412391 1:278 2:58 
-0.838446120811441 1:279 2:58 
-0.7229447234374387 1:276 2:58 
-0.6971987055117661 1:269 2:60 
-0.9344869626842242 1:268 2:60 
-0.8235685991732117 1:271 2:60 
-0.9492450147856411 1:269 2:59 
-0.6963555664960892 1:270 2:60 
-0.8251001387386713 1:270 2:59 
-0.8082298173625554 1:271 2:59 
-1.041130974630128 1:272 2:59 
-1.028484230389815 1:274 2:59 
-0.7785033685239482 1:274 2:58 
-0.8257440924094248 1:275 2:57 
-1.041791464381205 1:273 2:58 
-0.7364011474220544 1:277 2:58 
-0.8227380508623126 1:275 2:58 
-0.7080725760106947 1:276 2:57 
-0.7228892384602562 1:277 2:56 
-0.8206867373882308 1:279 2:56 
-0.7361675767506883 1:277 2:57 
-0.7260446701119742 1:278 2:56 
-1.06398137279594 1:262 2:61 
-0.7563000537896292 1:262 2:60 
-1.064443127715371 1:262 2:59 
-1.04464894906244 1:263 2:60 
-1.16699115354315 1:265 2:59 
-1.022233162417056 1:266 2:60 
-0.6961646230209962 1:269 2:61 
-0.923331224319338 1:266 2:61 
-0.8085137712171566 1:268 2:61 
-0.9151759098741666 1:267 2:61 
-1.060979651824871 1:269 2:62 
-0.8231144820609448 1:270 2:61 
-0.8062853103487608 1:271 2:61 
-0.9346936471874001 1:273 2:62 
-0.9366274744307344 1:271 2:62 
-0.9172990561723575 1:272 2:62 
-0.8291672340960159 1:274 2:62 
-0.7754244359802801 1:274 2:63 
-1.030491319730163 1:278 2:63 
-0.9196717929275773 1:275 2:63 
-0.9246787526331681 1:274 2:64 
-0.7763389923552358 1:277 2:64 
-0.9198011287025838 1:280 2:65 
-1.046591591037573 1:277 2:65 
-0.7953092781083811 1:278 2:64 
-1.043738261003861 1:276 2:64 
-0.9225630309747228 1:279 2:65 
-0.8095385885802847 1:279 2:64 
-1.061619183739857 1:281 2:64 
-0.7905253024928208 1:280 2:64 
-1.185509029721324 1:257 2:55 
-0.937399442487407 1:260 2:56 
-0.8260004665926762 1:261 2:55 
-0.905350089210728 1:259 2:54 
-0.821372106357674 1:264 2:55 
-0.821540945538616 1:267 2:55 
-0.8218473548594293 1:264 2:56 
-0.8217821069561544 1:266 2:56 
-0.8234668854342725 1:270 2:55 
-0.9352867343609061 1:271 2:56 
-0.8237557678003116 1:269 2:56 
-0.9324657176667663 1:272 2:55 
-0.8358704449437382 1:276 2:56 
-0.6966204202109842 1:275 2:56 
-0.9388437491352667 1:259 2:55 
-0.7881217148248799 1:260 2:55 
-0.8058090011684534 1:261 2:56 
-0.8208577064983859 1:262 2:55 
-0.8241654991162491 1:262 2:56 
-0.8214096368525517 1:263 2:55 
-0.8211359942363847 1:263 2:56 
-0.8212369523936494 1:265 2:55 
-0.8212241139312841 1:266 2:55 
-0.8214440935510787 1:265 2:56 
-0.8381774063637888 1:268 2:56 
-0.8216901993077015 1:267 2:56 
-0.9379723747425084 1:268 2:54 
-0.6920990560801623 1:268 2:55 
-0.8059514990937835 1:270 2:56 
-0.8208594281769875 1:269 2:55 
-0.8059680959688212 1:271 2:55 
-0.9188178566565417 1:273 2:54 
-0.9512925891646243 1:273 2:56 
-0.9390037095911153 1:274 2:54 
-0.6815676873693249 1:273 2:55 
-0.8250049884836869 1:274 2:56 
-0.6813094073627157 1:274 2:55 
-0.9317341536730851 1:275 2:55 
-1.044679633436669 1:252 2:52 
-1.044377842341621 1:253 2:52 
-1.044453764747728 1:255 2:53 
-0.902946371436788 1:256 2:53 
-1.044187337445411 1:256 2:52 
-1.168479702551512 1:258 2:52 
-0.9025474114450205 1:259 2:53 
-0.9051537697305044 1:260 2:53 
-0.922035234166295 1:260 2:52 
-0.9195008296944165 1:261 2:52 
-0.9175729771373652 1:262 2:52 
-0.9195629034790226 1:263 2:52 
-1.0438864422338 1:263 2:53 
-1.043870933244371 1:265 2:53 
-0.9199069074843302 1:265 2:52 
-0.915298077691778 1:266 2:52 
-0.9353032378774611 1:267 2:52 
-0.8232867813407726 1:268 2:52 
-0.8051222853983218 1:268 2:53 
-0.8233996546540837 1:269 2:52 
-0.8447439426515051 1:270 2:53 
-0.8056834864667411 1:269 2:53 
-0.6767138341019627 1:270 2:52 
-1.063617535609618 1:270 2:51 
-1.063678335695453 1:272 2:51 
-0.9367550537983714 1:272 2:53 
-0.8080238409353248 1:271 2:53 
-0.8059421236217172 1:271 2:52 
-0.7908517784318324 1:272 2:52 
