svm_type c_svc
kernel_type rbf
gamma 2
nr_class 2
total_sv 914
rho -0.243274
label 1 -1
nr_sv 457 457
SV
0.125 1:908 2:864 
0.125 1:907 2:863 
0.125 1:906 2:863 
0.125 1:906 2:864 
0.125 1:905 2:863 
0.125 1:905 2:864 
0.125 1:906 2:864 
0.125 1:905 2:865 
0.125 1:901 2:863 
0.125 1:900 2:862 
0.125 1:901 2:863 
0.125 1:903 2:864 
0.125 1:900 2:863 
0.125 1:901 2:863 
0.125 1:901 2:862 
0.125 1:896 2:858 
0.125 1:895 2:858 
0.125 1:896 2:859 
0.125 1:893 2:856 
0.125 1:893 2:858 
0.125 1:894 2:858 
0.125 1:894 2:859 
0.125 1:892 2:857 
0.125 1:894 2:861 
0.125 1:895 2:862 
0.125 1:897 2:864 
0.125 1:900 2:864 
0.125 1:896 2:861 
0.125 1:895 2:861 
0.125 1:895 2:862 
0.125 1:895 2:861 
0.125 1:897 2:865 
0.125 1:892 2:859 
0.125 1:891 2:859 
0.125 1:892 2:858 
0.125 1:894 2:861 
0.125 1:896 2:863 
0.125 1:896 2:864 
0.125 1:896 2:864 
0.125 1:897 2:865 
0.125 1:892 2:858 
0.125 1:887 2:855 
0.125 1:890 2:859 
0.125 1:890 2:857 
0.125 1:889 2:856 
0.125 1:887 2:855 
0.125 1:889 2:857 
0.125 1:892 2:861 
0.125 1:891 2:861 
0.125 1:892 2:860 
0.125 1:892 2:861 
0.125 1:933 2:887 
0.125 1:936 2:890 
0.125 1:936 2:890 
0.125 1:930 2:887 
0.125 1:929 2:884 
0.125 1:925 2:882 
0.125 1:928 2:885 
0.125 1:928 2:886 
0.125 1:927 2:886 
0.125 1:926 2:883 
0.125 1:928 2:888 
0.125 1:931 2:889 
0.125 1:931 2:890 
0.125 1:932 2:891 
0.125 1:933 2:891 
0.125 1:932 2:890 
0.125 1:927 2:888 
0.125 1:929 2:890 
0.125 1:930 2:890 
0.125 1:926 2:886 
0.125 1:920 2:882 
0.125 1:924 2:886 
0.125 1:929 2:890 
0.125 1:928 2:890 
0.125 1:930 2:890 
0.125 1:924 2:885 
0.125 1:922 2:884 
0.125 1:927 2:889 
0.125 1:928 2:891 
0.125 1:927 2:890 
0.125 1:927 2:888 
0.125 1:922 2:884 
0.125 1:920 2:882 
0.125 1:922 2:885 
0.125 1:927 2:890 
0.125 1:924 2:888 
0.125 1:925 2:889 
0.125 1:926 2:888 
0.125 1:920 2:883 
0.125 1:922 2:884 
0.125 1:926 2:890 
0.125 1:924 2:888 
0.125 1:924 2:886 
0.125 1:918 2:884 
0.125 1:916 2:882 
0.125 1:925 2:890 
0.0646902354758675 1:922 2:887 
0.125 1:921 2:885 
0.125 1:921 2:886 
0.125 1:895 2:861 
0.125 1:897 2:864 
0.125 1:894 2:863 
0.125 1:896 2:865 
0.125 1:895 2:865 
0.125 1:887 2:856 
0.125 1:890 2:860 
0.125 1:889 2:860 
0.125 1:894 2:865 
0.125 1:891 2:863 
0.125 1:894 2:865 
0.125 1:893 2:865 
0.125 1:889 2:862 
0.125 1:888 2:860 
0.125 1:884 2:858 
0.125 1:883 2:857 
0.125 1:885 2:860 
0.125 1:887 2:862 
0.125 1:889 2:862 
0.125 1:889 2:863 
0.125 1:890 2:864 
0.125 1:889 2:864 
0.125 1:887 2:862 
0.125 1:883 2:858 
0.125 1:881 2:857 
0.125 1:882 2:858 
0.125 1:883 2:860 
0.125 1:887 2:864 
0.125 1:883 2:861 
0.125 1:884 2:861 
0.125 1:884 2:861 
0.125 1:880 2:857 
0.125 1:883 2:862 
0.125 1:884 2:863 
0.125 1:882 2:860 
0.125 1:882 2:860 
0.125 1:878 2:857 
0.125 1:878 2:857 
0.125 1:879 2:858 
0.125 1:880 2:860 
0.125 1:884 2:862 
0.125 1:879 2:859 
0.125 1:879 2:858 
0.125 1:880 2:861 
0.125 1:876 2:856 
0.125 1:875 2:856 
0.125 1:876 2:858 
0.125 1:882 2:862 
0.125 1:879 2:859 
0.125 1:881 2:861 
0.125 1:879 2:860 
0.125 1:927 2:883 
0.125 1:925 2:880 
0.125 1:930 2:884 
0.125 1:931 2:887 
0.125 1:932 2:887 
0.125 1:930 2:887 
0.125 1:931 2:888 
0.125 1:928 2:884 
0.125 1:928 2:885 
0.125 1:928 2:886 
0.125 1:926 2:884 
0.125 1:926 2:884 
0.125 1:922 2:880 
0.125 1:921 2:881 
0.125 1:920 2:879 
0.125 1:921 2:880 
0.125 1:920 2:880 
0.125 1:922 2:882 
0.125 1:919 2:879 
0.125 1:920 2:880 
0.125 1:923 2:884 
0.125 1:922 2:883 
0.125 1:925 2:885 
0.125 1:925 2:885 
0.125 1:924 2:885 
0.125 1:924 2:886 
0.125 1:923 2:885 
0.125 1:919 2:879 
0.125 1:916 2:878 
0.125 1:923 2:886 
0.125 1:923 2:886 
0.125 1:922 2:883 
0.125 1:922 2:885 
0.125 1:916 2:878 
0.125 1:915 2:878 
0.125 1:918 2:882 
0.125 1:923 2:886 
0.125 1:922 2:886 
0.1144480899598672 1:921 2:884 
0.125 1:918 2:881 
0.125 1:916 2:880 
0.125 1:917 2:880 
0.125 1:921 2:885 
0.125 1:922 2:885 
0.125 1:918 2:881 
0.125 1:919 2:883 
0.125 1:913 2:878 
0.125 1:911 2:876 
0.125 1:916 2:883 
0.125 1:917 2:883 
0.125 1:919 2:883 
0.125 1:895 2:863 
0.125 1:894 2:863 
0.125 1:897 2:864 
0.125 1:891 2:858 
0.125 1:888 2:859 
0.125 1:890 2:861 
0.125 1:888 2:858 
0.125 1:889 2:859 
0.125 1:888 2:861 
0.125 1:886 2:858 
0.125 1:889 2:861 
0.125 1:886 2:859 
0.125 1:885 2:857 
0.125 1:887 2:861 
0.125 1:887 2:859 
0.125 1:886 2:860 
0.125 1:889 2:863 
0.125 1:889 2:863 
0.125 1:890 2:865 
0.125 1:892 2:867 
0.125 1:891 2:866 
0.125 1:888 2:863 
0.125 1:888 2:864 
0.125 1:887 2:862 
0.125 1:888 2:864 
0.125 1:883 2:861 
0.125 1:884 2:862 
0.125 1:884 2:863 
0.125 1:886 2:863 
0.125 1:885 2:863 
0.125 1:887 2:863 
0.125 1:884 2:862 
0.125 1:886 2:863 
0.125 1:885 2:862 
0.125 1:887 2:865 
0.125 1:886 2:863 
0.125 1:880 2:859 
0.125 1:879 2:858 
0.125 1:882 2:860 
0.125 1:882 2:861 
0.125 1:884 2:864 
0.125 1:882 2:862 
0.125 1:884 2:863 
0.125 1:882 2:861 
0.125 1:884 2:864 
0.125 1:881 2:862 
0.125 1:876 2:856 
0.125 1:875 2:855 
0.125 1:879 2:859 
0.125 1:882 2:862 
0.125 1:881 2:861 
0.125 1:929 2:880 
0.125 1:928 2:881 
0.125 1:927 2:880 
0.125 1:926 2:880 
0.125 1:926 2:881 
0.125 1:927 2:882 
0.125 1:923 2:878 
0.125 1:919 2:875 
0.125 1:921 2:877 
0.125 1:924 2:881 
0.125 1:927 2:883 
0.125 1:925 2:879 
0.125 1:924 2:880 
0.125 1:923 2:880 
0.125 1:923 2:879 
0.125 1:920 2:876 
0.125 1:919 2:876 
0.125 1:918 2:875 
0.125 1:916 2:875 
0.125 1:921 2:878 
0.125 1:920 2:880 
0.125 1:922 2:880 
0.125 1:921 2:879 
0.125 1:922 2:880 
0.125 1:921 2:879 
0.125 1:921 2:880 
0.125 1:918 2:876 
0.125 1:917 2:876 
0.125 1:916 2:875 
0.125 1:920 2:880 
0.125 1:918 2:879 
0.125 1:922 2:880 
0.125 1:919 2:879 
0.125 1:918 2:877 
0.125 1:912 2:874 
0.125 1:915 2:875 
0.125 1:920 2:880 
0.125 1:920 2:879 
0.125 1:919 2:880 
0.125 1:918 2:879 
0.125 1:918 2:879 
0.125 1:913 2:874 
0.125 1:912 2:873 
0.125 1:912 2:873 
0.125 1:917 2:877 
0.125 1:915 2:878 
0.125 1:916 2:878 
0.125 1:913 2:874 
0.125 1:911 2:872 
0.125 1:911 2:875 
0.125 1:919 2:880 
0.125 1:931 2:883 
0.125 1:932 2:885 
0.125 1:930 2:884 
0.125 1:931 2:886 
0.125 1:928 2:883 
0.125 1:929 2:884 
0.125 1:931 2:887 
0.125 1:931 2:886 
0.125 1:930 2:886 
0.125 1:933 2:889 
0.125 1:933 2:889 
0.125 1:932 2:890 
0.125 1:931 2:890 
0.125 1:934 2:892 
0.125 1:932 2:892 
0.125 1:933 2:893 
0.125 1:933 2:892 
0.125 1:931 2:891 
0.125 1:928 2:888 
0.125 1:926 2:886 
0.125 1:928 2:888 
0.125 1:927 2:888 
0.125 1:927 2:889 
0.125 1:930 2:891 
0.125 1:928 2:890 
0.125 1:925 2:886 
0.125 1:923 2:884 
0.125 1:927 2:887 
0.125 1:929 2:892 
0.125 1:929 2:890 
0.125 1:929 2:892 
0.125 1:926 2:888 
0.125 1:925 2:888 
0.125 1:927 2:889 
0.125 1:921 2:884 
0.125 1:922 2:885 
0.125 1:921 2:884 
0.125 1:925 2:888 
0.125 1:928 2:891 
0.125 1:926 2:890 
0.125 1:925 2:890 
0.125 1:920 2:886 
0.125 1:917 2:882 
0.125 1:919 2:885 
0.125 1:924 2:889 
0.125 1:922 2:887 
0.125 1:922 2:887 
0.125 1:924 2:889 
0.125 1:922 2:887 
0.125 1:917 2:882 
0.125 1:915 2:881 
0.125 1:929 2:886 
0.125 1:932 2:890 
0.125 1:929 2:888 
0.125 1:927 2:886 
0.125 1:927 2:886 
0.125 1:928 2:888 
0.125 1:928 2:888 
0.125 1:928 2:889 
0.125 1:926 2:886 
0.125 1:924 2:885 
0.125 1:924 2:885 
0.125 1:926 2:888 
0.125 1:923 2:886 
0.125 1:925 2:888 
0.125 1:923 2:886 
0.125 1:922 2:887 
0.125 1:921 2:884 
0.125 1:919 2:884 
0.125 1:920 2:884 
0.1156554107087828 1:921 2:884 
0.125 1:920 2:884 
0.125 1:921 2:885 
0.125 1:922 2:888 
0.125 1:917 2:882 
0.125 1:917 2:882 
0.125 1:913 2:879 
0.125 1:912 2:880 
0.125 1:912 2:879 
0.125 1:911 2:877 
0.125 1:913 2:881 
0.125 1:915 2:883 
0.125 1:915 2:884 
0.125 1:917 2:886 
0.125 1:915 2:883 
0.125 1:914 2:884 
0.125 1:916 2:885 
0.125 1:912 2:880 
0.125 1:911 2:881 
0.125 1:908 2:877 
0.125 1:914 2:884 
0.125 1:910 2:881 
0.125 1:912 2:882 
0.125 1:909 2:879 
0.125 1:909 2:878 
0.125 1:907 2:878 
0.125 1:911 2:881 
0.125 1:910 2:880 
0.125 1:909 2:880 
0.125 1:905 2:878 
0.125 1:909 2:881 
0.125 1:907 2:879 
0.125 1:930 2:888 
0.125 1:931 2:889 
0.125 1:931 2:889 
0.125 1:930 2:890 
0.125 1:936 2:895 
0.125 1:932 2:894 
0.125 1:932 2:893 
0.125 1:934 2:896 
0.125 1:926 2:889 
0.125 1:925 2:887 
0.125 1:925 2:887 
0.125 1:924 2:888 
0.125 1:928 2:892 
0.125 1:931 2:895 
0.125 1:931 2:896 
0.125 1:928 2:893 
0.125 1:927 2:891 
0.125 1:928 2:892 
0.125 1:923 2:888 
0.125 1:922 2:888 
0.125 1:922 2:887 
0.125 1:919 2:884 
0.125 1:920 2:888 
0.125 1:921 2:889 
0.125 1:921 2:889 
0.125 1:919 2:887 
0.125 1:922 2:890 
0.125 1:923 2:891 
0.125 1:925 2:893 
0.125 1:921 2:889 
0.125 1:922 2:891 
0.125 1:923 2:892 
0.125 1:921 2:889 
0.125 1:914 2:883 
0.125 1:914 2:885 
0.125 1:912 2:882 
0.125 1:911 2:882 
0.125 1:912 2:882 
0.125 1:911 2:882 
0.125 1:910 2:882 
0.125 1:910 2:882 
0.125 1:910 2:882 
0.125 1:913 2:886 
0.125 1:911 2:885 
0.125 1:912 2:885 
0.125 1:913 2:886 
0.125 1:915 2:888 
0.125 1:911 2:885 
0.125 1:912 2:885 
0.125 1:913 2:888 
0.125 1:909 2:884 
-0.125 1:315 2:68 
-0.125 1:317 2:70 
-0.125 1:319 2:69 
-0.125 1:319 2:69 
-0.125 1:318 2:68 
-0.125 1:318 2:68 
-0.125 1:318 2:68 
-0.125 1:318 2:67 
-0.125 1:318 2:67 
-0.125 1:316 2:66 
-0.125 1:316 2:65 
-0.125 1:317 2:65 
-0.125 1:317 2:66 
-0.125 1:317 2:65 
-0.125 1:316 2:65 
-0.125 1:317 2:64 
-0.125 1:316 2:64 
-0.125 1:314 2:64 
-0.125 1:315 2:63 
-0.125 1:316 2:63 
-0.125 1:313 2:63 
-0.125 1:314 2:62 
-0.125 1:314 2:61 
-0.125 1:314 2:62 
-0.125 1:314 2:62 
-0.125 1:312 2:62 
-0.125 1:313 2:62 
-0.125 1:314 2:61 
-0.125 1:312 2:61 
-0.125 1:311 2:61 
-0.125 1:312 2:61 
-0.125 1:310 2:61 
-0.125 1:313 2:60 
-0.125 1:312 2:60 
-0.125 1:311 2:60 
-0.125 1:311 2:60 
-0.125 1:312 2:60 
-0.125 1:312 2:59 
-0.125 1:310 2:60 
-0.125 1:310 2:59 
-0.125 1:308 2:59 
-0.125 1:310 2:59 
-0.125 1:310 2:59 
-0.125 1:309 2:59 
-0.125 1:310 2:58 
-0.125 1:308 2:58 
-0.125 1:307 2:58 
-0.125 1:309 2:58 
-0.125 1:309 2:58 
-0.125 1:308 2:58 
-0.125 1:308 2:58 
-0.125 1:286 2:55 
-0.125 1:286 2:56 
-0.125 1:286 2:55 
-0.125 1:284 2:55 
-0.125 1:286 2:56 
-0.125 1:287 2:54 
-0.125 1:288 2:55 
-0.125 1:287 2:56 
-0.125 1:286 2:56 
-0.125 1:288 2:54 
-0.125 1:288 2:55 
-0.125 1:288 2:54 
-0.125 1:287 2:55 
-0.125 1:287 2:55 
-0.125 1:288 2:54 
-0.125 1:290 2:54 
-0.125 1:289 2:54 
-0.125 1:289 2:54 
-0.125 1:289 2:54 
-0.125 1:291 2:54 
-0.125 1:286 2:55 
-0.125 1:289 2:53 
-0.125 1:288 2:53 
-0.125 1:289 2:53 
-0.125 1:289 2:54 
-0.125 1:289 2:53 
-0.125 1:289 2:54 
-0.125 1:288 2:52 
-0.125 1:289 2:54 
-0.125 1:288 2:53 
-0.125 1:287 2:52 
-0.125 1:285 2:53 
-0.125 1:288 2:54 
-0.125 1:287 2:53 
-0.125 1:288 2:53 
-0.125 1:288 2:53 
-0.125 1:286 2:53 
-0.125 1:286 2:52 
-0.125 1:287 2:52 
-0.125 1:286 2:51 
-0.125 1:288 2:53 
-0.125 1:286 2:52 
-0.125 1:287 2:52 
-0.125 1:286 2:52 
-0.125 1:285 2:51 
-0.125 1:285 2:52 
-0.125 1:285 2:52 
-0.125 1:286 2:52 
-0.125 1:284 2:52 
-0.125 1:285 2:51 
-0.125 1:283 2:51 
-0.125 1:280 2:61 
-0.125 1:280 2:62 
-0.125 1:280 2:62 
-0.125 1:279 2:62 
-0.125 1:280 2:62 
-0.125 1:281 2:61 
-0.125 1:282 2:60 
-0.125 1:281 2:60 
-0.125 1:280 2:60 
-0.125 1:280 2:60 
-0.125 1:281 2:60 
-0.125 1:280 2:59 
-0.125 1:280 2:59 
-0.125 1:280 2:59 
-0.125 1:281 2:59 
-0.125 1:280 2:59 
-0.125 1:280 2:59 
-0.125 1:282 2:58 
-0.125 1:279 2:58 
-0.125 1:280 2:58 
-0.125 1:281 2:58 
-0.125 1:279 2:58 
-0.125 1:277 2:58 
-0.125 1:279 2:57 
-0.125 1:279 2:57 
-0.125 1:280 2:57 
-0.125 1:280 2:57 
-0.125 1:280 2:57 
-0.125 1:279 2:57 
-0.125 1:278 2:57 
-0.125 1:279 2:57 
-0.125 1:279 2:56 
-0.125 1:279 2:56 
-0.125 1:279 2:56 
-0.125 1:277 2:55 
-0.125 1:278 2:55 
-0.125 1:277 2:55 
-0.125 1:279 2:55 
-0.125 1:278 2:56 
-0.125 1:277 2:56 
-0.125 1:279 2:55 
-0.125 1:276 2:54 
-0.125 1:277 2:55 
-0.125 1:277 2:55 
-0.125 1:279 2:55 
-0.125 1:278 2:54 
-0.125 1:276 2:54 
-0.125 1:277 2:54 
-0.125 1:277 2:55 
-0.125 1:276 2:54 
-0.125 1:277 2:55 
-0.125 1:272 2:65 
-0.125 1:275 2:63 
-0.125 1:273 2:64 
-0.125 1:274 2:63 
-0.125 1:274 2:64 
-0.125 1:273 2:62 
-0.125 1:274 2:63 
-0.125 1:274 2:63 
-0.125 1:275 2:63 
-0.125 1:275 2:62 
-0.125 1:276 2:62 
-0.125 1:274 2:62 
-0.125 1:275 2:62 
-0.125 1:275 2:61 
-0.125 1:276 2:61 
-0.125 1:275 2:61 
-0.125 1:276 2:61 
-0.125 1:276 2:61 
-0.125 1:276 2:60 
-0.125 1:276 2:60 
-0.125 1:277 2:61 
-0.125 1:276 2:60 
-0.125 1:275 2:60 
-0.125 1:276 2:59 
-0.125 1:276 2:59 
-0.125 1:278 2:60 
-0.125 1:277 2:60 
-0.125 1:277 2:59 
-0.125 1:278 2:59 
-0.125 1:276 2:59 
-0.125 1:277 2:59 
-0.125 1:277 2:58 
-0.125 1:278 2:59 
-0.125 1:278 2:58 
-0.125 1:275 2:58 
-0.125 1:279 2:58 
-0.125 1:274 2:59 
-0.125 1:276 2:58 
-0.125 1:277 2:57 
-0.125 1:276 2:58 
-0.125 1:277 2:58 
-0.125 1:276 2:58 
-0.125 1:277 2:58 
-0.125 1:276 2:58 
-0.125 1:277 2:57 
-0.125 1:277 2:58 
-0.125 1:277 2:57 
-0.05534564623217544 1:276 2:57 
-0.125 1:276 2:57 
-0.125 1:276 2:57 
-0.125 1:269 2:60 
-0.125 1:268 2:60 
-0.125 1:269 2:59 
-0.125 1:271 2:60 
-0.125 1:269 2:59 
-0.125 1:270 2:59 
-0.125 1:270 2:60 
-0.125 1:270 2:59 
-0.125 1:272 2:59 
-0.125 1:272 2:59 
-0.125 1:272 2:59 
-0.125 1:271 2:59 
-0.125 1:272 2:59 
-0.125 1:274 2:58 
-0.125 1:273 2:58 
-0.125 1:274 2:59 
-0.125 1:274 2:59 
-0.125 1:273 2:58 
-0.125 1:273 2:58 
-0.125 1:274 2:58 
-0.125 1:275 2:57 
-0.125 1:275 2:57 
-0.125 1:273 2:58 
-0.125 1:275 2:58 
-0.125 1:277 2:58 
-0.125 1:276 2:57 
-0.125 1:276 2:57 
-0.125 1:275 2:58 
-0.125 1:275 2:56 
-0.125 1:277 2:56 
-0.125 1:276 2:57 
-0.125 1:276 2:56 
-0.125 1:277 2:57 
-0.125 1:276 2:56 
-0.125 1:276 2:57 
-0.125 1:277 2:57 
-0.125 1:279 2:56 
-0.125 1:277 2:57 
-0.125 1:276 2:56 
-0.125 1:277 2:56 
-0.125 1:278 2:56 
-0.1156554107087828 1:276 2:57 
-0.125 1:277 2:56 
-0.125 1:278 2:56 
-0.125 1:279 2:56 
-0.125 1:277 2:57 
-0.125 1:278 2:56 
-0.125 1:278 2:56 
-0.125 1:278 2:56 
-0.125 1:278 2:56 
-0.125 1:278 2:56 
-0.125 1:262 2:61 
-0.125 1:262 2:59 
-0.125 1:263 2:60 
-0.125 1:262 2:60 
-0.125 1:263 2:60 
-0.125 1:262 2:59 
-0.125 1:263 2:60 
-0.125 1:265 2:59 
-0.125 1:266 2:60 
-0.125 1:266 2:60 
-0.125 1:266 2:60 
-0.125 1:269 2:61 
-0.125 1:268 2:61 
-0.125 1:266 2:61 
-0.125 1:268 2:61 
-0.125 1:267 2:61 
-0.125 1:270 2:61 
-0.125 1:271 2:61 
-0.125 1:269 2:62 
-0.125 1:270 2:61 
-0.125 1:271 2:62 
-0.125 1:271 2:62 
-0.125 1:272 2:62 
-0.125 1:271 2:61 
-0.125 1:274 2:62 
-0.125 1:273 2:62 
-0.125 1:271 2:62 
-0.125 1:272 2:62 
-0.125 1:274 2:62 
-0.125 1:274 2:64 
-0.125 1:275 2:63 
-0.125 1:274 2:63 
-0.125 1:278 2:63 
-0.125 1:275 2:63 
-0.125 1:274 2:64 
-0.125 1:277 2:64 
-0.125 1:277 2:64 
-0.125 1:277 2:64 
-0.125 1:276 2:64 
-0.125 1:277 2:64 
-0.125 1:280 2:65 
-0.125 1:277 2:65 
-0.125 1:279 2:64 
-0.125 1:278 2:64 
-0.125 1:281 2:64 
-0.125 1:276 2:64 
-0.125 1:279 2:65 
-0.125 1:279 2:64 
-0.125 1:280 2:64 
-0.125 1:281 2:64 
-0.125 1:280 2:64 
-0.125 1:257 2:55 
-0.125 1:257 2:55 
-0.125 1:259 2:55 
-0.125 1:260 2:56 
-0.125 1:260 2:56 
-0.125 1:261 2:55 
-0.125 1:259 2:54 
-0.125 1:262 2:55 
-0.125 1:263 2:55 
-0.125 1:264 2:56 
-0.125 1:264 2:55 
-0.125 1:266 2:56 
-0.125 1:264 2:55 
-0.125 1:265 2:55 
-0.125 1:267 2:55 
-0.125 1:264 2:56 
-0.125 1:265 2:56 
-0.125 1:266 2:56 
-0.125 1:266 2:56 
-0.125 1:268 2:56 
-0.125 1:269 2:55 
-0.125 1:269 2:56 
-0.125 1:271 2:55 
-0.125 1:270 2:56 
-0.125 1:270 2:55 
-0.125 1:270 2:55 
-0.125 1:270 2:55 
-0.125 1:271 2:56 
-0.125 1:271 2:56 
-0.125 1:272 2:55 
-0.125 1:269 2:56 
-0.125 1:272 2:55 
-0.125 1:271 2:55 
-0.125 1:273 2:56 
-0.125 1:274 2:56 
-0.125 1:273 2:56 
-0.125 1:273 2:56 
-0.125 1:273 2:56 
-0.125 1:272 2:55 
-0.125 1:272 2:55 
-0.125 1:274 2:55 
-0.125 1:275 2:55 
-0.125 1:276 2:56 
-0.125 1:274 2:55 
-0.125 1:274 2:55 
-0.125 1:274 2:55 
-0.125 1:275 2:55 
-0.125 1:274 2:56 
-0.125 1:273 2:56 
-0.125 1:273 2:56 
-0.125 1:275 2:56 
-0.125 1:259 2:55 
-0.125 1:260 2:55 
-0.125 1:260 2:55 
-0.125 1:262 2:56 
-0.125 1:260 2:55 
-0.125 1:261 2:56 
-0.125 1:262 2:55 
-0.125 1:262 2:56 
-0.125 1:263 2:55 
-0.125 1:263 2:56 
-0.125 1:266 2:55 
-0.125 1:265 2:55 
-0.125 1:266 2:55 
-0.125 1:266 2:55 
-0.125 1:265 2:56 
-0.125 1:268 2:55 
-0.125 1:268 2:56 
-0.125 1:267 2:56 
-0.125 1:269 2:55 
-0.125 1:268 2:54 
-0.125 1:268 2:55 
-0.125 1:269 2:55 
-0.125 1:268 2:55 
-0.125 1:270 2:56 
-0.125 1:269 2:55 
-0.125 1:271 2:55 
-0.125 1:271 2:55 
-0.125 1:273 2:54 
-0.1237926792035593 1:273 2:55 
-0.125 1:273 2:55 
-0.125 1:273 2:54 
-0.125 1:273 2:56 
-0.125 1:273 2:56 
-0.125 1:274 2:54 
-0.125 1:273 2:55 
-0.125 1:273 2:55 
-0.125 1:273 2:55 
-0.125 1:273 2:55 
-0.125 1:274 2:56 
-0.125 1:274 2:55 
-0.125 1:275 2:55 
-0.125 1:274 2:55 
-0.125 1:275 2:55 
-0.125 1:275 2:55 
-0.125 1:274 2:56 
-0.125 1:273 2:55 
-0.125 1:274 2:56 
-0.125 1:274 2:55 
-0.125 1:275 2:55 
-0.125 1:275 2:55 
-0.125 1:252 2:52 
-0.125 1:253 2:52 
-0.125 1:255 2:53 
-0.125 1:256 2:53 
-0.125 1:255 2:53 
-0.125 1:256 2:53 
-0.125 1:256 2:52 
-0.125 1:258 2:52 
-0.125 1:258 2:52 
-0.125 1:259 2:53 
-0.125 1:260 2:53 
-0.125 1:260 2:52 
-0.125 1:262 2:52 
-0.125 1:261 2:52 
-0.125 1:262 2:52 
-0.125 1:263 2:52 
-0.125 1:262 2:52 
-0.125 1:263 2:52 
-0.125 1:265 2:52 
-0.125 1:263 2:53 
-0.125 1:266 2:52 
-0.125 1:265 2:53 
-0.125 1:265 2:52 
-0.125 1:266 2:52 
-0.125 1:266 2:52 
-0.125 1:267 2:52 
-0.125 1:267 2:52 
-0.125 1:268 2:53 
-0.125 1:268 2:52 
-0.125 1:269 2:52 
-0.125 1:270 2:52 
-0.125 1:268 2:53 
-0.125 1:269 2:52 
-0.125 1:270 2:52 
-0.125 1:270 2:53 
-0.125 1:270 2:53 
-0.125 1:269 2:53 
-0.125 1:270 2:52 
-0.125 1:270 2:52 
-0.125 1:270 2:52 
-0.125 1:272 2:52 
-0.125 1:271 2:52 
-0.125 1:270 2:51 
-0.125 1:271 2:52 
-0.125 1:272 2:51 
-0.125 1:271 2:52 
-0.125 1:272 2:53 
-0.125 1:271 2:53 
-0.125 1:271 2:52 
-0.125 1:272 2:52 
-0.125 1:272 2:52 
