svm_type c_svc
kernel_type rbf
gamma 2
nr_class 2
total_sv 862
rho -0.256135
label 1 -1
nr_sv 438 424
SV
0.25 1:908 2:864 
0.25 1:907 2:863 
0.25 1:906 2:863 
0.25 1:906 2:864 
0.25 1:905 2:863 
0.25 1:905 2:864 
0.25 1:906 2:864 
0.25 1:905 2:865 
0.206626370195197 1:901 2:863 
0.25 1:900 2:862 
0.25 1:901 2:863 
0.25 1:903 2:864 
0.25 1:900 2:863 
0.2103160972823277 1:901 2:863 
0.25 1:901 2:862 
0.25 1:896 2:858 
0.25 1:895 2:858 
0.25 1:896 2:859 
0.25 1:893 2:856 
0.25 1:893 2:858 
0.25 1:894 2:858 
0.25 1:894 2:859 
0.25 1:892 2:857 
0.25 1:894 2:861 
0.25 1:895 2:862 
0.09944834908546167 1:897 2:864 
0.25 1:900 2:864 
0.25 1:896 2:861 
0.07460612646634887 1:895 2:861 
0.25 1:895 2:862 
0.25 1:895 2:861 
0.25 1:897 2:865 
0.25 1:892 2:859 
0.25 1:891 2:859 
0.25 1:892 2:858 
0.25 1:894 2:861 
0.25 1:896 2:863 
0.25 1:896 2:864 
0.25 1:896 2:864 
0.25 1:897 2:865 
0.25 1:892 2:858 
0.25 1:887 2:855 
0.25 1:890 2:859 
0.25 1:890 2:857 
0.25 1:889 2:856 
0.25 1:887 2:855 
0.25 1:889 2:857 
0.25 1:892 2:861 
0.25 1:891 2:861 
0.25 1:892 2:860 
0.25 1:892 2:861 
0.25 1:933 2:887 
0.25 1:936 2:890 
0.25 1:936 2:890 
0.25 1:930 2:887 
0.25 1:929 2:884 
0.25 1:925 2:882 
0.25 1:928 2:885 
0.25 1:928 2:886 
0.04980350940034843 1:927 2:886 
0.25 1:926 2:883 
0.1318907356544709 1:931 2:889 
0.25 1:931 2:890 
0.25 1:932 2:891 
0.25 1:933 2:891 
0.1183043242053317 1:932 2:890 
0.08660130867908927 1:929 2:890 
0.05260365164072195 1:930 2:890 
0.120405968030981 1:926 2:886 
0.25 1:920 2:882 
0.03496629512403618 1:924 2:886 
0.25 1:929 2:890 
0.25 1:928 2:890 
0.25 1:930 2:890 
0.006056841931532194 1:927 2:889 
0.25 1:928 2:891 
0.25 1:927 2:890 
0.25 1:927 2:888 
0.2375180114355541 1:922 2:884 
0.25 1:920 2:882 
0.2400826960056253 1:927 2:890 
0.06406963317165583 1:924 2:888 
0.25 1:925 2:889 
0.05265225838657418 1:926 2:888 
0.25 1:920 2:883 
0.2176627586713103 1:922 2:884 
0.25 1:926 2:890 
0.25 1:924 2:888 
0.25 1:924 2:886 
0.25 1:918 2:884 
0.25 1:916 2:882 
0.25 1:925 2:890 
0.04466740055604226 1:921 2:885 
0.25 1:921 2:886 
0.25 1:895 2:861 
0.25 1:897 2:864 
0.25 1:894 2:863 
0.25 1:896 2:865 
0.25 1:895 2:865 
0.25 1:887 2:856 
0.25 1:890 2:860 
0.25 1:889 2:860 
0.25 1:894 2:865 
0.25 1:891 2:863 
0.25 1:894 2:865 
0.25 1:893 2:865 
0.25 1:889 2:862 
0.25 1:888 2:860 
0.25 1:884 2:858 
0.25 1:883 2:857 
0.25 1:885 2:860 
0.1737937184149954 1:887 2:862 
0.25 1:889 2:862 
0.09444600373347327 1:889 2:863 
0.25 1:890 2:864 
0.25 1:889 2:864 
0.25 1:887 2:862 
0.25 1:883 2:858 
0.25 1:881 2:857 
0.25 1:882 2:858 
0.25 1:883 2:860 
0.25 1:887 2:864 
0.25 1:883 2:861 
0.25 1:884 2:861 
0.25 1:884 2:861 
0.25 1:880 2:857 
0.25 1:883 2:862 
0.06228932634403171 1:884 2:863 
0.1427514786269217 1:882 2:860 
0.25 1:882 2:860 
0.25 1:878 2:857 
0.25 1:878 2:857 
0.1785593709627486 1:879 2:858 
0.25 1:880 2:860 
0.02150985612379891 1:884 2:862 
0.08513029981613786 1:879 2:859 
0.25 1:879 2:858 
0.25 1:880 2:861 
0.25 1:876 2:856 
0.25 1:875 2:856 
0.25 1:876 2:858 
0.1005007640516979 1:882 2:862 
0.25 1:879 2:859 
0.25 1:881 2:861 
0.25 1:879 2:860 
0.25 1:927 2:883 
0.25 1:925 2:880 
0.25 1:930 2:884 
0.25 1:931 2:887 
0.25 1:932 2:887 
0.25 1:930 2:887 
0.25 1:931 2:888 
0.25 1:928 2:884 
0.25 1:928 2:885 
0.25 1:928 2:886 
0.25 1:926 2:884 
0.25 1:926 2:884 
0.25 1:921 2:881 
0.25 1:920 2:879 
0.25 1:921 2:880 
0.25 1:922 2:882 
0.01137370372852854 1:919 2:879 
0.25 1:923 2:884 
0.25 1:922 2:883 
0.25 1:925 2:885 
0.25 1:925 2:885 
0.04554142170004299 1:924 2:885 
0.25 1:924 2:886 
0.25 1:923 2:885 
0.25 1:919 2:879 
0.2111235897922892 1:916 2:878 
0.25 1:922 2:883 
0.008751525445573005 1:922 2:885 
0.25 1:916 2:878 
0.25 1:915 2:878 
0.25 1:918 2:882 
0.07559779291956382 1:923 2:886 
0.25 1:922 2:886 
0.25 1:918 2:881 
0.25 1:916 2:880 
0.25 1:917 2:880 
0.25 1:921 2:885 
0.25 1:922 2:885 
0.25 1:918 2:881 
0.25 1:919 2:883 
0.25 1:913 2:878 
0.25 1:911 2:876 
0.25 1:916 2:883 
0.25 1:917 2:883 
0.25 1:919 2:883 
0.25 1:895 2:863 
0.25 1:894 2:863 
0.25 1:897 2:864 
0.25 1:891 2:858 
0.25 1:888 2:859 
0.25 1:890 2:861 
0.25 1:888 2:858 
0.25 1:889 2:859 
0.25 1:888 2:861 
0.25 1:886 2:858 
0.25 1:889 2:861 
0.25 1:886 2:859 
0.25 1:885 2:857 
0.25 1:887 2:861 
0.25 1:887 2:859 
0.25 1:886 2:860 
0.25 1:889 2:863 
0.25 1:889 2:863 
0.25 1:890 2:865 
0.25 1:892 2:867 
0.25 1:891 2:866 
0.25 1:888 2:863 
0.25 1:888 2:864 
0.2309423444454131 1:887 2:862 
0.25 1:888 2:864 
0.25 1:883 2:861 
0.25 1:884 2:862 
0.25 1:884 2:863 
0.1777505454135228 1:886 2:863 
0.25 1:885 2:863 
0.25 1:887 2:863 
0.2468931881564837 1:884 2:862 
0.25 1:886 2:863 
0.25 1:885 2:862 
0.25 1:887 2:865 
0.2269447404037947 1:886 2:863 
0.25 1:880 2:859 
0.2172933635778461 1:879 2:858 
0.2405467836882804 1:882 2:860 
0.2419278110197507 1:882 2:861 
0.25 1:884 2:864 
0.25 1:882 2:862 
0.25 1:884 2:863 
0.18563577611788 1:882 2:861 
0.25 1:884 2:864 
0.25 1:881 2:862 
0.25 1:876 2:856 
0.25 1:875 2:855 
0.2490730151658622 1:879 2:859 
0.2490913460263117 1:882 2:862 
0.25 1:881 2:861 
0.25 1:929 2:880 
0.25 1:928 2:881 
0.25 1:927 2:880 
0.25 1:926 2:880 
0.25 1:926 2:881 
0.25 1:927 2:882 
0.25 1:923 2:878 
0.25 1:919 2:875 
0.25 1:921 2:877 
0.25 1:924 2:881 
0.25 1:927 2:883 
0.25 1:925 2:879 
0.25 1:924 2:880 
0.25 1:923 2:880 
0.25 1:923 2:879 
0.25 1:920 2:876 
0.25 1:919 2:876 
0.25 1:918 2:875 
0.25 1:916 2:875 
0.25 1:921 2:878 
0.02022618161963803 1:920 2:880 
0.1391120712415318 1:922 2:880 
0.25 1:921 2:879 
0.25 1:922 2:880 
0.25 1:921 2:879 
0.2273323760003699 1:921 2:880 
0.25 1:918 2:876 
0.25 1:917 2:876 
0.25 1:916 2:875 
0.25 1:920 2:880 
0.1870173202710613 1:918 2:879 
0.2376553404183163 1:922 2:880 
0.2481742691818825 1:919 2:879 
0.25 1:918 2:877 
0.25 1:912 2:874 
0.25 1:915 2:875 
0.25 1:920 2:880 
0.25 1:920 2:879 
0.25 1:919 2:880 
0.25 1:918 2:879 
0.2238056568554196 1:918 2:879 
0.25 1:913 2:874 
0.25 1:912 2:873 
0.25 1:912 2:873 
0.25 1:917 2:877 
0.25 1:915 2:878 
0.210467965500753 1:916 2:878 
0.25 1:913 2:874 
0.25 1:911 2:872 
0.25 1:911 2:875 
0.25 1:919 2:880 
0.25 1:931 2:883 
0.25 1:932 2:885 
0.25 1:930 2:884 
0.25 1:931 2:886 
0.25 1:928 2:883 
0.25 1:929 2:884 
0.25 1:931 2:887 
0.25 1:931 2:886 
0.25 1:930 2:886 
0.25 1:933 2:889 
0.25 1:933 2:889 
0.25 1:932 2:890 
0.2079818610609404 1:931 2:890 
0.25 1:934 2:892 
0.25 1:932 2:892 
0.25 1:933 2:893 
0.25 1:933 2:892 
0.25 1:931 2:891 
0.25 1:926 2:886 
0.09763964941134194 1:928 2:888 
0.2259126503917815 1:927 2:888 
0.25 1:927 2:889 
0.25 1:930 2:891 
0.232074495381747 1:928 2:890 
0.25 1:925 2:886 
0.25 1:923 2:884 
0.25 1:927 2:887 
0.25 1:929 2:892 
0.2483566096850092 1:929 2:890 
0.25 1:929 2:892 
0.25 1:926 2:888 
0.25 1:927 2:889 
0.2481195758269837 1:922 2:885 
0.02118090930321295 1:921 2:884 
0.25 1:925 2:888 
0.25 1:928 2:891 
0.25 1:926 2:890 
0.25 1:925 2:890 
0.25 1:920 2:886 
0.25 1:919 2:885 
0.25 1:924 2:889 
0.25 1:924 2:889 
0.1415741238951816 1:922 2:887 
0.1532912797671495 1:917 2:882 
0.25 1:915 2:881 
0.25 1:929 2:886 
0.25 1:932 2:890 
0.25 1:929 2:888 
0.25 1:927 2:886 
0.25 1:927 2:886 
0.25 1:928 2:888 
0.2494409050613657 1:928 2:888 
0.25 1:928 2:889 
0.2416930218538908 1:926 2:886 
0.25 1:924 2:885 
0.25 1:924 2:885 
0.25 1:926 2:888 
0.25 1:923 2:886 
0.2266552724496575 1:925 2:888 
0.2468211602705768 1:923 2:886 
0.25 1:922 2:887 
0.25 1:921 2:884 
0.25 1:919 2:884 
0.25 1:920 2:884 
0.2460741550180818 1:921 2:884 
0.25 1:920 2:884 
0.25 1:921 2:885 
0.25 1:922 2:888 
0.25 1:917 2:882 
0.2252344102016247 1:917 2:882 
0.25 1:913 2:879 
0.25 1:912 2:880 
0.25 1:912 2:879 
0.25 1:911 2:877 
0.25 1:913 2:881 
0.25 1:915 2:883 
0.25 1:915 2:884 
0.25 1:917 2:886 
0.25 1:915 2:883 
0.25 1:914 2:884 
0.25 1:916 2:885 
0.25 1:912 2:880 
0.25 1:911 2:881 
0.25 1:908 2:877 
0.25 1:914 2:884 
0.25 1:910 2:881 
0.2041464150385548 1:912 2:882 
0.25 1:909 2:879 
0.25 1:909 2:878 
0.25 1:907 2:878 
0.25 1:911 2:881 
0.25 1:910 2:880 
0.25 1:909 2:880 
0.25 1:905 2:878 
0.25 1:909 2:881 
0.25 1:907 2:879 
0.25 1:930 2:888 
0.25 1:931 2:889 
0.2394697849135604 1:931 2:889 
0.25 1:930 2:890 
0.25 1:936 2:895 
0.25 1:932 2:894 
0.25 1:932 2:893 
0.25 1:934 2:896 
0.25 1:926 2:889 
0.25 1:925 2:887 
0.25 1:925 2:887 
0.2493307667695166 1:924 2:888 
0.25 1:928 2:892 
0.25 1:931 2:895 
0.25 1:931 2:896 
0.25 1:928 2:893 
0.25 1:927 2:891 
0.25 1:928 2:892 
0.25 1:923 2:888 
0.25 1:922 2:888 
0.2309096978946131 1:922 2:887 
0.25 1:919 2:884 
0.25 1:920 2:888 
0.25 1:921 2:889 
0.25 1:919 2:887 
0.25 1:922 2:890 
0.25 1:923 2:891 
0.25 1:925 2:893 
0.25 1:921 2:889 
0.25 1:922 2:891 
0.25 1:923 2:892 
0.2257871114549664 1:921 2:889 
0.25 1:914 2:883 
0.25 1:914 2:885 
0.25 1:912 2:882 
0.25 1:911 2:882 
0.2083275039275248 1:912 2:882 
0.2467858878721698 1:911 2:882 
0.1515399027230537 1:910 2:882 
0.25 1:910 2:882 
0.2274382285314339 1:910 2:882 
0.25 1:913 2:886 
0.25 1:911 2:885 
0.25 1:912 2:885 
0.25 1:913 2:886 
0.25 1:915 2:888 
0.25 1:911 2:885 
0.25 1:912 2:885 
0.25 1:913 2:888 
0.25 1:909 2:884 
-0.25 1:315 2:68 
-0.25 1:317 2:70 
-0.25 1:319 2:69 
-0.25 1:319 2:69 
-0.25 1:318 2:68 
-0.25 1:318 2:68 
-0.25 1:318 2:68 
-0.25 1:318 2:67 
-0.25 1:318 2:67 
-0.25 1:316 2:66 
-0.25 1:316 2:65 
-0.25 1:317 2:65 
-0.25 1:317 2:66 
-0.25 1:317 2:65 
-0.25 1:316 2:65 
-0.25 1:317 2:64 
-0.25 1:316 2:64 
-0.25 1:314 2:64 
-0.25 1:315 2:63 
-0.25 1:316 2:63 
-0.25 1:313 2:63 
-0.25 1:314 2:62 
-0.25 1:314 2:61 
-0.25 1:314 2:62 
-0.25 1:314 2:62 
-0.25 1:312 2:62 
-0.25 1:313 2:62 
-0.25 1:314 2:61 
-0.25 1:312 2:61 
-0.25 1:311 2:61 
-0.25 1:312 2:61 
-0.25 1:310 2:61 
-0.25 1:313 2:60 
-0.25 1:312 2:60 
-0.25 1:311 2:60 
-0.25 1:311 2:60 
-0.25 1:312 2:60 
-0.25 1:312 2:59 
-0.25 1:310 2:60 
-0.25 1:310 2:59 
-0.25 1:308 2:59 
-0.25 1:310 2:59 
-0.25 1:310 2:59 
-0.25 1:309 2:59 
-0.25 1:310 2:58 
-0.25 1:308 2:58 
-0.25 1:307 2:58 
-0.25 1:309 2:58 
-0.25 1:309 2:58 
-0.25 1:308 2:58 
-0.25 1:308 2:58 
-0.25 1:286 2:55 
-0.25 1:286 2:56 
-0.25 1:286 2:55 
-0.25 1:284 2:55 
-0.25 1:286 2:56 
-0.25 1:287 2:54 
-0.25 1:288 2:55 
-0.25 1:287 2:56 
-0.25 1:286 2:56 
-0.120405968030981 1:288 2:54 
-0.25 1:288 2:55 
-0.25 1:288 2:54 
-0.25 1:287 2:55 
-0.25 1:287 2:55 
-0.25 1:288 2:54 
-0.25 1:290 2:54 
-0.2266898533228893 1:289 2:54 
-0.25 1:291 2:54 
-0.25 1:286 2:55 
-0.25 1:289 2:53 
-0.25 1:289 2:53 
-0.25 1:289 2:54 
-0.25 1:289 2:53 
-0.25 1:289 2:54 
-0.25 1:288 2:52 
-0.25 1:289 2:54 
-0.1832863994166641 1:288 2:53 
-0.25 1:287 2:52 
-0.25 1:285 2:53 
-0.2481742691818825 1:288 2:54 
-0.25 1:287 2:53 
-0.25 1:288 2:53 
-0.25 1:288 2:53 
-0.25 1:286 2:53 
-0.25 1:286 2:52 
-0.25 1:287 2:52 
-0.25 1:286 2:51 
-0.25 1:288 2:53 
-0.25 1:286 2:52 
-0.25 1:287 2:52 
-0.25 1:286 2:52 
-0.25 1:285 2:51 
-0.25 1:285 2:52 
-0.25 1:285 2:52 
-0.25 1:286 2:52 
-0.25 1:284 2:52 
-0.25 1:285 2:51 
-0.25 1:283 2:51 
-0.25 1:280 2:61 
-0.25 1:280 2:62 
-0.25 1:280 2:62 
-0.25 1:279 2:62 
-0.25 1:280 2:62 
-0.25 1:281 2:61 
-0.25 1:282 2:60 
-0.25 1:281 2:60 
-0.25 1:280 2:60 
-0.25 1:280 2:60 
-0.25 1:281 2:60 
-0.09359611205706429 1:280 2:59 
-0.25 1:280 2:59 
-0.25 1:280 2:59 
-0.25 1:281 2:59 
-0.25 1:280 2:59 
-0.2492241948345132 1:280 2:59 
-0.25 1:282 2:58 
-0.25 1:279 2:58 
-0.25 1:280 2:58 
-0.25 1:281 2:58 
-0.25 1:279 2:58 
-0.1224166304513079 1:279 2:57 
-0.25 1:279 2:57 
-0.25 1:280 2:57 
-0.25 1:280 2:57 
-0.25 1:280 2:57 
-0.25 1:279 2:57 
-0.25 1:278 2:57 
-0.25 1:279 2:57 
-0.1532912797671495 1:279 2:56 
-0.25 1:279 2:56 
-0.25 1:278 2:55 
-0.04182398646089437 1:277 2:55 
-0.25 1:279 2:55 
-0.25 1:279 2:55 
-0.25 1:276 2:54 
-0.25 1:277 2:55 
-0.25 1:277 2:55 
-0.25 1:279 2:55 
-0.25 1:278 2:54 
-0.25 1:276 2:54 
-0.25 1:277 2:54 
-0.25 1:277 2:55 
-0.25 1:276 2:54 
-0.2451940628546066 1:277 2:55 
-0.25 1:272 2:65 
-0.25 1:275 2:63 
-0.25 1:273 2:64 
-0.1449163313349827 1:274 2:63 
-0.25 1:274 2:64 
-0.25 1:273 2:62 
-0.25 1:274 2:63 
-0.25 1:274 2:63 
-0.25 1:275 2:63 
-0.25 1:275 2:62 
-0.25 1:276 2:62 
-0.25 1:274 2:62 
-0.25 1:275 2:62 
-0.25 1:275 2:61 
-0.25 1:276 2:61 
-0.25 1:275 2:61 
-0.25 1:276 2:61 
-0.25 1:276 2:61 
-0.25 1:276 2:60 
-0.25 1:276 2:60 
-0.25 1:277 2:61 
-0.25 1:276 2:60 
-0.25 1:275 2:60 
-0.25 1:276 2:59 
-0.25 1:276 2:59 
-0.25 1:278 2:60 
-0.25 1:277 2:60 
-0.25 1:277 2:59 
-0.25 1:278 2:59 
-0.25 1:276 2:59 
-0.25 1:277 2:59 
-0.25 1:278 2:59 
-0.25 1:278 2:58 
-0.25 1:275 2:58 
-0.25 1:279 2:58 
-0.25 1:274 2:59 
-0.04865605550870507 1:276 2:58 
-0.25 1:276 2:58 
-0.1415741238951816 1:277 2:58 
-0.25 1:276 2:58 
-0.25 1:277 2:58 
-0.2421094934243032 1:276 2:58 
-0.25 1:277 2:58 
-0.25 1:269 2:60 
-0.25 1:268 2:60 
-0.25 1:269 2:59 
-0.25 1:271 2:60 
-0.25 1:269 2:59 
-0.25 1:270 2:59 
-0.25 1:270 2:60 
-0.25 1:270 2:59 
-0.25 1:272 2:59 
-0.25 1:272 2:59 
-0.25 1:272 2:59 
-0.25 1:271 2:59 
-0.25 1:272 2:59 
-0.25 1:274 2:58 
-0.25 1:273 2:58 
-0.25 1:274 2:59 
-0.25 1:274 2:59 
-0.25 1:273 2:58 
-0.25 1:273 2:58 
-0.25 1:274 2:58 
-0.25 1:275 2:57 
-0.25 1:275 2:57 
-0.25 1:273 2:58 
-0.25 1:275 2:58 
-0.2490913460263117 1:277 2:58 
-0.06808893422722669 1:276 2:57 
-0.25 1:275 2:58 
-0.25 1:275 2:56 
-0.25 1:277 2:56 
-0.25 1:276 2:57 
-0.1692089447638758 1:276 2:56 
-0.09785581258563274 1:277 2:57 
-0.25 1:276 2:56 
-0.25 1:276 2:57 
-0.25 1:277 2:57 
-0.25 1:279 2:56 
-0.25 1:277 2:57 
-0.25 1:276 2:56 
-0.25 1:277 2:56 
-0.2218508593659317 1:276 2:57 
-0.2303247590135145 1:277 2:56 
-0.237750209484975 1:279 2:56 
-0.2441476509481079 1:277 2:57 
-0.1539551351054463 1:278 2:56 
-0.25 1:278 2:56 
-0.25 1:278 2:56 
-0.25 1:278 2:56 
-0.25 1:262 2:61 
-0.25 1:262 2:59 
-0.25 1:263 2:60 
-0.25 1:262 2:60 
-0.25 1:263 2:60 
-0.25 1:262 2:59 
-0.25 1:263 2:60 
-0.25 1:265 2:59 
-0.25 1:266 2:60 
-0.25 1:266 2:60 
-0.25 1:266 2:60 
-0.25 1:269 2:61 
-0.25 1:268 2:61 
-0.25 1:266 2:61 
-0.25 1:268 2:61 
-0.25 1:267 2:61 
-0.25 1:270 2:61 
-0.25 1:271 2:61 
-0.25 1:269 2:62 
-0.25 1:270 2:61 
-0.25 1:271 2:62 
-0.25 1:271 2:62 
-0.25 1:272 2:62 
-0.25 1:271 2:61 
-0.25 1:274 2:62 
-0.25 1:273 2:62 
-0.25 1:271 2:62 
-0.25 1:272 2:62 
-0.25 1:274 2:62 
-0.25 1:274 2:64 
-0.25 1:275 2:63 
-0.25 1:274 2:63 
-0.25 1:278 2:63 
-0.25 1:275 2:63 
-0.25 1:274 2:64 
-0.25 1:277 2:64 
-0.25 1:277 2:64 
-0.25 1:277 2:64 
-0.25 1:276 2:64 
-0.25 1:277 2:64 
-0.25 1:280 2:65 
-0.25 1:277 2:65 
-0.25 1:279 2:64 
-0.25 1:278 2:64 
-0.25 1:281 2:64 
-0.25 1:276 2:64 
-0.25 1:279 2:65 
-0.25 1:279 2:64 
-0.25 1:280 2:64 
-0.25 1:281 2:64 
-0.25 1:280 2:64 
-0.25 1:257 2:55 
-0.25 1:257 2:55 
-0.25 1:259 2:55 
-0.25 1:260 2:56 
-0.25 1:260 2:56 
-0.25 1:261 2:55 
-0.25 1:259 2:54 
-0.25 1:262 2:55 
-0.25 1:263 2:55 
-0.25 1:264 2:56 
-0.25 1:264 2:55 
-0.25 1:266 2:56 
-0.25 1:264 2:55 
-0.25 1:265 2:55 
-0.25 1:267 2:55 
-0.25 1:264 2:56 
-0.25 1:265 2:56 
-0.25 1:266 2:56 
-0.25 1:266 2:56 
-0.25 1:268 2:56 
-0.2173544604046251 1:269 2:55 
-0.25 1:269 2:56 
-0.1936358354848477 1:271 2:55 
-0.25 1:270 2:56 
-0.25 1:270 2:55 
-0.25 1:270 2:55 
-0.25 1:270 2:55 
-0.25 1:271 2:56 
-0.25 1:271 2:56 
-0.2375180114355541 1:272 2:55 
-0.25 1:269 2:56 
-0.25 1:272 2:55 
-0.25 1:271 2:55 
-0.25 1:272 2:55 
-0.2474271828754079 1:272 2:55 
-0.25 1:276 2:56 
-0.08591165484572241 1:274 2:55 
-0.1501288178691766 1:274 2:56 
-0.2436016409008531 1:273 2:56 
-0.25 1:273 2:56 
-0.25 1:275 2:56 
-0.25 1:259 2:55 
-0.25 1:260 2:55 
-0.25 1:260 2:55 
-0.25 1:262 2:56 
-0.25 1:260 2:55 
-0.25 1:261 2:56 
-0.25 1:262 2:55 
-0.25 1:262 2:56 
-0.25 1:263 2:55 
-0.25 1:263 2:56 
-0.25 1:266 2:55 
-0.25 1:265 2:55 
-0.25 1:266 2:55 
-0.25 1:266 2:55 
-0.25 1:265 2:56 
-0.25 1:268 2:55 
-0.25 1:268 2:56 
-0.25 1:267 2:56 
-0.25 1:269 2:55 
-0.25 1:268 2:54 
-0.25 1:268 2:55 
-0.25 1:269 2:55 
-0.25 1:268 2:55 
-0.25 1:270 2:56 
-0.2447576676889154 1:269 2:55 
-0.25 1:271 2:55 
-0.25 1:271 2:55 
-0.25 1:273 2:54 
-0.25 1:273 2:54 
-0.25 1:273 2:56 
-0.25 1:273 2:56 
-0.25 1:274 2:54 
-0.04522631239846704 1:273 2:55 
-0.25 1:273 2:55 
-0.25 1:273 2:55 
-0.25 1:274 2:56 
-0.25 1:274 2:55 
-0.02615917459156697 1:275 2:55 
-0.25 1:274 2:55 
-0.25 1:275 2:55 
-0.25 1:275 2:55 
-0.25 1:274 2:56 
-0.242771598497069 1:273 2:55 
-0.25 1:274 2:56 
-0.2323188217818586 1:274 2:55 
-0.25 1:275 2:55 
-0.2490730151658622 1:275 2:55 
-0.25 1:252 2:52 
-0.25 1:253 2:52 
-0.25 1:255 2:53 
-0.25 1:256 2:53 
-0.25 1:255 2:53 
-0.25 1:256 2:53 
-0.25 1:256 2:52 
-0.25 1:258 2:52 
-0.25 1:258 2:52 
-0.25 1:259 2:53 
-0.25 1:260 2:53 
-0.25 1:260 2:52 
-0.25 1:262 2:52 
-0.25 1:261 2:52 
-0.25 1:262 2:52 
-0.25 1:263 2:52 
-0.25 1:262 2:52 
-0.25 1:263 2:52 
-0.25 1:265 2:52 
-0.25 1:263 2:53 
-0.25 1:266 2:52 
-0.25 1:265 2:53 
-0.25 1:265 2:52 
-0.25 1:266 2:52 
-0.25 1:266 2:52 
-0.25 1:267 2:52 
-0.25 1:267 2:52 
-0.25 1:268 2:53 
-0.25 1:268 2:52 
-0.25 1:269 2:52 
-0.25 1:268 2:53 
-0.25 1:269 2:52 
-0.1979767270331609 1:270 2:52 
-0.25 1:270 2:53 
-0.25 1:270 2:53 
-0.25 1:269 2:53 
-0.25 1:270 2:52 
-0.25 1:270 2:52 
-0.2483261701188976 1:270 2:52 
-0.25 1:272 2:52 
-0.2195071582363358 1:271 2:52 
-0.25 1:270 2:51 
-0.25 1:271 2:52 
-0.25 1:272 2:51 
-0.25 1:271 2:52 
-0.25 1:272 2:53 
-0.25 1:271 2:53 
-0.25 1:271 2:52 
-0.25 1:272 2:52 
-0.25 1:272 2:52 
